450 32
22 0.289931 0.649884 -1.047302 -0.063477 0.818765 0.081883 0.724024 0.086632 0.154852 0.303285 -1.586233 0.748156 -0.016716 -0.501653 -0.399815 -0.600818 -0.014119 -0.933631 -0.072615 0.287809 -0.991502 -0.155708 0.006811 -1.147973 -0.018777 0.327858 -0.058863 0.727446 -1.099540 -0.275654 0.315454 -0.493312
25 0.459303 0.349456 -0.319184 -0.752056 -0.376099 1.022990 -0.594025 0.510869 -0.311463 -0.035800 -0.907245 0.634009 -0.262956 0.520961 -0.216835 -0.538225 -0.542471 -0.304850 -0.033428 0.835343 0.057146 0.266617 -1.439923 -0.799774 -0.324823 -0.738597 -0.388702 0.747483 -1.021644 -0.552708 0.938520 -1.839275
120 -0.078772 -0.498661 -1.058066 -0.315675 -0.499444 -0.848670 0.481123 0.182208 -0.164597 0.744727 -1.109788 0.748183 -0.308827 0.259111 0.783874 -1.357823 0.309192 -0.142707 0.238786 -0.481908 -0.943884 0.359100 -1.498013 -0.798704 -0.760335 -0.477781 -0.848405 -0.592935 -0.783702 0.281108 0.702432 -1.084519
825 0.892913 0.235611 -0.705269 -0.952384 -0.494481 0.737170 1.057283 -0.938842 1.085008 1.166491 -1.438564 0.875887 0.201583 -1.192929 0.667263 -0.077029 -0.144978 -0.810039 -0.723478 0.732039 0.034499 -0.266284 -1.275171 -0.462340 -0.777061 -0.363742 0.123257 0.055411 0.155625 -0.035930 0.702636 0.803520
696 0.381962 1.243177 -1.000958 -0.129673 -1.120630 0.718622 0.716847 -1.040097 -0.191715 0.184983 -0.300814 0.187057 -0.486757 -0.747701 0.686501 -0.483782 -0.378831 0.381844 -0.386407 -1.216276 -0.571266 0.336296 -0.387544 -0.866016 0.099473 0.454931 0.810498 1.121724 -0.745382 -0.376439 1.085926 -0.739537
882 0.754010 0.492150 -0.624235 -0.733092 -0.378014 0.623098 0.538122 0.133119 0.255807 0.749779 -1.108760 0.899880 -0.347314 0.085348 0.295410 -0.922927 0.307743 -0.280514 -0.256750 -0.462288 -1.188041 0.791262 -1.288077 -0.150065 -0.039238 -0.102326 -0.202171 0.868283 -0.890385 -0.126558 0.939134 -0.755375
1261 1.724285 1.086227 -0.632846 -0.672386 -0.898194 0.461860 0.608312 0.024371 -0.540328 0.240811 -1.147740 1.451037 0.379978 -0.211273 -0.266910 -1.264657 -0.943489 0.065938 0.402664 -0.444514 -0.537191 -0.494670 -0.820849 0.021657 -1.459564 0.032562 -0.203920 0.039546 -0.802301 -0.847622 0.180565 0.302920
2 1.903187 0.893891 -0.520874 -0.559609 -0.662981 0.902354 0.656980 0.047394 -0.438638 -0.042304 -1.317733 1.021389 0.751307 -0.316766 -0.320622 -1.253836 -1.066762 0.299172 0.235416 -0.514844 -0.390895 -0.264885 -0.572476 -0.022538 -1.577380 0.062243 -0.175838 0.400537 -0.926549 -0.835035 0.659213 0.235633
676 0.724523 -0.915963 -0.665371 -0.887227 -0.181550 1.140859 -0.095463 0.020319 0.498423 0.034057 -0.033269 0.634808 -1.014809 -0.692334 0.640593 -1.261489 0.156679 -0.691867 0.394225 -0.131808 -1.507836 1.029162 -0.912148 -0.791860 -0.730988 -0.641567 1.120991 0.483529 -0.499351 -0.615441 0.632270 -0.509468
240 0.746119 0.355737 -0.511242 -0.383413 0.103244 0.735141 0.805260 0.097073 -0.851664 1.571366 -0.726849 -0.179002 0.623317 0.267722 -0.248042 -1.370388 -0.161987 -2.113124 0.782176 -0.975150 -0.639150 -0.093448 -1.052287 0.388659 -0.935579 0.393733 0.512735 0.700010 -0.613316 0.273083 0.893741 -0.140905
921 0.730251 0.462423 0.098007 -0.679074 -0.679434 1.002433 0.982055 0.997885 0.681174 0.965830 -0.433452 0.431089 -1.135893 1.137620 -0.444462 -0.624722 0.481737 -1.311015 0.198912 0.286633 -1.656193 -0.029830 -0.510203 -0.169462 0.125730 -0.091367 -0.346550 0.342741 -0.167949 -0.055650 0.173527 -1.061958
897 0.956734 1.494690 -1.474225 -0.517414 0.468339 1.565596 0.124337 -0.358179 0.423658 -0.303025 -0.722875 0.442006 -0.109883 0.836065 0.276731 -1.013558 -0.162516 -0.496901 0.744929 0.102419 -1.085529 0.310934 -1.645862 -0.089334 -0.411027 0.528314 -0.353218 0.017916 0.145003 1.050438 0.366431 -0.055102
350 1.810466 0.392471 -0.400214 -1.233521 -0.545331 -0.327328 1.057238 0.352246 1.567391 0.318168 -0.802751 0.808558 -0.559980 -0.248885 -1.219759 0.462291 0.527845 -0.080489 0.011700 -0.850126 -1.293679 0.060777 -0.753147 -0.507608 -0.872738 0.017117 0.072088 0.363760 -1.212322 0.620017 0.752332 0.171103
389 0.492728 1.039620 -0.480216 -0.455876 -1.079537 0.598966 1.020549 -0.527413 -0.126335 -0.141446 -0.392782 0.155376 -0.919570 -1.149928 1.114632 -0.489100 0.048569 -0.072248 -0.739951 -1.293907 -0.685734 0.303037 -0.321646 -0.540777 0.385749 0.754983 0.287076 0.714747 -1.125412 -0.214623 1.380167 -0.705389
1092 0.561257 0.337225 -0.273053 -0.550645 0.081738 0.869715 0.926322 -0.089567 -0.941916 1.484938 -0.649901 -0.058217 0.706072 0.236939 -0.232166 -1.466670 -0.124517 -2.070935 0.836319 -1.050040 -0.778796 0.051934 -0.995142 0.285258 -1.034650 0.323708 0.482475 0.784069 -0.774841 0.194295 0.862289 -0.178286
513 -1.214807 1.613632 -0.154665 -0.830509 0.258251 0.449692 1.162234 -0.395752 -0.201458 0.706338 -1.329795 0.711040 0.638415 1.113386 0.159850 -1.073146 0.363108 -0.231853 -0.023379 -0.486036 -0.610513 0.693077 -0.912136 -0.111790 0.248376 -0.461484 -0.705173 0.596124 -0.692596 -0.302479 1.851731 -0.858365
476 -1.267569 1.605595 -0.157583 -0.783060 0.176501 0.373740 1.090897 -0.397135 -0.225866 0.752640 -1.389423 0.777371 0.579897 1.113173 0.223410 -1.035872 0.435075 -0.344422 -0.028747 -0.414762 -0.650830 0.662950 -0.888075 -0.157850 0.225816 -0.585405 -0.728401 0.608067 -0.595724 -0.308060 1.856311 -0.767953
153 -0.018948 -0.459696 -1.073475 -0.291358 -0.455224 -0.841247 0.492258 0.154787 -0.144669 0.680068 -1.094078 0.760464 -0.256404 0.292177 0.757032 -1.366918 0.290487 -0.148429 0.238401 -0.474445 -0.955793 0.316389 -1.534272 -0.816907 -0.723479 -0.490838 -0.884258 -0.616882 -0.786482 0.275352 0.718699 -1.128932
1270 0.469323 0.550960 -1.036253 -0.677748 0.280073 0.296896 -0.709316 -0.352871 0.313898 0.511322 -0.591002 1.117723 0.848380 -0.193400 1.136461 0.073457 -0.101080 0.019100 -0.564887 -0.736880 -0.307555 1.109239 -2.026734 0.849162 -0.895991 -0.078552 0.772359 0.629655 -0.560060 -0.129551 1.187231 -0.289622
36 0.383222 0.709676 -1.069293 -0.694902 0.319233 0.271768 -0.522897 -0.225344 0.356483 0.489649 -0.651476 1.168559 0.830088 -0.040121 1.145780 0.207357 -0.369193 -0.099800 -0.508335 -0.684545 -0.333054 0.988005 -1.918397 0.914365 -0.617148 -0.046134 0.820632 0.541374 -0.632371 -0.203192 1.246795 -0.365821
89 1.442080 0.163008 -0.694186 -1.039277 0.294754 0.772277 0.635132 0.556026 1.409147 0.363249 -1.148641 0.406220 0.116044 0.403049 0.093781 -1.346050 -0.165265 0.503852 0.009447 -1.284251 0.504317 0.366919 -1.176378 0.004819 0.917528 0.600840 -0.174294 0.497477 -1.325969 -0.103855 1.157661 -0.556542
763 0.335991 1.329206 -1.161528 0.064517 -1.023303 1.030156 0.417141 -0.875579 0.074227 0.245979 -0.212475 0.401451 -0.344293 -0.760960 0.588356 -0.673906 -0.295827 0.798505 -0.065102 -0.997563 -0.607830 0.493042 -0.314705 -0.994002 0.227588 0.315428 0.570023 1.349032 -0.714680 -0.546044 0.704373 -0.891553
85 -0.106229 -0.680148 -0.950862 -0.591422 -0.640576 -0.752570 0.559490 0.166529 -0.087352 0.951828 -1.298710 0.735141 -0.586235 0.221630 1.011095 -1.252764 0.227950 -0.114413 0.187110 -0.447758 -0.685118 0.319679 -1.399754 -0.852509 -0.790471 -0.277810 -0.792617 -0.578210 -0.580239 0.365417 0.480480 -0.885464
415 1.487007 0.153412 -0.804322 -1.033092 0.225898 0.714567 0.663123 0.565538 1.415599 0.403669 -1.124061 0.422205 0.046669 0.368013 0.074392 -1.294257 -0.165954 0.582825 0.032519 -1.238277 0.488980 0.399633 -1.265110 0.017108 0.925677 0.621827 -0.166465 0.492582 -1.333625 -0.101844 1.148066 -0.601395
80 0.819082 0.313973 -1.942073 0.099235 0.358822 0.707641 -0.391641 0.240820 1.072656 0.715246 -0.709985 0.265413 -0.726730 -0.672470 -0.698221 -0.636127 -0.718822 -0.317492 -0.417126 0.531820 -0.946943 1.328966 -0.930493 0.253859 -0.815588 -0.637265 -0.450529 1.660521 -0.224244 -0.514058 0.884408 0.378469
421 -0.349800 1.378926 -0.460122 -1.985134 -0.704711 0.384809 0.617623 -0.418288 0.648541 1.193842 -1.036505 1.309222 -0.854884 -0.219374 0.383175 0.001667 0.877801 -0.456891 0.471117 -0.340068 -1.539237 0.331918 -0.235550 0.406098 0.450049 0.685485 -0.682283 1.146105 -0.414064 0.377442 1.157280 0.596081
565 -0.376197 1.315983 -0.539980 -2.165728 -0.628868 0.295352 0.582468 -0.452038 0.674352 1.231672 -1.034974 1.423358 -0.921280 -0.229958 0.251310 -0.183219 0.779965 -0.275943 0.526569 -0.531581 -1.383271 0.399422 -0.233583 0.543591 0.611141 0.661586 -0.796725 1.213163 -0.498561 0.236692 1.194842 0.573455
263 0.745689 -0.881533 -0.507600 -0.925933 -0.211114 1.032766 -0.028326 0.096201 0.391524 -0.013829 -0.004860 0.649843 -0.982085 -0.701531 0.607473 -1.107348 0.249655 -0.691699 0.317239 -0.090428 -1.562628 0.980513 -0.884678 -0.771108 -0.731495 -0.639486 1.102669 0.492218 -0.561421 -0.637353 0.514582 -0.460410
428 1.050174 0.728486 -2.203415 0.392504 -0.708651 -0.317669 0.532063 0.292877 0.873480 0.633667 -0.698587 1.022473 0.049798 -0.409412 -0.436121 0.192399 -0.225417 0.526300 -0.567883 0.001039 -0.442087 0.314049 -2.123421 -0.382522 0.437280 -0.191780 -0.508765 0.463856 -0.203630 0.915708 0.467106 -1.132157
206 0.250119 0.893997 -0.321245 -0.736123 -1.648105 -0.092167 -0.005196 -0.036021 -0.494896 0.473192 -1.279492 -0.096733 0.121600 -0.483133 0.415019 -0.034936 -1.370369 -1.124208 0.147485 -0.000657 -1.593814 1.307874 -1.048863 -0.002201 0.070433 -0.439921 -0.653926 0.623630 -0.608838 0.242124 0.551986 -0.138889
1109 0.728043 0.573643 0.058215 -0.613422 -0.697885 0.893004 1.036559 0.875668 0.709027 1.064594 -0.466876 0.458448 -1.228263 1.163220 -0.480501 -0.588779 0.331333 -1.161137 0.286399 0.301880 -1.583214 0.033520 -0.577215 -0.241462 0.205016 -0.108581 -0.317979 0.273981 -0.172243 -0.052896 0.098133 -0.928327
524 1.270053 0.890844 -1.063959 -0.687175 -0.424521 0.656003 0.770246 0.117918 0.511458 1.032217 -1.367314 0.842069 -0.364151 0.019911 0.104883 -0.830559 0.222786 -0.702104 -0.355665 -0.091346 -1.158263 0.499182 -1.645392 -0.568002 -0.490598 -0.481828 -0.269596 1.061281 -0.950417 -0.074522 1.126181 -0.604529
43 0.790064 0.690614 -0.700091 -0.628525 -0.189888 0.548224 0.638604 0.005730 0.250362 0.739798 -0.959626 0.647590 -0.319718 0.014919 0.175625 -0.610570 0.100343 -0.508463 -0.303112 -0.126821 -0.772662 0.389206 -1.179299 -0.416025 -0.378047 -0.215249 -0.184207 0.907771 -0.756461 -0.012262 0.837332 -0.401369
704 1.169833 0.921481 -0.995848 -0.782282 -0.439817 0.772300 0.835097 0.036554 0.279198 1.043069 -1.319089 0.892014 -0.304986 0.006867 0.135983 -0.921817 0.143368 -0.716004 -0.289243 -0.176257 -1.218565 0.605652 -1.779000 -0.505476 -0.472647 -0.343650 -0.238454 1.059607 -1.006944 -0.043454 1.028562 -0.686876
76 -0.213761 -0.338789 -1.298950 -1.096833 0.535505 0.441115 -0.228316 0.380342 -0.049219 -0.243928 -0.654026 0.874401 0.506465 -0.139802 1.032303 -0.468944 1.628377 -0.469750 -0.703878 -0.180242 -1.593907 -0.013379 -1.159214 -0.380657 0.116947 -0.307433 -1.328859 1.483541 -1.204621 -1.152217 1.458915 -0.198311
1218 0.106499 0.812755 -1.423546 -1.438363 -0.529547 0.737230 0.618545 0.747170 0.103438 0.049398 -1.232152 0.205581 0.920496 -0.383215 1.634537 -1.201285 0.279129 -0.328218 -0.479991 0.408797 -0.759467 -0.835344 -0.801159 -1.496409 0.422594 -0.160863 -0.250556 1.159771 0.334773 0.943301 1.225623 -1.404163
910 1.731657 0.932765 -0.521756 -1.623939 -1.851842 0.338735 1.061498 0.185591 0.554444 0.231272 -0.587904 -0.616500 -0.227228 0.332820 1.096856 -0.538331 -0.313928 -0.199362 -1.158697 0.359600 -0.225908 -0.110668 -1.749426 0.345890 -0.486582 0.196098 0.311317 0.386577 -0.373273 0.754569 0.028388 -1.130882
844 1.118825 0.870220 -0.891091 -0.771343 -0.344989 0.749176 0.788851 -0.005869 0.273344 0.993837 -1.242601 0.859859 -0.332984 -0.009650 0.127952 -0.814627 0.181861 -0.680307 -0.236193 -0.171776 -1.099911 0.483579 -1.644362 -0.539709 -0.423784 -0.314688 -0.132253 1.085745 -0.931220 -0.067161 0.973561 -0.591004
1162 1.847145 1.027400 0.146178 -0.341126 -0.399939 2.185948 0.643956 0.470065 0.652299 1.174624 -0.272861 0.015587 0.513869 0.391789 0.391680 -0.814757 0.193171 -0.275295 -0.450821 0.024199 -0.538815 0.676567 -0.238854 0.565832 -0.589996 0.948995 0.815084 2.454336 -0.529606 -0.122580 0.565159 -0.927836
935 1.473372 0.029299 -0.704715 -1.278334 0.108641 0.513318 0.103547 0.470509 -0.436527 1.507484 -1.152971 1.265815 -0.344278 1.270669 0.514488 0.663373 -0.530988 -0.522782 -0.373942 -1.045335 -0.240141 0.267850 -0.174570 0.069277 -0.932666 -0.762971 -0.332502 0.793555 -0.756183 0.933490 0.335554 -0.558538
308 0.045572 0.690918 -0.182881 -0.664888 0.218322 -0.116155 0.765277 -0.427648 -0.526088 1.124647 0.176480 0.829042 -0.457002 -0.287452 0.014565 -0.403407 0.815155 -0.454901 -0.378019 0.025577 -0.945809 1.053746 -1.684003 -0.219619 -0.570752 1.124607 0.311483 1.238204 -0.800894 0.527200 -0.151407 -0.322709
709 0.366259 1.099153 -1.096617 -1.469909 -0.367970 1.583234 1.084284 0.248598 -0.523031 0.319659 0.417681 0.400550 0.621859 -0.637483 0.957749 0.114004 0.606214 0.059985 0.007033 0.410121 -1.274753 0.114759 -1.120766 0.371623 -1.529633 -0.271256 -0.338828 1.428517 -0.698997 -1.340843 0.006475 -1.139232
405 1.544822 0.025383 -0.746207 -1.190933 0.100187 0.525060 0.111910 0.445767 -0.369172 1.490679 -1.188752 1.296434 -0.367481 1.241530 0.476159 0.666575 -0.616296 -0.549205 -0.352239 -1.049474 -0.191511 0.248744 -0.215249 0.060197 -0.881926 -0.799341 -0.282936 0.797062 -0.740602 0.924996 0.338562 -0.539703
454 1.037919 0.756943 -2.170474 0.517098 -0.665746 -0.323539 0.529136 0.349522 0.859282 0.493032 -0.569105 0.826052 0.057383 -0.273654 -0.427818 0.264184 -0.105023 0.651086 -0.529348 -0.220477 -0.598143 0.552647 -2.270591 -0.282763 0.419225 -0.155032 -0.526736 0.579133 -0.338952 0.919372 0.612757 -1.223874
775 1.307506 0.281996 -0.279283 -0.629329 0.042817 -0.344185 0.131748 -1.051176 -0.050733 0.222584 -1.229621 -0.341833 -0.209939 0.424230 0.268415 -0.636470 0.189716 -0.679400 -0.684583 -0.009779 -0.994303 0.414861 -1.011698 -1.327979 -0.157464 -0.669684 -0.184800 0.766110 -0.346369 1.440485 1.374424 0.245473
792 1.308020 0.862572 -1.698015 -0.741425 -0.489432 0.901905 0.920310 0.241775 -1.266024 1.749936 -0.549088 -0.420920 -0.311818 0.033199 -0.298353 -0.328254 -0.619498 -0.522508 -0.101517 0.885791 -0.737828 -0.554920 -0.359519 -1.007315 -0.543307 -1.090892 -1.220260 1.516819 -0.168713 0.023469 0.342552 0.098631
1256 1.192878 0.200960 -0.075776 -0.815616 0.134109 -0.325785 0.087516 -0.989807 0.157548 0.168549 -1.350229 -0.697440 -0.392642 0.520783 0.172176 -0.835338 0.069238 -0.573710 -0.418583 -0.256502 -1.121115 0.345405 -0.911456 -1.431133 -0.101726 -0.909515 -0.100555 1.096460 -0.362979 1.259424 1.405199 0.102638
816 1.062997 1.463636 -0.066927 -1.576503 -0.183391 -0.735974 0.173229 0.614399 1.152306 0.872915 -0.343342 0.249256 0.738194 0.642175 0.664953 -0.635555 -0.029965 -0.636468 -0.420120 0.549006 -0.864708 0.535019 -0.442990 -0.818444 -1.252231 -0.330479 -0.410511 0.963532 -0.772889 -0.706980 0.100532 -0.321438
155 0.217883 0.878768 -0.335670 -0.622429 -1.647265 -0.089976 0.104769 -0.038758 -0.517519 0.503464 -1.290104 -0.076495 0.117209 -0.524219 0.381873 -0.022456 -1.433531 -1.133596 0.135192 0.147557 -1.558652 1.286223 -1.086545 0.035817 -0.040347 -0.383263 -0.615725 0.608790 -0.564671 0.217462 0.458382 -0.115763
394 1.226052 0.146739 -0.388595 -0.594595 0.231580 -0.361768 -0.169217 -0.900018 0.103311 0.266437 -1.155075 -0.074278 -0.243928 0.283538 0.289643 -0.507689 0.220770 -0.561146 -0.891141 0.134804 -0.795585 0.652589 -1.048030 -1.050263 0.176089 -0.642602 -0.141597 0.852565 -0.359564 1.594866 1.492820 0.321141
186 0.929704 0.365760 -0.953959 -0.545089 -0.483394 0.912508 0.900356 -0.498813 1.392347 0.929693 -1.515092 0.931086 0.038902 -0.917353 0.645601 -0.006265 -0.156704 -0.573582 -0.755996 0.732974 -0.058739 -0.500443 -1.433021 -0.664889 -0.617667 -0.099234 0.587579 0.063197 0.114182 0.094823 0.786209 0.908863
496 1.021117 0.293931 0.024997 0.524616 -0.266375 0.516581 0.580951 -0.189171 0.208533 0.879332 -0.453649 -0.233542 -0.088790 0.111799 -0.077927 -0.200204 0.661865 -0.181961 -0.981165 -0.608731 -0.426563 0.242601 -1.298616 0.064712 -0.368225 -0.817242 -0.273902 0.393123 -0.805578 -0.857633 0.402096 -0.405410
531 0.840714 0.386044 0.145853 0.677602 -0.200163 0.495071 0.716206 -0.230157 0.093503 0.887085 -0.559033 -0.113015 -0.013784 0.138729 -0.088333 -0.273111 0.498573 -0.310519 -0.915539 -0.551981 -0.483134 0.345660 -1.265010 0.174738 -0.586973 -0.904044 -0.235732 0.325698 -0.772322 -0.817921 0.439994 -0.299231
165 0.232608 0.604253 -1.079160 -0.159741 0.820155 0.060406 0.766247 0.070734 0.132738 0.302999 -1.622790 0.730485 0.014342 -0.497468 -0.441110 -0.682289 0.008212 -0.936334 -0.106877 0.256300 -0.904559 -0.155488 -0.026811 -1.190092 -0.016523 0.332668 -0.115053 0.753625 -1.138105 -0.261740 0.399976 -0.428975
1268 1.231495 0.271598 -0.417096 -0.605734 0.169234 -0.320487 -0.040731 -1.007534 -0.015553 0.219138 -1.236692 -0.263217 -0.238123 0.364382 0.286397 -0.677342 0.172074 -0.571838 -0.826422 0.082221 -0.875534 0.461911 -1.034956 -1.192430 -0.026306 -0.748717 -0.184098 0.803771 -0.339899 1.492886 1.442493 0.287561
1076 0.207015 0.647408 -0.999865 -0.016343 0.828783 0.057768 0.688611 0.070876 0.197001 0.238322 -1.637649 0.768108 -0.011920 -0.536182 -0.435769 -0.727241 0.046880 -0.959139 -0.180882 0.182930 -0.918600 -0.151487 -0.063889 -1.125013 -0.002950 0.345298 -0.001590 0.748852 -1.172891 -0.292102 0.415043 -0.459316
349 0.864064 0.082934 -0.029155 -0.399029 -0.153183 0.907070 1.291932 0.827605 0.288520 -0.806306 -1.308918 1.446797 0.249091 -0.810427 0.366255 -0.119938 0.287705 -0.150711 -0.286958 0.675784 -0.474996 1.346182 -1.246200 0.315554 0.070298 -0.520575 -0.419894 1.320627 -0.918085 0.193775 0.353811 0.152599
381 0.229821 0.657193 -1.075623 -0.069342 0.845564 0.084992 0.781859 0.069430 0.177918 0.327246 -1.623308 0.778089 -0.001486 -0.502120 -0.465127 -0.637185 -0.005471 -0.956203 -0.102240 0.253931 -0.978389 -0.129095 -0.027800 -1.173735 0.003004 0.347971 -0.094100 0.776370 -1.129897 -0.263681 0.346591 -0.446347
909 0.763476 0.431091 0.150792 0.676984 -0.182899 0.378210 0.670085 -0.233128 0.193001 0.823243 -0.582853 -0.209604 -0.149894 0.071887 -0.195988 -0.180379 0.594200 -0.332559 -0.979541 -0.479041 -0.509475 0.471268 -1.225271 0.130235 -0.453957 -0.844198 -0.273135 0.421507 -0.855294 -0.771804 0.587361 -0.387116
1039 0.821605 0.791269 -0.199644 -0.340952 -0.767749 0.751093 1.251766 0.570316 0.700093 1.300764 -0.485682 0.425370 -1.397945 1.208930 -0.659765 -0.424956 -0.062190 -0.831575 0.607131 0.439080 -1.265453 0.118269 -0.974063 -0.480967 0.288046 -0.177790 -0.351756 0.133630 -0.197097 0.021315 0.059196 -0.773219
442 -0.017813 0.755774 -0.067892 -0.676379 0.218690 -0.202271 0.757416 -0.463442 -0.423719 1.082801 0.046043 0.777559 -0.542813 -0.224465 -0.114771 -0.502419 0.736674 -0.425557 -0.426737 -0.012242 -0.897967 1.142774 -1.711077 -0.259703 -0.432577 1.201442 0.347425 1.124542 -0.853738 0.635868 -0.133644 -0.482617
1123 -0.069935 -0.355666 -1.116864 -0.238421 -0.426921 -0.856123 0.483406 0.209523 -0.166558 0.665349 -1.019500 0.830073 -0.248552 0.306524 0.674151 -1.348643 0.327152 -0.131039 0.224951 -0.465441 -1.062180 0.345716 -1.550682 -0.794469 -0.736921 -0.564843 -0.893682 -0.613602 -0.841229 0.229406 0.743855 -1.131146
337 1.327428 0.474730 0.140272 -0.295311 -0.550844 1.003016 0.869861 0.654260 0.190918 -1.043977 -0.851239 1.284009 0.340078 -0.554543 0.390626 -0.443944 0.662662 -0.359530 -0.402873 0.765506 -0.752400 1.243676 -1.079172 0.343926 0.122597 -0.000770 -0.364156 1.306360 -1.174038 0.293562 0.347975 0.455312
1150 0.707674 1.430363 -0.475476 -1.629962 -0.122272 -0.015311 -0.166981 0.782030 -0.525796 0.737572 -0.602240 2.272494 -0.809730 -0.253572 -0.136952 0.013795 0.265372 -0.438910 -0.419084 0.651124 -1.537664 0.899768 -1.573077 -0.430730 0.338191 -1.205256 0.105307 0.332581 0.098318 -0.008524 -0.430636 -0.484189
259 0.849508 0.477803 0.121574 -0.643779 -0.682354 0.916894 1.089007 0.685370 0.805662 0.893188 -0.544666 0.378049 -1.272328 1.227314 -0.467219 -0.693111 0.247682 -1.243175 0.273380 0.330318 -1.653446 0.017125 -0.695926 -0.339984 0.211821 -0.246165 -0.302804 0.190912 -0.239423 -0.002084 0.053284 -0.941758
744 0.594301 0.387345 -0.348823 -0.466072 0.079398 0.794366 0.896024 -0.119833 -0.931940 1.483726 -0.637730 -0.084964 0.699701 0.245606 -0.298077 -1.444773 -0.134367 -2.008011 0.815677 -1.079710 -0.775246 0.033837 -1.010974 0.326719 -1.052486 0.370413 0.485209 0.723051 -0.772242 0.141838 0.827735 -0.193151
1290 0.841065 0.134063 -0.802813 -0.942005 -0.590392 0.481899 1.160501 -1.206959 0.901956 1.238731 -1.276204 0.970405 0.162552 -1.118381 0.612395 -0.145889 -0.249642 -0.864998 -0.563310 0.691229 0.262725 0.053013 -1.187725 -0.260557 -0.925944 -0.506536 0.053552 0.195778 0.045119 -0.032330 0.645189 0.840830
412 1.022726 0.161417 0.086717 -0.389551 -0.317802 0.948659 1.197760 0.787449 0.206488 -0.924531 -1.118959 1.402535 0.255125 -0.678016 0.377304 -0.225540 0.409477 -0.215308 -0.314387 0.687058 -0.542608 1.264685 -1.129548 0.331539 0.035898 -0.338210 -0.405407 1.268643 -1.030222 0.220275 0.322976 0.281276
1250 0.797678 1.084087 -0.547985 -1.421930 -1.976791 1.107006 -0.244919 -0.340355 0.199157 2.006855 -0.098208 0.560177 -0.661915 0.335645 0.596549 -1.003022 -0.790851 -0.227170 1.016632 -0.582016 -1.414284 -0.483894 -0.843924 0.222014 -1.009769 -0.105657 0.422104 1.415154 0.298853 0.900325 0.293825 -0.796415
759 1.580337 -0.035150 -1.230146 -0.215583 -0.973158 0.916158 0.275720 0.862084 1.541815 0.917176 -0.523681 0.288443 -0.608572 -0.339902 1.352881 0.515726 0.713483 -0.192108 -0.142172 0.208450 -1.734209 0.222142 -0.399346 -1.240066 0.097011 -0.920746 -1.421391 1.220046 0.031081 0.195643 0.680251 -0.073332
838 0.778617 1.024323 -0.613323 -1.452579 -1.936344 1.104116 -0.200935 -0.371592 0.214917 2.097577 -0.063026 0.489740 -0.633072 0.334170 0.526712 -0.944922 -0.785030 -0.248603 0.983330 -0.630970 -1.279342 -0.554417 -0.852358 0.208469 -0.913574 -0.110316 0.409550 1.321070 0.355717 0.911814 0.394851 -0.782553
434 1.748608 1.016792 -0.028630 -0.913310 -0.765577 0.303739 0.337022 -0.128027 -0.755048 0.496566 -1.571254 0.132901 -0.672845 -0.584016 0.278989 -0.973087 1.120493 -1.570024 -0.424215 0.135915 -0.379943 -0.158266 0.244573 -0.107526 -0.526588 -0.496418 0.841780 1.948578 0.171511 -0.519358 0.931431 -0.001356
99 0.599518 0.558298 -1.053769 -0.678165 0.282636 0.347037 -0.608447 -0.280954 0.347783 0.540357 -0.505369 1.126608 0.890177 -0.206740 1.142986 0.070207 -0.092032 -0.028355 -0.597532 -0.740145 -0.248599 1.073012 -2.119609 0.919668 -0.904643 0.009614 0.669197 0.615217 -0.519455 -0.099041 1.165250 -0.203872
205 0.523802 0.321507 -0.364028 -0.697984 -0.353751 0.986863 -0.588268 0.483957 -0.322569 -0.064266 -0.823048 0.550107 -0.319040 0.463387 -0.219412 -0.518716 -0.611906 -0.217869 -0.066576 0.822538 0.111641 0.314356 -1.421083 -0.840881 -0.355870 -0.665178 -0.384082 0.718629 -0.948406 -0.544818 0.871490 -1.767868
450 0.528164 1.056979 -0.612960 -0.483464 -1.079922 0.527873 0.997717 -0.733558 -0.128762 -0.169213 -0.425076 0.123830 -0.899227 -1.198134 1.061598 -0.498525 -0.033298 0.001773 -0.736914 -1.324868 -0.694538 0.352108 -0.416674 -0.599131 0.276714 0.692778 0.330761 0.725500 -1.201876 -0.201466 1.420090 -0.595620
270 0.087962 0.708304 -0.032034 -0.742108 0.275507 0.010759 0.823966 -0.525897 -0.575036 0.867567 0.148680 0.758299 -0.344693 -0.374812 0.015382 -0.445642 0.770337 -0.465622 -0.414665 -0.026932 -1.007439 1.141079 -1.682111 -0.175819 -0.571852 1.147300 0.281432 1.167522 -0.890633 0.501871 -0.187840 -0.646759
212 0.072263 0.773906 -0.190985 -0.676175 0.195907 -0.186544 0.813883 -0.489946 -0.374177 1.215162 0.126392 0.854276 -0.504811 -0.249564 -0.074634 -0.407280 0.739353 -0.422205 -0.413395 0.100433 -0.849884 1.037198 -1.705725 -0.295181 -0.581046 1.137274 0.369446 1.199759 -0.791504 0.658688 -0.154006 -0.218958
1021 1.542425 -0.018047 -1.198494 -0.236166 -0.952000 0.901525 0.249832 0.824608 1.449215 0.933235 -0.484913 0.344690 -0.631232 -0.327349 1.367723 0.520185 0.757630 -0.187673 -0.157167 0.215002 -1.687290 0.221675 -0.525693 -1.194532 0.068532 -0.917288 -1.373398 1.227990 0.045015 0.182695 0.704468 -0.089436
765 0.661882 1.467383 -0.438099 -1.597796 -0.086826 -0.104554 -0.187195 0.783896 -0.486454 0.695847 -0.591157 2.285511 -0.797315 -0.226033 -0.122538 0.018541 0.262315 -0.399873 -0.399059 0.613646 -1.492146 0.894692 -1.607711 -0.421584 0.404164 -1.224266 0.069312 0.230374 0.051636 -0.018158 -0.443716 -0.525479
315 0.894189 0.513496 -0.032287 0.777132 -0.231780 0.393478 0.699754 -0.170041 0.066883 0.835447 -0.614985 -0.268132 0.064173 0.257961 -0.187216 -0.391764 0.439550 -0.302458 -0.900937 -0.674030 -0.566263 0.411181 -1.220982 0.238011 -0.439728 -0.844234 -0.299329 0.399386 -0.711298 -0.773879 0.437714 -0.297226
1029 0.997513 0.210835 0.035403 -0.314067 -0.267089 0.949346 1.241021 0.831328 0.231177 -0.915247 -1.212412 1.458613 0.241247 -0.667505 0.338160 -0.204488 0.375412 -0.219044 -0.288947 0.694727 -0.580043 1.306003 -1.192842 0.330336 0.051245 -0.398071 -0.438171 1.290339 -1.046241 0.225705 0.319418 0.210655
905 0.845383 0.439510 -0.046509 0.721140 -0.183097 0.420067 0.752325 -0.163348 -0.042245 0.843588 -0.585320 -0.216534 0.067299 0.227898 -0.132451 -0.368138 0.479122 -0.279924 -0.991083 -0.594868 -0.541122 0.296200 -1.205458 0.084950 -0.497751 -0.867324 -0.331464 0.410691 -0.706816 -0.831438 0.373706 -0.199036
741 1.716135 0.962863 -0.021697 -0.924781 -0.803167 0.308109 0.373941 -0.152053 -0.758646 0.483660 -1.569908 0.118292 -0.700655 -0.544580 0.253765 -1.048301 1.109234 -1.587312 -0.397288 0.121656 -0.357119 -0.200851 0.230582 -0.094666 -0.572355 -0.526242 0.883530 1.924114 0.255630 -0.530731 0.930659 -0.027945
218 0.380702 0.735587 -1.039918 -0.689480 0.291189 0.325082 -0.581251 -0.254412 0.338394 0.502595 -0.642699 1.225001 0.805799 -0.025474 1.129162 0.302736 -0.322941 -0.077413 -0.506744 -0.672406 -0.363004 0.940347 -1.909942 0.820965 -0.635540 -0.015584 0.894762 0.564885 -0.675182 -0.241452 1.212342 -0.444675
223 0.824324 0.929052 -1.812599 -0.445896 -0.748761 0.192474 -0.246061 0.581573 -0.728502 0.324900 -1.031306 1.018133 -0.642840 -1.112632 1.351717 -0.655581 1.763365 -0.324250 -0.537964 -0.823146 -1.452310 0.138893 -0.624608 0.651507 -0.377255 -0.829054 -0.239814 0.790702 -0.097294 0.313009 -0.037234 -0.320438
56 0.460678 1.102221 -0.700551 -0.427123 -1.038957 0.592107 0.893754 -0.691384 -0.148937 -0.051745 -0.275765 0.194454 -0.749322 -1.084869 0.976124 -0.480361 -0.108711 0.130361 -0.615419 -1.278742 -0.618606 0.266537 -0.331468 -0.661987 0.293706 0.596130 0.396176 0.804937 -1.037602 -0.294531 1.276928 -0.630006
288 1.423873 0.158917 -0.741738 -1.002945 0.281215 0.711538 0.618890 0.618409 1.396695 0.358079 -1.141913 0.320388 0.089822 0.421767 0.057027 -1.318832 -0.220465 0.442482 0.004634 -1.157069 0.467090 0.351655 -1.164080 -0.026936 0.908423 0.559723 -0.205881 0.522293 -1.268389 -0.075421 1.099087 -0.558492
417 0.766411 0.282291 -1.971336 0.177257 0.355540 0.708861 -0.375240 0.195704 1.049459 0.752707 -0.678645 0.305276 -0.706766 -0.756316 -0.622814 -0.657741 -0.643654 -0.306517 -0.335015 0.505294 -0.981711 1.262452 -0.887617 0.272521 -0.965915 -0.582711 -0.366827 1.613414 -0.229374 -0.534496 0.887556 0.338045
7 0.974245 0.262779 -0.839133 -0.883471 -0.529312 0.595175 1.087086 -1.056158 1.034434 1.154092 -1.347896 0.837266 0.263959 -1.275862 0.628527 -0.136203 -0.169478 -0.756562 -0.651346 0.638560 0.161264 -0.116983 -1.219670 -0.363998 -0.819661 -0.464306 -0.010304 0.160372 0.064507 -0.058424 0.720783 0.843705
403 0.818983 0.389337 -1.934371 0.039951 0.290774 0.781349 -0.425732 0.319991 1.122272 0.733399 -0.642231 0.241935 -0.746943 -0.616116 -0.785411 -0.617608 -0.829133 -0.303866 -0.429693 0.555145 -0.902341 1.349391 -0.893476 0.302231 -0.725226 -0.629092 -0.444701 1.721038 -0.271663 -0.610229 0.743713 0.264502
260 0.906899 0.959401 -1.756382 -0.484622 -0.784931 0.184437 -0.214436 0.530719 -0.758132 0.350723 -0.933501 1.049908 -0.611281 -1.024175 1.410157 -0.724688 1.753067 -0.314487 -0.570312 -0.881384 -1.505280 0.101780 -0.645234 0.549448 -0.445363 -0.960201 -0.330425 0.930178 -0.062458 0.236670 -0.074763 -0.244006
1243 0.467649 0.391491 -0.348146 -0.691961 -0.333624 1.044423 -0.498423 0.512547 -0.309051 -0.137184 -0.815968 0.601469 -0.312006 0.505267 -0.216419 -0.529064 -0.559527 -0.209838 -0.009742 0.763042 0.058744 0.294535 -1.413023 -0.761334 -0.310042 -0.646938 -0.375016 0.735559 -0.942915 -0.624170 0.882688 -1.824554
180 0.306399 0.637648 -1.022078 -0.045367 0.843396 0.029715 0.695565 0.078397 0.213951 0.329743 -1.593156 0.791197 -0.006640 -0.494641 -0.469802 -0.680309 -0.057221 -0.931729 -0.131625 0.220378 -0.906474 -0.196948 -0.070811 -1.126566 0.046423 0.411335 0.001225 0.751963 -1.103203 -0.292891 0.385155 -0.394272
111 0.989976 1.006907 -1.643844 -0.401225 -0.734564 0.140373 -0.244465 0.514812 -0.793157 0.220591 -0.959197 1.045895 -0.670772 -0.875705 1.289242 -0.801629 1.658625 -0.389528 -0.555359 -0.920622 -1.594108 0.040206 -0.579279 0.530852 -0.436455 -1.081248 -0.456536 0.925072 -0.018749 0.202873 -0.100560 -0.207171
662 0.017251 0.758171 -0.046312 -0.708131 0.348713 0.068773 0.781153 -0.536088 -0.686703 0.827951 0.071898 0.798987 -0.199373 -0.525120 0.082436 -0.436828 0.761950 -0.390622 -0.436180 0.043947 -1.169801 1.175948 -1.670288 -0.126498 -0.665194 1.190946 0.223413 1.125812 -1.003276 0.411005 -0.230274 -0.821259
12 0.438309 1.182861 -1.107321 -0.206281 -1.098304 0.634524 0.955187 -1.239245 -0.285401 0.520222 -0.303157 0.137813 -0.247530 -0.449669 0.577047 -0.191851 -0.622876 0.262342 -0.500495 -1.398862 -0.513336 0.219894 -0.604534 -0.813412 -0.169079 0.362742 1.146518 1.177653 -0.593019 -0.235657 1.194192 -0.660457
483 0.775589 0.450776 0.127149 0.582639 -0.159408 0.405495 0.688534 -0.268151 0.132893 0.802667 -0.605475 -0.099294 -0.075632 0.050888 -0.166879 -0.189706 0.636073 -0.330292 -0.991081 -0.542736 -0.476975 0.381076 -1.246249 0.158238 -0.384880 -0.865514 -0.270146 0.388098 -0.900566 -0.775192 0.465723 -0.386518
529 0.741836 0.288751 0.152419 0.620806 -0.294491 0.435788 0.637187 -0.267984 0.229239 0.859593 -0.517776 -0.163784 -0.135502 -0.007145 -0.158027 -0.198824 0.627128 -0.369339 -0.948379 -0.535115 -0.450225 0.369880 -1.221431 0.136090 -0.446188 -0.889899 -0.257885 0.404128 -0.781327 -0.835312 0.504648 -0.393096
300 0.794892 0.293844 -2.006197 0.207220 0.373084 0.778332 -0.336987 0.271140 1.107750 0.669017 -0.671092 0.258881 -0.720923 -0.750688 -0.706798 -0.641517 -0.738759 -0.363043 -0.409759 0.542684 -0.959323 1.357644 -0.945664 0.270456 -0.932352 -0.595295 -0.475095 1.675442 -0.303900 -0.604045 0.825554 0.282190
340 0.888664 0.500546 0.049905 0.568427 -0.219796 0.473041 0.778613 -0.148154 0.008540 0.958743 -0.545430 -0.195639 -0.027196 0.179869 -0.017349 -0.244435 0.567529 -0.108867 -1.107605 -0.578817 -0.490303 0.172205 -1.099180 0.088562 -0.395291 -0.913782 -0.379527 0.452147 -0.731856 -0.833662 0.359292 -0.228139
851 0.248775 0.613114 -1.028196 -0.075969 0.820136 0.074848 0.749556 0.086922 0.193413 0.292278 -1.580000 0.698799 -0.031882 -0.525952 -0.381464 -0.663177 0.000152 -0.941785 -0.115603 0.254547 -0.962333 -0.151256 -0.009959 -1.133382 -0.004824 0.329868 -0.058577 0.743732 -1.126308 -0.284344 0.313878 -0.454434
279 1.238449 0.253141 -0.367938 -0.580091 0.105381 -0.265443 -0.069834 -1.035452 -0.041355 0.265355 -1.219546 -0.060242 -0.202905 0.320383 0.343605 -0.497173 0.282211 -0.648739 -0.981222 0.196232 -0.905447 0.556455 -1.065172 -1.177345 0.008090 -0.661427 -0.146071 0.719944 -0.356676 1.584688 1.432016 0.418539
920 0.810117 0.417179 0.210227 -0.722713 -0.647215 0.961654 0.995819 0.912166 0.726487 0.874761 -0.445430 0.418705 -1.142798 1.173698 -0.432707 -0.706190 0.459152 -1.367255 0.123006 0.255821 -1.769383 0.004462 -0.524106 -0.208844 0.140838 -0.241268 -0.306620 0.322798 -0.154816 0.016547 0.060859 -1.076781
413 0.055227 0.785851 -0.077886 -0.669396 0.302002 -0.079740 0.771889 -0.496278 -0.591501 0.830570 0.094866 0.740227 -0.365415 -0.364295 -0.018181 -0.454521 0.677739 -0.390222 -0.435019 -0.004418 -1.068914 1.232046 -1.615611 -0.134358 -0.551011 1.096017 0.286526 1.232531 -0.921381 0.525374 -0.241243 -0.723119
11 0.761299 -0.909323 -0.563668 -0.963692 -0.147445 1.053175 -0.055146 0.108217 0.449269 -0.003981 -0.021774 0.645496 -0.983132 -0.658625 0.599369 -1.197777 0.155786 -0.705328 0.376495 -0.118828 -1.533542 1.018290 -0.869761 -0.707729 -0.717316 -0.616020 1.120367 0.490361 -0.535521 -0.583986 0.497457 -0.461917
1054 0.872109 0.685481 -0.129150 -0.366086 -0.774280 0.848449 1.227974 0.560398 0.808166 1.318608 -0.512036 0.433475 -1.417619 1.223023 -0.693251 -0.499220 -0.100387 -0.914054 0.555885 0.491520 -1.380764 0.027241 -0.991848 -0.523808 0.299139 -0.329336 -0.247756 0.191473 -0.235837 -0.021383 0.045689 -0.813673
1066 0.838750 0.513654 -0.016503 -0.492741 -0.694797 0.868466 1.144789 0.679628 0.759510 1.128892 -0.461555 0.412616 -1.268866 1.148454 -0.566417 -0.562723 0.116465 -1.082393 0.410799 0.447804 -1.491203 0.060789 -0.783490 -0.366455 0.269015 -0.254831 -0.282268 0.183364 -0.126193 0.043844 0.037179 -0.871096
361 0.041663 0.817594 -0.074030 -0.640830 0.238458 -0.079043 0.721098 -0.572673 -0.604521 0.995467 0.014123 0.790297 -0.349654 -0.511822 -0.007821 -0.414787 0.770524 -0.373774 -0.487008 -0.002549 -1.100525 1.107516 -1.666359 -0.197288 -0.623899 1.186505 0.352544 1.134570 -0.906816 0.560667 -0.144342 -0.503581
158 0.219616 0.670911 -1.047781 -0.058384 0.822289 0.049786 0.782107 0.092611 0.164287 0.264661 -1.647890 0.764725 -0.060238 -0.480200 -0.456640 -0.704265 -0.043064 -0.913793 -0.027355 0.277021 -0.995825 -0.130077 0.004299 -1.206952 -0.041374 0.299507 -0.041351 0.779571 -1.131174 -0.266370 0.369834 -0.492836
139 0.766155 -0.901471 -0.623255 -0.875512 -0.211256 1.047574 -0.063363 0.054629 0.489307 -0.010295 -0.024692 0.652894 -1.027112 -0.688528 0.590776 -1.146498 0.240023 -0.688010 0.304901 -0.077861 -1.522883 1.063337 -0.937463 -0.710930 -0.721150 -0.663603 1.090483 0.451607 -0.523462 -0.561902 0.505707 -0.456149
633 0.905642 1.512841 -1.437518 -0.576510 0.443990 1.534298 0.100534 -0.319050 0.425825 -0.232200 -0.657739 0.307431 -0.061807 0.850386 0.225777 -1.005824 -0.192470 -0.434760 0.759804 0.130344 -1.021140 0.411604 -1.626722 -0.041169 -0.377491 0.555909 -0.433187 0.048671 0.154010 1.023395 0.429153 -0.050562
106 0.174086 0.674903 -0.191248 -0.660325 0.217273 -0.139121 0.710573 -0.434530 -0.374329 1.092655 0.100407 0.813099 -0.582706 -0.296598 -0.133416 -0.467001 0.752820 -0.459315 -0.438340 0.113789 -0.809365 1.106827 -1.731116 -0.272388 -0.516064 1.157448 0.392667 1.205140 -0.807436 0.636090 -0.148977 -0.258287
570 0.902029 0.423267 -0.000984 0.579616 -0.113248 0.415050 0.698227 -0.164454 0.140179 0.926245 -0.532408 -0.101720 -0.108454 0.022728 -0.102461 -0.105444 0.674631 -0.267012 -1.042681 -0.521335 -0.392537 0.225181 -1.199444 0.027482 -0.399708 -0.870942 -0.228942 0.426652 -0.881453 -0.816371 0.452251 -0.411657
637 0.981193 1.511765 -1.489393 -0.563705 0.460433 1.568570 0.143370 -0.315702 0.465410 -0.267788 -0.729151 0.381133 -0.027672 0.830353 0.268815 -1.005487 -0.212719 -0.453716 0.721457 0.112511 -1.000919 0.293831 -1.589892 -0.105523 -0.413614 0.552759 -0.417134 0.055972 0.122146 0.994600 0.349250 -0.106532
40 0.843108 0.435733 0.045308 0.620268 -0.184535 0.434841 0.662489 -0.148448 0.173036 0.828539 -0.504128 -0.155005 -0.095910 0.113894 -0.188159 -0.183495 0.457993 -0.336522 -1.079912 -0.557073 -0.556570 0.448733 -1.233054 0.058276 -0.581672 -0.883746 -0.271315 0.307984 -0.832157 -0.727387 0.460937 -0.302935
973 0.775234 0.404773 0.164925 0.685154 -0.189684 0.450027 0.681129 -0.280156 0.079875 0.845809 -0.649072 -0.160407 0.010609 0.109219 -0.136073 -0.364143 0.537418 -0.364105 -0.854591 -0.578766 -0.459348 0.396641 -1.291314 0.190410 -0.552289 -0.855950 -0.269286 0.367929 -0.766303 -0.812750 0.531682 -0.268136
989 0.853094 0.518842 -0.072133 0.639969 -0.191784 0.415591 0.695872 -0.112468 0.078790 0.859701 -0.538951 -0.122894 -0.003757 0.219527 -0.129958 -0.269501 0.578425 -0.169298 -1.079342 -0.640939 -0.464699 0.322638 -1.183820 0.091232 -0.438424 -0.865939 -0.323839 0.386906 -0.797172 -0.822572 0.391446 -0.280842
568 0.235733 0.862430 -0.361050 -0.620882 -1.564958 -0.054670 0.120900 -0.037715 -0.537584 0.441944 -1.299985 -0.074998 0.126803 -0.537655 0.359391 -0.006778 -1.394238 -1.083575 0.180697 0.081208 -1.516309 1.251341 -1.085546 0.021537 0.005765 -0.379422 -0.605088 0.630130 -0.595126 0.186040 0.445846 -0.120845
231 1.194525 0.106971 -0.434307 -0.563692 0.262014 -0.338331 -0.102803 -0.896540 0.204372 0.263582 -1.190865 -0.260483 -0.304851 0.291093 0.312584 -0.615576 0.075697 -0.602231 -0.754336 0.057949 -0.735266 0.641617 -1.099917 -1.109283 0.141352 -0.696057 -0.208051 0.966530 -0.382496 1.502132 1.543115 0.285211
1171 0.949854 0.263631 0.157749 0.536911 -0.098588 0.359086 0.631475 -0.193536 0.237764 0.738900 -0.563303 -0.194761 -0.047514 0.039182 -0.058728 -0.189325 0.617152 -0.270554 -1.079480 -0.551911 -0.406851 0.527317 -1.316586 0.043518 -0.400582 -0.839611 -0.239556 0.384495 -1.042865 -0.764112 0.509112 -0.456103
365 0.426837 0.282917 -0.377562 -0.706120 -0.322666 1.029923 -0.555898 0.555351 -0.304798 0.006760 -0.825368 0.619207 -0.242327 0.464275 -0.248537 -0.500837 -0.626324 -0.280106 -0.013071 0.841142 0.090071 0.273572 -1.402056 -0.726479 -0.313566 -0.658573 -0.407827 0.701856 -0.960343 -0.564771 0.906684 -1.770759
1000 1.291009 0.354841 -0.279470 -0.586933 0.015633 -0.286884 0.055244 -1.146557 -0.281307 0.243634 -1.307582 -0.116981 -0.012600 0.327415 0.412809 -0.539799 0.300951 -0.703515 -0.964782 0.149107 -0.998092 0.434143 -1.043336 -1.256171 -0.161147 -0.634891 -0.105626 0.513612 -0.336609 1.512442 1.341680 0.451667
101 0.210896 0.617316 -1.056990 -0.123393 0.855991 0.035371 0.754148 0.034528 0.200743 0.254673 -1.626323 0.767798 0.003653 -0.464185 -0.460255 -0.718023 -0.028912 -0.914401 -0.080612 0.253652 -0.902224 -0.183852 -0.064353 -1.170778 -0.043351 0.409399 -0.023916 0.692367 -1.152788 -0.260754 0.399356 -0.466553
1156 0.731049 0.453448 0.105724 -0.625346 -0.648842 0.968299 1.059782 0.804672 0.724023 0.996408 -0.454949 0.343315 -1.196883 1.187863 -0.470147 -0.671233 0.265215 -1.223455 0.255349 0.265573 -1.623202 -0.011517 -0.551940 -0.312996 0.176117 -0.214578 -0.272190 0.323415 -0.168712 -0.034795 0.101095 -0.915415
1041 0.808830 0.599391 0.052183 -0.699060 -0.707780 0.900272 1.050971 1.077819 0.582862 1.004299 -0.378637 0.449487 -1.130791 1.089632 -0.492648 -0.534737 0.494884 -1.217706 0.158599 0.312323 -1.536269 0.024424 -0.496653 -0.158055 0.143365 -0.015075 -0.323714 0.371428 -0.067584 0.006685 0.114881 -0.982880
835 0.228497 0.918355 -0.385156 -0.627056 -1.631273 -0.056480 0.146606 -0.048667 -0.572803 0.481527 -1.315427 -0.107299 0.097968 -0.541603 0.340842 -0.058534 -1.426415 -1.161435 0.196971 0.098863 -1.531654 1.215762 -1.100974 -0.001331 -0.055341 -0.375994 -0.587709 0.641174 -0.585196 0.198436 0.450849 -0.111890
1011 0.845717 0.485385 0.083058 -0.624308 -0.689882 0.994334 1.016778 0.884651 0.719440 0.941823 -0.398365 0.361628 -1.155437 1.153672 -0.491608 -0.618351 0.292693 -1.261060 0.224200 0.309246 -1.659665 0.023426 -0.581396 -0.210907 0.155275 -0.155019 -0.298052 0.290111 -0.183818 -0.032215 0.067364 -0.974379
1133 1.657690 1.131900 -0.706137 -0.684399 -0.951415 0.246327 0.605621 -0.012409 -0.527420 0.346929 -1.100869 1.497233 0.249199 -0.134804 -0.271724 -1.291944 -0.867164 -0.086820 0.495925 -0.353669 -0.598124 -0.637316 -0.907137 0.024727 -1.454568 0.052652 -0.247290 -0.094113 -0.716058 -0.810732 0.065577 0.342455
889 0.775311 0.680488 -0.067933 -0.565105 -0.754305 0.874763 1.106495 0.989883 0.634053 1.137410 -0.378368 0.391983 -1.221242 1.160194 -0.549670 -0.502376 0.347177 -1.083557 0.309774 0.373771 -1.420247 0.042439 -0.622664 -0.227717 0.152538 -0.078601 -0.351308 0.320146 -0.092029 -0.017042 0.099485 -0.963598
498 0.936160 0.364626 0.120016 0.626497 -0.212076 0.439206 0.587194 -0.293374 0.110450 0.804677 -0.573381 -0.218478 -0.012228 0.101573 -0.170234 -0.230178 0.606391 -0.386542 -0.967064 -0.579408 -0.525402 0.426854 -1.386324 0.110248 -0.463277 -0.888021 -0.110446 0.257160 -0.845682 -0.806427 0.422133 -0.308497
190 0.257758 0.636680 -1.026949 -0.091473 0.841975 0.064793 0.777800 0.096076 0.173714 0.289678 -1.604152 0.731182 0.009415 -0.501226 -0.493613 -0.666577 -0.040160 -0.930409 -0.156726 0.217310 -0.899721 -0.163041 -0.007771 -1.119530 0.027000 0.361623 -0.070958 0.788832 -1.136616 -0.301598 0.346491 -0.409104
516 0.228152 0.949709 -1.037327 -0.696111 0.341711 0.384988 -0.409301 -0.091682 0.612720 0.569714 -0.693551 1.235418 0.857851 0.067394 1.091851 0.310391 -0.552204 -0.125220 -0.407007 -0.700884 -0.424312 0.919008 -1.731623 1.015813 -0.361930 0.039915 0.796626 0.479524 -0.695669 -0.339713 1.450953 -0.376804
239 1.002883 0.235529 0.193419 0.434283 -0.248991 0.326225 0.572079 -0.285101 0.271847 0.744314 -0.607450 -0.219641 -0.076219 0.019447 -0.106897 -0.230652 0.704697 -0.336836 -0.888513 -0.634251 -0.388476 0.355017 -1.444062 0.156744 -0.360492 -0.802801 -0.234444 0.340051 -0.849365 -0.905333 0.409578 -0.484822
1143 0.969653 1.513936 -1.409195 -0.518305 0.434403 1.517491 0.103204 -0.340883 0.525244 -0.290486 -0.717090 0.311197 0.039222 0.814315 0.239081 -0.983990 -0.236033 -0.459586 0.719351 0.172495 -0.978472 0.285150 -1.632373 -0.099570 -0.386768 0.579480 -0.350498 -0.002137 0.100060 0.976323 0.300169 -0.155511
785 0.211332 0.874081 -0.342501 -0.662571 -1.626926 -0.064647 0.079818 -0.037329 -0.564749 0.499059 -1.243011 -0.118949 0.124153 -0.528567 0.359695 -0.016455 -1.388386 -1.113085 0.148627 0.087635 -1.512576 1.267568 -1.070042 -0.011674 -0.022448 -0.403923 -0.580535 0.655586 -0.605121 0.207835 0.448822 -0.126409
536 0.924362 0.248195 0.200913 0.651444 -0.094443 0.313104 0.600691 -0.176216 0.186132 0.763431 -0.633212 -0.237642 0.092143 0.138584 -0.048622 -0.313818 0.557532 -0.319833 -0.830237 -0.612843 -0.411211 0.579125 -1.345787 0.163317 -0.480890 -0.807732 -0.313543 0.421339 -0.941370 -0.694894 0.532684 -0.459493
781 1.855026 0.357379 -0.415797 -1.179685 -0.512796 -0.308446 0.973228 0.348168 1.569921 0.312757 -0.725559 0.789530 -0.634948 -0.314787 -1.204095 0.487478 0.513112 -0.133658 0.001749 -0.803281 -1.292005 0.118230 -0.767548 -0.468558 -0.919282 0.096506 0.166471 0.354767 -1.180952 0.584883 0.663588 0.189627
917 1.055300 0.202191 0.104149 0.579845 -0.225941 0.465079 0.561099 -0.188822 0.331931 0.888069 -0.509325 -0.248476 -0.032165 0.000218 -0.003443 -0.173293 0.671205 -0.318999 -0.900951 -0.631045 -0.340688 0.357979 -1.429425 0.136988 -0.377014 -0.866658 -0.208351 0.359871 -0.927372 -0.777502 0.482700 -0.533820
887 0.974711 1.491907 -1.423575 -0.512582 0.461992 1.560511 0.158862 -0.345205 0.513716 -0.283812 -0.746350 0.343418 0.005126 0.807528 0.220745 -1.012890 -0.170820 -0.437976 0.701362 0.116141 -0.986165 0.267813 -1.601704 -0.093851 -0.393173 0.507547 -0.388370 -0.010557 0.098076 0.989995 0.343273 -0.099344
477 1.134845 0.223142 -0.030865 0.585785 -0.126324 0.397508 0.521463 -0.186484 0.250222 0.863748 -0.551108 -0.283375 -0.018549 0.000283 -0.099320 -0.206020 0.724085 -0.274187 -0.892081 -0.666490 -0.364977 0.165355 -1.348565 0.051191 -0.310438 -0.758341 -0.231659 0.384207 -0.889057 -0.910298 0.389603 -0.501405
767 1.790828 0.360661 -0.385557 -1.161517 -0.471653 -0.310482 1.028863 0.321761 1.592742 0.316420 -0.784226 0.795572 -0.589230 -0.286119 -1.268070 0.461335 0.482266 -0.113883 0.026112 -0.803698 -1.234171 0.128029 -0.808145 -0.451050 -0.860637 0.075299 0.134181 0.312075 -1.200508 0.594537 0.685520 0.189819
843 0.337447 1.094074 -1.125830 -1.438403 -0.465010 1.510049 1.033797 0.246297 -0.428758 0.388139 0.459369 0.455676 0.544331 -0.634416 1.008048 0.155940 0.615410 0.120654 0.019297 0.403425 -1.231160 0.069097 -1.059136 0.429408 -1.463990 -0.281099 -0.342314 1.393972 -0.626083 -1.267847 0.018372 -1.082254
505 1.019389 0.298428 0.088369 0.593445 -0.149934 0.515379 0.637016 -0.209172 0.185480 0.834906 -0.526083 -0.274787 -0.039356 0.119193 -0.119168 -0.310643 0.553891 -0.253017 -0.985927 -0.543633 -0.413374 0.365805 -1.333190 0.067559 -0.485639 -0.827797 -0.304311 0.343736 -0.813955 -0.813480 0.396189 -0.390230
249 1.239679 0.865023 -1.658732 -0.732270 -0.526444 0.864335 0.876625 0.196883 -1.244919 1.751828 -0.557946 -0.392427 -0.331934 0.002661 -0.271324 -0.336505 -0.572956 -0.509638 -0.114323 0.839522 -0.760974 -0.544621 -0.415207 -0.988146 -0.541538 -1.036124 -1.158120 1.457105 -0.159182 0.031098 0.359932 0.092409
508 -1.295821 1.583723 -0.208304 -0.811706 0.195730 0.454823 1.112880 -0.344046 -0.173005 0.744398 -1.333122 0.792044 0.534476 1.099793 0.206251 -1.046276 0.458440 -0.242810 0.031071 -0.420782 -0.610886 0.656141 -0.836709 -0.078986 0.280330 -0.491937 -0.692636 0.590069 -0.679118 -0.375047 1.845924 -0.871966
93 0.452373 0.368823 -0.293921 -0.732170 -0.340122 1.024363 -0.574122 0.576073 -0.273914 -0.036152 -0.899167 0.609638 -0.322003 0.506057 -0.207949 -0.484040 -0.591577 -0.247532 -0.028894 0.866238 0.069922 0.230382 -1.392192 -0.781718 -0.310278 -0.747784 -0.392417 0.732222 -0.920070 -0.579394 0.844845 -1.834157
1100 1.744822 0.391791 -0.451693 -1.195326 -0.502499 -0.304840 1.016726 0.285865 1.577042 0.329542 -0.790564 0.785524 -0.609216 -0.215265 -1.189155 0.487229 0.521982 -0.085310 0.003870 -0.831712 -1.290283 0.066604 -0.751636 -0.516447 -0.864126 0.008866 0.096576 0.313884 -1.198335 0.600809 0.737943 0.202474
430 1.035811 0.710438 -2.199414 0.219937 -0.763635 -0.311267 0.583664 0.197965 0.878665 0.799388 -0.857875 1.197530 0.040116 -0.526228 -0.423517 0.068473 -0.292341 0.392225 -0.614549 0.186197 -0.334998 0.107054 -1.961208 -0.488088 0.455018 -0.205964 -0.498302 0.396854 -0.032692 0.949988 0.305880 -0.967642
916 -0.204303 1.610403 -0.299301 -1.962848 -0.559791 0.484569 0.666780 -0.427875 0.677884 1.169746 -0.975199 1.130230 -0.472088 -0.222336 0.627457 0.032865 1.065342 -0.673437 0.463181 -0.252873 -1.504300 0.136776 -0.302931 0.172174 0.355265 0.705921 -0.438518 0.924840 -0.305761 0.611103 1.169795 0.820159
828 0.996352 1.427408 -0.224542 -1.708592 -0.167642 -0.769756 0.052507 0.559393 1.136370 0.863937 -0.325025 0.237574 0.773691 0.802393 0.625221 -0.604301 -0.061545 -0.557714 -0.507568 0.360715 -0.853992 0.596564 -0.429354 -0.882096 -1.158640 -0.265495 -0.215606 0.841057 -0.862885 -0.661742 0.041535 -0.352521
841 1.876428 0.338417 -0.372280 -1.180124 -0.515744 -0.313508 0.952126 0.295610 1.572288 0.363775 -0.783893 0.714570 -0.650201 -0.319063 -1.224223 0.420666 0.412920 -0.166219 0.002276 -0.797179 -1.235529 0.118505 -0.766432 -0.482995 -0.927931 0.134810 0.216149 0.297292 -1.193198 0.639274 0.695289 0.224508
511 1.075382 0.237146 0.042241 0.569749 -0.154733 0.379388 0.521439 -0.162880 0.257327 0.824206 -0.536990 -0.314200 -0.004062 0.047393 -0.081707 -0.163005 0.578846 -0.353010 -0.937546 -0.647161 -0.501759 0.364899 -1.361848 0.065912 -0.462330 -0.768498 -0.172433 0.321168 -0.838146 -0.827085 0.432366 -0.378109
374 1.036195 0.756240 -2.167657 0.427370 -0.686934 -0.292369 0.538732 0.256140 0.870063 0.588728 -0.691685 0.940700 0.074272 -0.356671 -0.437084 0.210435 -0.203565 0.556601 -0.574159 -0.044998 -0.501812 0.371226 -2.158542 -0.373228 0.436632 -0.161562 -0.512644 0.491787 -0.218583 0.896363 0.497039 -1.160704
845 1.228491 0.867582 -1.618965 -0.747183 -0.486488 0.904722 0.910441 0.193351 -1.194652 1.722384 -0.568893 -0.371057 -0.333540 0.040854 -0.279088 -0.387808 -0.542986 -0.532410 -0.076061 0.820215 -0.776702 -0.477203 -0.434129 -0.990373 -0.541402 -1.042986 -1.165663 1.466701 -0.187410 0.026510 0.399894 0.085064
197 0.879466 0.239210 0.232575 0.626916 -0.207004 0.410573 0.504825 -0.255135 0.363705 0.784520 -0.625224 -0.221442 0.047928 0.086784 -0.117458 -0.277494 0.620273 -0.383723 -0.712382 -0.630917 -0.314843 0.528881 -1.433737 0.190303 -0.301330 -0.799739 -0.221674 0.336980 -0.892015 -0.756795 0.529449 -0.502719
34 1.402321 0.111365 -0.753454 -1.058203 0.283760 0.803913 0.710776 0.491346 1.366025 0.350966 -1.045362 0.540841 0.050258 0.272522 0.167460 -1.269073 0.010105 0.651779 0.032797 -1.363782 0.376672 0.484613 -1.246989 0.065813 0.837338 0.699277 0.043382 0.493413 -1.342297 -0.152146 1.227207 -0.542223
13 0.987669 0.167711 -0.715331 -1.072201 -0.791023 0.366918 1.237604 -1.497005 0.774575 1.376850 -1.142072 0.838074 0.195433 -1.041761 0.581619 -0.172467 -0.350851 -1.004625 -0.437090 0.644913 0.330576 0.257176 -1.178078 -0.114804 -1.112868 -0.636782 -0.085405 0.352665 0.065991 -0.022975 0.621067 0.726281
818 1.088149 1.456705 0.050531 -1.462814 -0.184710 -0.704357 0.198165 0.609406 1.084417 0.858664 -0.311853 0.251574 0.732816 0.505785 0.710089 -0.600050 -0.008066 -0.713956 -0.337657 0.709329 -0.828510 0.501039 -0.443398 -0.744948 -1.343320 -0.321458 -0.487836 1.007175 -0.692537 -0.693128 0.088855 -0.365615
1273 1.231895 0.737816 -0.535747 -0.704016 -2.244390 -0.243442 0.227026 -0.485186 1.091575 1.014137 -0.890155 1.120821 -0.621900 -0.306511 0.955556 -0.375307 1.185463 0.506083 0.008929 -0.469190 -0.772536 0.171676 -1.210344 0.613038 0.134507 -1.366151 -0.250620 -0.176423 -0.243929 0.014668 1.718895 0.422744
370 0.973776 0.270785 0.283309 0.564039 -0.164126 0.406464 0.534466 -0.267394 0.342625 0.843661 -0.590235 -0.155440 0.001252 0.181222 -0.145446 -0.278220 0.643043 -0.271688 -0.762476 -0.669037 -0.260285 0.436403 -1.403003 0.135623 -0.331379 -0.799567 -0.285519 0.320538 -0.972364 -0.778931 0.560454 -0.520561
975 0.451913 0.377063 -0.348594 -0.731903 -0.338105 1.041803 -0.478530 0.493655 -0.245634 -0.042703 -0.898377 0.625716 -0.286916 0.503855 -0.241348 -0.514857 -0.571808 -0.236291 -0.052555 0.799478 -0.000261 0.222809 -1.415603 -0.725354 -0.291494 -0.637873 -0.389171 0.760530 -0.926136 -0.597260 0.927902 -1.784669
491 0.537516 0.472039 -1.037717 -0.647049 0.250490 0.294891 -0.701110 -0.311672 0.295313 0.520202 -0.500539 1.152763 0.808335 -0.249703 1.142280 -0.002079 -0.008051 0.048731 -0.581906 -0.764153 -0.249697 1.161644 -2.124270 0.871222 -0.941029 -0.084078 0.672800 0.637687 -0.463046 -0.083253 1.132421 -0.217108
177 -0.362207 1.339211 -0.464941 -1.954526 -0.743382 0.366618 0.608356 -0.421857 0.674835 1.226465 -0.991881 1.330133 -0.907238 -0.169432 0.249231 -0.117657 0.799004 -0.349343 0.531124 -0.434472 -1.469435 0.309118 -0.160802 0.546831 0.522253 0.630940 -0.750112 1.157830 -0.420074 0.220426 1.087485 0.557166
0 0.691079 0.620240 -0.546348 -0.639062 -0.228231 0.637278 0.371885 -0.163559 0.227674 0.691764 -0.776498 0.679979 -0.123611 -0.026225 0.233864 -0.543962 0.196113 -0.540332 -0.346350 -0.138534 -1.011891 0.433054 -1.192520 -0.395661 -0.522135 -0.308662 -0.250263 0.707313 -0.676859 -0.313444 0.878876 -0.134731
342 0.953253 0.725416 -0.783583 -0.694262 -0.311034 0.593956 0.638080 0.066597 0.298326 0.893571 -1.077592 0.731086 -0.234508 -0.016366 0.129233 -0.719340 0.184594 -0.552092 -0.245552 -0.143204 -1.007587 0.438593 -1.402510 -0.405511 -0.355349 -0.289113 -0.228199 0.864704 -0.844694 -0.020666 0.868594 -0.555377
716 0.969346 0.593398 -0.498016 -0.966447 -0.335425 0.694663 0.193384 0.470289 0.472205 1.014084 -0.964637 1.207438 -0.221880 -0.013126 0.626361 -0.487678 0.791457 -0.602720 -0.223755 -0.741140 -0.892841 0.109131 -1.241175 -0.346507 -0.046096 -0.336705 -0.221049 1.163424 -0.611869 0.233736 0.816821 -0.273991
1060 0.661451 0.867161 -0.900231 -0.554683 -0.824511 0.620448 0.307297 0.173681 0.199403 1.506526 -1.121238 0.974066 -0.418045 -0.129940 0.090623 -0.503337 0.344296 -0.421479 0.054047 0.011429 -0.603591 0.163922 -1.263147 -0.208323 -0.411810 -0.208014 0.273370 0.926872 -0.894140 -0.296513 0.953554 -0.764203
1062 -0.388735 -0.082320 -1.183721 -1.702499 0.171971 0.799604 -0.276068 -0.630445 -0.279034 1.283495 -0.671352 1.329283 -0.681955 0.217348 0.316598 -0.553880 1.236290 -1.739025 0.178388 -0.154262 -0.861828 -0.530602 -1.157432 -0.766328 0.219773 -1.392548 0.801385 0.406302 0.302224 0.295036 1.504179 -0.727423
295 0.936007 0.664474 -0.771283 -0.617984 -0.321572 0.522498 0.587261 -0.007823 0.252711 0.845173 -0.985590 0.701643 -0.227993 0.019770 0.045054 -0.653975 0.167760 -0.582453 -0.280532 -0.153446 -0.900851 0.384026 -1.369366 -0.395931 -0.406495 -0.353274 -0.178752 0.808281 -0.711985 -0.039091 0.811539 -0.546769
1129 0.855773 0.596358 -0.580685 -0.562754 -0.143036 0.545807 0.506092 0.019608 0.187758 0.637272 -0.854994 0.652118 -0.116841 -0.005572 0.129290 -0.633114 0.245171 -0.502998 -0.242519 -0.235067 -0.717947 0.469639 -1.202973 -0.336072 -0.504611 -0.096971 -0.230199 0.794062 -0.677239 0.079676 0.784951 -0.456523
593 0.913594 -0.021945 -0.901552 -2.563693 -1.200123 1.112579 0.099813 -0.151066 0.020682 1.258859 -0.679591 0.153516 -0.266040 -1.216953 0.462423 0.435471 0.989688 0.803865 -0.831579 0.081247 -0.455195 -0.401556 -0.784599 -1.328681 0.434950 -0.460436 -0.218711 1.092492 -1.450886 -0.165584 0.583494 -0.540110
1080 0.898882 0.665627 -0.720420 -0.572878 -0.277671 0.560487 0.593413 0.022188 0.269956 0.783347 -0.985920 0.652377 -0.241468 -0.016044 0.079981 -0.664207 0.167021 -0.525565 -0.212994 -0.118241 -0.903639 0.455052 -1.314723 -0.386483 -0.377947 -0.294721 -0.162175 0.789037 -0.701186 -0.073398 0.797403 -0.496322
1127 0.983140 0.731637 -0.815608 -0.667965 -0.332289 0.600134 0.688923 0.072090 0.308103 0.884312 -1.124898 0.728295 -0.268710 0.012581 0.133353 -0.727983 0.150723 -0.610674 -0.238503 -0.139802 -1.059093 0.521752 -1.495875 -0.460913 -0.384415 -0.333745 -0.234772 0.964717 -0.855275 -0.087276 0.899394 -0.633792
274 0.412051 1.054105 -0.134484 -1.901708 -0.173619 0.448910 -0.718607 0.380025 -0.638052 1.614022 -0.590025 1.097096 -0.964403 0.121757 0.672171 -1.487574 0.958825 0.535841 0.239761 -1.035468 -0.624340 0.663067 -0.791825 0.478457 -0.578363 0.235188 0.397524 0.202066 -0.434903 -0.581534 1.391103 -1.647672
18 -0.104401 0.413217 -1.800480 -0.954452 -0.409204 0.639284 0.001067 0.541132 -1.167469 1.242726 0.365440 1.132143 0.483523 -0.099315 0.572451 -1.183725 -0.182605 -0.052181 0.035042 -0.928695 -0.606435 1.158056 -0.718455 -0.021987 -0.643369 -0.066959 -1.140150 1.833703 -0.053060 0.712954 1.750056 0.365175
1236 0.972136 0.763989 -0.813216 -0.628807 -0.345307 0.640740 0.637108 0.011512 0.278844 0.856142 -1.096789 0.741108 -0.293953 0.008398 0.138099 -0.731292 0.219723 -0.579417 -0.251529 -0.144204 -0.997633 0.491885 -1.434928 -0.429929 -0.418723 -0.288422 -0.219708 0.937421 -0.833549 -0.046287 0.851774 -0.612079
444 -0.072673 0.404671 -1.763602 -1.001521 -0.420240 0.643445 -0.031981 0.551492 -1.173944 1.173328 0.333841 1.084239 0.477865 -0.077966 0.653264 -1.240751 -0.195313 -0.090302 0.095745 -0.915673 -0.638506 1.141635 -0.670590 -0.016094 -0.717575 -0.063167 -1.119996 1.875072 -0.101236 0.651719 1.715620 0.317007
1245 -0.476479 -0.192731 -2.190894 -0.633851 0.110752 0.191711 0.309519 0.114396 -0.215570 0.895393 -0.449295 0.669828 -1.673183 0.544068 0.255834 -1.008261 0.385787 -1.023279 1.419672 -0.218432 -1.998710 0.478654 -1.012407 0.195560 0.231165 0.288185 -0.500737 1.839251 0.065730 0.694874 1.095980 -0.906135
747 0.823490 0.659475 -0.667855 -0.605758 -0.261187 0.524645 0.584795 0.041633 0.209628 0.734410 -0.867192 0.585154 -0.177122 -0.059480 0.073243 -0.531103 0.131599 -0.478381 -0.250663 -0.084608 -0.827702 0.350884 -1.225712 -0.332218 -0.338891 -0.235078 -0.114304 0.822598 -0.709947 -0.072703 0.681548 -0.442012
748 0.919299 0.820936 -0.617663 -0.462524 -0.201914 0.655057 0.606921 -0.003191 0.186480 0.686217 -0.893533 0.591539 -0.324242 0.100737 0.057933 -0.592658 0.063015 -0.507681 -0.144512 -0.290639 -0.839150 0.404190 -1.180903 -0.378927 -0.250065 -0.199162 -0.099252 1.011343 -0.815544 -0.175656 0.805810 -0.455105
232 1.015459 0.772606 -0.813709 -0.720712 -0.345294 0.604756 0.698061 0.045618 0.239551 0.892021 -1.107036 0.748388 -0.281587 0.033377 0.149798 -0.746057 0.201790 -0.628568 -0.258936 -0.141987 -1.043540 0.463182 -1.498887 -0.478798 -0.406556 -0.330090 -0.217474 0.909145 -0.835873 -0.100948 0.918961 -0.591595
1198 1.251506 1.100859 -0.736393 -1.552363 -0.107437 0.253458 -0.296703 0.700332 1.399204 -0.206013 -0.310440 2.285952 -1.000844 -0.383578 1.678749 -0.319257 0.904776 0.488280 -0.101037 -0.579114 -0.666245 0.378678 -1.359251 -0.415856 0.386778 0.629220 0.174911 1.361422 -0.533189 0.230394 0.286772 -0.289268
1059 -0.396620 -0.122979 -1.205231 -1.728088 0.172833 0.782561 -0.264056 -0.616090 -0.180711 1.238777 -0.651117 1.314019 -0.701930 0.267613 0.326751 -0.486147 1.284175 -1.727125 0.170743 -0.197383 -0.870215 -0.541448 -1.037311 -0.730275 0.196183 -1.343242 0.806479 0.444684 0.255413 0.318506 1.531518 -0.691267
613 0.664838 0.697582 -0.719861 -0.771391 -0.753752 0.687973 0.759643 -0.079242 0.255676 0.526423 -0.592632 0.478461 -0.284548 -0.387851 0.474980 -0.491951 0.407296 -0.223956 -0.453648 -0.169969 -0.655375 0.469347 -1.393205 -0.128018 -0.428000 -0.210777 0.008205 0.848042 -0.391009 0.006060 0.811904 -0.391415
1272 1.434210 0.682760 -0.248578 -1.040956 -0.425424 0.618100 0.690231 -0.063722 0.493941 0.668259 -0.950974 0.707218 -0.025374 -0.292701 0.492307 -0.516172 -0.033803 -0.599880 -0.148944 -0.534292 -0.813910 0.043159 -0.564497 -0.296821 -0.349159 0.084119 0.339635 0.842640 -0.795324 -0.077487 0.824464 -0.095126
1284 1.198165 1.103427 -0.722451 -1.579512 -0.090920 0.222777 -0.301229 0.721702 1.357404 -0.190280 -0.288351 2.338426 -0.997189 -0.301395 1.704964 -0.349677 0.925220 0.498392 -0.027140 -0.547842 -0.684402 0.420487 -1.360727 -0.461292 0.442645 0.615084 0.192258 1.378592 -0.476925 0.321621 0.335512 -0.379991
1288 -0.304145 0.177876 -1.137908 0.470082 0.075597 2.394101 0.874122 -0.134031 0.582839 1.157479 -0.462085 1.835914 -0.082472 -0.111656 0.265487 -0.123528 0.367967 -0.792544 -0.201085 0.318469 -0.819518 -0.090502 -0.734334 0.155992 0.129122 -0.033869 -0.029729 1.778661 0.376544 0.445926 1.341001 -0.455736
937 0.587563 0.879902 -0.895130 -0.558880 -0.849696 0.563665 0.252958 0.197651 0.137434 1.547842 -1.074043 1.040204 -0.403746 -0.188212 0.064492 -0.502802 0.321851 -0.417283 0.082344 0.051004 -0.643049 0.158856 -1.245588 -0.155954 -0.405240 -0.203035 0.339398 0.919820 -0.836899 -0.287799 0.867878 -0.796229
391 1.084788 0.705399 -0.838933 -0.738368 -0.156783 0.680782 0.517911 0.042305 0.348971 0.656362 -0.836999 0.634303 -0.238157 -0.041371 0.129145 -0.551801 0.194953 -0.501035 -0.272570 -0.026253 -1.082664 0.505006 -1.422381 -0.419870 -0.368890 -0.267130 -0.284521 0.775316 -0.664185 0.052935 0.897443 -0.464020
395 1.023514 0.717621 -0.781232 -0.690166 -0.368061 0.570426 0.669015 0.051274 0.284698 0.851374 -1.143219 0.734093 -0.298389 -0.006580 0.160820 -0.686758 0.137807 -0.597521 -0.292723 -0.160233 -1.032468 0.505187 -1.439457 -0.484489 -0.333629 -0.321808 -0.148922 0.934147 -0.847193 -0.049481 0.942766 -0.612063
586 0.640044 0.438170 -0.663769 -0.496203 -0.227544 0.527918 0.486432 0.206217 0.112548 0.806528 -0.994112 0.747739 -0.216620 -0.228755 0.091436 -0.629744 0.092710 -0.474900 -0.146214 -0.293996 -0.744629 0.670359 -1.284827 -0.326322 -0.390726 -0.201721 0.074118 1.064599 -0.789314 -0.156220 0.733767 -0.670458
582 0.675719 0.414780 -0.668476 -0.481581 -0.178919 0.519559 0.491363 0.242515 0.135753 0.801701 -0.969780 0.725761 -0.194133 -0.247912 0.077709 -0.623206 0.068981 -0.479322 -0.154404 -0.305078 -0.727908 0.708897 -1.317760 -0.302886 -0.380681 -0.170119 0.075691 1.092719 -0.783228 -0.128145 0.758350 -0.687291
246 0.880995 0.752365 -0.722710 -0.573156 -0.319318 0.477883 0.549142 0.063982 0.234582 0.818798 -0.909936 0.680880 -0.297470 -0.104499 0.150640 -0.665989 0.225448 -0.538848 -0.149900 -0.055460 -0.903012 0.368868 -1.374248 -0.494116 -0.336369 -0.291394 -0.122074 0.732073 -0.688034 -0.056497 0.727346 -0.536611
514 0.675806 0.657395 -0.367213 -0.602057 -0.517321 0.615649 0.402201 -0.286520 -0.058305 0.861897 -0.638314 0.657048 -0.373685 -0.093747 0.284517 -0.599844 0.507240 -0.480395 -0.159826 -0.176224 -0.754275 0.561314 -1.084079 -0.190586 -0.483013 -0.194989 -0.096955 1.086648 -0.681827 0.016230 0.777952 -0.603355
624 0.927032 0.720359 -0.787444 -0.693278 -0.341849 0.593499 0.639238 0.083430 0.286239 0.892708 -1.082169 0.745069 -0.257923 -0.013396 0.124168 -0.729981 0.189016 -0.542854 -0.231357 -0.160806 -1.014166 0.434331 -1.389062 -0.410305 -0.366835 -0.307582 -0.203596 0.860606 -0.815156 -0.021683 0.877024 -0.542045
974 0.575993 -0.067159 -1.216581 -0.935642 -1.089392 0.569651 0.227095 0.700265 -0.685779 0.700939 -1.009253 1.935762 -1.181807 0.158507 0.703156 -0.532080 -0.535156 -0.255581 0.317934 -0.583259 -1.197534 -0.381694 0.094118 -0.213469 0.195895 -0.506759 -0.777521 2.377031 -0.859869 -1.198519 -0.125046 -0.430833
881 1.041025 0.715545 -0.828978 -0.638060 -0.301862 0.587688 0.658204 0.040393 0.271775 0.924164 -1.289030 0.742550 -0.243028 0.044897 0.151197 -0.708006 0.135028 -0.722640 -0.292253 -0.116134 -1.135641 0.482897 -1.472200 -0.543132 -0.470680 -0.362767 -0.241994 0.931415 -0.909652 -0.051447 0.955439 -0.594617
884 0.720308 0.566894 -1.178179 -1.936705 -1.198728 1.789198 -0.528638 0.557743 0.472259 0.440104 -1.642537 0.831360 -0.077730 -0.565488 -0.150165 -0.300760 -0.461326 -0.255779 0.835896 0.052409 -0.266812 1.185223 -0.354189 0.187200 0.212294 0.257933 0.896641 0.945762 -0.618903 0.970051 1.796176 0.112783
324 0.596627 0.243874 -1.196963 0.668200 -1.131543 0.554342 0.088129 -0.498872 0.094442 1.407883 -0.331419 1.256166 -0.966713 -0.651228 0.347234 0.222095 0.959357 -0.973712 0.228135 0.197868 -1.419285 1.616594 -2.456877 -0.188161 -0.717598 -0.326155 -0.330275 0.042463 0.392259 0.482360 0.883816 0.850674
325 0.442768 0.870597 -0.589602 -2.136989 -0.181195 0.642450 -0.477261 1.069863 -0.204358 1.724627 -1.614807 0.456130 0.497989 -0.295526 0.829304 -0.236485 -0.217556 0.054699 0.249322 -0.205825 0.063347 0.564978 -0.139797 -0.983262 -0.027941 0.962887 -0.074348 2.202386 -0.629707 -1.151992 1.126762 -0.565389
774 0.679513 0.606452 -0.529386 -0.594965 -0.132030 0.626762 0.360611 -0.152922 0.182711 0.721497 -0.780876 0.699083 -0.098719 -0.012207 0.184150 -0.572438 0.148800 -0.563528 -0.300638 -0.173800 -1.004202 0.482344 -1.200354 -0.372921 -0.530818 -0.276648 -0.263677 0.717727 -0.678695 -0.296445 0.880303 -0.133145
75 0.861868 0.664915 -0.690961 -0.624743 -0.263041 0.541230 0.600907 0.016813 0.195059 0.727219 -0.867240 0.578059 -0.184299 -0.045219 0.074385 -0.565413 0.156859 -0.497888 -0.236947 -0.081605 -0.813367 0.345753 -1.256761 -0.357586 -0.358326 -0.269210 -0.137988 0.838321 -0.716339 -0.069915 0.697815 -0.421284
1047 1.276631 0.260945 -1.300340 -2.025824 -0.743392 1.254203 0.088169 -0.008085 0.455232 0.567378 -0.249420 0.216537 0.600278 -1.534779 1.118553 -1.328681 0.233008 -0.956554 0.911391 0.283635 -0.161217 0.511012 -1.817395 0.438486 -0.285974 0.486759 -0.225523 1.690551 0.200302 0.237361 -0.025611 0.269041
663 0.884679 0.722883 -0.797060 -0.753738 -0.240784 0.470461 0.568798 -0.019183 0.286323 0.922929 -0.945380 0.764563 -0.279035 0.050251 0.181816 -0.839992 0.052158 -0.362664 -0.029337 -0.317587 -1.105721 0.544121 -1.359851 -0.378683 -0.222704 -0.317243 -0.180308 0.753443 -0.788227 -0.060189 0.745293 -0.745748
1266 1.179175 0.258322 -1.334487 -2.070247 -0.762461 1.271501 0.091315 -0.006276 0.496215 0.551389 -0.210220 0.260744 0.519507 -1.558788 1.074384 -1.274484 0.252936 -0.944421 0.923301 0.330119 -0.151212 0.519650 -1.850837 0.430545 -0.279417 0.558365 -0.217809 1.651794 0.158203 0.199965 -0.023220 0.233692
697 0.386872 1.047941 -0.126901 -1.886723 -0.132300 0.387539 -0.819375 0.360360 -0.669885 1.633764 -0.551711 1.123391 -0.937519 0.150296 0.597206 -1.528549 0.914680 0.609514 0.276745 -1.183132 -0.622397 0.635088 -0.753815 0.496911 -0.590372 0.284951 0.455945 0.176335 -0.495275 -0.566752 1.387630 -1.729726
699 1.621448 -0.529566 -0.616110 -0.923966 -1.463663 0.215839 1.187341 0.338015 -0.283655 2.182814 0.037493 0.096545 0.291802 0.106966 1.805510 -0.360770 0.906307 -0.447045 -0.025596 -0.746916 -1.683309 -0.227799 -0.772468 0.056097 -0.839806 -0.065603 0.692527 0.885205 -0.206144 -0.241847 0.836756 0.469581
992 0.389923 0.062742 -1.074557 -0.361490 -1.294557 1.855280 0.877393 0.328289 -0.716398 1.407728 -1.744697 1.508038 -0.132202 -0.147708 0.901375 -1.331027 0.247563 0.511924 0.827691 -0.381672 0.247998 0.197662 -1.389515 -0.204019 0.570299 -0.573491 0.003827 0.126905 0.428992 0.106064 1.021844 -0.057161
126 0.330040 0.075083 -1.147457 -0.384015 -1.350100 1.917141 0.804572 0.420404 -0.774660 1.322491 -1.863336 1.559014 -0.160760 -0.192545 0.841491 -1.287871 0.283146 0.495443 0.888365 -0.372941 0.307155 0.243190 -1.349490 -0.157513 0.598197 -0.533151 -0.019774 0.097470 0.363461 0.147527 1.027253 -0.024591
128 1.246920 0.091765 0.252048 -2.132990 -0.156454 0.586343 1.258787 -0.669240 -1.498143 1.101385 -1.515253 0.759099 0.378004 -0.058342 1.244716 -0.635306 0.460664 -0.223041 0.324951 -0.411643 -0.687072 -0.200376 -0.965865 -0.524423 0.753808 0.147803 0.419256 0.778431 -0.583361 1.041622 0.207007 -0.935567
563 1.499612 0.681951 -0.231385 -0.973853 -0.476500 0.638454 0.606492 -0.050542 0.486266 0.711155 -0.988275 0.749797 -0.026973 -0.334246 0.560291 -0.451985 0.004345 -0.654451 -0.157152 -0.547291 -0.821191 -0.013881 -0.567789 -0.336361 -0.385178 -0.013758 0.327932 0.849809 -0.735959 -0.053439 0.850913 -0.020884
922 -0.582737 1.085540 -0.413988 -1.634065 -1.091629 1.742531 0.581540 0.266412 -0.376975 1.086682 -0.164034 0.731843 0.320629 -0.012490 1.727745 -0.179937 -0.344934 -0.209138 0.690351 0.122562 -0.495512 0.496416 -2.258679 0.172751 0.644343 -0.743429 0.370690 1.223148 0.551111 -0.275868 1.200310 -1.481885
923 1.318103 0.736745 -0.534379 -0.670019 -2.199248 -0.227944 0.185937 -0.496795 1.066112 0.925502 -0.971220 1.093710 -0.602506 -0.321939 0.919552 -0.422265 1.167052 0.466917 -0.010525 -0.558783 -0.779524 0.198138 -1.172718 0.598730 0.159251 -1.340108 -0.280378 -0.121664 -0.244657 0.086931 1.732202 0.477287
319 0.703964 0.525603 -1.132875 -1.990870 -1.130575 1.746638 -0.564897 0.535522 0.428261 0.368293 -1.604672 0.793030 -0.144354 -0.553180 -0.146087 -0.286068 -0.423827 -0.303383 0.853047 0.075791 -0.293343 1.190534 -0.321781 0.183971 0.196854 0.245830 0.952591 0.914403 -0.596742 0.953043 1.823428 0.087436
250 0.370178 1.132422 -1.027781 -1.503698 -0.416970 1.533420 0.997387 0.248924 -0.501058 0.392051 0.428759 0.424752 0.547783 -0.648648 0.946964 0.214340 0.631772 0.083763 0.018558 0.455283 -1.165589 0.055055 -1.070856 0.351320 -1.509534 -0.241281 -0.295224 1.416701 -0.693150 -1.306467 -0.002875 -1.059676
254 1.034004 0.980676 -0.842778 -1.763780 -0.172927 0.549594 1.283000 0.030666 0.477152 1.263665 -0.223028 1.524473 0.808080 -0.089207 0.248614 -0.437921 0.086164 0.132311 1.072723 -0.968477 -1.063361 -0.782835 0.042771 -1.028150 0.152304 -1.236712 -0.034492 0.773174 0.443827 -0.265175 1.681817 -0.069017
731 0.923176 0.666334 -0.755478 -0.590627 -0.324214 0.536562 0.606856 -0.003933 0.233523 0.819595 -0.987591 0.687486 -0.235619 -0.001600 0.051708 -0.661536 0.170997 -0.568894 -0.280864 -0.136787 -0.891709 0.397453 -1.359072 -0.394519 -0.377156 -0.342338 -0.152761 0.827547 -0.707929 -0.051105 0.817921 -0.566834
733 1.646473 -0.577783 -0.647499 -0.934920 -1.462339 0.214843 1.265417 0.378311 -0.298148 2.103186 0.073303 0.123114 0.377517 0.104788 1.870132 -0.311991 0.875716 -0.457507 -0.086829 -0.649940 -1.658057 -0.208664 -0.782120 0.060221 -0.851067 -0.035779 0.658025 0.919478 -0.208932 -0.238449 0.786209 0.555046
734 0.700598 0.744381 -0.715762 -0.796107 -0.742726 0.750883 0.781148 -0.040408 0.352195 0.572429 -0.633099 0.544197 -0.301747 -0.420501 0.431032 -0.533137 0.371948 -0.192674 -0.396798 -0.236499 -0.554690 0.449658 -1.360119 -0.085940 -0.415315 -0.101120 0.066907 0.812850 -0.466448 -0.075041 0.798257 -0.393889
736 0.873859 0.620577 -0.587192 -0.542812 -0.136623 0.535449 0.522523 -0.006939 0.182032 0.641659 -0.869592 0.666614 -0.135073 -0.000143 0.120887 -0.615180 0.219257 -0.492948 -0.240614 -0.247485 -0.752883 0.487396 -1.211719 -0.335250 -0.498195 -0.137724 -0.233011 0.815134 -0.690191 0.071451 0.765928 -0.455578
738 1.822885 1.701242 0.404297 -0.495603 -0.691521 0.500700 -0.134530 -0.403240 1.412913 1.073059 0.116109 0.913798 -0.447513 0.181703 1.001290 -0.421168 1.225695 -1.532743 -0.344542 -0.855219 -0.883439 -0.163737 -1.321981 -0.896588 0.630586 -0.345827 0.681803 1.441799 0.170606 0.595005 0.391831 0.337123
630 0.906052 0.709791 -0.793758 -0.717130 -0.244492 0.489650 0.577688 -0.028773 0.257312 0.937851 -0.927321 0.748180 -0.289254 0.018849 0.142086 -0.841038 0.033828 -0.389958 -0.025782 -0.313701 -1.092204 0.501624 -1.402981 -0.388092 -0.227619 -0.326429 -0.185205 0.751139 -0.774449 -0.049824 0.762196 -0.739146
164 0.481316 0.897473 -0.606296 -2.101156 -0.267010 0.608363 -0.476328 1.135114 -0.207242 1.698254 -1.575989 0.500398 0.500160 -0.292863 0.838644 -0.178516 -0.190291 0.105825 0.239587 -0.233623 0.036250 0.521016 -0.166738 -0.976153 -0.037254 1.028724 -0.168668 2.128546 -0.640007 -1.098189 1.049537 -0.641801
967 -0.432204 -0.180925 -2.149670 -0.629818 0.071788 0.182831 0.303307 0.101682 -0.152317 0.920898 -0.474295 0.591996 -1.659124 0.531628 0.196205 -1.003965 0.358299 -1.014719 1.381410 -0.265080 -1.982512 0.532086 -1.036666 0.226835 0.266862 0.291004 -0.448961 1.878300 0.073247 0.745739 1.104922 -0.893614
1102 1.006109 0.748621 -0.798250 -0.698240 -0.332009 0.612378 0.660946 0.038932 0.227654 0.873962 -1.100600 0.724329 -0.276578 0.044297 0.133709 -0.733177 0.193565 -0.605100 -0.270074 -0.145865 -1.035702 0.455967 -1.441779 -0.471751 -0.408654 -0.321941 -0.193882 0.898692 -0.804665 -0.097567 0.891983 -0.583458
1103 1.019561 1.054482 -0.896898 -1.734447 -0.196845 0.559510 1.287014 0.017889 0.433466 1.319100 -0.248796 1.496198 0.814171 -0.207538 0.186913 -0.438943 0.090897 0.144364 0.988649 -0.970943 -1.029897 -0.756326 0.036532 -1.065833 0.144384 -1.261086 0.010700 0.793693 0.446329 -0.215252 1.648159 -0.074485
1108 0.115850 0.733728 -0.143115 -0.718020 0.222451 -0.180994 0.846551 -0.361260 -0.393910 1.038289 0.201639 0.786925 -0.543938 -0.133096 -0.084268 -0.487482 0.733386 -0.425999 -0.386963 0.021165 -0.844798 1.095014 -1.728642 -0.266179 -0.389818 1.109652 0.314986 1.233644 -0.784285 0.652207 -0.165747 -0.486989
879 0.882489 0.676224 -0.716555 -0.588805 -0.266464 0.546605 0.580197 0.030646 0.286006 0.809478 -0.998549 0.644983 -0.221608 -0.005126 0.086181 -0.662853 0.160632 -0.521894 -0.235508 -0.100346 -0.938570 0.466761 -1.324550 -0.412039 -0.381884 -0.285924 -0.176389 0.812413 -0.737143 -0.069734 0.801825 -0.510982
1248 0.899071 0.799251 -0.632068 -0.490588 -0.204965 0.647574 0.563757 0.014603 0.200365 0.676971 -0.894632 0.616369 -0.320212 0.098851 0.116313 -0.592078 0.091874 -0.483801 -0.155779 -0.266071 -0.855074 0.390507 -1.181272 -0.376983 -0.223623 -0.189991 -0.100341 0.995899 -0.779979 -0.152868 0.808008 -0.442472
801 0.981733 0.779199 -0.832504 -0.644020 -0.369654 0.651652 0.680628 0.018001 0.262472 0.895723 -1.123556 0.762850 -0.282850 0.033061 0.121749 -0.756283 0.221144 -0.606329 -0.250762 -0.137183 -1.002517 0.520228 -1.469902 -0.442020 -0.444291 -0.307987 -0.235217 0.956639 -0.852336 -0.045882 0.856449 -0.626884
359 0.965521 0.695828 -0.776922 -0.666675 -0.342650 0.545970 0.618958 0.069459 0.255842 0.839501 -1.089216 0.717097 -0.304879 -0.020660 0.150426 -0.672907 0.142611 -0.563304 -0.254802 -0.158286 -0.993913 0.490926 -1.396794 -0.470447 -0.311519 -0.287420 -0.139193 0.901394 -0.806076 -0.068033 0.909041 -0.582902
1075 -0.585425 1.095044 -0.452564 -1.704135 -1.105719 1.772048 0.558716 0.295700 -0.349916 1.118870 -0.196472 0.654531 0.243618 0.013351 1.717041 -0.125624 -0.340945 -0.217870 0.692609 0.032869 -0.552865 0.479657 -2.196153 0.178101 0.671833 -0.752919 0.387805 1.263368 0.517776 -0.263573 1.204876 -1.523062
1094 0.671717 0.943622 -0.868734 -0.573654 -0.510974 0.816835 0.793620 -0.055862 0.452661 0.655487 -1.148000 0.828710 -0.492237 -0.116982 0.122946 -0.535048 0.381924 -0.403917 -0.052681 -0.242756 -1.047999 0.328081 -1.034896 -0.671687 -0.125309 -0.309490 -0.157572 1.096449 -0.795153 -0.404937 0.780187 -0.602947
1154 0.859005 0.720781 -0.733046 -0.587996 -0.305697 0.496152 0.520556 0.084777 0.263639 0.788431 -0.912699 0.678675 -0.318664 -0.093137 0.161745 -0.665777 0.239183 -0.508501 -0.155743 -0.049056 -0.884053 0.418459 -1.345443 -0.466955 -0.289882 -0.299234 -0.135773 0.734397 -0.668839 -0.082154 0.749200 -0.529445
535 1.064049 0.729066 -0.855210 -0.631113 -0.319993 0.596320 0.648347 0.047227 0.290866 0.919134 -1.284951 0.749833 -0.238042 0.028626 0.160293 -0.701890 0.122969 -0.703304 -0.257477 -0.135011 -1.109391 0.467843 -1.465159 -0.527838 -0.487144 -0.400603 -0.248773 0.934884 -0.892421 -0.080185 0.974751 -0.626771
984 -0.211611 0.176461 -1.183306 0.496955 0.033639 2.483180 0.947301 -0.147525 0.575728 1.181546 -0.372047 1.829277 -0.114261 -0.105877 0.271142 -0.122139 0.411044 -0.753538 -0.175382 0.310931 -0.840083 -0.146275 -0.740284 0.137565 0.157667 -0.010978 0.007594 1.725652 0.443022 0.424434 1.387490 -0.425086
425 0.997913 0.591394 -0.541159 -0.916661 -0.386484 0.652455 0.191009 0.454267 0.481045 1.036657 -0.945539 1.179976 -0.249804 0.024512 0.672885 -0.506871 0.795266 -0.632186 -0.213189 -0.759740 -0.917132 0.135204 -1.295680 -0.322378 -0.066793 -0.340402 -0.212430 1.161885 -0.574306 0.263142 0.832858 -0.285950
302 0.554446 0.595031 -0.281159 -1.539972 -1.142781 0.493898 0.579341 1.087379 -0.232574 1.774858 0.372587 1.016268 -0.754855 0.675094 1.263156 -0.157332 0.682668 -0.741892 -0.598140 -0.082788 0.393815 -0.075527 -1.895144 0.005664 0.582118 -0.999357 -0.985530 1.053635 -0.146702 -0.520438 1.100406 -0.014288
849 0.502701 0.673000 -0.196278 -1.580480 -1.153632 0.484741 0.620444 1.098266 -0.166052 1.844089 0.385146 1.042265 -0.703191 0.713581 1.209094 -0.111698 0.623684 -0.703310 -0.564149 0.042644 0.463023 -0.068516 -1.827625 -0.016089 0.591578 -0.974825 -0.991838 1.058259 -0.133402 -0.585655 1.183721 0.044573
1024 0.838366 0.182383 -0.862644 -1.018914 0.253774 1.207465 1.026101 0.719850 0.169090 0.909096 -0.422211 1.302499 0.360929 -0.307542 0.845401 -1.802551 1.962296 -0.304138 0.430795 -0.640918 0.458737 -1.264438 -0.880886 0.021321 -0.749364 0.056650 -0.133131 0.517139 -0.816186 -0.560612 1.282080 -0.429840
1182 0.770241 0.154694 -0.906337 -1.054009 0.286326 1.169497 1.092634 0.740217 0.086114 0.902505 -0.370609 1.324376 0.363590 -0.379885 0.784142 -1.881260 1.986191 -0.253724 0.450679 -0.593270 0.389105 -1.127246 -0.865176 0.022303 -0.718926 0.168246 -0.148737 0.549184 -0.877733 -0.505771 1.247589 -0.438674
88 0.696878 0.237224 -1.250552 0.682119 -1.188252 0.554828 0.117330 -0.489236 0.033125 1.420667 -0.282519 1.281719 -0.995920 -0.680202 0.365552 0.209779 0.946724 -0.933724 0.236244 0.192701 -1.402107 1.638264 -2.499288 -0.159802 -0.757140 -0.276767 -0.323267 -0.005842 0.375444 0.488447 0.821063 0.869508
501 0.684669 0.660235 -0.358305 -0.579601 -0.478071 0.645411 0.397759 -0.333603 -0.071047 0.883416 -0.609634 0.713581 -0.369729 -0.129768 0.277090 -0.631075 0.589945 -0.480157 -0.152434 -0.238758 -0.740855 0.620566 -1.120901 -0.175960 -0.517721 -0.168022 -0.095820 1.125358 -0.719384 -0.024854 0.811095 -0.615402
151 1.155219 0.046515 0.343503 -2.195936 -0.154478 0.608630 1.320604 -0.675882 -1.475232 1.112764 -1.443782 0.719421 0.304313 0.040596 1.245880 -0.640451 0.380288 -0.256938 0.284412 -0.310013 -0.637248 -0.207331 -0.948096 -0.581295 0.833692 0.125391 0.347699 0.852086 -0.561224 0.979410 0.230036 -0.990225
1168 1.797456 1.698560 0.373601 -0.383610 -0.761705 0.478955 -0.160522 -0.417208 1.424917 1.081921 0.098097 0.913922 -0.507469 0.212070 0.953537 -0.410900 1.225563 -1.556424 -0.349028 -0.897755 -0.877180 -0.109593 -1.365145 -0.873966 0.665985 -0.337015 0.688718 1.399653 0.202439 0.672071 0.393571 0.326409
1203 1.019927 0.654647 -0.858261 -0.752877 -0.145490 0.637550 0.481639 0.059891 0.349180 0.657807 -0.807497 0.651593 -0.242764 -0.047564 0.161747 -0.574631 0.169024 -0.458729 -0.249531 -0.024234 -1.100844 0.512734 -1.392789 -0.399171 -0.325577 -0.262811 -0.267474 0.762341 -0.623759 0.082435 0.855302 -0.456431
954 0.968667 -0.035599 -0.878431 -2.616644 -1.264851 1.095601 0.023070 -0.141397 0.044199 1.347267 -0.626530 0.181799 -0.284152 -1.256433 0.594969 0.400600 1.004075 0.888729 -0.828717 0.038399 -0.412751 -0.382919 -0.841063 -1.259336 0.431473 -0.464357 -0.204389 1.038130 -1.436014 -0.193789 0.636355 -0.560277
41 0.516016 -0.037728 -1.251429 -0.955474 -1.064193 0.639267 0.243919 0.727074 -0.635375 0.673025 -0.952325 1.994510 -1.187762 0.127451 0.675034 -0.457851 -0.540881 -0.236085 0.381856 -0.554525 -1.183631 -0.394683 0.092929 -0.122714 0.129068 -0.512671 -0.797490 2.389699 -0.814616 -1.244786 -0.124993 -0.404300
470 1.002649 0.720884 -0.821321 -0.680254 -0.348726 0.624071 0.682467 0.046813 0.296597 0.889197 -1.139064 0.753322 -0.275080 0.004131 0.112000 -0.744747 0.147867 -0.604916 -0.243984 -0.124450 -1.040440 0.523844 -1.510864 -0.439208 -0.390266 -0.337047 -0.228722 0.959472 -0.834950 -0.072454 0.887080 -0.630820
474 0.692032 0.949110 -0.874966 -0.611391 -0.557770 0.803153 0.774892 -0.066265 0.455720 0.627351 -1.183973 0.793337 -0.470210 -0.109289 0.146183 -0.536592 0.398189 -0.393787 -0.125888 -0.211356 -1.094278 0.340315 -1.082744 -0.696195 -0.119530 -0.340875 -0.170826 1.127852 -0.783442 -0.391130 0.812858 -0.568563
188 1.136425 1.432235 -0.023470 -1.461851 -0.200113 -0.680512 0.176544 0.646220 1.096338 0.843779 -0.330660 0.253883 0.686753 0.488567 0.701422 -0.553237 -0.035417 -0.674388 -0.379140 0.692498 -0.854484 0.492177 -0.461238 -0.772883 -1.299081 -0.344085 -0.474438 0.998131 -0.699386 -0.697880 0.089480 -0.382409
20 0.273263 0.635039 -1.066871 -0.109302 0.698116 0.107272 0.763958 0.129098 0.137016 0.345264 -1.583593 0.716590 -0.017872 -0.457469 -0.441473 -0.616602 -0.054465 -0.941974 -0.050264 0.262495 -0.988738 -0.173517 0.003013 -1.188252 -0.022229 0.303570 -0.082523 0.800469 -1.049873 -0.324807 0.371342 -0.429253
419 1.327924 0.770519 -0.584175 -0.729263 -2.243235 -0.166495 0.286130 -0.495697 1.038723 1.025858 -0.950388 1.069256 -0.589408 -0.312602 0.948153 -0.331707 1.161937 0.508666 -0.016712 -0.543543 -0.826183 0.189376 -1.212278 0.612110 0.100594 -1.409115 -0.301837 -0.148679 -0.238602 0.014058 1.776485 0.453185
502 0.878934 0.428879 0.083287 0.699249 -0.161619 0.383782 0.639215 -0.191306 0.058313 0.834158 -0.561248 -0.191902 -0.041071 0.167710 -0.227353 -0.193717 0.486543 -0.346028 -0.935179 -0.555005 -0.578197 0.459221 -1.281419 0.107917 -0.522980 -0.842839 -0.231829 0.412303 -0.820591 -0.692415 0.456949 -0.349877
87 0.473933 0.545451 -1.013389 -0.679028 0.253586 0.318908 -0.666399 -0.280580 0.322964 0.529455 -0.548871 1.133005 0.829874 -0.237480 1.114843 0.032598 -0.103772 0.017390 -0.535255 -0.732544 -0.247520 1.089018 -2.036769 0.901536 -0.879893 -0.039083 0.643104 0.580772 -0.521978 -0.149221 1.167507 -0.213829
140 1.001224 0.727916 -2.120616 0.444550 -0.677503 -0.295964 0.550600 0.278574 0.919135 0.555960 -0.633462 0.906206 0.068338 -0.323864 -0.415583 0.261772 -0.229204 0.588245 -0.517997 -0.054552 -0.476579 0.398874 -2.171219 -0.331465 0.374208 -0.155023 -0.485752 0.468315 -0.247690 0.846234 0.511484 -1.195364
60 1.042802 0.400478 -0.935123 -0.514616 -0.665954 1.114253 0.826260 -0.271216 1.391205 0.859059 -1.539147 0.837567 0.014632 -0.791200 0.641823 0.101818 -0.298949 -0.583119 -0.724712 0.572642 -0.132317 -0.708835 -1.344004 -0.681788 -0.493816 0.008387 0.900702 0.085133 0.093245 0.183354 0.831331 0.899844
149 0.985675 0.302473 -0.903867 -0.585962 -0.442834 0.989298 0.854640 -0.369403 1.416518 0.940279 -1.528025 1.038211 -0.036636 -0.780484 0.622801 -0.000885 -0.215090 -0.639177 -0.720910 0.703170 -0.101317 -0.548872 -1.416902 -0.625718 -0.527466 -0.039726 0.745620 0.050827 0.147304 0.160256 0.808756 0.847592
860 0.202172 0.641974 -1.075410 -0.115684 0.820283 0.126048 0.784366 0.066089 0.123069 0.282871 -1.596026 0.737942 -0.038976 -0.461423 -0.493101 -0.665251 -0.019413 -0.969382 -0.084362 0.273791 -0.979412 -0.119672 0.025490 -1.211658 0.016721 0.265335 -0.144206 0.772931 -1.109889 -0.250988 0.335856 -0.430108
147 1.127213 1.443928 -0.003982 -1.496173 -0.166262 -0.709495 0.198812 0.632731 1.146406 0.865835 -0.333605 0.232752 0.705304 0.542477 0.670499 -0.579039 -0.052272 -0.682671 -0.405664 0.679072 -0.836470 0.512173 -0.448066 -0.783784 -1.306037 -0.306152 -0.439415 0.997112 -0.718882 -0.678213 0.061581 -0.336383
280 0.455998 0.341167 -0.338752 -0.701762 -0.348192 1.050833 -0.498576 0.532539 -0.307385 0.003120 -0.828221 0.532486 -0.311119 0.559459 -0.243752 -0.548060 -0.620842 -0.267062 -0.017929 0.791640 0.038529 0.211054 -1.357214 -0.791095 -0.328772 -0.707161 -0.389141 0.700351 -0.969225 -0.593643 0.853487 -1.789499
1090 1.438490 -0.002232 -0.703636 -1.245111 0.166725 0.479347 0.136525 0.467608 -0.451304 1.475220 -1.146335 1.266034 -0.343874 1.226460 0.456146 0.624253 -0.560727 -0.540168 -0.337549 -1.023768 -0.209533 0.270877 -0.239900 0.038830 -0.895601 -0.745620 -0.272341 0.798819 -0.773840 0.909050 0.276822 -0.542278
338 0.157161 0.746573 -0.200662 -0.617221 0.153465 -0.183804 0.756026 -0.439454 -0.263084 1.146341 0.057528 0.821263 -0.667418 -0.276987 -0.199924 -0.436025 0.650019 -0.501204 -0.448925 0.130062 -0.787886 1.150940 -1.781488 -0.277990 -0.455264 1.138028 0.421788 1.155082 -0.748041 0.681470 -0.164848 -0.216020
867 0.494138 0.350021 -0.354811 -0.706822 -0.307088 1.019593 -0.556773 0.560889 -0.192225 -0.049999 -0.862314 0.620492 -0.280885 0.477843 -0.225485 -0.491980 -0.625470 -0.231492 -0.021531 0.817480 0.014300 0.252372 -1.428751 -0.708306 -0.312483 -0.643960 -0.349170 0.722579 -0.955081 -0.583897 0.817402 -1.829850
721 0.431208 0.395153 -0.317548 -0.723721 -0.326826 1.054829 -0.558424 0.536075 -0.228903 -0.024533 -0.870028 0.644996 -0.271195 0.536096 -0.246438 -0.494036 -0.599308 -0.278954 0.012946 0.813155 0.056827 0.214133 -1.430025 -0.688427 -0.300411 -0.659156 -0.416740 0.749924 -0.917067 -0.579800 0.911313 -1.840926
1187 -0.089435 -0.292925 -1.048123 -0.238596 -0.438242 -0.908182 0.457006 0.215365 -0.178371 0.656098 -0.963830 0.843311 -0.239723 0.320159 0.657994 -1.304935 0.332733 -0.130965 0.233047 -0.486397 -1.069489 0.359446 -1.529948 -0.788484 -0.705592 -0.557869 -0.860551 -0.625299 -0.827640 0.255127 0.709521 -1.155593
19 1.992385 0.914726 -0.474561 -0.514829 -0.554853 1.062033 0.655268 0.050713 -0.436100 -0.054335 -1.357731 0.871458 0.871224 -0.310670 -0.401767 -1.206713 -1.078036 0.307558 0.200805 -0.540880 -0.299548 -0.230005 -0.465570 -0.024877 -1.542745 0.092680 -0.138492 0.639955 -1.013905 -0.851028 0.757580 0.219018
998 1.896902 0.841638 -0.470526 -0.546634 -0.518627 1.064579 0.689848 -0.000034 -0.396197 -0.084450 -1.389906 0.820454 0.907357 -0.324429 -0.302925 -1.248613 -1.037797 0.303636 0.185360 -0.572146 -0.316150 -0.251454 -0.462537 -0.076608 -1.591241 0.068316 -0.158608 0.590713 -1.021231 -0.860098 0.845845 0.254773
53 0.163352 0.632546 -1.050257 -0.119044 0.874464 -0.002852 0.720267 0.102637 0.110940 0.299090 -1.663298 0.795366 -0.053866 -0.495831 -0.487190 -0.662349 -0.007071 -0.902356 -0.072879 0.257997 -0.946612 -0.139324 0.030006 -1.173769 0.040150 0.316271 0.002231 0.763153 -1.126950 -0.265158 0.393282 -0.414238
219 0.878002 0.419228 0.032798 0.602887 -0.248275 0.443189 0.708513 -0.218041 0.118922 0.779329 -0.503277 -0.140829 -0.041163 0.099954 -0.141093 -0.241555 0.498201 -0.314699 -1.098556 -0.533126 -0.593940 0.387144 -1.276364 0.114827 -0.561401 -0.881634 -0.184989 0.321883 -0.756315 -0.823585 0.431031 -0.275126
926 0.737887 -0.891054 -0.594515 -0.908407 -0.174247 1.027513 -0.072911 0.063714 0.451401 0.034728 -0.044532 0.597181 -0.953631 -0.708409 0.554926 -1.164349 0.195019 -0.667580 0.320085 -0.095530 -1.496324 0.995165 -0.874714 -0.728200 -0.726997 -0.627909 1.140501 0.443774 -0.528902 -0.606504 0.521602 -0.501144
947 -0.006999 0.814462 -0.169317 -0.566292 0.181904 -0.259776 0.787601 -0.523703 -0.361146 1.156804 0.044112 0.880513 -0.529715 -0.311811 -0.082177 -0.408026 0.722527 -0.356050 -0.434281 0.118882 -0.921120 1.079686 -1.735912 -0.299698 -0.530082 1.129313 0.357581 1.078358 -0.796098 0.657457 -0.172719 -0.300509
539 0.935793 0.401003 -0.058222 0.688175 -0.158567 0.392037 0.707733 -0.136063 0.098598 0.804786 -0.587477 -0.195839 0.033508 0.039954 -0.142868 -0.242133 0.557049 -0.288173 -1.085541 -0.573189 -0.544330 0.351475 -1.251692 0.087450 -0.479952 -0.827987 -0.240693 0.352064 -0.837970 -0.797597 0.342873 -0.272183
1046 0.911663 0.383941 0.117459 0.653768 -0.133723 0.380572 0.568616 -0.305963 0.224519 0.853442 -0.584728 -0.212228 -0.119701 0.096608 -0.249398 -0.174450 0.604700 -0.391954 -0.913819 -0.567501 -0.449582 0.450724 -1.358932 0.154139 -0.402457 -0.761101 -0.218891 0.334229 -0.844285 -0.789338 0.525669 -0.482129
32 -0.130613 -0.306029 -1.114830 -0.184397 -0.395078 -0.905533 0.479588 0.186645 -0.151187 0.600466 -0.975984 0.867806 -0.218931 0.335457 0.602933 -1.285571 0.360130 -0.128558 0.203947 -0.433811 -1.087808 0.364354 -1.564129 -0.789841 -0.690010 -0.601492 -0.901410 -0.677205 -0.788179 0.221746 0.734424 -1.169381
532 0.344211 0.751261 -1.025690 -0.724665 0.270833 0.370936 -0.557771 -0.160864 0.462895 0.559811 -0.622990 1.133355 0.829100 -0.054519 1.064356 0.110328 -0.328613 -0.084777 -0.447043 -0.743574 -0.312253 1.018248 -1.835098 0.991179 -0.569079 -0.029790 0.732925 0.541361 -0.600200 -0.251814 1.300481 -0.261941
552 -1.227598 1.513099 -0.148504 -0.791830 0.188183 0.359666 1.116677 -0.374516 -0.111076 0.698036 -1.314347 0.734835 0.506212 1.062406 0.154140 -1.052192 0.454764 -0.251590 0.044046 -0.396490 -0.602082 0.698901 -0.837052 -0.057963 0.279276 -0.551951 -0.662674 0.591328 -0.553129 -0.309385 1.807810 -0.791581
119 0.229189 0.666804 -1.014290 -0.071724 0.844245 0.054305 0.767109 0.118414 0.181573 0.230545 -1.650020 0.731810 -0.055194 -0.496918 -0.469729 -0.677957 0.005727 -0.946239 -0.095578 0.316180 -0.949278 -0.132077 -0.033031 -1.131020 -0.003538 0.286643 -0.033732 0.786057 -1.135598 -0.273748 0.305958 -0.455157
208 0.004597 -0.224130 -1.120588 -0.131748 -0.379920 -0.960365 0.452923 0.193213 -0.185155 0.548179 -0.801121 0.842632 -0.056811 0.240894 0.584286 -1.389402 0.386672 -0.130893 0.294585 -0.444579 -1.126395 0.305792 -1.558682 -0.777128 -0.719254 -0.553276 -0.938504 -0.640979 -0.912710 0.244407 0.838279 -1.219936
489 0.866374 0.357027 0.130060 0.814374 -0.171123 0.277411 0.637068 -0.259134 0.165272 0.800624 -0.636050 -0.202764 -0.097274 0.069670 -0.297104 -0.232293 0.475610 -0.426626 -0.839910 -0.555943 -0.477098 0.561618 -1.344338 0.155036 -0.529949 -0.785554 -0.189890 0.360452 -0.879084 -0.671624 0.520219 -0.476671
173 1.457446 0.167780 -0.714333 -1.018417 0.241716 0.737437 0.620922 0.612316 1.346712 0.357372 -1.055555 0.356366 0.101862 0.360344 0.099052 -1.269302 -0.143263 0.549938 0.020425 -1.220824 0.462139 0.382310 -1.155307 0.023022 0.881852 0.575168 -0.192251 0.564411 -1.235172 -0.076231 1.108477 -0.515804
1200 0.319579 0.676588 -1.010746 -0.673544 0.374711 0.267310 -0.541011 -0.214498 0.403165 0.468876 -0.644136 1.194904 0.850629 -0.061148 1.077785 0.257104 -0.377591 -0.124149 -0.455169 -0.683040 -0.412432 0.941115 -1.893474 0.823412 -0.615566 -0.008702 0.793136 0.485333 -0.668083 -0.202669 1.238283 -0.371397
507 -0.126898 1.676300 -0.447617 -1.999984 -0.538005 0.409692 0.613317 -0.419579 0.505488 1.193802 -1.051505 0.971414 -0.308768 -0.218372 0.854438 0.046213 1.134691 -0.726896 0.402033 -0.150987 -1.629083 0.055278 -0.275297 -0.135905 0.260845 0.741809 -0.325224 0.933137 -0.208594 1.008262 1.207558 0.812612
1121 0.888241 0.561064 -0.064535 0.762391 -0.249945 0.438469 0.799957 -0.141517 -0.061230 0.933092 -0.527694 -0.190524 0.016660 0.244107 -0.154184 -0.376799 0.541401 -0.107175 -1.071253 -0.582247 -0.497398 0.257833 -1.158818 0.047442 -0.404246 -0.907517 -0.441517 0.487399 -0.739115 -0.764883 0.402612 -0.220611
398 1.468326 0.148297 -0.739409 -1.015637 0.259247 0.678047 0.623769 0.578263 1.363564 0.330035 -1.151054 0.343956 0.190206 0.348150 0.103956 -1.245850 -0.188922 0.484394 -0.040685 -1.174520 0.490742 0.344685 -1.191288 -0.038514 0.846135 0.551831 -0.216493 0.530214 -1.226210 -0.059581 1.099794 -0.563339
1233 0.894805 0.542817 -0.347354 -1.170919 -0.314856 0.753569 0.980163 -1.014480 0.954557 1.205509 -1.360445 0.820968 0.427180 -1.432514 0.829624 -0.242074 0.083463 -0.690064 -0.712275 0.577177 -0.279630 -0.319143 -1.195349 -0.530879 -0.768236 -0.255788 0.046360 0.068971 0.255575 -0.127970 0.679368 0.849777
334 0.247824 0.653768 -1.033310 -0.156992 0.811748 0.084141 0.766435 0.117174 0.192862 0.256338 -1.593715 0.752619 -0.055025 -0.458059 -0.410056 -0.644473 -0.042110 -0.954503 -0.080032 0.263067 -1.027905 -0.149252 -0.007327 -1.178146 -0.008852 0.323901 -0.098147 0.753579 -1.118568 -0.279522 0.362364 -0.488070
400 0.927141 0.271271 0.140905 0.707897 -0.221164 0.375444 0.578188 -0.248734 0.203910 0.862169 -0.610279 -0.259743 -0.046146 0.020112 -0.146097 -0.204627 0.596199 -0.427485 -0.815099 -0.587102 -0.430934 0.484724 -1.432459 0.167570 -0.478491 -0.826400 -0.217607 0.372961 -0.848942 -0.762220 0.533144 -0.479605
1287 1.271007 0.389755 0.111232 -0.312373 -0.557134 0.985940 0.942480 0.627926 0.208628 -0.983359 -0.886010 1.345400 0.313629 -0.715291 0.390091 -0.346026 0.595299 -0.315512 -0.464790 0.812533 -0.723934 1.281356 -1.146534 0.403901 0.037315 -0.043557 -0.380839 1.361499 -1.121700 0.207070 0.375958 0.413970
551 0.810149 0.432850 0.037834 0.605900 -0.197642 0.434491 0.629032 -0.205655 0.036470 0.825859 -0.527524 -0.128105 -0.094632 0.087570 -0.088263 -0.187866 0.608903 -0.366690 -1.095788 -0.563229 -0.545221 0.335906 -1.260063 0.090910 -0.506945 -0.932465 -0.228626 0.346969 -0.803841 -0.823374 0.385438 -0.285840
578 0.805451 0.423295 0.071826 0.590689 -0.222186 0.406200 0.680770 -0.199172 0.276390 0.808085 -0.545238 -0.139136 -0.059715 0.045697 -0.144151 -0.142449 0.628394 -0.252934 -1.059485 -0.555233 -0.428854 0.321817 -1.246825 0.088608 -0.366865 -0.868921 -0.209263 0.324345 -0.890786 -0.800273 0.474147 -0.391685
54 0.999429 0.204828 0.139867 0.478519 -0.208588 0.426400 0.577663 -0.235766 0.347264 0.830394 -0.569496 -0.183430 -0.020622 0.046151 -0.046022 -0.202152 0.647060 -0.304503 -0.904570 -0.695107 -0.373580 0.315910 -1.346733 0.127161 -0.372225 -0.800010 -0.209017 0.300971 -0.912231 -0.910841 0.439894 -0.421936
519 0.878368 0.318020 0.183530 0.584720 -0.212504 0.297814 0.601749 -0.241355 0.245409 0.772466 -0.624776 -0.146395 -0.039416 0.083964 -0.122671 -0.257539 0.609731 -0.409222 -0.855667 -0.623623 -0.473649 0.424933 -1.284996 0.209037 -0.417477 -0.841759 -0.201720 0.341003 -0.848495 -0.825703 0.486012 -0.397923
784 0.948574 0.392768 0.132713 0.700602 -0.182082 0.404735 0.580709 -0.212714 -0.050281 0.861310 -0.559581 -0.253321 0.059440 0.280391 -0.073906 -0.406503 0.552936 -0.218174 -0.765648 -0.664731 -0.446563 0.367684 -1.312575 0.143094 -0.383246 -0.814707 -0.415763 0.487089 -0.844824 -0.756194 0.459929 -0.345146
512 0.959477 0.449429 0.091678 0.656621 -0.230725 0.405324 0.688750 -0.135284 0.127294 0.870427 -0.542156 -0.191362 0.039685 0.199961 -0.119382 -0.308588 0.469145 -0.257184 -0.947007 -0.618411 -0.514402 0.422376 -1.270294 0.155530 -0.470944 -0.872968 -0.350256 0.404590 -0.782164 -0.696898 0.471671 -0.311240
1194 0.574146 0.338311 -0.273886 -0.498422 0.113109 0.823325 0.867523 -0.099543 -0.888970 1.459892 -0.575803 -0.106315 0.647770 0.200100 -0.291068 -1.354665 -0.151495 -1.988863 0.830066 -0.994633 -0.717146 0.021912 -0.978540 0.246444 -1.021889 0.371618 0.531905 0.736238 -0.724606 0.154316 0.810777 -0.112960
1279 0.224624 0.634347 -1.013316 -0.084613 0.814361 0.061361 0.744985 0.139480 0.148821 0.318211 -1.586740 0.766956 -0.061979 -0.457385 -0.475893 -0.601110 -0.067047 -0.948970 -0.094221 0.303728 -0.980246 -0.142509 -0.005625 -1.175875 -0.031029 0.283923 -0.102285 0.817175 -1.108973 -0.308723 0.385458 -0.375969
1225 0.508078 0.392332 -0.150208 -0.529554 0.077177 0.889849 0.942902 -0.255553 -0.915872 1.418089 -0.548690 -0.049048 0.676308 0.172825 -0.366971 -1.438192 -0.141870 -1.959721 0.870645 -1.047943 -0.838827 0.122054 -0.978690 0.177491 -1.101915 0.316990 0.516110 0.774649 -0.783195 0.128775 0.812872 -0.157807
438 0.797491 0.505014 0.018886 0.726830 -0.290280 0.445591 0.767883 -0.174723 0.065238 0.833607 -0.554697 -0.126921 -0.006998 0.121455 -0.201633 -0.288620 0.505598 -0.310567 -1.015984 -0.487925 -0.534472 0.481707 -1.264205 0.182913 -0.534377 -0.941869 -0.324803 0.374489 -0.809825 -0.682615 0.443543 -0.311338
133 0.466204 0.311746 -0.308460 -0.730872 -0.345147 0.943369 -0.619538 0.501334 -0.245034 -0.046946 -0.881361 0.608081 -0.300053 0.477123 -0.166346 -0.502013 -0.588352 -0.243248 -0.070573 0.806059 0.138926 0.253895 -1.431604 -0.834831 -0.342556 -0.652419 -0.356907 0.699795 -0.910550 -0.500359 0.883597 -1.749447
509 0.965899 0.337735 0.063715 0.591971 -0.236204 0.516955 0.626066 -0.195050 0.293554 0.830316 -0.581825 -0.216239 0.065920 0.214785 -0.061570 -0.409935 0.524376 -0.184723 -0.950899 -0.714104 -0.338609 0.326658 -1.378030 0.081100 -0.295268 -0.838924 -0.291131 0.354058 -0.858271 -0.923608 0.508032 -0.411321
380 1.001065 0.352281 0.027449 0.545323 -0.228448 0.440746 0.730839 -0.112655 0.056309 0.851978 -0.564662 -0.193931 -0.078436 0.118875 -0.064325 -0.226087 0.572953 -0.232601 -1.114395 -0.584210 -0.519474 0.243417 -1.210687 0.038167 -0.478207 -0.895250 -0.315188 0.377313 -0.803167 -0.798032 0.365008 -0.202739
751 0.648278 -0.039161 -0.055145 -0.502545 -0.015547 0.809087 1.430077 0.846917 0.231916 -0.770122 -1.457598 1.431034 0.257974 -0.825392 0.407165 -0.014278 0.204121 -0.092765 -0.226770 0.646359 -0.395899 1.348787 -1.289327 0.261789 0.030717 -0.716475 -0.454034 1.228055 -0.826363 0.277666 0.391429 0.089294
1192 0.787194 0.779469 -0.242364 -0.272477 -0.788559 0.734116 1.259665 0.456097 0.717133 1.414270 -0.522491 0.447439 -1.455042 1.203300 -0.688446 -0.413252 -0.173174 -0.710856 0.680697 0.516780 -1.129980 0.113921 -1.135193 -0.559783 0.318696 -0.248077 -0.292146 0.045676 -0.161870 0.029570 0.097006 -0.724687
666 0.965385 0.471459 -0.023808 0.672594 -0.224819 0.393593 0.758182 -0.070844 0.057319 0.827752 -0.578493 -0.211756 0.106603 0.240620 0.003465 -0.434516 0.513983 -0.146758 -0.990465 -0.677153 -0.498035 0.338135 -1.219978 0.134635 -0.367780 -0.932395 -0.401600 0.464324 -0.763108 -0.766839 0.377458 -0.291323
1134 0.531011 0.411770 -0.215987 -0.474076 0.105044 0.855238 0.947740 -0.235100 -0.895363 1.477260 -0.604818 -0.093046 0.676803 0.190029 -0.335385 -1.403201 -0.132876 -1.975986 0.841595 -1.008116 -0.778828 0.068802 -1.000032 0.178317 -1.112499 0.296879 0.520320 0.772669 -0.759069 0.165559 0.799902 -0.114138
102 0.678009 -0.868286 -0.518409 -0.940811 -0.158058 1.026540 -0.059334 0.138280 0.370406 -0.036824 -0.004117 0.621785 -0.998255 -0.722522 0.600404 -1.122038 0.205692 -0.689364 0.386492 -0.115626 -1.554441 0.931216 -0.869932 -0.773285 -0.668769 -0.617442 1.099719 0.504842 -0.509297 -0.675570 0.465725 -0.470619
619 1.253452 0.368977 -0.022189 -0.785412 -0.052677 -0.269377 0.239227 -1.128534 -0.122601 0.155631 -1.389033 -0.600179 -0.196324 0.467256 0.180480 -0.794646 0.081274 -0.658109 -0.459209 -0.190114 -1.217287 0.195169 -0.885445 -1.440470 -0.263496 -0.835033 -0.049159 0.787076 -0.300364 1.169669 1.211286 0.168531
898 1.162887 0.289751 0.004500 -0.860785 -0.035871 -0.301090 0.253357 -1.085461 0.071435 0.156932 -1.341182 -0.809241 -0.369136 0.573517 0.129181 -0.834914 0.051986 -0.622260 -0.263277 -0.302536 -1.224971 0.142367 -0.782033 -1.502965 -0.325127 -0.899391 -0.064423 1.007897 -0.285911 1.124319 1.243086 0.042937
84 0.490478 0.331638 -0.345838 -0.661885 -0.315363 1.026140 -0.561977 0.534775 -0.282580 -0.044163 -0.882828 0.572680 -0.350017 0.509462 -0.231108 -0.505320 -0.600834 -0.229413 -0.047081 0.798008 0.009641 0.287142 -1.368791 -0.818158 -0.319920 -0.757342 -0.417016 0.728353 -0.914807 -0.590180 0.888992 -1.774871
73 0.408098 0.366576 -0.334343 -0.714309 -0.287033 1.064209 -0.507136 0.518208 -0.340051 -0.037056 -0.819446 0.580192 -0.329159 0.566799 -0.248388 -0.564024 -0.585017 -0.273963 -0.006184 0.776293 0.031632 0.267590 -1.408696 -0.784221 -0.319307 -0.725230 -0.408418 0.739438 -0.918449 -0.602938 0.871877 -1.779815
1106 1.341060 0.277027 -0.270636 -0.593874 0.014050 -0.372521 0.130047 -1.075182 -0.159273 0.208030 -1.319002 -0.411723 -0.090608 0.352921 0.274330 -0.680257 0.081727 -0.711737 -0.719271 0.012646 -1.087915 0.356753 -0.968984 -1.324355 -0.212432 -0.758031 -0.108680 0.732846 -0.298613 1.369686 1.288548 0.288392
71 0.748980 -0.897078 -0.508797 -0.895360 -0.181202 0.998215 -0.060460 0.046123 0.469098 0.006170 -0.025733 0.627080 -0.969237 -0.681785 0.580143 -1.131397 0.213331 -0.669335 0.286372 -0.074359 -1.497899 1.056178 -0.873925 -0.720044 -0.709091 -0.649197 1.120417 0.481895 -0.548434 -0.583745 0.492586 -0.448009
1111 1.233793 0.275863 0.092520 -0.349891 -0.410655 0.956588 1.048766 0.750939 0.196851 -0.934247 -0.926450 1.359696 0.249537 -0.617407 0.383147 -0.273875 0.497896 -0.261719 -0.399050 0.694056 -0.700657 1.273769 -1.109556 0.369406 0.029399 -0.127951 -0.419095 1.303875 -1.110516 0.238324 0.291263 0.323249
138 1.261540 0.255548 -0.467913 -0.508538 0.127865 -0.258691 -0.064046 -1.014240 -0.085879 0.261903 -1.198761 0.025338 -0.133928 0.293688 0.375092 -0.476725 0.273188 -0.673583 -0.993297 0.191970 -0.825636 0.610793 -1.113867 -1.110830 -0.031615 -0.590689 -0.181388 0.639490 -0.380881 1.550310 1.462386 0.445056
542 0.972730 0.347121 0.100165 0.687536 -0.204921 0.491295 0.619147 -0.186133 0.211793 0.842748 -0.571732 -0.235683 -0.017301 0.172482 -0.144071 -0.247252 0.484303 -0.293266 -0.913445 -0.639715 -0.430813 0.441837 -1.370850 0.164816 -0.385897 -0.836362 -0.249239 0.386835 -0.752493 -0.648317 0.459040 -0.408838
1084 0.813065 0.654597 -0.075391 -0.537469 -0.715884 0.829112 1.101911 0.896349 0.689909 1.137209 -0.379341 0.395900 -1.286327 1.188987 -0.586938 -0.496995 0.260649 -1.005402 0.329691 0.353380 -1.460248 0.103665 -0.712343 -0.298111 0.188879 -0.166970 -0.327288 0.279300 -0.098958 0.019232 0.089867 -0.937876
650 0.365021 1.262518 -1.130710 -0.028341 -1.056352 0.979642 0.532991 -0.910736 -0.080710 0.350197 -0.265726 0.403605 -0.222846 -0.751324 0.533074 -0.620743 -0.215123 0.718869 -0.121007 -0.966184 -0.516219 0.386060 -0.418188 -0.868852 0.191266 0.338708 0.789897 1.374623 -0.679525 -0.556894 0.738124 -0.846179
475 1.053641 0.337347 0.006257 0.613273 -0.167685 0.386852 0.597568 -0.126210 0.191262 0.780809 -0.488911 -0.229643 -0.091684 0.110873 -0.128320 -0.157920 0.507330 -0.272540 -1.029720 -0.647086 -0.463559 0.488497 -1.272439 0.175949 -0.511940 -0.851057 -0.230164 0.317634 -0.920120 -0.736111 0.386030 -0.460955
237 1.344204 0.239671 -0.441899 -0.512546 0.122788 -0.272296 -0.020295 -1.026020 -0.211896 0.271362 -1.331071 -0.075134 -0.077578 0.290393 0.381598 -0.589881 0.149577 -0.664965 -0.951127 0.161983 -0.921862 0.492112 -1.091729 -1.206617 -0.068691 -0.720955 -0.156916 0.618066 -0.338245 1.482546 1.418147 0.448648
1285 0.844654 0.273208 -0.720859 -0.910891 -0.513694 0.616975 1.037569 -1.031896 0.975100 1.174985 -1.366785 0.849912 0.236611 -1.273729 0.627178 -0.161068 -0.181120 -0.773884 -0.662432 0.676208 0.115256 -0.110235 -1.191832 -0.388803 -0.788604 -0.417226 0.020860 0.115961 0.132853 -0.040503 0.630476 0.748162
948 0.754873 0.617328 -0.067422 -0.459708 -0.761310 0.861848 1.151984 0.550070 0.757500 1.200915 -0.529080 0.426939 -1.351919 1.192660 -0.511050 -0.557442 0.076469 -0.992896 0.449437 0.449993 -1.397608 0.061625 -0.915256 -0.422592 0.280137 -0.289422 -0.277521 0.129910 -0.136331 0.005402 0.136856 -0.874585
211 0.428262 0.372882 -0.311350 -0.694765 -0.359337 1.052978 -0.540471 0.523874 -0.204742 -0.016437 -0.862008 0.642997 -0.279844 0.502182 -0.258018 -0.466510 -0.587977 -0.275506 -0.010185 0.812805 0.048138 0.200569 -1.373652 -0.682896 -0.253534 -0.639649 -0.379737 0.733301 -0.954283 -0.591796 0.895292 -1.830620
