470 32
14 -1.006858 0.086003 -0.010034 -0.648094 0.515394 1.522729 -1.051072 -0.344632 -0.264626 0.507436 -0.777767 0.111571 -0.638200 -1.179666 0.351984 -0.008010 -0.081389 -0.307595 0.964192 -0.139702 1.417277 -1.052469 -0.448560 0.208500 -1.420370 0.119302 0.984503 0.997367 -0.781735 0.781524 1.050213 0.066182
12 -0.532911 -0.081873 -0.612255 -0.063138 -0.739878 0.693729 -0.909670 -1.029433 0.282189 1.013243 0.753134 0.545724 -0.839179 -0.762867 0.301450 -0.175604 -0.889427 0.404093 0.702102 -1.157525 0.356240 -0.879384 0.192981 -0.709465 -0.280673 0.405337 1.827528 -0.356345 -0.072388 -0.758044 0.864509 0.055515
7 0.395020 0.209850 -1.196557 0.092588 -0.861840 1.151351 -0.622189 0.447645 0.528826 0.673345 -1.046549 0.384797 -0.100457 -1.386941 0.756670 0.344865 0.056837 -0.322911 -0.087748 0.517472 0.397775 -1.669958 -0.596143 -0.052804 -0.325932 0.410639 0.944445 -0.366264 0.789292 -0.214368 0.614663 1.129388
22 -0.124566 -0.730936 -1.211666 0.503384 -0.049545 -0.340556 -0.885527 0.187156 -0.112847 -0.199017 -0.529352 0.486282 -0.509669 -1.498884 -0.455557 -0.791680 -0.134477 0.202707 0.965031 0.101429 0.782829 -1.213340 0.730449 -0.194150 -0.940254 0.285908 0.702006 -0.112043 0.208577 -0.277447 -0.516129 -0.271897
13 0.388737 0.225070 -1.169086 0.091654 -0.818575 1.160443 -0.613594 0.428700 0.489431 0.695941 -1.047524 0.405909 -0.093686 -1.358023 0.756735 0.418756 0.128129 -0.308053 -0.063082 0.544277 0.386466 -1.683055 -0.606079 -0.079096 -0.330479 0.370338 0.959277 -0.352189 0.808525 -0.179558 0.581756 1.135483
20 -0.088722 -0.709870 -1.204777 0.489741 -0.108200 -0.370015 -0.857957 0.209181 -0.102669 -0.147900 -0.543904 0.491851 -0.464770 -1.450964 -0.506925 -0.775286 -0.090109 0.219879 0.949000 0.102561 0.745245 -1.218750 0.709395 -0.254574 -0.944547 0.265776 0.750768 -0.129441 0.165100 -0.285895 -0.584304 -0.325939
120 -1.279006 -0.221237 -1.360629 1.052123 -1.529864 -1.114297 -0.397069 0.649393 0.202238 0.502249 -0.242068 1.039112 0.193413 -0.027260 0.298152 -0.432210 0.352989 0.221225 1.114767 0.323586 0.523625 -0.835400 -1.373369 -0.246311 -0.610615 -0.123730 0.380547 -0.051583 -0.455648 0.152984 0.626547 -0.795681
2 1.657435 0.014338 -1.061099 -0.125722 -0.893864 1.099410 -1.019260 -0.545629 0.003585 -0.025331 -1.054393 1.571263 0.348821 -0.040116 0.013826 -1.121496 -0.435214 -0.252904 0.896218 -0.461158 0.743974 -0.627261 -0.299151 -0.395339 -1.024615 0.562434 0.762011 -0.403819 -0.234434 -0.955936 0.795213 -0.644076
19 1.692023 -0.045223 -0.984783 -0.183834 -0.932043 1.078762 -1.009548 -0.558472 0.046140 -0.066227 -1.059073 1.598498 0.353728 0.010955 0.032516 -1.091666 -0.487123 -0.227776 0.945818 -0.434094 0.774907 -0.613539 -0.371961 -0.415976 -1.041026 0.582105 0.729470 -0.383376 -0.263491 -0.998547 0.786700 -0.711012
27 -0.021879 -0.327361 -1.261858 0.065952 -0.506364 2.095106 -0.450816 -1.107394 -0.557014 0.980165 -0.470507 -0.136042 -0.198098 -0.264406 -0.781177 0.139717 1.066352 0.008202 2.342236 -0.349064 0.001656 0.235935 -1.146067 0.538278 -1.482763 -0.801935 0.441534 -0.089681 0.070043 0.275139 0.645130 -0.760386
25 -0.696144 -0.450799 -0.586810 -0.102901 -0.492183 0.699942 -1.205781 0.098567 0.473628 0.105323 0.249866 0.943208 -0.881456 -0.707045 -0.207306 0.472946 -0.065688 0.465577 0.760323 0.382147 1.353798 -0.495901 -0.525276 -0.020141 -0.214794 -0.728266 -0.264177 -0.036158 0.069629 -1.285951 0.309147 -1.572332
921 1.141451 -0.684532 -0.442030 0.590087 -0.890552 0.435014 -1.151891 1.230924 -0.026670 1.050774 -0.068829 0.285278 -0.286034 0.034527 -1.185901 1.085954 -0.282314 -0.180198 1.069572 1.043798 0.596892 -1.201777 -0.406351 -0.104456 -0.369036 -0.019669 0.914351 -0.956770 -0.235208 -0.469844 0.068454 -0.262780
4 -0.633587 -0.402847 -0.599619 -0.100533 -0.475629 0.682819 -1.276444 0.120546 0.478802 0.152204 0.230253 1.011624 -0.833167 -0.722656 -0.188041 0.448243 -0.058685 0.491977 0.745099 0.352400 1.403969 -0.436386 -0.519862 -0.002855 -0.199066 -0.771098 -0.279731 0.008689 0.118868 -1.368019 0.291690 -1.629381
10 -0.691516 -0.447313 -0.622143 -0.086423 -0.464461 0.713582 -1.207113 0.111942 0.459636 0.129590 0.274198 0.995518 -0.891168 -0.673499 -0.226719 0.476704 -0.045974 0.491837 0.742076 0.361256 1.350887 -0.457008 -0.573702 -0.020247 -0.214616 -0.744705 -0.267373 -0.023979 0.067564 -1.306149 0.299109 -1.657744
1092 -0.399935 0.884882 -1.284921 1.038209 0.162574 0.576304 -0.836667 0.272526 -0.838272 1.143015 -0.519284 0.983115 1.205836 -1.553118 -0.504938 -0.695097 1.129996 -0.131809 1.454067 0.273662 0.271208 -0.304071 -0.318725 0.562282 -0.767213 0.848018 0.479190 0.170626 -0.241640 -0.394572 0.820082 -0.119176
240 -0.390286 0.971571 -1.346932 1.004729 0.240139 0.536178 -0.812279 0.247101 -0.869811 1.151893 -0.495960 0.884626 1.123671 -1.505906 -0.365034 -0.795117 1.113287 -0.280530 1.420645 0.325671 0.317768 -0.352915 -0.384485 0.554227 -0.739269 0.833528 0.512730 0.204575 -0.119555 -0.328363 0.858232 -0.003621
676 -0.370467 -1.633574 -0.301700 -0.525017 -0.175525 0.918987 -1.073327 0.888906 0.487459 -0.689829 0.128655 -0.185455 -1.235438 -0.956689 0.235532 -0.151236 -0.577825 -0.305590 0.755453 0.018986 -0.430037 -1.341617 -1.084580 -0.395430 -1.241220 -0.612683 1.737583 -0.213630 -0.135365 -0.968253 0.348960 -0.451945
897 0.294421 0.767327 -1.007439 0.047684 0.341169 1.840400 -1.402926 -0.106588 0.628111 -0.358477 0.162165 0.270759 0.310714 -0.242777 -0.056337 0.103415 -0.304584 -0.160339 1.927930 0.140594 -0.222533 -1.254873 -0.797352 1.039431 -0.410718 1.121717 1.159047 -0.230728 0.270791 0.457470 0.134601 -0.160882
350 -0.240232 -0.266005 -0.359564 -0.827690 -0.706575 0.228290 0.207071 0.209452 1.086058 0.349096 -0.264899 0.623752 -0.828942 -0.877439 -1.389943 0.910324 0.700682 0.152311 0.796784 -0.709297 -0.004670 -0.857834 -0.874675 0.592671 -1.223701 0.811641 1.464230 -0.013397 -1.365764 -0.621482 0.633770 -1.252442
85 -1.319459 -0.402328 -1.137202 1.185128 -1.695664 -0.963223 -0.480386 0.589180 -0.059134 0.251268 -0.344221 1.037566 -0.245452 -0.203587 0.376997 -0.524200 0.314709 0.035565 0.946876 0.298872 0.678204 -0.430682 -1.462724 -0.303067 -0.867441 -0.039907 0.455630 0.010720 -0.415247 0.409749 0.408037 -0.965031
476 -1.428802 0.455449 -1.036623 -0.482557 -0.190147 0.202513 -0.923242 0.111220 0.136279 0.263097 -0.704708 0.678781 0.260239 0.207298 -0.773960 0.024967 -0.021040 1.016193 1.785287 -0.050969 1.018544 -1.397875 -0.225681 1.196912 -0.360114 -0.442341 0.752424 0.108193 0.942806 -0.732779 0.979149 0.385035
513 -1.427664 0.480214 -1.066949 -0.505071 -0.190762 0.217708 -0.874190 0.138951 0.131565 0.281423 -0.733513 0.656700 0.290510 0.188632 -0.763413 0.018544 -0.029050 1.078408 1.763826 -0.053770 0.980684 -1.380344 -0.183021 1.219850 -0.378351 -0.498741 0.742142 0.146111 0.942071 -0.717882 0.977041 0.365838
1270 -0.057258 -0.115767 -1.352585 0.263308 0.075827 0.362636 -1.602362 -0.252876 1.025773 0.826262 -0.646057 1.078468 0.160211 -0.103812 0.331395 0.521111 -0.002285 -0.806134 0.022451 -0.821749 0.788064 0.383060 -1.533070 0.885649 -0.952180 0.294701 0.911451 -0.588709 -0.182952 0.009115 1.115012 -0.614932
36 0.011562 -0.041286 -1.370668 0.308188 0.150932 0.137513 -1.698465 -0.165037 0.942566 0.790327 -0.688911 1.022125 0.241252 -0.177509 0.197270 0.595948 0.007527 -0.875281 0.223232 -0.732008 0.804644 0.420563 -1.284893 0.976335 -0.915132 0.265658 0.895910 -0.796062 -0.117216 0.000099 1.048428 -0.747858
89 0.369266 -0.494437 -0.965820 0.068141 -1.417087 0.581448 0.251220 0.531723 -0.037898 1.532239 -1.217995 0.957619 -0.201129 -0.800934 -0.245833 -0.258217 -0.167013 0.740960 0.883708 -0.730800 1.742942 -0.781489 -0.348702 0.080249 0.297234 1.079594 1.063256 0.029132 -0.621619 0.555543 0.715355 -0.749097
696 -0.642914 0.124674 -0.728293 -0.132024 -0.624954 0.804186 -0.883122 -0.643313 0.387367 0.827155 0.813088 0.763386 -0.445163 -0.628093 0.616326 -0.136021 -0.921301 0.847244 0.834991 -0.949688 0.291102 -0.588683 0.036637 -0.777366 -0.173102 0.596548 1.785728 -0.126147 -0.043564 -0.557079 0.759547 -0.115092
415 0.355285 -0.460158 -0.976081 0.113253 -1.432491 0.557320 0.306171 0.506530 -0.068569 1.505334 -1.252025 0.876831 -0.170224 -0.808778 -0.264718 -0.272158 -0.129488 0.731798 0.842119 -0.721749 1.707312 -0.754255 -0.364500 0.110147 0.326922 1.118826 1.068180 0.063187 -0.599760 0.578834 0.720035 -0.715821
3 -0.770316 -0.424962 -0.542656 -0.091705 -0.650501 0.986234 -1.048292 0.978698 0.038322 1.010026 -0.460253 0.696518 -1.081041 -0.762644 -0.275871 -1.561115 0.398013 0.461842 0.857935 -0.843433 -0.480798 -0.152873 -1.066197 1.656741 0.151156 0.421945 0.955064 0.101102 0.237697 -0.301695 0.414728 -1.022929
153 -1.386653 -0.231945 -1.353903 1.043630 -1.530598 -1.089659 -0.441134 0.590188 0.156443 0.485786 -0.277779 1.039871 0.104911 -0.039009 0.263986 -0.373811 0.336225 0.214305 1.089292 0.333661 0.528133 -0.773434 -1.386575 -0.169866 -0.619602 -0.184498 0.410957 -0.049534 -0.374315 0.166194 0.589174 -0.810919
1109 1.118910 -0.722960 -0.405504 0.675617 -0.962028 0.407875 -1.116535 1.033478 -0.037106 1.058617 -0.043835 0.178847 -0.437473 -0.050936 -1.027144 0.981511 -0.425530 -0.105002 1.160286 1.058685 0.549900 -1.067986 -0.569622 -0.276201 -0.278907 -0.073238 0.886945 -0.970369 -0.159593 -0.383921 0.007175 -0.126960
80 0.952646 0.208411 -1.711477 -0.125914 0.217864 1.702873 -1.720514 -0.033358 0.867503 0.652670 0.156512 -0.344057 -1.273164 -1.079803 -1.109891 -0.254280 -0.486385 -0.298495 0.477219 0.188527 0.435614 -0.005626 0.034577 -0.250193 -1.319312 -0.136166 0.571083 0.366065 0.411680 -0.451231 0.694527 -0.043151
405 -0.334595 -0.977447 -1.402550 0.062036 0.549038 0.399509 -0.192560 0.854352 -0.041182 1.236516 -0.991570 1.598820 -0.168236 0.161918 -0.554819 0.415976 -0.533157 -0.159007 0.855596 -0.589631 0.337777 -0.548933 -0.311219 0.195338 -1.996693 -0.315375 1.321855 -0.204354 -0.966681 -0.809676 0.012481 0.445838
155 -0.267286 0.605249 -0.808032 -0.389498 -1.884782 0.400991 -1.716622 0.160898 -0.123737 0.558757 -0.322559 0.454433 -0.275065 -1.406505 0.116261 0.293387 -1.420499 -0.555626 1.395811 0.308090 -0.329179 0.066822 -0.934115 0.096894 -0.479291 -0.028153 0.433339 0.280912 -0.867886 -0.488687 -0.162769 -0.237105
428 0.548373 0.151035 -2.107688 0.334576 -0.458635 -0.429713 -0.428384 -0.335893 0.327571 1.251375 0.165733 0.527604 -1.132062 -1.389735 -0.289796 0.447741 0.017162 1.488008 -0.042842 -0.055458 0.135846 -0.704020 -1.677323 -0.322869 -0.618867 -0.161869 0.499430 -0.502962 0.289466 -0.302272 0.186310 -0.687842
389 -0.542298 -0.079352 -0.566627 -0.091139 -0.665614 0.737117 -0.975885 -1.001607 0.370500 0.943861 0.679169 0.527191 -0.924465 -0.837776 0.272897 -0.184634 -0.869471 0.356338 0.623934 -1.191774 0.333475 -0.910018 0.158650 -0.601636 -0.337955 0.470971 1.812097 -0.396427 -0.025773 -0.812453 0.905852 0.128112
308 -1.505743 -0.459250 -0.340337 -0.063690 -0.124490 -0.021340 -0.640531 -0.090116 0.440661 1.129874 0.174658 0.302919 -0.492468 -1.098886 -0.495647 0.149216 0.144361 -0.164491 0.808249 0.487299 0.443905 -0.692700 -1.517244 0.421495 -0.936758 1.074764 1.059082 -1.071433 0.223568 0.016700 -0.099956 0.488145
709 -1.468490 0.798979 -1.528565 -0.299310 -0.342881 0.814971 0.025959 -0.312167 0.031468 1.076302 -0.366491 0.076786 -0.052133 -0.412091 0.265269 -0.067892 0.446178 1.545957 1.136792 0.989665 0.689251 -0.624641 -0.540379 -0.231879 -1.780621 -0.224073 0.977044 -1.155658 -1.008236 -1.340883 0.284071 -0.299204
1268 0.293774 -0.713021 -1.068093 0.324447 -0.499789 -0.364297 -1.271303 -0.449527 0.287641 0.441509 -1.112958 0.026459 -0.060039 -1.164659 0.182045 -0.177467 -0.118468 0.105624 1.018937 -0.945809 -0.210747 -0.973392 -0.939122 -0.027460 -0.133744 -1.002757 1.057693 0.776302 0.178770 0.305602 1.431350 -0.085997
792 -0.022654 0.470774 -2.142597 0.638762 -1.035666 1.131681 -1.067011 0.705296 -0.912856 1.471566 -0.391417 -0.790597 -0.640644 -0.084455 -0.497283 -0.363106 -1.056696 -0.397400 1.473022 0.440437 -0.103463 -1.708873 -0.158349 0.876337 -0.912366 -0.551242 0.553890 0.743409 0.705277 0.016423 -0.021729 -0.592471
524 -0.028320 0.017698 -0.915604 0.380851 -0.589686 0.407944 -1.117107 0.319460 0.239600 0.490196 -0.279298 0.663656 -0.327995 -0.736129 -0.218932 -0.031358 0.226441 0.271788 1.042134 0.091613 0.664845 -0.826529 -0.674926 0.195163 -0.849300 0.172331 1.166212 0.100531 -0.146415 -0.247410 0.563867 -0.470065
28 -0.306391 -0.750625 0.122787 0.959013 -1.387764 0.855027 -1.511152 -0.858777 0.964968 -0.127250 -0.706102 0.635397 -0.091613 -0.447559 -1.221636 -0.076932 -0.670125 -0.081067 2.046688 -0.184604 -0.480265 -0.515379 -1.087281 -0.758037 -1.889064 1.125471 0.194674 -0.719938 0.882985 -0.631955 0.187003 -0.729241
704 -0.167341 -0.061970 -1.182115 0.393787 -0.789186 0.749164 -1.176014 0.365999 0.178227 0.730502 -0.407165 0.748745 -0.380093 -1.004701 -0.300036 -0.083361 0.022356 0.300443 1.347422 -0.003095 0.792671 -1.086908 -1.001894 0.259019 -1.079632 0.087942 1.318409 -0.154651 -0.147460 -0.408013 0.558787 -0.530638
454 0.753534 0.094586 -2.053583 0.158796 -0.470054 -0.537639 -0.429648 -0.297529 0.578786 1.301458 0.086779 0.551865 -0.904218 -1.346473 -0.497692 0.606670 -0.057345 1.561422 0.002928 -0.089757 0.327642 -0.525974 -1.594479 -0.340387 -0.653937 0.026923 0.569439 -0.558524 0.283893 -0.279838 0.210256 -0.814645
76 -0.315596 -0.075149 -1.203334 0.437080 -0.481473 0.627575 -1.100363 0.298362 0.267024 0.641628 -0.468239 0.856555 -0.179204 -0.995523 -0.191764 -0.059596 0.276767 0.333949 1.258122 0.098325 0.599797 -1.065041 -0.879077 0.205231 -0.793496 0.128712 0.992533 -0.068326 -0.091974 -0.496559 0.656378 -0.349691
1218 -0.145241 -0.092905 -1.262053 0.441108 -0.715433 0.797412 -1.318902 0.366864 0.300582 0.753885 -0.431701 0.694633 -0.388334 -1.106319 -0.302319 -0.067799 0.069954 0.304729 1.384168 -0.029773 0.836234 -1.196857 -1.054585 0.288644 -1.132477 0.105813 1.448650 -0.132384 -0.088787 -0.413015 0.611574 -0.525481
910 -0.096957 -0.010121 -1.277155 0.404550 -0.840310 0.832145 -1.301727 0.360103 0.348970 0.804845 -0.431501 0.655397 -0.409980 -1.143824 -0.291827 -0.117835 0.118898 0.334727 1.391697 -0.005397 0.878816 -1.200078 -1.108345 0.296538 -1.126092 0.102807 1.438890 -0.118584 -0.042390 -0.397910 0.645622 -0.598254
844 -0.109475 -0.021268 -0.986700 0.330348 -0.567671 0.676035 -1.054604 0.262364 0.220790 0.628561 -0.360990 0.628882 -0.357961 -0.903344 -0.285931 -0.037693 0.059873 0.265893 1.180757 -0.009086 0.738928 -1.013240 -0.859066 0.201168 -0.926337 0.097230 1.228135 -0.054271 -0.121508 -0.388579 0.447189 -0.417666
1162 0.296145 -0.331492 -0.296376 1.164487 0.286181 1.337348 -1.832403 0.154439 0.582972 -0.197377 0.150410 1.289799 0.146582 -1.514058 1.199997 -0.857224 1.028021 -0.144657 0.370377 0.205750 -0.013597 -0.602062 -0.361881 -0.713430 -1.112425 0.257450 1.759320 0.283331 0.746071 -0.379929 0.119184 -1.255037
935 -0.328615 -0.956227 -1.375032 0.061775 0.532978 0.405641 -0.236684 0.855809 -0.043633 1.206058 -0.999308 1.587597 -0.153473 0.140170 -0.525106 0.406391 -0.552700 -0.184557 0.867862 -0.589714 0.323130 -0.516806 -0.318109 0.190493 -1.962182 -0.272535 1.309377 -0.190303 -0.957638 -0.799138 -0.003836 0.442761
816 -0.032305 1.263621 -0.491073 -0.959342 -0.682703 -0.680913 -1.142387 0.846462 1.094964 0.965282 -0.518107 0.535946 0.753795 -0.586501 0.252368 -0.553696 0.176003 0.339790 0.751096 0.486559 1.032461 -1.075368 -0.528258 0.371781 -1.784897 0.160293 0.888352 0.550321 -0.472282 -1.365507 -0.025826 -0.925974
206 -0.185908 0.765304 -0.748318 -0.321047 -2.031001 0.567393 -1.679441 -0.022291 0.063678 0.562691 -0.254684 0.352762 -0.297638 -1.579242 -0.194826 0.109872 -1.271877 -0.494161 1.330165 0.195633 -0.221589 0.056398 -0.932264 0.206334 -0.271882 0.018030 0.320656 0.268819 -0.830459 -0.571134 -0.181407 -0.338288
1256 0.244109 -0.713015 -0.836132 0.180310 -0.696238 -0.463330 -1.128962 -0.661887 0.447499 0.803502 -1.266840 -0.012496 0.277169 -1.151731 -0.058246 -0.050332 -0.127872 0.000611 1.277454 -1.050431 -0.143788 -1.135510 -0.865263 0.123852 -0.273269 -0.826649 0.796270 0.842247 0.238907 0.062062 1.265435 0.073326
565 0.191668 0.863642 -0.688328 0.205380 -0.797888 0.179508 -1.521935 -0.360523 0.455826 0.314000 -1.839047 0.747525 -1.399501 -0.460146 -1.161485 -0.019343 0.174548 0.662628 1.089168 0.457355 0.462966 -1.110320 -1.163707 0.549097 -0.219621 0.704782 -0.443884 -0.444454 -0.713895 0.101335 1.021881 0.013241
394 0.229727 -0.735167 -1.102816 0.385289 -0.395127 -0.356966 -1.342714 -0.433008 0.266268 0.359299 -1.069095 0.111039 -0.268101 -1.231951 0.264561 -0.199396 -0.095215 0.100163 0.991767 -0.841088 -0.258551 -0.914247 -0.984818 -0.110634 -0.114237 -0.982653 1.004594 0.818340 0.140002 0.393625 1.445323 -0.111412
763 -0.770617 0.346541 -0.917934 -0.097754 -0.666725 0.826184 -0.821102 -0.256624 0.399093 0.803477 0.840203 1.003875 -0.030187 -0.525142 0.804278 0.020746 -0.953763 1.396000 1.109126 -0.729489 0.297125 -0.327528 -0.154105 -0.781521 -0.123190 0.679402 1.722662 0.121172 -0.159021 -0.308174 0.637115 -0.395547
263 -0.327186 -1.534721 -0.321336 -0.574061 -0.152647 0.841763 -1.129955 0.925030 0.494886 -0.696058 0.091131 -0.144395 -1.217818 -0.925972 0.291094 -0.100262 -0.566096 -0.208762 0.791444 0.030814 -0.418212 -1.387442 -1.106706 -0.421335 -1.217602 -0.620501 1.696826 -0.148176 -0.138180 -0.921801 0.378704 -0.438012
421 0.082790 0.675831 -0.664626 0.101898 -0.673941 0.256280 -1.543526 -0.244378 0.235870 0.116312 -1.839038 0.694164 -1.358672 -0.340219 -0.952553 0.320409 0.092537 0.710797 1.051899 0.404891 0.449646 -1.287388 -1.250591 0.581322 -0.257514 0.755173 -0.328609 -0.332510 -0.813546 -0.021829 0.802649 0.036358
496 -0.133777 0.195033 -0.317620 1.332200 -0.442677 0.828863 -0.237067 0.198454 0.417385 0.314801 0.154371 -0.448259 0.229795 -0.364108 -0.351595 -0.058794 0.483279 0.463234 0.062852 -0.356742 0.969199 -0.706892 -0.969549 0.573971 -0.685095 -0.349964 1.175753 -0.090655 -0.380940 -0.491856 0.484497 -0.453909
775 0.294469 -0.799985 -1.059543 0.334800 -0.553654 -0.350660 -1.115942 -0.476003 0.196550 0.570413 -1.127126 0.094811 0.123226 -1.229819 0.196905 -0.056019 0.008914 0.156617 1.116242 -0.995826 -0.180379 -0.923872 -0.926978 0.005782 -0.230318 -0.922992 0.995387 0.850575 0.228787 0.270616 1.383209 -0.093710
909 0.061450 0.287350 -0.267938 1.439455 -0.322599 0.790120 -0.482850 0.064230 0.353013 0.207205 0.163869 -0.418619 0.016406 -0.175695 -0.299172 -0.329616 0.413578 0.403728 0.021864 -0.327077 1.002316 -0.908104 -0.703980 0.428638 -0.726801 -0.396051 1.226251 0.070226 -0.326103 -0.467261 0.463711 -0.337051
337 0.137515 -0.618573 -0.398815 0.311301 -0.820265 0.918095 -0.253462 0.514967 -0.242865 -0.210133 -0.505359 1.647913 0.281811 -2.053264 0.524732 0.453325 0.028949 1.165735 0.623739 -0.025663 0.695636 -0.193022 -0.957148 1.477055 -0.608278 0.582446 0.917713 0.558633 -0.469032 -0.474584 0.086874 0.057602
99 -0.010813 -0.049482 -1.356247 0.143930 0.134345 0.271497 -1.712849 -0.259548 1.078698 0.666650 -0.624190 0.917967 0.156041 -0.259300 0.430311 0.554821 -0.002119 -0.895628 -0.087974 -0.794449 0.792362 0.393594 -1.413870 0.904749 -1.112661 0.310439 0.849343 -0.525906 -0.099461 -0.068085 1.021544 -0.693515
1029 0.047146 -0.643038 -0.226942 0.098765 -0.658836 1.104428 -0.350662 0.652284 -0.218025 -0.322754 -0.508181 1.523466 0.144668 -1.958787 0.663428 0.693541 -0.017759 1.139399 0.661510 0.007167 0.601809 -0.311903 -1.180647 1.476692 -0.751853 0.185755 1.146403 0.300861 -0.312942 -0.487344 -0.078434 0.001454
531 -0.038742 0.325444 -0.328648 1.390519 -0.416006 0.825448 -0.280009 0.046077 0.463342 0.328346 0.185773 -0.371078 0.065545 -0.294097 -0.388149 -0.204315 0.473988 0.490505 0.027073 -0.332321 1.020748 -0.916716 -0.746883 0.535988 -0.711923 -0.397016 1.122855 0.080033 -0.253509 -0.505488 0.478254 -0.290533
412 0.057988 -0.667982 -0.207200 0.124183 -0.662515 1.033288 -0.307618 0.650782 -0.265704 -0.319591 -0.495548 1.525781 0.201315 -1.937182 0.600773 0.613501 -0.020552 1.089853 0.653724 0.025655 0.604450 -0.282964 -1.109431 1.430796 -0.737587 0.248136 1.086399 0.334065 -0.342440 -0.427317 -0.098614 0.059443
218 -0.020147 -0.092431 -1.254068 0.407819 0.141923 0.130423 -1.631858 -0.148366 0.849227 0.870270 -0.709960 1.150393 0.313254 -0.044358 0.112819 0.579798 0.022708 -0.846923 0.358650 -0.719029 0.712589 0.469391 -1.286005 0.993493 -0.764512 0.265314 0.946772 -0.966543 -0.146255 -0.031454 1.131340 -0.777095
259 1.228298 -0.736116 -0.311370 0.541767 -1.013738 0.484411 -1.105107 0.979616 0.062165 0.907217 -0.111997 0.197046 -0.393956 -0.135391 -1.054770 1.044333 -0.307030 0.064373 1.222925 1.035938 0.596617 -1.228817 -0.499021 -0.104249 -0.219501 -0.127749 0.964717 -1.023725 -0.213606 -0.399438 -0.146734 -0.080947
212 -1.509735 -0.494961 -0.374863 -0.151224 -0.080647 -0.002336 -0.693146 -0.231157 0.496389 1.163761 0.250476 0.305744 -0.451388 -1.189885 -0.457337 0.028859 0.170925 -0.219920 0.865780 0.489919 0.361511 -0.684092 -1.475084 0.301853 -0.999485 1.118927 1.078611 -0.987963 0.120837 -0.038038 0.038433 0.615430
315 -0.004460 0.286379 -0.390536 1.431646 -0.449528 0.823348 -0.304999 0.116900 0.397059 0.311751 0.221792 -0.402397 0.076010 -0.271134 -0.443494 -0.262856 0.482596 0.500251 0.123076 -0.231950 0.931513 -0.857626 -0.860032 0.610098 -0.756994 -0.417912 1.135454 0.220258 -0.171351 -0.432945 0.351618 -0.124938
765 -0.100112 0.296281 -0.565839 -1.260072 -0.827813 0.405154 -1.322049 0.636676 -0.435911 0.518668 0.560932 0.980147 -1.747345 -0.193929 -0.690217 0.421033 0.089933 0.824706 1.128556 0.190411 0.390189 -1.237614 -0.864268 0.328614 -0.856896 -0.424032 2.079075 -0.089439 0.996738 0.402623 -0.944600 -0.116092
1021 -1.014554 -0.013577 0.190775 1.113035 -0.545557 1.562841 -0.806528 0.604652 -0.838710 -0.010564 0.147431 0.370948 -0.642846 -1.298511 0.153855 -0.175629 0.624372 0.584553 2.412871 0.642631 0.015668 -1.438197 -0.670189 -0.503509 -0.500441 -0.707279 0.741220 -0.186854 0.612358 0.031619 0.049797 0.158691
442 -1.383562 -0.394777 -0.364536 -0.213347 0.060347 0.020532 -0.746799 -0.143453 0.402997 1.244742 0.282733 0.279088 -0.461338 -1.240370 -0.549169 0.087590 0.196666 -0.271097 0.854795 0.589465 0.416396 -0.589097 -1.398023 0.433028 -1.077199 1.054851 1.080232 -1.020595 0.218358 -0.010752 -0.039721 0.570961
838 0.267093 -0.187164 0.464282 0.465438 -2.178342 0.602127 -1.197354 0.535336 0.782438 0.329220 -0.148909 1.419544 0.640540 0.297009 -0.038167 0.326424 0.416635 0.984507 1.674509 -0.368706 -0.457210 -1.328030 -0.779842 0.576982 -0.558818 -0.139323 1.250252 0.162851 0.753561 -0.137645 0.053122 -1.023717
1076 -0.093305 -0.705511 -1.240123 0.544343 -0.120015 -0.340443 -0.914989 0.260169 -0.175186 -0.144043 -0.455840 0.480094 -0.582743 -1.408050 -0.511329 -0.805684 -0.135179 0.191582 1.016665 0.120224 0.774401 -1.277162 0.738663 -0.158762 -0.856320 0.251325 0.737118 -0.154589 0.254138 -0.211945 -0.556652 -0.257770
434 -0.123736 -0.498318 -0.340637 0.498132 -0.606555 0.567320 -0.884019 1.024312 -0.884108 0.170341 0.241384 -0.451833 -0.117185 -0.310703 0.184737 -0.833821 -0.201730 -0.110590 2.018608 0.618062 1.482776 -0.125482 -0.476938 0.919824 -1.475205 1.041835 0.466516 0.063194 0.778403 -0.885372 1.000389 -1.289115
349 -0.024667 -0.631742 -0.206313 -0.011350 -0.496321 1.058526 -0.396410 0.691206 -0.318772 -0.392654 -0.512024 1.444358 0.112263 -1.882220 0.730259 0.688355 -0.039541 1.116219 0.724679 0.111167 0.495986 -0.283788 -1.182441 1.468674 -0.799270 0.044322 1.185464 0.260907 -0.243356 -0.418520 -0.152477 0.047614
741 -0.065807 -0.500104 -0.349752 0.433705 -0.607835 0.542226 -0.831768 1.020963 -0.927335 0.151364 0.206718 -0.414459 -0.163835 -0.260768 0.187598 -0.837969 -0.197735 -0.152682 1.955890 0.619046 1.505861 -0.140363 -0.498331 0.928579 -1.470988 1.070944 0.467805 0.052067 0.805650 -0.905829 0.986657 -1.267604
905 -0.066341 0.244445 -0.272499 1.406575 -0.406179 0.869541 -0.281516 0.111721 0.437370 0.247621 0.267014 -0.384212 0.053475 -0.376664 -0.439558 -0.132225 0.495127 0.541387 0.037581 -0.266304 0.941814 -0.737166 -0.949197 0.561846 -0.765413 -0.341799 1.125534 0.135709 -0.160391 -0.469580 0.404076 -0.201106
111 -0.070050 1.425708 -0.841623 0.106775 -0.843469 -0.195611 -1.787767 -0.086743 0.816545 0.347064 -0.552401 0.393784 -0.878354 -1.517894 -0.189256 -0.731282 0.457991 0.482113 0.822657 -0.590901 1.784384 0.081809 -0.587768 0.940335 -0.168485 0.367678 1.475896 -0.531336 0.714768 0.754515 -0.323295 -0.491917
270 -1.540634 -0.332076 -0.481935 -0.068013 0.011457 -0.068083 -0.776501 -0.024639 0.456141 1.117224 0.209679 0.340711 -0.478100 -1.220727 -0.475412 0.216800 0.283844 -0.256914 0.846694 0.571787 0.342109 -0.600279 -1.462912 0.430715 -1.008126 0.930389 1.105752 -1.178937 0.318362 0.033222 -0.143998 0.377633
1250 0.295540 -0.174136 0.412863 0.493168 -2.165020 0.579247 -1.262812 0.603092 0.773420 0.408255 -0.158912 1.438581 0.699151 0.271033 0.038448 0.351700 0.473361 1.013822 1.695875 -0.325763 -0.461026 -1.345453 -0.759464 0.588154 -0.567988 -0.183357 1.243443 0.178394 0.749066 -0.214528 0.076246 -1.017317
882 -0.715632 -0.389066 -0.564868 -0.164942 -0.599336 0.996563 -1.057702 0.971987 0.022187 0.999947 -0.445945 0.701833 -1.070519 -0.753020 -0.254914 -1.567090 0.371044 0.470681 0.876161 -0.832329 -0.468227 -0.091165 -1.027904 1.613149 0.136522 0.434890 0.925146 0.109387 0.238529 -0.296186 0.431290 -1.031931
1123 -1.429503 -0.134673 -1.479776 1.013125 -1.413114 -1.115216 -0.510775 0.592556 0.288781 0.579188 -0.209535 1.054011 0.223579 0.072135 0.218476 -0.324455 0.375534 0.335826 1.149607 0.283921 0.384577 -0.977381 -1.402435 -0.137156 -0.611755 -0.259381 0.344746 -0.074045 -0.432126 0.004840 0.753380 -0.715399
759 -1.004230 0.031720 0.201978 1.025685 -0.557790 1.572826 -0.761277 0.685162 -0.872969 -0.012798 0.174880 0.374867 -0.610092 -1.267331 0.177214 -0.200309 0.653832 0.667028 2.491137 0.662971 -0.050683 -1.455787 -0.642272 -0.470655 -0.595575 -0.760578 0.749498 -0.154227 0.594724 -0.044361 -0.016679 0.157395
1150 -0.093298 0.252549 -0.538256 -1.256564 -0.776365 0.408137 -1.298065 0.692613 -0.486243 0.515923 0.606860 1.025233 -1.686406 -0.192949 -0.690880 0.456348 0.143257 0.834795 1.133318 0.190933 0.355985 -1.137375 -0.860102 0.308408 -0.884997 -0.380095 2.122859 -0.052866 1.031391 0.422003 -0.980444 -0.118359
288 0.372519 -0.445773 -0.994060 0.063285 -1.426851 0.513421 0.280789 0.563806 -0.049400 1.521672 -1.209808 0.874104 -0.160016 -0.738991 -0.244775 -0.290567 -0.172831 0.757562 0.872316 -0.737355 1.717535 -0.818893 -0.322859 0.094804 0.324878 1.086262 1.026825 0.080884 -0.644845 0.534627 0.694165 -0.754124
825 0.384868 0.298717 -1.214695 0.145039 -0.843418 1.133168 -0.648854 0.411110 0.511488 0.756988 -0.999350 0.422769 -0.020495 -1.370985 0.781539 0.366770 0.123015 -0.331455 -0.022697 0.553180 0.376035 -1.615712 -0.607292 -0.077532 -0.328424 0.389111 0.957333 -0.381032 0.841682 -0.197442 0.592573 1.101931
165 -0.206027 -0.718650 -1.256164 0.486266 -0.072365 -0.352308 -0.846439 0.156914 -0.112762 -0.111699 -0.507399 0.439028 -0.457507 -1.523969 -0.464617 -0.823040 -0.127981 0.247120 0.958618 0.108016 0.783219 -1.237400 0.731257 -0.222247 -0.866556 0.267953 0.733681 -0.088426 0.229976 -0.315654 -0.538860 -0.291499
744 -0.316818 0.917917 -1.315144 0.997704 0.111007 0.537588 -0.786064 0.191239 -0.795356 1.207886 -0.497845 0.960508 1.175479 -1.450753 -0.534611 -0.654343 1.060109 -0.286261 1.393797 0.283750 0.182740 -0.317856 -0.354898 0.516029 -0.782121 0.807291 0.403671 0.149135 -0.185266 -0.341466 0.793922 -0.006410
260 -0.088817 1.399591 -0.845065 0.046223 -0.919077 -0.155472 -1.710871 -0.026147 0.821471 0.278743 -0.548813 0.446894 -0.898801 -1.399040 -0.085115 -0.708772 0.471138 0.492703 0.886290 -0.515786 1.785105 0.151841 -0.589147 0.830786 -0.197016 0.334844 1.447197 -0.549696 0.643459 0.724263 -0.308711 -0.508928
403 0.834887 0.286112 -1.769343 -0.215672 0.210236 1.580602 -1.764598 -0.007409 0.887424 0.656187 0.091371 -0.309658 -1.261456 -0.923539 -1.155630 -0.295348 -0.499069 -0.355630 0.494243 0.234625 0.457790 0.028022 -0.031683 -0.372973 -1.348292 -0.086423 0.534080 0.438560 0.353138 -0.413926 0.673479 -0.134077
1041 0.965795 -0.632667 -0.431848 0.679881 -0.890777 0.417025 -1.142589 1.374572 -0.156688 1.011291 0.081697 0.243141 -0.367114 0.058460 -1.168849 1.136000 -0.241683 -0.245272 1.012844 1.114133 0.581494 -1.199777 -0.467455 -0.152625 -0.480378 -0.036900 0.816291 -0.915690 -0.128630 -0.637908 0.144054 -0.245513
529 0.129084 0.224208 -0.228857 1.330465 -0.299903 0.742817 -0.496176 0.116899 0.365595 0.353436 0.161479 -0.518611 0.135444 -0.280596 -0.400891 -0.108399 0.440057 0.247186 0.039004 -0.499699 1.095884 -0.874054 -0.793777 0.411564 -0.814623 -0.397966 1.274146 -0.190356 -0.513894 -0.461241 0.463006 -0.384790
139 -0.313121 -1.592842 -0.279060 -0.558694 -0.209480 0.847292 -1.070745 0.913477 0.469267 -0.660035 0.079528 -0.149117 -1.159649 -0.877977 0.293055 -0.086100 -0.546391 -0.280086 0.757382 0.061760 -0.439134 -1.341586 -1.091645 -0.397636 -1.224971 -0.637511 1.698043 -0.169051 -0.152970 -0.933352 0.344787 -0.448421
56 -0.602408 0.018651 -0.672556 -0.106401 -0.678802 0.745632 -0.889537 -0.866107 0.359987 0.937963 0.776929 0.579591 -0.761145 -0.719269 0.412924 -0.210458 -0.936426 0.583320 0.724358 -1.107521 0.350089 -0.807952 0.114268 -0.730153 -0.212474 0.484533 1.801517 -0.250364 -0.082870 -0.638872 0.825302 -0.004973
1039 1.088129 -0.804813 -0.456053 0.676204 -1.071506 0.414178 -0.870751 0.688471 -0.060512 1.051229 0.133321 -0.004427 -0.663063 -0.216968 -0.826848 0.862951 -0.738693 0.038679 1.397204 0.962701 0.529332 -0.976609 -0.972152 -0.526998 -0.068659 -0.299979 0.959653 -0.865150 -0.236678 -0.305937 -0.082341 -0.093512
231 0.137300 -0.708411 -1.024707 0.299814 -0.395119 -0.479119 -1.246550 -0.382639 0.357965 0.521453 -1.071335 -0.044256 -0.167192 -1.244084 0.103389 -0.097606 -0.029668 -0.005076 1.078509 -0.824329 -0.263170 -0.935192 -0.995561 -0.033853 -0.131927 -0.915245 0.934073 0.879850 0.196533 0.327933 1.426189 0.013300
1261 1.670669 -0.009119 -1.032956 -0.178927 -0.813650 1.090723 -0.987971 -0.543913 0.009172 -0.087818 -1.103459 1.594501 0.327204 -0.062420 0.002175 -1.151254 -0.438405 -0.308501 0.890225 -0.443049 0.852687 -0.664729 -0.319414 -0.342551 -1.057188 0.579596 0.779714 -0.405042 -0.268462 -0.928062 0.734283 -0.612865
483 0.039610 0.299005 -0.208247 1.400299 -0.242568 0.718459 -0.540755 0.078370 0.390543 0.135476 0.176577 -0.500748 0.179834 -0.261016 -0.375053 -0.100233 0.417647 0.265245 0.040973 -0.365895 0.995844 -0.955922 -0.773898 0.424923 -0.791969 -0.423818 1.249546 -0.113024 -0.379285 -0.495259 0.508129 -0.307166
973 0.116392 0.377683 -0.236522 1.350246 -0.354213 0.785231 -0.519105 0.046725 0.425280 0.284897 0.133390 -0.436516 0.109479 -0.204061 -0.427959 -0.181726 0.450934 0.344989 0.074278 -0.405650 1.098206 -0.979480 -0.763449 0.425625 -0.770410 -0.381311 1.200909 0.008162 -0.300445 -0.424616 0.510309 -0.186559
300 0.900114 0.144921 -1.773160 -0.066177 0.219991 1.770783 -1.821254 -0.094311 0.859265 0.524119 0.194692 -0.247853 -1.244871 -1.221671 -0.903188 -0.295875 -0.557341 -0.381564 0.550223 0.168969 0.368465 -0.055049 0.000020 -0.199285 -1.364166 -0.145986 0.635952 0.362172 0.473189 -0.442711 0.658377 -0.091521
662 -1.420630 -0.297466 -0.510569 -0.123393 0.087839 0.035244 -0.818950 0.163843 0.353905 1.143847 0.170023 0.367044 -0.523984 -1.175898 -0.517093 0.254216 0.243264 -0.316845 0.934461 0.703217 0.301727 -0.440591 -1.416521 0.524843 -1.012330 0.941668 0.975329 -1.226353 0.487352 0.111525 -0.227112 0.305050
106 -1.467775 -0.454033 -0.384101 -0.143161 -0.124079 -0.030906 -0.704553 -0.234077 0.450898 1.127772 0.232948 0.300279 -0.421794 -1.199917 -0.517065 0.017808 0.156604 -0.141921 0.828170 0.499238 0.429917 -0.712443 -1.511230 0.387266 -1.033572 1.086740 1.093190 -0.949969 0.158908 -0.033560 -0.004746 0.577407
11 -0.277037 -1.503874 -0.335773 -0.542683 -0.178872 0.876194 -1.191355 0.948566 0.509737 -0.708042 0.075746 -0.139764 -1.252924 -0.915152 0.233915 -0.121060 -0.591660 -0.244711 0.824312 -0.009998 -0.382401 -1.327590 -1.047778 -0.412290 -1.199065 -0.585488 1.635373 -0.112618 -0.093177 -0.890829 0.371209 -0.440218
223 0.021223 1.394890 -0.938014 -0.002297 -0.964024 -0.121882 -1.655175 -0.009563 0.770860 0.198604 -0.558072 0.512360 -0.941629 -1.341832 -0.065845 -0.632954 0.430284 0.419138 0.889312 -0.461587 1.827320 0.234413 -0.677691 0.747975 -0.216890 0.243838 1.460494 -0.630159 0.637465 0.764273 -0.337621 -0.581841
920 1.128224 -0.655031 -0.358406 0.584373 -0.910008 0.491407 -1.151459 1.118437 0.021399 0.908953 -0.063354 0.211945 -0.290226 0.004818 -1.111913 1.040316 -0.292965 -0.059222 1.193709 1.110248 0.578078 -1.246237 -0.439137 -0.067549 -0.340339 -0.116348 0.887499 -1.042547 -0.157855 -0.457964 -0.096347 -0.129059
417 0.841796 0.008151 -1.697708 -0.019582 0.251757 1.762988 -1.842635 -0.161104 0.924374 0.436021 0.223456 -0.200158 -1.204628 -1.244398 -0.708183 -0.290109 -0.514000 -0.416230 0.596072 0.151862 0.185860 0.079839 0.015523 -0.176428 -1.427775 -0.123115 0.615000 0.346425 0.571928 -0.414278 0.672739 -0.166840
381 -0.153541 -0.739362 -1.273306 0.529813 -0.074720 -0.320548 -0.840667 0.184800 -0.150750 -0.058931 -0.474939 0.419964 -0.549357 -1.427491 -0.528502 -0.770890 -0.147266 0.175103 1.001850 0.096293 0.800758 -1.242967 0.711780 -0.167020 -0.854682 0.234226 0.772806 -0.108889 0.246549 -0.213002 -0.578409 -0.240569
413 -1.501238 -0.263204 -0.572465 -0.080733 0.086286 -0.059509 -0.788418 0.105648 0.453173 1.121564 0.172330 0.371299 -0.477289 -1.192086 -0.514273 0.191107 0.329307 -0.303545 0.846167 0.613413 0.293124 -0.538366 -1.433257 0.533804 -1.038655 0.901685 1.056410 -1.204857 0.431234 0.043277 -0.200004 0.321308
450 -0.518798 -0.087360 -0.563712 -0.110119 -0.701710 0.688579 -0.965777 -1.038921 0.411532 0.960573 0.640674 0.480435 -0.972652 -0.810524 0.259356 -0.228572 -0.874713 0.328010 0.630283 -1.264911 0.445660 -0.976373 0.186896 -0.563672 -0.304548 0.454863 1.853647 -0.414726 -0.050353 -0.777434 0.923204 0.132932
917 -0.006292 0.172511 -0.254773 1.293709 -0.444055 0.676505 -0.325927 0.243898 0.528618 0.375220 0.121791 -0.503007 0.084455 -0.405507 -0.387559 -0.059846 0.483475 0.273858 0.083429 -0.414883 1.062111 -0.793821 -0.857763 0.599957 -0.746126 -0.403551 1.173993 -0.179724 -0.378737 -0.415145 0.440241 -0.364628
835 -0.235322 0.625422 -0.712358 -0.334168 -1.872184 0.477812 -1.646842 0.142243 -0.129168 0.474894 -0.322303 0.319248 -0.277813 -1.363780 0.092416 0.229200 -1.412948 -0.589946 1.325413 0.169266 -0.282955 0.118563 -0.941855 0.148812 -0.514845 -0.080538 0.465582 0.357594 -0.844198 -0.489463 -0.180751 -0.303235
279 0.196685 -0.853289 -1.081793 0.420618 -0.442230 -0.259624 -1.338769 -0.361697 0.179809 0.346970 -1.046000 0.082690 -0.193458 -1.160025 0.343009 -0.240928 -0.132786 0.168761 0.948988 -0.859906 -0.206531 -0.869403 -0.992301 -0.146810 -0.111110 -0.985643 1.123808 0.754072 0.186554 0.464403 1.466389 -0.160929
1011 1.123851 -0.614359 -0.339005 0.494408 -0.895269 0.428732 -1.141312 1.132874 -0.023794 0.915217 -0.118794 0.261212 -0.267674 -0.010696 -1.115358 1.058091 -0.279435 -0.063020 1.104359 1.053349 0.563698 -1.159122 -0.402098 -0.082245 -0.322150 -0.063653 0.923761 -0.962003 -0.225419 -0.413525 -0.056974 -0.155931
889 0.942818 -0.669354 -0.484607 0.780939 -0.996369 0.372629 -1.094465 1.161731 -0.124186 1.076502 0.073971 0.145277 -0.411515 0.005084 -1.072885 1.082121 -0.379795 -0.217454 1.158787 1.142576 0.546081 -1.078048 -0.689600 -0.295282 -0.414181 -0.134679 0.733904 -0.975652 -0.167720 -0.550300 0.069404 -0.176922
361 -1.385870 -0.417362 -0.451227 -0.111352 -0.011435 0.057631 -0.876507 0.123267 0.341846 1.187808 0.149904 0.320140 -0.451097 -1.184324 -0.505356 0.203093 0.169544 -0.330686 0.942305 0.671299 0.276034 -0.480221 -1.413106 0.447551 -1.047644 1.006203 0.924768 -1.153529 0.411632 0.053771 -0.075088 0.362523
570 0.043639 0.251618 -0.282080 1.257139 -0.403131 0.822566 -0.300918 0.216598 0.499457 0.255301 0.169251 -0.538018 0.034033 -0.364741 -0.349174 -0.050846 0.390212 0.363008 0.032577 -0.450730 1.005273 -0.737847 -0.852438 0.562322 -0.734560 -0.379660 1.216783 -0.076654 -0.361391 -0.546668 0.561584 -0.415381
851 -0.084395 -0.706855 -1.253215 0.502077 -0.108135 -0.387022 -0.875321 0.232038 -0.177672 -0.099864 -0.504511 0.426318 -0.531615 -1.397626 -0.498928 -0.831219 -0.174418 0.179390 1.022280 0.114450 0.779575 -1.276729 0.728999 -0.223165 -0.887840 0.259070 0.754104 -0.061137 0.215046 -0.230017 -0.598003 -0.278932
340 -0.212827 0.325317 -0.323105 1.349241 -0.397084 0.841752 -0.245287 0.071595 0.392487 0.269228 0.168603 -0.374244 -0.002438 -0.291112 -0.367031 -0.155827 0.449635 0.654183 0.005213 -0.341773 0.962035 -0.842433 -0.842621 0.562219 -0.786111 -0.362826 1.109472 0.027415 -0.259916 -0.570161 0.503319 -0.401556
989 -0.060548 0.360829 -0.318364 1.390374 -0.392899 0.927212 -0.311715 0.159042 0.430539 0.248741 0.220335 -0.367156 -0.024548 -0.324368 -0.510182 -0.072232 0.508241 0.539645 0.033207 -0.289943 1.031831 -0.780330 -0.875817 0.676137 -0.734141 -0.260813 1.124778 0.087060 -0.166289 -0.575911 0.393861 -0.162260
536 -0.013817 0.202567 -0.260671 1.469330 -0.413205 0.858044 -0.366920 0.099905 0.495293 0.417527 0.160501 -0.379957 0.004640 -0.353024 -0.367579 -0.221485 0.455249 0.497628 0.097292 -0.307523 1.124063 -0.868392 -0.775930 0.616845 -0.646694 -0.440269 1.092589 0.169920 -0.060373 -0.324208 0.389623 -0.206974
633 0.326867 0.738942 -0.946918 0.080571 0.316848 1.786645 -1.407168 -0.087561 0.646751 -0.331002 0.214643 0.226385 0.315421 -0.234812 -0.146491 0.145884 -0.304387 -0.155621 1.930049 0.165232 -0.197124 -1.241561 -0.792821 1.099679 -0.361931 1.101406 1.146920 -0.173778 0.264756 0.445411 0.127636 -0.174124
637 0.356913 0.739642 -0.962635 0.056965 0.303199 1.773911 -1.342836 -0.088946 0.631138 -0.385679 0.181060 0.256419 0.316408 -0.209771 -0.119510 0.168882 -0.284815 -0.187557 1.911205 0.120265 -0.228514 -1.252545 -0.812572 1.068958 -0.390639 1.102186 1.132127 -0.181271 0.239716 0.425230 0.095981 -0.188259
365 -0.697621 -0.453716 -0.558629 -0.091943 -0.495896 0.672008 -1.281178 0.148541 0.540639 0.078703 0.284864 0.954401 -0.897381 -0.736025 -0.221183 0.456876 -0.081866 0.458076 0.694114 0.400433 1.336360 -0.432478 -0.556866 -0.017584 -0.226052 -0.750060 -0.301168 -0.047252 0.105773 -1.331063 0.305742 -1.614485
507 0.063774 0.390350 -0.773648 -0.082681 -0.386549 0.437420 -1.714574 0.001874 -0.395544 -0.175980 -1.916249 0.409226 -1.382799 -0.056940 -0.587903 0.865618 -0.082332 0.677533 0.945036 0.242615 0.491481 -1.739211 -1.371405 0.622987 -0.385586 0.747339 -0.241890 0.043840 -1.062881 -0.226733 0.416969 0.073801
1156 1.097396 -0.651738 -0.342620 0.569148 -0.970390 0.524549 -1.067305 0.981040 -0.027467 0.937968 -0.086021 0.138555 -0.360930 -0.000813 -1.026341 1.032118 -0.395272 -0.001444 1.247748 1.106665 0.555378 -1.170604 -0.539852 -0.190924 -0.233547 -0.117686 0.875262 -0.987571 -0.165016 -0.360390 -0.110478 -0.110180
887 0.347394 0.738867 -0.980940 0.033380 0.297438 1.773171 -1.381785 -0.093425 0.648763 -0.343018 0.154018 0.275922 0.319840 -0.261489 -0.141741 0.155836 -0.258510 -0.188690 1.902970 0.128731 -0.222538 -1.203750 -0.835980 1.050281 -0.394083 1.093367 1.120834 -0.205230 0.236992 0.425422 0.117430 -0.143478
767 -0.236031 -0.387247 -0.334661 -0.792319 -0.691808 0.221050 0.183525 0.241615 1.064752 0.371536 -0.246912 0.611813 -0.892611 -0.891387 -1.354313 1.012506 0.633308 0.182865 0.808029 -0.706824 0.045036 -0.867895 -0.902120 0.574539 -1.226353 0.771103 1.517789 -0.043160 -1.374858 -0.619983 0.598902 -1.246626
40 0.041694 0.345773 -0.302355 1.429816 -0.234271 0.929874 -0.478514 0.100920 0.366684 0.249076 0.227809 -0.393072 -0.027753 -0.261604 -0.369201 -0.167108 0.380108 0.384020 -0.024613 -0.396366 1.059647 -0.882591 -0.657938 0.545798 -0.729031 -0.377717 1.189358 -0.069935 -0.298271 -0.515336 0.426662 -0.303283
1054 1.118621 -0.817530 -0.439848 0.574361 -1.077760 0.482704 -0.819161 0.583666 0.052192 1.034697 0.010408 -0.002902 -0.571048 -0.228897 -0.831023 0.854428 -0.734037 0.167149 1.543336 1.011228 0.512239 -1.006879 -0.946687 -0.454021 0.012612 -0.323800 1.053572 -0.892573 -0.274579 -0.222467 -0.149335 -0.032010
1171 0.057971 0.171468 -0.238842 1.390072 -0.316176 0.858312 -0.463866 0.137289 0.394114 0.282029 0.217992 -0.510294 0.022769 -0.311150 -0.330054 -0.162838 0.425252 0.444227 0.066635 -0.407151 1.089722 -0.799120 -0.813000 0.566577 -0.661043 -0.450763 1.257238 0.003529 -0.263836 -0.445234 0.522216 -0.307584
1000 0.254963 -0.848256 -0.967182 0.334448 -0.531304 -0.266123 -1.271773 -0.492304 0.155781 0.427865 -1.111311 0.027353 0.090996 -1.184448 0.357144 -0.268120 -0.126861 0.229283 1.024025 -0.963423 -0.158388 -0.853154 -0.956098 -0.088478 -0.164893 -0.962876 1.107067 0.697948 0.199764 0.363177 1.484164 -0.129420
568 -0.291015 0.663341 -0.752552 -0.393042 -1.812850 0.451995 -1.576826 0.078214 -0.089002 0.583251 -0.288004 0.401176 -0.213414 -1.486807 -0.043757 0.244153 -1.305596 -0.495042 1.448807 0.293713 -0.342727 0.091461 -0.850014 0.146861 -0.435768 -0.007576 0.429268 0.324559 -0.812239 -0.560422 -0.226656 -0.239414
239 0.042989 0.106432 -0.172670 1.257688 -0.500896 0.612313 -0.341357 0.248570 0.516764 0.288486 0.095980 -0.642023 0.213125 -0.418436 -0.428028 -0.072645 0.504518 0.239342 0.127115 -0.405964 0.985947 -0.856570 -0.965550 0.547237 -0.761620 -0.398799 1.220537 -0.172280 -0.407492 -0.441226 0.458160 -0.381303
180 -0.229491 -0.719155 -1.331665 0.530383 -0.050471 -0.356068 -0.888328 0.173676 -0.080328 -0.051289 -0.464765 0.431074 -0.596354 -1.422386 -0.514919 -0.829714 -0.189925 0.249472 1.002425 0.095527 0.746610 -1.259081 0.735405 -0.143491 -0.863315 0.225514 0.757378 -0.107864 0.354033 -0.300854 -0.489366 -0.231316
1143 0.365406 0.748729 -0.983119 0.064656 0.361716 1.776561 -1.365356 -0.092612 0.626905 -0.392970 0.203603 0.231524 0.370545 -0.218060 -0.091828 0.173066 -0.264620 -0.203780 1.913624 0.163309 -0.281593 -1.213078 -0.800034 1.062089 -0.367155 1.105975 1.115084 -0.165571 0.237167 0.416826 0.099666 -0.180063
477 -0.134502 0.153295 -0.188345 1.362992 -0.483204 0.662927 -0.328608 0.179470 0.471057 0.290788 0.154027 -0.561080 0.246190 -0.392402 -0.381880 -0.030647 0.450081 0.360688 0.098638 -0.415897 1.043071 -0.847210 -0.945838 0.528787 -0.741963 -0.352713 1.199284 -0.103388 -0.418743 -0.449467 0.499366 -0.467226
785 -0.226149 0.661661 -0.774918 -0.389623 -1.895256 0.462622 -1.600486 0.093734 -0.053797 0.580184 -0.300363 0.361622 -0.234542 -1.494323 -0.131455 0.188426 -1.312487 -0.472895 1.402885 0.209570 -0.309385 0.116929 -0.935497 0.138628 -0.436695 0.001266 0.408742 0.353289 -0.783611 -0.502622 -0.220159 -0.306874
190 -0.216393 -0.746344 -1.315561 0.488014 -0.032217 -0.297460 -0.892273 0.167344 -0.135992 -0.101087 -0.491648 0.455025 -0.583924 -1.454057 -0.493256 -0.801003 -0.185651 0.211182 1.008402 0.060156 0.761348 -1.271198 0.706224 -0.134808 -0.873472 0.239406 0.763303 -0.095045 0.291434 -0.282355 -0.529650 -0.235564
502 -0.001602 0.266000 -0.285030 1.430763 -0.344171 0.834506 -0.387301 0.156343 0.417943 0.288590 0.215902 -0.415320 -0.003260 -0.325640 -0.359009 -0.220525 0.435359 0.412377 0.074580 -0.286706 1.031076 -0.853273 -0.768935 0.592268 -0.662127 -0.327064 1.163516 0.116017 -0.156904 -0.465724 0.404579 -0.256588
1100 -0.222057 -0.330884 -0.326180 -0.804914 -0.681708 0.251983 0.186731 0.252074 1.091600 0.279685 -0.257036 0.621775 -0.897416 -0.908445 -1.330849 0.957600 0.661990 0.152009 0.761706 -0.742174 0.005757 -0.870606 -0.906580 0.579392 -1.211138 0.800895 1.482390 -0.000511 -1.388864 -0.604254 0.618801 -1.232202
818 0.051909 1.231569 -0.423498 -0.940171 -0.712483 -0.592649 -1.059081 0.827366 0.984065 0.981577 -0.455978 0.458212 0.745557 -0.510698 0.250225 -0.627029 0.176355 0.248782 0.831554 0.528640 1.007138 -1.149370 -0.368865 0.366907 -1.754657 0.222006 0.813492 0.605803 -0.413049 -1.413368 -0.025128 -0.923868
147 0.029742 1.255415 -0.463588 -0.912969 -0.675666 -0.575885 -1.071997 0.849455 1.015603 0.963463 -0.485219 0.403547 0.738864 -0.535952 0.285606 -0.616991 0.140677 0.278056 0.766806 0.483195 0.988897 -1.062367 -0.400729 0.411118 -1.759186 0.175851 0.838034 0.568459 -0.463509 -1.430040 -0.006340 -0.903695
498 0.126991 0.244257 -0.380628 1.262144 -0.368558 0.798489 -0.341644 0.207721 0.411867 0.398473 0.144846 -0.550444 0.183279 -0.391739 -0.421741 -0.171975 0.562089 0.380699 0.102922 -0.333945 1.047482 -0.719712 -0.911112 0.625510 -0.636858 -0.392705 1.214864 -0.054790 -0.319138 -0.416271 0.423052 -0.272154
1066 1.091263 -0.775832 -0.423651 0.591429 -0.945812 0.475890 -0.950547 0.800049 0.001924 1.006401 -0.000066 0.130243 -0.410997 -0.169331 -0.987477 0.961545 -0.482861 -0.017455 1.348907 1.009467 0.564985 -1.060879 -0.730380 -0.310141 -0.173607 -0.191917 0.941672 -0.929014 -0.267401 -0.374069 -0.049393 -0.142372
419 0.876627 0.734718 -0.460709 -1.026600 -0.305008 0.816611 -1.770078 0.057388 1.464789 -0.724869 -0.145079 0.480313 -0.694425 -0.682645 -0.022903 -0.383724 0.912750 0.869852 0.952537 -0.099362 0.208824 -0.926786 -0.257253 0.032600 -1.574726 -1.572933 1.316831 -0.051154 -0.106235 -1.039172 1.510773 -0.289682
532 0.038424 -0.131797 -1.361254 0.154840 0.112032 0.133701 -1.685186 -0.189216 0.989722 0.648130 -0.685904 1.009490 0.173129 -0.221071 0.174954 0.694468 -0.158571 -0.910015 0.140328 -0.741417 0.859574 0.465413 -1.190551 1.040971 -0.875244 0.307296 0.813002 -0.692449 -0.129431 0.009368 0.934236 -0.747284
1200 0.008417 -0.069352 -1.265424 0.291869 0.163315 0.136531 -1.687122 -0.166320 0.893900 0.750938 -0.699670 1.022807 0.240261 -0.149202 0.120340 0.647434 -0.051398 -0.881063 0.275788 -0.727435 0.777541 0.415034 -1.242633 0.929386 -0.789378 0.287218 0.816081 -0.833472 -0.095527 0.051450 1.056322 -0.784895
374 0.575204 0.106072 -2.053837 0.250698 -0.479027 -0.506884 -0.438837 -0.322909 0.471665 1.214377 0.115597 0.561537 -1.067791 -1.345498 -0.375664 0.562371 -0.030960 1.481404 -0.063214 -0.096809 0.212709 -0.647416 -1.599299 -0.383513 -0.549888 -0.123757 0.520661 -0.546333 0.312423 -0.290469 0.126289 -0.741755
781 -0.170169 -0.352364 -0.274903 -0.808957 -0.677933 0.220617 0.186448 0.240814 1.030706 0.294382 -0.241174 0.602879 -0.906510 -0.887331 -1.333004 0.991215 0.657051 0.174538 0.768565 -0.721660 0.026900 -0.820948 -0.883928 0.572460 -1.189296 0.769137 1.445652 -0.026907 -1.390421 -0.570477 0.595734 -1.241511
446 -0.944181 0.093149 0.001129 -0.571769 0.448664 1.444661 -0.997627 -0.340066 -0.300089 0.504281 -0.783619 0.188179 -0.612747 -1.160017 0.319543 0.033830 -0.074819 -0.297557 0.926608 -0.166749 1.445422 -1.017425 -0.437779 0.228423 -1.347771 0.131363 0.902219 0.957615 -0.750313 0.787988 1.019109 0.071256
250 -1.437909 0.774305 -1.419587 -0.260053 -0.369048 0.819133 -0.000689 -0.296302 0.071135 1.033922 -0.380198 0.114311 -0.032636 -0.414086 0.274156 -0.049003 0.447880 1.549084 1.128780 0.962949 0.699407 -0.605180 -0.566926 -0.260441 -1.811252 -0.206379 0.960549 -1.142740 -1.030615 -1.342366 0.290919 -0.277844
923 0.874537 0.713518 -0.467731 -1.034497 -0.299192 0.717670 -1.741191 0.033427 1.509817 -0.720063 -0.112032 0.549523 -0.642017 -0.669630 -0.012903 -0.404272 0.950122 0.858833 0.943363 -0.093162 0.207525 -0.893286 -0.297111 0.035482 -1.526582 -1.544544 1.293127 -0.116621 -0.118896 -1.051402 1.515927 -0.266908
249 -0.043062 0.480338 -2.025915 0.561503 -1.020082 1.101879 -1.029278 0.684189 -0.935640 1.405743 -0.373440 -0.797113 -0.628440 -0.010641 -0.443214 -0.359784 -1.056552 -0.380045 1.392691 0.409737 -0.133017 -1.667433 -0.145449 0.862632 -0.840878 -0.565114 0.485256 0.757177 0.693794 -0.019150 -0.014164 -0.533786
101 -0.155450 -0.703940 -1.293976 0.547649 -0.047870 -0.349341 -0.890459 0.161568 -0.133779 -0.133206 -0.513749 0.430239 -0.513021 -1.409698 -0.524696 -0.777928 -0.173708 0.231347 0.998833 0.105888 0.795066 -1.274406 0.711477 -0.127516 -0.834090 0.253275 0.728786 -0.110411 0.248766 -0.206356 -0.570980 -0.223183
197 0.028310 0.263993 -0.214126 1.386845 -0.350624 0.626869 -0.392385 0.053174 0.491251 0.475260 0.106207 -0.537292 0.136891 -0.314173 -0.467098 -0.161232 0.632798 0.285217 0.103174 -0.406305 1.153897 -0.906109 -0.785042 0.586072 -0.656659 -0.415124 1.171372 -0.120517 -0.327188 -0.338253 0.371105 -0.206351
430 0.439412 0.203529 -2.082736 0.378086 -0.519471 -0.482202 -0.463963 -0.330840 0.328464 1.249011 0.227656 0.555625 -1.249405 -1.320655 -0.272055 0.442910 0.066545 1.467291 -0.082301 -0.063170 0.047017 -0.809517 -1.716880 -0.375459 -0.517889 -0.275707 0.463599 -0.493804 0.320249 -0.350145 0.124059 -0.654525
916 0.087534 0.533299 -0.733068 -0.005529 -0.471547 0.346719 -1.624485 -0.079568 -0.136031 -0.042543 -1.842831 0.484132 -1.393748 -0.179373 -0.778041 0.538046 -0.003261 0.614620 1.001162 0.335723 0.459652 -1.455721 -1.286304 0.575855 -0.342848 0.741419 -0.332544 -0.112706 -0.924632 -0.079308 0.539000 0.058492
0 -0.186950 -0.360835 -1.327518 0.299127 -0.744030 2.011981 -1.129136 0.487169 -0.539571 0.969030 0.392213 0.877797 0.044210 -0.449388 0.680484 0.422647 0.539122 0.242992 1.067279 0.084664 -0.252184 -0.334288 -0.078824 -0.499068 -1.257450 -1.558670 0.628579 0.305629 -0.091726 -1.805902 1.602259 0.440038
342 -0.039267 0.411766 -0.770903 -0.516727 -1.359631 1.213534 -0.236906 2.023668 0.943763 1.359362 -0.202141 1.239715 -0.244874 -0.658010 0.015034 -0.293392 0.443756 0.160019 0.114491 0.664616 0.029172 -0.827945 -1.320953 -0.789924 -1.786276 -0.332275 0.559716 -0.033644 -1.670194 0.382316 0.607163 -0.140705
716 -0.129610 -0.071077 -1.173869 0.388016 -0.723149 0.739843 -1.292869 0.381205 0.295371 0.727028 -0.436213 0.711091 -0.374168 -1.036164 -0.284789 -0.057007 0.076951 0.296423 1.352615 -0.024820 0.851782 -1.148208 -1.016628 0.259279 -1.126317 0.085730 1.340413 -0.134658 -0.084672 -0.390696 0.573798 -0.495405
1060 0.443024 0.114890 -1.074067 0.539620 -0.549342 -0.756569 -1.899745 -0.245371 -0.354353 1.933012 -0.340932 1.594368 0.366762 -0.564707 -0.124243 1.297304 0.834973 0.970436 1.288105 -0.024408 1.182006 -0.875390 -0.036068 0.447192 -0.015792 -0.424896 0.837818 0.618572 -0.829997 -0.058314 -0.022190 -0.353361
1062 0.074595 -0.101303 -1.084458 0.369655 -0.603972 0.487750 -1.060353 0.211523 0.187132 0.670294 -0.305345 0.725344 -0.146503 -0.829495 -0.389019 -0.071404 0.204623 0.075766 1.105610 -0.048164 0.628413 -0.929421 -0.871756 0.079965 -1.085877 0.026908 1.216742 -0.004106 -0.125577 -0.206871 0.598177 -0.678150
295 1.202362 -0.078363 -2.053644 0.024804 -0.980876 1.445645 -0.691096 0.706844 -0.953424 1.243792 0.675761 1.658215 0.144461 -0.642988 0.443608 0.138205 -0.486379 -0.707350 0.725191 -0.271414 -0.241143 0.007645 -1.117177 -0.367390 -1.068109 -0.335721 1.437655 0.044733 0.775412 0.721564 0.357340 -0.918760
1129 0.009914 -0.276482 -0.727514 0.518195 -0.447253 0.636673 -1.308576 0.184679 0.301849 0.217547 -0.268113 0.828792 -0.213447 -1.122622 0.032594 -0.079146 0.358136 0.426821 1.195353 -0.301696 0.905801 -0.765193 -1.043380 -0.004326 -1.313508 0.153542 1.054988 -0.325591 -0.150600 -0.132910 0.466421 -0.691603
593 -0.251566 -0.130896 -1.305141 0.460083 -0.840284 0.728011 -1.330878 0.389366 0.204599 0.911135 -0.481422 0.786468 -0.364034 -1.168915 -0.343208 -0.010225 0.086984 0.376623 1.428178 0.023183 0.971140 -1.223570 -1.052831 0.365156 -1.143669 0.178906 1.448426 -0.126186 -0.085756 -0.380728 0.522630 -0.532283
1080 -0.377807 -0.180653 0.460511 0.785491 -0.003150 0.894917 -1.779444 0.546729 0.181967 0.564673 0.683153 1.394406 0.388819 -0.154382 -0.745938 -0.391035 0.339469 -0.391594 2.150919 0.320950 0.392726 0.860043 -0.719948 -0.696493 -1.478012 0.281107 1.862854 -0.769493 0.566067 -0.476155 0.909639 0.201892
1127 -0.339350 -0.814903 -0.817513 -0.372746 -0.344986 0.384845 -0.408726 1.004900 -0.131591 -0.254363 -0.846143 0.770437 0.293610 -1.136804 0.412981 -0.133988 -0.381719 0.518922 2.902981 0.000812 -0.941619 -0.300285 -1.412000 -0.018802 -0.672260 -0.422774 1.757720 1.437044 -0.434815 -0.282008 0.106533 -1.930691
274 0.766296 -0.208603 -0.720394 -1.805159 0.306131 0.863814 -1.462826 1.311362 -0.623694 0.923217 -0.225231 1.691454 -0.691012 -0.272222 -0.065993 -0.087839 0.177356 0.680856 1.383249 0.192169 0.065578 0.611387 -0.954275 0.516127 -1.747725 0.093175 1.001265 -0.420485 0.391473 -0.891420 0.967964 -1.152148
18 -0.144646 -0.095435 -1.254797 0.368799 -0.798329 0.704647 -1.088831 0.575043 0.357151 0.760254 -0.378053 0.841120 -0.306960 -0.955489 -0.223947 -0.194152 -0.047535 0.249504 1.072937 0.075841 0.851386 -0.955178 -0.965384 0.259715 -0.876333 0.307423 1.263846 -0.112667 -0.075068 -0.255399 0.466065 -0.509266
1236 0.460714 -0.501378 -0.735654 0.392731 -1.325376 0.987875 0.343987 0.658549 0.162389 -0.613488 -0.643245 1.358321 -0.317327 -0.710603 0.096128 0.372204 1.657964 -0.538794 0.433654 0.441296 0.191090 -0.690075 -1.190089 -0.763415 -2.027336 0.004578 1.182898 -1.007503 0.246314 -0.913512 0.115740 -1.073121
444 -0.169314 -0.126562 -1.223535 0.365928 -0.804949 0.728898 -1.057759 0.550330 0.333974 0.726942 -0.377669 0.856636 -0.346072 -0.961026 -0.223234 -0.166528 -0.049240 0.215155 1.055811 0.036280 0.835466 -0.947118 -0.988121 0.248645 -0.879646 0.310299 1.246341 -0.115276 -0.071429 -0.257208 0.489242 -0.503821
1245 -0.179362 -0.129787 -1.001356 0.287430 -0.573713 0.624513 -1.048968 0.284707 0.223002 0.594482 -0.384666 0.598518 -0.290125 -0.822841 -0.232097 -0.067858 0.032937 0.222266 1.148297 0.008066 0.632697 -0.912886 -0.801388 0.275582 -0.931555 0.112222 1.053549 -0.091183 -0.064086 -0.330985 0.528319 -0.420752
747 0.107900 0.252004 -1.436262 0.135652 -0.303611 1.161348 -0.756163 0.968712 -0.904680 0.352124 -0.637006 1.538379 0.355989 -0.323528 0.959609 -0.292375 -0.668566 0.283988 1.733815 1.084623 0.716448 -1.378594 -1.112787 -0.741442 -1.273728 0.053046 -0.573166 1.505325 -0.466731 -0.637459 0.419948 -0.653118
748 0.169132 0.010252 -1.575619 0.689149 0.254656 1.314813 -0.450217 0.321252 -0.607222 0.075197 -0.448026 -0.522747 -1.459994 0.189612 -0.519217 -1.030386 -0.683437 -0.635454 1.536316 -0.919688 -0.039560 -0.978797 -1.678930 -1.077105 -0.598240 0.070850 1.185639 -0.919352 -0.286186 -0.396179 1.196131 -0.870196
232 0.273993 0.035667 -0.895041 -0.043036 -0.101812 1.033079 -1.203389 0.045407 -0.102696 0.474738 -0.162546 0.630959 -0.568694 -0.767896 0.042530 0.174672 0.432696 0.175068 0.916217 -0.223651 0.645184 -0.873784 -0.725114 0.137195 -0.873617 -0.346900 1.085715 -0.050683 -0.063583 -0.576133 0.844272 -0.395399
1198 1.498361 1.449165 -0.763634 0.638834 -1.163412 0.130174 -1.057123 1.535050 0.764464 0.409304 -0.153160 1.605998 -0.590052 -0.139242 -0.137173 -0.620304 0.186068 0.723586 0.774603 0.073833 0.264201 -0.902340 -1.127946 0.268231 -0.534142 1.328487 1.356060 0.818362 -0.620870 0.334518 0.027880 -0.295441
1059 0.093806 -0.057280 -1.129423 0.405588 -0.601040 0.488235 -1.083817 0.201243 0.157562 0.682466 -0.303441 0.718463 -0.144530 -0.817174 -0.426911 -0.080142 0.219734 0.063447 1.108942 -0.070631 0.636838 -0.927217 -0.849223 0.095502 -1.077455 0.033285 1.188888 -0.004388 -0.112493 -0.194423 0.610164 -0.680629
613 -0.159277 -0.148889 -1.020457 0.371592 -0.655756 0.705254 -1.057478 0.333370 0.214972 0.622983 -0.296133 0.558126 -0.421525 -0.945538 -0.277018 -0.025178 0.059210 0.241947 1.161699 0.050938 0.715569 -0.948509 -0.905379 0.221527 -1.038312 0.084174 1.206632 -0.211878 -0.083069 -0.387822 0.479174 -0.475439
1272 0.166358 0.396423 0.441052 0.714412 -0.076823 -0.414824 -1.693769 0.486259 0.251358 0.530415 0.098195 0.337822 -0.358577 -1.057148 -0.347352 1.025051 -0.215746 -0.714311 1.026248 0.162556 0.250102 -1.394696 -0.265089 -1.336120 -1.631653 1.241384 0.855767 0.384871 -0.986204 -0.552371 1.220889 -0.741651
1284 1.525367 1.474515 -0.757418 0.641114 -1.091384 0.122680 -1.083987 1.541856 0.752440 0.386323 -0.178087 1.612065 -0.598791 -0.149566 -0.144749 -0.638254 0.215953 0.764086 0.758422 0.120335 0.307489 -0.946074 -1.100840 0.282441 -0.532284 1.345350 1.405251 0.855440 -0.665014 0.363709 0.041955 -0.278883
1288 -0.673919 -1.338042 -0.537152 -0.432949 -0.624646 0.728271 0.534733 1.036036 -0.891417 0.309288 -1.107943 0.767353 -0.432512 -1.074215 -0.833980 0.396447 0.207795 -0.121398 2.189751 0.909188 0.786120 -0.899878 -0.942133 -1.178833 -1.383332 0.613137 0.445175 -0.283335 -1.287269 -0.535514 1.097024 -0.433943
26 0.034993 -0.018940 -1.029860 0.311655 -0.484339 0.582769 -0.957890 0.280286 0.111773 0.603048 -0.360620 0.510408 -0.255906 -0.927939 -0.305012 0.037125 0.090415 0.119976 0.998057 0.076713 0.678555 -0.765860 -0.725867 0.212642 -0.916572 0.055574 1.024892 -0.120017 -0.176281 -0.290666 0.552254 -0.439087
937 0.437213 0.085029 -1.083430 0.533422 -0.537453 -0.770884 -1.893079 -0.253410 -0.332238 1.923434 -0.344708 1.602612 0.391235 -0.546997 -0.121048 1.269639 0.767875 0.933869 1.234243 -0.037669 1.179536 -0.834747 -0.047282 0.468612 -0.000443 -0.412136 0.845604 0.619748 -0.811112 -0.017943 -0.007079 -0.368339
88 0.936574 -0.005568 0.027902 -0.338751 -1.247864 1.279832 -1.971002 0.800554 -0.108533 -0.288795 0.152221 0.819810 -0.217045 -0.041716 1.898138 0.205564 0.015312 0.389291 1.152585 0.314716 0.525587 -0.696823 -2.100651 -0.728248 -1.384724 0.011669 0.709174 -0.735139 0.221823 -0.892186 0.588356 0.196398
395 0.244095 0.193395 -1.126099 -0.012550 0.100311 1.164744 -1.010477 1.835088 -0.363968 0.606348 -0.526274 -0.077817 -0.085965 -0.522563 0.093422 -0.181956 0.439437 -0.723334 1.159704 -0.257358 -0.163359 0.270700 -0.127877 0.444881 -1.095990 -0.425356 2.241542 1.095517 -0.879183 0.226662 1.519843 -1.518798
586 0.261356 0.504324 -1.357393 -1.067900 0.413378 0.616175 -1.406378 0.932299 0.508641 -0.221357 -0.661362 0.793157 -0.022932 -1.748450 0.133550 -1.043157 -0.178703 -0.140735 0.597505 -0.837307 -0.419745 -0.202029 -0.860391 -0.290562 -1.804042 1.161317 1.763723 1.602001 -0.023774 -0.840941 0.474344 -0.660294
582 0.237706 0.423065 -1.327860 -1.048757 0.490692 0.635058 -1.369466 0.933218 0.490604 -0.246363 -0.618603 0.759853 -0.042327 -1.765058 0.126495 -1.000787 -0.142207 -0.164396 0.601069 -0.893381 -0.364343 -0.202933 -0.897464 -0.271939 -1.839019 1.107095 1.743215 1.585488 -0.112540 -0.928220 0.558283 -0.700232
246 0.348329 0.817355 -1.858950 -1.175059 -0.116519 -0.488341 -0.734644 1.241511 -0.771452 1.256802 -0.417108 1.398114 -0.684080 0.133535 -0.205452 0.499473 0.651074 -0.526490 1.460286 0.504141 0.468196 -1.419347 -1.395987 -0.196257 -1.223175 1.481044 0.407285 -0.455895 -0.485222 -0.128401 0.357205 -0.651904
514 -0.103026 -0.023565 -0.965254 0.312903 -0.638904 0.626869 -1.100796 0.201219 0.225526 0.627218 -0.353882 0.605220 -0.359246 -0.843270 -0.229132 -0.015894 0.155706 0.245607 1.086034 0.006409 0.750290 -0.903976 -0.767409 0.247698 -0.867505 0.104227 1.064631 0.009805 -0.118894 -0.268266 0.496753 -0.444369
624 -0.058982 0.464075 -0.784070 -0.517619 -1.347846 1.238153 -0.241616 2.061731 0.843449 1.442449 -0.237592 1.249440 -0.307489 -0.623158 -0.053008 -0.322441 0.458851 0.150066 0.153820 0.697404 0.090731 -0.881172 -1.293912 -0.745645 -1.826991 -0.381058 0.574062 -0.039549 -1.631502 0.388670 0.605849 -0.074375
974 -0.162969 -0.134320 -1.107262 0.313173 -0.606379 0.677072 -1.143848 0.264760 0.258428 0.628415 -0.437610 0.685198 -0.320944 -0.888961 -0.230240 -0.041240 0.020291 0.198977 1.228887 0.062975 0.733391 -1.005139 -0.845640 0.210436 -0.961404 0.119409 1.111152 -0.091960 -0.082631 -0.370333 0.511665 -0.448927
16 -0.203071 0.008985 -1.157618 0.349070 -0.616431 0.717351 -1.318002 0.332617 0.304045 0.642737 -0.347652 0.645272 -0.459900 -0.973874 -0.306948 -0.056363 0.052088 0.172912 1.293154 0.011928 0.719258 -1.094722 -0.979057 0.299285 -1.158501 0.001320 1.277127 -0.171840 -0.014103 -0.515399 0.504310 -0.423662
881 0.235547 -0.605072 -1.144895 -0.355269 -0.413404 0.110004 -1.610938 1.060261 -0.052084 -0.050604 -0.878378 0.706923 -1.030335 0.548111 1.359289 0.691008 -1.219183 -0.119927 1.535247 -0.345173 0.627148 -0.878606 -0.411613 -0.347123 -1.410047 0.443350 1.382060 0.189422 -0.202477 1.031449 0.167138 -1.307137
884 -0.137162 -0.016386 -1.093718 0.400878 -0.788302 0.718321 -1.305408 0.309899 0.315800 0.682399 -0.388034 0.584866 -0.377128 -1.054572 -0.269642 -0.092010 0.132596 0.351621 1.297507 0.047393 0.879187 -1.106044 -0.962035 0.277680 -0.988297 0.110843 1.295713 -0.098236 -0.017555 -0.364502 0.575122 -0.531236
324 0.921585 0.011972 0.054359 -0.382059 -1.240915 1.428439 -1.946410 0.782840 -0.118921 -0.270122 0.162140 0.740430 -0.226379 0.005480 1.913050 0.196759 -0.027916 0.427903 1.169304 0.312276 0.514521 -0.730738 -2.118516 -0.701473 -1.449402 0.038318 0.718017 -0.712046 0.245108 -0.934468 0.607504 0.205178
325 -0.025391 -0.093041 -0.999094 0.081837 -0.447347 0.516932 -1.309285 0.556641 0.171932 0.203566 -0.504605 0.761717 -0.370866 -0.910903 -0.229059 0.116303 0.112102 0.155653 1.130395 0.079717 0.522285 -0.710519 -1.031955 -0.044655 -1.160046 -0.153069 1.086890 -0.010661 0.047547 -0.191912 0.406642 -0.659296
774 -0.169132 -0.316566 -1.280383 0.282964 -0.776971 2.137512 -1.110015 0.526664 -0.500718 0.936025 0.368039 0.968799 0.010215 -0.431526 0.640540 0.430195 0.566032 0.292432 1.103230 0.120423 -0.248426 -0.324228 -0.107640 -0.543964 -1.296943 -1.519701 0.634916 0.345001 -0.104918 -1.814309 1.610792 0.391545
75 0.078771 0.329356 -1.415352 0.144689 -0.314958 1.189098 -0.839556 0.944273 -0.848077 0.317623 -0.633755 1.490813 0.339863 -0.252837 0.970662 -0.304413 -0.665874 0.276939 1.756199 1.080765 0.726467 -1.422329 -1.135223 -0.725572 -1.228986 0.021120 -0.518793 1.485258 -0.453944 -0.621953 0.436134 -0.625950
1047 1.095603 0.536102 -0.701325 0.074180 -0.809397 1.412298 -1.792789 0.792338 0.613771 0.191260 0.316382 0.584818 -0.599629 -0.425675 0.054407 0.535490 0.197551 -0.002741 1.016300 -0.059995 0.253790 0.431118 -2.773187 -0.407223 -0.889210 0.151851 0.193272 0.516223 -0.659349 0.192259 0.667147 -1.964203
663 0.697359 0.964614 -0.692605 -0.452795 -0.405693 0.955878 -0.745954 0.777344 0.483826 2.105181 -0.707083 0.686929 0.655468 0.367595 -0.558672 -0.919998 0.045509 -0.177565 1.705546 0.450079 -0.475624 -0.771315 -1.528903 -0.452683 -1.444132 -0.782588 0.626699 -1.055593 0.728470 -0.947751 0.442723 -0.447103
1266 1.202277 0.476916 -0.702209 0.058424 -0.857695 1.463971 -1.900066 0.747432 0.675679 0.131679 0.264234 0.560196 -0.665801 -0.390278 0.050192 0.525860 0.156001 0.014263 1.022416 -0.119959 0.141417 0.448884 -2.772540 -0.488874 -0.790962 0.103689 0.163520 0.516188 -0.584366 0.169233 0.729289 -1.961491
697 0.720260 -0.205160 -0.699918 -1.823243 0.328590 0.908558 -1.393522 1.309965 -0.661543 0.898843 -0.189218 1.671406 -0.701744 -0.131731 -0.136579 -0.051942 0.180595 0.744573 1.392955 0.259206 0.026353 0.650184 -0.963986 0.614867 -1.794842 0.076317 0.900616 -0.486591 0.382519 -0.856295 1.026923 -1.061553
699 -0.156618 -0.106268 -1.313376 0.431164 -0.774976 0.833580 -1.370370 0.418878 0.272113 0.804812 -0.447754 0.791643 -0.398793 -1.137043 -0.315190 -0.066258 0.106165 0.330285 1.522249 0.029566 0.885024 -1.247855 -1.086322 0.326482 -1.250640 0.143351 1.508606 -0.147994 -0.111663 -0.490472 0.649103 -0.541582
992 -0.387707 0.399157 -1.458217 0.426800 0.105402 0.804941 -2.062415 0.680831 -0.407980 -0.153423 -0.203484 1.878147 -1.009810 0.640947 -0.117703 -0.710786 0.129371 0.114982 2.198344 -0.104663 0.727785 0.336725 -0.329138 -0.862820 -0.039058 -0.506087 1.093161 -0.054929 -0.171397 0.337030 1.022939 -0.996862
126 -0.456707 0.303527 -1.441313 0.492490 0.126898 0.825008 -2.107632 0.635523 -0.442606 -0.217337 -0.181293 1.898396 -0.993177 0.621796 -0.014447 -0.692875 0.094396 0.064455 2.139403 -0.154714 0.699407 0.448020 -0.365072 -0.814578 -0.079885 -0.529304 1.088992 -0.062107 -0.097287 0.406681 0.976987 -0.979987
128 -0.100499 -0.088933 -1.099350 0.312807 -0.602467 0.644985 -1.094679 0.319805 0.287850 0.661479 -0.395344 0.598755 -0.348206 -0.958672 -0.258245 -0.062118 0.082557 0.301011 1.248725 -0.015206 0.683768 -0.963297 -0.919996 0.257307 -1.017965 0.141638 1.229141 -0.158656 -0.063228 -0.402134 0.481958 -0.539099
563 0.136364 0.378740 0.364743 0.705876 -0.144772 -0.413200 -1.716612 0.513489 0.267580 0.605345 0.119508 0.410716 -0.435797 -1.050105 -0.273423 0.971152 -0.196241 -0.679475 1.043689 0.211502 0.310864 -1.417230 -0.293654 -1.317382 -1.537234 1.231316 0.804233 0.394659 -1.047387 -0.537200 1.229598 -0.734406
922 -1.236047 0.398847 -0.740764 -1.437118 -0.857347 1.317260 -0.005011 1.367483 -0.047027 1.036825 -0.412926 0.294384 -0.571589 -0.013422 -0.218505 -0.443326 0.580170 -0.380349 2.148924 0.712086 0.658433 -1.008009 -0.956366 -0.851165 -0.525975 -0.166344 1.425078 0.124824 0.395676 0.799378 0.433359 -1.439702
319 -0.118305 -0.048082 -1.113614 0.410555 -0.756855 0.692868 -1.261592 0.316131 0.296173 0.693148 -0.396389 0.622688 -0.386159 -1.028569 -0.278545 -0.074457 0.112107 0.357722 1.293127 0.042049 0.878125 -1.091886 -0.962819 0.289394 -1.000922 0.109454 1.310009 -0.097298 -0.012791 -0.380893 0.569664 -0.551800
360 0.013597 -0.027298 -0.996811 0.327142 -0.457993 0.563976 -0.963609 0.263165 0.111226 0.587705 -0.349431 0.502383 -0.266556 -0.912520 -0.317571 0.057447 0.110684 0.118348 1.007717 0.073451 0.650693 -0.758512 -0.727868 0.216792 -0.899393 0.045074 1.020663 -0.106665 -0.175611 -0.312280 0.560374 -0.431376
254 0.000530 -0.095814 -0.904137 0.163196 -0.540886 0.527565 -0.882178 0.249150 0.276109 0.553727 -0.194225 0.617173 -0.234668 -0.785072 -0.256150 -0.061393 0.159339 0.291400 1.167241 -0.106190 0.591330 -0.915179 -0.748572 0.117496 -0.768250 0.032220 0.955483 -0.162218 -0.011114 -0.277559 0.471580 -0.458055
731 1.132975 -0.089755 -2.040773 -0.031427 -1.014919 1.499449 -0.616758 0.722845 -1.017357 1.223485 0.645463 1.623399 0.134274 -0.658449 0.504766 0.053903 -0.474287 -0.719119 0.754415 -0.219608 -0.211228 0.001344 -1.121572 -0.391580 -1.016813 -0.304257 1.430014 0.037589 0.810468 0.700738 0.347758 -0.915534
733 -0.161757 -0.106894 -1.270464 0.404187 -0.753754 0.770323 -1.318634 0.392558 0.262433 0.798207 -0.450720 0.780157 -0.395792 -1.088766 -0.299996 -0.072716 0.105931 0.308073 1.444605 0.035089 0.882079 -1.182714 -1.031412 0.307381 -1.184865 0.137620 1.449951 -0.140405 -0.101826 -0.456470 0.611578 -0.518801
734 -0.166459 -0.106403 -1.031595 0.384534 -0.601452 0.728386 -1.109883 0.282543 0.257540 0.599064 -0.295329 0.560111 -0.408941 -0.945726 -0.271342 -0.031915 0.057408 0.208412 1.181661 0.025962 0.679911 -0.975100 -0.895746 0.220959 -1.039487 0.072026 1.201550 -0.179566 -0.055760 -0.405387 0.493571 -0.428078
736 0.031273 -0.283999 -0.743953 0.550294 -0.476711 0.653234 -1.319610 0.178325 0.277129 0.235591 -0.292706 0.860376 -0.226812 -1.156653 0.043868 -0.066328 0.345273 0.418168 1.209247 -0.321048 0.912462 -0.775356 -1.041371 -0.001108 -1.365175 0.147161 1.073255 -0.306535 -0.159086 -0.122917 0.447310 -0.700899
738 0.170856 -0.085137 -0.799101 0.449046 -0.387148 0.708448 -1.149217 0.103382 0.264936 0.456849 -0.185979 0.629664 -0.280447 -0.738763 -0.239026 -0.004745 0.045160 -0.015763 1.082571 -0.075976 0.485286 -0.873010 -0.781082 0.100698 -0.746472 0.018940 1.025197 0.047083 0.030774 -0.236981 0.444800 -0.236030
630 0.721434 0.964244 -0.665655 -0.404105 -0.396033 0.949992 -0.809732 0.737578 0.465700 2.125957 -0.638555 0.708625 0.654426 0.324010 -0.612413 -0.838611 0.021799 -0.162803 1.706211 0.441320 -0.376342 -0.725514 -1.507136 -0.408548 -1.439902 -0.683906 0.659858 -1.012581 0.680314 -0.991595 0.504549 -0.483198
164 0.025223 -0.074400 -0.982730 0.123098 -0.437504 0.533732 -1.324389 0.557905 0.171999 0.226493 -0.475870 0.756407 -0.352878 -0.887212 -0.249809 0.146582 0.113375 0.149039 1.082746 0.086554 0.521145 -0.729593 -1.055240 -0.066051 -1.159428 -0.152451 1.083634 -0.033892 0.032107 -0.208584 0.395422 -0.650414
967 -0.191841 -0.127508 -1.027737 0.299128 -0.592207 0.651288 -1.073063 0.273323 0.223625 0.590072 -0.395092 0.606303 -0.296940 -0.882536 -0.259329 -0.081144 0.050549 0.216589 1.191596 -0.016610 0.639759 -0.973512 -0.847137 0.294289 -0.959148 0.099536 1.113472 -0.072787 -0.050662 -0.364648 0.527743 -0.409635
1102 0.279340 0.042577 -0.900378 0.022602 -0.100574 1.003390 -1.253318 0.037606 -0.096236 0.454449 -0.166408 0.627339 -0.566353 -0.747926 0.006940 0.148485 0.455090 0.186583 0.920897 -0.205360 0.613781 -0.903443 -0.703493 0.079766 -0.911010 -0.345611 1.112038 -0.069474 -0.042886 -0.597257 0.829474 -0.422490
1103 0.016361 -0.043513 -0.933101 0.169178 -0.513514 0.531497 -0.859829 0.245932 0.269251 0.527386 -0.198996 0.577600 -0.223221 -0.759692 -0.287178 -0.080471 0.155777 0.289030 1.185316 -0.109331 0.590005 -0.941002 -0.742987 0.125206 -0.759096 -0.009870 0.935046 -0.148204 -0.025670 -0.266410 0.462969 -0.468826
879 -0.416405 -0.160149 0.436505 0.762779 0.010377 0.968048 -1.815669 0.536142 0.219988 0.495765 0.706448 1.410751 0.333125 -0.122710 -0.820133 -0.345504 0.317083 -0.275178 2.202919 0.332685 0.400286 0.893883 -0.762595 -0.655794 -1.502975 0.268448 1.856149 -0.811450 0.600791 -0.458839 0.866024 0.201545
1248 0.134913 0.029394 -1.576309 0.651939 0.270046 1.308473 -0.434025 0.299895 -0.592986 0.094069 -0.456167 -0.505175 -1.420707 0.185071 -0.492628 -1.019687 -0.633491 -0.630224 1.542436 -0.894958 -0.026735 -0.969445 -1.700959 -1.091870 -0.607935 0.085674 1.140250 -0.859072 -0.354358 -0.302819 1.218006 -0.840114
801 0.392846 -0.520323 -0.765130 0.321951 -1.358349 0.964996 0.412387 0.666118 0.152333 -0.512780 -0.644441 1.347238 -0.295004 -0.685966 0.088519 0.302632 1.632854 -0.557736 0.430522 0.420873 0.220142 -0.702228 -1.196182 -0.743976 -2.069371 -0.062606 1.229612 -1.036911 0.249202 -0.863575 0.137554 -1.033919
359 0.352586 0.200763 -1.131800 0.068538 0.161006 1.128281 -1.046482 1.783173 -0.406014 0.589444 -0.585723 -0.097787 -0.176771 -0.525561 0.050318 -0.191458 0.391465 -0.694105 1.179939 -0.327158 -0.090498 0.219691 -0.166238 0.408642 -1.091538 -0.348210 2.293150 1.022353 -0.939173 0.217436 1.480530 -1.512044
213 -0.379599 -0.514348 -0.913719 -0.134013 -0.228516 1.388052 -0.930993 -0.028569 0.341386 0.947823 0.055536 2.378309 -0.518810 -0.531303 0.925684 0.937708 0.439735 -0.305144 1.382757 1.244133 -0.246293 -0.987096 -1.023050 -0.136752 0.405560 0.322524 0.860282 -0.150052 -1.289235 0.367005 0.557126 -0.739602
1075 -1.283291 0.365090 -0.846936 -1.445558 -0.887154 1.294320 -0.014831 1.378902 -0.019507 1.017381 -0.392399 0.319967 -0.662214 -0.063157 -0.278771 -0.399414 0.583753 -0.336593 2.128150 0.732163 0.658391 -0.991201 -0.978739 -0.816561 -0.539010 -0.091891 1.408820 0.135652 0.333342 0.823775 0.484754 -1.389319
1094 0.630050 -0.188284 -0.425799 0.386674 -0.678205 0.503245 -0.407796 0.073700 -0.245947 0.414344 -0.781164 0.635804 0.096748 -1.076471 0.374757 -0.489290 0.410118 -0.323159 1.650960 -0.690663 -0.857343 -0.360784 -1.316153 -0.728227 -1.844694 1.187663 2.135659 0.114238 -1.102915 0.862117 -0.192556 0.271684
1154 0.336098 0.753599 -1.901718 -1.188281 -0.096277 -0.512297 -0.740429 1.271869 -0.766510 1.228932 -0.424425 1.399002 -0.724541 0.130641 -0.189838 0.457895 0.667966 -0.554857 1.535640 0.533696 0.454339 -1.384354 -1.376347 -0.261662 -1.151151 1.499074 0.461784 -0.524152 -0.367490 -0.151380 0.331081 -0.650660
535 0.282845 -0.622726 -1.149372 -0.316582 -0.346840 0.167880 -1.637821 1.034296 -0.078708 -0.048908 -0.840395 0.655842 -1.096944 0.558550 1.311417 0.699740 -1.221521 -0.136659 1.598401 -0.378335 0.613321 -0.799019 -0.407290 -0.393650 -1.434086 0.458095 1.436411 0.149731 -0.183466 1.059855 0.191861 -1.337501
984 -0.661123 -1.274774 -0.640559 -0.367753 -0.621488 0.647018 0.485272 1.020527 -0.867497 0.362978 -1.109825 0.739749 -0.452013 -1.060963 -0.911236 0.364011 0.199473 -0.150924 2.204379 0.859176 0.863666 -0.929291 -0.952504 -1.230297 -1.381603 0.599892 0.517304 -0.266684 -1.254734 -0.506844 1.120812 -0.460343
425 -0.145687 -0.065144 -1.232046 0.413525 -0.764579 0.749264 -1.345579 0.396909 0.312047 0.756326 -0.439634 0.722907 -0.408480 -1.049154 -0.280327 -0.080078 0.078681 0.290733 1.406922 -0.022766 0.887640 -1.197584 -1.057206 0.287749 -1.176204 0.095552 1.414435 -0.122563 -0.067599 -0.407547 0.611806 -0.534610
302 0.351066 1.499721 -2.322137 0.948533 -0.434314 0.031280 -0.927566 0.253158 -0.603433 1.566787 0.195959 0.887171 -0.382914 0.293547 0.238982 -0.745160 -0.551624 -0.415771 0.958804 -0.243998 2.322742 -1.360283 -0.618429 -0.021216 -0.672534 0.038805 0.284539 -0.302721 0.226988 -0.149659 0.327153 0.545508
849 0.388346 1.458607 -2.332182 0.959743 -0.439095 0.042611 -0.937592 0.203159 -0.552253 1.589765 0.170716 0.874704 -0.408510 0.280990 0.148837 -0.743313 -0.565682 -0.428011 0.962878 -0.258361 2.273737 -1.403801 -0.602412 -0.062346 -0.726557 0.031813 0.328830 -0.381607 0.192587 -0.160622 0.375389 0.503100
848 -0.176835 -0.000404 -1.148709 0.348958 -0.647401 0.700520 -1.280747 0.351474 0.307947 0.690448 -0.365282 0.648575 -0.462654 -0.979804 -0.316820 -0.039492 0.064013 0.193157 1.260391 -0.015654 0.743720 -1.058713 -0.973033 0.293303 -1.131173 0.007272 1.250321 -0.192292 -0.022701 -0.479570 0.522228 -0.434804
1024 -0.159658 -0.092722 -1.094634 0.395188 -0.650078 0.623288 -1.160976 0.366008 0.227450 0.652541 -0.363849 0.627160 -0.341859 -0.946614 -0.249492 -0.073332 0.105555 0.305153 1.203408 -0.010739 0.818357 -1.058812 -0.931251 0.276347 -1.048226 0.052745 1.224995 -0.139994 -0.056535 -0.426421 0.501586 -0.492708
1182 -0.141762 -0.088207 -1.164788 0.409686 -0.701739 0.682861 -1.219454 0.385022 0.257889 0.675500 -0.394645 0.669765 -0.361376 -1.004467 -0.289144 -0.085970 0.101008 0.308211 1.266068 0.000876 0.833875 -1.101558 -0.949806 0.294281 -1.070295 0.066857 1.272648 -0.143002 -0.074591 -0.413987 0.531339 -0.497607
391 -0.315925 -0.590757 -1.673314 -0.499399 -0.244712 0.730465 -0.832337 0.771052 0.476213 0.886077 1.896196 -0.137308 -0.127600 -0.400524 0.095969 0.218623 0.446902 0.035301 1.903124 0.596066 -0.606107 -0.625768 -0.997538 -1.070125 -1.700513 0.462033 0.443196 -0.497994 -0.242663 -0.189833 1.317737 -1.270775
501 -0.081013 -0.030522 -0.964971 0.318493 -0.633272 0.642573 -1.086543 0.195211 0.211246 0.630984 -0.329145 0.586739 -0.344854 -0.841357 -0.228826 -0.008980 0.150891 0.226447 1.092507 0.021490 0.757916 -0.901915 -0.754036 0.237631 -0.876477 0.117873 1.039699 0.016132 -0.114664 -0.280882 0.494025 -0.429150
151 -0.079188 -0.094236 -1.064544 0.300918 -0.582991 0.655548 -1.111965 0.301978 0.283705 0.680413 -0.371137 0.579736 -0.365919 -0.923866 -0.265514 -0.075487 0.058959 0.280298 1.240468 -0.011948 0.686746 -0.945878 -0.900445 0.268332 -1.026199 0.138701 1.223305 -0.151903 -0.040828 -0.410107 0.475188 -0.542558
1168 0.163775 -0.039039 -0.788885 0.428632 -0.341111 0.729615 -1.198381 0.095389 0.300768 0.387056 -0.148149 0.602843 -0.279793 -0.707050 -0.218844 0.005865 0.052314 -0.066534 1.072932 -0.024846 0.417342 -0.887989 -0.789410 0.061930 -0.859250 -0.042526 1.026533 0.047177 0.049960 -0.300976 0.429990 -0.233483
1203 -0.310300 -0.599256 -1.685178 -0.436692 -0.253083 0.755321 -0.838345 0.844364 0.387093 0.924159 1.849877 -0.038626 -0.152716 -0.423332 0.085408 0.186223 0.407146 0.031324 1.871936 0.663372 -0.542877 -0.595943 -0.982981 -1.070959 -1.637399 0.463702 0.482987 -0.463194 -0.251057 -0.147188 1.245344 -1.252342
954 -0.266866 -0.132480 -1.244238 0.440216 -0.841080 0.671472 -1.294225 0.378263 0.213292 0.882786 -0.464806 0.784355 -0.366388 -1.162737 -0.321811 -0.024435 0.094836 0.389551 1.397048 0.021661 0.971393 -1.201210 -1.013339 0.347213 -1.120344 0.130820 1.400930 -0.135917 -0.105430 -0.396273 0.521857 -0.537402
41 -0.167919 -0.127496 -1.083779 0.322286 -0.593118 0.672493 -1.122954 0.278934 0.261115 0.609703 -0.404430 0.678718 -0.341193 -0.897328 -0.226325 -0.021429 0.027130 0.222990 1.227888 0.059018 0.713787 -1.021727 -0.864226 0.214490 -0.959359 0.132027 1.111966 -0.098222 -0.073278 -0.368371 0.491632 -0.429039
5 -0.341914 -0.511353 -0.962644 -0.137855 -0.240073 1.476858 -0.938907 -0.073945 0.274619 0.976543 0.031524 2.363540 -0.487816 -0.484405 1.008689 0.880548 0.426642 -0.287781 1.446269 1.222048 -0.217274 -0.995645 -1.038329 -0.087075 0.424218 0.175042 0.831593 -0.118380 -1.210085 0.332501 0.631060 -0.731127
470 -0.278078 -0.783252 -0.808259 -0.352717 -0.389881 0.323367 -0.396509 0.975178 -0.158807 -0.248924 -0.821267 0.770346 0.269391 -1.102209 0.379932 -0.150574 -0.398881 0.532846 2.831584 0.051599 -0.904768 -0.320197 -1.413663 -0.028922 -0.588667 -0.465732 1.711393 1.406040 -0.406960 -0.291243 0.040710 -1.937842
474 0.588365 -0.219347 -0.496754 0.483112 -0.720755 0.524565 -0.550243 0.131038 -0.238372 0.422427 -0.771337 0.619865 0.105037 -1.100335 0.359127 -0.504744 0.433094 -0.343001 1.647226 -0.626528 -0.865912 -0.367717 -1.266461 -0.743189 -1.865119 1.192519 2.135407 0.115071 -1.037177 0.825691 -0.189155 0.224240
511 -0.045804 0.213227 -0.313515 1.323563 -0.343580 0.778272 -0.303019 0.206116 0.406132 0.443738 0.133788 -0.557735 0.119817 -0.382194 -0.423838 -0.068233 0.481265 0.417089 0.088701 -0.406351 1.076755 -0.762182 -0.884727 0.655283 -0.707017 -0.415365 1.135205 -0.070809 -0.303602 -0.457889 0.437605 -0.355106
53 -0.249536 -0.742461 -1.346743 0.471945 -0.005172 -0.301494 -0.836832 0.164431 -0.159421 -0.044133 -0.536728 0.441338 -0.529287 -1.550543 -0.463748 -0.809635 -0.152553 0.265050 0.947728 0.091392 0.818541 -1.227895 0.748925 -0.169761 -0.855276 0.241751 0.757507 -0.076337 0.272019 -0.302518 -0.455914 -0.233674
43 -0.952076 0.181674 -0.057381 -0.586733 0.461576 1.387430 -0.941582 -0.361800 -0.289977 0.586308 -0.774516 0.230026 -0.574842 -1.143338 0.339175 0.029241 -0.021863 -0.231398 0.931812 -0.150234 1.494013 -0.975500 -0.409345 0.241122 -1.302923 0.154561 0.869788 0.971853 -0.773167 0.788379 1.033149 0.051408
1133 1.640282 0.015762 -1.069342 -0.258261 -0.809856 1.047470 -0.955642 -0.486562 0.010783 -0.054649 -1.047579 1.597265 0.257060 -0.026115 -0.008932 -1.110460 -0.406251 -0.322053 0.888160 -0.424688 0.704130 -0.575998 -0.349045 -0.402836 -1.075306 0.587181 0.772892 -0.395608 -0.266816 -0.953439 0.796054 -0.655901
860 -0.129389 -0.773760 -1.268145 0.518901 -0.147193 -0.341155 -0.847472 0.228917 -0.182394 -0.075439 -0.472493 0.430236 -0.528041 -1.436381 -0.513253 -0.820456 -0.180057 0.143283 1.020335 0.114035 0.777477 -1.261776 0.722811 -0.164952 -0.821083 0.266215 0.738550 -0.090059 0.248700 -0.236578 -0.591420 -0.272464
219 0.004866 0.325329 -0.361707 1.352572 -0.416785 0.953790 -0.291146 0.161417 0.447732 0.222703 0.196057 -0.376523 0.084149 -0.325667 -0.383442 -0.138689 0.410454 0.595634 0.024181 -0.290901 0.910606 -0.796626 -0.884330 0.592611 -0.695164 -0.403898 1.165651 0.055322 -0.228234 -0.592340 0.514709 -0.323650
1090 -0.346476 -0.978702 -1.374366 -0.001281 0.557859 0.390004 -0.189048 0.848402 -0.034044 1.208580 -0.980446 1.643454 -0.153852 0.188945 -0.530528 0.385670 -0.535428 -0.178682 0.850025 -0.592447 0.293492 -0.479879 -0.310204 0.213569 -1.947373 -0.281034 1.324723 -0.218021 -0.973970 -0.773083 -0.025468 0.439335
186 0.395889 0.263511 -1.213442 0.069708 -0.795722 1.128617 -0.649346 0.444064 0.476281 0.667444 -0.991051 0.431833 -0.068786 -1.397443 0.793449 0.381964 0.153991 -0.296284 -0.022706 0.536673 0.392116 -1.671909 -0.635034 0.000369 -0.346119 0.405782 0.996246 -0.333787 0.760741 -0.184934 0.568417 1.150532
841 -0.238158 -0.286155 -0.288832 -0.863221 -0.672449 0.271911 0.195015 0.268543 1.071344 0.346317 -0.298219 0.633617 -0.831060 -0.848380 -1.319218 0.971358 0.626643 0.194728 0.777368 -0.687570 0.012431 -0.858668 -0.886035 0.625753 -1.179341 0.762476 1.428473 -0.012862 -1.345946 -0.645879 0.604681 -1.208650
370 -0.020617 0.223130 -0.248638 1.398595 -0.427199 0.715545 -0.371385 0.084283 0.550631 0.355327 0.145987 -0.462590 0.076746 -0.315363 -0.423070 -0.089815 0.482275 0.300477 0.096293 -0.405679 1.045503 -0.908477 -0.816186 0.538083 -0.702228 -0.387018 1.117762 -0.038374 -0.256918 -0.412863 0.444997 -0.316385
828 -0.077922 1.225135 -0.559912 -0.964134 -0.606303 -0.593998 -1.209224 0.836758 1.079771 0.841449 -0.494706 0.544780 0.745383 -0.541577 0.348256 -0.530409 0.197329 0.384296 0.666308 0.510751 0.999097 -0.899281 -0.635892 0.314164 -1.790921 0.066570 0.939658 0.467347 -0.527931 -1.366215 -0.016658 -0.942622
843 -1.510257 0.775095 -1.454591 -0.264675 -0.338615 0.802904 0.030274 -0.269890 0.049187 1.067737 -0.316424 0.080062 0.010338 -0.355651 0.235013 -0.063999 0.392478 1.517236 1.129626 0.978422 0.670612 -0.635282 -0.573225 -0.152571 -1.810894 -0.245109 0.937781 -1.141836 -0.988413 -1.368945 0.274325 -0.272559
158 -0.110766 -0.680951 -1.271722 0.457894 -0.092601 -0.386922 -0.876171 0.195513 -0.121062 -0.079496 -0.520212 0.443491 -0.529034 -1.441677 -0.523202 -0.783130 -0.101861 0.234188 1.003873 0.118052 0.732531 -1.207245 0.750515 -0.253613 -0.920564 0.208743 0.735587 -0.089335 0.224799 -0.253303 -0.539960 -0.317350
1108 -1.431453 -0.352012 -0.421941 -0.094375 -0.013290 -0.019275 -0.660384 -0.145275 0.416786 1.173579 0.255283 0.361935 -0.427764 -1.216695 -0.517740 0.081401 0.269273 -0.218480 0.804899 0.532383 0.427228 -0.648354 -1.410952 0.437911 -1.019280 1.003478 1.112465 -1.008033 0.232104 0.072698 -0.094995 0.522305
947 -1.342374 -0.444906 -0.363633 -0.160821 0.008171 0.046802 -0.737659 -0.163976 0.406481 1.206495 0.298724 0.303819 -0.423273 -1.200669 -0.524917 0.047897 0.182156 -0.258497 0.890057 0.590490 0.388465 -0.578486 -1.378108 0.360746 -1.059694 1.053064 1.037406 -0.968510 0.200705 -0.022208 0.004883 0.560834
173 0.393025 -0.458340 -0.930707 0.093203 -1.407485 0.573405 0.271793 0.554813 -0.060253 1.440358 -1.199036 0.902266 -0.193229 -0.802398 -0.219416 -0.308580 -0.137184 0.744156 0.861662 -0.725364 1.671679 -0.736665 -0.335212 0.091325 0.337148 1.110987 1.045906 0.115558 -0.579303 0.572936 0.709258 -0.721084
845 -0.055149 0.412783 -2.016235 0.552709 -1.017436 1.072887 -0.981558 0.691370 -0.846422 1.398115 -0.360995 -0.750371 -0.644442 -0.060302 -0.484908 -0.343653 -0.998222 -0.313049 1.402449 0.414458 -0.077813 -1.673261 -0.161560 0.872711 -0.818682 -0.526864 0.554344 0.744807 0.650457 0.005566 0.020443 -0.544373
491 -0.052830 -0.106655 -1.391004 0.179073 0.103124 0.378167 -1.594592 -0.264023 1.066337 0.683658 -0.626851 1.000228 0.131993 -0.209525 0.416655 0.502470 -0.049367 -0.811490 -0.098601 -0.863249 0.834543 0.347281 -1.505625 0.916279 -1.098177 0.306870 0.884762 -0.432834 -0.165165 -0.050058 1.018977 -0.585561
188 0.016118 1.224851 -0.473873 -0.936502 -0.609890 -0.583049 -1.049684 0.881009 1.001289 0.936686 -0.471774 0.390464 0.746940 -0.557050 0.313024 -0.608784 0.127384 0.249141 0.769402 0.494232 0.976158 -1.084449 -0.403518 0.419263 -1.736004 0.208984 0.849927 0.607924 -0.449593 -1.372969 -0.026076 -0.904862
177 0.138388 0.818550 -0.719187 0.100167 -0.723802 0.244625 -1.480608 -0.317907 0.428116 0.262121 -1.838414 0.687162 -1.400944 -0.393582 -1.086810 0.114232 0.122565 0.641455 1.040688 0.421369 0.425718 -1.086194 -1.154070 0.532913 -0.188540 0.686842 -0.389778 -0.360031 -0.765429 0.073404 0.981721 0.031364
1046 0.136447 0.287169 -0.231678 1.372518 -0.341801 0.694448 -0.553461 0.109390 0.433886 0.220849 0.151959 -0.498933 0.103609 -0.278712 -0.396848 -0.134796 0.473891 0.269381 -0.002654 -0.415543 1.042089 -0.947942 -0.737018 0.501903 -0.732248 -0.327107 1.260225 -0.136158 -0.298789 -0.465293 0.419846 -0.292301
140 0.619455 0.121540 -2.028696 0.245298 -0.461586 -0.533219 -0.468522 -0.314499 0.476074 1.217642 0.136980 0.562165 -0.999815 -1.361263 -0.409614 0.584397 -0.038357 1.491355 -0.041020 -0.067201 0.218745 -0.591063 -1.590254 -0.327506 -0.585018 -0.059373 0.519426 -0.506591 0.294235 -0.291981 0.133631 -0.761872
578 0.026473 0.274587 -0.329201 1.362616 -0.394421 0.779776 -0.362858 0.137235 0.441384 0.253623 0.177554 -0.479663 0.082798 -0.307662 -0.375358 -0.095313 0.423650 0.396687 0.106619 -0.398155 1.083368 -0.835168 -0.824573 0.493275 -0.766317 -0.391815 1.237885 -0.130978 -0.466068 -0.495970 0.571448 -0.422196
505 -0.012227 0.294795 -0.244149 1.307481 -0.374998 0.836442 -0.420584 0.152845 0.478101 0.297848 0.195545 -0.453235 0.103229 -0.336606 -0.381840 -0.147298 0.504649 0.469174 -0.005705 -0.364487 1.047311 -0.834058 -0.859332 0.603623 -0.721166 -0.399127 1.245426 -0.066058 -0.251785 -0.484992 0.427316 -0.287759
87 -0.008193 -0.167704 -1.272414 0.140007 0.047881 0.352053 -1.629951 -0.247121 1.100463 0.634461 -0.629792 1.010371 0.105594 -0.214827 0.362474 0.611287 -0.104499 -0.772797 -0.016838 -0.835127 0.878402 0.338267 -1.466344 0.917067 -0.993131 0.287454 0.903273 -0.543033 -0.122536 -0.038823 1.021559 -0.653811
539 -0.051384 0.291127 -0.278443 1.303099 -0.468069 0.818854 -0.299358 0.233135 0.423162 0.277913 0.182389 -0.527324 0.221103 -0.383261 -0.360576 -0.090167 0.423459 0.390256 0.055826 -0.285057 0.900859 -0.765033 -0.875696 0.597363 -0.738823 -0.390119 1.164422 -0.032799 -0.314416 -0.515158 0.516851 -0.295622
119 -0.102478 -0.702927 -1.261015 0.548328 -0.100952 -0.373404 -0.854049 0.213227 -0.145431 -0.088803 -0.478359 0.422877 -0.538275 -1.415478 -0.518841 -0.781750 -0.085520 0.223242 0.967140 0.137591 0.764370 -1.160561 0.689628 -0.273173 -0.920708 0.198867 0.749056 -0.124609 0.206667 -0.211843 -0.547001 -0.342481
508 -1.437344 0.458955 -1.016684 -0.480278 -0.232695 0.177999 -0.846443 0.085545 0.123778 0.283547 -0.723554 0.635169 0.230427 0.183293 -0.758716 0.048996 -0.022461 1.028935 1.710589 -0.007390 0.993592 -1.328682 -0.169212 1.218280 -0.307269 -0.429839 0.706383 0.122184 0.934782 -0.678925 0.936400 0.415337
338 -1.495137 -0.461404 -0.379308 -0.127746 -0.075252 -0.046471 -0.684613 -0.190904 0.492471 1.115293 0.208086 0.350808 -0.380722 -1.227750 -0.471548 0.050215 0.196210 -0.198269 0.840108 0.524409 0.408697 -0.632149 -1.459757 0.353894 -1.011539 1.079423 1.051983 -0.993205 0.210813 -0.001288 0.000062 0.527945
552 -1.383492 0.416038 -1.026398 -0.485772 -0.223722 0.200633 -0.859449 0.091601 0.161262 0.301585 -0.761059 0.644257 0.185222 0.145053 -0.818929 0.052637 -0.063897 1.039974 1.735777 -0.043234 0.985744 -1.372484 -0.194331 1.205699 -0.379119 -0.468408 0.709090 0.158721 0.904866 -0.731125 1.005592 0.366442
516 0.026278 -0.096312 -1.314800 0.230622 0.093832 0.024451 -1.702095 -0.137102 0.865657 0.698595 -0.736425 1.055127 0.287453 -0.367144 0.188281 0.634681 -0.115358 -0.876202 0.271171 -0.651902 0.885423 0.446669 -1.066157 1.012894 -0.891996 0.385520 0.788190 -0.725567 -0.097497 0.050390 0.990435 -0.816562
1273 0.885697 0.699474 -0.453537 -1.021319 -0.297939 0.745706 -1.736806 0.050123 1.447140 -0.682501 -0.128840 0.553994 -0.662094 -0.662398 -0.011789 -0.365207 0.932735 0.839689 0.927771 -0.066129 0.193309 -0.891263 -0.259841 0.075901 -1.506359 -1.527748 1.331174 -0.094903 -0.113045 -1.024141 1.478701 -0.236344
102 -0.291653 -1.455590 -0.251708 -0.566211 -0.134167 0.752985 -1.200603 0.948427 0.540121 -0.799082 0.072592 -0.221175 -1.282668 -0.820716 0.184555 -0.148641 -0.584554 -0.167431 0.834309 -0.062077 -0.395605 -1.353419 -1.131910 -0.443116 -1.133754 -0.596686 1.616823 -0.199962 -0.071229 -0.854945 0.400079 -0.387470
34 0.406133 -0.519505 -0.729299 0.098556 -1.344985 0.523625 0.187487 0.588438 -0.125192 1.460502 -1.279054 1.008389 -0.283383 -0.761620 -0.278294 -0.227127 -0.110826 0.566702 0.880173 -0.651155 1.612582 -0.583088 -0.301186 0.043412 0.318522 1.009543 1.137595 -0.069485 -0.480553 0.646708 0.708226 -0.735513
721 -0.691981 -0.476566 -0.570389 -0.098705 -0.455577 0.674056 -1.218858 0.123162 0.470312 0.154333 0.256360 0.990923 -0.858784 -0.739345 -0.188181 0.456047 -0.038452 0.444578 0.689944 0.343434 1.385953 -0.443280 -0.511883 0.009958 -0.192439 -0.724762 -0.272341 -0.030469 0.127065 -1.303843 0.288604 -1.604782
1243 -0.727460 -0.444374 -0.596529 -0.092148 -0.433772 0.693837 -1.270216 0.090808 0.515217 0.090948 0.266402 0.990029 -0.853436 -0.729032 -0.148754 0.417536 -0.027457 0.452097 0.692104 0.372590 1.344038 -0.494935 -0.557154 -0.023500 -0.287308 -0.748532 -0.255623 -0.070023 0.123814 -1.341648 0.289322 -1.527264
519 0.122487 0.222158 -0.261895 1.359456 -0.360254 0.660657 -0.388315 0.063071 0.464549 0.303993 0.121142 -0.449025 0.133472 -0.305599 -0.426547 -0.176745 0.548538 0.310969 0.106879 -0.374368 1.039028 -0.942037 -0.791467 0.544092 -0.738834 -0.373423 1.193701 -0.151659 -0.314856 -0.453073 0.482912 -0.242878
509 -0.111896 0.232458 -0.315742 1.322072 -0.460858 0.791858 -0.217211 0.219887 0.515373 0.380112 0.196364 -0.459862 0.167999 -0.440401 -0.421581 -0.057665 0.533746 0.450632 0.109881 -0.368711 1.008721 -0.745724 -0.958504 0.670461 -0.690291 -0.417422 1.154706 -0.012473 -0.272064 -0.506816 0.509798 -0.281327
208 -1.257111 -0.055195 -1.477864 0.905053 -1.358656 -1.107500 -0.466953 0.662219 0.348160 0.547045 -0.172807 1.048726 0.361534 0.131119 0.195471 -0.289243 0.367437 0.264745 1.191827 0.329728 0.283458 -1.033359 -1.372723 -0.203099 -0.456700 -0.192735 0.374941 -0.089616 -0.445232 0.018644 0.868900 -0.696952
32 -1.405463 -0.197581 -1.366386 0.950116 -1.412635 -1.077878 -0.445219 0.601636 0.236178 0.458145 -0.252629 1.035037 0.138268 -0.006745 0.234432 -0.335997 0.389411 0.248952 1.074166 0.273077 0.389126 -0.811246 -1.423197 -0.142738 -0.645763 -0.185186 0.393463 -0.007132 -0.407031 0.067032 0.671221 -0.816036
398 0.358538 -0.417595 -0.954207 0.083544 -1.362814 0.555031 0.283660 0.517870 -0.048923 1.455421 -1.200654 0.918844 -0.095707 -0.744720 -0.213227 -0.254654 -0.140382 0.743172 0.815081 -0.728563 1.696481 -0.693606 -0.340103 0.116660 0.320853 1.095159 0.992058 0.099900 -0.621005 0.528966 0.710846 -0.711431
489 0.154435 0.351563 -0.304040 1.404045 -0.309436 0.702410 -0.518665 0.070208 0.395878 0.383067 0.188532 -0.475747 0.013916 -0.181762 -0.422697 -0.223370 0.427405 0.297510 0.104011 -0.361270 1.110352 -1.054713 -0.637266 0.489854 -0.786197 -0.410312 1.221472 0.065350 -0.264955 -0.409761 0.383306 -0.185588
1084 0.964858 -0.650751 -0.451762 0.670508 -0.888954 0.347981 -1.010446 1.082648 -0.086770 1.016824 0.079146 0.083059 -0.406722 0.052239 -0.998798 1.013768 -0.458604 -0.166275 1.159618 1.108111 0.470380 -1.037951 -0.640473 -0.311084 -0.307315 -0.127501 0.755460 -0.875708 -0.177423 -0.466159 0.099088 -0.151323
551 0.031185 0.299813 -0.255764 1.411394 -0.362668 0.803674 -0.393911 0.118326 0.398223 0.141924 0.119761 -0.414319 0.138463 -0.329551 -0.386603 -0.070279 0.427097 0.370661 -0.001468 -0.380244 0.965460 -0.836782 -0.915714 0.479885 -0.777758 -0.350461 1.125745 -0.130074 -0.358957 -0.536815 0.452694 -0.355277
1187 -1.267026 -0.106260 -1.428344 0.978357 -1.380696 -1.075954 -0.530411 0.630374 0.258820 0.483975 -0.217702 1.036475 0.195160 0.108135 0.229074 -0.343223 0.325784 0.237942 1.112060 0.251802 0.413069 -0.894534 -1.370362 -0.159580 -0.600280 -0.173554 0.378343 -0.063797 -0.408551 0.091606 0.699481 -0.710467
205 -0.651731 -0.378411 -0.513253 -0.116922 -0.474749 0.667891 -1.237622 0.117789 0.500527 0.086347 0.271885 0.960551 -0.888792 -0.699089 -0.203396 0.410155 -0.039143 0.491772 0.713518 0.393184 1.307189 -0.476269 -0.563045 -0.031727 -0.258963 -0.710204 -0.317573 -0.011853 0.092677 -1.319032 0.248809 -1.591828
784 -0.152907 0.272339 -0.316723 1.428380 -0.421254 0.814384 -0.321649 0.002875 0.506236 0.458435 0.180423 -0.396744 0.086102 -0.290575 -0.466831 -0.177204 0.518614 0.473475 0.141874 -0.312833 1.037871 -0.885047 -0.847450 0.634307 -0.707460 -0.399934 1.058557 0.143784 -0.168121 -0.401537 0.378775 -0.192801
400 0.064357 0.313204 -0.246321 1.350976 -0.389695 0.650226 -0.402188 0.141785 0.411295 0.344445 0.113497 -0.588405 0.198119 -0.291798 -0.430271 -0.153827 0.459686 0.255872 0.100690 -0.376337 1.069899 -0.957961 -0.726029 0.498148 -0.792087 -0.408122 1.209443 -0.066048 -0.391138 -0.431481 0.417396 -0.293242
71 -0.306045 -1.501066 -0.291274 -0.537002 -0.150715 0.927144 -1.044809 0.845062 0.476592 -0.665767 0.049443 -0.133151 -1.166078 -0.886092 0.224904 -0.166322 -0.510068 -0.285899 0.733707 0.050414 -0.430754 -1.318000 -1.050504 -0.365338 -1.262571 -0.611366 1.646485 -0.185442 -0.113049 -0.906824 0.351631 -0.395483
512 -0.082625 0.300181 -0.310202 1.376660 -0.410743 0.888850 -0.338041 0.197158 0.440430 0.392125 0.226996 -0.509594 0.005984 -0.317308 -0.474185 -0.072157 0.337923 0.405647 0.074656 -0.331535 0.986295 -0.864709 -0.867948 0.609308 -0.703403 -0.455113 1.087167 0.124024 -0.244192 -0.407980 0.379127 -0.275577
133 -0.684357 -0.432899 -0.557334 -0.062186 -0.437389 0.704652 -1.248413 0.090736 0.476604 0.106208 0.268359 0.989827 -0.876297 -0.708365 -0.160016 0.419369 -0.046770 0.508729 0.730236 0.336826 1.364949 -0.494191 -0.555834 -0.036043 -0.233960 -0.716945 -0.274538 -0.018789 0.108010 -1.305771 0.264692 -1.591401
1121 -0.192813 0.292143 -0.335658 1.439151 -0.335682 0.974892 -0.330703 0.047452 0.433767 0.259573 0.243892 -0.349350 -0.025941 -0.334712 -0.400443 -0.139856 0.419682 0.593442 0.097560 -0.302984 0.956855 -0.783368 -0.865636 0.632115 -0.727676 -0.315197 1.110093 0.159805 -0.150039 -0.513575 0.444645 -0.266040
380 -0.148668 0.199880 -0.294116 1.344608 -0.406242 0.865815 -0.202530 0.109204 0.381165 0.340484 0.222537 -0.392641 0.070940 -0.440135 -0.387241 -0.062386 0.502741 0.573542 0.016198 -0.404069 1.039822 -0.718015 -0.882807 0.606477 -0.722060 -0.352278 1.141074 -0.073270 -0.276364 -0.537979 0.511228 -0.350819
1106 0.307575 -0.755459 -0.963441 0.262112 -0.547906 -0.389792 -1.171721 -0.548102 0.204219 0.559540 -1.173477 0.120108 0.224145 -1.245353 0.250811 -0.123330 0.006857 0.177337 1.074520 -0.984297 -0.162938 -0.939829 -0.857812 0.041090 -0.224531 -0.921978 0.948395 0.864401 0.204919 0.293694 1.358570 -0.086896
1111 0.089556 -0.658330 -0.251505 0.167833 -0.694566 1.000843 -0.276635 0.586574 -0.281219 -0.256257 -0.488331 1.517821 0.182509 -1.894900 0.605990 0.578871 -0.050269 1.132582 0.628430 0.014349 0.612165 -0.297159 -1.073612 1.420697 -0.670657 0.344170 0.994896 0.378509 -0.371122 -0.453855 -0.009388 0.037708
1194 -0.323954 0.908641 -1.258961 0.971413 0.116754 0.613486 -0.748999 0.187258 -0.788717 1.196104 -0.449818 0.894334 1.135232 -1.461361 -0.487704 -0.632336 1.053048 -0.135674 1.423082 0.275496 0.266992 -0.304705 -0.315882 0.493757 -0.675808 0.824409 0.416873 0.139436 -0.238151 -0.369294 0.806116 -0.077652
54 -0.013470 0.178060 -0.214901 1.291825 -0.515748 0.720381 -0.267103 0.243870 0.575174 0.273414 0.118946 -0.512617 0.181978 -0.451342 -0.397594 -0.032279 0.545119 0.323042 0.093388 -0.353630 0.958015 -0.732239 -0.975818 0.643555 -0.750474 -0.331063 1.241997 -0.177746 -0.398925 -0.510445 0.486730 -0.318465
1134 -0.327361 0.925583 -1.300699 1.017659 0.097122 0.552106 -0.753298 0.196107 -0.810277 1.235573 -0.505965 0.953076 1.156354 -1.459366 -0.550807 -0.602714 1.039606 -0.198038 1.410754 0.329709 0.205842 -0.311731 -0.324594 0.476168 -0.706881 0.817790 0.421614 0.175077 -0.228794 -0.333755 0.802231 -0.010706
1287 0.100827 -0.627799 -0.296101 0.240746 -0.771944 0.974043 -0.192846 0.499134 -0.283566 -0.195336 -0.520279 1.574568 0.272030 -2.002736 0.548910 0.467032 -0.048134 1.190933 0.635946 -0.038613 0.692704 -0.339485 -1.010330 1.447251 -0.654197 0.464530 0.924382 0.520606 -0.442984 -0.514183 0.078520 0.028568
898 0.416869 -0.699097 -0.837029 0.200057 -0.790734 -0.445481 -0.940806 -0.812389 0.460585 0.912970 -1.320077 0.089132 0.538085 -1.179832 -0.129782 0.108453 -0.055168 0.015013 1.334914 -1.133198 -0.085984 -1.151197 -0.777062 0.253738 -0.419133 -0.786604 0.672216 0.867865 0.229153 -0.112936 1.126388 0.030293
1225 -0.365532 0.878575 -1.269368 0.995465 0.060137 0.605359 -0.711090 0.171406 -0.798579 1.197300 -0.493581 0.954746 1.171626 -1.443553 -0.536762 -0.566930 1.001972 -0.147271 1.417090 0.271410 0.181546 -0.283271 -0.313785 0.471257 -0.715311 0.793160 0.349687 0.114850 -0.199669 -0.326443 0.779282 -0.035283
114 -0.691032 -0.401173 -0.526815 -0.128212 -0.669428 0.945913 -1.038640 0.935251 0.039105 0.974107 -0.449941 0.646085 -1.011014 -0.750296 -0.238029 -1.544044 0.331289 0.499285 0.901240 -0.840291 -0.467008 -0.121099 -0.964450 1.640044 0.199619 0.476220 0.962035 0.100707 0.241033 -0.280655 0.385403 -0.975934
867 -0.658021 -0.462871 -0.572315 -0.107360 -0.445256 0.686979 -1.234880 0.131272 0.473894 0.109421 0.242323 0.967816 -0.864323 -0.701466 -0.162556 0.431626 -0.047826 0.502343 0.701054 0.350556 1.332195 -0.432328 -0.518584 -0.002763 -0.196650 -0.724064 -0.253343 -0.055353 0.163024 -1.299180 0.281946 -1.571345
499 0.083759 0.215751 -0.303562 1.358349 -0.362728 0.817586 -0.435838 0.111228 0.488268 0.283227 0.242265 -0.389602 -0.065555 -0.286667 -0.273090 -0.154844 0.339297 0.400394 0.023547 -0.352709 1.089889 -0.944253 -0.692978 0.541950 -0.744498 -0.430489 1.243500 -0.005416 -0.289052 -0.451411 0.435293 -0.337637
334 -0.133357 -0.656827 -1.268045 0.502539 -0.051729 -0.313331 -0.870808 0.223628 -0.133853 -0.121427 -0.506543 0.436917 -0.539661 -1.482123 -0.468158 -0.827783 -0.173063 0.211790 0.982789 0.085391 0.802153 -1.265318 0.730518 -0.065943 -0.859310 0.270986 0.714249 -0.105905 0.266395 -0.294678 -0.557285 -0.235770
475 0.137393 0.313176 -0.294006 1.425439 -0.315409 0.861622 -0.429769 0.039631 0.400955 0.273320 0.171027 -0.329238 -0.055503 -0.273159 -0.361270 -0.146905 0.441146 0.453531 0.031040 -0.376461 1.144512 -0.943315 -0.653104 0.543183 -0.690364 -0.371186 1.158540 -0.059168 -0.247885 -0.468872 0.450475 -0.231606
619 0.327445 -0.737659 -0.845530 0.165621 -0.699577 -0.402056 -1.084295 -0.650896 0.324457 0.737139 -1.218331 0.070550 0.410497 -1.147281 0.078659 0.002483 -0.039417 0.158838 1.183884 -1.080169 -0.115697 -1.037266 -0.802286 0.112486 -0.272038 -0.866806 0.870263 0.821416 0.228997 0.060445 1.262740 -0.022965
1279 -0.135763 -0.720887 -1.255332 0.547561 -0.050003 -0.351892 -0.877200 0.212509 -0.132382 -0.064070 -0.449607 0.447556 -0.554238 -1.427502 -0.501418 -0.792443 -0.144272 0.204793 0.998324 0.146193 0.722768 -1.239850 0.773821 -0.169515 -0.848931 0.242217 0.698193 -0.142113 0.334784 -0.266879 -0.537177 -0.243891
926 -0.258136 -1.500125 -0.353034 -0.538004 -0.175964 0.936993 -1.044348 0.871421 0.414751 -0.644134 0.097141 -0.111099 -1.172291 -0.881523 0.251888 -0.131815 -0.529525 -0.308756 0.741343 0.044712 -0.405560 -1.268440 -1.041195 -0.374521 -1.229445 -0.573507 1.636004 -0.182661 -0.119491 -0.880173 0.356251 -0.462169
969 -0.113139 0.306664 -0.279227 1.404515 -0.448345 0.831472 -0.334743 0.096409 0.491203 0.317818 0.200799 -0.428855 0.190817 -0.345501 -0.355525 -0.112426 0.517493 0.475735 0.113783 -0.331595 0.989419 -0.850488 -0.918113 0.596839 -0.695997 -0.459199 1.162554 0.092971 -0.240577 -0.522082 0.489397 -0.318135
751 -0.032903 -0.602574 -0.191852 -0.118393 -0.453204 1.094906 -0.428831 0.746474 -0.375136 -0.390016 -0.549053 1.377805 0.090112 -1.794339 0.745300 0.787806 -0.071358 1.058031 0.751553 0.167091 0.440003 -0.286763 -1.258567 1.407845 -0.841119 -0.029034 1.219604 0.074856 -0.186014 -0.248027 -0.191017 0.058716
84 -0.740690 -0.403344 -0.507772 -0.106362 -0.438027 0.665980 -1.252296 0.125852 0.552416 0.058105 0.278072 0.987878 -0.846022 -0.741540 -0.157014 0.451228 -0.019777 0.487605 0.666722 0.409595 1.285060 -0.443072 -0.553116 -0.012451 -0.265086 -0.757557 -0.327723 -0.012193 0.105446 -1.363792 0.287035 -1.556708
93 -0.692717 -0.429785 -0.536233 -0.107749 -0.518986 0.666041 -1.226817 0.167517 0.471202 0.085928 0.255200 0.951647 -0.916960 -0.682186 -0.145004 0.442943 -0.063163 0.525204 0.707294 0.383152 1.335495 -0.491959 -0.525315 0.002743 -0.221708 -0.783407 -0.262153 -0.014049 0.136329 -1.311206 0.247391 -1.621517
211 -0.675441 -0.421714 -0.575061 -0.110397 -0.486458 0.682344 -1.233101 0.114617 0.525857 0.127468 0.231118 0.955175 -0.856104 -0.728542 -0.185185 0.469509 -0.048422 0.466050 0.667657 0.401454 1.336989 -0.478374 -0.500056 0.016788 -0.203875 -0.716747 -0.266129 -0.025004 0.078671 -1.321407 0.291219 -1.560687
229 0.177678 0.281540 -0.311191 1.420602 -0.361728 0.744864 -0.548740 0.042381 0.410135 0.236038 0.197578 -0.412097 0.021832 -0.260317 -0.299750 -0.211947 0.407613 0.433296 0.030210 -0.337903 1.084062 -0.939655 -0.683941 0.450309 -0.670661 -0.350043 1.262147 -0.014848 -0.263496 -0.429164 0.478689 -0.323429
