455 32
7 0.192836 0.239685 -0.106169 0.244950 -0.576495 0.998630 -0.333448 0.769532 1.068195 0.287915 -0.513207 -0.186119 0.232812 -0.814913 1.528006 0.159453 0.299028 -0.246632 -0.187977 -0.575895 -0.399158 -1.088910 0.274987 -0.484575 1.095171 0.220260 0.347545 -0.755874 -0.765265 0.451252 1.320870 1.561132
2 0.412250 0.622710 0.114968 -1.044836 -0.676573 0.842615 0.238559 -0.301772 0.645104 0.910592 -0.586241 0.688301 0.874613 -1.617641 -0.079695 -0.872410 0.150435 1.082359 0.709433 -0.436034 -0.220705 -1.728327 -0.201399 1.384334 -0.827104 0.453833 -0.136529 -0.771892 -0.528430 0.129841 1.044733 1.185470
22 -1.225738 -0.623931 -0.369328 -0.825221 0.202081 0.173872 -0.041799 0.779546 0.217787 0.583763 -0.278691 0.031668 0.551927 -0.808547 0.495929 -0.795276 0.377853 0.319832 -0.391563 -0.606415 -0.729680 -0.837712 1.428999 0.612166 -0.113660 0.599651 0.071597 -1.418888 -0.272573 0.174937 0.114497 0.739695
120 -1.092785 -0.615200 0.050552 -0.343567 -1.035413 -0.785695 0.192115 0.713556 1.046657 0.402184 -0.563877 0.594840 -0.023667 -0.936360 0.336585 -0.568424 0.893601 -0.000242 0.816607 -0.121265 -1.368405 -0.506130 -0.551728 -0.078332 -0.208436 0.194068 -0.866782 -0.518857 -1.032488 1.020505 0.991419 0.013258
25 -0.458906 0.855347 0.337459 -1.258230 -0.355676 0.946837 -1.179645 0.510273 0.479483 0.584416 -0.179730 0.325211 0.779379 -1.133457 0.823628 -0.011620 0.649608 0.238896 0.817861 -0.223585 -0.496103 -0.843568 0.060435 -0.332115 0.104373 -0.508971 -1.376581 -0.492227 -0.114689 -0.173946 0.737664 -0.519931
4 -0.475022 0.867835 0.342748 -1.250964 -0.365177 0.984981 -1.191324 0.550250 0.450173 0.615207 -0.132735 0.335831 0.767283 -1.108889 0.798449 -0.036760 0.641226 0.237543 0.795584 -0.218428 -0.484388 -0.872400 0.023275 -0.338652 0.091036 -0.484591 -1.350827 -0.570965 -0.098658 -0.145571 0.685520 -0.507475
696 -0.782738 1.317074 0.985827 -0.509946 0.799924 0.760606 -0.252622 -0.677593 0.528826 0.575490 0.069612 0.796785 0.116899 -1.058718 0.357644 -0.478848 0.383869 0.205894 0.205866 -1.949158 -0.342576 0.079159 0.020196 -0.682696 0.732334 0.813906 -0.160937 0.184868 0.298123 0.831864 1.911765 0.244287
921 0.294728 0.378558 -0.003527 -1.021289 0.173295 0.341215 0.537190 1.514288 0.872108 0.513273 -0.467070 -0.279137 -0.058904 -0.452286 -0.612504 0.302210 0.687647 -0.267671 1.035844 -0.105353 -0.786810 -0.970462 1.260105 0.601828 1.358132 0.237180 -0.688844 -0.771159 -0.172436 1.435521 0.259860 0.042115
897 -0.166602 0.683204 -0.043378 -0.619155 0.462271 2.093665 -0.690603 0.311117 0.472452 0.110025 -0.094426 0.869932 0.627993 -0.108396 0.183412 0.122273 0.288141 -0.268823 1.233241 -0.236531 -1.501886 -1.038736 -0.437058 1.255493 0.466778 0.966387 0.335417 -0.286813 -0.068272 1.444165 0.704790 0.829916
1092 -0.824413 0.102458 0.943693 0.239475 0.486227 1.054798 0.135827 0.241748 -0.169224 0.577409 -0.383704 0.125629 0.591573 -1.081837 -0.407845 -1.593502 0.575418 0.102688 1.405146 -0.652663 -1.861304 0.149068 0.506275 -0.351877 0.540105 -0.307267 -0.058446 -0.549260 -1.012714 -0.103138 0.917452 0.391946
676 0.004724 -0.867224 -0.131659 -1.406730 -0.374319 1.865532 -0.320159 0.750115 0.773454 0.753580 0.407401 0.266949 -0.709572 -0.908123 0.812252 -0.920740 0.691786 0.041332 -0.279389 -0.054205 -1.397218 -0.423175 -0.460885 0.078795 -0.266832 -0.803498 0.376319 -0.945784 -1.185943 0.780619 0.101614 -0.004823
389 -0.668403 1.016804 0.893767 -0.530975 0.345848 0.461712 -0.039218 -0.418421 0.447486 0.464487 -0.050507 0.711521 -0.537660 -1.697802 0.612876 -0.812865 0.683629 -0.396541 0.099654 -1.752263 -0.667880 -0.315991 0.372019 -0.861197 0.398966 1.008483 -0.326944 -0.073274 0.655075 0.337210 1.914791 -0.003525
240 -0.695410 0.118534 0.911281 0.120371 0.500423 1.056153 0.185018 0.269026 -0.162138 0.633199 -0.359890 0.039081 0.459261 -1.047372 -0.497408 -1.718391 0.547389 0.165413 1.397736 -0.580612 -1.781681 0.040763 0.471013 -0.346330 0.528555 -0.265432 0.034357 -0.567849 -1.015110 -0.199979 0.902013 0.411438
85 -1.177887 -0.759814 0.135959 -0.294623 -1.029194 -0.644399 0.264941 0.630163 0.917224 0.444518 -0.760102 0.958386 -0.278830 -1.013047 0.410468 -0.475090 0.856073 -0.307616 0.721044 -0.129897 -1.228123 -0.300630 -0.670417 -0.024640 -0.288875 0.573128 -0.838007 -0.462361 -0.959018 1.073193 1.045118 0.095516
1109 0.200612 0.313409 0.008547 -1.005808 -0.043787 0.385037 0.659929 1.490660 0.729120 0.834809 -0.372874 -0.345259 -0.188438 -0.470939 -0.618067 0.404088 0.535922 0.024687 1.132955 -0.006938 -0.790379 -0.980927 0.996942 0.534982 1.392013 0.160131 -0.674969 -0.990679 -0.149703 1.403108 0.144478 0.096699
3 -0.526135 0.303832 0.753910 -1.361654 0.101379 1.346089 -0.104820 0.062106 -0.188918 0.749752 0.029862 -0.653295 0.189618 -1.448806 0.446716 -1.086892 0.566994 -0.067921 0.048890 -0.872117 -1.723578 0.204644 -0.345127 1.451622 1.201587 0.785285 -1.005389 0.729332 0.238767 0.315337 0.407673 -0.523132
36 -0.618194 -0.377069 0.167878 -0.335032 0.636855 0.517137 -0.572706 0.848281 1.327174 1.051243 -0.398284 0.141675 0.635860 0.502596 0.139041 -0.103137 0.251862 -0.041072 -0.224358 -1.136467 -0.584425 0.238202 -0.632471 1.523322 1.032110 -0.814073 -0.254700 -1.419908 -0.735800 0.780020 1.253782 0.944979
350 -0.167217 0.715527 0.135671 -1.835909 -0.339652 0.672627 0.012886 1.405334 0.718133 0.907533 -0.244462 1.292662 -0.101539 -0.292211 -0.268291 0.565573 0.803849 -0.726989 0.720097 -1.617217 -1.874320 0.819715 0.136585 -0.138591 -0.039667 -0.144307 -0.295622 -0.502590 -0.430546 0.575213 0.958791 -0.569551
513 -1.506522 1.158854 0.309104 -1.401408 -0.239723 0.170228 0.694092 0.112404 0.523575 0.784094 -0.592026 0.348526 -0.277790 0.496794 0.192675 -1.277817 0.737704 0.670324 0.571437 -0.112672 -0.453079 -0.509310 -0.182253 1.117662 0.766678 -0.301385 -0.757372 -0.421172 0.482915 0.467830 1.115587 1.054654
1270 -0.680293 -0.465168 0.247458 -0.468008 0.675519 0.568030 -0.646586 0.675345 1.399756 0.986230 -0.288940 0.154295 0.642472 0.501752 0.062552 -0.080730 0.262489 0.045308 -0.301203 -1.183064 -0.519857 0.260555 -0.618260 1.403558 0.992099 -0.669444 -0.288811 -1.449504 -0.610406 0.763960 1.083839 1.060064
476 -1.506318 1.211682 0.338631 -1.384285 -0.238240 0.163105 0.632225 0.101337 0.511182 0.766453 -0.589098 0.351501 -0.280778 0.435998 0.230455 -1.266265 0.741873 0.645211 0.531399 -0.170178 -0.421104 -0.448590 -0.218128 1.064889 0.769397 -0.303443 -0.738811 -0.421586 0.426413 0.470693 1.131124 1.044911
763 -0.879583 1.630203 1.048186 -0.328075 1.113002 0.525072 -0.391372 -0.515024 0.663464 0.763421 0.023206 0.863332 0.226940 -0.882305 0.017511 -0.384197 0.346019 0.432468 0.163443 -1.944002 -0.472984 0.490951 0.179632 -0.567265 0.782583 0.997501 -0.245380 0.172981 -0.001857 0.899936 1.778465 0.447073
89 0.196812 -0.429912 0.460575 -1.328716 -0.811845 0.784258 0.594935 0.063362 1.338804 0.913529 -0.356426 1.162954 -0.033053 -0.220989 0.348500 -0.787316 -0.281826 0.903706 0.621444 -1.220565 -0.067310 -0.540571 0.361021 -0.229469 1.234057 0.896318 -0.016417 -0.396911 -1.267750 0.703782 0.262091 0.089831
415 0.237855 -0.456026 0.481900 -1.331189 -0.779793 0.807207 0.581123 0.005183 1.380897 0.956834 -0.325579 1.168316 -0.022819 -0.226574 0.319997 -0.738151 -0.271530 0.948758 0.623643 -1.208102 -0.090187 -0.485648 0.308085 -0.260586 1.234703 0.861671 -0.070171 -0.392096 -1.214689 0.630459 0.225292 0.123508
153 -1.106693 -0.635904 0.010621 -0.362824 -1.094894 -0.784046 0.174846 0.680199 1.098064 0.387143 -0.477311 0.623946 -0.098566 -0.936400 0.367864 -0.608566 0.921049 0.047517 0.771241 -0.089967 -1.401778 -0.515695 -0.598545 -0.068320 -0.207715 0.095326 -0.890349 -0.508724 -1.049610 0.972145 0.918573 0.022398
80 -0.478114 0.015704 -1.033860 -0.968160 0.382114 1.686717 -0.617400 0.489370 1.629659 0.152737 -0.037565 -0.074544 0.150941 -1.867780 -0.176239 -0.430468 -0.009389 0.326290 0.420558 -0.563793 -1.164982 0.356768 0.742293 0.012636 0.158579 -0.195365 -0.714472 0.027534 -0.109607 -0.008184 0.821969 1.518947
935 -0.058393 -0.499891 0.108447 -0.351889 0.879454 0.801464 -0.035272 0.218782 0.399534 2.314409 -1.049964 0.982532 -0.111495 -0.054054 -0.095821 0.376652 1.112551 0.269345 -0.087996 -0.780685 -1.767172 -0.604364 0.699323 0.425660 -0.575525 -0.894164 -1.017102 -0.301014 -1.495653 0.380523 0.671421 0.744830
263 0.001539 -0.792654 -0.071934 -1.474808 -0.300796 1.822057 -0.337900 0.802530 0.798765 0.771011 0.389140 0.322963 -0.718144 -0.911392 0.814891 -0.892198 0.697713 0.036776 -0.277912 -0.091666 -1.443615 -0.439634 -0.471833 0.058320 -0.282655 -0.781665 0.400824 -0.966450 -1.081629 0.783539 0.150823 0.055653
565 -0.239269 0.953376 1.054793 -1.310088 -0.057989 -0.004389 -0.815787 -0.806600 0.739540 0.710311 -1.125187 -0.181495 -0.421886 -0.706071 -0.588533 0.454692 0.391573 0.506447 0.342850 -0.125878 -0.971174 -0.632695 0.692445 -0.520892 1.060016 0.757038 -1.749628 -0.907896 -1.149243 0.769051 1.099666 1.035395
709 -1.854090 1.463259 0.311750 -1.152836 0.767053 0.668327 0.207360 -0.436636 0.755993 0.153855 0.003194 -0.174587 0.855299 -1.225622 1.502172 0.658304 0.576832 0.953662 -0.102387 -0.141334 -1.277818 0.426264 0.178331 -0.853582 0.040788 -0.133569 -0.605758 -0.405983 -1.216144 0.666508 0.747908 1.296375
421 -0.242168 0.859711 1.140693 -1.186866 0.050361 0.026126 -0.776367 -0.731791 0.621709 0.694764 -1.193917 -0.077469 -0.307737 -0.538060 -0.571204 0.524321 0.381769 0.569232 0.280607 -0.159124 -0.948123 -0.756042 0.616808 -0.345497 1.028400 0.795024 -1.701190 -0.966272 -1.235694 0.693081 1.073230 1.104967
524 -0.929273 0.764525 -0.340792 -0.823181 1.061258 0.267426 -1.212253 0.210646 1.316820 1.468605 0.165115 1.159528 -0.046267 -0.939020 0.142113 -0.649966 1.574081 0.058674 0.101692 -0.012030 -0.433152 -0.909198 -0.124092 -0.214812 -1.030217 0.445561 0.492865 0.064012 -0.757783 0.757284 2.238259 0.881922
28 -1.257971 0.875290 1.058179 -2.353809 -0.394721 0.611885 -0.085737 -0.001209 -1.305470 0.707266 0.092056 0.887282 0.493987 -1.046993 -0.072364 -0.540835 0.509589 1.351339 0.135594 -1.471949 -0.614849 0.000022 0.973703 0.019629 -0.106719 0.721393 -0.342967 -1.403958 0.403985 0.974862 0.625278 -0.074337
704 -0.753734 0.233862 0.257362 -0.933565 -0.159549 1.025653 0.069132 0.478137 0.557134 0.753424 -0.374163 0.457610 0.163343 -1.110924 0.369873 -0.437576 0.840835 0.400546 0.202914 -0.797432 -1.025411 -0.524974 0.160970 0.495147 0.700160 0.124997 -0.419127 -0.820689 -0.702934 1.056127 0.810076 0.733727
76 -0.449773 0.915952 0.332801 -1.585021 0.236034 0.316752 -0.178244 -0.395578 -0.456886 -0.117409 -1.843736 1.325165 0.197221 -0.716343 1.185241 -0.328103 0.890856 -0.249731 0.305215 -0.803226 -1.821299 0.249608 0.147002 0.744271 -0.024986 -0.142522 -1.145347 0.598450 -1.253779 -0.223536 2.035027 0.856725
1218 0.592714 0.907971 -0.232856 -0.937439 0.628057 1.507064 -0.535032 1.410170 0.433144 0.282962 -0.782108 -0.046084 -0.502795 -0.754943 -0.298428 -0.424249 0.223546 0.143033 -0.604575 -0.497162 -2.414509 0.139502 -0.333547 -0.797429 1.513750 0.396782 -0.578318 0.352154 -1.192501 1.897266 0.084866 0.705302
910 0.802568 1.352105 -0.033956 -1.803873 0.443658 0.849543 0.558784 0.598081 0.742097 1.104568 -1.071301 0.128842 0.293164 -1.332527 0.038314 -0.992244 0.235614 -0.247328 -1.143353 -1.724074 -1.348330 -0.392902 0.532540 -0.342841 -0.894729 0.566767 0.612581 -0.008920 -1.344943 0.575077 1.230495 -0.231908
844 -0.452827 0.421128 0.318773 -1.037373 0.003829 1.417009 1.073003 0.806411 0.042891 0.727141 -1.827462 0.183402 0.182057 -0.230893 0.710228 -1.009976 0.710634 -1.469109 0.757721 -0.995285 -1.294090 -0.686031 0.020411 0.539357 -0.136683 -1.270880 0.934068 0.321997 -0.740052 1.505448 1.358047 0.921222
1162 -1.074074 0.940593 1.002692 -1.679021 -0.455745 0.308682 0.070131 0.640129 0.617090 1.021150 -0.373227 -0.976572 0.380379 -0.322325 0.662315 -0.975962 0.703158 -0.616093 0.957769 -0.579179 -1.567246 0.187513 0.926683 -0.638315 0.884917 0.678208 1.017230 -0.225089 0.238478 1.886172 0.700355 -0.288014
43 -0.646919 0.689532 0.021319 -1.543076 0.740923 0.881519 0.813685 0.824783 0.277178 0.211193 -0.502607 0.284100 0.022113 -1.339753 1.420865 -0.181436 -0.174233 0.643606 -0.467691 -0.921989 0.431295 -1.125767 1.400414 0.404616 -0.169511 0.852204 -0.286404 0.889568 -1.381003 1.508325 1.571753 1.153638
428 -0.369993 0.007866 -0.960868 0.294691 0.132455 0.159076 -0.598505 0.266507 1.515681 1.629874 -0.252879 0.605063 -0.847540 -1.070999 0.303294 0.144387 0.402456 0.709440 -0.204662 -1.555754 -1.336722 -0.143650 -0.420728 -0.391752 1.283757 0.066647 -0.355584 -0.828143 0.332390 1.433205 0.957316 -0.102950
454 -0.324127 -0.158646 -1.011583 0.370698 0.103340 0.163443 -0.320927 0.276897 1.532804 1.510735 -0.284315 0.686544 -0.659292 -1.095750 0.202187 0.097082 0.458265 0.775486 0.102577 -1.660794 -1.022655 -0.210410 -0.714256 -0.216005 1.299601 0.265911 -0.078907 -0.956836 0.514286 1.633595 1.151534 -0.012641
792 -1.365332 0.638957 0.462337 -0.238667 -0.352202 1.444788 -0.500877 0.019833 -0.412817 1.941747 -0.088808 0.109129 -0.280658 -0.301188 1.030124 -0.285341 0.722447 -0.312757 -0.610656 -0.568602 -1.650652 0.901176 -0.123443 0.352346 0.259269 -1.038233 -0.363474 0.054724 -0.241930 1.574418 0.668176 1.772105
405 -0.075417 -0.508753 0.146429 -0.378610 0.850681 0.820215 -0.034349 0.187858 0.349046 2.226711 -1.012095 1.003961 -0.096047 -0.060186 -0.023549 0.360335 1.151471 0.264027 -0.137001 -0.816198 -1.745756 -0.626356 0.706397 0.435789 -0.600366 -0.916142 -0.981717 -0.282423 -1.505963 0.410669 0.732458 0.722402
308 -1.034558 0.106315 0.850007 -0.389981 0.377154 0.431957 -0.162721 -0.015217 1.385083 0.970710 0.880749 0.130754 0.002970 -1.149864 -0.002031 -0.392281 1.077897 -0.261629 0.487333 0.010740 -0.649701 -0.298902 -0.230164 -0.362017 0.914380 0.982336 -0.480462 -0.895688 0.130073 0.724611 -0.237576 1.342434
775 0.000775 -0.405281 0.738809 -1.591922 0.276019 -0.010511 0.331005 -0.912763 0.883655 0.528269 -0.761656 -0.392088 -0.169663 -1.559610 0.526873 0.190309 1.069349 0.354155 -0.106269 -0.368646 -0.827085 -0.995914 -0.109129 0.122951 0.140351 -0.509822 0.314120 0.493564 -0.122138 0.846704 0.889427 0.731488
155 -0.381253 0.534588 0.388061 -0.962962 -2.116826 0.106611 -0.658955 0.047796 0.246660 0.711625 -0.681829 -0.635585 0.490639 -1.087503 0.665672 -0.461157 -0.395248 -0.171738 0.041306 -0.802918 -1.369439 -0.182171 0.273930 1.096461 1.212869 -0.756370 -0.852545 -0.443772 -1.235967 0.672958 0.250185 0.847561
165 -1.209470 -0.675327 -0.326536 -0.799532 0.256776 0.187777 -0.065267 0.759726 0.247474 0.630423 -0.301939 0.032887 0.576556 -0.813700 0.473998 -0.710263 0.431160 0.288809 -0.457020 -0.626941 -0.738459 -0.838520 1.418534 0.616202 -0.087504 0.567914 -0.006559 -1.401281 -0.344559 0.124236 0.103536 0.775143
496 -0.425038 0.435482 0.180798 -0.052033 0.097233 0.378080 0.035683 0.657330 0.247468 0.328138 0.076340 0.012476 0.194101 -0.845964 0.311626 -0.421670 1.297731 1.227870 -0.448908 -0.686460 0.155941 -0.482410 0.013438 0.668453 0.952575 -0.370661 -0.105009 -0.119511 -0.959025 0.798641 0.518844 -0.413913
1261 0.393402 0.541675 0.013578 -1.147470 -0.806595 0.854986 0.157724 -0.318928 0.666472 0.848547 -0.632674 0.671166 0.861834 -1.676585 -0.002208 -0.849756 0.113289 1.018144 0.728048 -0.455165 -0.238337 -1.807471 -0.201718 1.396311 -0.742650 0.452811 -0.093605 -0.804345 -0.546596 0.086579 0.990124 1.169286
825 0.277071 0.236822 -0.078940 0.314283 -0.570517 1.057300 -0.306314 0.745636 1.073261 0.365332 -0.589370 -0.113284 0.323548 -0.879039 1.459930 0.236294 0.241791 -0.143328 -0.214037 -0.505755 -0.362600 -1.146006 0.257187 -0.361625 1.071412 0.133114 0.253006 -0.755476 -0.660128 0.457482 1.269377 1.595595
816 0.506794 0.715459 1.453137 -1.290583 0.284325 -0.089466 0.168196 1.333537 1.665159 1.401313 0.117890 -0.105011 0.931515 -0.176382 0.735830 -0.877130 0.618504 0.205441 -0.121069 -0.150709 -1.045158 -0.822735 0.214082 0.708356 -0.254464 -0.008379 -0.508920 -0.212701 -1.175085 -0.003841 0.006820 0.705479
1268 -0.059494 -0.436463 0.860218 -1.536075 0.403504 -0.051628 0.463108 -0.902928 0.987340 0.578391 -0.653429 -0.463943 -0.160486 -1.540713 0.474328 0.157580 1.146874 0.219136 -0.107767 -0.308594 -0.852081 -1.088657 -0.033430 0.251769 0.197974 -0.408094 0.316191 0.422540 -0.080324 0.900190 0.773562 0.799060
909 -0.523176 0.483592 0.195477 0.009994 0.202826 0.335428 -0.076085 0.556604 0.156356 0.433197 0.183545 0.046031 -0.030375 -0.913929 0.232440 -0.530870 1.502341 1.124583 -0.396050 -0.578632 0.089046 -0.501567 0.045845 0.551165 0.784077 -0.260473 -0.068599 -0.129930 -0.974665 0.840717 0.547833 -0.566332
381 -1.175880 -0.687758 -0.371473 -0.807459 0.130755 0.110007 -0.034255 0.763588 0.296397 0.639106 -0.294429 0.027276 0.520287 -0.845374 0.347051 -0.798560 0.504058 0.367502 -0.381056 -0.533425 -0.698093 -0.950599 1.400192 0.657843 -0.144332 0.622475 0.055954 -1.448165 -0.391503 0.150708 0.067073 0.786881
744 -0.842432 0.034514 0.879843 0.192624 0.484427 1.077320 0.161164 0.212694 -0.189300 0.614543 -0.353502 0.172912 0.587046 -1.020997 -0.483328 -1.645741 0.503145 0.147638 1.473525 -0.675204 -1.826621 0.094886 0.522012 -0.297296 0.495851 -0.235829 0.015178 -0.612719 -0.991593 -0.163463 0.989616 0.389042
394 0.054484 -0.453797 0.793455 -1.478189 0.392758 -0.005969 0.439474 -0.848779 1.147421 0.638029 -0.679350 -0.442548 -0.167079 -1.484327 0.550138 0.210050 1.025961 0.259876 -0.184355 -0.143051 -0.904889 -1.001620 -0.146715 0.251662 0.155821 -0.365984 0.273306 0.301750 -0.124649 0.912076 0.716833 0.832419
206 -0.268201 0.546327 0.441736 -0.845681 -2.041204 0.141871 -0.673205 -0.013349 0.416871 0.615244 -0.343201 -0.580468 0.361183 -0.928375 0.469389 -0.531175 -0.288833 -0.241532 -0.091171 -0.895747 -1.372787 -0.258989 0.407055 0.885019 1.338904 -0.776413 -0.946110 -0.603124 -1.141003 0.717727 0.088422 0.778728
765 -0.673550 0.130917 0.481428 -1.154190 -0.022122 0.628699 -0.029190 0.616376 0.784583 0.921287 -0.087732 0.501576 -0.059122 -0.832011 0.321228 -0.377897 0.970472 0.344416 0.200369 -0.650798 -1.025801 -0.556683 0.196106 0.410142 0.441706 0.040616 -0.228999 -0.822662 -0.575692 0.966931 0.562970 0.750006
434 0.478864 0.244976 0.499844 -1.108735 -1.055413 1.276415 0.625397 1.241076 0.454014 0.510751 -0.441742 -0.363978 0.171758 -1.670406 0.238037 -1.439826 1.813247 -0.689069 0.685795 -1.421502 -0.706264 -0.662166 0.591402 0.970279 -0.378124 -0.094474 0.066841 -0.463189 0.516685 -0.055605 0.541897 -0.223225
412 0.086040 -0.446878 0.826501 -0.667029 -0.189264 1.243039 0.427835 0.643636 0.582410 -0.210645 -0.408790 1.659931 0.290135 -1.250644 0.793989 0.039303 0.656110 0.518658 -0.571799 -0.475484 -1.056371 0.701317 -0.176254 1.360630 0.577929 0.063250 -0.561385 -0.025704 -0.824484 0.579780 -0.038302 1.409002
838 -0.437504 0.226714 0.589535 -1.096397 -0.370260 0.318866 -0.163884 0.187678 1.636231 1.167174 -0.534862 0.302991 0.968470 -0.412693 0.555870 -0.487456 -0.786060 0.029902 0.081822 -1.699507 -1.836496 0.289056 0.480498 1.044408 -0.598503 0.210852 -0.115638 0.000626 1.016677 1.348732 0.905524 0.833187
259 0.191334 0.307863 0.066802 -1.011070 0.002142 0.378148 0.654697 1.431592 0.752212 0.648580 -0.404749 -0.258987 -0.069051 -0.484623 -0.539601 0.342279 0.713390 -0.060229 1.239661 -0.074767 -0.821147 -1.011241 1.020983 0.589813 1.489336 0.256394 -0.712063 -0.921710 -0.213637 1.415048 0.079500 0.034177
99 -0.621174 -0.486096 0.180974 -0.538021 0.594913 0.546423 -0.580666 0.714415 1.426321 0.971944 -0.376504 0.090110 0.621369 0.570650 0.043603 -0.095279 0.347226 0.057834 -0.384699 -1.156411 -0.546051 0.185589 -0.583548 1.491652 0.915314 -0.690809 -0.362201 -1.513953 -0.635833 0.742366 0.971779 1.110453
759 -1.297205 -1.415839 1.260223 0.295037 0.555878 1.997892 0.466160 0.201987 0.462081 0.301043 -0.105362 0.329118 0.404784 -0.585360 0.739277 -0.126736 2.078979 0.333354 0.340031 -0.149941 -1.056846 -0.687276 0.202220 0.821578 0.067671 -0.838431 -0.960619 -1.759791 -0.181152 0.931800 0.489786 1.014914
1256 -0.150665 -0.642527 0.805336 -1.482383 0.442574 -0.107960 0.394866 -0.762553 0.976762 0.444637 -0.945917 -0.461222 -0.292727 -1.479441 0.330890 0.162904 0.845389 0.393383 -0.001239 -1.016503 -0.764416 -1.228978 0.136705 0.236697 0.214221 -0.436328 0.728400 0.581184 -0.013822 0.812411 1.055364 0.539802
349 -0.017579 -0.473026 0.962864 -0.912611 -0.286088 1.250323 0.446960 0.752932 0.354799 -0.309459 -0.277948 1.487112 0.359110 -1.366423 0.986186 0.094406 0.521444 0.439272 -0.414959 -0.398522 -1.009987 0.720662 -0.093913 1.298978 0.734069 -0.093050 -0.539248 -0.201499 -0.786783 0.573594 -0.263812 1.427019
442 -1.008033 0.244998 0.835190 -0.235842 0.341328 0.352648 -0.070382 -0.026405 1.440484 0.934484 0.831316 0.077966 0.143530 -1.226260 -0.050205 -0.484655 1.034721 -0.164860 0.530513 -0.026508 -0.504840 -0.337165 -0.212026 -0.175626 1.064399 1.029770 -0.432554 -0.884177 0.117674 0.735984 -0.156966 1.310686
337 0.177512 -0.399401 0.669434 -0.466896 -0.040285 1.272227 0.363855 0.612860 0.783111 -0.196382 -0.509967 1.835558 0.201091 -1.173476 0.654561 -0.030750 0.799691 0.568329 -0.723068 -0.537396 -1.083102 0.756904 -0.200987 1.455310 0.502708 0.281197 -0.566424 0.058739 -0.813661 0.583859 0.116658 1.416631
531 -0.443609 0.478742 0.237301 0.067355 0.131305 0.324268 0.015256 0.593085 0.164928 0.413740 0.174569 0.063418 0.063903 -0.919015 0.177259 -0.464300 1.403128 1.129126 -0.407594 -0.626113 0.168803 -0.482863 -0.011579 0.573724 0.841995 -0.215921 -0.126822 -0.135597 -0.930390 0.900567 0.476459 -0.390069
212 -1.029702 0.126420 0.849324 -0.247754 0.263099 0.435337 -0.070251 -0.101580 1.436004 0.891650 0.835586 0.121018 0.047509 -1.022478 0.002315 -0.596259 1.155695 -0.307261 0.542691 -0.058115 -0.637585 -0.238574 -0.309431 -0.356031 1.030101 0.848072 -0.391606 -0.929649 0.062248 0.712558 -0.181931 1.376094
270 -1.108357 0.043894 0.884763 -0.453432 0.547158 0.394226 -0.173868 -0.002950 1.378906 0.992119 0.919827 0.197063 0.024756 -1.125642 0.044146 -0.221945 1.157700 -0.279197 0.411283 0.004183 -0.797138 -0.189600 -0.178063 -0.354157 0.950579 0.909445 -0.537818 -0.894037 0.135294 0.722582 -0.275741 1.300992
1076 -1.245152 -0.645044 -0.325745 -0.822948 0.131671 0.152349 0.005962 0.822515 0.264560 0.671052 -0.238194 -0.010121 0.478338 -0.838475 0.458941 -0.833364 0.457577 0.362808 -0.377586 -0.605830 -0.764553 -0.916238 1.406824 0.631574 -0.115878 0.642206 0.105125 -1.436326 -0.316734 0.196754 0.112674 0.767288
1021 -1.258920 -1.414129 1.279631 0.307870 0.628690 1.976814 0.474815 0.188674 0.521245 0.337305 -0.131744 0.314237 0.400798 -0.608400 0.780124 -0.139781 2.147355 0.301524 0.259543 -0.161302 -1.093385 -0.736575 0.162335 0.804259 0.033666 -0.880885 -0.891355 -1.724477 -0.098728 0.923640 0.547699 0.986323
1029 0.060112 -0.428707 0.835725 -0.679480 -0.198758 1.258579 0.478846 0.659057 0.524217 -0.219557 -0.378867 1.636214 0.263476 -1.258971 0.833120 0.092821 0.616670 0.517863 -0.520825 -0.468301 -1.078177 0.739668 -0.135310 1.376732 0.642565 0.086276 -0.612060 -0.046744 -0.759558 0.582571 -0.106290 1.372152
1150 -0.662659 0.099722 0.466248 -1.189972 -0.046953 0.590718 -0.002851 0.592070 0.742088 0.925848 -0.100460 0.527787 -0.090305 -0.822268 0.303859 -0.352507 0.962294 0.276211 0.213949 -0.660072 -1.040508 -0.530355 0.202111 0.372589 0.361314 0.101585 -0.164197 -0.783403 -0.518722 0.975798 0.581216 0.781534
1250 -0.440326 0.184783 0.573854 -0.996090 -0.333961 0.241736 -0.112926 0.149649 1.664528 1.280767 -0.489636 0.274323 0.956005 -0.352705 0.516843 -0.506213 -0.827457 0.037306 0.058063 -1.681563 -1.862238 0.241098 0.516368 0.983292 -0.545153 0.287594 -0.102335 -0.036115 1.002818 1.310063 0.761661 0.851548
905 -0.460813 0.459757 0.270939 -0.033311 0.126007 0.318299 0.103973 0.700386 0.189195 0.391800 0.124062 0.034693 0.189198 -0.897658 0.214467 -0.369843 1.356221 1.224949 -0.370465 -0.573175 0.225729 -0.439619 -0.006479 0.706059 0.829829 -0.234821 -0.170921 -0.074279 -0.923027 0.890118 0.428513 -0.328188
12 -0.835650 1.216063 0.998623 -0.669411 0.399751 1.066844 -0.242052 -0.965849 0.306674 0.392524 0.035758 1.005219 0.325747 -0.994167 0.600894 -0.443060 0.318477 0.198334 0.422730 -2.100503 -0.051657 -0.095055 -0.242838 -0.524248 0.931381 0.560990 0.011980 0.138286 0.539942 1.111692 1.900399 0.402796
741 0.491794 0.195509 0.444773 -1.107345 -1.083438 1.358770 0.615331 1.257646 0.432969 0.472257 -0.491250 -0.374621 0.141836 -1.617690 0.210061 -1.388054 1.812438 -0.662738 0.646283 -1.393925 -0.714436 -0.700696 0.598134 1.019708 -0.356766 -0.175992 0.053676 -0.478518 0.508167 -0.089057 0.557767 -0.199336
1123 -1.122776 -0.635922 -0.038156 -0.333220 -1.071885 -0.928706 0.127355 0.727407 1.211146 0.396985 -0.401793 0.456047 -0.025991 -0.823395 0.328481 -0.680236 0.917399 0.144180 0.781781 -0.111582 -1.469327 -0.594248 -0.610393 -0.040220 -0.246088 -0.067872 -0.939912 -0.584841 -1.046601 0.971943 0.934343 0.056111
218 -0.643062 -0.384261 0.282003 -0.249978 0.634481 0.563727 -0.670378 0.810686 1.348981 1.069899 -0.271572 0.248260 0.667997 0.452486 0.130573 -0.025648 0.185654 -0.035868 -0.185543 -1.170262 -0.579866 0.248419 -0.658549 1.449290 1.110215 -0.727508 -0.196847 -1.396771 -0.713638 0.825991 1.281867 0.913141
300 -0.512182 0.054692 -1.021000 -1.036348 0.468194 1.754742 -0.625882 0.479008 1.647164 0.194939 -0.049029 -0.054449 0.193946 -1.925314 -0.200699 -0.408637 0.017721 0.347578 0.386305 -0.499168 -1.101014 0.295568 0.743697 -0.003088 0.054278 -0.196940 -0.669789 0.073974 -0.087058 0.040455 0.815216 1.597257
1039 0.200819 0.334189 0.018735 -1.127095 -0.335261 0.544114 0.773842 1.398150 0.365249 1.195867 -0.278511 -0.391330 -0.303715 -0.621619 -0.664506 0.485239 0.334645 0.303585 1.174128 0.028915 -0.836431 -0.859471 0.497847 0.453021 1.331006 0.025635 -0.641379 -1.116649 -0.113992 1.270747 0.083183 0.150850
450 -0.726648 1.082230 0.771076 -0.429915 0.517045 0.381825 -0.056751 -0.353294 0.478658 0.543617 0.056084 0.677660 -0.512709 -1.669747 0.495766 -0.755902 0.729040 -0.385452 0.199331 -1.698125 -0.576057 -0.255136 0.397170 -0.875935 0.328461 1.054554 -0.211283 -0.011409 0.630432 0.335151 2.055971 -0.004504
223 -0.387434 0.978554 -0.101615 -1.111203 0.172105 0.878007 -0.826831 -0.543777 0.295419 0.165401 -1.475374 -0.193726 -0.291315 -1.084802 -0.458810 -0.844062 0.561746 0.208082 -0.382981 -0.767469 -0.751829 0.241123 -0.370212 0.574776 0.476808 0.461388 0.395330 -1.674374 -0.257048 1.509901 -0.209341 0.557440
315 -0.550463 0.481986 0.209315 0.035680 0.094419 0.253747 -0.000336 0.670860 0.184614 0.521052 0.115866 -0.031191 0.158186 -0.898107 0.076463 -0.426912 1.323527 1.261852 -0.362082 -0.588062 0.178062 -0.495521 0.063885 0.744725 0.895287 -0.097101 -0.128369 -0.069346 -0.904954 1.000237 0.437721 -0.339794
288 0.202733 -0.397921 0.454378 -1.360391 -0.805024 0.736895 0.581410 0.042041 1.375542 0.923199 -0.346347 1.135173 -0.024974 -0.238108 0.323969 -0.791494 -0.263175 0.928232 0.601619 -1.225517 -0.075408 -0.557805 0.324866 -0.240147 1.240709 0.902807 -0.066804 -0.360213 -1.261408 0.668421 0.253161 0.139093
260 -0.397057 0.952263 -0.123849 -1.088205 0.166643 0.861295 -0.870078 -0.531606 0.319995 0.211326 -1.409861 -0.176754 -0.346282 -1.075897 -0.486984 -0.842968 0.547710 0.310369 -0.397826 -0.745391 -0.757535 0.242797 -0.349129 0.586666 0.465372 0.510175 0.348945 -1.637170 -0.265523 1.509090 -0.259110 0.619016
180 -1.273721 -0.636512 -0.310268 -0.833360 0.194249 0.157462 0.006080 0.863937 0.255063 0.658733 -0.262705 0.020149 0.480233 -0.747578 0.416715 -0.849117 0.420041 0.367084 -0.376184 -0.594839 -0.746482 -0.920156 1.377276 0.613710 -0.025789 0.638989 0.094698 -1.473235 -0.384353 0.189053 0.115565 0.757827
361 -1.024250 0.166179 0.936381 -0.374591 0.385491 0.356678 -0.114941 0.035610 1.238801 1.122124 0.965807 0.173097 -0.115932 -1.232790 -0.111997 -0.185827 1.075386 -0.173874 0.421388 0.000378 -0.739135 -0.272068 -0.132523 -0.306277 0.918776 1.073186 -0.444453 -0.809669 0.090122 0.845488 -0.315671 1.231408
56 -0.764008 1.164529 0.871027 -0.412529 0.597824 0.517388 -0.084489 -0.453578 0.422428 0.558605 0.062300 0.768452 -0.347780 -1.560902 0.454135 -0.658155 0.641635 -0.168859 0.146015 -1.814557 -0.539173 -0.127229 0.388557 -0.790624 0.460581 0.978486 -0.239971 0.026275 0.514296 0.462080 1.920243 0.121044
111 -0.380775 0.909533 -0.142657 -1.096586 0.169231 0.867350 -0.898598 -0.554075 0.259652 0.203305 -1.395714 -0.256361 -0.370563 -1.083206 -0.556566 -0.880198 0.495787 0.298137 -0.411257 -0.740201 -0.780500 0.264712 -0.379057 0.631085 0.513143 0.496435 0.364275 -1.669453 -0.208734 1.527476 -0.306834 0.616555
662 -1.104639 0.106092 0.877485 -0.423803 0.600854 0.373758 -0.144557 0.057219 1.284649 1.154509 0.981896 0.289477 -0.043584 -1.147258 -0.038842 -0.151544 1.062025 -0.236242 0.408763 0.019836 -0.751815 -0.287409 -0.093564 -0.363951 0.894519 1.054526 -0.518580 -0.844526 0.121131 0.829732 -0.322936 1.220805
417 -0.534622 0.029707 -1.041093 -1.013003 0.457695 1.639860 -0.607547 0.315319 1.561760 0.208762 -0.050183 -0.039420 0.077415 -1.911997 -0.256302 -0.359156 0.083537 0.423387 0.337497 -0.542862 -1.069325 0.380553 0.718032 0.113527 0.053481 -0.267818 -0.641240 0.160999 0.014440 0.009475 0.865423 1.538568
231 -0.055080 -0.520025 0.805598 -1.536339 0.479197 0.027603 0.544784 -0.842623 1.177181 0.563888 -0.662665 -0.388385 -0.150123 -1.469075 0.567579 0.167249 1.036406 0.210028 -0.139898 -0.347746 -0.853547 -0.954446 -0.154166 0.341522 0.235229 -0.403304 0.324277 0.413763 -0.092949 0.745282 0.764619 0.840734
882 -0.505667 0.295250 0.750063 -1.384909 0.067968 1.326999 -0.104547 0.052478 -0.174159 0.742392 0.029230 -0.626575 0.195879 -1.451512 0.466706 -1.073841 0.547936 -0.034333 0.025972 -0.859565 -1.701556 0.204122 -0.341453 1.490962 1.198679 0.805534 -1.020050 0.767125 0.228849 0.277115 0.396069 -0.515664
1000 0.204427 -0.272330 0.753835 -1.650300 0.219171 -0.020088 0.187490 -0.979709 0.907993 0.609513 -0.631934 -0.501495 0.014419 -1.544052 0.571693 0.163491 1.244388 0.288982 -0.102495 -0.073271 -0.852692 -0.919189 -0.279416 0.095937 0.113879 -0.538739 0.194425 0.446804 -0.198855 0.973594 0.841075 0.807330
973 -0.524745 0.530746 0.293397 -0.003219 0.195852 0.224722 0.006435 0.516034 0.113392 0.369250 0.155482 0.038692 0.074406 -1.010307 0.141555 -0.432607 1.482703 1.120719 -0.336410 -0.602991 0.111357 -0.453005 0.100537 0.622071 0.687729 -0.162719 -0.231133 -0.068715 -0.970721 0.972014 0.417549 -0.370635
1041 0.329339 0.412656 0.092530 -1.088564 0.172683 0.341278 0.531135 1.480878 0.758118 0.555437 -0.468821 -0.291343 -0.027597 -0.444035 -0.681137 0.318582 0.684448 -0.161225 1.064823 -0.076985 -0.752819 -0.991311 1.265494 0.571283 1.230042 0.233958 -0.739484 -0.818289 -0.145926 1.348904 0.265436 0.063794
205 -0.476243 0.875312 0.365047 -1.215110 -0.348492 0.981963 -1.211975 0.505599 0.464990 0.626184 -0.130635 0.349143 0.767514 -1.118405 0.837947 -0.035317 0.625110 0.303808 0.781094 -0.231862 -0.522844 -0.827919 0.004717 -0.371484 0.051923 -0.475476 -1.364075 -0.508606 -0.112176 -0.162006 0.695663 -0.515381
989 -0.525770 0.509597 0.246032 0.030050 0.094711 0.314328 0.028119 0.663488 0.257204 0.439778 0.143241 -0.034366 0.192513 -0.877216 0.093730 -0.363900 1.228290 1.226934 -0.378992 -0.588754 0.230611 -0.448847 -0.024256 0.622335 0.918193 -0.094235 -0.097418 -0.051007 -1.068880 1.019830 0.471005 -0.253603
279 0.065696 -0.392883 0.835150 -1.566392 0.358169 0.024634 0.471335 -0.892806 1.097325 0.664446 -0.634880 -0.429376 -0.070606 -1.545626 0.594241 0.121728 1.210560 0.238145 -0.181386 -0.077788 -0.904050 -1.035181 -0.217128 0.221005 0.166376 -0.373220 0.274629 0.346765 -0.165312 0.954171 0.724334 0.894807
11 0.040403 -0.833084 -0.076215 -1.466985 -0.327128 1.787224 -0.352375 0.788075 0.802036 0.735207 0.416106 0.315432 -0.780151 -0.852491 0.770737 -0.906618 0.685521 0.012712 -0.256084 -0.061412 -1.407824 -0.420713 -0.486330 0.098662 -0.304227 -0.736732 0.408744 -0.972651 -1.075533 0.788865 0.068782 0.029470
139 0.027216 -0.843380 -0.106458 -1.428288 -0.340826 1.815192 -0.313155 0.765405 0.789800 0.767266 0.385737 0.291089 -0.664556 -0.904723 0.796682 -0.943002 0.711530 0.057174 -0.292222 -0.065562 -1.388634 -0.439439 -0.461176 0.081003 -0.319778 -0.791727 0.362668 -0.895767 -1.125273 0.754050 0.090808 -0.008338
158 -1.263794 -0.610336 -0.385438 -0.853083 0.144364 0.175364 -0.021971 0.762159 0.201843 0.631298 -0.214184 0.026481 0.517990 -0.839683 0.505597 -0.801784 0.458810 0.366951 -0.415443 -0.635184 -0.731563 -0.900965 1.408472 0.531608 -0.171874 0.531732 0.155906 -1.440908 -0.262336 0.219491 0.122665 0.762443
413 -1.123961 0.139739 0.854269 -0.417412 0.586680 0.338416 -0.153292 0.050753 1.367851 1.069586 0.929218 0.200122 -0.034558 -1.145300 -0.057803 -0.207581 1.106034 -0.231980 0.414964 0.014497 -0.741122 -0.214675 -0.103506 -0.321188 0.945022 1.004915 -0.512713 -0.865496 0.134103 0.793306 -0.323573 1.299824
340 -0.467640 0.428813 0.221784 0.054244 0.084803 0.392680 0.058338 0.650141 0.335154 0.323626 0.114655 0.016863 0.144001 -0.899276 0.309225 -0.483555 1.277050 1.332651 -0.413925 -0.626824 0.171613 -0.507972 -0.026582 0.591787 0.976052 -0.303872 -0.049886 -0.223761 -0.951629 0.802825 0.503869 -0.391100
529 -0.412103 0.392919 0.350165 -0.017356 0.076781 0.361377 0.066726 0.543445 0.122694 0.214500 0.174211 0.042333 0.019949 -0.946067 0.349068 -0.404008 1.474315 1.100446 -0.421899 -0.654322 0.066528 -0.434395 0.095054 0.629006 0.809523 -0.419434 -0.257177 -0.133141 -1.050677 0.773804 0.425277 -0.433615
920 0.175500 0.247925 0.066060 -0.978853 0.112675 0.389047 0.586070 1.455422 0.869058 0.426797 -0.401703 -0.215662 -0.038165 -0.419146 -0.524226 0.301173 0.725586 -0.229413 1.148289 -0.109640 -0.797230 -1.043056 1.251701 0.595016 1.366970 0.196420 -0.700529 -0.791239 -0.174134 1.440381 0.148930 0.022484
483 -0.497005 0.477452 0.278166 -0.095370 0.123397 0.370775 0.116494 0.517295 0.185429 0.131962 0.167164 0.070756 0.083745 -1.029227 0.273911 -0.359556 1.411598 1.256545 -0.363028 -0.610082 0.093952 -0.418268 0.041094 0.696019 0.794093 -0.267794 -0.257753 -0.191701 -1.007658 0.838501 0.419894 -0.354780
190 -1.203390 -0.596034 -0.402884 -0.828065 0.264678 0.141701 -0.131643 0.766112 0.253940 0.625067 -0.265665 0.033710 0.554637 -0.794719 0.405229 -0.716822 0.404602 0.325109 -0.419354 -0.610748 -0.717282 -0.893209 1.403826 0.619405 -0.130503 0.557778 0.041355 -1.416646 -0.283546 0.090021 0.121587 0.788810
403 -0.495637 -0.032748 -1.066525 -0.976958 0.386432 1.698560 -0.661716 0.516340 1.647033 0.118873 0.037190 -0.039094 0.167869 -1.895080 -0.121828 -0.426750 -0.048595 0.288504 0.430162 -0.511420 -1.149826 0.363287 0.734282 -0.100460 0.139029 -0.173593 -0.679506 0.051900 -0.126175 -0.032483 0.780698 1.536753
1011 0.239657 0.305595 0.052476 -0.981262 0.101698 0.360716 0.561924 1.473365 0.804880 0.520358 -0.441377 -0.235488 -0.038393 -0.441719 -0.573219 0.306329 0.704005 -0.219127 1.151181 -0.096642 -0.797148 -1.018787 1.136750 0.589008 1.409310 0.261343 -0.671924 -0.838811 -0.195051 1.454723 0.167551 0.027427
1171 -0.407454 0.427852 0.148475 0.004292 0.285853 0.381223 -0.019060 0.603396 0.143306 0.393182 0.234492 0.085826 0.062507 -0.932071 0.247270 -0.383418 1.425696 1.087409 -0.297965 -0.516233 0.157877 -0.429071 0.075615 0.608701 0.805056 -0.270981 -0.141806 -0.092499 -1.057869 0.939061 0.546990 -0.413441
633 -0.100504 0.669731 0.046784 -0.648961 0.487893 2.037839 -0.722918 0.290839 0.461307 0.125102 -0.106191 0.866819 0.600453 -0.000652 0.141616 0.101135 0.212532 -0.238238 1.200867 -0.183329 -1.514899 -0.863555 -0.460355 1.205184 0.367605 0.977639 0.272824 -0.290573 -0.123656 1.398549 0.713017 0.866830
1066 0.110139 0.268987 0.031383 -1.039729 -0.150597 0.492382 0.736149 1.423155 0.584789 0.834712 -0.295041 -0.297860 -0.109412 -0.637885 -0.561054 0.392713 0.538858 0.116752 1.286753 -0.037720 -0.815445 -0.949128 0.844466 0.462689 1.447273 0.138308 -0.678128 -0.957937 -0.130990 1.385478 0.013696 0.039308
1243 -0.447540 0.949080 0.331740 -1.267909 -0.371389 1.023078 -1.137637 0.566178 0.433448 0.563459 -0.156151 0.279885 0.786417 -1.154402 0.797352 -0.032579 0.689973 0.308938 0.877415 -0.200124 -0.533718 -0.848603 0.024705 -0.401087 0.134149 -0.477845 -1.499739 -0.531383 -0.172389 -0.176172 0.730144 -0.580100
1156 0.140571 0.267512 0.014741 -0.967738 0.055991 0.430762 0.607728 1.501500 0.748272 0.624649 -0.377245 -0.222847 -0.082145 -0.467755 -0.560145 0.308149 0.710939 -0.125171 1.197819 -0.083661 -0.825826 -0.971850 1.006608 0.541066 1.388381 0.221834 -0.651701 -0.835754 -0.113231 1.423484 0.105513 -0.037759
365 -0.465798 0.843574 0.329022 -1.288118 -0.347020 0.996364 -1.174186 0.524573 0.488549 0.586033 -0.153117 0.368148 0.769391 -1.152096 0.834199 0.019779 0.676723 0.247462 0.764493 -0.176617 -0.487766 -0.874345 0.003613 -0.324911 0.042228 -0.470989 -1.369653 -0.523130 -0.130500 -0.190427 0.675997 -0.483163
40 -0.486415 0.497383 0.239625 0.004976 0.112710 0.419794 0.108140 0.660684 0.197865 0.327412 0.197210 0.020932 0.078330 -0.934476 0.196292 -0.441728 1.337276 1.136442 -0.366080 -0.573525 0.190156 -0.463475 0.002737 0.573565 0.849244 -0.221567 -0.171694 -0.140988 -1.018633 0.911883 0.457057 -0.352690
106 -0.992477 0.168794 0.866488 -0.257440 0.329798 0.397847 -0.070510 -0.062265 1.426619 0.942697 0.834410 0.142387 0.041276 -1.105300 -0.071300 -0.535136 1.122116 -0.287587 0.540074 -0.042391 -0.705406 -0.281550 -0.257847 -0.300325 0.999891 0.995214 -0.418423 -0.976826 0.100728 0.718146 -0.195752 1.421707
889 0.285877 0.360753 0.032171 -1.093476 0.043764 0.414618 0.649805 1.534256 0.675060 0.790406 -0.375662 -0.367779 -0.138326 -0.535615 -0.698864 0.434107 0.506019 -0.037547 1.039347 -0.018385 -0.762535 -0.975564 1.004490 0.532005 1.189894 0.115236 -0.679299 -0.934976 -0.114202 1.357977 0.243252 0.201401
785 -0.335536 0.534451 0.411660 -0.925233 -2.103659 0.094512 -0.670162 0.021437 0.294034 0.676731 -0.563556 -0.557140 0.421080 -1.032546 0.616744 -0.469297 -0.356548 -0.185093 -0.002375 -0.821783 -1.344004 -0.153919 0.280678 1.003579 1.226165 -0.736401 -0.835355 -0.479570 -1.194198 0.601827 0.190598 0.861006
1100 -0.158701 0.695806 0.130189 -1.823612 -0.197805 0.576066 -0.065974 1.418745 0.689048 0.907823 -0.260437 1.292151 -0.092128 -0.325845 -0.258316 0.665273 0.842011 -0.740907 0.699163 -1.666377 -1.922112 0.828653 0.120268 -0.180882 -0.053333 -0.202993 -0.254987 -0.474852 -0.474347 0.571876 0.956227 -0.614300
536 -0.420975 0.418948 0.070229 0.077435 0.220355 0.284549 0.015802 0.637779 0.141901 0.526631 0.157626 -0.007296 0.127455 -0.941940 0.157983 -0.419922 1.465227 1.123839 -0.345682 -0.605599 0.151436 -0.542910 0.061436 0.799476 0.713653 -0.298265 -0.217445 -0.081212 -0.927839 0.959461 0.471704 -0.379214
637 -0.188373 0.657639 -0.003876 -0.539047 0.500173 2.050599 -0.633267 0.271220 0.517676 0.098173 -0.144978 0.829654 0.606983 -0.111406 0.129044 0.174324 0.245441 -0.304733 1.242251 -0.234379 -1.475035 -1.000164 -0.411817 1.224301 0.463177 0.958585 0.313524 -0.295642 -0.112182 1.401169 0.742795 0.916787
781 -0.133279 0.705386 0.203689 -1.740597 -0.248200 0.565171 -0.045392 1.310358 0.678492 0.917420 -0.296294 1.314482 -0.120926 -0.323670 -0.268345 0.647898 0.846617 -0.742529 0.719478 -1.647226 -1.858079 0.810803 0.078258 -0.044280 0.009206 -0.195710 -0.281137 -0.513474 -0.485891 0.539458 1.004501 -0.585717
570 -0.453998 0.441678 0.231022 0.014855 0.146504 0.459098 0.065726 0.662184 0.296394 0.247436 0.270640 0.041652 0.043707 -0.937464 0.373376 -0.394214 1.338005 1.202340 -0.401138 -0.584911 0.087157 -0.407723 0.020185 0.588630 0.892628 -0.323363 -0.155448 -0.169507 -1.048413 0.825121 0.467962 -0.385306
841 -0.100551 0.693212 0.164671 -1.756578 -0.292352 0.605798 -0.013161 1.418761 0.697732 0.885889 -0.279645 1.248841 -0.114155 -0.312720 -0.282469 0.528177 0.836340 -0.792281 0.659816 -1.578433 -1.905025 0.806438 0.079932 -0.122926 -0.016211 -0.139479 -0.270705 -0.480671 -0.402599 0.451335 0.866401 -0.562218
917 -0.474484 0.447325 0.250737 -0.039129 0.066401 0.284791 0.102272 0.507979 0.248572 0.215396 0.140646 -0.022538 0.190873 -1.007548 0.343795 -0.400950 1.384037 1.177186 -0.365401 -0.698664 0.132696 -0.460251 0.104286 0.781518 0.854528 -0.368552 -0.246164 -0.173488 -1.066887 0.704119 0.416313 -0.315623
887 -0.196878 0.670325 -0.007858 -0.546828 0.471890 2.004022 -0.643444 0.289567 0.479321 0.081943 -0.113037 0.808124 0.684664 -0.161360 0.136835 0.128168 0.259326 -0.322947 1.214063 -0.248149 -1.488300 -0.922003 -0.342224 1.170885 0.456419 1.006518 0.327967 -0.267354 -0.043601 1.369964 0.663716 0.834976
851 -1.211667 -0.566721 -0.443767 -0.880800 0.153522 0.117848 -0.085718 0.757597 0.276914 0.644766 -0.274732 -0.036525 0.542603 -0.847772 0.439412 -0.811367 0.436343 0.392587 -0.345530 -0.577682 -0.734121 -0.960370 1.360797 0.573545 -0.174457 0.578337 0.142149 -1.432922 -0.375517 0.185846 0.152217 0.769308
186 0.070547 0.219538 -0.071578 0.293885 -0.525824 0.940445 -0.342097 0.680547 1.020301 0.300175 -0.509975 -0.220771 0.291956 -0.815833 1.504633 0.204357 0.302670 -0.163631 -0.184072 -0.573766 -0.323122 -1.107500 0.266276 -0.476542 1.084142 0.146796 0.287467 -0.750766 -0.711643 0.500452 1.314716 1.558280
1143 -0.162159 0.705516 -0.009652 -0.519832 0.506062 1.970573 -0.688368 0.356052 0.507718 0.102916 -0.139230 0.847187 0.721977 -0.170160 0.118923 0.122300 0.212621 -0.315207 1.244012 -0.282448 -1.543298 -0.886493 -0.384293 1.158949 0.506939 1.032679 0.343130 -0.309461 -0.073482 1.327474 0.739899 0.794374
835 -0.334567 0.559664 0.383017 -0.967537 -2.096487 0.065162 -0.645091 0.049340 0.287249 0.683234 -0.617129 -0.600532 0.392769 -1.032933 0.634108 -0.457268 -0.392872 -0.211052 -0.015588 -0.812664 -1.357669 -0.183373 0.277370 1.048695 1.198512 -0.745640 -0.831018 -0.489223 -1.180685 0.617624 0.187566 0.821156
477 -0.546305 0.466969 0.304792 -0.090354 0.061368 0.237591 0.070671 0.470667 0.216788 0.210749 0.105635 -0.120193 0.311889 -1.030638 0.367794 -0.361608 1.414400 1.200387 -0.455137 -0.735587 0.205224 -0.460709 0.100005 0.786702 0.951719 -0.361071 -0.263281 -0.129681 -1.031717 0.651069 0.438670 -0.298295
1054 0.100507 0.201869 0.025456 -1.029797 -0.338607 0.569716 0.793722 1.443745 0.500183 1.091063 -0.187565 -0.332593 -0.259465 -0.636830 -0.571126 0.441384 0.412218 0.316651 1.260399 0.031475 -0.843007 -0.910833 0.524367 0.483583 1.458846 0.035335 -0.572351 -1.093390 -0.146793 1.374222 -0.062031 0.082226
239 -0.465951 0.453911 0.311004 -0.109985 0.106196 0.227108 0.155693 0.520254 0.135583 0.150002 0.119208 0.027608 0.207188 -1.101797 0.373834 -0.421607 1.526211 1.207737 -0.342759 -0.745197 0.082509 -0.433171 0.159998 0.820706 0.848021 -0.344287 -0.298291 -0.174543 -1.033252 0.682889 0.365253 -0.353248
101 -1.203222 -0.661702 -0.343859 -0.792427 0.153096 0.128678 -0.095742 0.760745 0.299572 0.626767 -0.288637 0.041972 0.540141 -0.845609 0.454016 -0.816121 0.509591 0.419333 -0.415606 -0.544157 -0.686880 -0.936770 1.411341 0.649255 -0.128950 0.595600 0.034677 -1.482257 -0.440073 0.141057 0.092764 0.852549
53 -1.214884 -0.581600 -0.373584 -0.873633 0.219015 0.084531 -0.139579 0.760760 0.305989 0.646365 -0.344208 0.055793 0.518339 -0.849767 0.384459 -0.762706 0.477477 0.398982 -0.381349 -0.549339 -0.681695 -0.938109 1.399343 0.622651 -0.086016 0.617276 0.022905 -1.489185 -0.397494 0.106101 0.151422 0.822539
516 -0.614846 -0.172535 -0.030377 -0.209030 0.584745 0.423873 -0.506139 0.958936 1.203447 1.049152 -0.541349 0.076372 0.692513 0.426610 0.182576 -0.124334 0.229913 -0.170979 -0.117809 -0.877289 -0.665902 0.215898 -0.758996 1.711419 0.979796 -0.856643 -0.335710 -1.272421 -0.732080 0.750997 1.363017 0.840019
505 -0.442219 0.444876 0.177529 -0.007995 0.114219 0.388716 -0.019436 0.597703 0.207498 0.374919 0.102973 0.061302 0.079046 -0.881815 0.243181 -0.383665 1.381965 1.201097 -0.418857 -0.678868 0.106795 -0.458542 -0.037098 0.679415 0.903804 -0.365557 -0.172619 -0.177666 -0.889216 0.929516 0.466502 -0.436564
87 -0.660549 -0.529077 0.260340 -0.471045 0.589620 0.562660 -0.616201 0.685769 1.438826 0.942684 -0.320656 0.132196 0.640941 0.545475 0.042820 -0.065690 0.296507 0.077538 -0.343364 -1.157330 -0.533354 0.208591 -0.600717 1.465154 0.968930 -0.652440 -0.398844 -1.511131 -0.608499 0.722337 0.959674 1.075879
818 0.511566 0.737334 1.523798 -1.229477 0.339152 -0.112878 0.223423 1.278690 1.613493 1.447913 0.128111 -0.078537 0.908046 -0.152257 0.766281 -0.877544 0.692047 0.170069 -0.035090 -0.170045 -1.033410 -0.783060 0.269691 0.752139 -0.294887 0.084570 -0.570394 -0.203889 -1.136361 -0.005621 0.071175 0.625081
1133 0.393105 0.543621 0.057412 -1.098186 -0.634093 0.825875 0.162220 -0.229873 0.760283 0.865215 -0.572632 0.618513 0.835773 -1.528688 0.024891 -0.842258 0.150883 1.036567 0.625529 -0.410342 -0.300267 -1.753862 -0.220332 1.331245 -0.754184 0.391375 -0.059937 -0.727377 -0.584282 0.070680 1.009267 1.171501
502 -0.506108 0.482244 0.210401 0.023410 0.158741 0.314092 0.006011 0.603481 0.191777 0.565285 0.142956 -0.025367 0.132227 -0.920581 0.077444 -0.448919 1.457664 1.169788 -0.374397 -0.594901 0.226996 -0.579040 -0.038540 0.750019 0.775397 -0.176175 -0.079352 -0.119421 -0.904090 0.883167 0.464104 -0.337962
767 -0.186345 0.736216 0.175057 -1.689722 -0.273056 0.543934 -0.060333 1.358968 0.664055 0.984861 -0.370727 1.286072 -0.099998 -0.323590 -0.239994 0.663420 0.843055 -0.767522 0.744751 -1.639867 -1.844518 0.776890 0.116396 -0.074553 -0.014160 -0.193792 -0.325920 -0.501896 -0.423816 0.632157 0.984905 -0.611066
568 -0.269014 0.547837 0.466455 -0.914929 -2.085340 0.103991 -0.672573 0.010609 0.329997 0.654793 -0.546378 -0.527233 0.404796 -1.058871 0.572461 -0.445027 -0.318537 -0.188293 -0.014666 -0.857196 -1.386595 -0.160693 0.310900 1.031564 1.275634 -0.768706 -0.915497 -0.530397 -1.196136 0.676152 0.156031 0.808780
498 -0.478921 0.478726 0.147575 -0.021969 0.249762 0.321420 0.060977 0.603131 0.155314 0.399812 0.213987 0.026702 0.121372 -1.006269 0.214002 -0.410188 1.387442 1.207146 -0.316935 -0.515682 0.221578 -0.422737 0.061016 0.616255 0.831964 -0.145386 -0.154907 -0.096705 -0.915338 0.921594 0.421402 -0.260951
923 -0.591745 0.290612 0.420627 -1.007288 -0.025726 0.813308 -0.096023 0.551917 0.845301 0.905188 -0.313088 0.351630 0.263189 -1.154599 0.398567 -0.454789 0.943014 0.415705 0.212834 -0.810968 -1.011042 -0.601076 0.252339 0.540766 0.630308 0.056035 -0.445634 -0.722492 -0.666895 0.944921 0.816440 0.758979
140 -0.357023 -0.038941 -0.939809 0.345674 0.115494 0.079120 -0.487325 0.235779 1.533064 1.565990 -0.263702 0.660338 -0.748133 -1.057612 0.287407 0.113489 0.433281 0.761537 -0.070250 -1.606895 -1.170238 -0.183258 -0.637457 -0.320992 1.244198 0.184338 -0.156405 -0.853965 0.425773 1.509588 1.046699 -0.111929
552 -1.552588 1.152628 0.362508 -1.403826 -0.249406 0.070437 0.642200 0.078385 0.472486 0.842115 -0.677320 0.409306 -0.411420 0.563470 0.145348 -1.216319 0.748842 0.633799 0.523849 -0.168546 -0.446582 -0.357821 -0.191658 1.184717 0.789632 -0.341398 -0.755170 -0.355304 0.450937 0.503932 1.113164 1.076555
843 -1.853812 1.502542 0.329863 -1.146049 0.783890 0.697013 0.209496 -0.422134 0.708351 0.095666 -0.025287 -0.185580 0.784023 -1.212321 1.427347 0.616092 0.539981 0.873223 -0.038534 -0.158298 -1.319308 0.471319 0.182786 -0.891676 0.068634 -0.132302 -0.580728 -0.389799 -1.178138 0.732327 0.740398 1.190683
249 -1.369243 0.596521 0.493036 -0.184332 -0.295157 1.418222 -0.579750 -0.008589 -0.403429 1.843778 -0.108769 0.136165 -0.311643 -0.299533 0.978960 -0.286818 0.667628 -0.322231 -0.609107 -0.522136 -1.573255 0.875293 -0.117589 0.294074 0.205665 -0.974657 -0.374978 0.030427 -0.174433 1.491939 0.675677 1.737172
430 -0.473434 0.143959 -0.918739 0.259045 0.094230 0.159791 -0.706112 0.233039 1.381534 1.589817 -0.321602 0.523918 -0.912472 -1.028934 0.347506 0.206076 0.388597 0.671513 -0.319027 -1.470356 -1.516673 -0.089347 -0.253404 -0.530529 1.324702 -0.059116 -0.516366 -0.786129 0.331141 1.307130 0.792181 -0.150704
1090 -0.098926 -0.494353 0.166492 -0.348894 0.794744 0.752201 -0.068542 0.161497 0.364625 2.225152 -1.001461 0.974773 -0.100396 -0.025898 -0.061237 0.342491 1.121852 0.269226 -0.077750 -0.755135 -1.770219 -0.598272 0.641571 0.429254 -0.611271 -0.886181 -0.968593 -0.333483 -1.431261 0.341948 0.625128 0.779246
845 -1.352286 0.592237 0.441420 -0.250530 -0.303425 1.456736 -0.566892 -0.030715 -0.368018 1.830552 -0.107491 0.171325 -0.268651 -0.310107 1.050682 -0.313714 0.690699 -0.288458 -0.622964 -0.555863 -1.614209 0.849701 -0.148019 0.327177 0.244802 -0.977490 -0.441235 0.053520 -0.180332 1.504308 0.720569 1.748108
511 -0.440121 0.431314 0.245857 -0.020718 0.063684 0.281323 0.194509 0.678962 0.221796 0.369542 0.139331 -0.097837 0.237919 -1.003205 0.263598 -0.408894 1.340353 1.201589 -0.315539 -0.605037 0.222240 -0.461853 0.062560 0.699424 0.913069 -0.262462 -0.233352 -0.103137 -1.012934 0.839229 0.380796 -0.251564
147 0.523522 0.739401 1.474998 -1.204781 0.357869 -0.111049 0.205705 1.291843 1.663840 1.438251 0.125711 -0.093738 0.914521 -0.192355 0.733396 -0.854873 0.665415 0.188854 -0.074135 -0.160026 -1.044346 -0.784219 0.218624 0.748605 -0.297907 0.054923 -0.557103 -0.227747 -1.125588 -0.032930 0.043184 0.652490
947 -1.012326 0.279148 0.875196 -0.137660 0.252385 0.332610 -0.056585 -0.061049 1.472426 0.942777 0.798972 0.087298 0.083569 -1.230060 -0.048484 -0.563516 1.035110 -0.165486 0.610819 -0.054733 -0.530542 -0.349754 -0.218814 -0.240090 1.107094 1.109970 -0.445210 -0.870779 0.015519 0.777187 -0.152602 1.301167
828 0.437263 0.604902 1.327970 -1.373267 0.154307 -0.038996 0.056578 1.265586 1.724563 1.334403 0.137228 -0.064588 1.015501 -0.227082 0.777589 -0.982342 0.638373 0.269529 -0.309544 -0.163192 -1.058399 -0.779563 0.089348 0.650589 -0.239546 -0.139341 -0.381086 -0.211054 -1.220270 -0.099961 -0.075158 0.770364
0 -0.536360 0.231142 0.365431 -0.893779 -0.013467 0.754697 -0.092149 0.415544 0.689042 0.761698 -0.255028 0.289968 0.191630 -0.931431 0.381836 -0.363410 0.790787 0.324358 0.148169 -0.673588 -0.900030 -0.470590 0.201865 0.414816 0.468326 0.067738 -0.375960 -0.620612 -0.549127 0.764273 0.699598 0.657860
342 -0.124979 0.350477 -0.752521 -1.051309 0.789869 -0.485730 -0.412874 0.999542 0.902282 0.317911 -0.817224 0.839007 1.004134 -1.610543 0.795706 -0.737405 0.174698 0.712959 1.533103 -0.550449 0.021949 -0.061751 0.806477 0.270571 0.779502 0.078511 0.361082 0.082682 0.476995 2.029284 0.902095 0.406552
716 -0.515644 1.229459 0.429167 -0.575585 -0.755349 1.040157 -0.544898 2.115467 0.847496 0.065361 -0.631025 0.346886 0.027909 -0.534313 0.520431 -0.748097 0.147584 -0.580338 0.677681 -1.124539 -0.323045 0.888115 -0.843267 0.234807 1.365492 -0.413681 -0.953607 0.013999 0.273933 2.088194 1.259863 0.358945
1266 -0.686774 0.465542 0.352866 -1.123983 0.009133 0.840548 -0.235992 0.530928 0.751524 0.899184 -0.268138 0.291865 0.343183 -1.303377 0.482386 -0.376582 0.967220 0.234248 0.293159 -0.812433 -1.029490 -0.475794 0.163522 0.338826 0.650494 0.178497 -0.627867 -0.626712 -0.604991 1.021662 0.772639 0.722015
1060 0.271658 1.825211 1.249375 -0.514644 -1.191692 1.604993 -0.724838 -0.111859 0.051589 0.665087 -0.761688 0.484297 -0.105280 -1.526281 0.501101 0.266828 0.734764 0.133847 0.720311 -0.932019 -0.756951 -0.911644 0.537221 -0.067592 1.011859 -0.116235 0.251213 1.417404 -0.559917 1.317919 0.406543 0.588979
1062 -1.291472 -0.118346 0.884945 -0.702433 -0.050477 0.251773 -0.296506 -0.383688 0.372544 0.569913 0.084897 0.658611 1.591366 -0.813354 1.421291 -1.857073 1.253912 -0.980332 -0.832094 -1.349459 -1.489235 -0.158114 -0.257047 -0.057382 -0.790600 -0.459965 0.376252 -0.641797 -0.544248 1.004436 0.957474 0.615307
295 -0.429803 0.319675 0.270601 -0.948532 -0.064628 0.801110 -0.135875 0.360495 0.723647 0.931686 -0.342779 0.404050 0.305363 -1.178829 0.271493 -0.398679 0.853503 0.234458 0.133943 -0.818436 -0.940746 -0.733233 0.170618 0.410154 0.465687 -0.060364 -0.405112 -0.648953 -0.510995 0.938370 0.832424 0.618014
1129 -0.587895 0.327866 0.542832 -0.998537 -0.000443 0.710171 -0.136164 0.550838 0.601852 0.493228 -0.228817 0.363245 0.292043 -1.228955 0.494688 -0.365311 0.941978 0.392827 0.228582 -0.886085 -0.857520 -0.221463 0.279691 0.209975 0.556058 0.082906 -0.586050 -0.572808 -0.412455 1.065041 0.684844 0.413053
593 -1.384995 -0.233860 0.510183 -2.228711 0.033918 1.633666 -0.605730 0.741868 -0.053816 1.084149 0.358134 -0.094817 -0.919712 -0.556401 -0.393049 0.397985 0.574279 0.521298 0.579571 -0.517430 -1.192887 -0.809725 0.430301 -1.800909 0.207691 -0.095959 -0.046993 -0.836890 -0.102947 1.839144 0.614263 0.397504
1080 -0.676774 0.437308 0.521802 -0.784941 0.115429 0.904222 -0.043460 0.432333 0.998892 0.883715 -0.377710 0.422425 0.144644 -1.242855 0.188293 -0.493955 1.028085 0.354421 0.370639 -0.771358 -1.095498 -0.342866 0.244576 0.234307 0.673153 0.025446 -0.384241 -0.885384 -0.576165 0.971380 0.891320 0.836072
1127 -0.662458 0.267787 0.423559 -1.032678 -0.005101 0.834487 -0.070911 0.584281 0.875070 0.897430 -0.341209 0.347667 0.252457 -1.180309 0.449812 -0.444959 0.919045 0.396285 0.236543 -0.830051 -1.080661 -0.578024 0.248258 0.512306 0.666720 0.067232 -0.465120 -0.713059 -0.685929 0.982103 0.836857 0.728735
274 -0.610308 0.390955 0.479748 -0.549216 0.145692 0.589899 -0.434553 0.255304 0.550064 1.016466 -0.536736 0.468604 -0.070423 -0.922669 0.158734 -0.435701 0.961150 0.240066 0.080182 -0.919966 -0.871966 -0.106820 -0.150486 0.592451 0.487656 0.061404 -0.391218 -0.647995 -0.365545 0.792561 1.040905 0.462527
738 -0.662063 0.337263 0.497409 -1.135865 0.016943 0.935613 -0.118375 0.611872 0.957858 1.021620 -0.366208 0.423186 0.297830 -1.286461 0.473079 -0.519921 1.062408 0.420489 0.245756 -0.942137 -1.184104 -0.681959 0.270632 0.548845 0.719047 0.065092 -0.505516 -0.800470 -0.765560 1.084249 0.939125 0.874581
18 -0.033108 -0.011764 -0.374687 -1.267157 -0.481197 1.849104 -0.620999 0.666162 0.436788 0.844321 -1.459083 1.360167 -0.028962 -0.867506 0.812878 -0.504773 -0.306288 1.092719 -0.937165 -1.337365 0.003438 0.271697 -0.134072 0.305479 -0.097467 -0.707112 -0.220528 -0.322011 -0.233165 1.156616 1.911448 -0.235842
1236 -0.972023 0.876097 0.676319 -1.728067 -1.306995 1.501048 0.389112 -0.472958 0.164999 -0.235569 -0.489332 -0.041326 -0.535953 -1.327339 0.478916 -0.053158 0.796306 -0.528135 1.165108 -0.002675 -0.699838 0.285956 1.295432 0.421892 0.092162 0.977496 -1.122067 -0.146260 -0.269297 1.555270 0.274671 1.593432
444 -0.021424 0.038877 -0.374788 -1.252549 -0.471226 1.858926 -0.636531 0.671126 0.497477 0.834777 -1.453456 1.401625 -0.065704 -0.900963 0.832439 -0.488472 -0.309405 1.096625 -0.905115 -1.333729 -0.004775 0.298721 -0.197011 0.298044 -0.129664 -0.709929 -0.264475 -0.227383 -0.296868 1.097401 1.942491 -0.260342
1245 -0.752544 0.177419 0.377450 -0.862866 -0.004257 0.510031 -0.146839 0.232480 0.629150 0.715348 -0.449832 0.601974 0.376727 -0.979405 0.456712 -0.491396 0.650208 0.154880 0.232237 -0.767552 -0.851132 -0.419425 0.207056 0.536880 0.292780 0.217544 -0.462274 -0.339468 -0.398044 0.734173 0.860153 0.828657
747 -1.087110 1.145515 0.944530 -1.085278 1.487404 1.136935 1.182560 1.540841 0.356619 0.857004 0.082213 0.642263 1.163838 -0.336705 1.053333 -0.115594 1.499829 -0.440951 -0.182776 -1.043513 -1.336366 0.598047 -0.433778 0.474085 0.515269 -0.444537 0.403122 0.952771 -0.512141 1.029986 0.439744 0.402685
748 -0.794398 -0.027188 0.908937 -0.724215 0.734933 0.278245 0.243325 0.772593 0.205095 0.709529 -0.022487 0.372079 -1.965732 -0.448855 0.920914 -0.124343 0.530293 0.001778 -0.454441 -2.072664 -1.534457 0.582819 0.020014 -0.060774 0.813465 0.344867 0.607519 0.227764 -1.776358 1.732922 0.817569 0.470053
232 0.002367 0.440476 0.867885 -1.467886 -0.510196 1.255293 0.085518 -0.052571 -0.262361 0.462509 0.557409 1.265255 -0.201368 -0.989814 1.815660 -1.011578 1.795932 0.055690 -1.217187 -1.447767 -0.932386 -0.698120 -0.037344 -0.079869 0.075755 -0.579301 -0.393926 -0.271448 -0.189798 -0.807571 1.295022 1.325617
1198 -0.422152 0.659460 0.618617 -0.975132 0.078122 0.787754 -0.099695 0.546271 0.794782 0.519370 -0.299630 0.624585 0.250993 -1.169331 0.589598 -0.477482 0.968424 0.191670 0.222197 -0.865056 -1.061922 -0.335932 0.143100 0.246093 0.457123 0.259439 -0.317826 -0.241386 -0.478368 0.843650 0.753456 0.609427
1059 -1.361447 -0.105754 0.939422 -0.764488 -0.046851 0.314691 -0.337919 -0.430045 0.350105 0.568863 0.155623 0.659031 1.582361 -0.839093 1.382838 -1.871114 1.277389 -1.029695 -0.786385 -1.324414 -1.506350 -0.168149 -0.244270 -0.157633 -0.899201 -0.420492 0.362879 -0.652082 -0.508024 1.010985 0.962197 0.649481
613 -0.731668 0.330797 0.452134 -1.078791 -0.052914 0.869455 -0.006342 0.578651 0.848848 0.954395 -0.354945 0.338076 0.269950 -1.327337 0.393689 -0.489137 1.002160 0.471078 0.285929 -0.836209 -1.040357 -0.698255 0.352715 0.514733 0.652867 0.130755 -0.485598 -0.771651 -0.652191 1.006965 0.883359 0.807342
1272 -0.590589 0.267769 0.445585 -0.989597 0.000525 0.829108 -0.036013 0.499039 0.849893 0.861981 -0.275930 0.352323 0.203719 -1.129138 0.376880 -0.411530 0.817281 0.339596 0.238712 -0.773685 -1.009708 -0.639297 0.334496 0.397997 0.522235 0.119680 -0.388308 -0.724409 -0.649879 0.850990 0.808472 0.697206
1284 -0.464704 0.660529 0.622872 -0.926834 0.112543 0.712614 -0.067004 0.551358 0.760531 0.500269 -0.292288 0.616191 0.326244 -1.163868 0.604686 -0.475533 0.997904 0.209346 0.227797 -0.887517 -0.994917 -0.312615 0.165714 0.288979 0.487122 0.293005 -0.315724 -0.232349 -0.409752 0.861599 0.762883 0.574385
1288 -0.565701 0.281405 0.378985 -1.011514 -0.089601 0.694895 -0.034770 0.376593 0.695845 0.692125 -0.380171 0.313850 0.184327 -1.177395 0.349330 -0.358954 0.803490 0.281915 0.189804 -0.681048 -0.933587 -0.449347 0.390342 0.224167 0.511125 0.093897 -0.419631 -0.604278 -0.489752 0.905943 0.757454 0.715658
937 0.289232 1.855250 1.260329 -0.539592 -1.168669 1.612803 -0.744131 -0.040563 0.064201 0.753615 -0.860514 0.543989 -0.082481 -1.448386 0.505647 0.154384 0.728636 0.105197 0.752665 -0.923197 -0.751134 -0.993763 0.546140 -0.093574 1.048189 -0.119426 0.330774 1.434311 -0.621898 1.336170 0.414779 0.507514
391 0.909545 0.586250 -0.934594 -1.769307 -0.517796 0.899856 0.178870 0.655693 -0.691206 -0.025977 0.708070 -0.330940 0.160547 -1.113872 0.901602 -0.218726 0.321097 0.524225 -0.127345 -1.652345 -0.954526 0.237228 0.978811 0.266082 0.267372 -0.014753 -0.909158 -0.689668 -0.105111 1.719886 1.834565 0.180440
395 -0.570359 0.298691 0.459944 -1.025804 -0.030276 0.839307 -0.105571 0.577351 0.835608 0.889939 -0.372172 0.354087 0.223506 -1.215266 0.490139 -0.375028 0.875506 0.388213 0.178135 -0.841880 -1.054349 -0.574702 0.294769 0.489032 0.737734 0.080432 -0.405644 -0.681075 -0.682091 0.973381 0.924055 0.712690
586 -1.444293 0.203765 0.369286 -0.129048 -0.340131 0.389061 -0.333666 0.118463 -0.689558 0.923359 -1.223586 0.892476 1.178379 -0.485598 -0.110172 0.104422 0.436867 0.131859 1.673866 -1.925581 -0.697440 -0.555859 0.090354 1.342694 0.456904 0.210542 -0.325322 0.387601 -1.055451 1.155471 1.554597 -0.334678
582 -1.472836 0.146568 0.250441 -0.096356 -0.380661 0.383971 -0.273686 0.124420 -0.669741 0.885051 -1.199205 0.947050 1.237981 -0.560764 -0.119405 0.109215 0.426577 0.187305 1.697629 -1.964140 -0.664774 -0.541160 0.110619 1.397144 0.428664 0.207531 -0.334575 0.384754 -1.010034 1.135126 1.568936 -0.240929
246 0.408443 -0.205007 0.830265 -1.689670 -0.073846 -0.599439 0.301464 0.691639 -0.173089 1.598756 -0.711506 1.290112 -0.749325 -0.736342 0.444994 -1.249816 1.078236 -1.185594 0.216182 -1.094340 -1.211000 -0.460846 -0.255371 0.621850 0.138249 0.810147 0.820629 -1.525403 0.464554 1.118065 0.758713 0.958116
514 -0.300941 0.150335 0.049727 -1.319831 -0.742621 -0.260813 0.164076 0.323852 0.077003 1.576485 -1.332589 0.176854 -0.425352 -0.418940 0.624663 -0.956023 1.052263 -0.069870 -0.902450 -2.187005 -0.418159 0.894230 1.309197 0.381795 1.022969 0.327574 -0.515460 0.711648 -0.340807 1.280352 1.412729 0.254364
624 -0.162791 0.375774 -0.732769 -1.111374 0.742670 -0.469896 -0.480133 1.016033 0.843843 0.364831 -0.861494 0.861700 0.988375 -1.618954 0.742510 -0.750358 0.183784 0.766008 1.527224 -0.520898 -0.016815 -0.057749 0.782922 0.301525 0.719623 0.058639 0.273849 0.040313 0.499412 1.990167 0.890062 0.435128
974 -1.308847 0.513426 0.654019 -1.095558 1.107031 1.369594 0.697946 0.409980 0.666495 0.096882 -1.438740 0.992188 -0.996885 0.032481 0.096612 0.471000 -0.246264 -0.358743 0.827936 -0.853749 -1.139667 -0.302503 1.028456 -0.672644 -0.020238 -0.479132 -1.217779 -0.492402 -0.401112 1.767009 1.260181 1.072005
881 -0.586471 0.221538 0.399722 -0.961947 0.012917 0.770586 -0.080488 0.483911 0.766996 0.807750 -0.357922 0.290177 0.232744 -1.035181 0.428060 -0.354988 0.838396 0.313451 0.183406 -0.737469 -0.971468 -0.555555 0.287369 0.424112 0.533426 0.097889 -0.394349 -0.670371 -0.599384 0.914253 0.758196 0.716650
884 -0.553107 1.258206 0.437010 -0.006945 0.139019 0.491708 -0.602652 0.644217 0.144500 0.356961 -0.727089 0.644738 1.175162 -1.300944 -0.183373 0.335245 1.359287 -0.812864 0.648663 -0.904305 -1.423356 1.276330 1.144501 0.624675 1.550724 0.733307 -1.250474 -1.262595 -0.120045 0.926826 0.242285 0.172660
324 -0.848479 0.161732 0.830895 -0.987617 -0.678530 0.557507 -0.384414 0.299320 -1.244039 -0.163085 -0.102122 0.302125 0.035825 -1.742426 0.336725 -0.067003 1.733544 -0.711828 -0.421898 -1.386291 -0.834468 1.136043 -0.633545 -0.613767 0.918769 -0.137827 -0.519272 -0.709644 -0.703975 1.924442 1.295413 0.784158
325 -0.566963 0.327549 0.354146 -0.990288 -0.009819 0.802131 -0.140542 0.530451 0.703027 0.772365 -0.388264 0.258094 0.267933 -1.052306 0.349150 -0.347711 0.765172 0.370872 0.289597 -0.769216 -0.976994 -0.517949 0.239586 0.364859 0.674899 0.060062 -0.408542 -0.637204 -0.521503 0.967454 0.817799 0.656668
774 -0.546143 0.234540 0.369093 -0.869666 0.006152 0.753459 -0.091309 0.416949 0.693045 0.765310 -0.283671 0.295599 0.191895 -0.934221 0.370453 -0.354782 0.769943 0.321309 0.151897 -0.674205 -0.902567 -0.446714 0.200874 0.412209 0.479660 0.073279 -0.382608 -0.608607 -0.527195 0.780051 0.690816 0.656570
75 -1.035308 1.120203 0.837912 -1.058780 1.544429 1.181802 1.153733 1.578251 0.446846 0.860640 0.177039 0.671152 1.163328 -0.336820 1.028132 -0.203353 1.521729 -0.471430 -0.192790 -1.053000 -1.319436 0.608349 -0.448090 0.456559 0.513896 -0.453939 0.387016 0.947244 -0.469078 1.007046 0.493434 0.409726
1047 -0.663001 0.487838 0.377117 -1.176946 -0.016164 0.866853 -0.242037 0.534478 0.754018 0.900019 -0.253877 0.283964 0.357253 -1.368032 0.490191 -0.389201 0.973209 0.254984 0.327559 -0.812688 -1.051325 -0.516489 0.174824 0.341944 0.614582 0.201453 -0.633759 -0.625339 -0.625862 1.062406 0.768881 0.720939
663 0.632398 0.855939 1.114793 -1.897626 -0.180521 -0.207299 -0.426057 0.057345 0.351808 1.184988 -0.373784 0.260656 0.018555 0.016926 0.145875 -1.070244 0.424403 0.196338 1.093090 -1.183535 -1.186418 -0.451144 -1.425019 0.875187 0.906611 -0.523735 0.151455 -1.022304 -0.706866 1.418048 1.019193 -0.961550
697 -0.630982 0.482860 0.482894 -0.611335 0.153299 0.577970 -0.396729 0.198626 0.541846 1.005164 -0.507917 0.409587 -0.064774 -0.946429 0.136282 -0.418450 0.937369 0.215698 0.156704 -0.935525 -0.862940 -0.140481 -0.078036 0.478884 0.484036 0.094681 -0.363333 -0.619089 -0.325942 0.822331 1.098073 0.466182
699 -0.125797 -0.003282 0.057081 -0.759000 -0.718245 -0.419219 0.187010 0.820700 -1.063837 1.091802 -1.107099 1.066128 -0.163755 -2.339082 0.053311 0.070662 0.879541 -0.253699 0.038339 0.029575 -1.070194 -0.204792 1.070107 0.943450 0.712681 1.098545 -0.094033 0.219876 -0.334649 1.144492 1.173159 1.428442
992 -0.633041 0.636225 0.434257 -0.662846 0.096808 0.819950 -0.125111 0.096972 0.467962 0.696558 -0.763622 0.488348 0.442798 -0.940384 0.237593 -0.504878 0.671924 0.030645 0.616682 -0.964636 -0.877551 -0.179810 0.301934 0.254459 0.641916 0.188678 -0.287770 -0.297631 -0.037116 0.872555 1.128953 0.773653
126 -0.687686 0.653364 0.374864 -0.648147 0.116381 0.798389 -0.161666 0.119912 0.466370 0.695566 -0.748437 0.444581 0.470144 -0.911283 0.247891 -0.496278 0.666616 0.029933 0.616473 -0.988602 -0.831330 -0.200451 0.330932 0.239566 0.638313 0.146434 -0.288398 -0.341242 -0.038014 0.874033 1.132708 0.755309
128 -0.354587 0.740367 0.693624 -1.343953 0.164197 0.838985 0.086198 0.483621 0.668247 0.669802 -0.562321 0.520288 0.120719 -1.302820 0.435223 -0.000586 0.757505 0.113132 0.763699 -1.274406 -1.515624 0.298683 0.135781 0.223724 0.590131 0.383069 -0.255691 -0.223140 -0.247575 1.008873 0.860153 0.212977
563 -0.589779 0.293073 0.461093 -1.004937 0.020379 0.856157 -0.039181 0.530888 0.867815 0.902402 -0.271905 0.364095 0.191382 -1.143579 0.395440 -0.415335 0.832531 0.341258 0.247959 -0.758658 -1.024371 -0.662809 0.344712 0.402744 0.541772 0.130946 -0.384583 -0.706634 -0.648534 0.860951 0.800989 0.708315
922 -0.173691 1.722506 0.229226 -0.945613 -0.759888 0.375739 0.504671 0.793165 0.510576 1.497187 -0.283267 0.947214 -0.113621 -0.275824 -0.361441 -0.579595 0.605930 -0.060472 -0.119664 -1.410611 0.478751 -0.603994 0.838299 -0.392633 0.550462 -0.823587 1.054453 -1.053846 -0.325311 1.658410 0.821231 1.206362
319 -0.600838 1.252631 0.407823 0.120273 0.094325 0.403455 -0.573213 0.633442 0.163141 0.307947 -0.759279 0.648062 1.201314 -1.254427 -0.149712 0.302731 1.298764 -0.805673 0.659091 -0.929270 -1.435408 1.313483 1.110410 0.741567 1.630460 0.732271 -1.243236 -1.315695 -0.012432 0.861312 0.283755 0.227285
1182 0.167351 0.181041 0.488423 -0.740178 0.441665 0.488310 -0.538357 1.411593 -0.837795 -0.148656 -1.207075 0.684701 0.539611 -1.044619 0.611093 0.099119 0.769943 -0.999749 -0.240181 -1.940266 -0.656449 -0.738710 0.657804 1.089322 1.016966 -0.463045 0.959988 -0.836433 -0.370671 1.911695 1.322211 -0.070159
254 -0.878223 0.741301 -0.798773 -2.208803 0.213602 -0.656978 0.387172 0.628039 -0.214556 1.068805 -0.261275 0.881605 -0.495371 -1.118981 -0.653457 -0.505227 0.479194 0.313327 -0.759889 -0.816623 -1.366247 0.326632 0.613344 0.194868 0.486320 -1.155967 -1.013181 -0.223564 -1.351074 0.603588 0.105930 0.979849
731 -0.430412 0.328577 0.273463 -0.931364 -0.068054 0.810343 -0.126773 0.363197 0.712285 0.926203 -0.346130 0.394058 0.308447 -1.180239 0.267150 -0.410414 0.848488 0.222733 0.137881 -0.804080 -0.931611 -0.712452 0.152457 0.420544 0.488581 -0.047226 -0.393069 -0.635187 -0.498544 0.931222 0.835122 0.600163
733 -0.088692 -0.022057 0.067761 -0.792429 -0.698346 -0.380643 0.232271 0.796646 -1.021800 1.073873 -1.134234 1.021146 -0.154729 -2.341688 0.023169 0.013678 0.907817 -0.309713 0.051758 0.053835 -1.085994 -0.169720 1.078205 0.917046 0.735432 1.111611 -0.017673 0.193912 -0.280220 1.159491 1.131783 1.473752
734 -0.737477 0.334499 0.422970 -1.066725 -0.061537 0.872712 -0.000659 0.560640 0.872193 1.007656 -0.363635 0.307733 0.277394 -1.360202 0.391421 -0.489287 0.995377 0.478777 0.270618 -0.848160 -1.045901 -0.724472 0.377723 0.528550 0.655653 0.156873 -0.485661 -0.801448 -0.681884 1.015304 0.884877 0.822239
736 -0.534069 0.296230 0.564025 -0.973532 -0.008642 0.715598 -0.133150 0.515900 0.577169 0.509948 -0.281006 0.439040 0.267807 -1.159241 0.486098 -0.344015 0.920060 0.349642 0.228131 -0.912607 -0.911759 -0.204930 0.256127 0.242014 0.492120 0.028633 -0.534127 -0.592900 -0.397196 1.032371 0.698317 0.458624
630 0.585473 0.838318 1.079753 -1.910320 -0.194274 -0.205879 -0.461295 0.111049 0.351181 1.167586 -0.316947 0.237316 -0.014930 -0.018647 0.168720 -1.116753 0.390989 0.194086 1.025745 -1.220038 -1.174894 -0.445340 -1.449436 0.847613 0.933167 -0.512959 0.174034 -0.987555 -0.675652 1.459681 1.057209 -0.979971
1168 -0.676772 0.354717 0.494507 -1.163785 0.005925 0.988349 -0.122959 0.620955 0.983315 1.028814 -0.387294 0.436196 0.289939 -1.318462 0.501719 -0.532133 1.080738 0.417885 0.238681 -0.967289 -1.208334 -0.701721 0.287196 0.560802 0.706730 0.076008 -0.505403 -0.828655 -0.760472 1.127928 0.950016 0.893629
164 -0.541489 0.310517 0.371241 -1.000636 -0.007125 0.793851 -0.147567 0.549985 0.709801 0.784841 -0.374132 0.299438 0.267690 -1.058502 0.349218 -0.358589 0.774199 0.379056 0.270783 -0.787756 -0.977050 -0.549099 0.219165 0.363723 0.665717 0.085585 -0.379137 -0.645018 -0.527867 0.956394 0.820204 0.643577
967 -0.740420 0.224576 0.414015 -0.888403 -0.023669 0.537458 -0.120800 0.224388 0.605564 0.657561 -0.431590 0.604626 0.374577 -1.055935 0.464034 -0.534444 0.694049 0.088483 0.254016 -0.826423 -0.899083 -0.404092 0.183851 0.486850 0.278562 0.229545 -0.406933 -0.270428 -0.333337 0.695401 0.843614 0.806214
1102 0.056660 0.486097 0.842257 -1.447961 -0.498676 1.281160 0.115937 -0.035849 -0.275538 0.403093 0.501580 1.232925 -0.203857 -1.038314 1.802161 -0.960934 1.817374 0.057330 -1.208682 -1.399400 -0.945236 -0.719088 0.042256 -0.125669 0.097453 -0.585848 -0.408201 -0.222241 -0.212803 -0.837210 1.293801 1.342561
1103 -0.939369 0.746009 -0.818018 -2.220495 0.191437 -0.678681 0.380415 0.638066 -0.131376 1.157637 -0.237462 0.903095 -0.462916 -1.088633 -0.670146 -0.550731 0.522456 0.314606 -0.709430 -0.842794 -1.373541 0.374235 0.614243 0.218941 0.464716 -1.122958 -1.027845 -0.243026 -1.305241 0.646018 0.098230 0.967032
879 -0.693579 0.461331 0.535471 -0.826268 0.119954 0.867102 -0.072499 0.455888 0.949279 0.885616 -0.381928 0.370472 0.196262 -1.227244 0.238545 -0.467745 0.987686 0.363293 0.328423 -0.783347 -1.104452 -0.346612 0.248696 0.275579 0.694986 0.057277 -0.416710 -0.796787 -0.598176 0.989765 0.901835 0.790104
1248 -0.749597 -0.050660 0.878043 -0.727469 0.788756 0.339750 0.233201 0.813783 0.240891 0.634292 -0.040433 0.411432 -1.915216 -0.449273 0.935178 -0.097584 0.538556 -0.010731 -0.415463 -2.059014 -1.495200 0.533439 -0.012700 -0.093178 0.800935 0.321692 0.657783 0.255117 -1.748308 1.763814 0.843718 0.442617
801 -0.977327 0.833759 0.700490 -1.734055 -1.304663 1.435486 0.418607 -0.461662 0.156234 -0.205127 -0.501350 -0.079322 -0.516820 -1.323186 0.473088 -0.009662 0.868773 -0.554640 1.142542 0.001528 -0.676228 0.274147 1.333653 0.423016 0.084104 0.948770 -1.118071 -0.150416 -0.268385 1.582211 0.234401 1.568724
359 -0.594330 0.290360 0.438137 -0.981373 0.006056 0.840546 -0.147533 0.605539 0.831544 0.915668 -0.357648 0.351336 0.246078 -1.231236 0.491247 -0.379128 0.904524 0.424182 0.187865 -0.823722 -1.022742 -0.585493 0.257393 0.505083 0.761559 0.074998 -0.458605 -0.700386 -0.696320 0.929846 0.912614 0.717110
1075 -0.164463 1.776355 0.268199 -0.958409 -0.735694 0.344942 0.489083 0.836966 0.526828 1.518314 -0.317773 1.021960 -0.123200 -0.201101 -0.377362 -0.531274 0.553118 -0.059591 -0.132509 -1.424687 0.552892 -0.566442 0.825432 -0.448407 0.522224 -0.876727 1.127296 -1.113974 -0.310979 1.703628 0.850061 1.215967
1094 -0.220803 1.194919 0.101511 -1.081435 -1.079959 -0.122327 1.279806 -0.573083 0.863117 0.168312 -1.280245 0.457253 -0.036286 -0.862802 -0.252224 0.237015 0.238329 -0.492262 0.815145 -1.844612 -1.681520 -0.023188 0.711398 0.291117 0.925154 0.690164 0.570455 0.157930 -0.848720 1.156062 1.034456 1.739108
1154 0.417503 -0.188361 0.835535 -1.763164 -0.139618 -0.679692 0.214421 0.711384 -0.180284 1.604507 -0.691931 1.240688 -0.866428 -0.801165 0.499599 -1.274099 1.064139 -1.149662 0.113815 -1.107204 -1.176308 -0.427534 -0.289129 0.534059 0.189485 0.830500 0.716061 -1.570729 0.460902 1.165080 0.818158 0.901375
535 -0.571364 0.241057 0.400552 -0.950391 0.023671 0.756377 -0.104612 0.472940 0.772723 0.821895 -0.370668 0.299812 0.240387 -1.063859 0.433923 -0.361711 0.843012 0.321574 0.214850 -0.780074 -0.965215 -0.551564 0.291082 0.428277 0.540170 0.086414 -0.393719 -0.666799 -0.609005 0.928793 0.784922 0.711188
984 -0.525848 0.257548 0.354218 -0.968198 -0.086230 0.673158 -0.015453 0.388458 0.679293 0.684793 -0.366873 0.311039 0.161608 -1.132050 0.346557 -0.331613 0.758621 0.255330 0.188096 -0.663496 -0.933404 -0.449709 0.375957 0.227202 0.532573 0.081530 -0.396496 -0.608211 -0.475993 0.891464 0.750109 0.695161
425 -0.510252 1.197059 0.402444 -0.600322 -0.801604 0.997314 -0.613113 2.106209 0.820596 0.055980 -0.621256 0.327730 -0.060164 -0.486629 0.579502 -0.784596 0.113890 -0.591174 0.633624 -1.118168 -0.357316 0.868185 -0.850161 0.196465 1.350340 -0.381667 -0.944907 0.006773 0.262605 2.121968 1.270715 0.308459
302 -0.653687 0.338392 0.512041 -1.119025 0.013577 0.820210 -0.062512 0.622366 0.768952 0.998684 -0.354870 0.428643 0.249449 -1.153677 0.498071 -0.549715 1.089661 0.387345 0.167625 -0.932777 -1.037085 -0.727714 0.219978 0.640073 0.653493 0.074063 -0.417603 -0.805626 -0.756900 1.100557 0.891064 0.800777
849 -0.644179 0.307471 0.502360 -1.105708 0.011172 0.857012 -0.023680 0.621341 0.744484 0.975470 -0.336185 0.435758 0.275862 -1.145375 0.506096 -0.558940 1.078057 0.369015 0.177979 -0.894522 -1.034926 -0.698032 0.245915 0.657417 0.612290 0.043026 -0.383517 -0.815602 -0.746595 1.081308 0.863768 0.799934
954 -1.359471 -0.213527 0.538331 -2.269740 0.004474 1.618008 -0.582846 0.666335 -0.084206 1.042220 0.355687 -0.084750 -0.904910 -0.563143 -0.392436 0.343669 0.548519 0.446929 0.610746 -0.470655 -1.198560 -0.897551 0.445595 -1.858101 0.145418 -0.080436 -0.050061 -0.802046 -0.125410 1.818013 0.624013 0.444478
1024 0.252488 0.068802 0.472240 -0.714869 0.424594 0.405717 -0.679066 1.425999 -0.834297 -0.101787 -1.187335 0.683382 0.575566 -1.040811 0.641333 0.130399 0.749966 -1.052812 -0.218398 -1.876036 -0.683989 -0.807203 0.611960 1.039176 0.875428 -0.458852 0.997269 -0.892799 -0.384621 1.816463 1.220142 -0.190109
88 -0.844027 0.203655 0.875931 -0.967293 -0.692554 0.497249 -0.361509 0.257594 -1.287548 -0.173858 -0.064633 0.370736 -0.013122 -1.722373 0.326792 -0.099080 1.809559 -0.706552 -0.374704 -1.452631 -0.912654 1.176661 -0.698948 -0.569213 0.935265 -0.118333 -0.497753 -0.761663 -0.682317 1.917347 1.291801 0.793204
501 -0.320802 0.185907 0.035458 -1.356323 -0.786506 -0.358794 0.097052 0.210873 0.043683 1.579097 -1.273668 0.071413 -0.429698 -0.494340 0.589189 -0.909890 1.060537 -0.054767 -0.964466 -2.206254 -0.410122 0.954935 1.254324 0.377910 1.002179 0.312074 -0.475983 0.704385 -0.345959 1.261598 1.453345 0.259401
151 -0.352785 0.775704 0.777961 -1.380110 0.166011 0.867331 0.063049 0.427956 0.610212 0.728498 -0.587191 0.546072 0.128042 -1.286713 0.485165 -0.030053 0.782759 0.063133 0.743057 -1.323161 -1.556358 0.315048 0.134117 0.261632 0.551076 0.336668 -0.290171 -0.163237 -0.276659 1.021021 0.943342 0.194729
1203 0.947190 0.580049 -0.850172 -1.812382 -0.563699 0.871799 0.186776 0.647199 -0.692129 -0.018125 0.687738 -0.320709 0.208971 -1.065067 0.908209 -0.235643 0.313140 0.510008 -0.167008 -1.693300 -0.937379 0.275160 0.999617 0.250179 0.259787 0.006222 -0.880957 -0.673965 -0.132190 1.719865 1.775534 0.175683
41 -1.341693 0.498131 0.755838 -1.010993 1.130384 1.317638 0.726559 0.449312 0.682502 0.056737 -1.372164 0.920415 -1.018842 -0.066035 0.112792 0.432897 -0.157924 -0.364260 0.796199 -0.877767 -1.151866 -0.258671 1.019705 -0.724150 0.018270 -0.444701 -1.263215 -0.508410 -0.360207 1.767195 1.216503 1.077236
470 -0.644336 0.251518 0.412218 -1.025462 -0.022597 0.844121 -0.082342 0.551897 0.847744 0.883122 -0.344149 0.371452 0.244474 -1.172433 0.418629 -0.455495 0.907283 0.396116 0.229827 -0.803558 -1.047457 -0.560910 0.235576 0.525215 0.657640 0.067253 -0.456612 -0.712087 -0.654394 0.981296 0.812657 0.722741
474 -0.225650 1.192441 0.029228 -1.068763 -1.054161 -0.150702 1.329102 -0.508591 0.829918 0.152838 -1.262332 0.473960 -0.008347 -0.855153 -0.245961 0.213324 0.263592 -0.452507 0.760910 -1.802270 -1.686902 -0.063441 0.713682 0.290142 0.886757 0.693777 0.558006 0.204799 -0.849468 1.129782 1.022135 1.766496
507 -0.304652 0.632584 1.381404 -1.008245 0.499907 0.177814 -0.624077 -0.401245 0.057889 0.468307 -1.344416 0.056742 0.063681 -0.025070 -0.423499 0.495577 0.289254 0.591850 0.186537 -0.314743 -0.799974 -1.308627 0.346370 0.132359 0.864085 1.081443 -1.482700 -0.770173 -1.460371 0.543639 0.872683 1.365454
1121 -0.464912 0.410341 0.265114 0.081587 0.069386 0.416298 0.040512 0.758053 0.333937 0.484177 0.164235 -0.049633 0.197141 -0.831673 0.234157 -0.477578 1.194801 1.250831 -0.430163 -0.552204 0.181091 -0.493679 -0.058996 0.651100 0.994356 -0.229938 -0.106894 -0.106611 -0.991378 0.903998 0.412275 -0.269584
916 -0.279799 0.702414 1.271585 -1.080076 0.348281 0.120579 -0.719282 -0.510295 0.270954 0.535108 -1.261967 -0.065611 -0.049224 -0.252416 -0.481533 0.443749 0.323450 0.574857 0.203066 -0.254084 -0.850551 -1.110822 0.451955 -0.018796 0.955376 0.996105 -1.557570 -0.816483 -1.431238 0.576324 0.918838 1.299494
508 -1.498358 1.212805 0.286666 -1.336641 -0.291896 0.107581 0.592528 0.110435 0.445262 0.800026 -0.638815 0.362228 -0.360800 0.558306 0.179291 -1.253267 0.710161 0.613544 0.536349 -0.171420 -0.414659 -0.401122 -0.228056 1.175094 0.833844 -0.323947 -0.717446 -0.414995 0.462400 0.524762 1.143931 1.088826
177 -0.232325 0.873182 0.992490 -1.220950 0.022494 0.027060 -0.773409 -0.744923 0.721248 0.701915 -1.127898 -0.131218 -0.378823 -0.681133 -0.591274 0.451658 0.363903 0.503968 0.285464 -0.152219 -0.945578 -0.649074 0.667777 -0.456622 0.988314 0.746308 -1.675975 -0.898934 -1.142502 0.696258 1.069674 1.026774
491 -0.623801 -0.530517 0.195542 -0.529240 0.600478 0.575576 -0.591710 0.665483 1.423043 0.952682 -0.295462 0.137138 0.593178 0.563403 0.019973 -0.092830 0.291649 0.087134 -0.363854 -1.191811 -0.536382 0.221492 -0.573129 1.390347 0.920071 -0.701377 -0.334066 -1.473988 -0.591982 0.774248 0.946941 1.120921
532 -0.612681 -0.336472 0.048770 -0.300414 0.621804 0.472643 -0.562712 0.887438 1.329224 0.998275 -0.466709 0.113597 0.682532 0.529273 0.124103 -0.121410 0.266445 -0.064277 -0.209738 -1.047009 -0.615454 0.258151 -0.671031 1.614467 1.013486 -0.827987 -0.324551 -1.420478 -0.709206 0.759700 1.159576 0.980634
578 -0.498221 0.469996 0.243859 -0.003194 0.172281 0.380974 0.088825 0.589693 0.303251 0.168571 0.227080 0.033838 0.115271 -1.029742 0.317782 -0.376451 1.336307 1.231722 -0.400463 -0.661691 0.146118 -0.371995 0.083693 0.617736 0.868878 -0.312657 -0.194060 -0.162829 -1.117489 0.792680 0.462892 -0.342707
398 0.261115 -0.474096 0.474338 -1.313246 -0.817219 0.762896 0.565700 0.052106 1.381799 0.936291 -0.357903 1.160392 -0.034609 -0.197339 0.323239 -0.721922 -0.277072 0.960927 0.563141 -1.193857 -0.042117 -0.530191 0.308371 -0.284337 1.238035 0.854507 -0.074381 -0.364965 -1.252295 0.625483 0.256478 0.099720
1273 -0.594989 0.293152 0.398409 -1.008236 -0.024975 0.808376 -0.117160 0.542142 0.860159 0.929008 -0.305017 0.356858 0.258455 -1.181685 0.399863 -0.458961 0.967052 0.432038 0.197348 -0.789169 -1.030701 -0.606824 0.267302 0.564163 0.651936 0.047060 -0.445244 -0.721044 -0.685283 0.945871 0.825982 0.768030
1046 -0.525297 0.430968 0.302638 -0.042355 0.149769 0.283495 0.038959 0.523703 0.175493 0.313013 0.185501 0.013800 0.103451 -0.966393 0.288344 -0.323933 1.465670 1.169356 -0.400898 -0.594274 0.132241 -0.414764 0.046423 0.751482 0.868469 -0.282993 -0.294750 -0.155137 -1.004776 0.836925 0.407827 -0.372287
721 -0.414807 0.927068 0.307972 -1.260585 -0.337216 0.975156 -1.251753 0.504759 0.468061 0.630811 -0.158062 0.307926 0.760145 -1.103257 0.814500 0.002084 0.614148 0.261667 0.810682 -0.229436 -0.515918 -0.874471 -0.019477 -0.344636 0.073256 -0.436306 -1.405483 -0.497844 -0.099693 -0.214987 0.727902 -0.558796
197 -0.520763 0.502926 0.253599 -0.015500 0.117913 0.127830 0.025126 0.528375 0.108092 0.360692 0.113469 0.003379 0.170185 -1.091233 0.206908 -0.401636 1.560751 1.092888 -0.302849 -0.710866 0.073875 -0.460156 0.123538 0.863458 0.791698 -0.316359 -0.249014 -0.101156 -0.929247 0.763917 0.337959 -0.349920
188 0.546006 0.695610 1.527637 -1.237363 0.391542 -0.063121 0.244483 1.271964 1.663776 1.468679 0.155456 -0.116607 0.922956 -0.198031 0.750789 -0.804897 0.670838 0.208355 -0.036365 -0.148405 -1.026876 -0.826815 0.244340 0.772030 -0.339780 0.057974 -0.570094 -0.263718 -1.140863 -0.031691 0.071317 0.661155
102 0.062310 -0.750109 0.030242 -1.545355 -0.279301 1.770363 -0.387859 0.779199 0.792269 0.698198 0.448369 0.304983 -0.926705 -0.802957 0.675573 -0.893039 0.645546 -0.019637 -0.214187 -0.075910 -1.436003 -0.407062 -0.533789 0.067444 -0.271773 -0.691059 0.495723 -1.009332 -0.959510 0.787999 0.075206 0.102187
34 0.156935 -0.554733 0.587559 -1.283602 -0.855777 0.709936 0.613253 -0.000727 1.277093 1.047269 -0.371511 1.227503 -0.029978 -0.118756 0.340328 -0.765345 -0.247260 0.859059 0.627218 -1.227979 -0.108535 -0.411765 0.384817 -0.245541 1.278956 0.729217 0.096343 -0.566962 -1.218528 0.633380 0.244482 0.212189
334 -1.214811 -0.630823 -0.316267 -0.838710 0.281567 0.156809 -0.071548 0.790597 0.268832 0.640873 -0.251996 0.014815 0.525835 -0.803085 0.445098 -0.724304 0.434117 0.381468 -0.391573 -0.561520 -0.694887 -0.948462 1.394573 0.607903 -0.134925 0.581831 0.026594 -1.476609 -0.372122 0.104862 0.077778 0.822184
419 -0.568718 0.286289 0.400711 -0.989997 -0.010112 0.788268 -0.113000 0.537824 0.812866 0.857677 -0.330930 0.327936 0.240572 -1.112132 0.403025 -0.412746 0.914298 0.395948 0.196698 -0.762027 -0.991164 -0.558213 0.250832 0.516613 0.607261 0.054325 -0.435190 -0.707401 -0.648434 0.910750 0.793525 0.733799
512 -0.459446 0.383449 0.249487 0.049729 0.004264 0.345448 0.117463 0.664307 0.252653 0.393096 0.176165 -0.064688 0.170799 -0.937009 0.258555 -0.438818 1.337770 1.188426 -0.419687 -0.652926 0.144080 -0.494950 0.026832 0.744210 0.926366 -0.328256 -0.178640 -0.178027 -0.968772 0.849553 0.439038 -0.328467
489 -0.430085 0.472421 0.315568 0.046389 0.131156 0.224593 0.088766 0.532457 0.062651 0.506239 0.155707 0.042838 0.073548 -0.992894 0.123351 -0.480478 1.586382 1.030742 -0.307710 -0.581514 0.085548 -0.524081 0.107939 0.751947 0.688508 -0.218212 -0.255382 -0.094352 -1.066341 0.888479 0.343881 -0.360816
32 -1.068958 -0.622455 -0.016195 -0.356506 -1.054344 -0.811428 0.171767 0.693198 1.144816 0.412166 -0.422453 0.551040 -0.061881 -0.862122 0.326177 -0.624482 0.907270 0.053065 0.761352 -0.109747 -1.405084 -0.494867 -0.609145 -0.044580 -0.261622 0.053826 -0.925070 -0.509546 -1.020856 0.966180 0.898006 0.024791
509 -0.447272 0.455044 0.312533 -0.025948 0.017027 0.235751 0.188855 0.653195 0.244882 0.242174 0.137301 -0.030654 0.276588 -1.027680 0.306533 -0.388776 1.255952 1.198996 -0.319549 -0.663173 0.135562 -0.386771 0.083700 0.741490 0.911259 -0.272786 -0.201699 -0.095837 -1.004783 0.814159 0.301315 -0.226339
860 -1.182321 -0.670235 -0.305439 -0.873022 0.149280 0.173170 -0.016829 0.699726 0.294969 0.608194 -0.245005 0.039392 0.540013 -0.809200 0.433567 -0.722727 0.450763 0.341225 -0.430220 -0.565777 -0.688023 -0.937241 1.415963 0.610144 -0.151526 0.544286 -0.002936 -1.442421 -0.340787 0.150799 0.046729 0.847179
1225 -0.811706 0.035618 0.958630 0.269315 0.494605 1.075093 0.147451 0.230043 -0.121681 0.596978 -0.336199 0.148243 0.589877 -1.071788 -0.436847 -1.529838 0.532544 0.183253 1.345359 -0.642455 -1.870517 0.162479 0.509352 -0.322874 0.470968 -0.276834 -0.054253 -0.553326 -1.019124 -0.110637 0.914263 0.379356
374 -0.386828 -0.015144 -0.970934 0.340739 0.152940 0.138486 -0.482976 0.246883 1.506179 1.564278 -0.274494 0.685203 -0.764261 -1.039946 0.268401 0.127852 0.442733 0.767792 -0.074009 -1.585812 -1.234633 -0.192237 -0.584826 -0.338036 1.255442 0.179649 -0.202761 -0.839151 0.425151 1.502423 1.031871 -0.117198
250 -1.874848 1.491573 0.316438 -1.109215 0.788086 0.694631 0.181171 -0.404840 0.762295 0.129862 -0.034142 -0.237604 0.765128 -1.138677 1.418944 0.685186 0.537123 0.923571 -0.050444 -0.097926 -1.250505 0.429785 0.186739 -0.897448 0.100239 -0.170652 -0.648839 -0.420110 -1.237359 0.685024 0.767546 1.290604
20 -1.164084 -0.679390 -0.252169 -0.838995 0.156944 0.224317 0.059955 0.774141 0.212886 0.645243 -0.241848 0.047297 0.540794 -0.828534 0.487812 -0.751364 0.402494 0.394124 -0.433231 -0.632810 -0.695526 -0.900794 1.431963 0.662923 -0.132853 0.637057 0.048676 -1.476251 -0.252908 0.172115 0.024650 0.812194
370 -0.505125 0.499385 0.285978 0.042161 0.166797 0.125331 0.011604 0.496092 0.191698 0.355659 0.129152 -0.049815 0.245493 -1.020165 0.252673 -0.455207 1.452919 1.118449 -0.414467 -0.763831 0.141172 -0.496683 0.105159 0.790387 0.845708 -0.320426 -0.232656 -0.123189 -1.023304 0.719820 0.378828 -0.320773
1106 0.048941 -0.397155 0.735914 -1.644044 0.232176 -0.047799 0.227683 -0.925997 0.790331 0.506809 -0.763353 -0.394442 -0.153903 -1.606318 0.466303 0.173040 1.070618 0.413023 -0.102121 -0.481735 -0.813119 -1.078958 -0.060695 0.034826 0.099343 -0.502332 0.403056 0.551695 -0.139352 0.905217 0.970589 0.672587
119 -1.262461 -0.597383 -0.390580 -0.839914 0.172362 0.176010 -0.018773 0.795056 0.196920 0.676653 -0.217391 -0.022425 0.555342 -0.795127 0.500609 -0.827015 0.429562 0.354549 -0.394641 -0.607758 -0.765102 -0.866104 1.356293 0.602461 -0.180439 0.517488 0.152156 -1.441803 -0.260518 0.179188 0.086115 0.755049
219 -0.432872 0.383442 0.187414 0.082753 0.102723 0.442381 0.125928 0.692337 0.237993 0.334739 0.182311 0.034033 0.110207 -0.931921 0.268682 -0.407358 1.253929 1.292780 -0.389162 -0.545787 0.172480 -0.485428 0.052955 0.588687 0.883697 -0.258029 -0.114359 -0.133675 -0.980861 0.975449 0.454738 -0.334308
1200 -0.650765 -0.377162 0.152642 -0.241623 0.679594 0.533588 -0.613558 0.827375 1.273681 1.026391 -0.374130 0.184063 0.659168 0.461186 0.130051 -0.075428 0.228631 -0.070647 -0.178435 -1.095517 -0.603802 0.198663 -0.682344 1.470105 1.014319 -0.762483 -0.256161 -1.366393 -0.703584 0.789000 1.252660 0.904946
1194 -0.802786 0.037846 0.915752 0.144760 0.438177 1.079485 0.132168 0.248673 -0.109073 0.575807 -0.305589 0.141031 0.588021 -1.091025 -0.437405 -1.560396 0.557099 0.144392 1.382969 -0.633532 -1.810439 0.208270 0.442804 -0.290447 0.472009 -0.211293 0.011301 -0.535763 -0.972303 -0.112077 0.883979 0.391634
1108 -1.023219 0.170288 0.854520 -0.235036 0.366405 0.363929 -0.032647 -0.070220 1.468801 0.883300 0.834004 0.114277 0.151054 -1.090783 -0.012572 -0.563001 1.053984 -0.265766 0.506760 0.027327 -0.571400 -0.320583 -0.256407 -0.275057 1.043909 0.929138 -0.484706 -0.928930 0.142785 0.682568 -0.154733 1.354775
751 -0.187843 -0.523044 1.071854 -1.112805 -0.318293 1.178060 0.483593 0.803487 0.133238 -0.363489 -0.177255 1.291626 0.466940 -1.408347 1.089408 0.156488 0.389260 0.373370 -0.357525 -0.338250 -0.986100 0.702765 0.010547 1.158617 0.728772 -0.266598 -0.521313 -0.413923 -0.792447 0.518443 -0.380819 1.488762
1084 0.232359 0.347661 0.032569 -1.079726 0.016931 0.465290 0.663545 1.528211 0.644068 0.817721 -0.317891 -0.371042 -0.152793 -0.552801 -0.679280 0.417001 0.554847 -0.000389 1.058844 0.002660 -0.836982 -0.943287 0.959152 0.506239 1.252385 0.101111 -0.702158 -0.944900 -0.116607 1.319174 0.208736 0.160612
173 0.284494 -0.452705 0.502406 -1.298158 -0.822440 0.772065 0.558728 0.046394 1.364602 0.937875 -0.342123 1.161676 -0.030055 -0.172750 0.327091 -0.716111 -0.266629 0.930816 0.607053 -1.177937 -0.063405 -0.528779 0.302717 -0.274557 1.248005 0.850952 -0.023570 -0.373716 -1.250988 0.710888 0.247086 0.151646
619 -0.019825 -0.377170 0.724424 -1.637425 0.221229 -0.069486 0.158958 -0.824050 0.699933 0.454156 -0.860025 -0.422819 -0.184844 -1.477425 0.373925 0.208755 0.998898 0.413848 0.055042 -0.724189 -0.774725 -1.127132 0.081343 0.074848 0.100064 -0.551512 0.461087 0.583085 -0.161853 0.875228 1.092069 0.551925
519 -0.460154 0.433129 0.186620 -0.026973 0.178642 0.308052 0.130772 0.582847 0.167368 0.411004 0.178406 0.061615 0.086562 -0.954341 0.262939 -0.473882 1.466792 1.198284 -0.303608 -0.546549 0.110425 -0.517151 0.124922 0.725308 0.824305 -0.208566 -0.208793 -0.143302 -0.994401 0.863278 0.415140 -0.378420
784 -0.507680 0.501011 0.176461 0.086876 0.120140 0.220908 -0.059590 0.603679 0.223527 0.492577 0.102893 -0.002909 0.182964 -0.891023 0.207069 -0.486957 1.362883 1.187425 -0.406499 -0.668341 0.155274 -0.551659 0.013226 0.760952 0.907275 -0.241373 -0.144492 -0.074185 -0.942095 0.845696 0.416916 -0.323452
1134 -0.786775 0.075715 0.941541 0.273504 0.458014 1.009294 0.104234 0.258704 -0.075629 0.622204 -0.348452 0.128478 0.616887 -0.988007 -0.475774 -1.605841 0.506257 0.134581 1.350720 -0.688252 -1.810956 0.208168 0.484652 -0.319389 0.507064 -0.304094 -0.052606 -0.601632 -1.018107 -0.157477 0.886883 0.394571
208 -1.126777 -0.608585 -0.011560 -0.289011 -1.043186 -0.966621 0.027338 0.699222 1.193852 0.406941 -0.305312 0.368850 0.052527 -0.753736 0.315163 -0.669062 0.952170 0.141366 0.842553 -0.091223 -1.532214 -0.595510 -0.521864 -0.169268 -0.197110 -0.143085 -0.930658 -0.662977 -1.039515 0.955155 0.954206 0.014227
338 -1.004108 0.203107 0.857544 -0.193941 0.279226 0.393325 -0.010491 -0.056306 1.424398 0.864897 0.764325 0.117939 0.053429 -1.120889 -0.054256 -0.549806 1.113270 -0.259188 0.588471 -0.040116 -0.634927 -0.240700 -0.220437 -0.259313 1.059105 0.973975 -0.428719 -0.935360 0.088426 0.703838 -0.161014 1.392620
539 -0.487631 0.422783 0.292188 -0.023523 0.093217 0.393944 0.136776 0.643151 0.241669 0.295373 0.186296 -0.006298 0.192986 -1.000702 0.268223 -0.319494 1.324719 1.273955 -0.346993 -0.537373 0.222445 -0.424803 -0.002017 0.667178 0.871863 -0.209855 -0.215756 -0.176272 -0.996737 0.947093 0.384451 -0.280681
380 -0.426382 0.453452 0.217848 -0.014433 0.148705 0.369261 0.143108 0.711140 0.202477 0.403577 0.150634 0.013480 0.177451 -0.860708 0.244956 -0.396320 1.337845 1.202128 -0.370656 -0.575315 0.231854 -0.449451 -0.015242 0.608293 0.973199 -0.270952 -0.107590 -0.136377 -0.982304 0.882910 0.467746 -0.354124
400 -0.483721 0.464923 0.282292 -0.075279 0.005297 0.188800 0.117196 0.477489 0.142821 0.352818 0.096954 -0.047212 0.155490 -1.080645 0.241284 -0.410876 1.521521 1.151251 -0.355990 -0.657689 0.087930 -0.471710 0.132403 0.834036 0.782911 -0.313927 -0.299736 -0.134047 -1.018529 0.819015 0.363509 -0.399077
830 -0.462074 0.271968 0.770452 -1.318333 0.044175 1.286408 -0.092782 0.061830 -0.170961 0.735941 0.055269 -0.622852 0.180601 -1.395907 0.424430 -1.076834 0.568149 -0.051452 0.063261 -0.825940 -1.691616 0.218075 -0.322114 1.426750 1.151646 0.803169 -0.984145 0.694466 0.208076 0.239159 0.377357 -0.487729
969 -0.508659 0.494326 0.315651 0.020491 0.131658 0.295950 0.058607 0.661409 0.172863 0.422832 0.145969 0.007650 0.225503 -0.918681 0.215768 -0.482721 1.375588 1.191993 -0.386723 -0.586940 0.193569 -0.443624 -0.012102 0.743869 0.934145 -0.173737 -0.136265 -0.103900 -0.938967 0.918600 0.338265 -0.291246
93 -0.454366 0.849175 0.351955 -1.197201 -0.396960 0.990333 -1.250876 0.576872 0.475201 0.644954 -0.143669 0.296257 0.771118 -1.095685 0.765131 -0.053557 0.609697 0.296142 0.794481 -0.206988 -0.543183 -0.917997 0.038943 -0.332084 0.065217 -0.465194 -1.364833 -0.595700 -0.129865 -0.197612 0.649031 -0.525740
71 0.048804 -0.847296 -0.130623 -1.402496 -0.360242 1.763834 -0.281589 0.738677 0.756017 0.749276 0.341924 0.291899 -0.665703 -0.875433 0.766972 -0.914832 0.715783 0.037728 -0.252498 -0.048594 -1.399707 -0.404121 -0.440687 0.085176 -0.310171 -0.779665 0.380946 -0.898882 -1.079017 0.769907 0.059872 -0.029972
84 -0.445977 0.844099 0.296207 -1.257305 -0.380124 1.015733 -1.196667 0.571091 0.447678 0.586332 -0.161504 0.296264 0.735605 -1.101068 0.765230 0.006689 0.621309 0.314703 0.781938 -0.236568 -0.526621 -0.873295 0.032155 -0.318512 0.082918 -0.552308 -1.393338 -0.502476 -0.142408 -0.179570 0.736045 -0.527263
542 -0.495101 0.452597 0.353064 0.024182 0.076991 0.303775 0.067199 0.612168 0.180413 0.421982 0.090477 -0.055117 0.235468 -0.910256 0.150050 -0.394740 1.375303 1.188609 -0.385898 -0.628990 0.208233 -0.521117 -0.015309 0.744920 0.857480 -0.247330 -0.190285 -0.107776 -0.941397 0.970914 0.367726 -0.371591
1187 -1.105546 -0.627554 0.007977 -0.307777 -1.077470 -0.901283 0.094546 0.676738 1.092720 0.406456 -0.425767 0.499738 -0.083575 -0.810295 0.318219 -0.646696 0.902583 0.057548 0.761197 -0.106837 -1.435277 -0.539861 -0.583136 -0.086749 -0.215635 0.049513 -0.875887 -0.584622 -1.019601 0.960428 0.922982 0.063784
1111 0.136683 -0.397596 0.750211 -0.557042 -0.080274 1.242414 0.362983 0.600104 0.679340 -0.151036 -0.435898 1.761160 0.194984 -1.197743 0.719721 0.099678 0.674639 0.594611 -0.577882 -0.480702 -1.079885 0.729828 -0.176642 1.398814 0.532433 0.278720 -0.675917 0.006782 -0.721979 0.569452 0.028571 1.310807
867 -0.458522 0.865385 0.317941 -1.252933 -0.366278 1.014915 -1.243998 0.571168 0.450792 0.617064 -0.146379 0.283362 0.781161 -1.045800 0.784827 -0.007466 0.587952 0.279275 0.758747 -0.191272 -0.555034 -0.880045 0.019193 -0.330887 0.052213 -0.515271 -1.372418 -0.573083 -0.184405 -0.220433 0.645253 -0.499700
1192 0.019520 0.354465 0.084220 -1.089293 -0.358075 0.607675 0.849423 1.383499 0.370271 1.283807 -0.161011 -0.410058 -0.337253 -0.721061 -0.642765 0.507932 0.395516 0.491523 1.270745 0.021762 -0.811453 -0.830477 0.404587 0.358109 1.494707 0.072139 -0.650670 -1.136481 -0.106669 1.333592 -0.010999 0.119587
1287 0.149457 -0.356854 0.732505 -0.507561 0.003294 1.200887 0.423275 0.575948 0.744209 -0.167679 -0.503664 1.797084 0.191262 -1.134338 0.627458 -0.025597 0.750449 0.579331 -0.635469 -0.511195 -1.075936 0.690561 -0.203285 1.392785 0.503955 0.297491 -0.592379 0.051983 -0.688792 0.595708 0.176719 1.336029
948 0.106055 0.272353 -0.022812 -1.069307 -0.257846 0.547657 0.711830 1.424831 0.586645 0.976505 -0.243763 -0.343998 -0.263702 -0.592140 -0.580989 0.412838 0.502452 0.213164 1.269572 0.038009 -0.770684 -0.902660 0.645321 0.543626 1.509198 0.092362 -0.570776 -1.039297 -0.158142 1.430250 -0.000899 -0.000179
706 -0.901481 1.674626 1.023737 -0.299704 1.074997 0.439332 -0.543381 -0.440741 0.748666 0.810194 0.037203 0.874596 0.310252 -0.789476 -0.065306 -0.305811 0.364620 0.533753 0.098246 -1.867526 -0.584783 0.704732 0.155726 -0.509513 0.730614 0.965643 -0.398239 0.115388 -0.153497 0.878133 1.674173 0.452908
54 -0.499893 0.453859 0.234432 -0.092865 0.141039 0.295443 0.139090 0.602750 0.205349 0.146838 0.124088 0.024310 0.191810 -1.061759 0.304743 -0.338525 1.343513 1.260150 -0.327595 -0.678287 0.175088 -0.426247 0.146452 0.751392 0.857618 -0.266559 -0.240051 -0.135950 -1.068639 0.820444 0.419141 -0.273260
138 0.133557 -0.297685 0.771938 -1.643237 0.233610 0.088851 0.345691 -0.943348 0.971548 0.601266 -0.605594 -0.376706 -0.012910 -1.611880 0.629672 0.187486 1.212090 0.291658 -0.172696 0.019777 -0.870940 -0.902782 -0.285812 0.069968 0.100211 -0.455420 0.202249 0.367037 -0.165444 0.922769 0.739157 0.898596
1033 -0.441524 0.399647 0.188983 -0.047288 0.114251 0.426920 0.113323 0.657963 0.241766 0.250265 0.195196 0.045849 0.172348 -0.917614 0.296433 -0.319754 1.332922 1.180871 -0.377828 -0.594927 0.185344 -0.423077 0.021558 0.679351 0.881175 -0.298329 -0.167489 -0.179239 -0.953054 0.917192 0.511703 -0.368834
133 -0.499600 0.830112 0.340069 -1.216576 -0.367983 1.009073 -1.165317 0.563076 0.479662 0.586740 -0.115450 0.333999 0.783093 -1.089982 0.777430 0.005516 0.643154 0.294503 0.821492 -0.148458 -0.530319 -0.839680 -0.000859 -0.310855 0.098597 -0.473553 -1.439144 -0.585696 -0.160237 -0.201262 0.599005 -0.495222
499 -0.461596 0.432270 0.205535 -0.003524 0.108273 0.290081 -0.007214 0.611998 0.168616 0.422380 0.178318 0.083746 0.061272 -0.962774 0.243806 -0.454149 1.476337 1.139668 -0.374289 -0.613138 0.079850 -0.498189 0.093007 0.794491 0.796066 -0.258800 -0.203567 -0.116859 -0.978845 0.849412 0.438530 -0.505683
280 -0.496188 0.827394 0.379961 -1.261499 -0.350278 1.039561 -1.154195 0.566967 0.454397 0.605097 -0.128212 0.330058 0.773795 -1.076117 0.778361 0.024130 0.692503 0.254189 0.801112 -0.171790 -0.531533 -0.912008 -0.002068 -0.309840 0.086211 -0.479677 -1.395056 -0.614914 -0.157677 -0.154326 0.642466 -0.488723
822 -0.366437 0.383883 0.217037 0.058164 0.043884 0.395900 0.032673 0.790936 0.375133 0.425041 0.179967 0.056141 0.155552 -0.810685 0.285131 -0.457090 1.185659 1.241952 -0.366968 -0.577210 0.142367 -0.403848 -0.075530 0.693681 1.025542 -0.283261 -0.064459 -0.167403 -0.945435 0.935769 0.388764 -0.361722
926 0.040449 -0.795371 -0.120822 -1.434652 -0.347701 1.769283 -0.282163 0.740582 0.729497 0.743929 0.339747 0.271329 -0.643718 -0.904271 0.777130 -0.901384 0.677666 0.061102 -0.282475 -0.056486 -1.397241 -0.413724 -0.434760 0.087401 -0.300772 -0.738952 0.360581 -0.874543 -1.080900 0.731309 0.095092 -0.014489
611 -0.836842 1.208923 1.011255 -0.509813 0.476861 0.951754 -0.239028 -0.840713 0.319465 0.398462 -0.000862 0.981237 0.251060 -0.919578 0.569683 -0.485074 0.378282 0.143001 0.273840 -2.077691 -0.159866 0.006572 -0.173519 -0.512877 0.872838 0.577490 -0.081419 0.091803 0.431026 1.027198 1.770412 0.374695
475 -0.424874 0.480880 0.158766 0.042912 0.101754 0.332628 0.071132 0.568752 0.148319 0.415413 0.162481 0.048249 0.074337 -0.909207 0.189061 -0.409150 1.402972 1.083284 -0.366392 -0.594383 0.172314 -0.487312 0.085216 0.689098 0.841846 -0.268021 -0.186636 -0.122452 -1.036732 0.982552 0.491550 -0.408832
237 0.144014 -0.382748 0.796216 -1.591323 0.244851 0.031463 0.358281 -0.940180 1.014172 0.606355 -0.621311 -0.358471 -0.124167 -1.556685 0.615264 0.203229 1.145112 0.312191 -0.207782 -0.097364 -0.865489 -0.968851 -0.255228 0.100357 0.200026 -0.451475 0.265935 0.370108 -0.145129 0.882085 0.755823 0.878981
1290 0.209020 0.246847 -0.080655 0.312746 -0.604913 1.013209 -0.327270 0.599766 1.027349 0.432616 -0.571964 -0.104636 0.321004 -0.875022 1.480725 0.214834 0.201611 -0.182942 -0.227140 -0.542371 -0.385411 -1.094514 0.253416 -0.378486 1.021409 0.071784 0.228049 -0.724980 -0.619081 0.461810 1.263027 1.617273
13 0.226445 0.268613 -0.030447 0.301777 -0.603039 1.060603 -0.342331 0.621035 1.018528 0.395886 -0.569899 -0.085662 0.330963 -0.864128 1.464208 0.200687 0.181516 -0.214467 -0.198131 -0.558810 -0.387019 -1.079719 0.222940 -0.353726 0.986949 0.095130 0.246783 -0.729904 -0.633040 0.441034 1.228949 1.612364
1233 0.186872 0.283077 -0.072886 0.293106 -0.546332 1.024458 -0.364934 0.717172 1.064045 0.370542 -0.593205 -0.127146 0.368764 -0.872919 1.485100 0.191949 0.194830 -0.133777 -0.250648 -0.543969 -0.365921 -1.117032 0.220140 -0.338869 1.002790 0.115517 0.321303 -0.759825 -0.648819 0.434185 1.301404 1.629352
94 -0.476762 0.001677 -1.025399 -0.933252 0.400878 1.723216 -0.649614 0.434846 1.569195 0.103130 -0.022798 -0.013115 0.148694 -1.912964 -0.181990 -0.399359 0.004639 0.300351 0.422986 -0.522226 -1.094647 0.331793 0.739662 -0.030903 0.094953 -0.159260 -0.644348 0.083886 -0.070819 -0.049116 0.833116 1.515205
551 -0.572923 0.487019 0.306098 0.024999 0.123636 0.342465 0.134668 0.609363 0.200721 0.232115 0.159486 -0.014048 0.182188 -1.010453 0.292954 -0.312318 1.379066 1.231657 -0.444100 -0.624390 0.184922 -0.476465 0.010924 0.678778 0.931208 -0.236732 -0.284493 -0.125424 -0.989239 0.864308 0.366101 -0.229906
628 -0.955660 1.571470 1.042524 -0.284060 1.147325 0.473696 -0.557000 -0.500641 0.724967 0.807029 0.075954 0.919016 0.385576 -0.769650 -0.054583 -0.293024 0.293794 0.648994 0.073551 -1.877462 -0.487845 0.728495 0.181966 -0.442947 0.636268 0.966565 -0.346747 0.102737 -0.149292 0.854134 1.661605 0.481068
1279 -1.246692 -0.617895 -0.334075 -0.853789 0.175303 0.176092 -0.065968 0.789778 0.292420 0.626270 -0.217739 0.061099 0.507594 -0.880084 0.451594 -0.790362 0.458777 0.426568 -0.418189 -0.582264 -0.707478 -0.912732 1.379980 0.604374 -0.150365 0.570397 0.057339 -1.484809 -0.338735 0.153574 0.118849 0.822349
438 -0.441094 0.438086 0.275693 0.045522 0.154714 0.359740 0.057458 0.707779 0.219254 0.443848 0.192682 -0.024306 0.153424 -0.873795 0.140263 -0.378254 1.328107 1.187406 -0.366214 -0.522961 0.212489 -0.438103 0.005200 0.723549 0.825507 -0.214597 -0.168201 -0.083549 -1.016145 1.031416 0.385585 -0.357549
60 0.154898 0.214586 -0.074010 0.258961 -0.598738 1.000677 -0.343811 0.701532 1.123330 0.326082 -0.515750 -0.230489 0.320184 -0.772824 1.433423 0.281502 0.258735 -0.172489 -0.208483 -0.549713 -0.300541 -1.208941 0.282126 -0.393575 1.041048 0.142535 0.243505 -0.706974 -0.696272 0.574236 1.206618 1.540802
211 -0.444397 0.871255 0.322499 -1.234818 -0.377357 1.019600 -1.192259 0.503945 0.510064 0.590459 -0.132860 0.334421 0.758384 -1.107294 0.762003 0.040313 0.622852 0.276230 0.798091 -0.176691 -0.486866 -0.870123 -0.015904 -0.359533 0.072182 -0.490100 -1.413091 -0.559675 -0.173068 -0.192316 0.672757 -0.529912
