491 32
14 0.372416 0.646487 0.578725 -0.583814 1.596131 0.445570 0.976524 -0.082570 -0.113057 0.165713 -0.012656 -0.651873 -0.447598 1.200008 1.064713 0.070327 -0.378577 -1.054717 0.100934 -0.435148 0.895022 0.049409 0.619240 -0.931334 -0.467883 0.131497 -0.341899 1.562145 -1.545484 -0.476329 0.026959 -0.288592
120 0.202466 -0.641352 0.218486 1.256889 0.340457 -1.564619 0.704472 0.624683 -0.167471 0.062529 -0.192063 0.359922 -0.216183 0.814750 0.270373 -1.045275 0.176152 -0.697121 0.472422 -0.591338 -0.272582 0.078654 -0.858108 -1.229337 0.208476 0.233208 -0.401252 0.272565 -1.471771 -0.710088 0.516958 -1.268488
259 1.537403 0.730512 0.451994 0.099079 -0.266154 0.086638 0.714541 0.582419 -0.665584 -0.310613 0.624420 -0.783889 -0.607305 1.689077 -1.035476 0.744812 -0.318717 -0.723043 0.651664 -0.063178 -0.255104 0.142980 -0.305345 -0.619874 0.459933 0.550424 -0.647120 -0.045531 -0.592534 -1.069583 -0.367274 -0.206731
12 0.468067 0.356600 0.484781 0.213327 0.258600 -0.029597 0.013862 -0.857661 -0.303446 0.405611 1.618685 0.334001 -0.497109 0.673150 0.296766 -0.423084 -1.213523 0.196630 0.523201 -1.635053 -0.245300 0.413182 -0.493280 -1.095377 0.053867 0.388169 0.705390 0.166561 -0.855774 -1.184905 0.483018 -0.433932
54 0.443410 0.550955 0.727783 0.627523 0.689914 -0.389026 -0.015507 0.017177 -0.904577 -0.406687 -0.052812 -0.711670 0.176667 0.319026 -0.022350 0.010717 -0.024453 0.200141 -0.194277 -0.685697 0.222065 -0.327341 -1.221388 0.558203 -0.507175 -0.524412 -0.198271 0.565311 -1.100847 -1.066246 -0.004353 -0.290974
110 0.475187 0.534918 0.715589 0.612941 0.729199 -0.418516 0.032128 -0.010836 -0.875282 -0.332890 -0.087231 -0.736639 0.187650 0.325989 -0.010467 -0.075308 0.000709 0.276707 -0.182239 -0.643817 0.206541 -0.357338 -1.266959 0.578754 -0.439510 -0.566582 -0.186154 0.580462 -1.113231 -0.959952 -0.014610 -0.241663
239 0.471821 0.526455 0.764005 0.624876 0.679610 -0.415104 0.031681 0.022142 -0.923694 -0.378164 -0.007992 -0.789537 0.192044 0.346305 -0.048127 -0.014689 0.056354 0.187476 -0.177639 -0.672459 0.166295 -0.344069 -1.265854 0.582755 -0.487897 -0.538517 -0.212555 0.584913 -1.063564 -1.034991 -0.063880 -0.316237
174 0.943595 0.948023 1.141974 0.230924 0.187750 0.047499 0.175937 -0.996202 0.174764 -0.735545 0.308378 -0.273330 -0.920479 1.024841 0.093790 -0.983919 -0.317598 -1.495612 -0.302707 -1.123240 -1.005246 -0.361295 -0.862922 -0.353538 0.295692 0.165539 -0.365598 1.123451 -0.971487 0.339887 -0.027817 -0.629116
180 0.922519 0.614606 0.177074 0.556459 0.556014 -1.035282 0.478476 -0.114723 -0.155449 -0.480908 0.274598 -0.783158 0.345774 0.181752 -0.180503 -0.984997 -0.835642 -0.441001 -0.046499 -1.010299 -0.159949 -0.662957 0.964624 -0.998743 0.101703 0.372984 -0.417589 -0.132361 -1.255535 -1.303762 -0.921029 -0.320248
13 2.479316 -0.291284 -0.553865 0.810237 0.849963 -0.169674 0.513455 0.668297 0.089705 0.316201 -0.185378 -0.015987 -0.175463 1.136192 1.097467 -0.412247 -0.662619 0.147475 0.738756 -0.091117 0.464606 -0.200762 -0.781066 -0.680661 -0.644727 -0.292261 -0.095517 -0.375317 -0.977661 -1.346382 -0.641131 -0.019583
7 2.376734 -0.261673 -0.511016 0.739200 0.807943 -0.174286 0.499917 0.709245 0.041469 0.319678 -0.151717 -0.029614 -0.123605 1.123335 1.132189 -0.437125 -0.642645 0.192885 0.745040 -0.059302 0.509804 -0.225678 -0.784545 -0.649640 -0.632928 -0.288869 -0.096032 -0.405746 -0.972191 -1.343342 -0.605049 -0.014698
2 1.352067 0.411284 0.882232 -0.263168 0.546814 0.443251 0.601966 0.119690 0.268962 -0.097773 -0.115980 1.155976 -1.171116 0.881299 0.575564 -0.477782 -0.907598 -0.376334 0.769310 0.836502 -0.350290 -0.489347 -1.540778 -0.197734 -0.844066 0.119879 -0.333968 1.123988 -0.455100 -1.167665 1.081455 -0.488404
99 0.675841 0.206921 0.630365 0.051523 0.677597 -0.711095 0.733321 0.206687 0.437577 0.420912 0.554471 0.198394 -0.090262 2.014222 0.138538 0.715196 -0.953564 -0.411267 -0.055840 -0.107643 0.141927 0.945805 -1.282503 -0.657012 -0.907480 -1.235009 -0.390634 -0.117630 -1.142305 -0.434600 0.336714 -0.989786
330 0.663783 0.170864 0.610461 0.045759 0.649004 -0.761416 0.727000 0.177725 0.458110 0.408871 0.554062 0.196772 -0.126559 1.985149 0.144093 0.761027 -0.988695 -0.399870 -0.123521 -0.106522 0.113637 0.963026 -1.204867 -0.677742 -0.897333 -1.388102 -0.429104 -0.129596 -1.150716 -0.396249 0.288411 -1.016384
20 0.827521 0.713492 0.148782 0.566772 0.615063 -0.955517 0.456850 -0.065654 -0.141377 -0.538691 0.321881 -0.839272 0.432357 0.186737 -0.116825 -1.017614 -0.878350 -0.424903 0.003423 -0.995823 -0.111324 -0.677746 0.885952 -1.052451 0.092496 0.363559 -0.470323 -0.116634 -1.188559 -1.231805 -0.948018 -0.322644
19 1.393093 0.419405 1.047110 -0.213095 0.636596 0.403156 0.571427 0.121811 0.299263 -0.127471 -0.070262 1.128140 -1.269633 0.874765 0.601643 -0.426117 -0.953296 -0.374799 0.761612 0.813263 -0.315554 -0.475448 -1.616002 -0.212020 -0.792112 0.156698 -0.295474 1.139633 -0.464143 -1.200974 1.062632 -0.408081
22 0.840898 0.715401 0.080451 0.571440 0.676413 -0.944014 0.413098 -0.069711 -0.144137 -0.556500 0.329312 -0.853217 0.411469 0.165450 -0.115870 -1.018831 -0.896431 -0.390800 0.034730 -1.019268 -0.133636 -0.646908 0.892020 -1.074685 0.070706 0.336053 -0.454264 -0.120263 -1.212832 -1.235966 -0.946098 -0.348700
0 1.110954 0.816408 0.764829 -0.649957 -0.662273 0.260600 0.172461 0.877504 0.814108 -0.398354 -0.516747 -0.639322 -0.174053 1.095042 0.238089 -0.763518 -1.617384 -1.229033 0.988577 -0.345912 -1.121924 0.614328 0.026400 -1.752746 -0.815807 0.497186 0.705364 0.483687 -0.732649 -0.862600 0.785459 -1.077106
51 0.831274 0.762875 0.136413 0.513014 0.603726 -1.002815 0.450584 -0.076534 -0.155323 -0.492145 0.344255 -0.865619 0.394946 0.156500 -0.096952 -1.015174 -0.840387 -0.438295 -0.056787 -1.037337 -0.096711 -0.700948 0.912238 -1.083262 0.056035 0.313032 -0.465908 -0.136913 -1.179057 -1.277189 -0.929865 -0.346670
27 1.257450 1.004317 0.599121 0.085237 0.873939 -0.642578 0.640870 0.307079 -0.418970 -0.148955 0.385601 -0.707976 -0.172262 1.289707 0.177952 -0.793271 -0.751602 -0.634924 0.813410 -0.754472 -0.174205 -0.251977 -0.955476 -0.722292 -0.626145 -0.064314 -0.565846 0.762057 -1.509279 -1.423543 -0.131696 -0.863208
302 1.071399 1.119123 0.293681 0.253403 0.957399 -0.696167 0.298506 0.299294 -0.460200 -0.287832 0.536302 -0.490252 -0.482337 1.107598 0.247368 -0.697181 -0.693051 -0.615503 0.461401 -0.835812 -0.023695 -0.510756 -1.154058 -0.461729 -0.438930 0.238859 -0.348841 0.647299 -1.040659 -1.183818 -0.175927 -0.477096
4 -0.031287 0.452092 0.086835 -0.035317 0.640284 -0.044821 -0.842836 0.424385 -0.190819 -0.779076 0.873872 -0.555362 -0.479937 0.625003 -0.395612 -0.927464 -0.944785 -0.238459 1.396757 0.554720 -0.192145 -0.609448 -0.638345 -0.623300 0.108118 -0.134594 -0.267696 0.416395 -0.848781 -0.918258 -0.203279 -1.581902
25 -0.069515 0.508252 0.052019 -0.005490 0.640757 -0.054909 -0.881497 0.367483 -0.191599 -0.784600 0.938065 -0.591560 -0.514433 0.690021 -0.413230 -0.923383 -0.934648 -0.215706 1.463398 0.522863 -0.220747 -0.603689 -0.646382 -0.607655 0.146215 -0.178849 -0.235681 0.404283 -0.860352 -0.925939 -0.221816 -1.598342
10 -0.042563 0.462696 0.018314 -0.017004 0.675515 -0.028609 -0.873782 0.370186 -0.167761 -0.793384 0.885852 -0.519623 -0.516717 0.680737 -0.395289 -0.905524 -0.915016 -0.207432 1.460016 0.542714 -0.207880 -0.598031 -0.620139 -0.590961 0.138855 -0.114978 -0.236375 0.399018 -0.851455 -0.893794 -0.201067 -1.601831
74 0.180332 0.670963 0.531258 -0.841881 0.321424 0.051658 0.313814 0.048869 -1.265849 0.249807 0.351291 0.333803 -1.042663 2.614997 0.053487 -0.403035 0.413321 0.855282 1.679285 -0.967848 -0.127280 -0.194440 -1.342775 -0.681211 -0.726415 -0.370991 -0.472010 0.711137 -0.803162 -0.735600 0.205768 -0.440461
897 1.091040 1.595338 0.283090 0.577723 1.171100 0.581868 -0.259315 0.192421 0.683036 -0.692293 0.070022 -0.355454 0.756030 1.126247 0.226972 -0.447387 -1.513446 -0.199425 1.347952 -0.377468 -0.532468 -0.080885 -1.026308 0.277502 -0.686064 1.108499 -0.117229 0.402136 -1.089324 0.205495 -0.574413 0.107370
240 0.575154 0.798860 0.205729 0.744712 1.555334 0.230142 0.033177 0.449882 -0.895071 0.160464 -0.186625 -0.524771 0.162698 0.171044 0.096581 -1.923924 -0.044192 -1.620266 1.327080 -0.644586 -0.324128 -0.321518 -0.677228 -0.149555 -0.304962 1.214171 0.278394 0.477955 -0.474987 -1.491347 0.679816 -0.064084
350 0.416085 0.685545 1.048129 -1.322820 0.604724 -0.754359 1.403574 0.161776 0.822232 -0.714480 0.504327 0.061046 0.166516 0.740505 -0.998927 0.231353 0.355805 -0.049974 0.813960 -0.890382 -0.918400 -0.592675 -0.870054 -0.205541 -0.482500 0.394801 -0.437793 0.899915 -1.825231 -0.816207 0.612130 -1.165000
1092 0.342936 0.813666 0.423052 0.818066 1.597476 0.284524 0.069614 0.465143 -0.863287 0.009885 -0.095894 -0.389008 0.192364 0.139392 0.191870 -1.992503 -0.202105 -1.501084 1.286172 -0.757026 -0.347910 -0.265370 -0.762085 -0.146853 -0.300241 1.232315 0.202276 0.548001 -0.633091 -1.582497 0.795981 -0.117426
513 -0.331483 1.828123 0.453950 -0.469572 0.960612 -0.222131 0.378361 0.188290 0.018807 -0.234404 0.485240 -0.660537 0.556242 1.959985 0.695587 -0.913299 -0.782122 -0.247765 0.720408 -0.519563 0.545603 -0.682688 -0.633191 -0.241360 -0.098252 -0.185388 -1.393079 -0.011472 0.177334 -1.454309 1.085192 -0.264828
476 -0.401926 1.841656 0.463809 -0.531955 0.963687 -0.241326 0.419584 0.169901 -0.026867 -0.256494 0.468823 -0.678116 0.599509 1.969191 0.667299 -0.913272 -0.735652 -0.235346 0.743277 -0.554579 0.536659 -0.757472 -0.585901 -0.226879 -0.034752 -0.133824 -1.373374 -0.060414 0.138275 -1.405646 1.094685 -0.257250
80 1.109951 0.454798 -0.683469 0.717309 0.773190 0.180411 -0.591715 0.197544 0.838272 -0.496998 0.592066 -0.974367 -0.959275 0.748412 -0.153175 -0.444616 -1.583606 -0.296068 -0.195945 -0.379424 -0.212483 0.873712 -0.492445 -0.414611 -0.760968 -0.148761 -0.887658 1.328924 -0.663262 -1.806099 0.051838 0.366197
89 1.090398 0.684917 0.780929 -0.404241 0.573884 -0.670653 1.262000 0.604189 -0.613126 0.003061 -0.379790 -0.017137 -0.270121 0.934507 -0.022376 -0.970571 -1.189777 0.637294 1.072922 -0.597940 0.741784 -1.040564 -0.399211 -0.528328 0.458437 0.844481 0.795625 0.491999 -1.674575 -0.132099 0.442525 0.056680
415 1.055379 0.713102 0.874194 -0.425053 0.585875 -0.696138 1.316436 0.577627 -0.637090 -0.038008 -0.377776 -0.049385 -0.310364 0.942708 0.006752 -0.930197 -1.245478 0.606106 1.083687 -0.599407 0.714111 -0.937459 -0.459530 -0.596829 0.418866 0.872343 0.820586 0.559413 -1.745439 -0.156371 0.425103 0.043441
308 0.148628 0.239796 1.143584 -0.412712 1.087188 -1.148482 0.358025 0.166681 0.464301 0.043508 1.215403 -0.428789 -0.545199 0.533542 0.105078 -0.405551 -0.501105 -0.653236 0.165522 0.264233 -0.053193 -0.088248 -1.416959 -0.907699 -0.929590 1.032706 -0.513046 0.193349 -0.631190 -0.907038 -0.834548 0.262978
696 0.609742 0.477491 0.605765 0.618533 0.398754 0.193980 0.029506 -0.947146 -0.213820 0.422174 1.546941 0.103474 -0.146800 0.605207 0.251055 -0.607726 -1.149773 0.434499 0.699770 -1.364724 -0.289950 0.555519 -0.681666 -1.152661 0.071328 0.622034 0.769088 0.404566 -0.621971 -1.115861 0.198972 -0.616719
389 0.437246 0.328935 0.477735 0.169367 0.283821 -0.074033 0.018710 -0.822383 -0.360039 0.396840 1.629964 0.356362 -0.583810 0.709006 0.380379 -0.416887 -1.232095 0.076468 0.473664 -1.679689 -0.269598 0.328130 -0.475986 -1.097084 0.096233 0.348156 0.609007 0.073108 -0.874561 -1.290793 0.589303 -0.318664
709 -0.120966 1.336079 -0.754390 -0.531644 1.370730 -0.335759 1.115080 -0.177665 0.252523 0.127323 0.814734 -0.705233 0.214168 0.954845 0.108365 -0.279250 -0.439925 0.915231 0.693944 -0.062964 -0.641467 -0.255091 -0.300337 -0.958011 -1.554940 -0.373199 0.725462 -0.029007 -1.640731 -1.884405 -0.108461 -0.551077
454 1.032857 2.188243 -0.068968 0.369817 -0.371251 -1.342704 0.000974 0.282657 0.185503 0.965491 0.518731 0.006394 -0.578678 1.000316 0.614490 -1.594681 -0.772465 -0.776555 0.447287 -0.211928 -0.326912 0.099568 -0.638564 -0.697496 0.352964 1.174446 -0.819795 0.200033 0.041664 -0.481679 0.158812 -1.438929
792 1.407664 0.929598 -0.050007 0.279924 0.089387 -0.273373 0.364155 0.664558 -1.149876 0.962283 0.574014 -1.556952 -0.169938 1.318214 0.266923 -0.692896 -1.319595 -0.244846 0.568053 0.153525 -0.605379 -0.643710 0.073407 -0.159056 -0.634829 -1.099684 -1.459975 1.435880 -0.381861 -0.367437 -0.998902 -0.621135
935 1.049022 0.941802 0.576641 0.222545 0.787477 -0.524106 0.469605 0.293049 -0.289726 -0.162620 0.290737 -0.404128 -0.184658 1.125068 0.146522 -0.716670 -0.804098 -0.486537 0.569875 -0.728960 -0.261503 -0.150219 -0.744635 -0.655936 -0.513381 0.095522 -0.468537 0.626391 -1.307390 -1.286969 -0.030786 -0.674371
304 1.116131 0.331760 -0.524835 -0.257204 0.191689 0.081616 0.174139 1.472423 -0.358945 0.055166 0.198399 0.293746 0.608573 1.647126 0.044948 -0.586049 0.110417 -0.385567 1.043902 -0.462928 0.137459 -0.139944 -0.112956 0.139058 -1.718666 -0.317169 -0.296917 0.820809 -0.595396 -1.556541 0.266308 -2.165755
524 0.976738 0.914456 0.509973 0.383174 0.703856 -0.631370 0.167677 0.318016 -0.290092 -0.260080 0.481079 -0.286249 -0.363289 0.999616 0.182035 -0.717918 -0.714705 -0.432542 0.470987 -0.461447 -0.163253 -0.016453 -0.683910 -0.632141 -0.443151 0.301090 -0.231424 0.696178 -1.168546 -1.133375 -0.017788 -0.621299
28 1.237463 1.134016 0.829804 0.321082 0.987971 -0.741924 0.459901 0.345297 -0.328274 -0.321864 0.544927 -0.493090 -0.211769 1.410415 0.241803 -0.936895 -1.010923 -0.594157 0.805787 -0.844873 -0.295488 -0.142790 -0.958969 -0.769073 -0.636126 0.207593 -0.576723 0.708009 -1.530071 -1.656913 -0.115059 -0.882269
704 0.531145 0.837127 0.882369 0.465187 -0.545982 0.597089 1.648454 0.179955 -1.357620 -0.417775 0.060181 1.158917 0.094364 1.019091 0.374571 -1.040761 -0.639791 -0.207557 0.602952 -0.444256 -0.198538 0.526922 -1.314647 -0.810589 -0.705366 0.491052 -0.013269 -0.818302 -1.758981 -0.733870 -0.813088 -1.067324
76 0.196718 1.402509 0.136855 -0.546297 -0.429898 -0.695893 1.631997 0.350596 -0.125898 0.242213 -1.086730 0.128878 -0.300669 0.895859 0.551176 -1.301832 0.504340 -1.683158 1.537224 -0.392714 -0.469928 0.406872 -0.968136 0.431450 -1.206717 0.419413 -0.135976 1.250307 -1.707853 -0.777632 0.732243 -0.963086
1218 1.439506 0.956514 0.348970 0.659307 0.485602 -0.434164 1.322676 1.056036 -0.441826 -0.265794 -0.877642 -1.225209 -0.349372 -0.047385 0.826818 -1.763961 -1.530731 -0.986269 -0.886688 -1.380695 0.091042 0.210232 -0.575427 -0.589898 -0.854357 0.533649 0.519186 1.358233 -0.505277 -0.314228 0.612508 -0.436020
215 0.873841 0.718291 0.549371 0.113818 0.412685 -0.578851 0.383231 0.284066 -0.124013 -0.080058 0.348649 -0.287399 -0.336239 0.914871 0.219188 -0.486820 -0.751505 -0.312397 0.359219 -0.535227 -0.317844 -0.112989 -0.672486 -0.571801 -0.424351 -0.011739 -0.358188 0.446706 -1.124236 -1.024791 -0.088839 -0.659175
282 1.144634 0.849986 0.429840 0.323276 0.657182 -0.614155 0.471637 0.200713 -0.086370 -0.242705 0.395958 -0.238118 -0.285208 1.302263 0.384392 -0.635206 -0.852505 -0.314806 0.624628 -0.447263 -0.286802 -0.135614 -0.656228 -0.631978 -0.408268 -0.114108 -0.368180 0.590089 -1.366752 -1.333103 -0.108025 -0.959158
910 1.697008 1.219135 -0.794427 -1.178189 -0.372667 0.139600 1.345004 0.578595 0.338240 0.446412 -0.390601 -0.423189 0.016244 0.675189 0.100833 -0.643183 -0.470692 -0.098798 -0.533460 -0.168952 -0.886147 -0.021067 -1.616337 -1.128625 0.336114 -0.426819 -0.481594 0.935216 -1.716195 -0.746639 -0.292533 -0.658775
1162 1.045666 0.936881 0.673386 0.188554 0.779478 -0.567297 0.455194 0.301533 -0.293483 -0.238952 0.412027 -0.472205 -0.144612 1.165781 0.267751 -0.730136 -0.832721 -0.412505 0.581815 -0.674387 -0.338592 -0.143516 -0.758404 -0.606737 -0.417607 0.165742 -0.472571 0.639962 -1.375999 -1.355591 -0.160966 -0.788223
428 0.793377 2.234334 -0.174011 0.374759 -0.305085 -1.209322 0.166321 0.373379 0.137800 0.993997 0.567160 0.028478 -0.690458 1.020337 0.601035 -1.677462 -0.895639 -0.960913 0.435066 -0.233383 -0.336745 0.143785 -0.419073 -0.803624 0.473699 1.005702 -0.916341 0.048235 0.107106 -0.658063 0.250321 -1.342197
816 1.592088 1.142660 1.648587 -1.142101 0.118453 -0.900400 0.018036 0.977029 0.838070 0.611632 0.171717 -0.627690 1.184239 0.720745 0.661634 -0.509176 -0.365251 -0.192122 0.001787 0.354192 -0.208070 -0.464832 0.065673 -0.398889 -1.199003 -0.306588 -0.327197 0.713746 -1.001240 -1.398524 -0.239294 -0.629759
565 1.121664 1.168695 1.132980 -0.021695 0.257909 -1.453573 -0.191755 -0.633837 0.605764 -0.058179 -0.567492 0.272658 -1.120667 1.130940 -0.604283 -0.487748 -0.702666 0.183054 -0.073021 -0.477266 -0.278665 -0.027236 -0.117472 -0.824755 0.177856 -0.030640 -1.708325 -0.004847 -1.242832 -1.359079 0.989106 -0.156431
405 1.006588 0.859818 0.527593 0.247767 0.743078 -0.493072 0.447331 0.251153 -0.258836 -0.149154 0.273292 -0.372711 -0.180387 1.077841 0.135639 -0.652417 -0.761738 -0.467248 0.538476 -0.674568 -0.237658 -0.166816 -0.687142 -0.601579 -0.490434 0.059367 -0.436502 0.618111 -1.244975 -1.203806 0.005418 -0.628671
421 1.115490 1.193911 1.105755 -0.046542 0.354007 -1.292404 -0.265653 -0.578895 0.585319 0.015215 -0.734022 0.265317 -1.050872 1.030973 -0.595082 -0.408256 -0.692234 0.244205 -0.070098 -0.437137 -0.269861 -0.129567 -0.122421 -0.759821 0.030570 0.179043 -1.664369 -0.053097 -1.322114 -1.249826 0.989563 0.066281
155 0.077374 0.716346 0.951100 -0.141634 -0.643874 -0.520939 -0.554547 0.769555 -0.651070 -0.392534 0.349642 -0.505730 -0.996354 1.045437 1.432915 -0.313538 -1.416677 -0.790540 0.545954 -0.498801 -0.374042 1.455637 -1.831507 0.444935 -0.547713 -0.123979 -0.456348 1.419627 -0.611143 -0.924865 0.516259 -0.851083
921 1.444459 0.625989 0.744956 0.277475 -0.194094 0.040208 0.558398 0.740627 -0.552608 -0.492204 0.843202 -0.589727 -0.485916 1.749800 -0.883437 0.849627 -0.324658 -0.934356 0.303546 -0.180005 -0.236643 0.067353 -0.207938 -0.578384 0.119664 0.570696 -0.655551 -0.065557 -0.546323 -1.155333 -0.362097 -0.311093
11 1.088634 0.314516 -0.482357 -0.138327 0.184783 0.048127 0.091949 1.383283 -0.359747 -0.078046 0.115571 0.383321 0.658261 1.594675 0.049133 -0.569955 0.170880 -0.323801 1.073117 -0.551714 0.212108 -0.104798 0.018285 0.251587 -1.739777 -0.369621 -0.243654 0.794033 -0.657990 -1.582484 0.279066 -2.212970
206 0.188280 0.764964 0.937218 -0.197939 -0.866501 -0.397600 -0.504065 0.648407 -0.681984 -0.235547 0.321062 -0.486452 -1.075988 1.149691 1.360396 -0.268999 -1.364844 -0.880222 0.446592 -0.396340 -0.288643 1.475707 -1.802323 0.271915 -0.453401 -0.382511 -0.521675 1.257760 -0.669632 -0.876876 0.447106 -0.901912
1109 1.472450 0.704885 0.580079 0.152522 -0.238074 0.041315 0.555897 0.590730 -0.646679 -0.420831 0.832577 -0.746592 -0.613401 1.755582 -1.017844 0.813180 -0.350304 -0.810285 0.399020 -0.141427 -0.266381 0.118923 -0.277148 -0.611177 0.282858 0.553752 -0.668390 -0.100777 -0.621984 -1.109536 -0.490155 -0.263250
263 1.099881 0.319124 -0.474657 -0.192985 0.221047 0.072986 0.124641 1.421991 -0.378522 0.041822 0.121835 0.327218 0.623491 1.575577 0.029003 -0.558648 0.136823 -0.349570 1.057455 -0.485959 0.169356 -0.099114 -0.091000 0.205339 -1.733989 -0.322170 -0.264129 0.828095 -0.639039 -1.613414 0.317867 -2.138723
349 0.647300 0.498831 0.898987 -0.739322 0.934670 -0.476074 0.741330 0.430157 -0.859270 -0.778310 0.339712 0.557485 0.746483 -0.359099 1.377890 -0.441583 -1.257354 -0.929235 0.751633 -0.378496 -0.671671 0.969965 -0.097924 -0.453900 -0.477474 0.537041 -1.057442 0.368618 -0.754549 -1.492010 -0.011061 -0.524921
434 1.120868 0.907039 0.646917 0.370275 0.573916 -0.474319 0.480348 0.392903 -0.432592 -0.180295 0.470320 -0.631484 -0.234487 1.140970 0.176718 -0.873369 -0.641859 -0.634719 0.641355 -0.761242 0.035412 -0.061259 -0.736788 -0.393139 -0.530482 0.234057 -0.397706 0.642228 -1.046476 -1.273856 -0.013074 -0.799198
212 0.100515 0.174173 1.094285 -0.343195 1.045867 -1.053505 0.481785 0.206633 0.521054 0.031943 1.270544 -0.505415 -0.458205 0.572884 0.009598 -0.468040 -0.421445 -0.580944 0.267349 0.371093 -0.029506 -0.112394 -1.306662 -0.980500 -1.008042 1.032836 -0.529147 0.255799 -0.675053 -1.005085 -0.831248 0.335651
763 0.743358 0.457544 0.823726 0.947412 0.469313 0.384017 0.092172 -1.068229 -0.192489 0.270598 1.423603 -0.109250 -0.039166 0.546536 0.166587 -0.699351 -1.204615 0.784440 0.851317 -1.214257 -0.317602 0.655893 -0.704423 -1.102500 0.160291 0.755251 0.767235 0.721267 -0.704549 -0.948395 -0.066520 -0.841217
1150 1.228526 1.605878 0.965555 -1.092860 0.606852 -1.265704 -0.423455 0.459937 -0.917312 0.374584 0.534056 0.656069 -0.408279 1.454871 0.396434 -0.582675 -0.341023 -0.801334 0.536085 -0.613077 -1.073898 0.264292 -0.843705 -0.600078 0.138068 -0.417480 0.269017 -0.304753 -0.408108 -0.712030 -1.721382 -0.274663
442 0.140505 0.319965 1.170294 -0.315335 1.150301 -1.056335 0.440331 0.138176 0.443430 0.043809 1.251481 -0.476615 -0.474452 0.557588 0.052879 -0.460428 -0.526481 -0.609783 0.259119 0.262194 0.008914 -0.135278 -1.421330 -0.950022 -0.982062 1.102806 -0.461745 0.204342 -0.692098 -0.932855 -0.777668 0.337530
1029 0.718080 0.672426 0.717650 -0.648834 0.855667 -0.410879 0.668933 0.459043 -0.800087 -0.858890 0.387203 0.581823 0.825037 -0.377787 1.300350 -0.513907 -1.183806 -0.937197 0.654923 -0.371575 -0.763386 0.965029 -0.075152 -0.467846 -0.492917 0.709151 -1.180127 0.516926 -0.770556 -1.500454 -0.048353 -0.528900
838 0.978383 -0.071884 0.602941 1.151553 -0.536745 -1.074118 0.362299 0.117492 0.427654 0.887595 0.828406 -0.231179 -0.474049 0.547988 0.227694 -0.930818 -0.686439 -0.982423 0.342105 -1.009434 0.260620 -0.080759 -0.119917 -0.746112 -2.357804 -0.075682 0.533789 1.159440 -0.682649 -1.277324 -0.936538 -0.883682
744 0.375455 0.804955 0.318691 0.755316 1.532735 0.257238 0.033903 0.398296 -0.882791 0.051121 -0.096664 -0.419958 0.174814 0.156470 0.090625 -2.005245 -0.173100 -1.517645 1.300288 -0.738509 -0.315879 -0.292856 -0.677347 -0.122987 -0.303394 1.214052 0.249684 0.456925 -0.527207 -1.544432 0.707942 -0.071753
1076 0.846664 0.743161 0.072717 0.541680 0.582400 -0.926530 0.386124 -0.067706 -0.161315 -0.500552 0.365481 -0.843807 0.411396 0.141498 -0.114462 -1.032926 -0.867261 -0.436607 -0.008015 -1.006458 -0.113771 -0.698324 0.891479 -0.971210 0.119064 0.376367 -0.437146 -0.116719 -1.199760 -1.200759 -0.927792 -0.318728
759 -0.024902 0.590822 1.314775 1.377113 1.232459 -0.024035 0.282305 0.044966 0.363417 -0.134288 0.402005 -1.018279 0.360368 0.804633 0.630834 -0.017595 -0.430120 -0.888819 1.016005 -0.296423 -1.611290 0.037284 -0.343408 -1.868045 0.044685 -0.721775 -1.321781 0.634691 -0.437684 -1.105870 0.103801 -0.097285
412 0.789894 0.664726 0.674690 -0.691889 0.802585 -0.387913 0.687997 0.526375 -0.702035 -0.849615 0.466968 0.593916 0.823336 -0.318861 1.252910 -0.510601 -1.190311 -0.978632 0.720721 -0.302187 -0.749007 1.018018 -0.051437 -0.478909 -0.485352 0.756284 -1.155448 0.472982 -0.781688 -1.505238 -0.088272 -0.472573
765 1.275730 1.636682 0.947398 -1.087904 0.690777 -1.299086 -0.484459 0.404183 -0.926772 0.404557 0.496716 0.611966 -0.353160 1.456442 0.424240 -0.525103 -0.373628 -0.754418 0.453271 -0.574049 -1.086565 0.219690 -0.817747 -0.533469 0.171447 -0.488560 0.146155 -0.299333 -0.460561 -0.731584 -1.658393 -0.216402
1021 -0.000668 0.598831 1.308323 1.378659 1.243387 -0.096513 0.273053 0.061503 0.318204 -0.181874 0.390894 -1.023420 0.316382 0.827126 0.608346 0.003739 -0.453828 -0.906080 0.972035 -0.280370 -1.593148 -0.005185 -0.361186 -1.897408 0.053014 -0.701898 -1.369671 0.626219 -0.490465 -1.219392 0.084780 -0.136077
337 0.839571 0.954194 0.432803 -0.529670 0.577354 -0.326898 0.590681 0.566455 -0.519575 -0.896874 0.585047 0.603756 0.852521 -0.313581 1.039305 -0.765630 -1.014393 -1.166949 0.750605 -0.274488 -0.991340 1.058777 -0.007969 -0.522678 -0.553078 1.009398 -1.303335 0.728155 -0.806799 -1.359668 -0.193350 -0.579808
1250 0.859547 -0.035123 0.589988 1.176490 -0.527359 -0.947968 0.349116 0.124410 0.386831 0.863667 0.895460 -0.290751 -0.482240 0.566664 0.220433 -1.010788 -0.632943 -0.946993 0.381316 -1.022143 0.209083 -0.161944 -0.078386 -0.692987 -2.370568 -0.023314 0.544666 1.231758 -0.671819 -1.242458 -0.913505 -0.904478
85 0.130865 -0.705633 0.282548 1.217234 0.260983 -1.551348 0.764053 0.648780 -0.210451 0.131914 -0.294316 0.339603 -0.172793 0.734115 0.410515 -1.071812 0.099185 -0.646849 0.543645 -0.581008 -0.116591 0.082921 -0.788475 -1.245045 0.133243 0.160629 -0.436804 0.210477 -1.410857 -0.840981 0.663759 -1.222638
270 0.264435 0.215257 1.141505 -0.464583 1.155263 -1.161758 0.320977 0.147765 0.441813 0.136804 1.151976 -0.440136 -0.516880 0.469539 0.096223 -0.438257 -0.450314 -0.688970 0.183066 0.216642 -0.084351 -0.044647 -1.460828 -0.908569 -0.921268 1.079994 -0.503651 0.168485 -0.601185 -0.786118 -0.873342 0.247855
111 1.580197 1.486321 0.154867 0.255335 0.784566 -0.406920 -0.094420 0.647647 -0.068476 -0.262682 -0.175657 -0.204681 -2.002043 0.376014 0.301128 -1.167368 -0.689023 0.566495 0.272484 -0.813768 -0.617725 0.745016 -0.702523 -0.683031 0.006908 -1.484140 0.301341 0.793254 -0.322073 -0.617006 -0.086419 -1.764817
36 0.705246 0.208409 0.679080 0.000245 0.665551 -0.789667 0.793125 0.208306 0.429368 0.437452 0.576395 0.204423 -0.218380 1.956995 0.136868 0.712015 -0.932610 -0.390907 -0.093879 -0.117631 0.087188 0.926230 -1.299583 -0.672151 -0.860708 -1.319413 -0.360316 -0.137161 -1.167730 -0.407459 0.320598 -1.008128
403 1.078922 0.409741 -0.671148 0.683772 0.707976 0.159288 -0.576692 0.207508 0.839828 -0.494169 0.527296 -0.942268 -0.947529 0.734183 -0.163925 -0.409339 -1.562302 -0.246727 -0.187293 -0.307386 -0.162850 0.901233 -0.508778 -0.427102 -0.747943 -0.235954 -0.938374 1.284881 -0.647122 -1.858467 0.077150 0.335956
909 0.471807 0.555377 0.705595 0.665523 0.689075 -0.363341 -0.011891 0.023891 -0.925604 -0.362958 -0.031314 -0.841358 0.157541 0.356018 -0.006296 0.079221 0.064145 0.197837 -0.214591 -0.667953 0.164925 -0.307873 -1.205139 0.554416 -0.426283 -0.570187 -0.178821 0.589965 -1.126789 -1.122640 -0.017894 -0.254669
153 0.210881 -0.629982 0.146485 1.357267 0.342639 -1.606058 0.664044 0.615933 -0.191821 0.012045 -0.234513 0.374363 -0.262653 0.725713 0.272904 -1.064394 0.052112 -0.720836 0.442787 -0.584804 -0.343720 0.145817 -0.892205 -1.208146 0.250911 0.196586 -0.389312 0.341986 -1.499521 -0.694865 0.462033 -1.181766
741 1.082904 0.885497 0.619015 0.337321 0.577800 -0.468877 0.478286 0.387097 -0.413747 -0.184031 0.414982 -0.580877 -0.232794 1.097297 0.181908 -0.859164 -0.629334 -0.611648 0.600166 -0.741319 0.007068 -0.077106 -0.761123 -0.404543 -0.545906 0.189042 -0.359485 0.640028 -1.009426 -1.269203 -0.027108 -0.781627
260 1.617974 1.581398 0.199816 0.266181 0.742576 -0.453442 -0.111834 0.673575 -0.025283 -0.234838 -0.141346 -0.209543 -2.031169 0.494887 0.340679 -1.157790 -0.680054 0.556945 0.286120 -0.705555 -0.564456 0.752946 -0.713741 -0.655800 0.070564 -1.496018 0.273867 0.780053 -0.298695 -0.508608 -0.098098 -1.761019
531 0.431506 0.650009 0.707910 0.631823 0.682613 -0.394341 -0.044229 -0.009279 -0.900877 -0.394591 0.034111 -0.735448 0.144771 0.392532 -0.029468 0.050925 -0.038654 0.232743 -0.189095 -0.729501 0.184107 -0.389957 -1.195554 0.509983 -0.453502 -0.603032 -0.169573 0.584471 -1.102412 -1.027561 -0.010829 -0.338155
106 0.166829 0.193515 1.113522 -0.331287 1.052875 -1.049177 0.431389 0.206616 0.494203 -0.007592 1.242592 -0.458754 -0.513828 0.526584 0.043418 -0.441370 -0.441456 -0.619944 0.225309 0.352588 -0.027155 -0.072444 -1.413173 -0.948019 -1.018718 1.029070 -0.492249 0.200373 -0.698081 -0.983737 -0.822664 0.276912
1039 1.576190 0.837822 0.377728 0.087467 -0.185913 0.148183 0.756454 0.501912 -0.629493 -0.230647 0.510552 -0.773709 -0.535518 1.703517 -1.036667 0.642689 -0.365750 -0.686791 0.742345 -0.053889 -0.312649 0.080277 -0.347539 -0.721146 0.542530 0.519427 -0.748029 0.014478 -0.606671 -1.007246 -0.301634 -0.166415
394 0.968886 0.962969 1.135003 0.225075 0.262187 0.021531 0.160519 -0.902056 0.115881 -0.715417 0.272235 -0.270903 -0.911635 0.957344 0.081068 -0.949817 -0.322738 -1.434368 -0.326692 -1.155556 -1.091596 -0.298436 -0.847256 -0.304084 0.339725 0.239152 -0.287400 1.170194 -1.052475 0.350230 0.026348 -0.644155
1268 0.973252 0.916935 1.078603 0.192760 0.203247 0.042273 0.150841 -0.949470 0.114629 -0.734292 0.268356 -0.313358 -0.900757 0.956827 0.098146 -0.978658 -0.344231 -1.467085 -0.314252 -1.119205 -1.049905 -0.364761 -0.808121 -0.297439 0.276453 0.130726 -0.310066 1.116012 -0.976575 0.350749 -0.068163 -0.598631
825 2.400436 -0.321041 -0.480837 0.748020 0.867946 -0.223073 0.491569 0.635030 -0.027867 0.347933 -0.163998 -0.021660 -0.222157 1.089442 1.080145 -0.442505 -0.626083 0.163317 0.721460 -0.039769 0.402824 -0.214358 -0.762320 -0.730246 -0.586374 -0.262380 -0.120636 -0.380794 -0.918454 -1.318949 -0.642920 -0.023792
223 1.599099 1.685198 0.269738 0.327648 0.820813 -0.519554 -0.067090 0.673095 -0.012760 -0.253410 -0.103228 -0.302593 -2.005946 0.507129 0.346694 -1.191150 -0.710711 0.527561 0.189638 -0.680195 -0.447243 0.781856 -0.784847 -0.639787 0.123499 -1.526985 0.263339 0.671684 -0.244283 -0.550055 -0.113206 -1.701999
496 0.479848 0.562488 0.631240 0.690007 0.745667 -0.418539 -0.013475 -0.007074 -0.908934 -0.382010 -0.002374 -0.764928 0.116359 0.358424 0.002939 0.001075 -0.017964 0.238009 -0.281798 -0.776143 0.150283 -0.236058 -1.225518 0.499113 -0.335060 -0.583911 -0.210662 0.599732 -1.183965 -1.024623 0.018200 -0.276641
288 1.135871 0.688256 0.731954 -0.393631 0.588886 -0.695805 1.219510 0.634639 -0.554677 -0.062260 -0.303655 -0.071517 -0.287319 0.932171 0.009129 -0.987918 -1.250211 0.669453 1.082125 -0.608523 0.794446 -1.128266 -0.462658 -0.540601 0.526505 0.881238 0.743008 0.535280 -1.701748 -0.217088 0.444036 0.049995
165 0.842488 0.709797 0.053948 0.549815 0.706195 -0.935908 0.392435 -0.093315 -0.287875 -0.510119 0.369151 -0.849221 0.393667 0.150667 -0.146348 -0.952978 -0.874190 -0.330990 0.021770 -1.003146 -0.147959 -0.658272 0.846540 -1.094094 0.172033 0.306674 -0.485762 -0.116369 -1.244529 -1.233421 -1.026206 -0.285690
1261 1.380949 0.450408 0.848389 -0.273972 0.536141 0.407353 0.639217 0.125117 0.329994 -0.098720 -0.130604 1.185297 -1.200048 0.862695 0.584974 -0.473814 -0.875091 -0.437246 0.739409 0.760929 -0.326623 -0.467192 -1.580814 -0.228868 -0.851890 0.104847 -0.307096 1.117783 -0.547766 -1.175041 1.047681 -0.520748
56 0.539596 0.400789 0.462057 0.286632 0.300907 0.019804 0.054315 -0.851195 -0.348009 0.374004 1.625587 0.312341 -0.466610 0.685911 0.339982 -0.521804 -1.304170 0.235458 0.529609 -1.591473 -0.240403 0.381319 -0.468497 -1.080366 0.126468 0.440508 0.708811 0.222953 -0.837883 -1.153692 0.457265 -0.487230
450 0.479518 0.349169 0.439359 0.158984 0.281734 -0.114185 0.064371 -0.809473 -0.377564 0.422276 1.668590 0.368784 -0.619781 0.711850 0.405711 -0.458386 -1.241539 0.025416 0.460252 -1.722788 -0.265478 0.305392 -0.453904 -1.152952 0.059755 0.334948 0.676987 0.046119 -0.874844 -1.294902 0.585046 -0.333802
417 1.187003 0.460272 -0.690537 0.771991 0.819019 0.177952 -0.627144 0.212528 0.808332 -0.432283 0.647403 -0.959423 -0.937552 0.715506 -0.130635 -0.438970 -1.549501 -0.286740 -0.129525 -0.358615 -0.256788 0.815952 -0.493857 -0.424767 -0.776266 -0.107604 -0.783936 1.351221 -0.712145 -1.762945 -0.014240 0.331503
361 0.287125 0.318029 1.174435 -0.315184 1.133678 -1.086027 0.392081 0.210514 0.365732 0.083039 1.189690 -0.420073 -0.430806 0.502894 0.099858 -0.438650 -0.419186 -0.618296 0.155955 0.261696 -0.132088 -0.266506 -1.379885 -0.964196 -1.033676 1.192358 -0.446254 0.166267 -0.665729 -0.779776 -0.911370 0.296314
300 1.122413 0.504207 -0.670021 0.793102 0.789039 0.163153 -0.692341 0.186721 0.818626 -0.456134 0.668031 -0.951787 -0.925521 0.668083 -0.190428 -0.415326 -1.579301 -0.290556 -0.175452 -0.348067 -0.218944 0.922647 -0.475579 -0.460873 -0.704411 -0.093134 -0.833172 1.285008 -0.626231 -1.729480 -0.034216 0.363429
973 0.451102 0.576577 0.733103 0.639410 0.728596 -0.353233 -0.016173 0.005214 -0.923614 -0.333816 -0.013779 -0.744803 0.074212 0.349622 -0.021452 -0.036609 -0.029928 0.214264 -0.149263 -0.643574 0.258691 -0.432886 -1.269014 0.515120 -0.508003 -0.540883 -0.167638 0.580408 -1.067114 -0.966915 -0.028961 -0.267597
662 0.255045 0.338136 1.212061 -0.369798 1.168218 -1.100364 0.377959 0.207025 0.409488 0.148663 1.138351 -0.410175 -0.471377 0.465843 0.106842 -0.493627 -0.395162 -0.676667 0.156033 0.178470 -0.060690 -0.183131 -1.412923 -0.926552 -0.926168 1.186424 -0.434169 0.211979 -0.615185 -0.728265 -0.806904 0.247442
882 0.632846 0.391688 1.041914 -0.947066 0.960692 0.308656 0.319786 0.958408 -0.004178 0.279062 0.519163 -0.897741 -0.227905 1.078910 0.435233 -1.535921 -0.271539 0.549022 0.107508 -0.963623 -1.072885 0.690957 -0.673364 0.675794 0.738936 1.012253 -0.564809 0.730988 -0.877229 -0.993230 0.200209 -0.980422
767 0.417910 0.733714 1.057356 -1.298827 0.594997 -0.769702 1.447582 0.149180 0.725074 -0.672502 0.485136 0.012697 0.135030 0.783512 -0.994742 0.236464 0.336458 -0.013567 0.805323 -0.886643 -0.860654 -0.630176 -0.865624 -0.256016 -0.421852 0.401189 -0.368975 0.876952 -1.884722 -0.842998 0.565633 -1.102883
63 0.687406 0.417187 0.976158 -0.902976 0.944507 0.327016 0.330914 0.946597 0.021739 0.302295 0.495892 -0.924073 -0.225995 1.091468 0.397980 -1.531699 -0.271444 0.505748 0.108444 -0.926909 -1.056910 0.676182 -0.651149 0.654675 0.670151 0.970044 -0.554956 0.717953 -0.856291 -0.973364 0.203945 -0.969483
844 0.146021 0.712795 0.512780 -0.829350 0.260547 0.065383 0.338355 0.062586 -1.316926 0.260637 0.336560 0.375528 -1.011701 2.601089 0.030511 -0.407591 0.409258 0.835712 1.674549 -0.944686 -0.015140 -0.171487 -1.361521 -0.661479 -0.672830 -0.432682 -0.457444 0.697087 -0.775701 -0.745139 0.227735 -0.494796
190 0.797339 0.706050 0.082052 0.543165 0.683268 -0.954616 0.447054 -0.058198 -0.179639 -0.514494 0.364811 -0.855285 0.387369 0.167313 -0.167759 -1.005804 -0.855933 -0.379074 -0.028008 -1.031282 -0.097644 -0.684105 0.882125 -1.026832 0.096593 0.354414 -0.472056 -0.156307 -1.200226 -1.299065 -0.948723 -0.291218
1256 1.032132 0.762533 1.071170 0.194163 0.163767 0.075072 0.079101 -0.962936 0.260531 -0.779124 0.175334 -0.315636 -0.920139 0.894738 0.116154 -0.981090 -0.336224 -1.504200 -0.181624 -1.173257 -1.183559 -0.584484 -0.821945 -0.328262 0.366059 -0.044837 -0.360699 1.054088 -0.899314 0.156914 -0.182199 -0.537525
483 0.462721 0.575107 0.757469 0.616507 0.726233 -0.386688 0.035029 -0.013341 -0.802465 -0.422172 -0.041320 -0.721964 0.154116 0.325644 -0.022306 0.080464 0.022718 0.200316 -0.235733 -0.708205 0.206902 -0.322102 -1.239317 0.502014 -0.453299 -0.479077 -0.133314 0.559767 -1.196367 -1.123410 0.043963 -0.153503
676 1.081242 0.324721 -0.531042 -0.145187 0.161746 0.133605 0.101787 1.430755 -0.408115 0.034172 0.140890 0.235720 0.623008 1.522787 0.124083 -0.554752 0.075798 -0.340717 1.034218 -0.502813 0.148749 -0.023111 -0.073296 0.238548 -1.671080 -0.371645 -0.270216 0.825216 -0.600324 -1.523118 0.292736 -2.112376
887 1.069808 1.525754 0.241294 0.572121 1.145707 0.579460 -0.216646 0.211861 0.672824 -0.711065 0.041195 -0.334535 0.720122 1.093130 0.214542 -0.464738 -1.488090 -0.192232 1.327911 -0.353380 -0.476213 -0.092149 -0.986343 0.272811 -0.668278 1.093887 -0.140890 0.435012 -1.070171 0.145723 -0.563245 0.138086
1143 1.088356 1.470821 0.285536 0.545754 1.122002 0.516365 -0.185038 0.208093 0.692035 -0.669233 0.052359 -0.346232 0.716666 1.089318 0.235276 -0.429442 -1.478398 -0.153555 1.301652 -0.362594 -0.489316 -0.076340 -0.994847 0.260307 -0.622754 1.077964 -0.105300 0.448762 -1.103183 0.098299 -0.554594 0.084157
381 0.839923 0.753071 0.106536 0.568229 0.661524 -0.929304 0.409644 -0.082405 -0.172854 -0.545860 0.361721 -0.867385 0.445488 0.149500 -0.165184 -0.994585 -0.878960 -0.431079 0.039684 -1.013788 -0.105905 -0.741871 0.857727 -1.051140 0.101429 0.383915 -0.480054 -0.113458 -1.214880 -1.197440 -0.961125 -0.243059
413 0.163095 0.321437 1.138166 -0.376924 1.143248 -1.048884 0.418962 0.201475 0.404610 0.132672 1.172268 -0.410135 -0.494565 0.501402 0.047956 -0.512905 -0.456149 -0.698338 0.176563 0.176259 -0.127989 -0.143302 -1.450621 -0.957351 -0.900957 1.128708 -0.459337 0.211497 -0.596265 -0.790075 -0.823627 0.333067
851 0.795498 0.755398 0.056567 0.584862 0.703979 -0.918612 0.383318 -0.123537 -0.204008 -0.588341 0.336851 -0.860861 0.443489 0.149804 -0.122659 -0.981423 -0.872027 -0.417904 0.045098 -1.043490 -0.140249 -0.711452 0.874115 -1.059345 0.146922 0.360656 -0.471488 -0.106418 -1.215920 -1.214876 -0.928895 -0.296349
637 1.060145 1.532465 0.265921 0.568190 1.146600 0.575025 -0.237627 0.203117 0.650882 -0.714869 0.044986 -0.316184 0.684541 1.111533 0.208802 -0.457087 -1.494392 -0.209212 1.335620 -0.372907 -0.467954 -0.119333 -0.991867 0.301517 -0.697710 1.100848 -0.142121 0.427105 -1.076800 0.167510 -0.575859 0.116483
1270 0.653172 0.179324 0.649357 0.016122 0.642744 -0.732280 0.734703 0.180471 0.443849 0.415740 0.548532 0.224698 -0.164099 1.986425 0.152284 0.721897 -0.977023 -0.366170 -0.122667 -0.101257 0.111970 0.911248 -1.247675 -0.633801 -0.876672 -1.291694 -0.386663 -0.089026 -1.175195 -0.394387 0.309522 -0.993683
315 0.462066 0.555976 0.755253 0.639178 0.711027 -0.367392 0.032433 0.012939 -0.850353 -0.346432 -0.009309 -0.752341 0.141562 0.314865 -0.035161 0.061989 -0.011536 0.245987 -0.172821 -0.643496 0.190377 -0.405390 -1.251875 0.540447 -0.496415 -0.463270 -0.114355 0.587288 -1.119905 -1.009849 -0.035476 -0.164869
34 0.945615 0.677601 1.029057 -0.394804 0.735659 -0.550661 1.437732 0.485528 -0.769033 -0.028127 -0.482961 -0.040990 -0.375357 1.006161 -0.076219 -0.807248 -1.162861 0.535811 1.212993 -0.536801 0.569726 -0.704351 -0.451556 -0.636754 0.283835 0.752185 0.985212 0.505108 -1.777198 -0.090674 0.384192 0.062734
905 0.465647 0.522455 0.716031 0.662913 0.714209 -0.375678 0.018186 0.064090 -0.939884 -0.361706 0.017870 -0.719620 0.123348 0.370871 -0.036853 0.023720 -0.011954 0.175475 -0.181276 -0.643842 0.162094 -0.377089 -1.246259 0.531461 -0.486068 -0.476301 -0.164371 0.595446 -1.084374 -1.051164 -0.021195 -0.295466
205 -0.019312 0.498492 0.072343 -0.045254 0.636756 -0.061553 -0.864306 0.407997 -0.199825 -0.783812 0.899379 -0.538376 -0.527647 0.654607 -0.369718 -0.906279 -0.931748 -0.257928 1.411163 0.597031 -0.216542 -0.558918 -0.686449 -0.621233 0.086955 -0.139321 -0.280320 0.406247 -0.815991 -0.931376 -0.228442 -1.575144
3 0.662242 0.389054 1.026904 -0.907802 0.961972 0.292291 0.344340 0.941844 0.018912 0.259693 0.536528 -0.904550 -0.224952 1.054652 0.417908 -1.519486 -0.278692 0.546614 0.131987 -0.950774 -1.066937 0.678487 -0.647744 0.645780 0.718573 0.995553 -0.548566 0.716820 -0.881524 -0.984825 0.163119 -0.975781
835 0.063018 0.711235 0.914422 -0.098529 -0.649178 -0.566174 -0.522689 0.769436 -0.619261 -0.339636 0.312963 -0.472924 -1.001274 0.999740 1.340767 -0.293560 -1.371621 -0.851923 0.477960 -0.482360 -0.315901 1.437049 -1.687035 0.345824 -0.556098 -0.147004 -0.349936 1.282323 -0.641300 -0.868820 0.460981 -0.845198
785 0.159986 0.709810 0.836845 -0.119869 -0.733470 -0.459270 -0.519881 0.726059 -0.692392 -0.261126 0.323694 -0.525816 -1.028810 1.047787 1.350232 -0.269606 -1.367927 -0.855395 0.474839 -0.463752 -0.317456 1.417767 -1.735840 0.287926 -0.513586 -0.223718 -0.390874 1.296047 -0.667849 -0.882138 0.398180 -0.871112
568 0.128877 0.750236 0.862074 -0.193171 -0.767617 -0.461335 -0.504699 0.678728 -0.654655 -0.258775 0.324748 -0.515192 -1.015149 1.045009 1.352164 -0.291779 -1.340761 -0.821463 0.485306 -0.442706 -0.308255 1.440862 -1.790857 0.303582 -0.506656 -0.214940 -0.428452 1.299728 -0.596573 -0.860919 0.434279 -0.807634
828 1.424533 1.128086 1.471045 -1.208070 0.219831 -0.996321 -0.087235 0.983187 0.931882 0.467124 0.114304 -0.527841 1.268793 0.756190 0.588084 -0.516050 -0.239173 -0.143451 -0.167357 0.342716 -0.217309 -0.455444 -0.038399 -0.593474 -1.173702 -0.322213 -0.209535 0.635046 -1.143869 -1.598754 -0.209625 -0.617099
279 0.961752 0.954241 1.168870 0.203494 0.229203 0.039672 0.171537 -0.861901 0.103304 -0.746090 0.212561 -0.263310 -0.914392 0.986129 0.067900 -0.935031 -0.364041 -1.376070 -0.391821 -1.096292 -1.054695 -0.279168 -0.839745 -0.306240 0.360927 0.220210 -0.297389 1.146553 -1.063992 0.440265 0.082820 -0.626542
633 1.123362 1.533174 0.326502 0.548410 1.166475 0.583956 -0.234056 0.214097 0.663755 -0.661183 0.108033 -0.385011 0.725424 1.140433 0.178936 -0.432026 -1.425693 -0.148096 1.352637 -0.322064 -0.507650 -0.057134 -1.045370 0.273284 -0.658070 1.071944 -0.126794 0.404709 -1.084911 0.154411 -0.584415 0.103496
1123 0.157280 -0.608570 0.026711 1.294884 0.382383 -1.551927 0.613655 0.685234 -0.209434 -0.030464 -0.235472 0.403069 -0.292330 0.721504 0.261840 -1.108387 0.076939 -0.663959 0.411951 -0.503499 -0.388423 0.093918 -0.909691 -1.162371 0.243921 0.169092 -0.459052 0.288334 -1.506212 -0.677387 0.538426 -1.147488
529 0.436954 0.554247 0.737906 0.659014 0.710435 -0.428582 -0.005242 -0.023492 -0.874760 -0.348070 -0.026990 -0.761850 0.157180 0.351734 -0.049518 0.002408 0.067321 0.193190 -0.203389 -0.737512 0.194492 -0.306769 -1.236208 0.508086 -0.426034 -0.495091 -0.252390 0.602860 -1.201148 -1.066682 -0.017800 -0.214945
340 0.415792 0.555289 0.674209 0.693397 0.676130 -0.440888 0.028037 0.095765 -0.924437 -0.436022 -0.057220 -0.723972 0.198683 0.336103 0.043567 0.069912 -0.078774 0.293572 -0.252540 -0.719445 0.100276 -0.332906 -1.136327 0.525278 -0.343813 -0.584196 -0.240606 0.556431 -1.172428 -1.060142 0.018429 -0.342621
208 0.246805 -0.638828 0.088651 1.249859 0.418913 -1.604841 0.602462 0.660188 -0.178665 -0.022340 -0.150248 0.361022 -0.287129 0.780376 0.189630 -0.974879 0.175328 -0.719221 0.435912 -0.506419 -0.457961 0.142151 -0.903259 -1.155619 0.365042 0.281743 -0.410220 0.319788 -1.493705 -0.586085 0.435861 -1.169662
1000 0.958783 0.972449 1.101712 0.180326 0.225750 0.011148 0.119231 -0.958862 0.130763 -0.764951 0.236961 -0.272721 -0.872767 0.991138 0.110928 -0.964194 -0.345731 -1.403690 -0.286389 -1.174291 -1.021487 -0.363808 -0.810036 -0.305270 0.381250 0.192499 -0.340853 1.092166 -0.975918 0.382020 0.014526 -0.572515
40 0.391830 0.580579 0.686437 0.580033 0.739483 -0.402980 0.011920 0.046978 -0.885660 -0.386398 -0.004353 -0.745661 0.159059 0.335718 -0.019853 -0.047672 0.019502 0.231920 -0.228576 -0.705615 0.208175 -0.338239 -1.237167 0.550361 -0.482549 -0.481340 -0.226373 0.563235 -1.176811 -1.057250 0.035241 -0.250055
119 0.810076 0.744553 0.069781 0.586111 0.658209 -0.960592 0.448133 -0.115590 -0.289975 -0.533513 0.325081 -0.920677 0.413638 0.150112 -0.158869 -1.012662 -0.832634 -0.431745 0.009479 -1.079532 -0.134134 -0.678082 0.875589 -1.053527 0.142754 0.352195 -0.494156 -0.101837 -1.198472 -1.238038 -0.913136 -0.348289
365 -0.077419 0.440859 0.072317 -0.085924 0.640451 0.002757 -0.806431 0.390186 -0.190156 -0.786019 0.831631 -0.540673 -0.493965 0.639221 -0.329757 -0.846468 -0.988856 -0.181008 1.419151 0.606819 -0.187455 -0.578085 -0.666461 -0.624351 0.099379 -0.188832 -0.264240 0.386512 -0.887745 -0.895094 -0.152321 -1.596370
1100 0.351971 0.694160 1.031439 -1.338014 0.617033 -0.724016 1.430987 0.161920 0.775395 -0.710671 0.485018 0.026611 0.166137 0.705810 -1.071436 0.239914 0.404695 -0.020975 0.789154 -0.900520 -0.904142 -0.682365 -0.797939 -0.247258 -0.393443 0.455004 -0.365164 0.857540 -1.882729 -0.828352 0.576194 -1.092390
338 0.184528 0.211516 1.072373 -0.335486 1.060314 -1.071191 0.440576 0.175991 0.468388 0.016394 1.221009 -0.454898 -0.502578 0.521742 0.049274 -0.445900 -0.448286 -0.626685 0.215816 0.318864 -0.028059 -0.081617 -1.377441 -0.933519 -0.984837 1.006828 -0.501761 0.193398 -0.672976 -0.974266 -0.862838 0.296276
186 2.371745 -0.275215 -0.525959 0.738471 0.770162 -0.208582 0.449732 0.638557 0.082774 0.269766 -0.151316 0.020428 -0.197469 1.059811 1.044410 -0.371589 -0.579354 0.165967 0.710099 -0.022762 0.429461 -0.209046 -0.749932 -0.690620 -0.627183 -0.228042 -0.059541 -0.390964 -0.949234 -1.315420 -0.651222 -0.006048
916 1.052431 1.196409 0.992638 0.016431 0.513628 -1.046626 -0.368369 -0.367736 0.507180 0.045459 -0.933145 0.179023 -1.015534 1.085963 -0.550757 -0.368716 -0.742926 0.245951 0.099910 -0.383304 -0.287955 -0.218530 -0.150484 -0.692551 -0.091544 0.429417 -1.664089 -0.038130 -1.454000 -1.137207 0.981613 0.246281
140 0.842915 2.164188 -0.147461 0.391718 -0.270616 -1.277748 0.036346 0.292410 0.183385 0.874247 0.468102 0.022788 -0.585819 0.950895 0.639675 -1.575214 -0.793609 -0.823977 0.409725 -0.211057 -0.376305 0.152107 -0.567468 -0.701892 0.363575 0.998683 -0.909640 0.136001 0.101763 -0.569649 0.163680 -1.383223
889 1.409975 0.728448 0.578294 0.201807 -0.145147 0.135514 0.626607 0.566329 -0.577326 -0.429258 0.717922 -0.629996 -0.513550 1.743854 -1.010188 0.772727 -0.323328 -0.815709 0.550342 -0.151222 -0.277723 0.057312 -0.297355 -0.653122 0.367914 0.595430 -0.687074 -0.063071 -0.548472 -1.046656 -0.313900 -0.173971
1041 1.409299 0.684063 0.654369 0.205690 -0.163818 0.058938 0.573775 0.630870 -0.595948 -0.435113 0.811588 -0.643419 -0.523881 1.771973 -0.963753 0.809038 -0.369476 -0.815395 0.459281 -0.197449 -0.284693 0.072559 -0.229912 -0.618609 0.295168 0.555688 -0.647692 -0.076029 -0.576219 -1.081918 -0.345091 -0.249823
507 1.081853 1.223282 0.930566 0.075715 0.586231 -0.848562 -0.436839 -0.236203 0.442062 0.120288 -1.093652 0.176500 -0.939651 1.080482 -0.465542 -0.380073 -0.785768 0.249726 0.207069 -0.402291 -0.282191 -0.278331 -0.167038 -0.642289 -0.223760 0.633071 -1.638626 -0.015916 -1.549174 -1.058129 1.027383 0.384553
552 -0.365428 1.794746 0.375890 -0.463414 0.956623 -0.255326 0.421893 0.171580 0.056711 -0.271863 0.458574 -0.593435 0.559473 1.921243 0.704464 -0.892994 -0.844136 -0.167315 0.732735 -0.482102 0.578602 -0.640352 -0.565630 -0.233641 -0.035464 -0.184793 -1.369608 -0.003743 0.164477 -1.425016 1.062768 -0.251654
860 0.810234 0.714109 0.105878 0.578628 0.656620 -0.990426 0.468690 -0.084218 -0.173764 -0.555208 0.403635 -0.904851 0.373727 0.185070 -0.160311 -1.007068 -0.852380 -0.397970 -0.047822 -1.022367 -0.085122 -0.739030 0.922085 -1.072176 0.113610 0.292162 -0.519990 -0.132948 -1.269124 -1.357363 -0.953632 -0.319287
1273 0.904938 0.857701 0.514146 0.192970 0.634053 -0.489973 0.380393 0.230825 -0.171704 -0.177023 0.367601 -0.373231 -0.180215 0.957297 0.138611 -0.672704 -0.677069 -0.366829 0.545067 -0.573211 -0.218129 -0.134250 -0.655601 -0.518731 -0.375245 0.063772 -0.391555 0.557977 -1.118306 -1.143795 -0.045836 -0.599186
989 0.393493 0.568771 0.705741 0.603791 0.720004 -0.377978 0.061642 0.110921 -0.892944 -0.445206 0.024295 -0.746665 0.230375 0.313055 0.010695 0.021175 -0.078460 0.249257 -0.188221 -0.658801 0.190366 -0.340280 -1.280632 0.570745 -0.456864 -0.459020 -0.139359 0.627911 -1.197568 -0.999636 -0.064848 -0.253581
502 0.523602 0.527973 0.691483 0.623086 0.716632 -0.365061 0.026679 0.053455 -0.865267 -0.305236 0.016270 -0.760903 0.204085 0.320935 -0.032233 0.010542 0.073743 0.207102 -0.160935 -0.664537 0.204928 -0.334759 -1.228045 0.586217 -0.481459 -0.467479 -0.096916 0.616933 -1.129256 -1.045994 -0.103818 -0.265565
419 0.930377 0.864045 0.532567 0.172568 0.648301 -0.496909 0.382658 0.268928 -0.190684 -0.203849 0.339502 -0.409554 -0.173335 0.988907 0.169909 -0.660729 -0.684357 -0.378498 0.549007 -0.584866 -0.210107 -0.126192 -0.686406 -0.529389 -0.394021 0.066419 -0.401451 0.544026 -1.137189 -1.169028 -0.046070 -0.621963
374 0.913459 2.159773 -0.196522 0.350161 -0.287428 -1.289768 0.014019 0.296472 0.106453 0.950210 0.440972 0.029850 -0.615687 0.956450 0.656423 -1.581673 -0.790220 -0.811377 0.414781 -0.218442 -0.378780 0.201634 -0.544339 -0.685788 0.386340 1.009181 -0.909381 0.164623 0.076975 -0.533037 0.177428 -1.398003
342 -0.323772 0.970217 0.752926 -1.117990 0.555917 -1.392128 0.945932 1.939570 -0.305521 0.650798 0.220177 -0.551902 -0.860867 0.355182 0.755539 -1.604146 -0.896899 -0.463298 0.304570 -0.641617 -0.104167 -0.091401 -0.240377 -0.758111 -0.476283 -1.347363 -1.066534 -0.253055 -0.701129 -0.981460 -0.098893 -1.674376
716 0.912398 0.857797 0.558843 0.193216 0.637595 -0.510383 0.369904 0.294656 -0.214707 -0.205274 0.296655 -0.409292 -0.174306 0.994226 0.175977 -0.671411 -0.731240 -0.421665 0.535427 -0.666866 -0.187143 -0.166434 -0.753161 -0.612020 -0.437191 0.047434 -0.422200 0.551524 -1.133641 -1.099342 -0.044529 -0.604466
1060 1.021500 0.651257 0.417560 0.205201 0.377390 -0.310873 0.329454 0.403776 -0.198348 0.230843 0.211144 0.035267 -0.428264 1.032890 0.298052 -0.478243 -0.472396 -0.262615 0.748615 -0.368159 0.026470 0.017582 -1.101817 -0.445546 -0.683767 -0.077400 -0.096630 0.652593 -1.044370 -0.989876 0.134318 -0.836366
1062 0.839272 0.952186 0.380445 -0.598669 1.062093 -1.197739 0.424388 -0.883931 -0.210707 0.415435 0.753021 -0.232565 0.889232 1.090350 0.912036 -1.458442 -0.236855 -1.054630 -0.285153 -0.538267 -1.100400 0.703896 -1.077663 -0.601732 -1.981493 -0.393555 -0.112020 1.133394 -0.183224 0.155951 -0.062057 -1.608242
296 0.908355 0.849945 0.499659 0.150523 0.518825 -0.556611 0.426026 0.116352 -0.327835 0.051048 0.293528 -0.506606 -0.190044 1.224089 0.151583 -0.717672 -0.636814 -0.589885 0.544316 -0.620705 -0.136479 -0.162373 -0.593885 -0.575458 -0.671531 -0.002825 -0.372799 0.456448 -1.149024 -1.333006 0.168155 -0.790468
295 2.072730 1.221184 -0.703963 0.894574 0.442824 -0.653854 -0.215600 -0.537435 -1.316123 0.427587 0.146998 0.139676 0.409461 1.628246 -0.289965 -0.615220 -0.705582 -0.718149 0.474794 -1.523977 0.081649 -0.932455 0.075696 -0.528207 0.105214 -1.374666 -0.605517 0.207958 -0.357102 -0.708207 0.344938 -1.602772
1129 0.984637 0.850793 0.611296 0.239170 0.768885 -0.592620 0.346621 0.282395 -0.206706 -0.269572 0.406150 -0.397466 -0.181071 1.166546 0.145371 -0.689057 -0.680888 -0.303515 0.559053 -0.702529 -0.076552 -0.161467 -0.825976 -0.648708 -0.537926 0.076110 -0.482274 0.488035 -1.201455 -1.108859 -0.082792 -0.696152
1080 1.311546 0.655741 0.314091 0.635912 0.690283 -0.451888 0.341450 0.318536 -0.098794 0.030868 0.125220 -0.255454 -0.136005 0.814467 -0.168130 -0.503589 -0.433929 -0.377569 0.625904 -0.408587 -0.286460 0.284546 -0.732702 -0.734804 -0.660576 -0.264337 -0.155554 0.506333 -1.243208 -1.287605 -0.109872 -0.798687
1127 0.792127 0.771442 0.489734 0.077773 0.608862 -0.493140 0.432640 0.295541 -0.079218 -0.252783 0.230555 -0.285073 -0.260417 1.015346 0.246531 -0.432683 -0.838642 -0.276068 0.664643 -0.488252 -0.361908 0.069563 -0.901640 -0.634775 -0.292122 -0.157786 -0.481030 0.753788 -1.121210 -1.075356 0.012588 -0.784334
274 0.991943 0.937531 0.671513 0.143731 0.818114 -0.649593 0.369123 0.333067 -0.251170 -0.178373 0.333249 -0.390249 -0.296948 1.109042 0.214062 -0.753473 -0.717839 -0.342234 0.483359 -0.649240 -0.144801 -0.021031 -0.921909 -0.507524 -0.593150 0.169507 -0.489362 0.503039 -1.276210 -1.327087 -0.064476 -0.699381
18 0.429033 1.020717 -1.091042 -0.483074 1.193463 -1.582940 0.178178 0.772467 0.076614 0.644715 0.470902 0.045604 -0.031249 0.870835 0.118403 -1.741820 -0.810751 -0.488169 -0.684522 -0.845164 1.541950 0.636357 -0.435169 -0.015777 -1.074249 0.123601 -0.893285 0.756146 -1.104690 -1.102130 -0.236819 -0.529105
1236 1.019045 1.015964 0.595176 0.237195 0.747146 -0.520210 0.426778 0.268474 -0.265068 -0.250217 0.389927 -0.463325 -0.225030 1.117174 0.223372 -0.778452 -0.765187 -0.454784 0.625122 -0.697294 -0.251826 -0.153760 -0.781941 -0.646924 -0.483366 0.149287 -0.459438 0.656165 -1.299056 -1.305716 -0.096935 -0.756901
444 0.414766 1.089141 -1.085301 -0.457087 1.145989 -1.602112 0.193201 0.779060 0.110761 0.653681 0.454113 -0.011956 -0.036103 0.923173 0.076104 -1.723843 -0.785383 -0.509490 -0.701165 -0.868588 1.532941 0.639931 -0.430921 -0.034371 -1.079436 0.104851 -0.919210 0.746728 -1.088004 -1.075960 -0.244056 -0.550330
1245 0.739064 0.674714 0.408480 0.084466 0.576392 -0.443063 0.336560 0.267404 -0.247060 -0.113602 0.163696 -0.168320 -0.231993 1.049498 0.268963 -0.690071 -0.629708 -0.406830 0.587710 -0.524302 -0.206605 -0.024252 -0.773622 -0.426416 -0.538113 0.024417 -0.433933 0.584498 -1.014068 -1.034903 0.125776 -0.650373
1248 0.804912 0.765661 0.446051 0.161371 0.549662 -0.395085 0.351578 0.235834 -0.139420 -0.174599 0.280079 -0.304567 -0.156879 0.884960 0.194288 -0.604017 -0.702875 -0.335100 0.508068 -0.537752 -0.176593 -0.065734 -0.613985 -0.495922 -0.377063 0.107530 -0.311297 0.518594 -0.981160 -0.957234 -0.055396 -0.552140
91 0.939278 0.855600 0.523972 0.165433 0.542413 -0.531215 0.418035 0.118803 -0.304601 0.056388 0.285129 -0.478887 -0.181031 1.224270 0.196567 -0.724914 -0.677328 -0.571453 0.540963 -0.616533 -0.167294 -0.105523 -0.640254 -0.566890 -0.640063 -0.021753 -0.377931 0.494059 -1.152701 -1.303687 0.139945 -0.786975
736 0.996782 0.874638 0.630219 0.241490 0.780096 -0.591271 0.369573 0.267766 -0.222311 -0.266948 0.394086 -0.388472 -0.191513 1.163586 0.157836 -0.678977 -0.717752 -0.323177 0.588696 -0.704787 -0.123733 -0.149228 -0.825802 -0.668283 -0.544837 0.051864 -0.470369 0.501418 -1.214857 -1.123907 -0.110432 -0.674342
747 -0.047509 1.261808 -0.754108 -0.152940 0.191090 -0.150387 1.342554 0.889717 -0.960307 1.146292 0.740619 -1.638638 -0.566946 0.135360 0.442717 -0.987955 -1.829480 -0.131154 0.867315 0.171909 0.423083 0.511423 -1.383917 -0.523770 -0.354780 0.202577 -0.187760 0.823269 -0.655912 -1.768516 -0.236233 -0.106500
748 0.812540 0.753595 0.453018 0.181409 0.549455 -0.405275 0.376355 0.236189 -0.151453 -0.165067 0.286658 -0.310398 -0.168225 0.877704 0.150383 -0.583076 -0.700567 -0.334488 0.499604 -0.534865 -0.174434 -0.055546 -0.623013 -0.502066 -0.370961 0.084736 -0.331166 0.505240 -1.001818 -0.986667 -0.067223 -0.560853
232 1.000355 0.951153 0.611927 0.203823 0.727643 -0.538587 0.437739 0.260628 -0.284425 -0.241455 0.392344 -0.430360 -0.188885 1.084948 0.206360 -0.698318 -0.765040 -0.451020 0.604536 -0.650603 -0.268901 -0.199286 -0.783450 -0.656780 -0.445404 0.110348 -0.407582 0.573094 -1.231893 -1.277005 -0.053110 -0.665558
1198 -0.428322 1.908711 0.633729 0.244791 0.344284 -0.858337 0.093462 0.348833 0.756026 -1.518094 0.343201 1.302112 -0.300125 0.810849 1.145211 -0.588796 -0.481850 -0.437444 -0.762238 -0.645558 -0.451819 0.343367 -0.932062 -0.467425 -0.232198 0.069603 -0.045692 0.361146 -1.017907 -1.844543 0.599933 -1.022553
1059 0.928732 0.818708 0.382812 -0.561997 1.109550 -1.144206 0.439361 -0.915887 -0.240909 0.401938 0.742797 -0.157360 0.886154 1.034649 0.841442 -1.424852 -0.196906 -1.015960 -0.262650 -0.525358 -1.152286 0.733904 -1.062100 -0.647818 -1.945475 -0.336649 -0.023298 1.089247 -0.226182 0.143822 -0.066237 -1.562014
613 -0.250087 0.498797 1.115019 0.833405 -0.452851 0.427017 1.639367 0.938673 0.395056 -0.715689 0.569491 -0.756076 -0.950122 0.668688 -0.750553 -0.857900 -1.210176 0.037946 0.239789 -0.403135 0.796906 -0.551997 -1.201734 -1.291030 -1.146991 -0.497137 -0.048911 -0.241224 -0.708520 -2.139458 0.149217 -0.427741
1272 0.953081 0.881127 0.701950 0.170484 0.691321 -0.316536 0.429549 0.346647 -0.088888 -0.201718 0.412261 -0.205035 -0.244229 1.105588 0.230297 -0.539190 -0.846358 -0.385546 0.592022 -0.623711 -0.151621 -0.110531 -0.750470 -0.563355 -0.586048 0.079986 -0.269662 0.621451 -1.155996 -1.146997 0.119871 -0.749418
1284 -0.482186 1.890539 0.635724 0.201527 0.335720 -0.900181 0.078874 0.326560 0.776491 -1.555392 0.351842 1.307505 -0.275338 0.854932 1.219809 -0.547441 -0.481230 -0.416482 -0.749184 -0.610398 -0.397959 0.341232 -0.940193 -0.448913 -0.204515 0.071124 -0.028223 0.388545 -1.005013 -1.770314 0.649697 -1.027191
1288 1.053383 0.406577 -0.383556 -1.098292 -0.227900 -1.502875 1.529959 0.248781 0.702887 -0.043164 0.761388 -0.113830 -0.904728 1.475055 0.050619 -1.268606 -1.012549 -0.784880 0.861996 -0.498069 0.091296 -0.513307 0.257600 -1.913327 -0.825086 -0.090186 -0.101270 0.560204 -0.852463 0.077433 -0.551822 -1.466036
26 0.776921 1.744121 0.450798 1.065938 0.546707 -0.802066 0.417984 0.533266 -0.155120 -0.632152 -0.069661 0.721299 -0.028442 0.468406 -0.454504 -0.013099 -1.431396 -0.414468 1.455293 0.075263 0.854420 1.028835 0.168239 -0.474991 -1.359044 -0.438243 -0.242500 1.098325 -1.275724 -0.360290 1.141431 -0.670497
937 0.968604 0.666422 0.366358 0.267389 0.359578 -0.332374 0.274897 0.371808 -0.207965 0.217378 0.190525 -0.022574 -0.370565 0.998351 0.334865 -0.556368 -0.550138 -0.299136 0.694907 -0.385404 0.063924 0.001895 -1.011994 -0.441177 -0.663047 -0.080845 -0.121100 0.611613 -0.985108 -0.996689 0.110619 -0.831077
88 1.012978 0.949981 0.603115 0.236764 0.718180 -0.523739 0.434829 0.298258 -0.286618 -0.227158 0.419877 -0.449752 -0.201635 1.135644 0.218175 -0.749248 -0.775190 -0.480295 0.636412 -0.677078 -0.238996 -0.115890 -0.839878 -0.636458 -0.476213 0.119466 -0.466551 0.571917 -1.243118 -1.320812 -0.085152 -0.683595
395 1.079831 0.964767 0.610872 0.191391 0.715360 -0.555541 0.451959 0.323718 -0.264741 -0.240395 0.357608 -0.455045 -0.209499 1.112794 0.240283 -0.711854 -0.830707 -0.478585 0.581311 -0.722309 -0.284475 -0.114100 -0.793502 -0.635993 -0.434100 0.088769 -0.389754 0.665251 -1.333552 -1.302428 -0.023654 -0.790139
586 0.837581 0.757086 0.515018 0.224670 0.644382 -0.447421 0.387002 0.284294 -0.262531 -0.214298 0.305255 -0.407379 -0.168016 0.906712 0.179539 -0.658229 -0.716143 -0.389082 0.538176 -0.617980 -0.194070 -0.061602 -0.716368 -0.580518 -0.436597 0.096682 -0.308517 0.628960 -1.105316 -1.143988 -0.109504 -0.684902
582 0.846523 0.752178 0.542383 0.231805 0.669371 -0.466818 0.397930 0.288972 -0.238556 -0.206041 0.326398 -0.405320 -0.166551 0.903913 0.164479 -0.652348 -0.721126 -0.397544 0.542710 -0.650358 -0.199621 -0.049487 -0.726825 -0.581617 -0.421566 0.110363 -0.308583 0.628135 -1.105247 -1.171359 -0.070399 -0.686150
246 1.023037 0.745150 0.557938 0.122546 0.452560 -0.342083 0.104197 0.424255 -0.091142 0.149121 0.452477 -0.153936 -0.368778 1.049093 0.344822 -0.673045 -0.414287 -0.251902 0.869944 -0.303406 -0.305447 0.398851 -1.203552 -0.443169 -0.590968 0.101326 0.042751 0.524943 -0.892985 -0.741532 0.036349 -0.883622
514 1.066977 2.730076 0.298298 0.419796 -0.429311 -0.280089 0.486167 -0.282771 -0.965948 0.289533 -0.051279 -0.316513 0.166019 0.530328 1.435143 -0.630036 -0.680162 -0.223930 1.196471 -0.593006 1.369592 -0.439741 -0.248429 -0.425496 -1.834851 0.124214 0.117859 0.647018 -0.549266 -0.920047 0.061884 -0.388011
624 -0.273957 0.927514 0.787975 -1.081173 0.524188 -1.430742 0.934629 1.878522 -0.363038 0.607285 0.216841 -0.553294 -0.847765 0.419941 0.778101 -1.617212 -0.945544 -0.440006 0.354108 -0.711557 -0.068919 -0.127038 -0.182020 -0.809664 -0.503856 -1.307935 -1.002823 -0.238833 -0.711603 -1.040333 -0.112715 -1.646233
974 1.331243 1.146329 -0.241645 -0.326221 -0.477226 -0.395652 0.570218 -1.028183 0.273778 -0.789261 -0.379085 0.852252 -0.406280 1.093588 0.468896 -0.801116 -2.372086 -0.858100 0.084246 -0.716675 0.481442 -0.346252 -0.709193 -0.843594 -1.334406 -0.459884 -0.027907 1.278118 -1.143668 -0.481734 -0.947649 0.181163
16 1.190195 1.134392 0.690316 0.244634 0.844598 -0.627158 0.533459 0.345261 -0.293705 -0.246658 0.417418 -0.513728 -0.238996 1.305858 0.239302 -0.877922 -0.949332 -0.560008 0.676111 -0.811368 -0.272626 -0.170084 -0.894227 -0.767708 -0.537648 0.116171 -0.491571 0.696278 -1.482103 -1.528367 -0.108075 -0.805935
881 2.019276 -0.325551 0.227203 0.541439 0.523235 -0.253077 -0.210298 0.056902 -0.656097 -0.589331 -1.200488 -0.254503 -0.389122 0.606060 0.572080 0.428711 -1.166249 -0.145656 0.970796 -0.868125 -1.206298 -0.376982 0.613263 -0.298678 -0.848896 0.204448 0.139825 1.156679 -2.102271 -0.514111 0.356957 -1.283466
884 1.166055 0.652640 0.732891 0.075398 0.362561 -0.668671 0.468405 0.339349 -0.113567 0.089393 0.232300 -0.359567 -0.375335 1.408532 0.055843 -0.181442 -0.553695 -0.197397 0.492132 -0.477099 -0.082714 0.274820 -0.942060 -0.651140 -0.586942 -0.036415 -0.227440 0.733709 -1.321868 -0.820788 -0.179354 -0.871173
320 -0.108546 1.042661 -0.276451 -0.058952 -0.292378 -1.100575 0.197155 0.083803 0.394845 0.190282 -1.108712 -0.903531 0.120188 2.171661 0.962961 -0.697554 -0.989387 0.102397 -0.215498 -1.106137 -0.381478 -0.485623 0.516199 -0.255877 -0.901555 -0.594712 -1.082893 1.192134 -1.807605 -0.477067 0.629999 -1.516701
324 1.003998 0.949257 0.607864 0.239989 0.738476 -0.517452 0.457781 0.280135 -0.272578 -0.209855 0.416457 -0.458613 -0.176509 1.130256 0.207967 -0.746750 -0.793456 -0.461594 0.640669 -0.669484 -0.240232 -0.103851 -0.844151 -0.671360 -0.468485 0.134598 -0.483217 0.584679 -1.262458 -1.346265 -0.066246 -0.703775
75 0.004696 1.227869 -0.774534 -0.183149 0.144079 -0.121332 1.367916 0.908561 -0.940596 1.137833 0.750642 -1.574377 -0.531456 0.176885 0.488180 -0.987925 -1.761111 -0.098980 0.926278 0.178611 0.463415 0.526163 -1.345380 -0.529855 -0.429074 0.189014 -0.144926 0.843958 -0.650893 -1.729586 -0.231354 -0.127821
1047 2.006345 1.895987 0.312732 -0.431865 -0.498514 -0.594370 -0.161064 0.294521 -0.554846 0.700007 -0.619967 0.212290 0.159025 0.349308 1.077669 0.231985 0.169477 -1.221730 -0.254881 -1.709123 -0.665508 0.233466 -1.023947 -0.215944 -1.154636 -0.207738 -1.289395 1.617422 -0.772949 -0.782257 0.339544 -1.052362
1148 0.921558 0.785820 0.426709 0.055483 0.536415 -0.346691 0.238289 0.232429 -0.169827 -0.057540 0.320781 -0.106968 -0.125692 1.255618 0.225176 -0.676011 -0.688824 -0.251195 0.631491 -0.430841 -0.240841 0.132029 -0.905205 -0.570098 -0.481368 -0.083277 -0.386299 0.477291 -0.915724 -0.994514 0.089168 -0.706968
663 1.302340 0.779054 0.259512 0.343473 0.777138 -1.353197 -0.321641 -0.265299 0.619738 0.880432 -0.814615 -0.338317 0.484094 0.100084 1.363427 -1.422650 -1.171973 -0.047018 0.426099 -1.187534 -0.024632 1.513064 -0.947102 0.250212 -0.432039 -0.478634 0.894497 0.201495 -1.186941 -1.338546 -0.071350 -1.263976
1266 1.966547 1.868681 0.310149 -0.390273 -0.446603 -0.602282 -0.128320 0.272286 -0.530149 0.681486 -0.661172 0.189671 0.128210 0.395993 1.048063 0.221405 0.190508 -1.215268 -0.238437 -1.735320 -0.666055 0.245905 -0.965915 -0.266773 -1.153838 -0.243589 -1.292942 1.598682 -0.749890 -0.801836 0.336067 -1.030085
697 1.003766 0.957184 0.622916 0.166360 0.790131 -0.641021 0.350833 0.276665 -0.268860 -0.146459 0.369987 -0.390823 -0.276865 1.159152 0.174410 -0.754242 -0.746099 -0.315590 0.519047 -0.677011 -0.147397 -0.047467 -0.882430 -0.508173 -0.582678 0.098153 -0.469324 0.487456 -1.282988 -1.321389 -0.045881 -0.742405
699 0.796933 0.615108 0.707233 0.020306 0.352612 -0.544090 0.607528 0.480103 -0.341406 0.096878 0.250977 0.005515 -0.242452 1.210739 0.379975 -0.407089 -0.426191 -0.331249 0.604183 -0.283845 -0.216259 0.066006 -0.959368 -0.424104 -0.623895 -0.032818 -0.218965 0.695481 -1.102692 -0.963455 0.252679 -0.723052
992 0.912104 0.937029 0.569663 0.227005 0.735786 -0.463567 0.436648 0.262832 -0.257081 -0.212935 0.333457 -0.410435 -0.155376 1.066458 0.185103 -0.758597 -0.746216 -0.417726 0.624005 -0.646273 -0.244593 -0.092542 -0.711045 -0.655370 -0.415021 0.135605 -0.352127 0.588928 -1.158388 -1.200402 -0.055499 -0.649063
126 0.941162 0.950465 0.569590 0.233773 0.740624 -0.480394 0.420678 0.296406 -0.270619 -0.229808 0.341945 -0.414191 -0.164941 1.100256 0.213404 -0.786407 -0.767362 -0.442962 0.636593 -0.681122 -0.233865 -0.096286 -0.735540 -0.675479 -0.457633 0.110344 -0.365544 0.592804 -1.203134 -1.250965 -0.074923 -0.684605
922 0.902942 0.864676 0.564969 0.192174 0.667449 -0.497651 0.489216 0.286276 -0.226268 -0.210031 0.328988 -0.418498 -0.146496 0.982325 0.131476 -0.656041 -0.674497 -0.440559 0.542495 -0.614488 -0.216681 -0.161545 -0.771857 -0.569895 -0.406169 0.043002 -0.406925 0.564878 -1.145317 -1.137415 -0.082590 -0.649594
319 1.172038 0.635014 0.708448 0.086233 0.410077 -0.712850 0.487515 0.324367 -0.093621 0.090766 0.233489 -0.338372 -0.390436 1.455293 0.043747 -0.153852 -0.518916 -0.142607 0.499413 -0.495862 -0.032623 0.276032 -0.983892 -0.628353 -0.559771 -0.024593 -0.188043 0.714690 -1.309116 -0.834330 -0.165194 -0.929039
360 0.796815 1.722791 0.419882 1.141712 0.533449 -0.821956 0.374723 0.551577 -0.179432 -0.637606 -0.181213 0.824307 -0.055295 0.454179 -0.374510 -0.038555 -1.454216 -0.431853 1.423535 0.048845 0.907923 1.041371 0.225333 -0.501491 -1.377384 -0.475601 -0.262141 1.111028 -1.318875 -0.365619 1.145305 -0.710248
254 2.072802 0.855454 0.539399 0.004064 0.682762 -1.046439 0.600149 0.312703 0.352432 0.827142 0.563051 0.716281 -0.737985 0.823887 0.892589 -1.345707 -0.839906 -0.098909 1.738092 -0.917922 -1.297018 1.152161 0.243575 -0.781567 -1.287429 -0.186743 -0.726862 1.051321 0.250880 -0.384570 0.160659 0.064736
731 2.096226 1.229136 -0.720557 0.916615 0.493942 -0.659756 -0.198475 -0.570746 -1.371291 0.469544 0.171137 0.176506 0.416443 1.605059 -0.312760 -0.646181 -0.660433 -0.730622 0.431086 -1.508323 0.125352 -0.958316 0.075945 -0.515621 0.085330 -1.355212 -0.575030 0.156054 -0.296220 -0.698820 0.366741 -1.573492
733 0.787473 0.630447 0.691462 0.019160 0.364351 -0.570343 0.602692 0.452322 -0.350803 0.090058 0.235971 -0.023123 -0.233351 1.207174 0.366546 -0.425297 -0.446257 -0.355365 0.584855 -0.287900 -0.192168 0.062885 -0.914918 -0.453445 -0.600981 -0.036397 -0.242053 0.672924 -1.091830 -0.940228 0.198527 -0.699157
734 -0.261713 0.487396 1.105276 0.819922 -0.423882 0.434414 1.648387 0.935475 0.401244 -0.682982 0.525152 -0.758303 -0.949567 0.614433 -0.755287 -0.852479 -1.201390 0.000211 0.251086 -0.416094 0.769286 -0.585528 -1.196484 -1.306223 -1.146809 -0.420417 -0.011712 -0.252577 -0.742439 -2.139890 0.156975 -0.385542
630 1.258231 0.747490 0.264464 0.284613 0.798146 -1.361290 -0.358330 -0.179982 0.599984 0.932962 -0.844625 -0.337550 0.445879 0.107573 1.322888 -1.400688 -1.228121 0.014577 0.491052 -1.159879 0.015242 1.520282 -0.937745 0.239552 -0.421703 -0.486629 0.832422 0.188410 -1.204696 -1.404859 -0.011065 -1.289902
1210 0.889935 0.778172 0.571743 0.143374 0.636192 -0.504301 0.354144 0.328918 -0.082264 -0.260621 0.367268 -0.286288 -0.157645 0.997597 0.194004 -0.646387 -0.723993 -0.377755 0.412026 -0.534236 -0.225080 -0.028540 -0.626372 -0.654023 -0.395162 0.172992 -0.446505 0.476815 -1.159606 -1.153100 0.008187 -0.558945
168 0.904926 0.798471 0.451486 0.056079 0.529708 -0.332957 0.234724 0.227907 -0.179637 -0.032203 0.292321 -0.068601 -0.121670 1.266896 0.239274 -0.688938 -0.652248 -0.245066 0.637248 -0.427306 -0.257201 0.151521 -0.940733 -0.582619 -0.465847 -0.095391 -0.364712 0.494039 -0.934924 -0.991204 0.132398 -0.732417
967 0.756707 0.683517 0.391789 0.114720 0.572020 -0.408461 0.327165 0.245912 -0.272052 -0.135355 0.166601 -0.196817 -0.204219 1.008255 0.247231 -0.725427 -0.611323 -0.437922 0.596519 -0.557812 -0.209602 -0.065792 -0.752493 -0.390512 -0.533030 0.043241 -0.395810 0.581221 -0.974372 -1.036091 0.094881 -0.615560
1102 1.037165 0.977486 0.604032 0.208958 0.752493 -0.549593 0.424909 0.276221 -0.285656 -0.230763 0.384085 -0.449746 -0.196209 1.126636 0.196466 -0.741662 -0.797523 -0.456319 0.590153 -0.669865 -0.271437 -0.184603 -0.772090 -0.676369 -0.482164 0.110720 -0.406326 0.599820 -1.251372 -1.317185 -0.062980 -0.697075
1103 2.061340 0.924008 0.445061 -0.026230 0.691907 -1.086999 0.546143 0.306965 0.287545 0.825309 0.546120 0.704531 -0.713503 0.836003 0.814431 -1.340133 -0.800259 -0.004993 1.766032 -0.896789 -1.244047 1.133752 0.244984 -0.768435 -1.218239 -0.131090 -0.714339 1.107775 0.197938 -0.452751 0.163474 -0.002227
879 1.323540 0.608617 0.337408 0.642502 0.657151 -0.453792 0.325173 0.320777 -0.105676 0.067536 0.101453 -0.253892 -0.132916 0.815837 -0.153735 -0.478857 -0.432402 -0.359709 0.607063 -0.383327 -0.323851 0.329531 -0.719817 -0.749639 -0.670804 -0.260619 -0.129263 0.529470 -1.280814 -1.259545 -0.118409 -0.833687
9 0.886456 0.795295 0.542099 0.157753 0.637749 -0.499003 0.362325 0.315831 -0.088428 -0.253588 0.359626 -0.301349 -0.159121 0.972268 0.186100 -0.653328 -0.727384 -0.361628 0.435011 -0.546513 -0.242800 -0.031389 -0.628285 -0.656836 -0.412170 0.160085 -0.437471 0.469899 -1.161686 -1.139459 -0.005466 -0.562260
801 0.997877 0.997974 0.584647 0.237443 0.729183 -0.521770 0.450440 0.276787 -0.280950 -0.227300 0.381574 -0.450965 -0.204456 1.128584 0.197091 -0.775512 -0.762545 -0.465233 0.623210 -0.681663 -0.235281 -0.131558 -0.778366 -0.643627 -0.494739 0.127801 -0.468689 0.645564 -1.288163 -1.295226 -0.106894 -0.747285
359 1.061321 0.983321 0.591423 0.198452 0.755040 -0.555437 0.448118 0.336710 -0.275632 -0.226630 0.362328 -0.457046 -0.209063 1.107111 0.227763 -0.739212 -0.808182 -0.470453 0.602307 -0.727814 -0.281049 -0.114028 -0.808109 -0.650878 -0.437395 0.123921 -0.389107 0.658564 -1.338609 -1.340058 -0.037435 -0.777174
768 -0.222887 1.107476 -0.252659 -0.028726 -0.379782 -1.107911 0.148325 0.069378 0.424554 0.114774 -1.090406 -0.985246 0.139464 2.159411 0.969477 -0.673214 -0.977408 0.134473 -0.152201 -1.097953 -0.384495 -0.525313 0.514448 -0.249383 -0.891470 -0.526458 -1.116467 1.249075 -1.811210 -0.551638 0.588774 -1.498083
213 1.092820 0.981084 0.590511 0.231262 0.777950 -0.566360 0.508731 0.307556 -0.241893 -0.247448 0.400757 -0.465452 -0.187739 1.188049 0.230665 -0.785521 -0.844512 -0.489240 0.616216 -0.687637 -0.253714 -0.135127 -0.838658 -0.636147 -0.450672 0.122145 -0.450831 0.629260 -1.355942 -1.323593 -0.078384 -0.778841
1075 0.893841 0.874532 0.573445 0.176164 0.702218 -0.479040 0.502536 0.305841 -0.239318 -0.233707 0.324968 -0.404275 -0.164947 0.994058 0.149964 -0.684031 -0.686748 -0.434952 0.566027 -0.621287 -0.212796 -0.131022 -0.787172 -0.581962 -0.416053 0.054959 -0.383344 0.588401 -1.167582 -1.170441 -0.086417 -0.658463
1094 1.493070 0.870405 0.770462 0.690420 -1.078488 0.212758 0.801632 0.202257 0.446378 -0.608789 -0.359762 -0.198889 -0.238871 1.505530 0.087324 0.477684 0.100265 0.500490 1.646582 -1.087548 -0.148452 0.765370 -0.783857 -0.296149 -0.223664 -0.331681 0.027270 1.842563 -1.509110 -0.524176 -0.634796 -1.526120
1154 1.071450 0.694288 0.552251 0.134460 0.446456 -0.357226 0.126609 0.419261 -0.051068 0.144185 0.446314 -0.142920 -0.418245 1.051048 0.323305 -0.614133 -0.415070 -0.237243 0.831191 -0.274289 -0.289849 0.437772 -1.195289 -0.469848 -0.593378 0.067273 0.052849 0.542192 -0.938034 -0.756081 0.020020 -0.876467
535 2.027040 -0.311879 0.239169 0.537483 0.497313 -0.249184 -0.207591 0.051857 -0.674106 -0.595219 -1.161518 -0.253094 -0.399554 0.586996 0.583915 0.374377 -1.151754 -0.126567 0.992363 -0.917078 -1.163937 -0.405422 0.604542 -0.284694 -0.815516 0.236380 0.172112 1.146861 -2.084635 -0.495802 0.346698 -1.291692
984 1.028888 0.382709 -0.409017 -1.134757 -0.288851 -1.530027 1.619211 0.253142 0.687306 -0.022384 0.800911 -0.124681 -0.995279 1.423279 0.072023 -1.259200 -1.029741 -0.780484 0.856726 -0.507625 0.056121 -0.527459 0.307596 -1.907430 -0.760263 -0.054988 -0.060771 0.572429 -0.831082 0.202094 -0.568514 -1.510157
425 0.941471 0.905208 0.576741 0.216561 0.649887 -0.539836 0.384218 0.307842 -0.211322 -0.213710 0.317218 -0.439334 -0.190550 1.066771 0.208334 -0.719007 -0.765015 -0.453690 0.556066 -0.701702 -0.196290 -0.180886 -0.786685 -0.622754 -0.458764 0.058133 -0.415575 0.585181 -1.159245 -1.150970 -0.042638 -0.657068
848 1.190202 1.118917 0.676892 0.239834 0.832705 -0.608777 0.511772 0.360311 -0.276659 -0.229293 0.417660 -0.504038 -0.240855 1.263474 0.227666 -0.857978 -0.909482 -0.553891 0.669038 -0.791681 -0.270341 -0.159083 -0.884629 -0.767380 -0.547150 0.104907 -0.493380 0.670856 -1.440661 -1.498150 -0.093755 -0.801816
563 0.980381 0.911258 0.733374 0.175623 0.715325 -0.311427 0.410441 0.377559 -0.101608 -0.156238 0.428357 -0.216046 -0.256618 1.122144 0.230010 -0.543304 -0.827300 -0.405058 0.575102 -0.630460 -0.123954 -0.114767 -0.751025 -0.531870 -0.598882 0.109643 -0.258154 0.625961 -1.129946 -1.163407 0.120191 -0.738307
738 1.785667 1.241464 0.091424 0.986295 0.776930 0.460011 0.006391 0.046876 -0.413133 -0.500828 0.233643 1.098646 0.001343 1.558359 0.347204 -1.007956 0.573022 -0.621243 1.844591 -1.515884 -0.081538 -0.029124 -1.663544 -0.027735 0.395511 -0.194613 0.619519 1.221203 -0.596880 -0.365453 0.972962 -0.835184
1024 -0.019404 1.837267 1.384813 0.257476 -0.704544 -1.101033 1.468670 0.799376 0.046574 -0.518698 0.886119 -0.171668 0.710380 1.893427 0.656693 -0.782157 -0.994580 -0.817704 0.580481 -0.718113 0.326456 0.323760 -0.786254 0.101919 -0.779020 0.677936 -0.268560 1.227584 -0.647703 0.803102 -0.179199 -0.822514
1182 0.040861 1.910861 1.412807 0.266405 -0.704279 -1.161709 1.516769 0.804154 0.039853 -0.499929 0.852273 -0.142862 0.716399 1.899467 0.705914 -0.854997 -1.028808 -0.790559 0.515998 -0.662734 0.312828 0.299231 -0.787592 0.119414 -0.792696 0.606064 -0.269191 1.174363 -0.641707 0.894922 -0.193558 -0.848844
391 1.973064 1.833775 -0.373207 -0.979231 -0.041945 0.210005 -0.170357 -0.047813 0.393293 -0.754425 0.410528 -0.590300 -0.787396 1.917067 0.052223 -0.789617 -0.893710 0.327585 0.247348 -1.471020 0.817172 0.613244 0.001199 -0.193638 -0.980936 -0.172105 0.163446 -0.235596 -0.940850 -0.291210 0.560382 -0.847692
501 1.102940 2.721467 0.394644 0.420197 -0.469723 -0.226229 0.464780 -0.283278 -0.975554 0.326820 0.006960 -0.371448 0.183157 0.545495 1.453858 -0.579599 -0.609947 -0.223170 1.231216 -0.556204 1.322314 -0.508958 -0.242661 -0.440161 -1.806181 0.191714 0.126793 0.627559 -0.525492 -0.945453 0.037372 -0.431936
1168 1.830098 1.221786 0.109308 1.047635 0.753591 0.528260 0.038063 0.052811 -0.386759 -0.504585 0.215986 1.148252 -0.014969 1.581067 0.326447 -1.013592 0.566982 -0.627170 1.828081 -1.508682 -0.102567 -0.005078 -1.720836 -0.094819 0.300263 -0.253267 0.650355 1.200945 -0.620874 -0.435955 0.981990 -0.868886
1203 1.961328 1.762036 -0.345058 -1.070595 -0.037429 0.239810 -0.211224 -0.059730 0.371324 -0.785546 0.423119 -0.540931 -0.790539 1.889768 -0.018239 -0.751770 -0.944548 0.390059 0.212215 -1.452281 0.834483 0.625928 0.028422 -0.171395 -1.001852 -0.200626 0.178815 -0.209407 -0.937624 -0.276426 0.650303 -0.779258
41 1.299659 1.084228 -0.297478 -0.209577 -0.534000 -0.434933 0.611835 -0.963017 0.325273 -0.801214 -0.432770 0.857453 -0.409690 1.096454 0.538854 -0.832496 -2.377715 -0.910852 0.110417 -0.707360 0.476155 -0.288410 -0.717641 -0.922889 -1.301938 -0.422396 -0.004864 1.251000 -1.121081 -0.464615 -0.978072 0.148669
5 1.112206 1.003592 0.608403 0.230394 0.816956 -0.593268 0.520520 0.299376 -0.247240 -0.263775 0.429170 -0.471530 -0.215868 1.217179 0.230410 -0.828981 -0.873881 -0.513064 0.642821 -0.711344 -0.254214 -0.136907 -0.875786 -0.655787 -0.474025 0.104628 -0.470394 0.635295 -1.391939 -1.388884 -0.091538 -0.790348
470 0.840670 0.766709 0.487057 0.050527 0.582465 -0.511295 0.443962 0.282874 -0.054206 -0.252706 0.225838 -0.215005 -0.313127 1.065377 0.253040 -0.422337 -0.888561 -0.238011 0.656519 -0.459221 -0.369416 0.092385 -0.934039 -0.653614 -0.308332 -0.215366 -0.491947 0.764963 -1.161426 -1.092005 0.003242 -0.852061
474 1.520076 0.829777 0.661644 0.699188 -1.207751 0.151735 0.813546 0.204869 0.350600 -0.550767 -0.375552 -0.241540 -0.214449 1.531310 0.048183 0.462873 0.126726 0.525644 1.702943 -1.094092 -0.177168 0.770678 -0.760143 -0.309180 -0.189338 -0.404312 0.070615 1.894836 -1.491648 -0.426961 -0.674276 -1.571304
781 0.392737 0.666252 1.026619 -1.303978 0.588472 -0.766057 1.384578 0.150101 0.803905 -0.687707 0.487094 0.037341 0.154692 0.693393 -1.016953 0.230091 0.307138 0.010139 0.757205 -0.929939 -0.887318 -0.619399 -0.824448 -0.255729 -0.432360 0.425908 -0.357433 0.812191 -1.859896 -0.827060 0.571455 -1.105929
334 0.870136 0.685915 0.126226 0.508779 0.670334 -0.976367 0.424883 -0.065128 -0.185103 -0.515422 0.386838 -0.882106 0.341805 0.123007 -0.148734 -0.959050 -0.847595 -0.430046 -0.048736 -1.031677 -0.145520 -0.692657 0.857180 -1.080779 0.106989 0.312289 -0.443357 -0.125223 -1.228345 -1.263794 -0.985130 -0.281248
775 1.040663 0.863797 1.096150 0.241716 0.146484 0.050688 0.153117 -0.957535 0.170747 -0.700280 0.241989 -0.327388 -0.914874 0.955331 0.120571 -0.995461 -0.324997 -1.452199 -0.238245 -1.134783 -1.045714 -0.382505 -0.857778 -0.356977 0.307671 0.026767 -0.331122 1.080000 -0.924469 0.256136 -0.096104 -0.670393
1090 0.934284 0.798704 0.504622 0.206889 0.662904 -0.489363 0.442300 0.233215 -0.227070 -0.141726 0.243583 -0.341983 -0.167444 0.991516 0.140291 -0.612109 -0.713402 -0.417698 0.489283 -0.652551 -0.230688 -0.112758 -0.653172 -0.582068 -0.480521 0.054128 -0.387810 0.563440 -1.145082 -1.105449 -0.027787 -0.557378
158 0.772284 0.732197 0.079509 0.627840 0.633725 -0.949921 0.480165 -0.074710 -0.201759 -0.565172 0.316860 -0.867316 0.445995 0.164530 -0.154013 -1.000443 -0.844488 -0.435584 0.053428 -1.043753 -0.122514 -0.716958 0.872384 -1.082402 0.102742 0.361272 -0.458443 -0.126091 -1.187564 -1.228179 -0.898341 -0.311876
843 -0.093639 1.331611 -0.793579 -0.595226 1.267511 -0.322285 1.087572 -0.170887 0.287380 0.140949 0.776841 -0.719755 0.228741 0.922633 0.158126 -0.268419 -0.453811 0.922883 0.660483 -0.034910 -0.653075 -0.219030 -0.313357 -0.902317 -1.490328 -0.363674 0.691147 -0.039814 -1.608329 -1.803249 -0.090563 -0.549691
250 -0.131345 1.356088 -0.759595 -0.589093 1.274780 -0.308579 1.082355 -0.177970 0.298988 0.133292 0.721821 -0.716256 0.208728 0.897001 0.161989 -0.265437 -0.444525 0.913365 0.671962 -0.053286 -0.636776 -0.203622 -0.324390 -0.964433 -1.491921 -0.319333 0.690428 -0.041759 -1.631415 -1.810665 -0.092631 -0.525155
1243 -0.031381 0.462206 0.040687 -0.047026 0.709674 -0.034942 -0.865969 0.400869 -0.218530 -0.762043 0.920626 -0.560352 -0.509712 0.656962 -0.416895 -0.908930 -0.908593 -0.189018 1.452228 0.510960 -0.226698 -0.571970 -0.638009 -0.600930 0.093045 -0.119948 -0.281893 0.412219 -0.823164 -0.936006 -0.185013 -1.585562
430 0.687309 2.155204 -0.393457 0.423214 -0.214369 -1.115145 0.216451 0.545864 0.165968 0.929929 0.433911 -0.044845 -0.735734 1.057667 0.608554 -1.690391 -0.836220 -0.974888 0.377370 -0.198844 -0.225553 0.147635 -0.344999 -0.829896 0.481805 0.774917 -1.033595 -0.061282 0.108650 -0.921878 0.187099 -1.358894
1133 1.373669 0.426266 0.868293 -0.281973 0.527123 0.410631 0.592090 0.153368 0.340582 -0.109487 -0.134357 1.139781 -1.233882 0.887036 0.643029 -0.434721 -0.878685 -0.393330 0.713528 0.844035 -0.346910 -0.459353 -1.583822 -0.214103 -0.824104 0.098726 -0.285135 1.134516 -0.445092 -1.146774 1.064039 -0.467874
923 0.933843 0.869205 0.540142 0.189522 0.638144 -0.495060 0.402530 0.256427 -0.179360 -0.193935 0.365288 -0.389501 -0.170997 0.997024 0.146451 -0.680758 -0.695224 -0.378958 0.566246 -0.601883 -0.199985 -0.143483 -0.687479 -0.529891 -0.393758 0.066709 -0.402960 0.558846 -1.134230 -1.167228 -0.051455 -0.617256
177 1.074094 1.123474 1.053934 -0.029612 0.341493 -1.321398 -0.200569 -0.588641 0.587629 -0.024114 -0.634696 0.230253 -1.076080 1.089817 -0.621931 -0.408975 -0.657796 0.180058 -0.044890 -0.422047 -0.287522 -0.069860 -0.151416 -0.785897 0.092359 0.100646 -1.634478 -0.019062 -1.293826 -1.271449 0.926078 -0.017767
841 0.389315 0.701001 1.049434 -1.331384 0.615662 -0.727201 1.397607 0.161207 0.810810 -0.693532 0.466305 0.001088 0.130784 0.714095 -1.047553 0.238831 0.322398 0.013173 0.771720 -0.915951 -0.878869 -0.658515 -0.830477 -0.209572 -0.413711 0.434153 -0.401046 0.855568 -1.859601 -0.811671 0.573011 -1.095783
188 1.573511 1.126436 1.664031 -1.128905 0.114078 -0.884845 0.076150 0.950759 0.845495 0.644835 0.225933 -0.644678 1.104349 0.671773 0.691500 -0.473640 -0.361102 -0.180135 0.079655 0.366178 -0.203342 -0.446208 0.062493 -0.319945 -1.182269 -0.278642 -0.399190 0.678111 -0.963230 -1.342602 -0.194449 -0.683109
249 1.338921 0.814218 0.015087 0.369116 0.081713 -0.188160 0.358520 0.636493 -1.217548 0.964796 0.546170 -1.498654 -0.221559 1.292766 0.233279 -0.676108 -1.314551 -0.256666 0.571744 0.125346 -0.580913 -0.625122 0.138362 -0.121018 -0.665273 -1.052366 -1.411903 1.369668 -0.336035 -0.340019 -0.941725 -0.579735
139 1.114597 0.344361 -0.560755 -0.221046 0.166058 0.071202 0.082502 1.417509 -0.354029 0.075582 0.126233 0.286989 0.567668 1.543048 0.100236 -0.636058 0.074389 -0.419244 1.015270 -0.422658 0.141400 -0.047238 -0.141341 0.200666 -1.609208 -0.369460 -0.321475 0.795100 -0.552420 -1.475305 0.241893 -2.102093
147 1.537308 1.141080 1.553173 -1.088521 0.073274 -0.891955 0.042801 0.953594 0.856212 0.641504 0.189450 -0.619920 1.094418 0.654361 0.662268 -0.501576 -0.355540 -0.179571 0.062130 0.360979 -0.186628 -0.465307 0.104488 -0.352483 -1.129222 -0.299846 -0.395350 0.628276 -0.886662 -1.339572 -0.210857 -0.640551
43 0.391508 0.695120 0.522918 -0.538848 1.464208 0.387560 1.070436 -0.111092 -0.100946 0.118554 -0.001587 -0.611802 -0.511752 1.206358 1.051908 0.054835 -0.396363 -1.047049 0.035072 -0.503109 0.809277 0.040438 0.635163 -0.991847 -0.399039 0.125841 -0.420547 1.535259 -1.481720 -0.499960 0.128905 -0.300499
164 1.041632 0.834806 0.680180 -0.633798 -0.671810 0.246229 0.141597 0.850294 0.821728 -0.384966 -0.499155 -0.582013 -0.083870 1.043075 0.293027 -0.692486 -1.620372 -1.209008 0.931646 -0.309297 -1.098120 0.708144 0.050042 -1.690037 -0.732807 0.458340 0.606664 0.459199 -0.646335 -0.838153 0.740353 -1.059483
947 0.127970 0.252130 1.116472 -0.261049 1.063686 -1.014962 0.496762 0.230821 0.474603 0.030073 1.237327 -0.460920 -0.455893 0.572854 0.029619 -0.502109 -0.441571 -0.554471 0.257470 0.324670 -0.036667 -0.200053 -1.314647 -0.989755 -0.990477 1.120569 -0.471592 0.266539 -0.672615 -0.943310 -0.797485 0.349015
845 1.363557 0.835865 -0.025822 0.300834 0.051381 -0.249413 0.375889 0.623282 -1.158326 0.959321 0.565349 -1.467649 -0.208886 1.268018 0.235242 -0.709347 -1.293555 -0.220394 0.543334 0.145495 -0.583866 -0.612906 0.111277 -0.169447 -0.608932 -1.056963 -1.424013 1.394690 -0.363649 -0.301024 -0.972422 -0.577178
53 0.819013 0.741807 0.062478 0.540527 0.701486 -0.938628 0.399449 -0.069846 -0.189355 -0.534538 0.345933 -0.818002 0.442304 0.131712 -0.196562 -0.957709 -0.861604 -0.346512 0.045593 -1.011661 -0.121664 -0.693190 0.874607 -1.073298 0.096478 0.319769 -0.428729 -0.144552 -1.212755 -1.219740 -0.983165 -0.275149
917 0.502508 0.554531 0.759960 0.677343 0.731497 -0.402379 0.024922 0.010573 -0.826688 -0.376352 0.018790 -0.748215 0.154804 0.267034 0.014517 0.024278 0.024213 0.202424 -0.266358 -0.708625 0.152977 -0.317466 -1.236194 0.559986 -0.435687 -0.516242 -0.129863 0.569058 -1.153118 -1.052900 -0.065374 -0.209509
508 -0.397981 1.774143 0.413620 -0.514442 0.879482 -0.170084 0.455498 0.166053 0.054814 -0.277644 0.423707 -0.593595 0.578046 1.930876 0.673929 -0.855453 -0.751199 -0.183120 0.718395 -0.478212 0.535051 -0.645301 -0.552421 -0.207049 -0.076294 -0.146090 -1.362162 -0.021235 0.122179 -1.374919 1.099217 -0.273210
1171 0.483762 0.568419 0.771929 0.622992 0.709739 -0.376396 0.045719 0.002695 -0.839410 -0.337368 -0.021885 -0.749884 0.199304 0.289018 0.036028 0.113603 0.019732 0.235132 -0.216467 -0.656957 0.177684 -0.341629 -1.229241 0.494743 -0.476411 -0.526290 -0.185015 0.657122 -1.189059 -1.092805 -0.043342 -0.215226
721 -0.010037 0.439976 -0.003383 -0.054930 0.718575 -0.006168 -0.902407 0.400571 -0.182026 -0.701904 0.873868 -0.582756 -0.479452 0.679815 -0.429648 -0.933365 -0.933665 -0.175575 1.470549 0.515639 -0.252246 -0.599548 -0.597496 -0.597124 0.133717 -0.173798 -0.256559 0.416508 -0.825043 -0.897047 -0.188477 -1.589217
505 0.460283 0.531175 0.733303 0.641772 0.742903 -0.390272 0.039357 0.041855 -0.857121 -0.357460 -0.001182 -0.763000 0.175075 0.345516 -0.053168 0.030969 0.032984 0.249390 -0.220469 -0.722742 0.149645 -0.332751 -1.257455 0.505019 -0.430399 -0.497028 -0.185161 0.555114 -1.132916 -1.099157 -0.029918 -0.229799
101 0.790938 0.759817 0.075668 0.558210 0.702643 -0.982055 0.421326 -0.094519 -0.200205 -0.571019 0.365338 -0.859598 0.412568 0.227107 -0.115882 -0.977075 -0.859590 -0.369238 -0.021182 -1.028489 -0.078799 -0.713632 0.868890 -1.103325 0.120405 0.288525 -0.502120 -0.155264 -1.220648 -1.260975 -0.960377 -0.271645
1108 0.153138 0.288727 1.122709 -0.449329 1.152387 -1.100186 0.398701 0.156460 0.468682 0.092512 1.199344 -0.486655 -0.464846 0.548719 0.057907 -0.446592 -0.487547 -0.661383 0.211461 0.229683 -0.021104 -0.068557 -1.390757 -0.888410 -0.864609 1.041074 -0.523735 0.195542 -0.594317 -0.853290 -0.763371 0.291541
446 0.393009 0.596787 0.567654 -0.543633 1.545523 0.450294 1.020023 -0.079298 -0.100068 0.085016 -0.026506 -0.612757 -0.452177 1.173340 1.047817 -0.003211 -0.388644 -1.030551 0.101976 -0.474066 0.874637 -0.021627 0.587653 -0.899956 -0.416934 0.089709 -0.363279 1.513650 -1.492210 -0.501621 0.112872 -0.301924
818 1.547735 1.114875 1.631978 -1.092196 0.065281 -0.823634 0.033068 0.918182 0.827363 0.615434 0.223240 -0.582990 1.064887 0.673336 0.679180 -0.485561 -0.342278 -0.160144 0.115844 0.413729 -0.169104 -0.438950 0.123024 -0.278643 -1.137633 -0.255007 -0.361066 0.688741 -0.857147 -1.276954 -0.183468 -0.627997
516 0.631766 0.275873 0.622482 0.035066 0.615819 -0.736319 0.700907 0.239581 0.445402 0.368782 0.491327 0.199873 -0.155691 1.900331 0.142279 0.656498 -0.974850 -0.411271 -0.097247 -0.026404 0.097418 0.923888 -1.235013 -0.587734 -0.855325 -1.281784 -0.419223 -0.121213 -1.149908 -0.384228 0.376449 -0.997284
398 1.075603 0.682961 0.813548 -0.396389 0.543624 -0.655417 1.209617 0.578140 -0.569339 0.001690 -0.350835 -0.032628 -0.279198 0.908981 -0.027035 -0.952020 -1.217167 0.612667 1.049514 -0.553892 0.758014 -1.044722 -0.455120 -0.577542 0.459326 0.863325 0.775317 0.494461 -1.612552 -0.180542 0.464340 0.083838
325 1.009158 0.866006 0.598993 -0.648260 -0.603300 0.218376 0.131731 0.809056 0.869660 -0.316094 -0.435961 -0.658890 -0.108839 1.091006 0.236365 -0.714288 -1.582591 -1.159538 0.989211 -0.322077 -1.132271 0.739241 0.079455 -1.665968 -0.772864 0.510589 0.576754 0.485859 -0.634413 -0.825613 0.719999 -1.031217
948 1.513781 0.808390 0.440141 0.153008 -0.188905 0.088577 0.709833 0.484518 -0.651381 -0.248703 0.578987 -0.837283 -0.603401 1.730472 -0.962165 0.640792 -0.439948 -0.683583 0.690652 -0.117673 -0.326936 0.069400 -0.360999 -0.711424 0.578144 0.412142 -0.708221 -0.045765 -0.613835 -1.028747 -0.351704 -0.196722
751 0.590072 0.319841 1.182172 -0.899267 1.210998 -0.566110 0.753613 0.369403 -1.074285 -0.760849 0.177494 0.462432 0.575909 -0.435032 1.545712 -0.373249 -1.377662 -0.698143 0.744038 -0.434935 -0.483956 0.879081 -0.132312 -0.444589 -0.394175 0.185782 -0.847119 0.144529 -0.654771 -1.438927 0.081988 -0.527842
219 0.475144 0.553767 0.689755 0.661134 0.751353 -0.365955 0.093062 0.025268 -0.889917 -0.366303 -0.063941 -0.742942 0.216923 0.382855 0.046792 0.020630 -0.025945 0.233776 -0.166249 -0.667769 0.136784 -0.362612 -1.256224 0.549918 -0.420629 -0.551635 -0.190294 0.565937 -1.163699 -1.021637 0.018240 -0.274985
1156 1.385676 0.770920 0.631515 0.186112 -0.230712 0.058884 0.626067 0.602320 -0.619224 -0.379068 0.743857 -0.757265 -0.578057 1.736220 -0.982225 0.777173 -0.332471 -0.818650 0.426738 -0.153826 -0.285659 0.119220 -0.287017 -0.651007 0.371627 0.514758 -0.646904 -0.127753 -0.532863 -1.136024 -0.381457 -0.223757
570 0.470052 0.603164 0.720565 0.619587 0.691418 -0.397154 0.037792 0.113436 -0.932060 -0.391441 0.016766 -0.786401 0.266741 0.353025 0.027690 0.072589 -0.004196 0.208917 -0.192073 -0.690024 0.146070 -0.281332 -1.222989 0.549112 -0.479558 -0.533712 -0.177923 0.595858 -1.147545 -1.129577 0.009814 -0.337148
173 1.093023 0.701618 0.773682 -0.393576 0.554161 -0.680394 1.223529 0.593599 -0.583922 -0.005859 -0.304120 -0.044114 -0.290303 0.951146 -0.030948 -0.949005 -1.177638 0.627631 1.096748 -0.548537 0.776698 -1.080774 -0.430551 -0.562161 0.471588 0.891868 0.760254 0.508989 -1.652130 -0.145807 0.438476 0.068959
1287 0.836671 0.853906 0.337716 -0.481938 0.494373 -0.360250 0.576399 0.523242 -0.451241 -0.851412 0.545343 0.613849 0.899371 -0.218150 1.019905 -0.593710 -1.004783 -1.108957 0.616752 -0.264910 -0.935767 1.030548 -0.034299 -0.445715 -0.552256 1.016122 -1.339478 0.710646 -0.793791 -1.419781 -0.082025 -0.559584
1046 0.433542 0.544090 0.736666 0.574678 0.710330 -0.337726 0.085435 -0.006598 -0.809206 -0.369769 -0.040203 -0.696154 0.196381 0.339451 -0.002754 0.098221 0.067169 0.205722 -0.168466 -0.628891 0.180056 -0.400446 -1.248159 0.544974 -0.513103 -0.428418 -0.151220 0.596985 -1.167513 -1.161221 -0.019882 -0.205943
1111 0.826164 0.681786 0.501165 -0.520790 0.659559 -0.330901 0.556891 0.521485 -0.622350 -0.866063 0.542211 0.606409 0.878530 -0.255657 1.090978 -0.472502 -1.014183 -1.031406 0.634282 -0.247491 -0.875277 1.014346 -0.003972 -0.417989 -0.527361 0.905251 -1.268169 0.623850 -0.779371 -1.423192 -0.118924 -0.564841
197 0.456620 0.577522 0.792504 0.651501 0.740273 -0.391844 0.050257 -0.026006 -0.785651 -0.293769 -0.012847 -0.742563 0.116697 0.320562 -0.083967 0.066307 0.064795 0.216678 -0.155531 -0.725816 0.190587 -0.435133 -1.265649 0.518501 -0.470761 -0.421383 -0.101558 0.619293 -1.217943 -1.053036 -0.064923 -0.158276
1279 0.806996 0.692649 0.124578 0.583588 0.611401 -0.929602 0.461278 -0.039554 -0.137804 -0.542965 0.345170 -0.825012 0.350039 0.191455 -0.152303 -1.008143 -0.870466 -0.413088 -0.003003 -1.004219 -0.106359 -0.709136 0.885693 -1.047767 0.065436 0.308749 -0.469873 -0.134372 -1.179351 -1.257837 -0.891942 -0.302037
1192 1.573246 0.868900 0.374090 0.060586 -0.137476 0.129527 0.782552 0.482563 -0.647321 -0.174510 0.493235 -0.821236 -0.576153 1.642342 -1.011978 0.530409 -0.386960 -0.562047 0.808688 -0.061061 -0.304585 0.098256 -0.453176 -0.746478 0.614285 0.460007 -0.679715 0.003177 -0.606554 -1.000890 -0.383445 -0.161887
1054 1.614050 0.846096 0.357273 0.076656 -0.094211 0.158863 0.751853 0.444131 -0.613110 -0.201314 0.505574 -0.795604 -0.567759 1.740455 -1.074430 0.560805 -0.377523 -0.633877 0.813499 -0.052587 -0.365414 -0.019278 -0.391888 -0.772879 0.623887 0.450885 -0.715292 -0.011522 -0.630110 -0.958234 -0.371097 -0.100975
1194 0.401936 0.773244 0.370288 0.739894 1.526224 0.250805 0.003604 0.419222 -0.870830 0.093654 -0.094627 -0.377125 0.165386 0.144147 0.133914 -1.930607 -0.155593 -1.492113 1.275677 -0.732340 -0.358368 -0.216729 -0.718556 -0.174814 -0.276429 1.181138 0.255366 0.504238 -0.540529 -1.488280 0.717992 -0.084248
920 1.385782 0.668021 0.659775 0.189471 -0.213983 0.072947 0.623383 0.631391 -0.589333 -0.442110 0.792144 -0.635105 -0.512405 1.742246 -0.952610 0.781916 -0.334020 -0.851532 0.450512 -0.186077 -0.257792 0.059158 -0.229259 -0.576190 0.273692 0.579004 -0.623898 -0.109782 -0.534770 -1.071956 -0.383830 -0.214459
536 0.433941 0.508349 0.734978 0.641719 0.720506 -0.376546 0.064190 -0.020153 -0.825843 -0.288158 0.025512 -0.713755 0.106616 0.288206 -0.062192 0.026294 0.019416 0.276663 -0.175015 -0.667790 0.234292 -0.388807 -1.238631 0.497808 -0.529852 -0.488135 -0.111094 0.618491 -1.134590 -1.007684 -0.049412 -0.242967
1225 0.329161 0.820661 0.398558 0.807278 1.546236 0.287118 -0.002292 0.393672 -0.867571 -0.007174 -0.063242 -0.347458 0.185842 0.178287 0.145279 -1.968431 -0.221829 -1.415139 1.270619 -0.741456 -0.370759 -0.203002 -0.713954 -0.152144 -0.300409 1.176226 0.166633 0.514083 -0.583399 -1.507861 0.737501 -0.144339
477 0.390173 0.554989 0.708541 0.714427 0.724012 -0.412530 -0.026151 -0.034179 -0.837433 -0.426521 0.018471 -0.768609 0.173101 0.320164 0.031032 0.127981 0.008838 0.179909 -0.259255 -0.717040 0.165242 -0.304845 -1.243110 0.503447 -0.401135 -0.510693 -0.218965 0.574837 -1.162694 -1.089464 0.001309 -0.247297
1011 1.433623 0.662813 0.632022 0.155534 -0.185365 0.016862 0.548863 0.623494 -0.619615 -0.390360 0.800341 -0.700238 -0.552570 1.696175 -0.975064 0.834469 -0.339872 -0.822110 0.422811 -0.123853 -0.249907 0.090728 -0.253588 -0.630243 0.227221 0.530602 -0.652368 -0.066537 -0.581845 -1.060224 -0.410983 -0.248396
370 0.381051 0.547547 0.773909 0.623746 0.662345 -0.431708 0.061159 -0.038613 -0.783700 -0.297654 0.030961 -0.732538 0.177471 0.324031 -0.054191 0.057431 0.045605 0.235735 -0.191512 -0.741750 0.219965 -0.400330 -1.211597 0.526120 -0.450220 -0.439682 -0.182100 0.626736 -1.155175 -1.055985 -0.043245 -0.201793
1134 0.343525 0.786865 0.397222 0.834233 1.595101 0.249983 -0.022264 0.397328 -0.857635 0.003019 -0.101605 -0.370852 0.183298 0.167682 0.139018 -2.000818 -0.231881 -1.436896 1.314818 -0.744230 -0.317808 -0.207818 -0.693012 -0.158247 -0.311864 1.194299 0.210153 0.495540 -0.575198 -1.493499 0.700918 -0.114310
1084 1.446059 0.752957 0.550326 0.166414 -0.164884 0.037721 0.647278 0.586625 -0.614385 -0.392488 0.716855 -0.703434 -0.580841 1.791871 -1.031712 0.707436 -0.383238 -0.723251 0.501182 -0.165288 -0.260727 0.025121 -0.281826 -0.662970 0.382316 0.470409 -0.717944 -0.060798 -0.617634 -1.071970 -0.343793 -0.256235
578 0.402029 0.556221 0.757140 0.635036 0.699633 -0.436196 0.030750 0.026160 -0.834211 -0.410321 -0.018725 -0.742131 0.191679 0.328811 0.012525 0.031374 -0.024320 0.180972 -0.245121 -0.701261 0.202599 -0.308485 -1.200659 0.501454 -0.436408 -0.512347 -0.213637 0.581056 -1.165969 -1.063651 0.026528 -0.242713
551 0.415574 0.612069 0.656950 0.652635 0.754357 -0.375500 0.016995 0.015985 -0.878060 -0.398320 -0.038239 -0.797179 0.166500 0.361506 0.017727 0.027629 -0.009904 0.196701 -0.182387 -0.672815 0.207809 -0.367315 -1.277260 0.520978 -0.420559 -0.538986 -0.229406 0.530656 -1.133571 -1.028633 -0.008152 -0.217243
133 -0.077305 0.447447 0.098761 -0.035974 0.628218 -0.040567 -0.863261 0.396593 -0.233826 -0.756528 0.889249 -0.570295 -0.509518 0.642148 -0.354548 -0.845125 -0.954281 -0.182850 1.416539 0.570195 -0.199879 -0.571761 -0.640830 -0.614228 0.114194 -0.181148 -0.296883 0.372890 -0.790281 -0.925018 -0.206645 -1.603444
280 -0.074650 0.443596 0.091096 -0.047734 0.616323 -0.010254 -0.867209 0.364637 -0.207733 -0.771368 0.897887 -0.582738 -0.522795 0.668557 -0.393048 -0.859543 -0.899831 -0.225239 1.358132 0.585514 -0.217274 -0.625671 -0.669298 -0.618636 0.125847 -0.268550 -0.284746 0.370713 -0.812737 -0.868249 -0.247989 -1.612162
489 0.406858 0.591362 0.824913 0.606411 0.717889 -0.438250 0.031244 0.016839 -0.832505 -0.344847 0.010902 -0.779736 0.171696 0.286726 -0.054913 0.132905 0.044682 0.197910 -0.201959 -0.683625 0.173939 -0.358087 -1.278608 0.483890 -0.506302 -0.430729 -0.183591 0.599496 -1.189860 -1.088687 -0.055231 -0.199204
290 1.110250 0.453676 -0.646400 0.700224 0.736370 0.167730 -0.594286 0.217098 0.839239 -0.482452 0.595301 -0.889920 -0.958305 0.705701 -0.118243 -0.380010 -1.552439 -0.306033 -0.177694 -0.325738 -0.193392 0.891619 -0.516454 -0.401805 -0.755701 -0.185737 -0.878802 1.276361 -0.617662 -1.772025 0.012664 0.370476
114 0.676710 0.349938 1.002398 -0.901064 0.895017 0.296228 0.332520 0.954080 0.058764 0.288582 0.531847 -0.922184 -0.240498 1.025873 0.423655 -1.497648 -0.272042 0.539434 0.043379 -0.940832 -1.048757 0.710682 -0.617279 0.665305 0.696856 0.999109 -0.531781 0.701276 -0.852216 -0.996458 0.163027 -0.942041
519 0.535015 0.562227 0.701660 0.659928 0.757650 -0.350627 0.059636 -0.073370 -0.824626 -0.323701 -0.017095 -0.721776 0.100348 0.334059 -0.070910 0.064904 0.048844 0.169414 -0.139909 -0.652735 0.168242 -0.370239 -1.259712 0.519298 -0.470605 -0.496841 -0.128781 0.616965 -1.204411 -1.051321 -0.030750 -0.198928
498 0.490156 0.566884 0.745057 0.614183 0.696433 -0.378781 0.017327 0.003846 -0.897804 -0.362612 -0.028608 -0.771190 0.160878 0.305428 -0.009426 0.046442 0.028211 0.211372 -0.181072 -0.626885 0.193860 -0.309477 -1.256879 0.520023 -0.460179 -0.530205 -0.134317 0.602103 -1.143095 -1.027405 -0.043974 -0.202810
138 0.939180 0.939958 1.150078 0.200362 0.244909 0.017496 0.184590 -0.901259 0.123681 -0.701299 0.263499 -0.266297 -0.868196 1.010269 0.112900 -0.941473 -0.319467 -1.386862 -0.335471 -1.127463 -0.994956 -0.271717 -0.871204 -0.337076 0.354629 0.199757 -0.271082 1.095505 -1.027709 0.397944 0.072385 -0.632872
84 -0.070907 0.460709 0.120001 0.001777 0.633305 -0.019516 -0.814737 0.416746 -0.209770 -0.727777 0.881711 -0.536278 -0.534228 0.622166 -0.399503 -0.889808 -0.924517 -0.228372 1.378539 0.591456 -0.188566 -0.609532 -0.619342 -0.601041 0.089470 -0.204093 -0.257085 0.421198 -0.780321 -0.897521 -0.151624 -1.568846
218 0.675008 0.183507 0.589913 0.062598 0.599188 -0.729674 0.700399 0.249897 0.418488 0.408903 0.507407 0.164806 -0.149805 1.903827 0.195069 0.714092 -0.954937 -0.398720 -0.129562 -0.081500 0.115322 0.986688 -1.216741 -0.618768 -0.896556 -1.317619 -0.375207 -0.132129 -1.120768 -0.439428 0.302326 -1.001112
1200 0.581137 0.184214 0.594667 0.039348 0.628197 -0.729016 0.702261 0.220935 0.458321 0.381522 0.553149 0.217479 -0.146077 1.873368 0.162230 0.725096 -0.960255 -0.399196 -0.123914 -0.055640 0.090719 0.912117 -1.262563 -0.629645 -0.884127 -1.298413 -0.396079 -0.095689 -1.113813 -0.407268 0.349878 -1.035126
512 0.436903 0.521677 0.747849 0.659415 0.704975 -0.380540 0.103149 0.016212 -0.863886 -0.310048 -0.025848 -0.729473 0.243244 0.324765 0.023287 -0.037158 0.016317 0.281045 -0.211427 -0.728223 0.176254 -0.384794 -1.274294 0.574242 -0.455571 -0.525050 -0.224058 0.579915 -1.164024 -1.041865 -0.020287 -0.281499
255 0.873660 0.676765 0.094935 0.562179 0.623636 -0.977320 0.447513 -0.085245 -0.237728 -0.519571 0.323615 -0.810278 0.366718 0.119290 -0.179065 -1.008329 -0.858854 -0.416301 0.032594 -1.009576 -0.167731 -0.693945 0.895397 -1.028531 0.106278 0.362155 -0.476087 -0.111767 -1.163131 -1.224060 -0.921843 -0.330274
619 0.967428 0.838354 1.086023 0.136341 0.165097 0.005893 0.098579 -0.960768 0.197993 -0.779484 0.195483 -0.287149 -0.903959 0.902018 0.154143 -0.918267 -0.361857 -1.441342 -0.229826 -1.178410 -1.135752 -0.473640 -0.811847 -0.321486 0.351312 0.037017 -0.366501 1.084308 -0.894339 0.237248 -0.142328 -0.534849
1066 1.488401 0.737895 0.534576 0.145677 -0.175238 0.072594 0.675377 0.554867 -0.596324 -0.289932 0.645764 -0.760122 -0.552962 1.723835 -0.975484 0.697829 -0.392388 -0.685870 0.579729 -0.078664 -0.253615 0.057655 -0.328392 -0.694336 0.442044 0.468310 -0.745011 -0.071628 -0.581433 -1.073727 -0.344161 -0.192738
149 2.332776 -0.234073 -0.508549 0.722871 0.891474 -0.193941 0.530076 0.594590 0.126646 0.304528 -0.152911 0.050201 -0.112278 1.106019 1.024605 -0.413188 -0.594526 0.127533 0.692218 -0.018768 0.413165 -0.295522 -0.741931 -0.707977 -0.602068 -0.238799 -0.123997 -0.363769 -0.930719 -1.307314 -0.657718 0.012772
1033 0.420737 0.553356 0.702195 0.613611 0.721217 -0.421799 0.031871 0.070088 -0.931355 -0.383937 0.010085 -0.703109 0.210329 0.280850 0.021135 0.048774 -0.001216 0.247341 -0.302933 -0.614551 0.203589 -0.305004 -1.227548 0.503840 -0.494266 -0.514997 -0.190538 0.582829 -1.138060 -1.061572 0.016310 -0.217585
93 -0.040189 0.461677 0.020966 -0.029736 0.632454 -0.007291 -0.879006 0.414855 -0.187057 -0.726477 0.849760 -0.590981 -0.516038 0.653202 -0.384382 -0.884680 -0.910491 -0.199864 1.430173 0.595303 -0.172871 -0.613620 -0.602969 -0.604481 0.108062 -0.208014 -0.277734 0.393055 -0.753385 -0.896367 -0.207634 -1.601696
131 0.186122 -0.655366 0.311099 1.144858 0.234070 -1.533839 0.802764 0.670237 -0.199283 0.133071 -0.299249 0.409418 -0.201075 0.780886 0.390143 -1.012646 0.188413 -0.721295 0.494391 -0.576222 -0.198992 0.085630 -0.708046 -1.281511 0.118618 0.205878 -0.429263 0.259623 -1.347686 -0.745695 0.547982 -1.215672
830 0.673245 0.393991 0.986887 -0.871495 0.913166 0.288808 0.317043 0.925395 0.001704 0.278497 0.519155 -0.886749 -0.214905 1.047832 0.424360 -1.492141 -0.297907 0.513711 0.120144 -0.935114 -1.032565 0.660262 -0.620843 0.596994 0.691651 0.956238 -0.544943 0.689437 -0.857844 -0.963323 0.174618 -0.918196
969 0.465815 0.537290 0.688558 0.695816 0.745178 -0.366276 0.072232 0.005115 -0.856105 -0.395086 -0.017893 -0.719135 0.124888 0.372185 -0.070008 0.063652 0.024988 0.211360 -0.173023 -0.689732 0.199257 -0.370912 -1.228663 0.513766 -0.381601 -0.484775 -0.116494 0.580699 -1.170643 -1.048906 -0.028790 -0.198871
1106 1.018506 0.858070 1.087320 0.188384 0.174702 0.072847 0.132576 -0.939173 0.135664 -0.715112 0.207459 -0.315170 -0.885338 0.916582 0.130413 -0.963983 -0.323991 -1.413092 -0.277929 -1.145502 -1.072695 -0.367246 -0.796835 -0.291354 0.360585 0.063424 -0.302842 1.094503 -0.941335 0.288776 -0.079723 -0.604004
60 2.380877 -0.275828 -0.553201 0.746917 0.834470 -0.174887 0.454234 0.636020 0.085647 0.290155 -0.148543 0.010978 -0.246664 1.086176 1.015877 -0.395694 -0.585599 0.140772 0.728689 -0.078380 0.363482 -0.158964 -0.799274 -0.671052 -0.562282 -0.248925 -0.064439 -0.340798 -0.928295 -1.258649 -0.706592 -0.065524
