499 32
14 -0.841455 -0.097896 0.887555 -1.905920 0.976078 0.883147 2.058321 0.835817 0.786283 -0.435385 -0.830721 -0.247546 1.391994 -0.962309 -0.082755 1.243640 -0.198311 -0.727067 0.558720 -0.031738 0.028964 -0.767931 0.499677 0.006792 -0.221953 -1.051484 0.856392 0.752804 -0.328046 1.156960 0.253729 -0.073192
120 -1.581146 -0.697336 0.293293 1.149377 -0.559816 -0.806102 1.107327 0.399379 0.103009 -0.195817 -0.821434 -0.224744 -0.029518 -0.805065 -0.703296 -0.223937 1.090451 0.082278 0.951144 0.242831 0.064639 -0.303737 -1.455613 -0.268972 -0.305670 -1.606263 -0.027623 -0.036959 -0.031174 0.490744 0.024508 -1.003435
259 0.248344 0.196335 1.228014 -0.392680 -0.429472 0.539125 1.790154 0.517404 0.299173 0.119716 -0.152011 -0.760880 -0.825396 0.091459 -1.099135 1.156243 0.512257 0.292035 0.966198 0.697859 -0.084160 0.315256 -1.017526 0.401057 0.910391 -1.267215 -0.277648 -0.025322 0.466786 0.095460 -0.378982 0.176923
12 -0.666803 0.757699 0.673951 0.343329 -0.939612 0.335638 2.115933 0.581963 0.824860 -0.619975 -0.043226 -0.109344 0.644855 -1.411487 0.734980 0.310204 0.205661 0.658061 -0.304539 -0.504356 0.286756 0.365082 0.191835 -0.243612 0.270408 -1.425422 0.576966 0.464342 0.318222 0.545429 0.342791 -1.125288
174 -0.429436 0.241100 0.419904 0.245042 -0.027629 1.116521 0.964443 -0.903963 0.756792 -0.583614 -0.648479 -0.009889 0.179320 -0.397539 0.104286 0.130797 0.086912 -0.309096 0.055838 0.239863 -0.265348 -0.014098 -1.699400 -0.616768 0.391094 -1.836294 0.327116 0.672078 0.109415 1.654750 -0.134648 0.392063
111 0.201115 2.191144 1.248525 -0.135084 0.036977 0.358104 1.574112 -0.287851 0.493204 -1.054889 -1.140020 -0.582638 0.489066 -0.687912 -0.845414 -0.583533 0.522982 -1.013990 0.276182 -0.324553 0.655327 0.987749 -0.876080 0.650614 0.350041 -0.558223 0.598614 0.006123 0.170558 1.134707 -0.870031 -0.418667
239 -0.153588 0.009137 0.942383 0.526363 -0.194965 -0.022362 0.909862 0.059827 -0.516348 -0.135329 0.126666 -0.739404 0.398904 -0.586079 -0.248762 0.335407 1.332112 -0.162701 -0.960760 -0.645914 0.551587 0.111111 -1.112903 0.716811 0.051620 -0.944501 0.234047 0.347512 -0.096932 -0.353318 -0.076050 0.251499
110 -0.167461 -0.015222 0.981828 0.498514 -0.184426 0.017024 0.906655 0.061173 -0.535280 -0.068686 0.132991 -0.736240 0.347043 -0.608481 -0.226651 0.352657 1.342184 -0.130351 -0.965895 -0.682451 0.522890 0.063543 -1.132573 0.609318 0.083847 -0.872207 0.255530 0.328860 -0.141311 -0.295338 -0.077246 0.207958
89 -1.480650 -0.492056 1.160416 -0.193967 -0.155198 0.712211 2.384847 0.135263 0.079607 0.069602 -0.897720 0.334320 -0.317583 -0.120022 -0.319201 -0.150115 0.473023 0.621293 0.388065 -0.601396 0.935868 -0.155151 -0.172703 0.994298 0.641731 -0.834349 1.022433 -0.625147 -0.248923 1.180810 -0.332082 0.015515
54 -0.191404 0.033865 0.955803 0.481355 -0.222461 0.010318 0.916098 0.070634 -0.488566 -0.113891 0.123193 -0.711228 0.353833 -0.601928 -0.313957 0.358198 1.336102 -0.111068 -0.960839 -0.612314 0.596874 0.078656 -1.112115 0.710218 0.033430 -0.934118 0.231953 0.322446 -0.115070 -0.352817 -0.075812 0.247581
7 -0.019183 0.361741 0.295159 -0.200162 -0.157560 1.022127 1.010478 0.661414 1.657489 0.651894 -0.921985 -0.357823 0.709133 -1.657220 0.159802 0.389163 0.664602 -0.289822 -0.026836 -0.122036 0.200749 -0.260022 -0.703586 1.063524 -0.181411 -0.882506 0.460670 -0.179770 0.833424 0.314559 0.046356 1.320432
13 -0.037124 0.405418 0.245495 -0.221027 -0.214513 0.958622 1.005898 0.635058 1.629449 0.673644 -0.969296 -0.354393 0.707096 -1.644729 0.166681 0.378203 0.627632 -0.252225 -0.011585 -0.104344 0.262767 -0.308185 -0.717085 1.135630 -0.157688 -0.892264 0.446838 -0.160289 0.850651 0.357930 0.093445 1.360525
269 -1.233667 -0.683893 0.799896 -0.140954 0.431864 0.511907 1.045425 0.127059 0.569572 -0.254690 0.322375 0.168320 -0.419321 -0.799377 -0.919043 -0.040942 1.048335 -0.571221 0.020031 0.899218 0.362748 -0.031885 -1.844510 0.578167 -0.250590 0.339239 0.269995 -0.186938 0.942201 0.932042 -0.712928 0.518006
180 -0.651591 0.035427 0.025008 0.226445 0.779124 -0.200981 1.356476 0.123791 0.296018 -0.660642 0.066320 -0.443384 1.459761 -0.705458 -1.540287 0.182127 0.794645 -0.217304 0.307473 -0.076511 0.122853 -0.213336 0.152089 -0.287563 0.554183 -0.823865 0.455305 -0.226154 0.416030 0.768961 -0.800034 0.737819
19 0.427160 -0.113247 0.578895 -0.937329 -0.643545 0.158673 1.818306 0.007894 -0.064557 -0.816249 -0.970751 1.020117 -0.303505 -1.972237 -1.145269 0.400613 0.458117 -0.587283 0.086970 0.527126 0.767842 -1.105004 -0.535169 0.132883 0.011847 -0.761823 0.211866 0.572318 -0.111233 0.018535 -0.143791 0.963183
2 0.336494 -0.038108 0.633619 -0.947781 -0.640711 0.168704 1.859646 -0.033582 -0.062121 -0.830501 -0.925496 0.920727 -0.231924 -1.974007 -1.164454 0.371273 0.501631 -0.557160 0.078084 0.470358 0.796054 -1.104965 -0.568796 0.155987 -0.047281 -0.746101 0.163996 0.520664 -0.145329 0.066788 -0.207518 0.977505
163 -0.168158 -0.584672 1.179693 -0.287714 0.346901 0.873111 1.298321 0.589037 -0.275830 -0.981766 -0.277840 1.666838 0.591312 -1.456610 -0.359312 0.214947 0.218016 0.689440 -0.086908 0.198295 0.287251 1.120665 -1.081221 1.216248 0.392641 -1.070471 -0.286752 0.269001 -0.236180 0.309564 -0.837577 -0.110511
20 -0.750107 0.033963 0.019912 0.255125 0.685993 -0.229792 1.343256 0.087933 0.288311 -0.684287 0.008067 -0.460126 1.532225 -0.716231 -1.482662 0.070284 0.770000 -0.192449 0.310297 -0.126842 0.187539 -0.259144 0.171236 -0.230179 0.491822 -0.911859 0.456599 -0.223469 0.407875 0.777239 -0.765185 0.705921
51 -0.706294 0.082197 0.034436 0.218283 0.663595 -0.190437 1.350333 0.027636 0.267493 -0.668639 0.028755 -0.434368 1.514945 -0.700930 -1.499707 0.043777 0.739983 -0.167014 0.357695 -0.111877 0.153118 -0.246057 0.179363 -0.268745 0.497102 -0.896955 0.442141 -0.247705 0.392113 0.788019 -0.726183 0.704990
27 -1.456942 -0.751033 -1.391047 -0.535877 0.626374 0.247484 1.700828 1.178183 -0.185808 0.323501 -0.582977 0.304105 0.530093 -0.910498 -0.317266 -0.404548 1.133799 -0.998603 -0.122068 -0.918675 1.337527 0.380575 -0.881986 1.425799 -0.334821 -1.059505 1.018986 0.523403 -0.207671 0.476518 -0.415866 -0.844394
302 0.231996 0.898307 -0.330640 -0.068725 -0.230657 -0.585036 2.610721 1.060764 -0.302168 -0.840433 -0.104235 -0.035374 -0.429935 -0.126908 0.256773 0.252521 0.607365 -0.976589 -0.117285 -0.590392 0.814712 -0.817308 -1.041630 -0.652298 0.261280 -2.062552 0.231405 -0.112487 0.354351 0.589627 -1.195383 -0.469168
22 -0.763230 0.039899 0.059931 0.256225 0.702390 -0.211938 1.353313 0.057711 0.322523 -0.674824 0.028515 -0.446439 1.537144 -0.694970 -1.504241 0.117737 0.757379 -0.151769 0.305035 -0.108614 0.208412 -0.270243 0.124196 -0.198942 0.486257 -0.936940 0.435444 -0.303262 0.435683 0.830670 -0.759363 0.713837
25 -1.037615 0.394372 1.041407 -0.196646 -0.260048 0.911690 -0.090527 0.737230 1.176200 -0.347029 0.382124 0.304668 0.704745 -0.369857 -0.922137 0.071701 0.671596 -0.672772 0.551911 0.126957 0.382438 -0.065938 -0.586284 1.027763 0.522103 -1.619630 0.025660 0.423425 0.983994 0.221535 -0.216630 -0.999711
165 -0.735690 0.051599 0.061623 0.249500 0.683665 -0.219031 1.334400 0.072188 0.329252 -0.672411 0.053480 -0.493475 1.518485 -0.708022 -1.512376 0.048205 0.776156 -0.200756 0.357485 -0.080326 0.166575 -0.275900 0.174049 -0.260651 0.472852 -0.910404 0.438646 -0.269709 0.438456 0.787756 -0.778695 0.685670
4 -1.016295 0.419612 1.013221 -0.201480 -0.236454 0.886683 -0.040533 0.761452 1.096772 -0.372902 0.347072 0.343666 0.757859 -0.417172 -0.941233 0.053442 0.671418 -0.660118 0.584422 0.084126 0.370655 -0.036782 -0.576963 0.962585 0.496639 -1.548517 0.038144 0.401095 0.985205 0.196202 -0.243975 -1.007652
10 -0.991885 0.423316 1.001098 -0.223737 -0.241137 0.934800 -0.031202 0.771952 1.122406 -0.377427 0.366585 0.310196 0.689392 -0.419472 -0.916079 0.078995 0.694494 -0.632332 0.557743 0.102018 0.404408 -0.046390 -0.572892 0.997011 0.461551 -1.568041 0.054146 0.405899 0.970857 0.179619 -0.253515 -1.027849
74 -1.136399 0.613236 1.317977 -1.118202 -0.936660 1.500471 1.383300 0.715567 -0.639000 -0.204336 -0.070090 -0.574014 0.294878 -1.014795 0.274547 0.048410 1.195409 -0.346231 0.516229 -0.618288 -0.095832 -0.747435 -1.048827 -0.285894 0.049421 -0.074648 1.212253 1.355181 0.539338 0.730184 -0.714975 -0.113230
897 -0.535583 0.721819 -1.473152 0.800971 0.995232 -0.299021 1.396812 0.780654 0.109836 -1.249260 -1.270256 0.408779 -0.160357 -0.784747 -0.747301 0.843001 1.052509 -1.273367 -0.053204 -0.188696 -0.144593 0.185197 -1.646333 0.271473 0.446592 -0.553662 0.192992 1.033519 -0.074073 1.215069 0.121716 0.209661
1092 0.035136 0.571509 0.496915 0.453540 -0.312217 0.588100 1.568495 0.685702 -0.435429 -0.150088 -0.932657 0.001098 0.176118 -0.820956 0.028013 -0.793044 1.593900 -1.471586 1.351135 0.365801 0.718405 -0.059203 -1.101174 1.094791 -0.114183 -0.537134 1.069579 0.576428 0.312053 0.400702 1.213681 -0.117210
330 -0.766789 -0.291672 0.526356 0.138208 1.565965 0.279230 0.763856 0.359446 0.209441 -0.060094 -0.967470 0.566682 1.270300 -0.730446 -0.217857 1.374373 -0.209731 -1.146810 -0.173290 -0.190778 0.551768 0.649867 -1.759808 0.687352 0.224938 -1.363463 0.355685 -0.003001 -0.190727 0.023255 0.954040 0.537900
350 -0.430280 0.337056 1.357493 -0.084148 -0.541930 0.669328 1.498032 0.179481 1.098962 -0.790635 -0.235716 0.035168 -0.301128 -1.347882 -1.152061 0.877762 0.687851 -0.761174 -0.033990 -0.550835 -0.919386 0.992508 -1.513334 -0.141899 -0.049608 -0.084061 0.017826 1.323133 -0.875132 0.502601 -0.251543 -1.112206
87 -0.823983 -0.351112 0.501973 0.170166 1.594360 0.226544 0.722875 0.366424 0.256878 -0.037189 -0.919934 0.573520 1.272680 -0.653658 -0.230429 1.330912 -0.217940 -1.109790 -0.180398 -0.170039 0.586917 0.610997 -1.783838 0.718878 0.244979 -1.382252 0.374096 -0.050759 -0.115067 0.002973 0.977546 0.525982
240 -0.067718 0.594915 0.393595 0.359302 -0.401953 0.526956 1.526621 0.757862 -0.478809 -0.184858 -1.068601 -0.238277 0.185109 -0.617942 -0.010021 -0.703984 1.471221 -1.367877 1.446063 0.395280 0.818793 -0.137924 -0.995666 1.088692 -0.155853 -0.580768 1.086722 0.640393 0.406369 0.347871 1.080683 -0.205347
99 -0.810304 -0.329583 0.478178 0.162414 1.589474 0.264533 0.739657 0.362514 0.290371 -0.043079 -0.938254 0.476710 1.213042 -0.669079 -0.267095 1.373816 -0.177171 -1.101978 -0.177641 -0.160752 0.525085 0.665473 -1.827631 0.722951 0.208843 -1.360150 0.357401 -0.053838 -0.154522 0.014863 0.935513 0.515311
135 -0.357896 0.208995 -0.620099 0.270092 -0.673887 -0.492053 1.344920 0.527283 1.124117 0.181375 0.326690 1.048353 0.281410 -0.808006 -1.158051 0.554688 1.191184 0.302509 -0.858570 -0.310708 -0.000353 0.184157 -1.618327 0.626286 0.939693 -1.419893 0.078402 -0.601273 0.333001 1.447367 -0.155303 -0.197456
250 -1.441700 1.290711 0.409743 -0.599354 0.329077 0.507137 1.951575 0.551075 -0.136975 -0.118826 -0.721066 -0.612469 -0.166354 -1.065196 -0.274208 0.646903 1.256347 0.025722 0.529279 1.073325 1.022037 -0.278820 -1.520932 -0.426229 -1.077586 -0.947221 0.283788 -1.023609 -1.127370 -0.523067 -0.401828 0.332748
513 -1.756941 1.177799 -0.357618 -0.937527 0.111261 -0.355001 1.070472 0.363857 -0.035052 -0.222523 -0.892150 -0.004821 0.486637 0.269787 -0.989822 0.349874 0.904832 0.582727 0.233742 0.333815 1.209413 -0.288760 -1.166359 0.590356 0.324816 -1.610147 -0.111233 0.375048 1.080758 0.071668 0.749601 0.568919
476 -1.699843 1.135628 -0.353846 -0.964592 0.090206 -0.386258 1.082371 0.402201 -0.060997 -0.227941 -0.865858 0.017416 0.447153 0.231748 -0.991543 0.304104 0.945913 0.601702 0.231415 0.365606 1.200295 -0.299948 -1.200915 0.545391 0.314213 -1.590545 -0.065907 0.344029 1.082279 0.098647 0.666471 0.564974
80 -0.249297 0.197625 -0.793180 0.262609 0.345445 0.831589 0.941547 0.578529 1.203693 -1.026034 -0.363599 -0.399253 0.070118 -0.973666 -1.501490 1.133039 0.308435 -0.143200 -0.719494 1.072214 0.580633 1.340385 -0.805008 0.656469 -0.109807 -1.761543 -0.372331 0.785647 0.368390 0.066322 -0.615194 0.982156
389 -0.643693 0.784194 0.687961 0.302052 -1.002617 0.284327 2.142062 0.596150 0.778707 -0.647193 -0.066818 -0.081281 0.578121 -1.438380 0.638702 0.389258 0.327086 0.596460 -0.275701 -0.504184 0.270507 0.234258 0.241803 -0.309044 0.361346 -1.454990 0.551929 0.474594 0.344624 0.549993 0.383735 -1.075769
696 -0.432739 0.761159 0.459802 0.539367 -0.680450 0.535539 1.945822 0.713626 0.747285 -0.755064 -0.301133 -0.315429 0.927825 -1.542194 0.445660 0.232546 0.096476 0.891745 -0.282448 -0.354638 0.505687 0.236924 0.297730 -0.083164 0.204302 -1.371464 0.368718 0.600992 0.139224 0.490332 0.192857 -1.100414
304 -0.338523 -1.160935 -0.334017 -0.945961 0.454039 0.694078 1.085398 0.714673 0.200467 -0.285631 0.549211 -0.023739 -0.180798 -1.045663 -0.507773 0.514837 0.884475 0.232281 -0.348968 0.406395 -0.488006 -0.191726 -1.254971 -0.211723 -0.686059 -2.180937 1.036298 0.066663 0.398747 -0.082823 -0.281173 -0.614607
935 0.670915 0.483285 1.086187 -0.146197 -0.602932 0.949076 1.558971 1.413725 -0.293670 0.109690 -0.869614 0.032432 -0.291259 -0.057525 0.013151 0.578959 1.375765 -0.627714 -0.378485 0.160785 -0.561243 0.510598 0.057351 0.109995 -0.023888 -2.021842 0.324567 1.831398 1.168919 1.382593 -0.538169 -0.109569
421 -0.238879 0.041063 0.638315 -0.184171 0.928957 0.468128 0.576020 1.000216 -0.423975 -0.854550 -1.301550 -0.286500 0.386657 -0.463924 -1.858355 1.226755 0.976641 0.455252 0.141251 0.690895 0.413766 -0.894791 -1.624478 0.815401 0.297767 -0.497503 -0.115563 -0.133051 -0.905741 1.103199 -0.024011 0.495704
524 -1.191967 0.169170 1.134691 1.139969 -0.469470 -0.566009 1.000769 0.145187 0.953149 -0.793338 -0.013516 0.759293 -0.109431 -0.463700 -1.141734 0.540503 1.403398 0.252030 -0.050390 0.916297 1.519972 0.284268 -0.202451 1.224217 -0.276024 -0.895583 1.184690 1.588064 0.163946 1.112398 0.845791 0.277122
28 -1.413218 -0.270764 0.722299 0.601846 0.955895 0.722984 2.437092 1.013251 0.660553 0.488994 -0.913738 -0.287621 0.575679 0.701144 -0.890787 0.705510 0.267462 -1.614810 1.181516 -0.049180 0.029838 0.820953 -0.198453 0.020593 0.515477 -0.661553 0.534202 0.309742 0.270247 0.242369 -0.812488 -1.110641
704 -0.956372 0.182486 0.771827 -0.005959 0.014597 0.447114 1.936068 0.564016 0.353572 -0.489724 -0.366085 -0.133368 0.558355 -1.024331 -0.916350 0.543314 1.105596 -0.399529 0.117166 0.122518 0.449217 0.108748 -1.320171 0.560460 0.208162 -1.581527 0.457673 0.349608 0.346285 0.667024 -0.319319 0.118877
76 -1.754969 0.824058 0.185845 -0.081771 0.095564 -0.469273 1.938966 1.163667 1.006034 -0.132965 -0.855934 1.436449 -0.077582 -0.808673 0.940995 0.361532 0.996678 -0.662644 0.764585 1.015927 -0.230510 -0.515337 -1.508629 -0.091029 0.752065 -1.501643 -0.773847 1.249968 0.095782 -0.185437 0.550469 -0.331811
1218 -0.489606 0.060792 0.736149 0.181358 0.402000 0.696060 1.261043 0.621528 0.447061 -0.466410 -0.507518 -0.542719 0.582225 -0.927839 -0.659308 0.282049 0.669772 -0.177893 -0.455905 -0.379123 -0.087827 0.081256 -0.983655 0.444601 0.557462 -1.442185 0.550964 0.738702 0.434724 0.949718 -0.166421 -0.049890
215 -0.660508 0.112515 0.647497 -0.062121 0.061576 0.312921 1.506672 0.513216 0.319699 -0.367686 -0.344857 -0.114287 0.407537 -0.827938 -0.702984 0.520419 0.913566 -0.315268 0.025464 0.090581 0.298319 0.043836 -1.083629 0.385508 0.137194 -1.255815 0.426261 0.340392 0.243760 0.526383 -0.197587 0.080428
282 -0.312649 -0.356620 0.297713 0.521245 0.215594 0.698632 1.855988 -0.273053 1.617844 -0.982051 -0.204062 0.215734 0.144680 -0.954405 0.165346 0.403153 0.773386 -1.156170 0.527818 1.346360 0.353518 -0.193387 -0.059235 0.646692 0.863557 -0.870427 2.446297 1.059029 0.577622 0.800284 -0.180680 -0.656324
910 -0.412700 -0.494654 0.878914 -0.431551 1.058519 0.679238 2.047715 -0.291239 0.263698 0.103576 -0.242337 -0.308338 0.401239 -0.938206 -0.790731 1.337811 0.608902 -2.095027 -0.477808 0.604244 0.193875 0.467179 -0.557027 0.177125 0.200739 -0.903013 1.011996 1.345608 -1.695588 -0.411866 -1.117518 -0.004857
1162 -0.519783 0.170550 0.149605 -0.369513 1.043235 0.172998 2.139458 1.503981 -0.285580 -0.905739 -0.888484 0.773632 1.563552 -0.985730 0.027639 -0.366434 1.172832 -0.584955 -0.509941 0.707045 -0.051501 0.314679 -0.039654 -0.394010 0.751386 -0.971261 1.790966 1.708739 0.791607 -0.386046 -0.806801 -0.931120
206 -1.296127 0.043557 0.409940 -0.743343 -1.138427 -0.310052 0.640089 0.484739 -0.417803 -0.173712 -0.478941 -0.851800 0.681371 -1.365750 -0.498341 0.677521 -0.501954 -0.757212 0.323442 0.151418 -0.605984 1.060739 -1.292590 0.969238 0.312232 -1.655102 0.166063 0.546423 0.006445 0.599014 -0.363211 0.528750
405 0.809259 0.410703 1.038197 -0.090154 -0.562002 0.982473 1.651967 1.428603 -0.375394 0.125821 -0.887946 0.127228 -0.406213 -0.059224 0.080830 0.621049 1.367786 -0.647612 -0.495232 0.169825 -0.531015 0.521976 -0.006943 0.216433 0.067500 -1.983969 0.293314 1.895874 1.106197 1.358402 -0.432587 -0.091813
565 -0.245621 -0.061416 0.619757 -0.193570 1.128614 0.320526 0.619569 0.752191 -0.416958 -0.803243 -1.280801 -0.342803 0.358662 -0.492022 -2.108671 1.318707 1.028853 0.504362 0.083714 0.772083 0.502088 -0.875237 -1.760862 0.851626 0.377161 -0.628515 -0.199502 -0.325205 -0.935152 1.008371 0.015724 0.794712
816 0.420413 0.742605 1.659790 -1.416899 0.243342 -0.529850 1.629267 1.096643 1.077663 -0.075980 -0.039042 0.040905 1.290904 -0.394570 -0.375221 -0.134601 0.642022 -0.179182 0.052153 0.700914 0.055817 0.003870 -1.372375 -0.038247 -0.918784 -1.217596 0.179720 0.514531 -0.030701 -0.337210 -0.424751 -0.244595
921 0.193258 0.113401 1.043323 -0.276001 -0.447640 0.494890 1.840696 0.568874 0.255113 0.158330 -0.071315 -0.819688 -0.969550 0.087740 -1.289092 1.089982 0.634010 0.240350 0.857049 0.792575 -0.193278 0.215226 -0.929729 0.321663 0.721130 -1.279132 -0.263852 -0.021916 0.366148 0.040135 -0.403683 0.066464
263 -0.356925 -1.123400 -0.311422 -0.954844 0.407844 0.698181 1.086080 0.742906 0.214938 -0.288779 0.552527 -0.023183 -0.204233 -1.039744 -0.513877 0.529016 0.873684 0.242887 -0.349054 0.423475 -0.472223 -0.205928 -1.255394 -0.231453 -0.679498 -2.169123 1.036841 0.069262 0.395847 -0.090702 -0.309195 -0.648387
164 -0.442017 -0.302067 1.439199 -0.675580 -0.308970 1.707513 0.807412 0.363553 -0.316579 -0.611846 -0.462058 0.290978 1.483179 0.223487 -1.005967 1.655775 0.511691 0.553441 0.210245 -0.454130 0.400660 -0.220157 -1.282850 -0.256627 -0.688618 -1.657324 0.949683 -0.021117 0.937880 0.552314 0.552496 0.644387
1109 0.151213 0.160885 1.084760 -0.283024 -0.432611 0.476256 1.789571 0.528243 0.344084 0.108657 -0.094408 -0.774684 -0.918692 0.072256 -1.197506 1.132450 0.595631 0.291435 0.863431 0.785302 -0.118224 0.239718 -1.009866 0.325272 0.739496 -1.360238 -0.306494 -0.017224 0.390367 0.088647 -0.453784 0.119920
0 -0.438162 -0.274370 1.401366 -0.688990 -0.312160 1.688818 0.795806 0.332711 -0.326219 -0.628764 -0.450114 0.295658 1.479090 0.233135 -0.978479 1.614739 0.523356 0.543075 0.216402 -0.430433 0.389584 -0.211619 -1.226645 -0.259414 -0.713520 -1.607935 0.929668 -0.036331 0.898764 0.545791 0.541850 0.672456
155 -1.307011 -0.044598 0.480257 -0.716167 -1.109680 -0.307571 0.638045 0.494861 -0.390288 -0.163028 -0.491244 -0.823317 0.661278 -1.481873 -0.442988 0.597863 -0.465248 -0.775562 0.310597 0.156697 -0.640559 1.092983 -1.364539 1.011148 0.358356 -1.543518 0.254931 0.636700 0.099774 0.658743 -0.369418 0.489869
288 -1.409026 -0.472103 1.189976 -0.145059 -0.162347 0.595958 2.365703 0.178914 0.093732 0.055610 -0.851323 0.265373 -0.297720 -0.131059 -0.304043 -0.197598 0.525470 0.606922 0.405647 -0.607428 0.939369 -0.254175 -0.203433 0.998505 0.682792 -0.734197 0.955929 -0.643906 -0.251770 1.171765 -0.355928 0.060927
11 -0.400113 -1.201985 -0.333934 -0.962386 0.452378 0.672588 1.065101 0.727365 0.220280 -0.330850 0.559699 -0.008732 -0.178304 -1.084325 -0.529109 0.481987 0.885227 0.209587 -0.339558 0.417414 -0.462648 -0.226164 -1.219107 -0.226678 -0.732174 -2.169154 1.025297 0.059707 0.397518 -0.100699 -0.301040 -0.614804
415 -1.431871 -0.549670 1.144769 -0.157616 -0.200663 0.594152 2.320592 0.177178 0.081051 0.093217 -0.856185 0.311016 -0.301654 -0.123323 -0.334111 -0.133829 0.480846 0.630418 0.373504 -0.562094 0.896055 -0.212007 -0.244071 0.984905 0.654270 -0.832978 1.011063 -0.654906 -0.218787 1.170220 -0.318982 0.044481
763 -0.368243 0.763872 0.365445 0.766224 -0.255188 0.791133 1.778540 0.817721 0.792123 -0.886163 -0.634068 -0.450273 1.277379 -1.572065 0.207158 0.052975 0.098254 1.076337 -0.294201 -0.436589 0.746589 0.114454 0.228584 0.266046 0.306888 -1.503360 0.173224 0.594879 -0.141115 0.508038 0.065006 -1.132612
765 -1.807314 0.747705 0.316961 -0.665922 -0.423659 -0.126075 1.153594 0.832204 -0.027280 -0.615876 -0.467655 0.807665 -0.443345 -0.674050 -0.417045 1.209570 0.610240 -0.795496 1.477543 0.672402 0.176677 0.113354 0.023754 -0.510199 0.388431 -1.219876 1.450369 0.418593 1.298991 1.721734 -1.055384 0.062061
741 -0.688468 0.110099 0.665777 -0.046066 0.059987 0.351554 1.606059 0.542483 0.281775 -0.413072 -0.345143 -0.132262 0.442197 -0.866118 -0.674655 0.464031 1.003406 -0.383701 0.062366 0.079033 0.425032 0.129804 -1.089252 0.459651 0.113368 -1.307248 0.439422 0.403523 0.344220 0.503743 -0.204624 0.031635
838 -1.697078 -0.515441 1.396918 0.855551 -0.666274 0.900436 2.016777 0.227488 0.935006 -0.223623 0.267692 -1.458693 0.207473 -0.296999 -0.026058 1.025749 0.357064 -0.273356 0.093981 0.246093 -0.031524 -1.033576 0.194753 1.380551 -0.565163 -1.477304 0.054957 1.017910 0.482693 0.740975 -0.796710 0.130138
1150 -1.795619 0.711039 0.252379 -0.701370 -0.316956 -0.021436 1.153096 0.872467 0.029034 -0.710773 -0.436612 0.798908 -0.446147 -0.668296 -0.480909 1.265074 0.619128 -0.816789 1.511652 0.783577 0.150941 0.220413 0.029873 -0.571529 0.348181 -1.195130 1.461934 0.507489 1.308635 1.662768 -1.079255 0.036802
1250 -1.742123 -0.478502 1.357060 0.866845 -0.662006 0.837931 2.002257 0.209178 0.912482 -0.189264 0.236289 -1.460757 0.244658 -0.272028 0.005322 1.057203 0.336711 -0.290028 0.105963 0.259194 -0.098449 -0.996213 0.157946 1.377925 -0.551580 -1.457499 0.039165 1.066733 0.517672 0.789696 -0.772196 0.181368
744 -0.010312 0.606371 0.460310 0.438315 -0.399787 0.544526 1.584159 0.679648 -0.390761 -0.156181 -0.954117 -0.117556 0.209088 -0.666576 0.015068 -0.762001 1.503291 -1.415718 1.373397 0.373614 0.756654 -0.186270 -1.078903 1.075798 -0.219678 -0.595884 1.101542 0.576855 0.355856 0.333661 1.239769 -0.090446
434 -0.701535 0.116790 0.652488 -0.016905 0.068737 0.345181 1.552323 0.540381 0.297744 -0.386322 -0.323377 -0.147257 0.463618 -0.861773 -0.668844 0.469510 0.969923 -0.369713 0.079181 0.083863 0.422667 0.133814 -1.069578 0.460309 0.124112 -1.293944 0.416636 0.371441 0.324120 0.524198 -0.198502 0.057558
759 -0.892635 0.378277 -0.145973 0.037253 0.790944 -0.880491 1.281570 1.036205 0.226561 -0.944615 0.026653 -0.120563 1.085909 -0.697123 -0.413381 1.212140 1.268506 -1.484790 0.408142 0.945758 0.498414 1.236182 -0.776882 -1.515032 -0.821681 -1.967702 -0.307240 0.601862 0.196345 0.169314 0.415444 -0.271396
1021 -0.964371 0.462386 -0.196597 0.067519 0.774933 -0.843744 1.314651 1.018540 0.259548 -0.839952 -0.033443 -0.188957 0.972039 -0.669557 -0.457627 1.290367 1.312286 -1.505163 0.427161 1.004488 0.526908 1.225588 -0.806134 -1.424514 -0.777507 -1.904051 -0.297121 0.541291 0.234493 0.128392 0.518175 -0.184504
909 -0.131272 -0.003048 1.087228 0.607750 -0.140242 -0.005300 0.861475 0.065658 -0.463306 -0.089834 0.168951 -0.737704 0.431034 -0.557231 -0.322734 0.354520 1.372354 -0.225917 -0.934956 -0.650540 0.569502 0.100566 -1.101304 0.723701 0.121899 -0.816065 0.315205 0.329775 -0.135295 -0.238572 -0.018466 0.193730
56 -0.669119 0.700247 0.582670 0.336094 -0.907793 0.405085 2.078018 0.587620 0.804225 -0.680359 -0.073864 -0.091823 0.678879 -1.501763 0.575054 0.324570 0.162396 0.706058 -0.391050 -0.517083 0.278655 0.291982 0.226305 -0.226871 0.327557 -1.442527 0.513017 0.500076 0.283811 0.566456 0.264571 -1.043963
223 0.179629 2.175715 1.196635 -0.123566 0.009293 0.314735 1.516705 -0.284940 0.493571 -1.060649 -1.165781 -0.567125 0.483347 -0.658905 -0.839173 -0.483995 0.513625 -0.976877 0.271425 -0.229611 0.646448 1.007261 -0.867749 0.635703 0.335728 -0.501147 0.542114 0.063910 0.152350 1.042071 -0.813115 -0.333121
85 -1.553975 -0.774212 0.371492 1.104580 -0.556921 -0.709175 1.102707 0.368801 0.081404 -0.185030 -0.842275 -0.238286 -0.078064 -0.793265 -0.771838 -0.300659 1.029783 0.039836 0.923455 0.288462 0.204180 -0.194650 -1.586679 -0.266549 -0.351937 -1.495572 -0.040160 -0.114450 -0.019448 0.436354 0.011460 -1.023562
1076 -0.737636 0.062534 0.100651 0.247749 0.615111 -0.181890 1.329618 0.074898 0.355493 -0.671722 0.044680 -0.489796 1.481888 -0.684945 -1.470195 0.113738 0.750058 -0.190440 0.322900 -0.093009 0.158604 -0.272241 0.156284 -0.186733 0.462780 -0.969394 0.438599 -0.234932 0.420786 0.791261 -0.744382 0.735640
531 -0.231044 -0.027030 0.984460 0.499960 -0.227169 -0.025456 0.909006 0.117104 -0.498629 -0.023706 0.176816 -0.688323 0.377587 -0.632722 -0.239956 0.379471 1.352544 -0.110165 -0.943864 -0.626236 0.548935 0.061970 -1.128157 0.688752 0.029706 -0.839755 0.284615 0.293392 -0.101846 -0.331040 -0.075167 0.186230
496 -0.125136 -0.035490 0.929996 0.515010 -0.164761 0.056282 0.945911 0.085849 -0.592149 -0.063208 0.147963 -0.751334 0.346102 -0.591702 -0.300940 0.455283 1.378127 -0.134176 -0.966813 -0.681445 0.527391 0.084481 -1.205520 0.581604 0.147569 -0.894598 0.238492 0.263067 -0.126505 -0.301199 -0.085863 0.297349
709 -1.400811 1.225711 0.409835 -0.655647 0.371304 0.480884 1.911881 0.538106 -0.130813 -0.094828 -0.673770 -0.537348 -0.102357 -1.054773 -0.253134 0.636858 1.173816 0.058297 0.477706 1.005401 0.991514 -0.273836 -1.516938 -0.382128 -1.082559 -0.924429 0.312543 -0.992908 -1.127878 -0.526238 -0.387880 0.308520
153 -1.571939 -0.661523 0.368558 1.141077 -0.550557 -0.882776 1.014942 0.343268 0.034095 -0.215704 -0.745862 -0.138154 -0.001394 -0.814772 -0.672009 -0.244745 1.138150 0.033501 0.999565 0.230798 0.046934 -0.331645 -1.396329 -0.219355 -0.293456 -1.647276 -0.079249 -0.047821 0.009149 0.467745 0.018770 -0.977372
403 -0.218087 0.301808 -0.701380 0.193160 0.328047 0.812327 0.885206 0.576058 1.154843 -1.023725 -0.372118 -0.457142 0.164538 -0.964892 -1.432472 1.146742 0.362855 -0.174128 -0.823481 1.023619 0.591154 1.328081 -0.909575 0.580595 -0.056136 -1.706660 -0.494139 0.813594 0.301634 0.068028 -0.677796 0.961152
417 -0.360468 0.026763 -0.802946 0.341151 0.401810 0.891802 0.974576 0.573424 1.148915 -0.942055 -0.330531 -0.433810 -0.003672 -0.979440 -1.478550 1.156697 0.311099 -0.158559 -0.674191 1.111790 0.507027 1.252080 -0.656617 0.739715 -0.200437 -1.779288 -0.214708 0.845765 0.430447 0.085038 -0.555205 0.939690
454 -0.329929 0.235092 -0.594688 0.251427 -0.657824 -0.494040 1.308979 0.519096 1.105216 0.208052 0.315309 1.054819 0.331166 -0.834249 -1.086539 0.539212 1.178320 0.277946 -0.808070 -0.324476 0.031753 0.180899 -1.629319 0.603419 0.921636 -1.312424 0.072871 -0.658540 0.328892 1.444514 -0.117991 -0.213146
442 -1.261408 -0.640260 0.782334 -0.126986 0.434934 0.491697 0.998080 0.117921 0.581880 -0.258207 0.313647 0.159237 -0.440617 -0.846667 -0.899455 -0.009822 1.045519 -0.563601 0.011050 0.914809 0.377616 0.011497 -1.832837 0.573140 -0.214750 0.274971 0.272809 -0.196342 0.908884 0.895488 -0.739250 0.564664
792 -1.003599 -0.770854 -0.542526 -0.230144 0.229666 0.835192 1.588272 1.010453 -1.221579 0.150707 -1.610831 0.276591 0.411509 -1.297128 -0.760667 1.050635 0.023633 -0.534766 1.143140 0.538383 -0.203021 -0.144682 -0.555462 -0.208470 0.389970 -1.455403 0.380369 1.393317 0.728021 1.006263 0.658614 -1.085885
428 -0.342537 0.222960 -0.655512 0.269224 -0.660822 -0.465402 1.287223 0.486747 1.114557 0.215566 0.308102 1.026157 0.261803 -0.838521 -1.100927 0.521966 1.152437 0.308839 -0.823172 -0.313585 0.026788 0.206571 -1.585479 0.666803 0.923834 -1.357018 0.069285 -0.586740 0.315730 1.462389 -0.134879 -0.188233
450 -0.717410 0.725720 0.640204 0.215970 -1.025982 0.326245 2.098834 0.599964 0.778080 -0.649761 -0.047114 -0.059730 0.531926 -1.448739 0.657281 0.348453 0.283258 0.615475 -0.333780 -0.497554 0.261405 0.352298 0.235286 -0.281356 0.333548 -1.422930 0.543112 0.540568 0.345409 0.582565 0.316624 -1.096205
1261 0.362675 -0.003091 0.567080 -0.901576 -0.637177 0.174819 1.840155 -0.063037 -0.051616 -0.818730 -0.960532 0.972318 -0.263606 -1.937752 -1.138585 0.302267 0.480378 -0.532206 0.093768 0.435979 0.768312 -1.118204 -0.527362 0.104524 -0.027954 -0.714067 0.174910 0.532269 -0.182613 0.040673 -0.208102 0.953334
249 -1.030976 -0.762973 -0.513290 -0.231724 0.247840 0.812913 1.546181 0.997294 -1.166458 0.184751 -1.585805 0.255577 0.365665 -1.231954 -0.803429 1.036141 0.017477 -0.566151 1.150059 0.535600 -0.178021 -0.116623 -0.559218 -0.175851 0.378191 -1.439580 0.378247 1.342944 0.707298 0.964172 0.693721 -1.040054
300 -0.261458 0.116424 -0.782657 0.288709 0.413398 0.797124 0.971996 0.581757 1.193517 -0.976400 -0.311211 -0.397941 -0.007393 -1.008108 -1.487028 1.048589 0.300891 -0.162054 -0.704641 1.120536 0.569117 1.294461 -0.648687 0.731799 -0.138852 -1.707353 -0.287597 0.806272 0.373177 0.140476 -0.609964 0.930547
825 -0.051437 0.412779 0.243981 -0.211558 -0.156608 0.982055 1.046727 0.661173 1.624631 0.671608 -0.963184 -0.328530 0.686317 -1.615491 0.186013 0.362367 0.658085 -0.253072 -0.038172 -0.076820 0.234253 -0.313231 -0.693681 1.058130 -0.145795 -0.904640 0.449241 -0.173420 0.886627 0.325725 0.060658 1.304178
394 -0.413710 0.292853 0.472690 0.168874 -0.067634 1.008368 0.951260 -0.858746 0.796811 -0.564437 -0.622298 -0.042315 0.194250 -0.312933 0.177491 0.019369 0.055293 -0.274744 0.010424 0.311350 -0.236960 -0.038070 -1.695344 -0.540926 0.346332 -1.792187 0.259266 0.702207 0.084825 1.699515 -0.055766 0.367875
1039 0.161696 0.184272 1.242423 -0.285473 -0.439473 0.516277 1.665866 0.416065 0.402627 0.129831 -0.131798 -0.866398 -0.761773 0.059568 -1.075758 1.191953 0.459429 0.395544 1.008543 0.616317 -0.060262 0.278684 -1.118512 0.310072 0.910110 -1.338150 -0.342955 -0.075536 0.446610 0.096699 -0.597178 0.185391
308 -1.225319 -0.698417 0.798643 -0.102657 0.422976 0.527062 1.029383 0.123173 0.586627 -0.269677 0.330741 0.153390 -0.427897 -0.745719 -0.929983 -0.016853 1.017096 -0.554582 0.010635 0.894191 0.412121 0.025172 -1.836057 0.575599 -0.233423 0.300345 0.280359 -0.161498 0.950233 0.881403 -0.698758 0.537670
315 -0.143576 0.016075 0.862588 0.534109 -0.180944 -0.083363 0.961334 0.073191 -0.473970 -0.089172 0.182811 -0.674254 0.397261 -0.592828 -0.260294 0.373262 1.327934 -0.146989 -1.076845 -0.638330 0.589922 0.151847 -1.024187 0.770742 0.088879 -0.860342 0.318831 0.291954 -0.088423 -0.242492 -0.082461 0.273929
775 -0.329714 0.267670 0.421758 0.200394 -0.018575 1.084333 0.925913 -0.905565 0.792637 -0.584144 -0.597799 -0.080790 0.181433 -0.289774 0.068510 0.125105 0.057879 -0.262764 0.052753 0.283160 -0.301905 0.006161 -1.682024 -0.615219 0.275324 -1.800764 0.289642 0.630243 0.109973 1.609367 -0.093244 0.379894
34 -1.434183 -0.494435 1.152221 -0.195434 -0.177045 0.603160 2.301668 0.142920 0.023758 0.085750 -0.869492 0.337124 -0.319360 -0.078153 -0.284766 -0.130145 0.546762 0.631325 0.402808 -0.530406 0.920494 -0.177392 -0.133303 0.975143 0.562391 -0.842502 0.997318 -0.647123 -0.224322 1.131496 -0.273504 -0.009622
676 -0.357957 -1.175311 -0.320795 -0.978008 0.426098 0.687777 1.076612 0.688810 0.204263 -0.323609 0.585325 0.015590 -0.217114 -1.042846 -0.547685 0.545050 0.887334 0.166387 -0.328001 0.453295 -0.443818 -0.196337 -1.237621 -0.228903 -0.710487 -2.150342 1.013292 0.045251 0.364393 -0.099225 -0.299563 -0.593034
851 -0.803314 0.036111 0.107509 0.265393 0.667222 -0.187396 1.321657 0.060951 0.368148 -0.633567 0.046292 -0.556538 1.503162 -0.648768 -1.458929 0.102111 0.751615 -0.122400 0.339375 -0.092200 0.183791 -0.343728 0.145247 -0.165781 0.436319 -0.930672 0.402674 -0.284255 0.446132 0.835984 -0.793255 0.722021
905 -0.246676 -0.010091 0.868792 0.534022 -0.176616 0.012148 0.935468 0.106174 -0.469766 -0.055740 0.190501 -0.663340 0.310951 -0.556637 -0.292677 0.463527 1.303728 -0.093982 -1.051547 -0.608988 0.578618 0.119303 -1.077191 0.705367 0.066920 -0.858571 0.245420 0.293994 -0.101906 -0.286136 -0.094241 0.291483
1268 -0.384912 0.306654 0.417681 0.134805 -0.069370 1.083554 0.895155 -0.911489 0.820592 -0.603397 -0.583187 -0.073173 0.134868 -0.297530 0.029792 0.073311 0.062604 -0.256869 0.010590 0.307680 -0.298484 -0.051774 -1.771553 -0.575242 0.304598 -1.811496 0.264871 0.671768 0.106902 1.655554 -0.037983 0.380129
844 -1.139893 0.651792 1.332567 -1.035782 -0.951537 1.461164 1.351849 0.701032 -0.612489 -0.265273 -0.074988 -0.483126 0.279505 -1.077605 0.224305 0.118606 1.178275 -0.375181 0.494967 -0.608505 -0.048977 -0.705241 -1.016580 -0.333692 0.088912 -0.130824 1.215910 1.402912 0.541395 0.718318 -0.737065 -0.168719
662 -1.286687 -0.645279 0.819487 -0.142372 0.502388 0.516981 1.016328 0.114424 0.518257 -0.223855 0.366287 0.156064 -0.364315 -0.871014 -0.904069 0.055823 1.007346 -0.617528 0.007657 0.875469 0.333631 -0.001703 -1.835003 0.624280 -0.198196 0.319182 0.211465 -0.189732 0.983568 0.957067 -0.827465 0.529811
973 -0.139016 -0.051118 1.032366 0.592454 -0.128270 -0.027858 0.891312 0.065356 -0.507696 -0.097807 0.181703 -0.743708 0.406068 -0.566036 -0.274361 0.427340 1.400063 -0.150005 -1.011495 -0.633104 0.569385 0.095255 -1.036787 0.738291 0.075828 -0.897740 0.266908 0.336478 -0.111018 -0.217194 -0.025727 0.185309
633 -0.402319 0.708020 -1.386680 0.757268 1.112310 -0.320544 1.384587 0.820659 0.165275 -1.237228 -1.254943 0.454612 -0.179304 -0.732754 -0.678708 0.763951 1.002908 -1.240913 0.005115 -0.108572 -0.097620 0.277490 -1.576558 0.228772 0.457306 -0.574707 0.226182 1.015540 -0.095312 1.234004 0.104199 0.151997
483 -0.194293 -0.029567 1.028426 0.610437 -0.122028 0.000322 0.899594 0.040753 -0.506038 -0.099274 0.166463 -0.777051 0.394682 -0.583019 -0.290111 0.405654 1.396047 -0.161060 -0.967268 -0.683715 0.564110 0.099667 -1.065612 0.761736 0.087607 -0.883233 0.325761 0.265474 -0.144300 -0.249656 -0.030002 0.198202
1041 0.264380 0.142928 1.044814 -0.340208 -0.405699 0.425593 1.835902 0.635583 0.260616 0.166769 -0.083225 -0.731254 -1.017431 0.128753 -1.280337 1.108587 0.647419 0.268069 0.858776 0.782397 -0.135931 0.290333 -0.985812 0.336753 0.723107 -1.323931 -0.258710 0.031253 0.395348 0.029164 -0.331576 0.037604
365 -1.026045 0.496003 1.065813 -0.175881 -0.278579 0.930803 -0.030455 0.765068 1.166055 -0.348170 0.285831 0.317965 0.678959 -0.368113 -0.908149 0.129153 0.650972 -0.617209 0.582432 0.160924 0.400491 -0.004625 -0.583327 0.997448 0.514144 -1.526191 0.003867 0.403652 0.959717 0.217477 -0.217175 -1.008146
568 -1.243695 0.003720 0.422203 -0.738466 -1.040086 -0.301013 0.614257 0.467354 -0.402641 -0.197936 -0.488454 -0.810253 0.649936 -1.414896 -0.493127 0.620366 -0.454999 -0.741854 0.353142 0.176953 -0.615333 1.025811 -1.366041 0.923367 0.286893 -1.561090 0.208872 0.548201 0.038028 0.572447 -0.396248 0.504802
785 -1.292222 0.004099 0.431082 -0.756048 -1.134020 -0.308885 0.557677 0.527339 -0.417982 -0.154636 -0.459483 -0.844179 0.601475 -1.433070 -0.491359 0.629816 -0.470089 -0.773031 0.338945 0.177588 -0.620005 1.087645 -1.379805 0.958497 0.326632 -1.547061 0.230566 0.576954 0.051930 0.550815 -0.391060 0.482419
818 0.543701 0.690091 1.620813 -1.411633 0.316416 -0.501452 1.617155 1.109245 1.043580 -0.029471 -0.033519 0.064118 1.293445 -0.458394 -0.357870 -0.168466 0.660586 -0.280191 0.139275 0.713084 0.111365 -0.000760 -1.304719 -0.041081 -0.942071 -1.187359 0.186389 0.490053 0.025880 -0.331327 -0.353010 -0.262016
413 -1.221592 -0.643043 0.800105 -0.111104 0.493454 0.547865 1.011247 0.075801 0.578932 -0.274518 0.349921 0.211908 -0.371705 -0.802088 -0.956025 0.021469 0.999250 -0.582896 0.020359 0.869386 0.374306 0.023401 -1.857326 0.599251 -0.208016 0.291335 0.240319 -0.190637 0.924495 0.944265 -0.817880 0.582300
887 -0.529262 0.681071 -1.433559 0.738988 1.033693 -0.265001 1.378886 0.745084 0.146051 -1.262828 -1.288423 0.311066 -0.081461 -0.728396 -0.746800 0.847582 0.979781 -1.155129 0.005725 -0.180295 -0.206791 0.169761 -1.557019 0.212860 0.480195 -0.563502 0.138709 1.077453 -0.071032 1.175573 0.175641 0.159228
889 0.206280 0.127836 1.116728 -0.267401 -0.443973 0.518146 1.755334 0.538950 0.256009 0.149081 -0.066434 -0.845204 -0.829640 0.109836 -1.248430 1.084287 0.571816 0.330721 0.892123 0.698901 -0.158360 0.321726 -1.007756 0.365975 0.782871 -1.396014 -0.308444 -0.036509 0.440639 0.051302 -0.432390 0.094345
190 -0.796263 0.095935 0.062453 0.240516 0.698013 -0.196583 1.356673 0.101568 0.312996 -0.681418 0.039918 -0.535049 1.504303 -0.633320 -1.517236 0.099142 0.786397 -0.151255 0.305114 -0.117756 0.178497 -0.338777 0.165146 -0.180391 0.500479 -0.913669 0.390545 -0.231289 0.438806 0.814289 -0.769111 0.736590
205 -1.005938 0.480414 1.065736 -0.137650 -0.304527 0.925213 -0.094687 0.748772 1.177183 -0.344032 0.368937 0.307070 0.681155 -0.394315 -0.923873 0.044114 0.681865 -0.647250 0.527177 0.096698 0.376956 -0.041735 -0.549280 1.009322 0.516768 -1.524803 0.012235 0.464947 1.015722 0.230534 -0.237517 -1.030039
349 -0.176784 -0.541263 1.097833 -0.303233 0.310706 0.828091 1.215873 0.545711 -0.258481 -0.935983 -0.270434 1.634485 0.517889 -1.429919 -0.278433 0.230771 0.174917 0.665424 -0.113408 0.157811 0.231463 1.115140 -1.061123 1.178049 0.401807 -1.027790 -0.316750 0.314717 -0.209259 0.308706 -0.815137 -0.127948
835 -1.234924 0.007096 0.399050 -0.758785 -1.059198 -0.363381 0.580322 0.476282 -0.414783 -0.222533 -0.504687 -0.845422 0.672054 -1.445164 -0.487049 0.576775 -0.500783 -0.775261 0.327216 0.153529 -0.622978 1.063332 -1.325457 0.930019 0.338602 -1.497824 0.267645 0.594919 0.071708 0.608281 -0.410041 0.533454
637 -0.558121 0.691071 -1.505252 0.688137 1.066773 -0.286158 1.399355 0.776363 0.084096 -1.206393 -1.281116 0.325605 -0.157931 -0.753150 -0.693172 0.900727 0.944800 -1.262720 0.025045 -0.113956 -0.151702 0.176324 -1.530801 0.194865 0.429553 -0.511787 0.214676 1.046670 -0.057972 1.178698 0.073034 0.254459
781 -0.466640 0.354851 1.373393 -0.094547 -0.586917 0.639199 1.503372 0.231553 1.100633 -0.783231 -0.208594 0.064330 -0.393841 -1.280019 -1.056145 0.937737 0.654733 -0.719198 -0.033512 -0.560418 -0.863797 0.965945 -1.459392 -0.083714 -0.123136 -0.009663 0.053655 1.344187 -0.871065 0.511064 -0.234688 -1.155716
106 -1.228206 -0.650709 0.786018 -0.122427 0.411394 0.523487 1.006219 0.092514 0.601791 -0.302876 0.349637 0.153297 -0.437612 -0.833207 -0.984936 0.004798 1.058167 -0.544719 -0.007600 0.916844 0.360904 0.010642 -1.834501 0.530340 -0.222410 0.254044 0.273519 -0.200421 0.916071 0.915270 -0.770732 0.603763
412 -0.165879 -0.529371 1.156902 -0.377235 0.263221 0.822008 1.224989 0.606237 -0.250004 -0.895336 -0.225129 1.644148 0.562338 -1.425566 -0.282519 0.253835 0.194789 0.722139 -0.168449 0.113079 0.241070 1.112275 -1.080456 1.223284 0.414204 -1.026728 -0.291888 0.264262 -0.213671 0.311386 -0.849230 -0.083414
188 0.453052 0.701453 1.660770 -1.414665 0.301518 -0.448897 1.631200 1.089314 1.069026 -0.051795 -0.041321 0.000754 1.308624 -0.441123 -0.326758 -0.120061 0.629342 -0.193714 0.114620 0.666474 0.055041 -0.023922 -1.253653 -0.062590 -0.923257 -1.175072 0.170957 0.475855 -0.041866 -0.355435 -0.371884 -0.305290
1100 -0.444325 0.346348 1.316799 -0.103896 -0.545263 0.617293 1.457739 0.242098 1.024448 -0.728810 -0.242422 0.090278 -0.316008 -1.232623 -1.030357 0.914027 0.647962 -0.693149 -0.042747 -0.576325 -0.856517 0.973897 -1.440582 -0.104971 -0.095632 -0.063784 0.083605 1.301352 -0.900290 0.483066 -0.217039 -1.122488
212 -1.287893 -0.689001 0.790161 -0.105153 0.366049 0.544349 1.036339 0.081554 0.643210 -0.271810 0.385118 0.076249 -0.457017 -0.756350 -0.981815 -0.009154 1.026988 -0.509299 0.042929 0.894266 0.392010 0.039760 -1.850474 0.559799 -0.217305 0.267735 0.293758 -0.176789 0.890539 0.893068 -0.737768 0.612188
270 -1.260381 -0.657907 0.779731 -0.107562 0.501757 0.504191 1.025636 0.083652 0.567648 -0.307623 0.325736 0.198851 -0.346987 -0.884642 -0.952429 0.080045 1.041269 -0.608635 -0.026103 0.865371 0.411446 0.043016 -1.886034 0.580530 -0.183422 0.274221 0.253932 -0.212127 0.933145 0.953547 -0.813991 0.584684
529 -0.131859 -0.025719 1.113421 0.630291 -0.136750 0.021638 0.869324 0.032694 -0.511416 -0.105146 0.173484 -0.794853 0.423079 -0.544362 -0.324488 0.443943 1.420428 -0.228461 -0.920463 -0.725965 0.560116 0.104769 -1.134462 0.677793 0.119754 -0.931621 0.303243 0.347134 -0.145595 -0.219204 -0.006586 0.170252
1270 -0.825037 -0.294574 0.482015 0.080019 1.577236 0.275219 0.778279 0.423428 0.198674 -0.052419 -0.971593 0.532795 1.172719 -0.619538 -0.260460 1.340672 -0.104649 -1.073755 -0.183103 -0.095831 0.623142 0.609573 -1.799879 0.750359 0.204164 -1.368492 0.390765 -0.004739 -0.128060 0.017830 0.960970 0.564667
508 -1.695127 1.120955 -0.353306 -0.922213 0.102038 -0.340798 1.078647 0.395537 -0.088917 -0.268212 -0.893444 0.001562 0.434779 0.235300 -0.952437 0.322056 0.925701 0.589579 0.263156 0.391544 1.217100 -0.298963 -1.130382 0.576134 0.333070 -1.537825 -0.073236 0.334368 1.021130 0.118844 0.669133 0.557332
841 -0.424607 0.393738 1.382244 -0.113678 -0.557298 0.631272 1.511750 0.264046 1.067972 -0.736973 -0.292088 0.087225 -0.375783 -1.266174 -1.015211 0.951240 0.660448 -0.734138 -0.062167 -0.582545 -0.850441 0.964808 -1.475630 -0.109978 -0.058482 -0.068796 0.065333 1.316157 -0.851208 0.545345 -0.190559 -1.151233
552 -1.653601 1.157528 -0.334247 -1.011185 0.195655 -0.421723 1.094806 0.393570 -0.059518 -0.275936 -0.930290 0.123986 0.509808 0.195800 -0.955802 0.302429 0.962911 0.530094 0.262915 0.385640 1.267992 -0.283803 -1.155112 0.559672 0.394611 -1.465688 -0.068267 0.365040 1.078508 0.114125 0.722030 0.608444
1143 -0.573997 0.679438 -1.456688 0.794275 1.045236 -0.310477 1.348945 0.743029 0.140977 -1.309360 -1.279928 0.361340 -0.032929 -0.736206 -0.747594 0.825909 0.992232 -1.147907 0.051026 -0.157517 -0.175726 0.240318 -1.552722 0.254448 0.454600 -0.526059 0.235222 1.078053 -0.061613 1.164015 0.171166 0.141404
63 -0.113711 0.671203 -0.345891 -1.416950 -0.197491 -0.226254 1.445754 1.320653 0.264221 -0.367729 -1.055032 0.724542 -0.119360 -1.234518 0.134692 -0.576012 1.326741 -0.103709 -0.193422 -0.459663 -0.063706 1.010167 -0.774912 1.037029 1.295851 -1.673269 0.025317 1.319378 0.258849 0.836877 0.532575 -0.432688
1029 -0.179276 -0.485825 1.135687 -0.338035 0.276007 0.793924 1.245130 0.590052 -0.265919 -0.897603 -0.204433 1.609552 0.566803 -1.447513 -0.282698 0.268626 0.223660 0.700967 -0.127567 0.171249 0.231538 1.141980 -1.147865 1.176586 0.366757 -1.065713 -0.294608 0.241753 -0.205709 0.295568 -0.876447 -0.126192
767 -0.409507 0.329253 1.369253 -0.069466 -0.519210 0.674745 1.510128 0.209594 1.140620 -0.724669 -0.230294 0.017405 -0.362995 -1.277684 -1.012215 0.911089 0.665186 -0.839305 -0.045693 -0.539365 -0.918545 0.967778 -1.422915 -0.106365 -0.059010 -0.067013 0.068970 1.340960 -0.806455 0.558377 -0.258628 -1.139082
36 -0.751336 -0.329069 0.472103 0.116762 1.563384 0.262653 0.714245 0.396878 0.198914 -0.038956 -0.946303 0.480161 1.145197 -0.615120 -0.216826 1.394266 -0.182174 -1.135235 -0.194460 -0.151009 0.528778 0.595418 -1.794261 0.747382 0.210945 -1.375582 0.357788 -0.018908 -0.144237 -0.014520 0.988908 0.529403
147 0.461242 0.694906 1.587493 -1.356341 0.296358 -0.503324 1.623258 1.089565 1.038774 -0.045681 -0.038684 0.028239 1.266492 -0.446008 -0.381341 -0.125336 0.663829 -0.248785 0.085601 0.667644 0.065909 -0.008537 -1.314560 -0.039486 -0.883445 -1.178087 0.170572 0.452436 -0.022491 -0.319047 -0.394104 -0.243931
361 -1.269836 -0.666417 0.736324 -0.140376 0.464359 0.473437 0.998709 0.151231 0.521147 -0.226241 0.337648 0.171373 -0.412204 -0.887026 -0.902923 0.022179 1.053186 -0.622011 -0.010971 0.885608 0.292726 0.026101 -1.798875 0.605710 -0.194686 0.355265 0.312343 -0.133279 0.985244 0.992579 -0.737959 0.529840
186 -0.063209 0.389514 0.286361 -0.215762 -0.192577 0.995191 0.973995 0.613058 1.590812 0.602388 -0.935337 -0.336978 0.659681 -1.633716 0.126553 0.372554 0.598325 -0.239763 -0.014852 -0.124269 0.285884 -0.295774 -0.761830 1.123260 -0.135976 -0.897236 0.422014 -0.170665 0.790074 0.358043 0.070276 1.343076
1123 -1.617023 -0.573489 0.309000 1.107354 -0.529993 -0.853342 1.024720 0.452570 0.031468 -0.186334 -0.670846 -0.138581 -0.046456 -0.763926 -0.632402 -0.223579 1.197688 0.037691 0.969736 0.168769 -0.003044 -0.306778 -1.360733 -0.181886 -0.312945 -1.673389 -0.018656 0.047525 0.009974 0.507596 0.024307 -1.006903
119 -0.823578 0.088660 0.039020 0.263988 0.668759 -0.175817 1.348541 0.054974 0.355423 -0.688444 0.028507 -0.554874 1.475808 -0.675841 -1.491939 0.049168 0.763721 -0.155560 0.306530 -0.076824 0.205755 -0.291056 0.129163 -0.151807 0.434451 -0.990513 0.393932 -0.248152 0.458196 0.804202 -0.761572 0.701653
208 -1.542490 -0.556589 0.348982 1.113229 -0.625758 -0.846897 1.018925 0.440261 0.061744 -0.156079 -0.716604 -0.182593 -0.095453 -0.824617 -0.640692 -0.217508 1.154380 0.086060 0.984906 0.222797 0.026474 -0.308026 -1.358269 -0.181610 -0.317465 -1.703066 -0.018930 -0.002211 -0.007176 0.494606 0.047285 -1.051255
340 -0.204350 0.020206 0.985111 0.509521 -0.246588 -0.030413 0.966625 0.103594 -0.523943 -0.045855 0.148431 -0.670688 0.315274 -0.608949 -0.250092 0.374979 1.353283 -0.080306 -1.013725 -0.657181 0.571591 0.051626 -1.133836 0.666237 0.088643 -0.836703 0.245818 0.267440 -0.120553 -0.312141 -0.118443 0.280074
279 -0.317087 0.371177 0.430360 0.154322 -0.077914 1.008432 0.934098 -0.814557 0.755974 -0.555299 -0.616869 -0.062892 0.175244 -0.242691 0.114146 0.026414 0.122989 -0.231513 -0.076079 0.353810 -0.165879 -0.076717 -1.700877 -0.540422 0.318546 -1.800570 0.249773 0.622579 0.112585 1.689277 -0.033664 0.417842
381 -0.789335 0.080645 0.104279 0.271712 0.651032 -0.179034 1.329869 0.043982 0.419229 -0.662021 0.032545 -0.512597 1.540437 -0.637373 -1.472354 0.060862 0.732122 -0.137746 0.367461 -0.116889 0.194432 -0.292487 0.178095 -0.145273 0.404542 -0.934103 0.390590 -0.259713 0.414935 0.805631 -0.763632 0.686968
1090 0.668767 0.482641 0.988299 -0.140847 -0.585361 0.954893 1.549942 1.406830 -0.368453 0.063317 -0.921167 0.124229 -0.429163 -0.051891 0.082779 0.681371 1.309491 -0.666703 -0.332142 0.140397 -0.521218 0.567765 0.008108 0.142613 0.045902 -1.881626 0.316297 1.891401 1.122962 1.340715 -0.445047 -0.130886
1273 -0.026775 0.116696 0.818469 0.287848 1.131324 0.583188 0.949045 0.182221 0.136023 -1.124638 -0.563698 -1.173392 -0.437568 -1.501449 0.352970 1.343028 1.009389 -0.876223 0.589116 1.040455 0.497755 -0.330409 -0.109848 0.762685 0.540234 -1.641965 -0.139789 1.370614 -0.587999 0.079765 0.861812 -0.234001
43 -0.719461 -0.037247 0.773666 -1.779926 0.971973 0.771515 1.990259 0.826593 0.791569 -0.443107 -0.874511 -0.049139 1.366340 -0.895877 -0.054996 1.090955 -0.190178 -0.779589 0.619460 0.048576 0.023139 -0.738542 0.449676 -0.128478 -0.241546 -0.994332 0.762045 0.629916 -0.240533 1.113534 0.367974 -0.110027
882 -0.087828 0.653876 -0.361462 -1.308684 -0.222966 -0.202634 1.433065 1.272500 0.263920 -0.406335 -1.027223 0.659498 -0.252081 -1.272174 0.224136 -0.601956 1.357632 -0.100743 -0.216947 -0.421761 -0.021401 1.065596 -0.795883 1.042167 1.318825 -1.682027 -0.033482 1.294579 0.276296 0.809271 0.474408 -0.364303
507 -0.246254 0.230854 0.605838 -0.118729 0.590832 0.774980 0.404973 1.561903 -0.329167 -0.983082 -1.234554 -0.222737 0.471906 -0.234483 -1.376940 1.077125 0.785954 0.395107 0.289812 0.610866 0.207500 -0.953939 -1.471823 0.728451 0.156812 -0.314767 -0.005720 0.328543 -0.938876 1.289050 -0.244852 -0.077268
3 -0.054214 0.641980 -0.393799 -1.403735 -0.215621 -0.263564 1.395618 1.334348 0.242904 -0.397698 -1.027786 0.695055 -0.173860 -1.291445 0.263064 -0.626682 1.364050 -0.122676 -0.233556 -0.428225 -0.083100 1.038578 -0.797758 1.050169 1.262735 -1.608669 0.023641 1.332603 0.207974 0.785229 0.538471 -0.448953
446 -0.692147 -0.092900 0.764884 -1.714566 0.953807 0.825539 1.969540 0.795132 0.801273 -0.469880 -0.864208 -0.087006 1.327761 -0.920884 -0.017313 1.066157 -0.145782 -0.750206 0.577988 0.081758 0.057292 -0.759021 0.471031 -0.105612 -0.217966 -1.011599 0.857454 0.693279 -0.247799 1.124761 0.335614 -0.120356
1171 -0.289002 0.030730 0.975435 0.556134 -0.220407 0.020655 0.859589 0.111534 -0.497751 -0.005186 0.210560 -0.766995 0.358606 -0.534650 -0.227554 0.458224 1.311448 -0.117699 -1.037231 -0.677967 0.566202 0.002676 -1.072014 0.703974 0.077699 -0.815551 0.241914 0.301168 -0.160775 -0.302624 -0.055365 0.194202
342 -0.415992 0.862987 0.103717 -0.530671 0.815831 -0.173606 2.526949 0.837821 0.484445 -0.106162 -1.013453 0.515308 0.481620 -1.083285 -0.024095 0.201547 1.139831 -0.962010 -0.617924 0.001039 1.341747 0.434129 -0.077636 1.071681 1.000664 0.284041 0.089119 0.658523 -0.317372 1.796112 -0.593615 1.528573
716 -0.421024 -0.429489 0.785933 -0.381699 0.892912 -0.751555 0.751826 2.253966 0.089491 0.229442 -0.607547 -0.661318 1.014475 -0.745393 0.078369 0.628400 1.090844 -2.110770 -0.181709 -1.107465 0.197035 -0.617209 -0.722258 -0.047558 -0.308989 -1.234688 0.200519 0.422368 1.041608 0.946386 -0.716920 0.156285
713 -0.972337 0.819359 0.097024 -0.049160 0.738742 0.063159 1.580798 0.378361 0.495924 -1.775375 -0.750777 0.151487 -0.892724 -1.791974 -0.180941 -0.163623 1.135440 -0.566189 1.265141 1.266909 -0.626869 0.895984 -1.078856 0.150916 0.262995 -1.297325 -0.869904 -0.599635 0.117360 0.627056 -1.119863 -0.384642
1060 -0.534725 0.426047 0.409723 0.066578 -0.293821 0.533432 1.360128 0.787125 0.257365 -0.181952 -0.474441 -0.035877 0.159707 -0.737498 -0.125922 0.856280 1.012062 -0.266185 0.059061 -0.114029 0.382254 0.270054 -0.913914 0.277248 0.240222 -1.297695 0.636145 0.852235 0.150295 0.459341 -0.006067 -0.470638
1062 -0.566008 0.080824 0.643257 -0.074644 0.092328 0.274894 1.581469 0.480978 0.218259 -0.456993 -0.394916 -0.080398 0.542174 -0.788683 -0.734547 0.515928 0.932380 -0.441189 -0.004899 0.073780 0.236060 0.063688 -1.017408 0.312032 0.068675 -1.361823 0.403410 0.463651 0.307101 0.637560 -0.205259 0.004885
296 -0.352753 0.566344 0.549765 0.554715 0.670322 0.576416 0.994666 1.359067 1.014989 0.102867 -0.670474 0.706224 0.676660 -0.362632 0.232982 1.895588 1.711427 -1.048535 -0.760910 -0.161761 0.243534 0.828453 -0.702032 0.410788 -0.358198 -1.614752 0.259459 0.443630 -0.057597 -0.160907 0.561555 -2.096991
295 0.340271 0.303671 0.592281 -0.335992 0.836950 0.192186 1.834927 -0.520355 -0.889096 0.270508 -0.232534 1.374365 -0.491482 -0.197879 -1.598033 0.526115 1.295994 -0.804386 0.087556 0.028401 0.890089 -0.374817 -1.419994 -0.446471 0.932522 -0.963599 0.442206 0.531746 0.082150 1.354039 -0.668477 -0.878838
1129 -0.255280 -0.359527 1.632934 -0.545050 0.241927 -0.110111 1.431465 0.116345 0.400931 -0.876140 -0.248983 0.959162 0.986539 -1.451727 0.975050 0.610781 1.557575 -1.167171 0.127843 -0.791152 1.384016 -0.328615 -0.783929 -0.000027 -0.705578 -0.085145 0.336336 0.031243 0.897417 1.555131 0.271699 -0.101786
1080 -0.651160 0.188891 0.530692 -0.056963 0.456921 -0.790222 1.927335 0.518743 -0.217767 0.099844 -1.739749 0.618618 0.158703 -2.215364 -0.356366 -0.104347 0.693351 -0.094761 0.430921 -0.628939 0.983671 1.305822 -0.725350 -0.700319 0.147036 -1.122703 0.823178 0.023606 -1.277723 0.584824 0.823502 0.115118
1127 -0.899882 0.130825 0.801975 -0.050499 0.139989 0.399639 1.942359 0.679218 0.404813 -0.524402 -0.452658 -0.173366 0.557272 -1.059296 -0.850453 0.689331 1.174500 -0.433430 0.098348 0.131195 0.441071 0.136766 -1.328954 0.501996 0.216278 -1.624755 0.480221 0.500797 0.364583 0.637972 -0.257958 0.080386
274 -0.916856 0.148750 0.822512 -0.053310 0.170602 0.424713 1.945754 0.687610 0.363403 -0.507586 -0.500621 -0.149528 0.567490 -1.090002 -0.926732 0.681658 1.267026 -0.402267 0.033030 0.142316 0.505788 0.113659 -1.417371 0.580146 0.162174 -1.646003 0.501655 0.426110 0.386449 0.662308 -0.266320 0.127276
18 -0.741718 0.094295 0.562388 -0.039132 0.092571 0.400562 1.579298 0.594816 0.356731 -0.343735 -0.352349 -0.045217 0.449368 -0.893097 -0.755001 0.461792 0.968825 -0.296745 -0.038386 0.162462 0.488254 0.107929 -1.112249 0.445586 0.200711 -1.267594 0.392904 0.353850 0.332233 0.562063 -0.214457 0.138767
1236 -1.778042 -0.209826 0.370889 -0.364047 0.778308 0.573562 2.038138 0.294542 0.363642 -0.298914 -0.869334 -0.163851 -0.728725 -0.613892 1.201383 1.703261 1.049723 0.267857 -0.473547 0.099335 -0.050220 0.100262 -1.043899 -0.770744 -0.396971 -0.593274 0.114406 1.877750 -0.260265 0.600892 -0.870837 0.065143
444 -0.728421 0.069583 0.546494 -0.045147 0.091715 0.391084 1.570427 0.621841 0.340374 -0.340032 -0.342680 -0.045377 0.435669 -0.882968 -0.739783 0.453646 0.951011 -0.338014 -0.046727 0.124399 0.467547 0.108820 -1.118372 0.420413 0.174344 -1.249283 0.377311 0.349321 0.338946 0.555527 -0.213486 0.128203
1245 -0.265923 0.002747 0.035475 -1.497666 0.296191 0.168057 2.278223 0.947563 -0.818948 -0.724062 -1.060005 -0.211164 -0.211103 0.033451 -1.000695 1.238591 0.703170 -1.207412 -0.036070 0.533609 0.157888 0.823139 -0.624606 0.445751 -0.697757 -1.452104 0.108357 1.687402 0.112901 -1.145428 0.644016 0.673183
335 -0.574879 0.846929 0.751546 0.351503 0.319444 0.130966 2.202181 0.689650 -0.365676 -0.511410 -1.659700 -1.527906 -0.014815 0.368707 -0.423363 1.501061 1.282815 -0.329533 -0.701855 0.496324 0.594658 -0.497078 0.068295 -0.413827 1.074193 -0.359715 0.666466 0.653832 0.627206 1.221430 0.274989 0.510127
91 -0.437876 0.577776 0.653591 0.551105 0.716795 0.514073 0.995744 1.438295 0.956294 0.156757 -0.619212 0.673916 0.694645 -0.371567 0.230262 1.927336 1.701576 -1.095351 -0.748515 -0.158763 0.286372 0.850603 -0.618639 0.404271 -0.374029 -1.616941 0.202934 0.447897 -0.056697 -0.285423 0.550781 -2.119786
736 -0.242926 -0.400658 1.616805 -0.515215 0.286107 -0.142002 1.425357 0.078432 0.415443 -0.880586 -0.252476 0.987966 1.008495 -1.501065 1.026860 0.567594 1.504332 -1.223204 0.122687 -0.796187 1.332382 -0.336271 -0.759746 0.006199 -0.741013 -0.104723 0.347488 0.042902 0.897705 1.518234 0.211019 -0.123886
747 -0.581612 0.214531 0.648431 -0.120980 0.075616 0.477571 1.729553 0.555586 0.270625 -0.357892 -0.395486 -0.139864 0.429015 -0.881579 -0.693360 0.643799 0.939155 -0.350081 0.004337 0.171717 0.360830 -0.068554 -1.099435 0.370574 0.080884 -1.319318 0.466897 0.526680 0.211971 0.462848 -0.245535 0.093758
748 -1.022910 -0.606567 1.069039 -0.387425 1.326295 -0.378285 2.227668 1.242210 -1.589720 -0.196059 -0.588921 0.658160 0.159112 0.402034 -0.547034 0.663813 1.561560 -0.283904 0.551677 -0.630028 0.084603 -0.396164 -1.472605 -0.693508 -0.254268 -0.792965 1.134245 0.584976 -0.511568 0.009677 -0.285906 -0.268234
232 -0.650445 0.448843 0.547162 -0.753197 0.711370 0.119388 1.551362 1.600665 -0.750115 -0.454153 -0.191377 -0.445314 0.771034 0.109154 -0.869485 0.256024 2.163034 -0.827046 0.461093 -0.493472 0.532635 -0.728928 -0.389449 0.058876 -0.559776 -1.401479 0.145023 1.255260 1.458860 -0.410312 0.763597 -1.506568
1198 0.670966 0.685816 0.935365 1.057522 0.743207 -0.438827 1.445872 1.606167 1.112035 -1.109474 -0.348506 -0.555369 0.455343 -1.161043 0.054339 0.921541 1.317442 -1.508958 -0.220593 -0.256788 -1.086914 -0.310591 -0.573753 -0.282685 0.295556 -0.921005 1.244423 1.386190 -0.263099 -0.001357 -0.667557 0.140354
1059 -0.579247 0.078012 0.626535 -0.060385 0.089901 0.306292 1.624888 0.504124 0.223645 -0.485030 -0.404996 -0.071541 0.543106 -0.806685 -0.739293 0.528885 0.956334 -0.452781 -0.010820 0.052416 0.246772 0.078875 -1.023893 0.340513 0.074657 -1.392763 0.407623 0.462113 0.302849 0.634214 -0.194759 -0.011511
613 -0.704740 0.156594 0.551841 -0.044704 0.016342 0.411165 1.730586 0.568232 0.378313 -0.401550 -0.428497 -0.112108 0.377056 -0.840245 -0.691887 0.452376 0.875251 -0.341257 0.057743 0.188060 0.548284 0.064502 -1.032148 0.372219 -0.024216 -1.270116 0.407118 0.219583 0.208489 0.348630 -0.094066 0.096669
1272 -1.693850 0.582759 0.238892 0.457710 1.183407 0.907790 2.113057 0.814641 0.890211 -0.951445 0.351516 0.517472 -0.078976 -1.070855 -0.362735 1.727919 0.371010 -0.375231 -0.275915 0.108342 1.496037 -0.907707 -0.356971 -0.924339 0.134252 -0.302419 0.818955 0.380253 -0.034821 -0.413551 0.000023 -0.003025
1284 0.691491 0.718654 0.942421 1.074347 0.716830 -0.509602 1.456882 1.604336 1.105156 -1.140585 -0.365490 -0.525029 0.478313 -1.199799 0.045975 0.856491 1.405298 -1.512475 -0.225077 -0.225956 -1.060941 -0.271266 -0.614025 -0.289672 0.329198 -0.955437 1.227449 1.404477 -0.230758 0.023695 -0.703827 0.061791
1288 -0.963433 0.586170 0.695684 -1.358790 -0.203328 1.070437 1.313741 0.318502 0.468711 -0.347878 -1.236191 0.245674 -1.273348 -0.815762 0.075536 0.789669 0.662020 -1.804633 0.257563 -0.352020 0.500165 0.708047 -1.481422 -0.563414 0.121329 -1.166037 -0.450139 0.055174 1.127627 -0.105271 0.482813 -0.584745
26 -0.652521 1.187021 0.538894 -0.504290 0.718821 0.025592 1.414211 1.257277 -0.375648 0.385854 -0.144528 0.164577 -0.187753 -1.948948 0.086053 0.923311 0.994010 -1.386881 -0.167620 1.064774 0.808916 1.214026 -0.163920 1.429662 0.716918 -0.829909 -0.026007 -0.112693 -0.181530 0.028098 -0.537487 -0.758307
937 -0.563803 0.424113 0.423868 0.060986 -0.264918 0.475233 1.350450 0.797747 0.256161 -0.176739 -0.478649 -0.062759 0.188060 -0.696926 -0.125823 0.792590 1.019868 -0.278590 0.047995 -0.110321 0.357822 0.293696 -0.949789 0.261942 0.247839 -1.294450 0.642621 0.842957 0.175361 0.485372 0.013886 -0.527818
88 -0.160656 -0.427307 0.054731 0.191516 0.386132 1.113790 1.618591 1.112207 -0.719969 -0.435348 0.009395 0.899412 0.158865 -0.938113 0.776004 1.629957 1.216618 -0.644467 0.228331 0.963781 0.450063 0.463082 -2.098826 -0.651249 -0.009659 -0.351082 0.320397 1.124258 1.473518 0.684985 0.437807 0.694395
395 -0.726059 0.142589 0.791755 0.005983 0.048437 0.356232 1.700932 0.569125 0.374947 -0.467874 -0.428274 -0.178471 0.431131 -0.977102 -0.806508 0.632136 1.048969 -0.337364 0.015338 0.090418 0.344893 0.091762 -1.175761 0.446153 0.250038 -1.426556 0.486381 0.392456 0.291133 0.604376 -0.178113 0.112658
586 -0.725758 0.117391 0.832984 -0.166036 0.114001 0.293359 1.448390 0.533857 0.122977 -0.485166 -0.454694 -0.021423 0.590694 -1.101594 -0.631545 0.526113 0.923679 -0.405267 0.094998 -0.088675 0.305648 0.193714 -1.196708 0.089926 0.105933 -1.018996 0.488445 0.556066 0.259193 0.466567 -0.299220 -0.012259
582 -0.611789 0.093384 0.728679 -0.156016 0.202705 0.246652 1.298300 0.558019 0.153660 -0.481490 -0.357064 -0.042547 0.616767 -1.123258 -0.679701 0.568196 0.921783 -0.457714 0.037374 -0.035978 0.222769 0.235361 -1.242891 0.018815 0.085722 -0.991062 0.427469 0.562771 0.293938 0.413426 -0.265570 0.018055
246 -0.894702 0.166861 0.825994 -0.035071 0.131607 0.413101 1.942839 0.683398 0.360533 -0.492445 -0.439994 -0.164142 0.576686 -1.098212 -0.896451 0.672725 1.261730 -0.413204 0.079720 0.118606 0.465649 0.081317 -1.406930 0.546416 0.193936 -1.628314 0.537066 0.430582 0.363872 0.687912 -0.283429 0.111986
514 -0.676815 0.121468 0.673966 -0.029821 0.052530 0.335630 1.465649 0.397548 0.296713 -0.375818 -0.367621 -0.120203 0.382045 -0.806594 -0.701335 0.531266 1.065281 -0.297189 0.055793 0.082860 0.428580 0.103930 -1.016184 0.426408 0.166571 -1.275549 0.375381 0.430342 0.228558 0.569578 -0.167645 0.052980
624 -0.473287 0.912697 0.135225 -0.448194 0.846189 -0.165163 2.524096 0.837678 0.505233 -0.125428 -1.053034 0.555129 0.473523 -1.118755 -0.000199 0.180132 1.068891 -1.016500 -0.605189 -0.044918 1.327812 0.404587 -0.026311 1.081691 1.010581 0.302539 0.089676 0.646902 -0.379551 1.763805 -0.530547 1.481698
974 -0.825309 0.047205 0.638615 -0.061969 0.096036 0.348891 1.572028 0.474994 0.297564 -0.456976 -0.418133 -0.083373 0.425906 -0.803821 -0.741151 0.577465 0.920359 -0.339379 0.099817 0.193467 0.400040 0.029568 -1.058516 0.423266 0.172715 -1.343721 0.317934 0.353924 0.313897 0.545007 -0.281410 0.139301
16 -0.797090 0.152875 0.704192 -0.054691 0.077872 0.390598 1.708206 0.559817 0.370100 -0.419635 -0.412322 -0.097630 0.456515 -0.932928 -0.737155 0.535841 1.032971 -0.403040 0.005593 0.074651 0.386477 0.132515 -1.142433 0.421197 0.168855 -1.448056 0.470616 0.372752 0.352426 0.553137 -0.273419 0.130629
881 -0.722486 0.062109 0.667777 -0.024735 0.159900 0.345648 1.514531 0.509912 0.351087 -0.409587 -0.421794 -0.188635 0.503705 -0.801920 -0.631931 0.607770 0.972170 -0.348738 0.038981 0.110138 0.339800 0.033729 -0.972900 0.403965 0.092040 -1.240964 0.428877 0.339310 0.302249 0.559345 -0.186291 0.138220
884 -0.274756 -0.849555 0.147185 -0.163216 0.097946 -0.205292 2.142239 0.998550 0.196554 -0.217823 -1.432989 0.308657 0.668080 0.025811 0.080780 0.781081 1.272064 0.730579 -0.893855 1.245866 1.483821 0.950366 -0.931127 0.135677 -1.099319 -1.202180 0.517912 1.125927 -0.820189 0.348357 0.274972 -0.301511
320 -0.666425 0.838839 0.560419 -0.339617 0.843079 0.075353 1.755180 0.836605 1.189484 0.074442 -1.425739 0.347387 -0.235637 -0.507954 0.970845 0.302099 -0.127913 -1.033789 -0.697034 -0.342487 0.742034 -1.481809 -1.565963 0.391547 0.597673 -1.047059 1.471381 0.425067 -0.158562 1.292684 0.876127 -0.373492
324 -0.167353 -0.426647 0.124517 0.109263 0.406599 1.209912 1.574904 1.096026 -0.612086 -0.376768 0.049965 1.024882 0.116385 -0.970780 0.855897 1.641951 1.177188 -0.664728 0.308855 1.097427 0.449205 0.566747 -2.077661 -0.640117 0.099140 -0.223371 0.280656 1.142558 1.481753 0.616714 0.548870 0.555937
75 -0.568711 0.194544 0.624550 -0.125901 0.095613 0.473411 1.689709 0.536652 0.256625 -0.373898 -0.369501 -0.152142 0.409073 -0.847831 -0.697045 0.616370 0.962150 -0.364780 0.023274 0.186988 0.386555 -0.065647 -1.095553 0.350571 0.072241 -1.311544 0.433977 0.498543 0.226715 0.458956 -0.236957 0.130036
1047 -0.590101 0.315408 0.623454 -0.293665 0.087025 0.477472 1.547501 0.460277 0.368746 -0.407166 -0.341090 -0.016256 0.538351 -0.986422 -0.576939 0.545334 0.915534 -0.313230 0.180694 0.106119 0.382027 0.145186 -1.090948 0.306831 -0.017190 -1.221263 0.218929 0.378112 0.147630 0.570374 -0.289253 -0.056048
1148 -0.880506 0.138911 0.807142 -0.043302 0.134923 0.441578 1.871481 0.627696 0.414389 -0.514080 -0.426557 -0.162362 0.603324 -1.004174 -0.922541 0.649697 1.191042 -0.364095 0.073925 0.131686 0.452486 0.110343 -1.360095 0.552305 0.174751 -1.632025 0.468300 0.400493 0.369916 0.683514 -0.272036 0.125237
663 -0.582036 0.245603 0.668569 -0.107282 0.247314 0.243262 1.688620 0.462841 0.394059 -0.325909 -0.407541 -0.008731 0.641631 -0.797713 -0.668790 0.341096 0.907405 -0.220160 0.158305 -0.115669 0.301028 0.130875 -1.140845 0.460505 0.178865 -1.558956 0.414214 0.313549 0.164468 0.484431 -0.250880 -0.168725
1266 -0.612360 0.323683 0.584786 -0.327828 0.116136 0.446900 1.577983 0.480092 0.340599 -0.390968 -0.381177 -0.000286 0.531927 -0.998026 -0.555327 0.543634 0.952792 -0.330812 0.176457 0.073624 0.384710 0.137398 -1.081961 0.248253 0.029467 -1.208947 0.216701 0.337918 0.157011 0.569471 -0.283818 -0.042830
697 -0.915580 0.133323 0.809516 -0.040121 0.162142 0.427593 1.920146 0.656077 0.374300 -0.493716 -0.472939 -0.160892 0.562713 -1.071736 -0.935476 0.671413 1.233828 -0.386417 0.050324 0.143058 0.493853 0.119193 -1.387998 0.571422 0.154440 -1.644839 0.520737 0.418502 0.361596 0.663696 -0.251367 0.136114
699 -0.240521 -0.138801 1.813636 0.821926 0.331906 0.034793 2.282152 1.222489 -0.834016 -0.281417 -0.361219 0.178139 -0.230006 -1.362613 -0.467600 0.991885 1.234831 -0.818086 0.268727 1.036874 0.075204 0.697226 0.031471 -0.463886 -0.470717 -0.015154 1.235888 -0.047573 -0.488278 0.670476 -1.207784 0.531592
992 -0.852419 0.691466 0.528811 0.577000 0.830896 0.285979 1.400417 1.004192 -0.392938 -0.559819 -0.466819 1.615032 1.307581 -0.599728 0.572588 0.057417 1.286927 -0.594442 -0.603516 -0.728136 1.517405 0.218697 -0.691817 0.614113 0.792412 -1.198865 1.710533 1.012447 1.230670 0.278631 0.977051 0.741388
126 -0.806120 0.686734 0.497492 0.595704 0.824154 0.278989 1.267097 1.040309 -0.388588 -0.538758 -0.438008 1.662440 1.351280 -0.561578 0.650722 0.071205 1.256959 -0.617077 -0.605679 -0.706918 1.534046 0.223561 -0.632228 0.604282 0.759023 -1.240641 1.706900 1.019151 1.261161 0.217991 1.019183 0.703175
922 -0.117594 -0.690895 -0.089209 -0.801783 0.279303 -0.819211 1.707328 1.361011 -0.792088 -0.682137 -0.298459 0.527865 -0.420326 -1.603688 -0.271533 1.309261 2.376416 -0.671754 -0.618207 0.253359 0.213072 0.015574 -0.609452 -0.861776 1.519293 -0.442198 0.833115 0.353065 0.769742 1.282037 -0.450256 0.208476
319 -0.200326 -0.809534 0.144659 -0.128055 0.119692 -0.182711 2.183763 1.013966 0.166592 -0.262595 -1.448846 0.266296 0.670158 0.042870 0.115814 0.839782 1.253266 0.730797 -0.881065 1.225260 1.484995 0.950403 -0.912212 0.104723 -1.103713 -1.198892 0.535151 1.175925 -0.842996 0.322644 0.298589 -0.356960
360 -0.715953 1.186177 0.603991 -0.539032 0.713195 -0.025785 1.347574 1.273937 -0.409934 0.435636 -0.070290 0.198930 -0.213566 -1.923924 0.041531 0.842163 1.010550 -1.469928 -0.165135 1.048448 0.794311 1.281303 -0.189212 1.475699 0.746788 -0.771106 -0.035899 -0.131885 -0.154751 0.006426 -0.580924 -0.855787
254 0.039341 0.256005 0.158673 0.544800 0.829526 -0.538122 2.971873 0.313415 0.821110 -1.223117 -0.085099 0.738804 1.007038 -1.620771 -0.576413 0.801018 1.664668 0.876958 0.949196 0.246716 0.870963 0.556935 -0.772358 -0.948842 -0.633134 -0.424205 0.067542 -0.152849 -0.309546 -0.248320 0.003202 -0.617404
731 0.333341 0.353338 0.679067 -0.298769 0.769604 0.239791 1.816572 -0.466573 -0.894834 0.300859 -0.210240 1.366649 -0.505468 -0.219765 -1.691999 0.520568 1.296199 -0.831906 0.072087 -0.011186 0.800954 -0.383504 -1.336275 -0.493991 0.936307 -0.961349 0.470716 0.597922 0.123241 1.353667 -0.717184 -0.979379
733 -0.208713 -0.150647 1.822185 0.817082 0.293047 -0.057456 2.301275 1.242423 -0.804938 -0.286244 -0.291835 0.271981 -0.237085 -1.341380 -0.457356 0.934637 1.251646 -0.855532 0.250824 1.033662 0.130147 0.752871 0.114320 -0.489737 -0.475415 -0.124184 1.180253 -0.074087 -0.520739 0.626079 -1.296489 0.502783
734 -0.709253 0.175285 0.545616 -0.023310 0.040145 0.427811 1.752312 0.564523 0.411322 -0.387820 -0.444475 -0.127145 0.381843 -0.872742 -0.703955 0.454861 0.907376 -0.358842 0.043596 0.165022 0.545749 0.052497 -1.026990 0.364621 -0.007630 -1.243403 0.427351 0.226585 0.218494 0.395826 -0.102422 0.094549
630 -0.604916 0.236365 0.693524 -0.110379 0.251201 0.278213 1.707718 0.465084 0.416083 -0.331163 -0.399458 -0.006057 0.631504 -0.814734 -0.688417 0.345587 0.887911 -0.211580 0.162841 -0.077736 0.339415 0.111589 -1.182722 0.464531 0.147332 -1.554759 0.397615 0.300262 0.149537 0.468913 -0.227335 -0.144863
1210 -1.001901 -0.441909 0.955533 -0.229457 0.877985 -0.263441 2.475993 2.018681 0.179267 0.172728 -0.283197 0.344847 0.213121 -0.678006 -0.052003 1.881995 -0.035002 -0.179693 -0.915198 -0.104692 -0.212360 1.355526 -0.570523 -0.423019 0.633092 -0.579964 -0.037502 -0.298414 0.041354 0.894672 -0.156696 0.720359
1168 -0.623571 0.195666 0.687242 0.034784 0.143555 0.370134 1.494441 0.500607 0.389990 -0.456743 -0.324377 -0.105917 0.493215 -0.802103 -0.696102 0.504379 0.979320 -0.372458 0.059677 0.044613 0.379861 0.051965 -1.101915 0.396860 0.138657 -1.345915 0.430577 0.383843 0.324460 0.515925 -0.221450 0.141797
168 -0.889995 0.159928 0.804240 -0.027205 0.135380 0.448614 1.884213 0.625433 0.406499 -0.492881 -0.453624 -0.145925 0.611628 -1.020613 -0.918347 0.641674 1.216545 -0.372240 0.071340 0.142050 0.452651 0.110789 -1.367243 0.531208 0.199410 -1.626444 0.496651 0.408469 0.344681 0.685921 -0.261766 0.114495
161 -0.574888 0.863111 0.729176 0.448499 0.322225 0.098083 2.150608 0.735359 -0.277322 -0.497273 -1.720832 -1.549779 -0.022876 0.389369 -0.391019 1.493340 1.260441 -0.323850 -0.734058 0.490623 0.601097 -0.441207 0.154884 -0.360202 1.164240 -0.310905 0.664969 0.664730 0.696973 1.216527 0.275738 0.496236
967 -0.256555 -0.074613 0.018251 -1.443433 0.345479 0.109932 2.271998 0.888965 -0.795143 -0.790114 -0.981078 -0.168486 -0.198300 0.019462 -1.045214 1.263435 0.720428 -1.273205 -0.008628 0.514399 0.109036 0.873350 -0.594553 0.423340 -0.660403 -1.467492 0.120885 1.683729 0.177955 -1.133479 0.594361 0.662922
1102 -0.613272 0.446638 0.488607 -0.717200 0.612241 0.079479 1.533005 1.599565 -0.710731 -0.401038 -0.144365 -0.459675 0.701935 0.167760 -0.822665 0.344213 2.156219 -0.785470 0.423403 -0.437067 0.452379 -0.728385 -0.416864 0.007196 -0.484059 -1.440540 0.132350 1.207450 1.533820 -0.289247 0.714758 -1.472857
1103 0.066630 0.155239 0.147729 0.614477 0.866336 -0.518611 2.950269 0.259342 0.839900 -1.235306 -0.053106 0.762942 0.880318 -1.535214 -0.521785 0.825795 1.678138 0.862901 0.884060 0.186773 0.818622 0.500057 -0.834897 -0.978872 -0.635833 -0.463263 0.024423 -0.179048 -0.370205 -0.109217 -0.033677 -0.604583
879 -0.642902 0.252408 0.526333 -0.038296 0.480210 -0.823451 1.925572 0.529180 -0.236250 0.080904 -1.726034 0.556573 0.196541 -2.240492 -0.401278 -0.030496 0.714551 -0.117894 0.411293 -0.686467 0.990741 1.313511 -0.678256 -0.684543 0.160907 -1.101574 0.817584 -0.015493 -1.309618 0.583750 0.850945 0.080602
9 -1.045727 -0.445688 0.931607 -0.228387 0.836340 -0.314981 2.440733 2.030714 0.169506 0.157909 -0.347107 0.431823 0.129307 -0.690345 -0.054397 1.849450 -0.011360 -0.136203 -0.994754 -0.069302 -0.227525 1.339828 -0.581102 -0.467020 0.621774 -0.606732 -0.013734 -0.195350 0.079495 0.884883 -0.155818 0.724906
1248 -1.046792 -0.661823 1.060392 -0.401781 1.321445 -0.485228 2.268624 1.209613 -1.593959 -0.232545 -0.601244 0.667858 0.217603 0.348555 -0.578174 0.620113 1.576544 -0.235311 0.504712 -0.631524 0.108530 -0.448058 -1.451610 -0.743019 -0.274983 -0.767380 1.183653 0.620453 -0.548030 0.015049 -0.275918 -0.241664
801 -1.791068 -0.251422 0.351374 -0.354333 0.782957 0.581405 2.065513 0.311949 0.346981 -0.277849 -0.918475 -0.194018 -0.732532 -0.588889 1.139552 1.686725 1.074742 0.222088 -0.469449 0.057840 -0.052776 0.072874 -1.037222 -0.780749 -0.464325 -0.619861 0.103953 1.843409 -0.305475 0.601247 -0.882036 0.077895
359 -0.735447 0.135501 0.773216 0.020196 0.069165 0.354762 1.667892 0.585079 0.353277 -0.442011 -0.419835 -0.189935 0.428007 -0.975748 -0.823814 0.623691 1.046181 -0.314761 0.010741 0.079602 0.339416 0.087033 -1.190454 0.448570 0.243311 -1.401360 0.490342 0.363984 0.301713 0.566148 -0.183057 0.144748
768 -0.708287 0.887483 0.592635 -0.352935 0.861654 0.125854 1.767594 0.810862 1.177329 0.013413 -1.449483 0.320579 -0.180376 -0.579340 0.930815 0.296654 -0.137908 -1.034191 -0.672029 -0.310311 0.770229 -1.413612 -1.566176 0.399491 0.626736 -1.106002 1.500132 0.494712 -0.132997 1.280481 0.820086 -0.326772
213 -0.732789 0.031361 0.628580 -0.007536 0.130436 0.437198 1.825507 0.485383 0.491239 -0.488782 -0.404909 -0.038738 0.504381 -0.848680 -0.701760 0.568679 0.922409 -0.438274 -0.018631 0.192054 0.368429 0.205787 -1.246042 0.580408 0.278948 -1.434903 0.462385 0.374043 0.279962 0.709145 -0.240158 0.086646
1075 -0.124953 -0.753660 -0.143731 -0.821355 0.350487 -0.824524 1.656531 1.336848 -0.759580 -0.738697 -0.264589 0.558483 -0.413355 -1.574858 -0.307704 1.292449 2.348577 -0.569750 -0.708590 0.242362 0.219496 0.049707 -0.587016 -0.846508 1.538403 -0.475155 0.816782 0.392967 0.775854 1.292372 -0.535382 0.260194
1094 -0.846751 0.219432 0.735856 0.017557 -0.085046 0.529672 1.600298 0.279378 0.461478 -0.555813 -0.385496 -0.162722 0.489325 -0.917190 -0.756643 0.586965 0.839382 -0.141250 0.242807 0.033263 0.278965 0.122341 -0.930942 0.287243 0.041769 -1.317697 0.459229 0.418953 0.182304 0.235887 -0.404261 0.133872
1154 -0.902340 0.166996 0.809600 -0.043475 0.158269 0.435264 1.971984 0.708374 0.390853 -0.507638 -0.457978 -0.177281 0.567589 -1.111405 -0.916288 0.680388 1.284144 -0.431301 0.074175 0.148433 0.497282 0.110383 -1.425009 0.554072 0.202148 -1.676870 0.533689 0.454731 0.378381 0.673510 -0.267942 0.131782
535 -0.719046 0.081853 0.680038 -0.008196 0.169898 0.327881 1.524148 0.505229 0.364425 -0.418143 -0.442434 -0.194848 0.516793 -0.846184 -0.646300 0.622729 0.989849 -0.347156 0.061066 0.085077 0.375983 0.051242 -1.002915 0.414608 0.085728 -1.285623 0.448411 0.359829 0.311162 0.567877 -0.168777 0.128343
984 -0.944475 0.484027 0.675313 -1.373216 -0.225416 1.111292 1.297595 0.280386 0.536730 -0.326714 -1.226186 0.183373 -1.319887 -0.895226 0.112788 0.737537 0.620455 -1.882641 0.199706 -0.332936 0.434698 0.661762 -1.491572 -0.578419 0.130518 -1.086144 -0.472193 0.059260 1.163647 -0.125312 0.530169 -0.506042
425 -0.423756 -0.382686 0.854004 -0.391228 0.884523 -0.699320 0.758158 2.240494 0.078922 0.230219 -0.569031 -0.638284 1.091024 -0.719928 -0.003437 0.529809 1.037294 -2.206563 -0.154595 -1.168780 0.242210 -0.471428 -0.724967 0.145423 -0.315132 -1.202557 0.174010 0.492436 1.041437 0.945019 -0.770096 0.123462
848 -0.784609 0.158630 0.696209 -0.063047 0.106145 0.399817 1.692687 0.586532 0.373070 -0.413969 -0.423373 -0.085748 0.455404 -0.966227 -0.777008 0.556304 1.072309 -0.407988 0.001093 0.079776 0.391498 0.139825 -1.180153 0.420350 0.167096 -1.456410 0.463772 0.343152 0.366346 0.574162 -0.255931 0.142855
563 -1.686721 0.632065 0.232047 0.487259 1.203428 0.889594 2.082711 0.894964 0.897489 -0.821709 0.348707 0.491592 -0.140571 -1.004538 -0.481864 1.798110 0.365557 -0.379809 -0.195687 0.176951 1.440946 -0.950819 -0.288422 -0.899716 0.230388 -0.279427 0.785111 0.419256 -0.019396 -0.471707 -0.031425 -0.104619
738 -0.619970 0.185074 0.691931 0.032654 0.168945 0.337118 1.486103 0.516847 0.398702 -0.439824 -0.306967 -0.106147 0.510027 -0.807362 -0.705898 0.494852 0.970806 -0.364367 0.063608 0.047452 0.367292 0.050321 -1.113588 0.395060 0.161890 -1.351733 0.424683 0.381084 0.311921 0.484408 -0.214296 0.157064
221 -0.992005 0.751162 0.128261 -0.023888 0.771067 0.072341 1.554317 0.373930 0.484041 -1.742575 -0.766823 0.130847 -0.916267 -1.799742 -0.135346 -0.207984 1.108245 -0.640989 1.330768 1.211838 -0.658486 0.885331 -1.115681 0.197340 0.226324 -1.299526 -0.821785 -0.648985 0.116166 0.617665 -1.125193 -0.378318
1024 -0.762570 0.094269 0.691442 0.062352 0.077315 0.326367 1.485738 0.600044 0.286832 -0.489754 -0.356621 -0.173064 0.532053 -0.855254 -0.697389 0.521103 1.006356 -0.291650 0.011877 0.090048 0.436847 0.045987 -1.129293 0.567023 0.132131 -1.384372 0.346731 0.385933 0.398099 0.565460 -0.285824 0.089340
1182 -0.741314 0.086359 0.680810 0.063423 0.051873 0.331497 1.483553 0.605683 0.297608 -0.488764 -0.369709 -0.160417 0.518456 -0.855931 -0.720779 0.509637 0.986236 -0.314197 0.000555 0.092307 0.410959 0.051746 -1.091479 0.558446 0.168771 -1.374813 0.329893 0.393943 0.387879 0.593760 -0.277526 0.108488
391 1.277562 0.508574 0.621243 -0.302458 1.078052 0.118944 2.712717 1.095345 0.584533 -0.308458 -0.236432 -0.023645 0.492157 -0.002309 -0.356830 1.901572 1.776243 -0.872605 0.629718 -0.633477 0.608018 -0.261629 -0.343894 0.245822 0.392604 -0.983703 -0.159037 -0.415952 -0.268788 -0.187199 0.707314 0.148339
501 -0.676345 0.114822 0.687153 -0.025886 0.069600 0.363852 1.507961 0.411980 0.304730 -0.377598 -0.352642 -0.143464 0.402589 -0.841313 -0.727147 0.549141 1.111093 -0.318045 0.063772 0.096162 0.462647 0.102336 -1.036903 0.442465 0.149825 -1.290091 0.381390 0.443114 0.253219 0.572328 -0.176518 0.066647
1203 1.309546 0.468351 0.562640 -0.273054 1.133892 0.137574 2.666304 1.080105 0.538053 -0.304135 -0.231100 0.007855 0.490886 -0.021595 -0.362872 1.856426 1.800246 -0.822894 0.654496 -0.640065 0.551991 -0.271292 -0.340345 0.180152 0.417596 -0.953924 -0.143972 -0.440288 -0.251614 -0.131485 0.640193 0.197451
41 -0.833775 0.044228 0.666160 -0.039815 0.100764 0.355623 1.595807 0.490836 0.322827 -0.469321 -0.400080 -0.099044 0.417015 -0.817169 -0.716330 0.596358 0.937664 -0.327744 0.087973 0.181483 0.387713 0.022826 -1.072366 0.430310 0.174051 -1.330067 0.319300 0.377237 0.312281 0.536075 -0.258738 0.140756
5 -0.764723 0.020817 0.608880 0.002788 0.152118 0.410166 1.816157 0.489806 0.481864 -0.506680 -0.397282 -0.050315 0.486951 -0.866201 -0.687568 0.549380 0.928805 -0.439686 -0.012353 0.195200 0.397869 0.194475 -1.257403 0.603821 0.263068 -1.446086 0.456861 0.356256 0.279466 0.687492 -0.265602 0.100591
470 -0.880374 0.113661 0.790053 -0.061742 0.126322 0.417337 1.914013 0.651828 0.388297 -0.524624 -0.457102 -0.148704 0.549489 -1.056996 -0.867862 0.673359 1.161314 -0.422358 0.098735 0.150235 0.451358 0.136954 -1.325439 0.516109 0.218007 -1.607604 0.475719 0.490484 0.378647 0.648716 -0.270555 0.083731
474 -0.859795 0.276296 0.689138 -0.026884 -0.152387 0.454472 1.603198 0.278704 0.409851 -0.556219 -0.392466 -0.127643 0.499865 -0.895390 -0.745445 0.606399 0.895790 -0.176536 0.318702 0.096147 0.336940 0.122288 -0.923970 0.286064 0.035981 -1.259381 0.408820 0.404235 0.177252 0.189755 -0.391759 0.171222
101 -0.745337 0.038874 0.044760 0.263156 0.681199 -0.190621 1.280670 0.081024 0.374553 -0.694174 0.050735 -0.475202 1.502201 -0.662689 -1.468345 0.118927 0.750735 -0.129029 0.290748 -0.091575 0.183575 -0.216757 0.172853 -0.194749 0.420205 -0.959530 0.413196 -0.229072 0.426425 0.767536 -0.785313 0.696330
177 -0.248437 -0.044824 0.613493 -0.170458 1.023950 0.344828 0.630520 0.823634 -0.377200 -0.791057 -1.261436 -0.304664 0.393565 -0.450153 -1.993873 1.283321 0.986120 0.470945 0.103669 0.720275 0.430143 -0.843798 -1.686120 0.821243 0.335201 -0.550375 -0.174446 -0.265113 -0.892034 1.010243 -0.024400 0.702484
419 -0.013628 0.084652 0.868155 0.215478 1.123446 0.578956 1.028156 0.161635 0.136168 -1.170206 -0.596165 -1.081287 -0.449632 -1.506648 0.408637 1.342896 1.034123 -0.967052 0.536054 0.970497 0.542947 -0.387289 -0.178175 0.703326 0.515503 -1.678527 -0.135170 1.330923 -0.523323 0.070104 0.832479 -0.220545
114 -0.068670 0.617905 -0.421202 -1.393375 -0.197862 -0.264486 1.405882 1.321126 0.262835 -0.450177 -0.995136 0.686070 -0.115614 -1.272275 0.158764 -0.653262 1.364117 -0.113645 -0.182553 -0.430732 -0.108111 1.091578 -0.693458 0.990699 1.338553 -1.692008 0.049827 1.295406 0.271465 0.814388 0.441239 -0.407706
916 -0.248951 0.136048 0.579968 -0.142808 0.746984 0.622830 0.486522 1.386175 -0.396796 -0.919399 -1.275693 -0.249371 0.412640 -0.345789 -1.559030 1.098161 0.862547 0.419097 0.255276 0.628597 0.303763 -0.950361 -1.489105 0.781810 0.229797 -0.372536 -0.083496 0.136769 -0.919705 1.195904 -0.159445 0.133055
923 -0.009175 0.113875 0.775654 0.291522 1.132571 0.587761 0.964127 0.177627 0.189261 -1.155106 -0.586569 -1.189063 -0.436296 -1.507642 0.432856 1.328713 0.966646 -0.876314 0.551443 1.006204 0.535772 -0.313074 -0.090368 0.733491 0.530465 -1.644746 -0.164470 1.298947 -0.533344 0.065773 0.834762 -0.180813
1243 -1.035291 0.449785 1.056874 -0.174450 -0.267962 0.930778 -0.019409 0.726257 1.148303 -0.365745 0.385462 0.247460 0.693695 -0.365991 -0.922697 0.066502 0.677647 -0.592865 0.548517 0.121538 0.409763 -0.052012 -0.560052 1.026295 0.503188 -1.596498 -0.025186 0.428507 1.026381 0.234873 -0.195376 -0.971031
219 -0.222574 0.028068 0.939151 0.560084 -0.231899 -0.007794 0.910411 0.136997 -0.531733 -0.075606 0.225723 -0.714859 0.366305 -0.576316 -0.250646 0.413548 1.323951 -0.087565 -1.019264 -0.646426 0.562754 0.065480 -1.075322 0.711974 0.077844 -0.840885 0.281897 0.264696 -0.102481 -0.314007 -0.100772 0.225615
40 -0.244085 0.016514 0.975715 0.521917 -0.174423 0.012943 0.929860 0.128092 -0.527917 -0.086519 0.170336 -0.740510 0.353389 -0.603593 -0.271978 0.378875 1.322795 -0.142894 -0.931221 -0.652056 0.558919 0.102911 -1.121869 0.646205 0.022085 -0.881972 0.230606 0.227218 -0.152775 -0.321886 -0.141509 0.211714
218 -0.881838 -0.348013 0.493218 0.130502 1.550526 0.254139 0.717776 0.372700 0.185502 -0.061374 -0.917647 0.544382 1.214599 -0.649954 -0.276991 1.293632 -0.149490 -1.129305 -0.154291 -0.096868 0.596155 0.592588 -1.781255 0.726796 0.225031 -1.306259 0.390524 -0.066692 -0.084648 0.045165 0.949199 0.555426
158 -0.765873 0.088103 0.070376 0.250114 0.625399 -0.174399 1.306327 0.033684 0.338151 -0.659476 0.052647 -0.489069 1.470636 -0.650110 -1.447674 0.099436 0.701658 -0.143704 0.339492 -0.099699 0.159168 -0.267597 0.172211 -0.235055 0.432790 -0.890831 0.448137 -0.258431 0.428683 0.797193 -0.753779 0.684850
1256 -0.434835 0.133142 0.464407 0.167856 -0.148824 1.189923 0.905129 -0.913964 0.764284 -0.533415 -0.699289 0.057016 0.032894 -0.403249 -0.046309 0.165508 0.049243 -0.180329 0.221290 0.270685 -0.359586 0.040587 -1.691271 -0.556704 0.354557 -1.747259 0.403648 0.715459 0.074074 1.489443 -0.056786 0.359869
502 -0.243202 -0.006080 0.935399 0.516467 -0.237961 -0.024518 0.884063 0.092780 -0.480536 -0.021189 0.170428 -0.703207 0.355499 -0.626041 -0.304698 0.339078 1.296141 -0.061943 -0.982092 -0.612138 0.601975 0.042508 -1.086827 0.778220 0.011729 -0.875014 0.247758 0.252973 -0.130240 -0.356031 -0.099637 0.266030
334 -0.737342 0.046197 0.018051 0.270802 0.695689 -0.201799 1.333885 0.078911 0.377572 -0.699608 0.044365 -0.515178 1.490881 -0.712848 -1.487490 0.089154 0.742513 -0.155481 0.275470 -0.135141 0.180343 -0.249480 0.202102 -0.155517 0.443285 -0.962460 0.417355 -0.251147 0.406613 0.771471 -0.805642 0.722985
830 -0.067997 0.590773 -0.336579 -1.310862 -0.195993 -0.229354 1.446689 1.309752 0.247785 -0.384787 -1.057223 0.685194 -0.127627 -1.271119 0.183690 -0.596785 1.340702 -0.133222 -0.202986 -0.424244 -0.090328 0.987996 -0.774257 0.986919 1.242011 -1.678372 0.014451 1.248297 0.257973 0.866562 0.476633 -0.334063
1000 -0.270054 0.306746 0.425133 0.093492 -0.107719 1.011488 0.927969 -0.851727 0.754775 -0.567040 -0.588502 -0.043424 0.153807 -0.280472 0.102920 0.035839 0.122900 -0.189732 -0.023764 0.280670 -0.238654 -0.002825 -1.738321 -0.556955 0.284223 -1.782535 0.305363 0.621883 0.096197 1.612077 -0.003398 0.381743
989 -0.223792 0.005159 0.906268 0.506302 -0.222112 -0.087876 0.970392 0.199796 -0.518431 -0.057637 0.155490 -0.658100 0.419315 -0.587300 -0.268491 0.413873 1.315767 -0.131244 -1.020200 -0.619573 0.609747 0.078426 -1.097665 0.713766 0.055109 -0.908428 0.250194 0.224829 -0.123226 -0.359515 -0.149600 0.314683
721 -1.069627 0.484299 1.063142 -0.126890 -0.264335 0.808840 0.019427 0.717670 1.198292 -0.334717 0.337464 0.240443 0.673709 -0.428174 -0.930924 0.041613 0.676794 -0.659148 0.583217 0.119847 0.368421 -0.029884 -0.548776 1.044822 0.482268 -1.500929 -0.019270 0.475198 0.999467 0.246327 -0.222695 -0.979189
370 -0.222892 -0.029653 1.004879 0.531857 -0.199247 -0.000099 0.908739 0.037745 -0.469055 -0.047205 0.162164 -0.780258 0.396490 -0.641718 -0.351809 0.396940 1.318431 -0.069718 -1.007742 -0.676741 0.586018 0.068726 -1.068797 0.760480 0.080636 -0.832183 0.243621 0.260137 -0.161449 -0.300049 -0.091879 0.286229
197 -0.155381 -0.064435 0.965313 0.597434 -0.121221 -0.020227 0.815213 0.049290 -0.434035 -0.037561 0.240813 -0.760414 0.428982 -0.545145 -0.367772 0.480994 1.330114 -0.162060 -1.004429 -0.637040 0.554254 0.096204 -1.113924 0.760540 0.062950 -0.957326 0.242926 0.284796 -0.071803 -0.245942 -0.104607 0.223862
516 -0.780286 -0.274977 0.496087 0.153397 1.560415 0.274756 0.741093 0.386789 0.148264 -0.063994 -0.995615 0.526327 1.202090 -0.633110 -0.216443 1.296889 -0.193648 -1.128449 -0.146337 -0.102475 0.547683 0.596763 -1.749157 0.753537 0.203488 -1.272988 0.343756 0.000142 -0.166057 0.021858 0.996266 0.584342
1084 0.199397 0.136974 1.127344 -0.296673 -0.418307 0.511041 1.771123 0.561105 0.247073 0.156072 -0.085532 -0.799335 -0.857236 0.141063 -1.184621 1.119676 0.528389 0.359465 0.876992 0.677709 -0.191092 0.377958 -1.007880 0.307456 0.789696 -1.352160 -0.313969 0.000712 0.433587 0.019514 -0.351077 0.080755
1134 0.108967 0.527828 0.484740 0.428086 -0.212728 0.609932 1.595089 0.624754 -0.411577 -0.131238 -0.878469 -0.090159 0.286674 -0.683547 -0.059765 -0.835133 1.438112 -1.342931 1.353184 0.296070 0.664251 -0.113575 -1.055192 0.984258 -0.195004 -0.571082 1.099009 0.469747 0.281061 0.401951 1.186912 -0.079722
260 0.114324 2.117085 1.166155 -0.142431 -0.072510 0.296008 1.465251 -0.278388 0.496738 -0.990779 -1.171867 -0.542847 0.445966 -0.681971 -0.792621 -0.503740 0.509566 -0.884855 0.233672 -0.245566 0.654182 1.040131 -0.827413 0.638061 0.284914 -0.480014 0.546567 0.039897 0.149192 1.032376 -0.832052 -0.304803
536 -0.269740 -0.009054 0.936980 0.503834 -0.223856 0.016572 0.895345 0.085694 -0.443462 0.024250 0.189563 -0.726313 0.401319 -0.589900 -0.292758 0.429642 1.297562 -0.035193 -1.059242 -0.586078 0.593752 0.053806 -1.167836 0.750017 -0.029933 -0.908842 0.145039 0.258882 -0.110498 -0.349881 -0.098532 0.251227
828 0.307857 0.748312 1.488886 -1.401129 0.208336 -0.613189 1.554676 1.049750 1.117644 -0.130650 -0.048951 0.037492 1.263005 -0.268572 -0.393677 -0.115487 0.607434 -0.101602 -0.033906 0.716961 0.062684 0.035678 -1.351539 -0.061404 -0.822558 -1.191246 0.144247 0.449619 -0.027614 -0.261684 -0.483847 -0.162307
1194 0.003701 0.604533 0.525750 0.380737 -0.270338 0.561632 1.563680 0.661577 -0.346809 -0.113622 -0.891365 -0.027526 0.288144 -0.680203 0.031588 -0.771040 1.458672 -1.352269 1.342703 0.305152 0.727300 -0.092847 -1.031952 0.992520 -0.246768 -0.593032 1.057683 0.561616 0.275526 0.304092 1.176175 -0.202787
920 0.174483 0.125782 1.028869 -0.308714 -0.448519 0.438904 1.782742 0.600853 0.262162 0.145522 -0.097357 -0.748995 -0.988361 0.074713 -1.195375 1.089115 0.591683 0.294095 0.817782 0.753221 -0.164272 0.292920 -1.002984 0.359815 0.685606 -1.318263 -0.287230 0.028314 0.369908 0.029404 -0.394120 0.052209
139 -0.365069 -1.170873 -0.303757 -0.957340 0.443569 0.661963 1.052644 0.720462 0.187087 -0.311761 0.512469 0.015823 -0.102573 -1.017774 -0.534061 0.500982 0.884966 0.144148 -0.305329 0.434302 -0.417656 -0.210215 -1.244643 -0.204746 -0.676202 -2.122483 1.032485 0.042215 0.409650 -0.041952 -0.256766 -0.565341
338 -1.268441 -0.661183 0.822908 -0.117041 0.394044 0.523255 1.067503 0.072669 0.640233 -0.327611 0.354405 0.128780 -0.422047 -0.818986 -0.986094 0.023931 1.021740 -0.514723 0.009937 0.929172 0.382850 0.002252 -1.834882 0.513342 -0.214607 0.250210 0.285505 -0.203874 0.886088 0.902118 -0.768995 0.630431
1156 0.149258 0.098314 1.002325 -0.280347 -0.391943 0.515389 1.767463 0.570529 0.328031 0.135117 -0.075662 -0.847915 -0.977809 0.143949 -1.269402 1.106443 0.601084 0.314901 0.806955 0.833504 -0.157655 0.239500 -1.025938 0.344129 0.708714 -1.418144 -0.278847 0.005878 0.403342 0.024740 -0.430991 0.078606
1225 0.007538 0.559164 0.509282 0.428821 -0.240483 0.544255 1.520986 0.637254 -0.415460 -0.148525 -0.816393 -0.010752 0.293794 -0.685667 -0.047211 -0.793752 1.547294 -1.384557 1.361723 0.352143 0.683694 -0.096312 -0.973076 1.011627 -0.202514 -0.518936 1.009558 0.546618 0.322415 0.350649 1.193311 -0.132507
505 -0.205448 0.017996 0.954008 0.556240 -0.189358 -0.003386 0.903619 0.086132 -0.496749 -0.042184 0.165002 -0.737457 0.387937 -0.572094 -0.302105 0.361937 1.305528 -0.118369 -0.991870 -0.656952 0.595611 0.095971 -1.102943 0.773646 0.118744 -0.889149 0.262758 0.288885 -0.052469 -0.278150 -0.107988 0.254032
917 -0.224734 -0.034251 1.039780 0.519804 -0.149476 0.000878 0.897843 0.118536 -0.484012 -0.051267 0.164419 -0.749481 0.411410 -0.606429 -0.312544 0.431101 1.319744 -0.122916 -0.980017 -0.617449 0.597624 0.095119 -1.123840 0.778737 0.020111 -0.916718 0.262486 0.242357 -0.172970 -0.314761 -0.079649 0.295400
570 -0.184625 -0.025123 1.112537 0.556585 -0.208051 0.011931 0.931567 0.109299 -0.525492 -0.008547 0.181473 -0.739665 0.372551 -0.585266 -0.279325 0.382515 1.340902 -0.137779 -0.960559 -0.713928 0.585574 0.081152 -1.161122 0.729317 0.141596 -0.791796 0.350701 0.236914 -0.139373 -0.277868 -0.057182 0.251025
1108 -1.229262 -0.660626 0.801890 -0.105923 0.435349 0.573047 1.089029 0.087350 0.639804 -0.325284 0.342971 0.137476 -0.362939 -0.778978 -0.978560 0.020959 0.954650 -0.520978 0.019325 0.936121 0.398809 -0.003619 -1.882211 0.571603 -0.249816 0.177137 0.189969 -0.192991 0.874602 0.847213 -0.733390 0.579347
947 -1.222551 -0.683064 0.789043 -0.101723 0.395219 0.511205 1.016837 0.115774 0.595146 -0.294118 0.365375 0.109473 -0.452945 -0.794810 -0.948660 -0.039240 1.046154 -0.512864 0.045585 0.929693 0.367229 -0.000575 -1.802451 0.582216 -0.189284 0.284908 0.286271 -0.144021 0.928371 0.896063 -0.737445 0.600277
53 -0.740392 0.064415 0.042918 0.224154 0.725346 -0.181201 1.275361 0.101981 0.403670 -0.678362 0.035482 -0.460209 1.514893 -0.671294 -1.570285 0.141618 0.755618 -0.065550 0.271027 -0.087621 0.212762 -0.227895 0.158768 -0.185041 0.429299 -0.936125 0.403635 -0.277194 0.437347 0.796161 -0.823845 0.711291
1200 -0.819377 -0.309146 0.450979 0.127001 1.569776 0.254783 0.701552 0.397552 0.162512 -0.057913 -0.925828 0.544637 1.190487 -0.630131 -0.264991 1.283270 -0.135367 -1.079180 -0.149230 -0.101224 0.560851 0.552126 -1.762810 0.717104 0.226285 -1.287272 0.355909 -0.066689 -0.102054 0.030210 0.959336 0.556740
140 -0.330866 0.284979 -0.594666 0.202272 -0.651030 -0.549334 1.283729 0.491853 1.100185 0.204162 0.291956 1.012263 0.296600 -0.785921 -1.102509 0.570843 1.144580 0.297922 -0.826177 -0.253434 0.028077 0.227613 -1.615034 0.650666 0.916257 -1.331095 -0.004168 -0.633297 0.312387 1.420157 -0.175824 -0.168133
1011 0.213320 0.077269 1.076226 -0.301124 -0.436831 0.518348 1.734263 0.537387 0.232011 0.114170 -0.107790 -0.799191 -0.938482 0.096680 -1.244377 1.103873 0.562820 0.287767 0.855811 0.767799 -0.191729 0.280406 -1.019323 0.331660 0.688447 -1.359827 -0.294035 -0.014091 0.360658 0.057610 -0.404791 0.084193
489 -0.174417 -0.001863 1.015729 0.538241 -0.169362 -0.042262 0.866678 0.098610 -0.446962 -0.043909 0.220196 -0.712414 0.397848 -0.599232 -0.343407 0.430611 1.310134 -0.123176 -1.004618 -0.639769 0.558599 0.117286 -1.058127 0.764840 0.014869 -0.856536 0.275848 0.306580 -0.105020 -0.263011 -0.104304 0.172241
477 -0.147212 -0.022155 0.938342 0.549339 -0.168270 0.001521 0.871153 0.059849 -0.485422 -0.055485 0.149193 -0.764902 0.398775 -0.583146 -0.341423 0.479531 1.339777 -0.095118 -0.974049 -0.639409 0.555704 0.096863 -1.125389 0.704142 0.117971 -0.902990 0.223726 0.246344 -0.094007 -0.273069 -0.080492 0.273988
498 -0.232382 -0.019707 0.851973 0.550017 -0.182651 -0.008973 0.912780 0.159203 -0.538192 -0.069791 0.204658 -0.725752 0.369350 -0.593060 -0.237745 0.446869 1.322554 -0.076018 -1.019912 -0.596755 0.532771 0.079116 -1.097575 0.712086 0.076709 -0.924307 0.271498 0.271698 -0.133874 -0.279534 -0.131260 0.260861
1133 0.395123 0.030532 0.550955 -0.968252 -0.600394 0.185128 1.839194 -0.021800 -0.042005 -0.842462 -1.006386 0.942156 -0.308292 -1.927213 -1.114317 0.294183 0.476678 -0.549399 0.141691 0.517838 0.707685 -1.062717 -0.515960 0.066888 -0.009365 -0.625736 0.165246 0.555939 -0.163056 0.113260 -0.176670 0.959923
1279 -0.721723 0.046759 0.058167 0.257112 0.679588 -0.203184 1.325576 0.114320 0.326948 -0.683550 0.060714 -0.464364 1.445870 -0.672944 -1.478145 0.177465 0.756994 -0.124445 0.280151 -0.099995 0.180432 -0.247666 0.161544 -0.213148 0.465379 -0.928436 0.393234 -0.261745 0.411052 0.778269 -0.791992 0.725668
1233 -0.041385 0.393782 0.270801 -0.205555 -0.122253 0.989700 1.004752 0.624139 1.581951 0.651323 -0.925348 -0.349774 0.675275 -1.592996 0.116508 0.354122 0.629770 -0.193615 -0.034425 -0.082109 0.197383 -0.277827 -0.727601 1.053516 -0.145782 -0.839046 0.469586 -0.181335 0.846839 0.331999 0.027143 1.322100
1046 -0.201549 0.010249 1.053378 0.583594 -0.139419 0.003204 0.886512 0.065583 -0.527659 -0.077622 0.116409 -0.759984 0.413908 -0.559853 -0.342561 0.444221 1.360610 -0.166941 -0.976846 -0.670428 0.607648 0.133325 -1.058580 0.803316 0.151314 -0.831463 0.268187 0.258579 -0.109298 -0.240245 -0.041920 0.271957
374 -0.366371 0.252542 -0.633592 0.195424 -0.654133 -0.486951 1.286042 0.483521 1.074892 0.199422 0.280939 0.966110 0.296064 -0.812321 -1.107532 0.525600 1.167041 0.335869 -0.816058 -0.275524 -0.022661 0.228341 -1.598321 0.630059 0.893165 -1.349741 0.008649 -0.616500 0.320239 1.403224 -0.176805 -0.177626
551 -0.179507 0.008045 0.932317 0.583785 -0.163713 -0.031242 0.943222 0.150640 -0.546101 -0.104881 0.172067 -0.729886 0.349769 -0.595968 -0.228577 0.389386 1.352259 -0.146011 -1.015676 -0.643718 0.547255 0.104936 -1.087808 0.684218 0.122835 -0.845067 0.282625 0.229703 -0.120018 -0.256374 -0.122861 0.263701
133 -1.048462 0.413207 1.056096 -0.212389 -0.309537 0.835725 -0.002794 0.767424 1.165855 -0.341378 0.346481 0.258007 0.723945 -0.450933 -0.982234 0.055773 0.693208 -0.615867 0.565220 0.073950 0.359551 -0.044827 -0.617502 0.987525 0.470763 -1.592713 0.044681 0.429615 0.980455 0.197014 -0.248009 -1.006489
860 -0.763047 0.019898 -0.018159 0.276785 0.711768 -0.188632 1.340828 0.066718 0.377928 -0.698246 0.032668 -0.511039 1.477654 -0.648507 -1.483549 0.079668 0.759422 -0.167304 0.282973 -0.095466 0.209607 -0.253330 0.215261 -0.169273 0.450434 -0.910868 0.379536 -0.246151 0.410535 0.785290 -0.800847 0.735998
211 -1.009622 0.443616 1.024560 -0.161104 -0.274388 0.918177 -0.033084 0.720511 1.152205 -0.359372 0.353973 0.300174 0.671397 -0.384124 -0.928782 0.041788 0.670947 -0.641008 0.548232 0.132189 0.381652 -0.036674 -0.552167 1.025940 0.470986 -1.535720 0.048908 0.466020 0.967777 0.202762 -0.213151 -1.006323
729 -1.328787 1.212598 0.316984 -0.621732 0.360247 0.465364 1.833868 0.546457 -0.170257 -0.108923 -0.711320 -0.618636 -0.191759 -0.984503 -0.256873 0.670297 1.116163 -0.041163 0.457047 1.049080 0.948863 -0.270991 -1.444265 -0.416435 -1.060212 -0.882332 0.294886 -0.954234 -1.081722 -0.531030 -0.344101 0.312746
1121 -0.302187 0.008815 0.923084 0.546416 -0.230805 0.034508 0.946320 0.123782 -0.531916 -0.028795 0.157659 -0.676786 0.331271 -0.589915 -0.271845 0.430722 1.337083 -0.065334 -1.034829 -0.647690 0.631999 0.079932 -1.155409 0.689056 0.106735 -0.838842 0.241491 0.258032 -0.149285 -0.359380 -0.096375 0.346421
948 0.170805 0.142319 1.082083 -0.294726 -0.414215 0.480046 1.721272 0.497352 0.356927 0.134479 -0.136090 -0.813588 -0.827556 0.081230 -1.117216 1.150286 0.539197 0.318880 0.902820 0.682213 -0.093484 0.272617 -1.096507 0.322254 0.787708 -1.338374 -0.288026 -0.038185 0.419367 0.058461 -0.471472 0.145922
512 -0.297610 0.012241 0.956127 0.541993 -0.242397 0.007339 0.936237 0.123267 -0.470475 -0.022673 0.181425 -0.691460 0.333881 -0.637864 -0.353066 0.435581 1.284356 -0.034182 -0.993322 -0.639987 0.579478 0.075999 -1.161348 0.726999 0.112440 -0.843945 0.211816 0.221684 -0.119586 -0.291145 -0.129709 0.302859
93 -1.046647 0.449332 1.079952 -0.161633 -0.312520 0.874885 -0.007563 0.753628 1.098514 -0.336632 0.355676 0.255955 0.644832 -0.387827 -0.897910 0.055243 0.662578 -0.615180 0.539854 0.122740 0.389213 -0.068787 -0.539942 0.990945 0.469921 -1.523322 0.013677 0.472786 0.962605 0.212623 -0.235629 -1.000813
1192 0.174141 0.164599 1.183483 -0.243601 -0.427531 0.537793 1.633724 0.427475 0.380086 0.108687 -0.144452 -0.832732 -0.760993 0.059626 -1.040831 1.188704 0.431232 0.381056 0.980426 0.624069 -0.083058 0.300159 -1.081071 0.336956 0.870449 -1.282966 -0.327682 -0.042388 0.449338 0.096152 -0.551928 0.175870
235 -0.803723 0.085352 0.031066 0.305685 0.684166 -0.181100 1.348390 0.072519 0.377312 -0.706636 0.013474 -0.530317 1.512758 -0.645851 -1.511808 0.077511 0.762861 -0.140625 0.344911 -0.079658 0.223027 -0.270486 0.142484 -0.118023 0.422918 -0.910461 0.404282 -0.246409 0.444827 0.819731 -0.783141 0.718814
149 -0.025779 0.348287 0.333676 -0.236796 -0.157906 1.009782 0.891954 0.626592 1.592514 0.590963 -0.915347 -0.285431 0.726983 -1.619268 0.118314 0.403695 0.537127 -0.297465 -0.076870 -0.143681 0.272592 -0.269928 -0.739464 1.160134 -0.085594 -0.850176 0.412422 -0.165412 0.763548 0.402632 0.053939 1.332726
519 -0.216597 -0.014770 1.008434 0.570808 -0.195472 0.038279 0.861312 0.057237 -0.461919 -0.057296 0.200183 -0.767687 0.394472 -0.599892 -0.325980 0.462325 1.388252 -0.118641 -0.978079 -0.659112 0.511993 0.089820 -1.125639 0.714355 0.043784 -0.921578 0.269700 0.320723 -0.170364 -0.267669 -0.047915 0.202176
255 -0.739606 0.049536 0.111649 0.245678 0.662847 -0.197500 1.328022 0.082882 0.381164 -0.643108 0.036151 -0.485095 1.496212 -0.698318 -1.471755 0.079861 0.707446 -0.089633 0.310450 -0.110495 0.176075 -0.244084 0.186519 -0.171641 0.425709 -0.900011 0.385598 -0.270430 0.420984 0.792672 -0.797423 0.676338
619 -0.391213 0.171182 0.386078 0.114492 -0.165762 1.154275 0.898515 -0.953185 0.771607 -0.566690 -0.664805 0.092175 0.035017 -0.337569 -0.020015 0.112370 0.037261 -0.143466 0.145124 0.271562 -0.336829 0.019576 -1.698439 -0.608236 0.340254 -1.755490 0.321495 0.662599 0.082562 1.581300 -0.029950 0.383399
237 -0.272326 0.261037 0.452112 0.175417 -0.088649 1.016082 0.861559 -0.871799 0.793057 -0.547764 -0.582337 -0.006637 0.175572 -0.314671 0.059167 0.015036 0.085783 -0.237992 -0.001089 0.289182 -0.301855 -0.032858 -1.704418 -0.554048 0.304411 -1.739123 0.292118 0.638954 0.042733 1.625541 -0.019073 0.385842
60 -0.068261 0.369146 0.294909 -0.233402 -0.218369 0.974820 0.912267 0.620794 1.574366 0.618228 -0.929374 -0.321956 0.704040 -1.640605 0.145562 0.381129 0.550435 -0.304697 -0.052948 -0.164043 0.238751 -0.308568 -0.744780 1.125204 -0.126596 -0.859591 0.378921 -0.157560 0.786852 0.397962 0.048696 1.349502
867 -1.005881 0.456627 1.023231 -0.120463 -0.294212 0.829800 -0.019622 0.724534 1.122393 -0.331710 0.320886 0.253772 0.683072 -0.394693 -0.944641 0.068646 0.670123 -0.610119 0.546085 0.084689 0.370793 -0.017356 -0.578321 1.012350 0.534767 -1.539114 0.012697 0.444902 0.979596 0.213780 -0.218485 -0.965951
578 -0.261893 0.044903 0.995471 0.549393 -0.136133 -0.020504 0.937584 0.152215 -0.466925 -0.085317 0.150576 -0.780159 0.404216 -0.557355 -0.317333 0.439951 1.301338 -0.137389 -0.952995 -0.619482 0.594709 0.100716 -1.092854 0.741951 0.019797 -0.904132 0.279497 0.266701 -0.182776 -0.304381 -0.069483 0.250886
73 -1.030601 0.423802 1.049620 -0.155889 -0.295840 0.881154 0.020104 0.732405 1.167769 -0.371064 0.387768 0.218112 0.688977 -0.389310 -0.958371 0.015421 0.664112 -0.572685 0.545279 0.098909 0.365796 -0.067779 -0.539182 0.985606 0.434760 -1.611351 -0.028830 0.437188 0.959372 0.155167 -0.252415 -1.004646
898 -0.433327 0.141192 0.454612 0.114892 -0.120914 1.175760 0.896610 -0.960960 0.787707 -0.546337 -0.679304 0.058008 0.078677 -0.299476 -0.039610 0.243573 -0.008325 -0.211977 0.256244 0.254359 -0.394401 0.040039 -1.674844 -0.574483 0.300580 -1.726179 0.356416 0.721729 0.071868 1.473321 0.002713 0.358703
94 -0.261345 0.162194 -0.809493 0.189327 0.370227 0.862752 0.862599 0.616144 1.143844 -1.013295 -0.308864 -0.364962 0.050586 -0.939139 -1.436684 1.095920 0.276368 -0.135331 -0.704924 1.060062 0.533423 1.306693 -0.688496 0.627206 -0.130089 -1.642943 -0.365220 0.802977 0.357664 0.080436 -0.620072 0.897687
1214 -1.113054 -0.756818 -0.451337 -0.200993 0.268723 0.767508 1.565184 0.956686 -1.126296 0.143797 -1.563940 0.279881 0.360220 -1.225088 -0.676001 1.047410 0.065694 -0.586103 1.154940 0.508965 -0.106134 -0.132207 -0.584627 -0.228543 0.375021 -1.311454 0.424830 1.297760 0.661326 0.945441 0.712285 -1.039466
475 -0.220193 0.035414 0.982850 0.512592 -0.218096 -0.042870 0.935789 0.126391 -0.523791 -0.071549 0.152145 -0.704220 0.382601 -0.587181 -0.252766 0.437982 1.426028 -0.186779 -1.012822 -0.660810 0.569729 0.034626 -1.102229 0.689766 0.016085 -0.901829 0.274740 0.318635 -0.149696 -0.300896 -0.057287 0.184122
926 -0.354537 -1.146597 -0.309512 -0.963722 0.396721 0.699665 1.026301 0.671597 0.196406 -0.307006 0.520920 0.030685 -0.102127 -1.022123 -0.524792 0.484846 0.862749 0.188384 -0.261668 0.424478 -0.440400 -0.237898 -1.214464 -0.201075 -0.717060 -2.083193 1.035523 0.007375 0.406295 -0.095435 -0.262310 -0.590846
382 0.171411 2.113706 1.138632 -0.130760 -0.052966 0.322243 1.449952 -0.286566 0.529286 -0.991820 -1.168840 -0.531660 0.460285 -0.681174 -0.753742 -0.549300 0.454061 -0.873199 0.248657 -0.183932 0.633634 1.052893 -0.775443 0.639830 0.312392 -0.452987 0.518866 0.021150 0.117130 1.060431 -0.800683 -0.301411
969 -0.258679 -0.006526 0.970582 0.521391 -0.198454 -0.002902 0.931055 0.118346 -0.532369 -0.063310 0.196453 -0.731619 0.376127 -0.618471 -0.257001 0.368006 1.354833 -0.069040 -1.020408 -0.599208 0.575487 0.080434 -1.099916 0.698654 0.054113 -0.838209 0.252987 0.257938 -0.127350 -0.344893 -0.134369 0.260264
