483 32
14 0.510931 -0.386268 1.415290 -0.556726 1.053599 0.779722 -0.024350 0.162863 -0.166562 -0.154876 -1.231058 -1.288131 -0.342804 -0.241905 0.717307 -0.160355 0.226205 -0.016690 -0.670363 -1.955164 0.771332 -0.608075 -0.134367 -0.116585 -0.082150 -0.175650 0.724623 1.946509 -1.192625 1.192853 0.448749 0.136195
259 1.590186 0.614690 0.971891 0.513641 -0.890581 -0.212730 -0.013867 1.107825 0.324779 -0.189792 -0.241644 -0.827832 -0.667517 1.258389 -0.039012 -0.279563 0.139853 -0.165355 -0.309794 -1.029182 0.187309 -1.159812 -0.647469 -0.937986 0.187813 -0.736094 0.211157 0.337905 0.888171 0.880874 0.518305 0.246086
54 0.259079 0.025082 0.519862 1.072917 0.253183 0.558035 0.204902 0.153980 -0.475371 -0.837967 0.196184 -1.132812 0.211192 0.171547 0.762260 -0.743294 0.574576 0.439625 -1.162825 -1.134865 -0.384616 -0.025216 -0.709080 -0.436871 0.151112 -0.516575 0.369870 0.319432 -0.091924 -0.398287 0.006254 -0.189474
239 0.296609 -0.022491 0.563689 1.055006 0.279184 0.533442 0.185439 0.157899 -0.468604 -0.853426 0.221665 -1.094493 0.146773 0.182456 0.755041 -0.684257 0.541658 0.454331 -1.189195 -1.179013 -0.414812 -0.051229 -0.696653 -0.387261 0.143610 -0.505302 0.386983 0.280243 -0.083648 -0.380193 -0.029845 -0.222965
120 -0.374405 -0.423441 0.494177 0.484676 -0.913246 -0.133805 -0.804174 0.429383 0.557715 -0.755728 -1.169922 0.315223 -0.589064 -0.336143 0.886162 -0.172482 1.220071 0.218242 -1.273990 -0.880052 0.474532 -0.786832 -1.371908 -1.258789 -1.153469 -0.834485 0.341687 0.294862 -0.223622 0.939645 0.490088 -0.289187
12 0.850269 0.191771 0.294300 0.161758 -0.174133 -0.081035 -0.702723 0.216242 0.642118 0.385295 0.200802 -0.052996 0.874816 -0.854738 0.338442 -1.032654 -0.654373 0.821339 -0.666791 -2.002906 -0.523375 -0.022026 0.060717 -1.388274 0.705395 -0.397759 0.563691 0.510151 0.495723 0.774107 1.122669 -0.541771
13 0.799789 -0.255504 -0.143731 0.274866 -0.168504 0.324961 -0.662182 0.237919 0.613839 0.008005 -0.819484 -0.717307 0.830162 -1.028439 1.632703 -0.432632 -0.475297 -0.184987 -1.412027 -0.989590 0.437643 -1.456159 -1.163452 0.146947 0.222042 -0.407781 0.664288 0.187024 1.220308 0.333463 0.308074 1.196534
7 0.814112 -0.259565 -0.233156 0.257777 -0.178749 0.339791 -0.660800 0.292578 0.579960 0.003158 -0.779862 -0.693045 0.811176 -1.005208 1.592191 -0.452704 -0.498588 -0.184905 -1.400036 -0.954221 0.443207 -1.378953 -1.077242 0.246157 0.322329 -0.414148 0.589787 0.202430 1.168766 0.270066 0.348380 1.127905
20 -0.056280 -0.260005 -0.480645 0.844526 0.172134 -0.557058 -0.312603 0.927512 -0.403513 -0.705654 -0.569291 -0.760361 0.624633 -0.156080 0.030448 -0.561564 -0.368561 -0.038888 -0.697290 -1.358011 0.052490 -1.264747 0.774040 -0.995290 -0.566986 -0.357703 0.728166 0.041125 0.640331 0.965163 -0.361337 0.134669
51 -0.045591 -0.233751 -0.508763 0.880395 0.192364 -0.526508 -0.342508 0.935998 -0.468316 -0.706771 -0.541588 -0.737753 0.547061 -0.160669 0.040488 -0.552350 -0.365930 0.005167 -0.716279 -1.332703 0.072689 -1.256467 0.815078 -0.987679 -0.616000 -0.355951 0.733408 0.032241 0.667477 0.964951 -0.370935 0.080591
2 1.017622 0.373511 -0.174910 -0.395585 -0.146851 -1.071905 0.111732 -0.199417 -0.371624 -0.002448 -0.969305 -0.270566 0.721300 -0.573093 0.608951 -1.414871 -0.933229 -1.344603 -0.324501 -1.531940 -0.240102 -1.009700 -1.428742 -0.507940 -1.304350 -0.634486 -0.252076 0.753100 -0.016517 0.457247 0.731468 0.074963
19 1.068656 0.331095 -0.167673 -0.428121 -0.135601 -1.090016 0.133733 -0.206807 -0.340653 0.023782 -0.972394 -0.239091 0.732349 -0.559221 0.639143 -1.412723 -0.915486 -1.322549 -0.379837 -1.503702 -0.226208 -0.999845 -1.380882 -0.502137 -1.339980 -0.564003 -0.265616 0.723860 -0.040484 0.441456 0.725419 0.064380
0 0.457737 -0.598121 0.482643 -0.569790 -0.558728 1.270951 -1.168976 0.064358 -1.371268 -1.015981 -0.656484 -0.820903 0.454663 0.397324 0.590964 0.696395 -0.300294 0.284726 -0.674927 -1.611602 -0.395882 -0.524205 -1.123961 -0.659881 -0.670476 -0.823721 0.921823 0.140760 0.601204 0.533124 1.728973 0.157024
27 1.111358 -1.026117 -0.923708 -0.191462 0.475797 0.230296 0.208940 1.134233 -0.633683 0.568067 -0.972958 -2.096666 0.409929 0.564027 -0.003717 -1.256804 1.106062 -0.594892 -0.605179 -1.432108 0.752820 -0.359351 -0.909139 -0.138497 0.020924 -1.455401 -0.214336 0.773712 0.496961 1.030363 -0.057525 -0.493457
302 0.624177 1.088844 -0.825273 0.812716 0.812523 -0.852411 0.450080 0.726751 -1.281797 -0.875587 -0.617217 -1.031802 -0.270889 0.405519 0.806608 0.734640 -0.124622 -0.189205 -0.727799 -1.347304 0.465982 -1.804758 -1.068470 -0.236854 -0.136375 -0.868973 -0.320980 1.666072 0.256860 0.294054 0.492540 -0.204800
22 0.011395 -0.235886 -0.477756 0.861861 0.201212 -0.567688 -0.382926 0.930147 -0.454994 -0.710918 -0.594690 -0.799772 0.617797 -0.176750 0.053437 -0.581300 -0.413934 -0.024501 -0.695452 -1.350999 0.069622 -1.309639 0.780600 -1.018350 -0.568671 -0.360899 0.699391 0.040549 0.678984 1.011827 -0.384179 0.079810
25 0.809339 -0.177234 -0.396368 0.624047 0.456001 0.101262 -1.559513 0.907673 0.056715 -0.908875 -0.117605 -0.123359 -0.313493 0.192708 -0.151093 -0.368822 0.067708 -0.443626 -1.174719 -0.528007 -0.141560 -0.867959 -0.606608 -0.514859 0.086867 -1.600209 -0.690462 0.242704 0.306431 0.375374 0.445756 -1.389571
10 0.816253 -0.176456 -0.439546 0.642948 0.508963 0.110301 -1.522680 0.972202 0.083494 -0.921406 -0.104147 -0.090460 -0.321791 0.217634 -0.206944 -0.355310 0.115319 -0.435812 -1.201688 -0.586547 -0.141972 -0.895004 -0.611559 -0.512447 0.051465 -1.626757 -0.657430 0.230821 0.322793 0.400152 0.458713 -1.413487
4 0.788323 -0.118296 -0.358509 0.564147 0.509861 0.075068 -1.542561 0.883373 0.054906 -0.888659 -0.169573 -0.119328 -0.233645 0.188969 -0.156946 -0.393965 0.063232 -0.424328 -1.168691 -0.548558 -0.157932 -0.887924 -0.565370 -0.557023 0.084333 -1.565108 -0.686722 0.250921 0.282908 0.360649 0.474293 -1.410128
1092 0.238259 1.554448 0.253794 1.213850 -0.294456 0.091587 -0.736670 1.180699 0.283216 -0.780159 -0.761286 -0.229687 0.521953 -1.215572 0.029635 -1.379294 1.048432 -0.989792 0.026653 -1.132954 -0.431180 -0.783596 -0.970304 -0.590046 -0.780904 0.098107 0.923168 0.584688 -0.024100 0.624653 0.765413 0.257779
897 0.661112 0.443399 0.034369 0.195163 0.886100 1.193999 -0.687548 -0.084269 0.476194 -1.019360 -0.278511 -0.591665 0.579889 0.714966 0.226910 -0.556829 -0.249865 -0.685479 0.150170 -1.333722 -1.218133 -1.158191 -0.976055 0.019728 -0.172681 -0.161037 -0.046445 0.615372 0.449225 1.555429 -0.137990 0.582426
350 0.282484 0.382073 0.943080 -0.699852 0.060516 -0.607009 0.417333 0.824539 1.518306 -1.144343 -0.658290 -0.379913 0.649420 -0.104092 -0.494621 -0.129730 1.171990 -0.049230 -0.911839 -2.363346 -0.534622 -0.937382 -0.949218 -0.668402 0.150910 -0.442141 -0.196783 0.890039 -0.334108 0.532268 0.566921 -0.677817
240 0.110562 1.528016 0.253465 1.263340 -0.219686 0.055000 -0.652446 1.093150 0.264891 -0.656641 -0.754178 -0.371944 0.449625 -1.193852 -0.014891 -1.420424 1.073442 -0.949900 0.088064 -1.145877 -0.422680 -0.899416 -1.036856 -0.573658 -0.660384 0.012559 0.926281 0.547516 0.078390 0.584276 0.764241 0.135801
476 -0.922007 1.210434 -0.086816 0.135575 0.157709 -0.296932 -0.286734 0.476791 0.221642 -0.432449 -0.652522 -1.238709 0.976914 0.794839 0.642079 -1.462467 -0.399798 -0.109197 -0.904377 -1.063067 0.254115 -0.734672 -0.664688 -0.566159 0.728907 -1.376648 -0.780791 0.038986 1.136528 0.478686 1.314003 -0.116868
1270 -0.064266 -0.234654 0.116751 0.803258 1.137130 -0.317667 -0.887837 0.659970 0.446167 -0.168441 -1.133562 -0.664244 0.376339 1.545944 0.386540 0.009974 -0.728269 -0.748538 -1.426893 -1.498710 0.407597 0.159184 -1.115305 0.410548 -0.519056 -0.483249 0.821158 0.128425 -0.055596 0.302345 0.467304 -0.079345
36 -0.120125 -0.220506 0.148153 0.809147 1.132503 -0.333342 -0.874377 0.701609 0.370820 -0.138843 -1.147275 -0.803532 0.457632 1.403489 0.432939 -0.002472 -0.823400 -0.860428 -1.354723 -1.453643 0.343226 0.236845 -1.168292 0.481948 -0.496095 -0.534431 0.801207 0.060779 -0.046024 0.275185 0.572772 -0.025175
308 -0.220350 -0.854718 0.429254 0.504078 0.893703 -0.620475 -0.279523 0.296090 -0.174965 -0.279995 0.219142 -0.714576 -0.210344 -0.565121 0.246339 -0.681518 0.021942 -0.873326 -1.348723 -0.625138 -0.090416 -0.260136 -1.922542 -0.829256 0.062353 -0.347644 0.084645 0.123183 1.281000 1.600088 -0.386072 0.118275
415 0.978189 0.086334 0.907418 0.416061 -0.165883 -0.500669 -0.588504 0.931317 -1.022663 0.070224 -1.263274 0.313592 -0.259328 0.063619 1.103037 -0.515090 -0.375600 -0.744895 -0.909427 -1.208621 0.163193 -0.267553 0.159017 -1.391493 -0.198333 0.326079 0.475479 0.003930 -0.411664 2.153082 1.141820 -0.104849
513 -0.872754 1.199423 -0.073089 0.109881 0.216493 -0.304737 -0.231967 0.498214 0.292024 -0.416109 -0.659101 -1.236255 0.989698 0.847623 0.562875 -1.496563 -0.378657 -0.128152 -0.944242 -1.078931 0.216141 -0.735992 -0.619905 -0.564537 0.729875 -1.410441 -0.818460 0.059140 1.091869 0.451072 1.331145 -0.148954
80 0.259404 0.061445 -1.109924 1.476863 0.988800 0.856206 -0.856185 0.837425 0.732509 -1.192914 -0.691348 -0.461778 -0.016861 -1.079713 -0.614375 -0.271151 -0.609767 0.454766 -1.477309 -1.024408 0.109265 0.600687 -1.024650 -0.284198 -0.310695 -0.906344 0.050550 0.983893 0.742792 0.750915 0.120507 0.791925
304 -0.282299 -0.765471 0.399568 -0.463100 0.173017 -0.361051 0.076150 1.074744 0.109738 -0.145687 0.200246 -0.820973 0.144317 0.177659 0.399998 -0.577683 0.069498 -0.418358 -0.607498 -1.088226 -0.647287 0.149272 -0.517960 -0.858827 -1.559038 -1.972102 0.581122 1.372390 -0.317364 0.833875 0.703841 -0.974206
696 1.019683 0.248884 0.323869 0.462537 -0.046518 0.037954 -0.735307 0.222902 0.817801 0.191858 -0.158847 -0.355230 1.134989 -0.847482 -0.007744 -1.114792 -0.617897 1.045181 -0.458623 -1.688059 -0.481716 -0.098656 0.063420 -1.276647 0.857185 -0.427921 0.471327 0.703521 0.499834 0.791588 0.944833 -0.673319
11 -0.263076 -0.824497 0.418515 -0.558783 0.119314 -0.320188 0.028054 1.084124 0.138466 -0.197171 0.183491 -0.839690 0.206194 0.129917 0.507093 -0.624760 0.078381 -0.436805 -0.637891 -1.039668 -0.685113 0.171233 -0.548543 -0.812583 -1.546516 -1.987103 0.483242 1.314527 -0.276546 0.865904 0.693598 -0.966999
89 0.865863 0.069207 1.007971 0.374110 -0.159512 -0.478497 -0.543184 0.958960 -1.106981 0.114500 -1.165488 0.250700 -0.305077 0.071919 1.057564 -0.563133 -0.370916 -0.850263 -0.865340 -1.181977 0.152242 -0.191890 0.219739 -1.345672 -0.157313 0.256949 0.446343 -0.072586 -0.495902 2.112019 1.111990 -0.167600
428 1.475914 0.547716 -0.576475 0.464935 1.047836 0.212040 -0.059828 0.051086 -0.507561 -0.347536 -0.720585 -0.245819 0.387084 -0.998514 0.616064 0.346614 1.231482 0.805275 -0.826549 -1.446139 -0.482655 -0.188358 -0.827108 -0.297804 -0.700442 -0.071848 0.316966 0.725721 0.459997 1.695718 1.011407 -1.118545
792 0.729470 0.940963 -0.497684 -0.909908 -0.565778 1.207247 -0.677537 0.912431 -0.135195 0.382938 -0.175483 -1.519355 0.217440 -1.088403 0.959546 -0.089340 0.854241 -0.681381 -1.344640 -0.552446 -1.254462 -0.300847 -0.221745 -1.738155 0.116919 -1.249858 0.095671 1.076260 0.332939 0.880042 0.840646 0.206225
935 1.270788 0.256840 -0.123621 1.421216 1.012132 -0.345588 0.066628 0.702639 -0.732557 0.892545 -1.431533 0.267338 -0.062566 0.448917 -0.152250 -0.146105 -0.454103 -0.944108 -0.971143 -1.561923 -0.876636 -0.061535 -0.238636 -0.684094 -0.629905 -1.669944 -0.396022 1.229171 -0.469743 0.821235 0.018255 0.316665
524 0.489712 0.089320 0.258568 0.621374 0.247688 -0.106018 -0.451700 0.596306 -0.006018 -0.602319 -0.704695 -0.802152 0.079786 -0.143826 0.461772 -0.583205 0.007586 -0.241567 -1.221354 -1.347826 -0.205278 -0.530831 -0.727929 -0.707166 -0.110521 -0.783206 0.316346 0.837592 0.344620 0.902627 0.557115 -0.043213
28 -0.053862 -0.518502 1.153184 0.319110 -0.397652 0.348561 0.268305 0.069234 0.215142 -0.929430 -1.194299 -1.587892 -0.480108 0.520331 0.956381 -0.225984 -1.236421 -0.200959 -0.349168 -1.812364 -1.205371 1.164183 -0.451669 -0.998927 -0.482386 -0.101493 -0.594825 1.895283 0.706236 0.887129 1.187147 0.404296
704 1.440307 0.652855 -0.721152 0.241934 0.117358 1.091951 0.278193 1.387287 -0.456211 0.005534 -1.696929 -1.122396 1.225715 -0.167777 0.828999 -1.010971 -1.297055 -0.615736 -0.529783 -0.896213 -0.067678 0.763676 -0.568500 -0.147807 -0.474432 0.275642 0.656664 1.833785 -0.093934 1.468728 0.685397 0.460385
76 0.257547 0.975052 -0.140932 0.403703 -0.490791 0.762556 -0.285215 1.385906 -0.427206 -0.935382 -1.950856 0.657885 -0.298169 -0.726434 0.965000 -0.508493 0.506584 -0.443879 -0.275256 -1.396692 -1.371383 1.274562 -1.171776 -1.176438 0.119904 -0.896946 -0.401389 1.492188 0.336089 1.233684 1.283433 0.523585
1218 1.212150 0.093711 -0.783959 -0.338538 1.882334 0.758753 0.319140 0.396396 -0.877109 -0.769670 -1.059256 -1.321694 0.010065 -0.277549 -0.081817 -1.177068 -0.314297 -0.604899 -1.536766 -0.998676 -2.175958 -0.415208 0.190721 -1.117307 0.225427 0.007701 0.869957 1.114980 0.341654 0.622546 0.451849 -0.656925
215 0.615191 0.109022 0.435347 0.464567 0.107321 -0.233467 -0.324015 0.503074 0.280579 -0.272883 -0.518079 -0.937348 -0.052048 -0.074084 0.438707 -0.723661 -0.277523 -0.323612 -1.239618 -1.473968 -0.617470 -0.716240 -0.808432 -0.882688 -0.024148 -0.784393 0.355433 0.526218 0.214763 0.715797 0.441114 -0.177883
910 0.708180 0.255369 0.189570 0.536905 0.194825 0.017001 -0.381071 0.714234 0.063457 -0.557297 -0.860483 -0.944894 0.194632 -0.019735 0.573671 -0.772109 -0.119732 -0.281942 -1.283935 -1.527095 -0.326383 -0.629385 -0.931276 -0.845333 -0.132452 -0.961515 0.243383 0.838679 0.299270 0.905860 0.575644 -0.163861
844 0.727541 0.998022 1.028632 0.789795 1.103585 0.308978 -0.250572 -0.181900 -0.152656 -0.191133 -0.577032 -0.164766 -0.094160 -0.233029 0.208824 -0.385323 -0.745179 -0.958386 -0.411879 -1.149069 0.461264 -1.307685 -0.962025 -2.340787 0.196501 -0.412626 1.560883 1.512284 -0.044462 0.010287 -0.319862 0.359536
1162 1.118998 -0.166404 1.477194 0.233605 0.083856 1.154133 0.088918 0.824685 0.571293 -0.943519 -1.051811 -0.066141 0.691289 -0.367850 0.716487 -0.258504 0.898311 0.027053 -1.685115 -1.048248 -1.415728 -0.031548 0.611021 -1.566500 -1.470954 0.089752 1.029556 0.643395 -0.127949 1.041109 0.367581 -0.482504
155 0.424527 0.149263 -0.000231 0.086715 -0.658345 -0.429637 -1.225173 0.467783 -0.329456 -0.651333 -0.499296 -1.267652 0.100740 -0.997986 0.639438 -0.401583 -1.584827 -0.879877 -1.209159 -1.070265 -1.427258 0.553517 -1.154944 -0.725663 0.831358 -0.791358 -0.008065 1.058035 -0.240384 0.118962 -0.261995 0.133120
1268 0.527579 -0.843758 -0.073386 0.384685 0.049478 -0.829361 0.263715 -0.706783 0.645584 -0.297417 -0.951710 -1.234440 -0.544801 0.164831 -0.240639 -0.827716 -0.290379 -0.511473 -0.789825 -1.502067 -0.552242 -0.629247 -0.241152 -0.185104 1.024201 -1.660949 0.602933 0.849900 -0.142178 0.741274 0.748788 0.239946
153 -0.378285 -0.414149 0.472721 0.548248 -0.888937 -0.134945 -0.804937 0.320948 0.582983 -0.766436 -1.035452 0.313850 -0.543859 -0.332126 0.866777 -0.296869 1.138463 0.291956 -1.245411 -0.928869 0.527531 -0.856742 -1.327858 -1.294020 -1.022246 -0.867842 0.409047 0.161746 -0.079228 0.797303 0.438605 -0.184698
763 1.127760 0.252878 0.415277 0.727363 0.108540 0.178922 -0.839804 0.234086 0.871123 -0.092277 -0.688546 -0.747941 1.475473 -0.797375 -0.258733 -1.131723 -0.541307 1.197713 -0.212141 -1.408586 -0.458762 -0.105316 0.081004 -1.056343 0.790057 -0.519294 0.255063 0.975461 0.295133 0.862844 0.581290 -0.810328
816 1.674129 0.787229 0.947212 -0.463535 0.857955 -0.716088 -0.250015 1.296447 1.018834 -0.156582 -0.385200 -1.209867 1.030525 0.658912 0.974915 -1.237915 -0.547388 -0.118094 -1.320395 -0.551309 -0.717731 -0.939534 -0.114567 -0.745237 -0.724321 -0.822119 -0.120186 1.105706 0.036053 -0.410544 -0.154967 -0.177805
709 -0.409368 1.099631 -0.311972 -0.407042 0.891254 -0.432136 0.244297 0.156334 0.364736 0.303268 -0.658812 -1.400270 -0.000173 -0.714164 1.230538 0.162763 -0.420467 0.781268 -1.779275 -0.988982 -0.916081 -0.554760 -1.544163 -1.307203 -1.494163 -1.001582 0.523292 0.297976 0.362603 0.068877 0.492571 -0.144299
405 1.296266 0.198514 -0.131798 1.490515 1.011352 -0.355340 0.056354 0.698740 -0.740864 0.857827 -1.393324 0.259305 -0.073614 0.387052 -0.127921 -0.143057 -0.422719 -0.923300 -0.964930 -1.534881 -0.846863 -0.067694 -0.256920 -0.628118 -0.650365 -1.671153 -0.350008 1.291995 -0.437359 0.856454 0.004931 0.354722
206 0.472102 0.336361 0.116419 0.142121 -0.816723 -0.338557 -1.281427 0.565411 -0.193218 -0.652799 -0.546464 -1.161087 -0.027398 -0.940103 0.539985 -0.384740 -1.519659 -0.942201 -1.169280 -1.173421 -1.308430 0.462614 -1.030757 -0.753506 0.866704 -0.754077 0.034005 0.914687 -0.322491 0.110287 -0.258202 0.148085
421 0.338798 0.534660 0.895566 0.956577 0.828775 -0.820665 -1.006473 -0.467019 0.379054 -0.781604 -1.531819 -1.296318 -0.211620 0.265956 -0.540693 0.057678 -0.689166 0.127187 -1.328124 -0.787999 -0.409716 -0.747544 -0.541598 -1.510497 0.345605 0.006884 -0.917977 0.022141 -0.200421 1.227752 0.175255 0.457050
775 0.421897 -0.846258 -0.141438 0.435966 0.006957 -0.748215 0.140341 -0.742968 0.631257 -0.215448 -1.014104 -1.278023 -0.462678 0.145664 -0.218307 -0.751796 -0.291862 -0.510710 -0.636289 -1.512642 -0.529865 -0.711119 -0.240806 -0.322738 0.978525 -1.707826 0.568142 0.887491 -0.023778 0.606823 0.757059 0.265162
1256 0.431057 -0.756203 -0.008310 0.524906 -0.085403 -0.610891 0.005234 -0.537899 0.781967 -0.261519 -1.247273 -1.310085 -0.484035 0.046096 -0.391416 -0.745706 -0.313431 -0.390325 -0.458641 -1.835858 -0.597049 -0.927533 -0.101926 -0.173817 0.793426 -1.733423 0.752403 1.108905 -0.087328 0.260688 0.567694 0.258350
565 0.310171 0.599268 0.879966 0.990219 0.800685 -1.062293 -1.023286 -0.506136 0.590721 -0.736900 -1.483348 -1.323197 -0.238640 0.252266 -0.689366 -0.167489 -0.725911 0.090815 -1.361881 -0.852892 -0.410385 -0.615963 -0.502358 -1.709050 0.321079 -0.125783 -0.951971 -0.122908 -0.059061 1.181962 0.277329 0.446030
85 -0.568067 -0.422893 0.490115 0.404036 -0.624008 -0.010488 -0.667524 0.092577 0.251003 -0.677758 -1.289615 0.239763 -0.648960 -0.488071 0.786569 -0.337190 1.168949 0.102408 -1.302302 -0.914807 0.828999 -0.795363 -1.505291 -1.041491 -1.094446 -0.723107 0.239889 0.314526 -0.206257 1.067066 0.379030 -0.318669
270 -0.206183 -0.764400 0.353205 0.509664 0.945472 -0.641807 -0.256117 0.315507 0.010124 -0.302163 0.223199 -0.692808 -0.171683 -0.512237 0.264470 -0.714501 0.055455 -0.844420 -1.391633 -0.603726 -0.033059 -0.277054 -1.943680 -0.755845 0.059289 -0.418249 0.003486 0.073497 1.299457 1.520667 -0.368831 0.104266
1109 1.490730 0.476244 1.046593 0.535629 -0.924429 -0.187472 -0.086182 1.077006 0.275560 -0.144564 -0.166988 -0.848146 -0.624456 1.274940 -0.078409 -0.332782 0.153403 -0.274109 -0.337250 -1.040001 0.096154 -1.133593 -0.589320 -1.006517 0.151829 -0.765935 0.270087 0.299784 0.827019 0.781982 0.584384 0.232996
921 1.461672 0.331372 1.111502 0.580885 -0.748773 -0.178209 -0.060826 1.092918 0.392135 -0.107919 -0.180461 -0.746464 -0.565225 1.358720 -0.162502 -0.304863 0.291745 -0.403021 -0.449481 -0.976733 0.191092 -1.105326 -0.534553 -0.934358 0.018433 -0.718865 0.297102 0.245695 0.858929 0.828472 0.626170 0.258046
744 0.311173 1.509840 0.128732 1.304581 -0.338751 0.121565 -0.706246 1.153563 0.269606 -0.743283 -0.697065 -0.264794 0.594821 -1.080832 -0.062333 -1.419608 1.083162 -0.854919 0.070895 -1.295266 -0.481239 -0.843500 -1.003279 -0.579309 -0.724062 0.041627 0.840043 0.493187 0.076800 0.583081 0.863292 0.170854
218 -0.153886 -0.248444 0.300122 0.819303 1.090594 -0.324319 -0.912907 0.743397 0.356683 -0.092519 -1.071149 -0.746907 0.449788 1.422127 0.496966 -0.051720 -0.756592 -0.940413 -1.319256 -1.471092 0.349483 0.135493 -1.179933 0.395685 -0.555943 -0.426465 0.797825 0.047262 -0.060839 0.344631 0.604432 -0.032524
454 1.224655 0.341404 -0.434642 0.396780 1.201232 0.279778 0.065042 0.213839 -0.516928 -0.577594 -0.710357 -0.275382 0.482038 -0.855238 0.702345 0.478423 1.173681 1.009032 -0.830661 -1.295105 0.022851 -0.406604 -1.094456 -0.190780 -0.899123 0.086151 0.311051 0.819395 0.550133 1.636747 1.213788 -1.044994
389 0.818674 0.171175 0.256396 0.089019 -0.127794 -0.104536 -0.679430 0.186469 0.619972 0.390438 0.241802 -0.003791 0.692000 -0.830008 0.324554 -1.048392 -0.649456 0.704578 -0.752153 -2.077912 -0.515173 -0.005150 0.114275 -1.379312 0.751273 -0.363793 0.607380 0.461965 0.498540 0.693499 1.155027 -0.527857
394 0.529825 -0.858675 -0.043485 0.486309 0.055157 -0.859514 0.186897 -0.768508 0.731613 -0.360544 -0.956908 -1.037762 -0.640876 0.142201 -0.100414 -0.820840 -0.297287 -0.480655 -0.997644 -1.348318 -0.516827 -0.483640 -0.276561 -0.038143 1.084926 -1.583694 0.557606 0.728330 -0.156675 0.956027 0.886895 0.202490
349 -0.282587 0.122504 1.194322 0.567445 0.007687 0.244740 0.077291 1.233750 -1.022582 -0.933476 -0.849514 0.051046 -0.003564 -0.830479 1.639486 -0.076037 -1.216249 0.059194 -1.258714 -1.129744 0.051824 0.058108 -1.135899 0.558869 -0.776284 -0.693558 -0.175960 1.085229 0.559355 1.118411 -0.115853 -0.082433
765 0.095916 -0.372196 -0.129313 -1.160299 0.399955 -0.439578 0.380205 0.535398 -0.149490 -0.280275 -1.302162 -0.720072 -0.403977 -0.149297 0.514204 -0.285506 0.461148 -0.667652 -1.032814 -1.316876 -1.048743 0.816591 -0.722454 -0.992940 -0.273071 -0.503256 1.474141 1.387158 1.256854 2.355640 0.686531 1.103799
1021 -0.272087 1.146951 1.169880 0.832831 0.837017 -0.128878 -1.176248 1.205473 0.136352 -0.876676 -0.091639 0.072548 0.323668 0.100814 0.742955 0.041587 -0.481443 -0.525307 -0.789339 -0.956783 -1.024684 0.512122 -0.559383 -2.077028 -1.090608 -0.277382 -0.997383 0.461413 0.914539 1.305689 0.790214 -0.561593
99 -0.054163 -0.190988 0.011615 0.873676 1.045384 -0.227581 -0.926910 0.566351 0.533994 -0.181528 -1.195937 -0.649242 0.444338 1.403621 0.419435 -0.002388 -0.684030 -0.726471 -1.442575 -1.502465 0.433363 0.226087 -1.109129 0.487062 -0.521585 -0.532566 0.818657 0.146341 0.032292 0.272373 0.437662 -0.077672
838 0.005354 -0.446110 0.408589 0.708575 -0.264441 0.851268 -0.834128 -0.042339 0.735885 0.074997 -1.708354 -0.774486 0.579480 0.654929 0.695627 1.000044 -0.280703 -0.627286 -1.138547 -0.626925 0.019098 -1.039154 -0.150057 -0.241233 -1.325940 -1.170579 -0.220909 2.240924 0.204906 1.334727 1.082410 0.678293
434 0.753385 0.422009 0.636335 0.808224 -0.413537 -0.014443 -0.595935 1.076594 -0.356961 -0.098634 -0.266755 -1.707853 0.527235 0.208414 1.108766 -1.520876 -0.229866 -0.505763 -0.092561 -1.531348 1.167498 0.154702 -0.352952 0.315890 -0.749341 -0.051794 -0.027558 1.428248 0.747949 0.419545 1.502581 -1.100397
909 0.239574 -0.088163 0.598760 1.051894 0.300566 0.529668 0.161906 0.084012 -0.409814 -0.862619 0.149358 -1.215529 -0.001185 0.175218 0.687448 -0.716749 0.471277 0.512099 -1.209476 -1.039311 -0.462663 -0.072493 -0.654676 -0.416082 0.171154 -0.475325 0.406929 0.330418 -0.129844 -0.348455 0.084859 -0.253789
1250 0.043409 -0.359423 0.469746 0.676317 -0.274416 0.872302 -0.900655 0.004061 0.696916 0.110537 -1.744482 -0.774368 0.517065 0.666709 0.804285 0.984028 -0.312801 -0.644559 -1.161938 -0.619704 0.039396 -0.931462 -0.295008 -0.242216 -1.296950 -1.163279 -0.242211 2.183985 0.255961 1.435196 1.139489 0.706102
741 0.775215 0.371346 0.662986 0.831495 -0.438488 0.017733 -0.606017 1.065173 -0.395671 -0.101782 -0.298211 -1.676294 0.534821 0.165941 1.137185 -1.483682 -0.258807 -0.536518 -0.102597 -1.500629 1.219421 0.118090 -0.383629 0.369753 -0.797734 0.001439 -0.050420 1.468186 0.808847 0.396217 1.499338 -1.072407
496 0.313350 0.003709 0.534559 1.008342 0.353578 0.556378 0.177487 0.139585 -0.448753 -0.836505 0.233226 -1.187813 0.116316 0.215763 0.771651 -0.684752 0.503923 0.517332 -1.264659 -1.101649 -0.385452 -0.115471 -0.773182 -0.346211 0.198405 -0.413363 0.339062 0.354237 -0.066098 -0.399417 0.059830 -0.273303
212 -0.298467 -0.857870 0.477534 0.392443 0.908722 -0.585264 -0.178084 0.305938 -0.327930 -0.318108 0.206681 -0.589399 -0.232648 -0.568419 0.262687 -0.697413 0.153195 -0.878121 -1.247657 -0.718482 -0.095206 -0.241497 -1.844898 -0.863430 -0.042711 -0.253766 0.123208 0.221863 1.211715 1.714311 -0.262774 0.080104
759 -0.286994 1.159807 1.144965 0.892212 0.879172 -0.076717 -1.058415 1.286604 0.139503 -0.852896 -0.044047 0.082637 0.379569 0.130800 0.671910 0.027178 -0.381037 -0.491922 -0.744111 -0.991937 -0.986836 0.456270 -0.506879 -2.047940 -1.032804 -0.257092 -0.978381 0.447560 0.949426 1.236920 0.772707 -0.501478
442 -0.248070 -0.766249 0.510245 0.436813 0.892676 -0.670592 -0.208514 0.305281 -0.221424 -0.290372 0.185323 -0.656106 -0.199838 -0.522594 0.242225 -0.682385 0.101178 -0.909105 -1.310074 -0.679318 -0.059540 -0.283455 -1.888381 -0.837892 0.066242 -0.357632 0.051856 0.152819 1.225888 1.620494 -0.287303 0.050711
1076 -0.060956 -0.227421 -0.443334 0.907376 0.195717 -0.583301 -0.343659 0.954498 -0.442311 -0.691082 -0.554462 -0.797370 0.547605 -0.127418 0.020942 -0.594353 -0.380847 -0.026797 -0.769328 -1.428590 0.109770 -1.347255 0.782888 -0.939166 -0.547484 -0.340231 0.751856 0.010017 0.641281 0.976868 -0.371865 0.119291
1029 -0.181544 0.151844 1.167880 0.712408 -0.151965 0.121467 0.063817 1.185590 -0.834852 -1.066894 -0.902725 0.187930 -0.049068 -0.715316 1.458013 -0.146313 -1.147205 0.054441 -1.448674 -1.081841 0.134088 -0.067310 -1.063545 0.592670 -0.657627 -0.475327 -0.309664 1.213136 0.325813 1.109550 -0.199230 0.075308
260 0.309245 1.606990 0.047714 0.281577 0.425029 -0.341924 -0.837702 -0.157702 -0.321363 -0.732945 -1.116500 -1.238644 -0.673780 -0.665180 0.069398 -1.678864 0.013246 -0.204795 -0.707074 -1.331898 0.451094 0.547011 -0.028810 0.362177 0.359698 -0.704595 0.759081 0.796764 0.669755 1.762416 -0.274951 -0.294946
412 -0.137060 0.110010 1.164873 0.735051 -0.134535 0.138232 0.072341 1.237678 -0.809012 -1.124350 -0.902889 0.147945 -0.007297 -0.761579 1.428848 -0.151926 -1.104218 0.020448 -1.531816 -1.051331 0.099318 0.011687 -1.047820 0.630984 -0.588644 -0.447168 -0.301105 1.233793 0.358467 1.186021 -0.195934 0.157598
288 0.899063 0.122344 0.950426 0.398457 -0.142302 -0.569033 -0.612157 0.967161 -1.000594 0.067180 -1.189999 0.241159 -0.335435 0.108449 0.985729 -0.527016 -0.390835 -0.850986 -0.884081 -1.254424 0.243562 -0.167545 0.220581 -1.346641 -0.141192 0.282422 0.426910 -0.010838 -0.587789 2.169617 1.128323 -0.217409
1150 0.089629 -0.416944 -0.054842 -1.138211 0.278365 -0.371384 0.429647 0.627828 -0.195693 -0.213924 -1.265295 -0.726995 -0.408656 -0.035644 0.448088 -0.266434 0.545678 -0.633028 -0.930518 -1.252734 -1.058223 0.721856 -0.677418 -0.936695 -0.317853 -0.552466 1.501032 1.337787 1.379727 2.299689 0.618995 1.168887
111 0.376552 1.505638 0.154137 0.201622 0.450041 -0.347036 -0.843792 -0.150575 -0.378059 -0.695105 -1.129582 -1.182067 -0.724536 -0.681022 0.049412 -1.606960 0.023979 -0.223788 -0.653343 -1.314900 0.407710 0.454316 -0.050890 0.309521 0.269009 -0.714785 0.785038 0.797799 0.671782 1.793114 -0.212131 -0.300822
337 -0.089587 0.194303 1.213396 0.867608 -0.397232 -0.008080 0.026229 1.229769 -0.654960 -1.245059 -0.954659 0.250400 -0.127669 -0.671072 1.296774 -0.257131 -1.036201 0.016244 -1.668661 -0.911984 0.157882 -0.127253 -0.918919 0.657533 -0.429205 -0.245627 -0.466780 1.361895 0.151662 1.151050 -0.229154 0.301905
223 0.298078 1.652990 0.062897 0.240125 0.371620 -0.368404 -0.784470 -0.169731 -0.302274 -0.760987 -1.122641 -1.257206 -0.550111 -0.636107 0.085481 -1.661902 -0.006035 -0.255786 -0.772288 -1.336301 0.457656 0.570036 -0.062891 0.325466 0.376748 -0.707524 0.741156 0.769087 0.630198 1.753413 -0.184778 -0.356291
403 0.260552 0.163461 -1.086900 1.400844 0.953821 0.813806 -0.798108 0.816809 0.757752 -1.204472 -0.678332 -0.428559 -0.023613 -0.977986 -0.676061 -0.279347 -0.617410 0.547096 -1.459240 -1.086944 0.129927 0.607613 -1.003295 -0.437557 -0.269046 -0.969254 -0.018107 0.998254 0.736305 0.748721 0.108735 0.769522
531 0.312688 0.011009 0.657415 1.071253 0.338990 0.456218 0.182415 0.079120 -0.481369 -0.848664 0.184415 -1.148352 0.140106 0.194134 0.717232 -0.665988 0.604041 0.436039 -1.161949 -1.146983 -0.411364 -0.158101 -0.773522 -0.366265 0.177551 -0.502662 0.417723 0.312822 -0.141654 -0.392216 -0.039780 -0.254488
676 -0.193086 -0.784501 0.389188 -0.554020 0.123924 -0.318802 0.048083 1.070840 0.140811 -0.149329 0.175035 -0.789221 0.177957 0.118917 0.492065 -0.632726 0.103250 -0.393450 -0.627929 -1.084904 -0.665731 0.075930 -0.610532 -0.838160 -1.562019 -1.960737 0.586369 1.325952 -0.263329 0.801240 0.675235 -1.007863
1261 1.002689 0.382728 -0.195207 -0.451137 -0.112482 -1.090849 0.124737 -0.164773 -0.332753 0.081798 -0.928831 -0.242746 0.765488 -0.503102 0.589933 -1.388073 -0.920080 -1.353241 -0.348820 -1.524139 -0.224687 -1.020638 -1.395351 -0.526243 -1.349894 -0.607869 -0.241680 0.649579 -0.004897 0.436075 0.693297 0.067690
417 0.274309 0.013655 -1.007031 1.444860 0.875462 0.774510 -0.832638 0.799441 0.894231 -1.137967 -0.636842 -0.451161 -0.114983 -1.165047 -0.586849 -0.283661 -0.568411 0.342498 -1.540741 -0.986855 0.006813 0.590864 -0.903307 -0.265562 -0.343554 -0.900108 0.172416 1.055222 0.675696 0.713837 0.178754 0.760901
450 0.850974 0.179286 0.250774 0.130997 -0.115430 -0.081020 -0.668397 0.249873 0.625422 0.372820 0.225384 -0.022770 0.803068 -0.843827 0.323648 -0.982439 -0.654034 0.754739 -0.721090 -2.012150 -0.587469 -0.031690 0.109365 -1.372603 0.743305 -0.370186 0.574387 0.468099 0.483900 0.666355 1.132883 -0.487508
825 0.754574 -0.242439 -0.226086 0.291078 -0.105319 0.378593 -0.712146 0.236540 0.552752 -0.009161 -0.864441 -0.632385 0.770119 -1.061328 1.561241 -0.388948 -0.471690 -0.199407 -1.391703 -0.935520 0.420600 -1.361395 -1.093612 0.144383 0.226035 -0.402606 0.614010 0.187857 1.207961 0.340273 0.391333 1.192467
905 0.286867 0.030049 0.492518 0.989193 0.358002 0.530096 0.173284 0.188537 -0.510157 -0.815258 0.221421 -1.144515 0.232249 0.176626 0.800635 -0.766303 0.480921 0.434727 -1.181481 -1.146963 -0.382976 -0.087141 -0.736549 -0.344730 0.183534 -0.471654 0.429114 0.411431 -0.056171 -0.415086 -0.014356 -0.279700
413 -0.209562 -0.575178 0.410568 0.652045 1.005162 -0.820862 -0.164562 0.425714 0.189784 -0.147756 0.172433 -0.660309 -0.150250 -0.477917 0.207340 -0.925066 0.062959 -0.927541 -1.451889 -0.604677 0.008710 -0.286090 -1.833894 -0.732973 0.132840 -0.505173 -0.081179 0.216936 1.211731 1.471629 -0.497784 0.115501
1123 -0.267403 -0.330001 0.521131 0.502952 -1.143111 -0.205556 -0.894467 0.588513 0.602664 -0.766991 -1.056911 0.411329 -0.560407 -0.262190 0.974837 -0.174828 1.144789 0.261325 -1.196504 -0.930875 0.325479 -0.761392 -1.306086 -1.322284 -1.181437 -0.912640 0.317481 0.219615 -0.193102 0.816211 0.509475 -0.244946
56 0.945380 0.204124 0.284364 0.186460 -0.074525 -0.034789 -0.680462 0.235791 0.639327 0.339071 0.172051 -0.141235 0.893514 -0.808153 0.255938 -1.065800 -0.658408 0.819779 -0.672595 -1.979661 -0.583572 -0.112516 0.103363 -1.380943 0.817942 -0.406166 0.573937 0.558876 0.450900 0.692809 1.026950 -0.503122
315 0.342813 -0.025393 0.467442 1.052809 0.301599 0.531674 0.217555 0.199244 -0.479897 -0.817760 0.198766 -1.155523 0.165815 0.156079 0.773442 -0.756670 0.413583 0.433398 -1.158623 -1.122549 -0.427730 -0.090370 -0.687063 -0.246798 0.209374 -0.485392 0.529241 0.388538 -0.033085 -0.426359 -0.064965 -0.241711
662 -0.225103 -0.630102 0.403170 0.600350 0.957155 -0.752454 -0.233025 0.438660 0.168182 -0.194325 0.196806 -0.691567 -0.123829 -0.531228 0.228915 -0.862577 0.037211 -0.862866 -1.462153 -0.611315 -0.010927 -0.304223 -1.773143 -0.781051 0.155894 -0.440448 -0.040484 0.192914 1.242216 1.527153 -0.472471 0.123368
279 0.578312 -0.852496 -0.049336 0.360352 0.075016 -0.860562 0.274520 -0.800454 0.680767 -0.282849 -0.853334 -1.088817 -0.532307 0.221719 -0.153571 -0.885905 -0.232474 -0.549667 -0.925878 -1.357608 -0.539022 -0.502023 -0.355177 -0.133556 1.138824 -1.648282 0.516320 0.748382 -0.176267 0.890760 0.845137 0.211038
1039 1.552622 0.691256 0.921550 0.517448 -0.967321 -0.274845 -0.076353 1.047284 0.206524 -0.148541 -0.166668 -0.850794 -0.688786 1.141338 -0.104966 -0.294262 0.017730 -0.184434 -0.220097 -1.045896 0.154309 -1.165124 -0.743785 -1.007713 0.309358 -0.834337 0.208136 0.368849 0.806757 0.777925 0.395017 0.169694
106 -0.173766 -0.801324 0.446971 0.482164 0.907099 -0.610880 -0.199496 0.323301 -0.228388 -0.337113 0.169292 -0.625646 -0.222821 -0.569151 0.237517 -0.698664 0.099063 -0.912601 -1.318012 -0.669181 -0.128375 -0.292945 -1.889553 -0.809068 -0.003187 -0.311315 0.084504 0.169884 1.194853 1.625128 -0.345711 0.101502
263 -0.249098 -0.802133 0.374965 -0.520782 0.143855 -0.312311 0.048598 1.061518 0.110006 -0.117154 0.202066 -0.825559 0.142898 0.130503 0.460798 -0.599471 0.076262 -0.372208 -0.588772 -1.028766 -0.643138 0.110346 -0.541612 -0.863443 -1.539605 -1.922086 0.572207 1.307550 -0.284747 0.841841 0.666247 -0.988636
1000 0.624645 -0.951697 -0.078699 0.242890 0.064789 -0.870067 0.225124 -0.798626 0.621438 -0.220644 -0.876567 -1.401257 -0.428572 0.214965 -0.182509 -0.901128 -0.217892 -0.531973 -0.807941 -1.420882 -0.617395 -0.523993 -0.331344 -0.381346 1.078222 -1.690067 0.526301 0.773190 -0.124339 0.802180 0.850778 0.277181
973 0.283950 -0.020424 0.673489 1.085066 0.313143 0.541070 0.155959 0.005291 -0.468094 -0.874807 0.102379 -1.227917 0.060394 0.158302 0.635805 -0.678609 0.540171 0.421886 -1.178233 -1.059900 -0.452958 -0.044935 -0.643631 -0.457597 0.189944 -0.533621 0.405679 0.312554 -0.199104 -0.333707 0.071903 -0.289920
633 0.749732 0.408120 -0.001852 0.180656 0.904070 1.181359 -0.704403 -0.003319 0.505476 -0.979475 -0.277751 -0.554241 0.517127 0.714209 0.239955 -0.646391 -0.216809 -0.655362 0.152397 -1.250496 -1.220875 -1.084274 -0.879906 0.019847 -0.246447 -0.144126 0.003551 0.586090 0.496156 1.568404 -0.083527 0.545731
40 0.326853 -0.046728 0.577461 1.089070 0.298855 0.498630 0.164231 0.149442 -0.437861 -0.882948 0.157733 -1.157188 0.080010 0.091612 0.689853 -0.726410 0.424536 0.440472 -1.219426 -1.126741 -0.415732 -0.098777 -0.670688 -0.377308 0.196615 -0.511975 0.394928 0.348981 -0.131556 -0.373529 -0.018385 -0.221828
361 -0.317288 -0.568100 0.446996 0.565233 0.953983 -0.750174 -0.162695 0.398999 0.018988 -0.125889 0.189229 -0.631490 -0.191845 -0.545342 0.212729 -0.855166 0.092387 -0.881758 -1.378801 -0.635708 0.002402 -0.241470 -1.774565 -0.795315 0.051366 -0.359632 -0.073493 0.255933 1.190996 1.568004 -0.393946 0.043518
568 0.469806 0.317080 0.052998 0.134648 -0.710568 -0.370533 -1.238295 0.496729 -0.263158 -0.666884 -0.557659 -1.233196 0.025794 -1.014747 0.540256 -0.445065 -1.541941 -0.911223 -1.156174 -1.108337 -1.363611 0.493570 -1.106013 -0.733622 0.825357 -0.818745 0.037067 0.957121 -0.281637 0.077259 -0.292120 0.167931
208 -0.187754 -0.157459 0.567394 0.493239 -1.138809 -0.114776 -0.868013 0.758859 0.767958 -0.781975 -1.150653 0.434165 -0.531420 -0.158740 1.006451 -0.159393 1.188008 0.219923 -1.168354 -0.944333 0.319081 -0.737210 -1.196621 -1.279544 -1.237826 -1.011510 0.335297 0.280095 -0.319440 0.803692 0.641201 -0.237986
882 0.518156 0.084641 0.291505 0.541628 0.287101 -0.054217 -0.416518 0.578953 0.047042 -0.550704 -0.676908 -0.835434 0.137213 -0.054116 0.464274 -0.638268 -0.108500 -0.240854 -1.163457 -1.397419 -0.291482 -0.547914 -0.755408 -0.726196 -0.104774 -0.779903 0.266701 0.708508 0.331111 0.812155 0.414028 -0.083056
430 1.578828 0.681286 -0.688802 0.489362 0.859584 0.201676 -0.198310 0.002447 -0.419857 -0.224798 -0.752695 -0.120841 0.312570 -1.124546 0.655568 0.342638 1.230137 0.679832 -0.887686 -1.474526 -0.838693 0.081826 -0.850658 -0.467133 -0.555441 -0.207679 0.300879 0.656128 0.453241 1.688143 0.795473 -1.088341
165 -0.040841 -0.248381 -0.394662 0.896561 0.260205 -0.603876 -0.358829 0.925954 -0.436112 -0.611579 -0.515800 -0.764736 0.607832 -0.150874 0.061632 -0.634132 -0.406544 -0.030094 -0.737323 -1.347888 0.144623 -1.333251 0.763495 -1.014135 -0.517003 -0.351556 0.704448 -0.001001 0.682612 0.947013 -0.420248 0.119575
785 0.371204 0.245294 0.060289 0.087531 -0.789135 -0.354685 -1.230463 0.512267 -0.254604 -0.628349 -0.531234 -1.232120 -0.000082 -0.960161 0.548028 -0.394491 -1.563474 -0.925821 -1.163444 -1.094368 -1.349570 0.544719 -1.096437 -0.761258 0.847844 -0.781689 0.039568 0.965863 -0.297830 0.112723 -0.260392 0.184626
231 0.532142 -0.792029 -0.017095 0.537936 0.076003 -0.866672 0.211385 -0.662356 0.792478 -0.363832 -0.989312 -0.993469 -0.685407 0.088136 -0.262935 -0.748417 -0.313156 -0.501625 -0.881746 -1.544744 -0.484015 -0.607702 -0.289956 -0.027935 1.026453 -1.564621 0.687366 0.832478 -0.201388 0.765216 0.729938 0.252428
300 0.284062 0.073011 -1.008513 1.418479 0.877078 0.759997 -0.760877 0.815793 0.806204 -1.122731 -0.656277 -0.441588 -0.098599 -1.080863 -0.588807 -0.259042 -0.579177 0.358631 -1.520641 -1.019402 0.049236 0.619134 -0.932944 -0.348037 -0.328952 -0.896648 0.132509 1.018709 0.673626 0.716882 0.130733 0.756358
3 0.502968 0.099759 0.304643 0.546052 0.279510 -0.062485 -0.406325 0.581772 0.029592 -0.551739 -0.671305 -0.877660 0.134982 -0.060482 0.452844 -0.653298 -0.089877 -0.281596 -1.155838 -1.396179 -0.295228 -0.547048 -0.764802 -0.719233 -0.090162 -0.808044 0.253010 0.719167 0.352200 0.829601 0.408527 -0.076564
507 0.329624 0.360715 0.858226 0.947992 0.916378 -0.276885 -1.100374 -0.238457 -0.118584 -0.917604 -1.716091 -1.274141 -0.115277 0.184722 -0.106742 0.559517 -0.614231 0.209731 -1.367906 -0.641297 -0.311385 -0.984897 -0.707227 -1.075136 0.416195 0.341488 -0.832667 0.490301 -0.587320 1.434287 -0.091206 0.475078
851 -0.047234 -0.223362 -0.514733 0.869230 0.279829 -0.606449 -0.346088 0.919202 -0.422936 -0.666024 -0.576494 -0.817370 0.645239 -0.144186 0.041179 -0.625392 -0.393879 -0.061336 -0.720500 -1.361419 0.109269 -1.326567 0.776673 -0.964856 -0.531098 -0.371899 0.716266 0.039052 0.664671 0.956579 -0.415552 0.136102
180 -0.072482 -0.124662 -0.446772 0.923399 0.283488 -0.549148 -0.365565 0.925046 -0.425601 -0.709544 -0.506488 -0.733468 0.569476 -0.105195 -0.010603 -0.632698 -0.363148 0.009850 -0.699270 -1.356300 0.085583 -1.291886 0.780840 -1.047448 -0.565656 -0.306331 0.723151 0.023890 0.679888 0.943658 -0.363405 0.092029
365 0.769608 -0.156009 -0.364341 0.546675 0.448839 0.105529 -1.504339 0.902643 0.041604 -0.949255 -0.137039 -0.101908 -0.260510 0.148443 -0.154940 -0.382559 0.068256 -0.404941 -1.178035 -0.540448 -0.175081 -0.896405 -0.586892 -0.539943 0.119912 -1.578102 -0.739870 0.208391 0.286738 0.387197 0.522048 -1.437663
381 0.002350 -0.225473 -0.478318 0.904541 0.227800 -0.508175 -0.374125 0.930137 -0.376183 -0.686875 -0.547569 -0.724987 0.594107 -0.128712 0.051215 -0.576212 -0.391545 -0.057679 -0.689926 -1.316923 0.119915 -1.299486 0.761685 -0.985799 -0.588837 -0.379770 0.719867 0.051257 0.654016 0.945486 -0.392809 0.128557
1041 1.478808 0.296051 1.128069 0.564594 -0.754622 -0.204128 -0.086204 1.051063 0.392268 -0.079315 -0.229247 -0.769759 -0.549563 1.370022 -0.120671 -0.332552 0.218943 -0.452633 -0.360004 -1.085383 0.237366 -1.102465 -0.511559 -0.928462 0.019838 -0.764861 0.399405 0.349533 0.837994 0.814668 0.648197 0.273079
781 0.283947 0.359731 0.961874 -0.656214 0.127114 -0.600074 0.401440 0.770056 1.449022 -1.129204 -0.602476 -0.415185 0.622796 -0.076634 -0.433593 -0.121590 1.135193 -0.040995 -0.935083 -2.374061 -0.559643 -0.956289 -0.943467 -0.629726 0.098600 -0.365580 -0.083537 0.765591 -0.331868 0.534994 0.531476 -0.705021
483 0.347441 0.000204 0.724999 1.067670 0.259699 0.534144 0.196419 0.057918 -0.434777 -0.946145 0.228681 -1.113666 0.000098 0.182500 0.699677 -0.560103 0.565115 0.487018 -1.264928 -1.140173 -0.517671 -0.089879 -0.698056 -0.551537 0.137528 -0.511138 0.337162 0.318138 -0.215215 -0.366508 0.019779 -0.301226
63 0.557603 0.116934 0.321926 0.607922 0.322095 -0.079254 -0.435574 0.630735 0.053708 -0.573990 -0.697234 -0.961223 0.172359 -0.010328 0.484892 -0.724232 -0.105229 -0.292838 -1.260042 -1.499957 -0.278142 -0.632108 -0.845352 -0.763716 -0.114182 -0.863497 0.275256 0.740765 0.384730 0.855119 0.441184 -0.081528
989 0.329565 0.032555 0.587312 1.017094 0.341462 0.509796 0.137406 0.158823 -0.368867 -0.904807 0.222793 -1.072361 0.167967 0.179623 0.718672 -0.655202 0.423461 0.513630 -1.290228 -1.160573 -0.377649 -0.109423 -0.707370 -0.430413 0.227708 -0.391715 0.439220 0.314041 -0.140170 -0.454286 -0.018834 -0.225867
529 0.308640 -0.047723 0.672635 1.132869 0.305920 0.578020 0.103994 0.050510 -0.403146 -0.942171 0.215372 -1.099780 0.005503 0.177605 0.632330 -0.620317 0.449898 0.508598 -1.273440 -1.151886 -0.421172 -0.030006 -0.616061 -0.511771 0.197429 -0.427750 0.307361 0.280137 -0.185534 -0.337564 0.057630 -0.276462
916 0.277497 0.381632 0.866883 0.903338 0.887564 -0.460317 -1.026285 -0.343448 0.055510 -0.854353 -1.657795 -1.285227 -0.179988 0.213780 -0.232836 0.403512 -0.693012 0.151633 -1.313214 -0.675896 -0.354650 -0.844374 -0.609840 -1.164366 0.426716 0.197090 -0.853867 0.328907 -0.433829 1.373064 0.002674 0.502781
889 1.442455 0.469194 1.072698 0.552140 -0.768861 -0.268156 -0.073454 1.071967 0.326935 -0.122649 -0.193688 -0.820751 -0.631616 1.353078 -0.165836 -0.258579 0.164603 -0.371161 -0.413824 -1.040814 0.157437 -1.184095 -0.627536 -0.975792 0.140531 -0.768395 0.269569 0.272459 0.830952 0.863285 0.489255 0.221647
637 0.754919 0.456803 -0.037589 0.197808 0.890255 1.197416 -0.704801 -0.090093 0.486343 -0.984766 -0.280577 -0.570883 0.503205 0.734864 0.199660 -0.583570 -0.246644 -0.728174 0.144684 -1.261163 -1.212048 -1.103733 -0.894655 0.009171 -0.231179 -0.137836 0.002142 0.597374 0.512607 1.566125 -0.107857 0.574766
340 0.315047 -0.008941 0.507471 0.964553 0.455764 0.479438 0.159634 0.091499 -0.521518 -0.843906 0.203031 -1.231372 0.082158 0.160681 0.730661 -0.738954 0.450438 0.598343 -1.248146 -1.124793 -0.424801 -0.076470 -0.718419 -0.325933 0.239486 -0.459896 0.356052 0.394612 -0.108972 -0.394203 0.042399 -0.387413
887 0.796354 0.440546 -0.043951 0.231367 0.897191 1.215026 -0.719297 -0.002987 0.485181 -0.979797 -0.313298 -0.526810 0.504534 0.686616 0.240465 -0.677153 -0.214600 -0.697982 0.077401 -1.247572 -1.200516 -1.023655 -0.812588 -0.048618 -0.244207 -0.140575 0.034992 0.600780 0.514941 1.613818 -0.096789 0.546247
835 0.386510 0.244813 0.058772 0.067821 -0.724099 -0.377142 -1.208961 0.503684 -0.276279 -0.628003 -0.542114 -1.244999 0.003047 -0.934781 0.543899 -0.393868 -1.526763 -0.924809 -1.094757 -1.053217 -1.327532 0.508054 -1.047719 -0.727222 0.785737 -0.755502 0.055627 0.969666 -0.217292 0.107445 -0.294184 0.167664
250 -0.409896 1.161163 -0.238585 -0.409888 0.860729 -0.358614 0.179732 0.180390 0.403510 0.256743 -0.658346 -1.321378 0.000118 -0.702551 1.182326 0.136300 -0.425576 0.788676 -1.664026 -0.916376 -0.919068 -0.568171 -1.497937 -1.381717 -1.473103 -0.862301 0.519851 0.247168 0.381215 0.078646 0.426246 -0.124852
1090 1.282369 0.265393 -0.141914 1.421578 0.952826 -0.365104 0.073830 0.693842 -0.739510 0.897033 -1.386012 0.337950 -0.073787 0.434247 -0.210061 -0.147051 -0.442612 -0.904956 -0.842492 -1.498115 -0.852677 -0.033378 -0.189360 -0.634779 -0.651924 -1.651255 -0.356004 1.267236 -0.511274 0.765602 -0.027991 0.328233
1200 -0.204689 -0.201302 0.197253 0.868357 1.152627 -0.265947 -0.914858 0.718197 0.361137 -0.092652 -1.108626 -0.762640 0.484733 1.409875 0.407204 -0.019811 -0.773730 -0.901662 -1.237862 -1.477332 0.385993 0.149367 -1.227619 0.462403 -0.544832 -0.516469 0.754954 0.054452 -0.053724 0.249383 0.570263 -0.038613
751 -0.357422 0.174146 1.179074 0.413944 0.038985 0.203229 0.149551 1.232842 -1.189556 -0.811814 -0.789535 -0.122984 0.047955 -0.879976 1.740197 0.008227 -1.290441 0.073478 -0.943123 -1.125556 0.034359 0.063440 -1.123325 0.477801 -0.828637 -1.032571 -0.089692 0.803981 0.824592 1.160448 -0.027569 -0.280793
205 0.769008 -0.138373 -0.399009 0.610571 0.470232 0.091483 -1.557173 0.895350 0.026840 -0.933416 -0.137112 -0.127350 -0.291125 0.218588 -0.186437 -0.339986 0.043896 -0.412810 -1.193443 -0.539670 -0.181421 -0.907077 -0.604499 -0.594426 0.088010 -1.606948 -0.756155 0.213679 0.282782 0.366041 0.469950 -1.418296
1100 0.272454 0.375690 0.938114 -0.714286 0.117637 -0.576071 0.425880 0.759955 1.496990 -1.121385 -0.567956 -0.397182 0.616872 -0.074347 -0.456842 -0.127081 1.156483 -0.035600 -0.870111 -2.311651 -0.539193 -0.962020 -0.932779 -0.621570 0.109814 -0.367063 -0.106180 0.799767 -0.348871 0.484069 0.486151 -0.701226
1171 0.261751 0.022164 0.559438 1.081917 0.279016 0.560004 0.139080 0.114825 -0.437030 -0.872670 0.199663 -1.139993 0.042454 0.167120 0.671161 -0.695098 0.474331 0.421644 -1.225044 -1.103509 -0.394402 -0.074604 -0.732016 -0.423547 0.260644 -0.477980 0.416338 0.344995 -0.098466 -0.390292 0.017319 -0.259495
536 0.338804 -0.022642 0.543416 1.098010 0.308368 0.497233 0.245885 0.109488 -0.405729 -0.775374 0.157857 -1.153136 0.104059 0.161227 0.687156 -0.721183 0.501698 0.434738 -1.222942 -1.141410 -0.413873 -0.135297 -0.737764 -0.347360 0.236933 -0.579605 0.513459 0.302713 -0.057223 -0.354903 -0.041120 -0.186089
1143 0.796691 0.444611 -0.011194 0.240167 0.884549 1.218603 -0.716222 -0.037959 0.506310 -0.992594 -0.299892 -0.556472 0.524087 0.691015 0.225411 -0.625325 -0.235780 -0.720286 0.123713 -1.221655 -1.211836 -1.052980 -0.851872 -0.007060 -0.221390 -0.097733 0.033346 0.632184 0.493681 1.586625 -0.138362 0.556172
508 -0.852938 1.243937 -0.091521 0.145189 0.161138 -0.303569 -0.253197 0.474480 0.331306 -0.446947 -0.591660 -1.177052 0.958058 0.861508 0.585823 -1.432445 -0.342771 -0.055332 -0.901086 -0.974366 0.300595 -0.754607 -0.583131 -0.505581 0.737133 -1.328669 -0.799629 0.039389 1.118131 0.439430 1.276914 -0.116966
841 0.294633 0.352209 0.970586 -0.628411 0.099699 -0.575920 0.404855 0.777685 1.461995 -1.101309 -0.602161 -0.440044 0.594394 -0.021860 -0.430141 -0.168834 1.108672 -0.039653 -0.910336 -2.325693 -0.560212 -0.982465 -0.920751 -0.636453 0.075033 -0.417447 -0.101481 0.774449 -0.321462 0.512848 0.505758 -0.692368
843 -0.370799 1.090078 -0.306885 -0.428305 0.868632 -0.366883 0.193293 0.209344 0.330592 0.228393 -0.642951 -1.318422 0.044020 -0.722047 1.219195 0.102076 -0.429041 0.765974 -1.736355 -0.945975 -0.939649 -0.548254 -1.501586 -1.288676 -1.469258 -0.922988 0.485737 0.260763 0.382252 0.092337 0.485312 -0.185271
818 1.671336 0.663232 0.933407 -0.428346 0.856196 -0.697473 -0.269820 1.258456 0.975368 -0.181388 -0.318061 -1.334290 1.016785 0.692611 0.877486 -1.253283 -0.529922 -0.147010 -1.255998 -0.582812 -0.749934 -0.932996 -0.049441 -0.723414 -0.701496 -0.865650 -0.171875 1.120752 0.063803 -0.329795 -0.134610 -0.263965
552 -0.834522 1.168408 -0.049633 0.130201 0.188051 -0.295060 -0.240469 0.503716 0.287720 -0.455375 -0.667365 -1.199898 0.948914 0.764249 0.600216 -1.440512 -0.317750 -0.061201 -0.959964 -1.066198 0.249882 -0.722194 -0.638062 -0.532457 0.687608 -1.385880 -0.759262 0.123011 1.101624 0.461948 1.293179 -0.104200
419 0.736763 0.220587 0.384759 0.756707 0.397623 -0.064953 -0.616491 0.870184 0.058784 -0.826359 -0.971117 -1.195178 0.263952 -0.062151 0.711377 -0.842165 -0.102531 -0.300859 -1.613038 -1.895426 -0.376501 -0.746335 -1.045690 -1.015223 -0.189758 -1.140476 0.278070 0.972442 0.485233 1.145919 0.665163 -0.103886
34 0.865515 -0.051603 1.007489 0.566706 -0.104510 -0.335808 -0.410545 0.944807 -1.206201 -0.013920 -1.235460 0.152541 -0.272295 0.137092 1.144140 -0.546429 -0.260446 -0.775168 -0.806287 -0.980250 0.004642 -0.159105 0.209121 -1.397346 -0.283925 0.266331 0.490670 -0.100326 -0.184234 2.130237 1.128597 0.013154
186 0.735859 -0.266760 -0.194585 0.311010 -0.129118 0.306534 -0.674710 0.221742 0.581164 -0.011754 -0.797815 -0.681474 0.756913 -0.989176 1.565424 -0.390812 -0.453196 -0.181222 -1.363720 -0.919964 0.423299 -1.424941 -1.097026 0.135154 0.226517 -0.401189 0.633369 0.181048 1.152159 0.326285 0.340933 1.205272
767 0.252677 0.343500 0.951672 -0.685957 0.078243 -0.614517 0.439738 0.773757 1.491161 -1.123917 -0.618008 -0.408507 0.621276 -0.093409 -0.440223 -0.091841 1.141658 -0.068028 -0.905850 -2.295072 -0.562334 -0.879566 -0.954429 -0.622683 0.106113 -0.409225 -0.165737 0.822135 -0.288855 0.543112 0.526334 -0.659282
398 0.883264 0.092997 0.974982 0.336715 -0.147054 -0.549421 -0.575027 0.931985 -1.079880 0.128566 -1.201903 0.194603 -0.175415 0.081240 1.001612 -0.547665 -0.296606 -0.827479 -0.836718 -1.207198 0.234361 -0.219361 0.201295 -1.279582 -0.175275 0.245451 0.382129 0.029608 -0.520593 2.123390 1.066023 -0.262539
158 -0.025062 -0.224645 -0.436517 0.929612 0.215373 -0.597227 -0.362130 0.903254 -0.454962 -0.710456 -0.494072 -0.779196 0.599422 -0.178692 0.036314 -0.622933 -0.405315 -0.000528 -0.736467 -1.346565 0.091465 -1.338473 0.751586 -0.995226 -0.479683 -0.327040 0.710675 -0.018515 0.708927 1.013869 -0.439553 0.100555
923 0.713175 0.259629 0.417666 0.769168 0.359376 -0.053227 -0.609197 0.837128 0.084916 -0.828767 -0.944861 -1.106564 0.255226 -0.071904 0.686118 -0.826180 -0.129701 -0.293687 -1.578712 -1.872103 -0.391101 -0.729488 -1.031839 -1.003879 -0.192323 -1.086670 0.260835 0.961663 0.466839 1.139898 0.676988 -0.082258
147 1.638796 0.715386 0.890736 -0.395570 0.815755 -0.708517 -0.259355 1.249116 0.968560 -0.160182 -0.372500 -1.261221 0.977699 0.599949 0.889386 -1.224287 -0.527333 -0.157335 -1.229509 -0.569791 -0.734769 -0.904059 -0.049555 -0.694220 -0.667096 -0.774368 -0.154851 1.106668 0.046893 -0.344291 -0.153239 -0.208818
505 0.327844 -0.002625 0.615122 0.979002 0.273281 0.526839 0.090420 0.091642 -0.349038 -0.878395 0.202588 -1.079721 0.066385 0.097014 0.717171 -0.644737 0.456142 0.515445 -1.243544 -1.121723 -0.379495 -0.094618 -0.752324 -0.326986 0.217406 -0.445458 0.523141 0.293040 -0.065797 -0.358808 -0.017416 -0.294333
1133 0.958122 0.383962 -0.230268 -0.447337 -0.137175 -1.023844 0.112298 -0.102591 -0.313744 0.001609 -0.944676 -0.246693 0.698572 -0.567179 0.605067 -1.378187 -0.857617 -1.265583 -0.345115 -1.467530 -0.226353 -0.984482 -1.339109 -0.550677 -1.297320 -0.577387 -0.221986 0.771202 0.010106 0.484142 0.757110 0.044622
188 1.655246 0.730050 0.928694 -0.420035 0.840382 -0.685690 -0.230466 1.251330 0.951988 -0.170222 -0.338375 -1.277241 1.010496 0.622242 0.938140 -1.208908 -0.552200 -0.152261 -1.228629 -0.608990 -0.728470 -0.930311 -0.092658 -0.735897 -0.718915 -0.788000 -0.140632 1.109359 0.033098 -0.341052 -0.118015 -0.218553
342 -0.420362 -0.016468 0.572566 -0.097211 0.743075 1.088750 -0.272921 0.983834 0.035813 -0.008605 -1.210858 -1.392489 0.119551 0.069519 1.840281 0.827458 0.193676 0.271897 -1.791189 -1.680516 -0.693556 0.003302 -0.438167 -0.062686 0.801327 -0.143641 0.735674 -0.515646 0.139193 2.010552 0.938203 0.674719
716 -0.824974 0.541436 0.693418 1.281530 -0.855463 -0.698696 -1.830314 1.324831 0.541734 -0.041927 -1.389687 -1.194366 -0.137116 0.257270 0.532904 -0.670860 -0.769471 -1.389536 -0.167907 -0.770494 1.222386 -0.706916 -1.006530 -1.129885 -0.901067 -0.983726 -0.042747 0.436877 0.568633 1.767625 0.141285 0.585647
1060 1.697941 0.116505 0.030276 0.635803 0.141829 1.322603 -0.454282 2.015557 0.574816 0.501427 -0.251156 0.488876 0.587637 0.124410 0.627464 0.596069 0.351744 0.112710 -1.060541 -1.190761 -0.131434 -0.211815 -1.564434 -1.991533 -0.749831 -0.544662 0.225823 1.011360 0.386334 0.172405 0.268030 0.667268
1062 2.026794 -0.307366 0.599864 -0.464984 0.208001 -0.351965 -0.576163 -0.149707 0.028515 -1.031588 -0.620548 -0.421833 -0.030532 -0.056659 0.184665 0.036474 -0.660468 -1.017104 -2.018273 -0.431423 -1.338377 0.981483 -0.053597 -1.541408 -0.562824 -0.923225 -0.298718 1.387801 -0.425732 1.751733 0.576954 -0.472082
296 -0.316433 1.464864 -0.435270 0.159662 -0.873732 0.897303 -1.874879 0.928737 0.152603 -0.050333 -2.190796 -0.348353 0.319257 0.101960 -0.050059 0.118375 -0.543433 -0.787872 -1.616858 -0.486162 -0.094072 -0.702454 -0.067801 -1.177418 -0.701635 -0.557559 0.411660 0.528927 0.911439 1.069345 1.478447 -0.892119
295 0.794465 0.171679 0.358323 0.809125 0.403273 -0.111592 -0.604905 0.849809 0.065521 -0.806843 -0.998768 -1.272774 0.275277 -0.031624 0.666154 -0.927434 -0.140652 -0.386810 -1.713309 -2.043841 -0.360937 -0.895500 -1.125322 -1.108438 -0.190398 -1.254319 0.331494 1.023067 0.541135 1.205927 0.645812 -0.116305
1129 0.613015 0.008789 0.423021 0.181890 0.563650 0.180885 -0.445242 0.368264 -0.058921 -0.605699 -0.683859 -0.680158 0.408120 -0.515990 0.566662 -0.587357 0.154269 -0.131490 -1.034864 -1.440681 -0.510969 0.060477 -0.563148 -0.871333 -0.436131 -0.492138 0.178210 0.682402 0.216541 1.148072 0.480181 -0.176256
593 1.418907 -0.084618 -0.333675 -0.392756 -0.671461 0.653134 -0.822254 0.462358 0.103814 -0.599572 -1.570139 -0.660879 -1.057929 -0.154715 -0.911693 0.608766 0.257576 0.199053 -0.895966 -1.432338 -0.210114 0.188205 -0.993010 -0.505714 0.310115 -1.431537 -0.598918 0.747503 -0.004804 2.397616 1.300690 0.162989
1080 0.446418 0.206805 0.251260 0.656948 0.284234 0.080066 -0.399045 0.573919 0.112488 -0.543633 -0.828176 -0.678037 0.133290 -0.159049 0.376339 -0.594789 -0.045158 -0.266292 -1.104997 -1.412515 -0.269139 -0.401110 -0.862785 -0.846386 -0.164895 -0.808383 0.268526 0.629971 0.383315 0.892082 0.564385 -0.016031
1127 0.425099 0.169940 0.359346 0.329812 0.322051 0.297586 -0.213604 0.723145 0.059278 -0.684440 -0.935598 -0.340233 0.102736 -0.257996 0.745631 -0.119778 -0.078967 -0.181416 -0.916924 -1.108754 -0.429719 -0.093957 -0.552810 -0.912857 -0.516820 -0.549522 0.112310 1.090432 0.078856 0.962708 0.747780 -0.206437
274 1.029003 -0.029400 0.852536 0.961276 -0.065590 1.697305 -0.692069 0.750672 0.007981 -0.098358 -1.886599 0.005192 -0.706603 -0.276799 0.315158 -1.409429 1.118049 0.787547 -1.565823 -1.319375 0.590636 0.523172 -0.242947 0.479915 -0.122597 -0.814892 0.382773 0.723703 0.600291 0.772513 1.470158 0.683647
18 0.134073 0.558954 -1.172674 -0.139850 0.823027 0.255594 -0.388189 1.419971 0.029585 0.130606 -1.280379 0.041575 0.700708 0.318762 0.424668 -0.882112 0.468932 -1.089879 -2.203475 -0.541381 -0.288608 -0.253329 -1.424980 -1.380589 -0.531565 0.755069 -0.459650 0.361738 -0.029360 1.098830 0.902691 0.473415
1236 0.375231 0.270156 0.127417 0.650962 0.373295 0.127582 -0.411651 0.500197 -0.037786 -0.649604 -0.706373 -0.648819 0.149757 -0.086022 0.549126 -0.520343 0.240045 -0.175066 -1.175518 -1.255454 -0.181217 -0.566871 -0.663282 -0.732418 -0.306032 -0.641978 0.091033 0.799569 0.361793 0.923823 0.299894 -0.209280
444 0.059054 0.605682 -1.153540 -0.123676 0.756046 0.279024 -0.337731 1.485181 -0.068288 0.096403 -1.295379 0.000791 0.646862 0.334397 0.438703 -0.875081 0.490042 -1.076396 -2.157933 -0.500494 -0.296026 -0.224916 -1.458225 -1.292337 -0.594800 0.752590 -0.467473 0.418461 0.011405 1.115597 0.889343 0.478967
1245 0.152311 -0.065115 -0.400600 0.671826 -0.003638 0.889602 -0.701779 1.020797 1.250090 -0.909054 -2.263482 -1.149266 0.828426 -0.359720 1.268234 -0.124399 -0.139453 0.534474 -1.259245 -1.133155 -1.516864 -0.057888 0.170426 0.073560 -0.630343 0.371340 0.876433 0.958828 0.605833 0.221939 1.495057 0.676237
91 -0.190917 1.482437 -0.416285 0.234032 -0.860583 1.040742 -1.881450 0.987565 0.156322 -0.036894 -2.135796 -0.286610 0.352795 0.144387 -0.021872 0.169726 -0.436903 -0.751270 -1.543515 -0.488265 -0.009038 -0.684506 -0.164036 -1.057253 -0.608192 -0.495245 0.439580 0.566766 0.969719 1.123978 1.464846 -0.877551
747 0.556687 0.369768 0.305181 0.240115 0.341118 0.424165 -0.687731 1.112419 -0.414171 -0.639169 -0.944138 -0.777169 0.164468 -0.046166 0.766325 -0.335343 0.008626 -0.469055 -1.382085 -1.192276 -0.230886 -0.259908 -1.068796 -0.972011 -0.662815 -0.582356 -0.046957 1.037272 0.385623 1.535020 0.628556 -0.178585
748 0.689234 0.823181 -0.200957 0.194720 0.806690 0.631620 0.191503 -1.177010 -1.073916 -0.449795 -1.386333 -0.672007 0.857838 -1.101580 1.303737 -0.549847 -0.778715 -0.006801 -1.280201 -2.105658 -0.838965 -0.071274 -0.783415 -0.616139 0.707967 0.095650 -0.350333 0.431285 -0.813857 1.115898 1.342182 0.579480
232 -0.036648 -0.250981 -0.138946 0.155677 0.969433 0.135152 -0.228551 -0.223579 -1.130711 -0.861912 -1.534260 -0.372275 -0.528655 -0.603457 0.598423 0.687170 0.185672 -0.374817 -2.183457 -0.915472 -1.572050 -0.289583 0.430973 -2.199054 -0.289612 -1.119703 -0.270149 0.278325 0.547994 1.169005 0.777564 1.059670
1198 1.498829 1.281464 1.349990 1.156063 0.617451 0.484565 -0.421492 0.726368 0.764766 -0.682344 -1.074729 -0.563372 -1.025709 -0.064985 0.975067 0.016264 0.769139 -1.045068 -1.461211 -0.217590 -0.548987 0.626293 -1.423180 0.041096 0.704471 0.016304 0.768065 0.887873 0.340870 1.196550 0.158257 0.559047
1059 2.099106 -0.344335 0.600904 -0.544660 0.224584 -0.284633 -0.520806 -0.150062 -0.046556 -1.043935 -0.654451 -0.473201 -0.012123 -0.073332 0.177979 0.047394 -0.568666 -1.029968 -2.082689 -0.394845 -1.386721 1.030186 -0.099057 -1.459893 -0.568280 -0.935798 -0.338200 1.426679 -0.451712 1.735321 0.580967 -0.465001
613 0.745222 1.620129 0.332387 0.898639 -0.408662 1.234675 -0.482597 0.145669 0.420264 0.313339 -1.293652 -0.928873 -0.640964 0.250940 1.030250 -0.298400 -0.942990 -0.656088 -1.305881 -1.046014 1.060358 0.217457 -0.825532 -0.685159 -0.597815 -1.474109 0.211342 -0.225606 -0.215073 0.827022 1.342743 1.100265
1272 -0.493189 -0.109973 0.509046 0.143172 0.086510 0.750900 0.600193 0.996641 0.970240 0.134249 -1.076601 0.100711 -0.471452 -1.394951 1.178741 0.105291 -0.782916 -1.539778 -1.279932 -1.510685 0.060534 -0.062505 0.150980 -1.304007 -0.633372 -0.418789 1.067144 1.367782 0.207524 1.027984 1.682611 0.016265
1284 1.447378 1.273294 1.341770 1.155514 0.645125 0.457506 -0.474931 0.824292 0.807507 -0.718356 -1.096926 -0.567339 -0.999913 -0.008190 1.057204 -0.005239 0.765727 -1.034106 -1.559215 -0.204334 -0.511716 0.642717 -1.401746 -0.050566 0.730204 0.013049 0.703498 0.851015 0.298553 1.252028 0.186065 0.514666
1288 0.519889 0.144746 0.202650 0.053253 0.095338 0.013227 -0.310488 0.435067 -0.152471 -0.288277 -1.270173 -0.325924 0.073632 -0.238235 0.704525 -0.198087 -0.102684 -0.362222 -1.092719 -1.108501 -0.340084 -0.193550 -0.397072 -0.921923 -0.472545 -0.856448 0.074436 0.699915 0.336013 1.168576 1.033433 0.259279
26 0.578967 0.102506 0.258944 0.592687 0.344027 -0.089845 -0.396837 0.553553 -0.062390 -0.541552 -0.725592 -0.908714 0.178577 -0.177915 0.421373 -0.530216 -0.041467 -0.293430 -1.231353 -1.345522 -0.208262 -0.517956 -0.728691 -0.717631 -0.163705 -0.856820 0.191627 0.704057 0.281634 0.857760 0.530617 -0.064596
937 1.702714 0.105631 0.049517 0.661646 0.145963 1.249401 -0.502604 2.017430 0.591885 0.531463 -0.256655 0.550421 0.570532 0.132662 0.589939 0.574729 0.258152 0.102996 -1.069472 -1.169020 -0.129338 -0.191616 -1.599491 -2.018107 -0.750527 -0.544300 0.253264 1.035312 0.396682 0.220788 0.224408 0.686433
88 0.428728 0.177866 0.346926 0.628935 -0.026041 0.386593 -0.499754 0.570325 -0.002345 -0.496707 -0.819768 -0.534981 0.183237 0.027471 0.634418 -0.300626 0.289094 -0.185260 -0.873065 -1.296815 0.034021 -0.331553 -0.878780 -0.653280 -0.468273 -0.673116 0.192633 0.499812 0.548245 0.926836 0.787213 0.146369
395 0.955558 0.380411 0.402534 0.479425 0.133702 0.063453 -0.352541 0.835434 0.226177 -0.650701 -1.026390 -0.615467 0.115593 -0.135095 0.735329 -0.363395 0.184225 -0.122810 -1.132442 -1.538447 -0.319290 -0.625205 -0.548845 -0.924778 -0.333985 -0.755942 0.495134 1.028772 0.052208 0.973054 0.901033 -0.305516
586 0.528819 -0.178892 0.095924 0.011516 0.234035 0.089663 -0.232113 1.672878 -0.194541 -0.992576 -0.140152 -0.895028 -0.129928 -1.352558 -0.711994 -1.540333 0.600141 -0.097006 -0.823575 -1.029113 -0.333740 -0.079433 -0.059907 -2.041060 -0.537243 -0.035534 0.273136 2.483672 0.007612 -0.124466 0.921544 -0.249039
582 0.526997 -0.139647 0.187845 0.027147 0.192774 0.167670 -0.249700 1.663684 -0.168827 -1.016994 -0.171911 -0.892549 -0.133790 -1.320544 -0.660851 -1.497713 0.581639 -0.064060 -0.833196 -1.041359 -0.387441 -0.036223 -0.041687 -2.074038 -0.535124 -0.052047 0.275297 2.469126 0.013800 -0.099726 0.990297 -0.263176
246 0.665836 -0.053285 -0.800055 0.612949 -0.102435 0.778922 -1.558746 -0.242920 -0.136656 0.598511 -1.046289 -0.981646 -0.729562 -0.693593 0.505276 -0.088189 0.822705 -0.794892 0.088527 -1.853661 0.057727 -0.246199 -1.853328 -0.777449 0.972925 -0.224809 1.206134 0.404929 0.677769 1.322627 0.921516 -0.502560
514 1.582605 0.525379 -0.036624 0.808757 -0.204064 0.541603 -1.317505 -0.115128 1.393793 -0.561120 -1.375928 -0.399223 -0.369012 -0.230784 0.303326 -0.579837 0.677282 -0.666863 -1.134136 -1.785427 0.822875 -0.262614 0.073111 -1.296286 -0.109118 0.654645 -0.498415 1.401344 -0.479697 0.232386 0.997495 0.514365
624 -0.488521 -0.021162 0.554625 -0.067262 0.757268 1.067987 -0.261204 0.975043 -0.039481 0.026297 -1.201867 -1.347624 0.084900 0.020300 1.812510 0.800698 0.201014 0.245581 -1.731253 -1.682154 -0.666852 -0.003457 -0.397828 -0.053495 0.774660 -0.171176 0.777732 -0.507877 0.100037 2.019560 0.876271 0.671438
974 0.322784 1.123368 0.517320 -0.362838 -0.627080 0.860812 0.131503 0.219979 -0.245897 -1.071043 -1.546311 0.039993 0.009944 0.075411 1.205731 -0.453519 0.297888 0.343771 0.111839 -1.394562 -0.318784 -1.923440 0.360065 -1.569992 -0.126468 -1.198153 -0.542167 1.585926 0.231512 0.641653 1.420847 -0.387017
16 0.491846 0.257577 0.305326 0.611723 0.227282 0.013150 -0.414708 0.693954 0.140157 -0.520888 -0.778853 -0.754125 0.072333 -0.007612 0.624022 -0.706165 -0.102042 -0.361903 -1.430861 -1.648458 -0.287068 -0.488424 -0.755890 -0.858810 -0.088500 -0.892335 0.271751 0.602281 0.386569 0.758812 0.440109 -0.066071
881 0.602043 0.114647 0.296800 0.613237 0.330896 -0.069829 -0.472842 0.680919 0.064380 -0.647332 -0.843412 -1.030973 0.224863 -0.036591 0.579949 -0.686047 -0.119626 -0.329659 -1.331577 -1.587695 -0.306268 -0.693443 -0.844055 -0.889679 -0.152439 -0.930801 0.268902 0.808134 0.412043 0.991888 0.520093 -0.054989
884 0.503054 0.072832 0.325590 0.536802 0.182247 -0.088498 -0.468758 0.595619 0.097524 -0.495464 -0.852281 -0.835092 0.188525 -0.028006 0.489517 -0.578400 -0.032508 -0.221514 -1.188417 -1.371241 -0.177955 -0.430571 -0.791278 -0.773561 -0.089683 -0.756706 0.289877 0.755179 0.322281 0.992029 0.469019 -0.060596
324 0.387064 0.178197 0.354830 0.640493 0.022905 0.380130 -0.443827 0.538461 0.040864 -0.472552 -0.803741 -0.565894 0.221116 0.068509 0.601618 -0.337496 0.329279 -0.129763 -0.871309 -1.284383 0.095653 -0.398043 -0.885928 -0.659549 -0.451434 -0.698386 0.155869 0.483469 0.570667 0.892050 0.823789 0.111261
75 0.643145 0.331267 0.293677 0.195809 0.329943 0.433006 -0.665590 1.043030 -0.417874 -0.669544 -0.936463 -0.792066 0.127061 -0.090248 0.729395 -0.384190 0.020911 -0.482942 -1.359350 -1.205493 -0.282028 -0.221731 -1.081908 -0.957276 -0.633736 -0.654231 -0.096334 1.094814 0.347135 1.537218 0.660699 -0.143052
1047 0.554011 0.176370 0.231901 0.448557 0.296022 -0.069578 -0.467837 0.573082 0.059574 -0.512553 -0.659386 -0.914240 0.246860 -0.069991 0.477698 -0.629169 -0.078186 -0.303118 -1.108905 -1.413872 -0.252756 -0.556814 -0.827539 -0.783173 -0.113082 -0.817371 0.200734 0.742128 0.352900 0.846681 0.465916 -0.088489
1148 0.611456 0.440868 0.280947 -0.936446 0.665947 0.586371 -1.045998 -0.241494 -0.924535 0.223956 -0.963027 -0.722553 0.942072 1.305764 0.705770 -1.152111 -0.142627 0.394870 -0.681521 -1.830362 -1.214117 0.977314 -0.578184 -1.663317 -0.336438 -0.257591 -0.091155 1.094129 -0.410463 1.630100 0.862372 -1.398600
663 0.803727 -0.359455 -0.493084 0.123043 0.437729 0.774591 -0.798634 1.014220 0.157522 0.481747 -1.627284 0.534746 0.826783 0.845520 1.882630 -0.448200 0.031377 1.044852 -0.871574 -1.772589 -0.237704 -0.404406 0.192875 -0.317079 -0.235157 -1.736916 0.131347 0.512326 -0.041340 0.544608 1.258042 -0.243068
1266 0.534239 0.189510 0.230946 0.465936 0.302901 -0.068478 -0.474374 0.593440 0.062344 -0.519473 -0.710247 -0.924757 0.245705 -0.084317 0.506582 -0.653953 -0.066124 -0.308415 -1.156580 -1.466351 -0.250317 -0.577919 -0.856658 -0.812762 -0.098429 -0.836603 0.203027 0.761300 0.380986 0.862249 0.497278 -0.067222
697 1.022380 -0.028665 0.861582 0.921091 -0.032817 1.738026 -0.690410 0.718835 0.043852 -0.108283 -1.855552 0.015413 -0.666835 -0.312766 0.337954 -1.424860 1.051943 0.764325 -1.595754 -1.317414 0.588180 0.448548 -0.216136 0.422308 -0.085891 -0.842311 0.415994 0.759719 0.661240 0.810853 1.468930 0.687409
699 -0.107769 -0.224802 -0.063241 0.651296 -0.190485 -0.096629 -0.293735 0.060763 -0.722178 0.795817 -1.730623 -0.608835 0.242865 -0.564407 1.306944 -0.382747 0.543682 -1.169190 -0.904875 -0.816478 -0.422309 0.411659 -1.739772 0.222930 0.250604 -1.455817 0.822809 1.373536 -0.533829 0.932585 2.028682 0.698134
992 1.320919 1.320397 -1.283113 0.965884 0.567302 0.434409 -0.670199 0.733263 0.126561 -1.123523 -1.504930 -0.611049 0.197693 0.056374 1.040123 -0.316015 -0.035017 -0.552947 -0.949789 -0.034993 -0.480947 0.245557 0.814720 -1.360018 0.337541 -1.079980 0.734135 1.149476 1.356694 0.509727 1.320106 0.498252
126 1.272587 1.274399 -1.331463 0.938394 0.659841 0.429323 -0.722473 0.821787 0.193492 -1.073898 -1.485860 -0.625006 0.263416 0.057462 1.036857 -0.299938 -0.012910 -0.571434 -0.966896 -0.048677 -0.502858 0.263473 0.813046 -1.468204 0.316158 -1.033590 0.746289 1.154410 1.361949 0.474825 1.273149 0.513247
128 1.760593 0.584466 0.338082 -1.452499 0.138249 -0.017350 -0.066213 1.110275 0.739285 0.174831 -1.625939 0.157756 0.021225 -0.189147 1.371986 0.780520 -0.693306 -0.672524 -0.770878 -1.049212 -1.044465 -1.127303 -0.799489 -0.338925 -0.474884 -0.927118 1.176520 0.773361 0.663974 1.454607 0.425699 -0.284715
563 -0.574804 -0.121823 0.487634 0.238106 0.188516 0.783504 0.502556 0.988163 1.028703 0.135240 -1.081040 0.051509 -0.472096 -1.302649 1.114515 0.140117 -0.748585 -1.562980 -1.250620 -1.521951 0.139001 -0.034961 0.087955 -1.287822 -0.673673 -0.389031 1.015655 1.396194 0.232567 1.061907 1.727815 -0.035804
922 0.279452 0.359060 0.982644 -0.385076 0.094778 0.586111 0.027716 1.360966 -0.990673 -0.232744 -1.514095 -1.445005 0.855307 0.129553 0.221764 -0.219409 0.290099 -1.075527 -1.044890 -0.050676 -0.927947 0.563517 -0.934087 -0.144867 -0.268117 -1.615166 -0.906300 0.559137 0.481906 2.581348 0.170119 -0.249476
319 0.496309 0.057383 0.286362 0.566575 0.191881 -0.069325 -0.458930 0.570659 0.071924 -0.500545 -0.850264 -0.797353 0.168490 -0.022514 0.474009 -0.544450 -0.045300 -0.207418 -1.157560 -1.351121 -0.153159 -0.416196 -0.800501 -0.730283 -0.064228 -0.738636 0.304172 0.743880 0.359983 1.003208 0.475859 -0.073837
360 0.568382 0.097689 0.245212 0.586601 0.355371 -0.069390 -0.400526 0.553829 -0.055919 -0.511057 -0.710547 -0.887481 0.149369 -0.202164 0.425317 -0.512759 -0.041247 -0.305854 -1.227628 -1.333794 -0.243733 -0.498403 -0.753568 -0.726416 -0.185262 -0.842566 0.217504 0.732493 0.261218 0.819719 0.533607 -0.064418
254 0.650020 0.138677 0.322806 0.653884 0.340047 -0.069092 -0.488378 0.738545 0.047604 -0.671252 -0.839325 -1.071216 0.227944 -0.039627 0.603875 -0.777646 -0.110403 -0.293362 -1.393999 -1.717578 -0.323608 -0.720566 -0.930932 -0.945761 -0.134887 -1.016516 0.270816 0.860707 0.461560 1.020478 0.543275 -0.091736
731 0.784154 0.173204 0.360112 0.817501 0.406857 -0.089995 -0.561375 0.844010 0.047833 -0.817315 -0.978263 -1.262421 0.275223 -0.044901 0.649204 -0.942496 -0.132793 -0.367256 -1.704257 -2.007691 -0.356456 -0.888231 -1.114589 -1.082273 -0.167445 -1.236840 0.340728 1.024417 0.542222 1.179928 0.629595 -0.137422
733 -0.163899 -0.193197 -0.116162 0.689127 -0.240764 -0.131462 -0.343486 0.052515 -0.694500 0.810725 -1.730508 -0.559524 0.222006 -0.551423 1.321471 -0.441208 0.560315 -1.209735 -0.951690 -0.784007 -0.359085 0.388850 -1.748507 0.271629 0.262026 -1.507159 0.833811 1.404442 -0.524696 0.873235 2.064649 0.700667
734 0.799720 1.669571 0.425545 0.914244 -0.420303 1.208411 -0.411999 0.177046 0.539400 0.326549 -1.295314 -0.860146 -0.626770 0.291854 1.096141 -0.349823 -1.017713 -0.674168 -1.296574 -1.071339 1.056404 0.203608 -0.831660 -0.701248 -0.587550 -1.425554 0.176433 -0.181485 -0.292079 0.761960 1.290006 1.180346
736 0.618848 -0.008370 0.431814 0.220267 0.533651 0.185878 -0.420357 0.322551 -0.108198 -0.615944 -0.680463 -0.674868 0.360883 -0.504081 0.554470 -0.537460 0.126054 -0.136473 -1.021073 -1.452869 -0.523796 0.054640 -0.566173 -0.844398 -0.388651 -0.498588 0.236908 0.696925 0.229568 1.128207 0.452576 -0.156563
630 0.857230 -0.430404 -0.487101 0.135601 0.426312 0.732534 -0.787821 1.082401 0.239964 0.449197 -1.621136 0.630444 0.779903 0.877062 1.814082 -0.485113 0.049869 1.094396 -0.874831 -1.799271 -0.209246 -0.334021 0.207254 -0.268191 -0.186670 -1.701592 0.114147 0.485486 -0.049774 0.554383 1.290764 -0.221100
1210 0.618712 -0.034142 0.139621 0.365616 0.710787 -0.124651 -0.291052 1.075638 0.671795 -0.549388 -0.653355 -0.413871 0.368104 0.035023 0.479515 -0.619758 -0.115667 -0.150953 -1.834117 -1.011589 0.036692 -0.535838 -0.473870 -1.033871 -0.451244 -0.617045 -0.143861 0.566648 0.246530 0.902091 0.800578 0.384533
168 0.586133 0.401475 0.284336 -0.843381 0.668765 0.523561 -0.999030 -0.244834 -0.959239 0.279719 -0.972485 -0.751028 0.925495 1.284645 0.697545 -1.166919 -0.112117 0.355863 -0.718015 -1.808460 -1.194209 0.879686 -0.603329 -1.653295 -0.339766 -0.328521 -0.058298 1.049939 -0.382158 1.583263 0.840173 -1.363033
967 0.128316 -0.047443 -0.448037 0.675410 0.068187 0.845662 -0.714057 0.953923 1.197043 -0.979880 -2.316696 -1.110578 0.885420 -0.442132 1.210496 -0.156462 -0.115187 0.462317 -1.289786 -1.122536 -1.531431 -0.066891 0.130274 0.077242 -0.706843 0.385088 0.870206 0.945950 0.587584 0.220525 1.479561 0.704854
1102 -0.010124 -0.279938 -0.137710 0.179738 0.896334 0.109823 -0.276652 -0.324228 -1.012948 -0.828151 -1.546757 -0.274277 -0.552761 -0.590523 0.631384 0.659130 0.197573 -0.395575 -2.206319 -0.961217 -1.492949 -0.367940 0.424168 -2.223469 -0.349716 -1.079786 -0.136786 0.265277 0.526673 1.068714 0.778127 1.073863
1103 0.660092 0.165472 0.309254 0.676852 0.349493 -0.078880 -0.497778 0.752231 0.069985 -0.700789 -0.858998 -1.068909 0.235550 -0.050732 0.594009 -0.807995 -0.103909 -0.300321 -1.400489 -1.747520 -0.295689 -0.740048 -0.959777 -0.952875 -0.134291 -1.036620 0.283013 0.886922 0.450548 1.067961 0.549549 -0.095343
879 0.378168 0.179844 0.228000 0.699971 0.284787 0.052366 -0.423810 0.513356 0.090453 -0.552211 -0.849045 -0.721009 0.100527 -0.188914 0.335992 -0.556043 -0.049417 -0.234009 -1.098140 -1.411414 -0.258760 -0.385706 -0.844343 -0.821251 -0.094068 -0.795463 0.295765 0.637058 0.366890 0.951496 0.556072 -0.000543
1154 0.738626 -0.002702 -0.889533 0.578906 -0.025295 0.766451 -1.562703 -0.188495 -0.108963 0.589269 -1.074096 -1.017956 -0.713998 -0.618824 0.515727 -0.083450 0.788893 -0.803155 0.059339 -1.796221 0.062012 -0.233898 -1.800074 -0.788005 0.941176 -0.271685 1.196680 0.405444 0.766576 1.293504 0.965431 -0.488091
9 0.640815 -0.009812 0.096635 0.316971 0.757855 -0.015372 -0.309795 1.030277 0.626136 -0.611835 -0.705979 -0.401186 0.414375 -0.020801 0.548999 -0.578449 -0.118209 -0.097729 -1.848659 -1.060878 -0.051507 -0.465001 -0.452758 -1.051190 -0.463224 -0.591228 -0.155994 0.622240 0.233774 0.979987 0.869620 0.377353
1248 0.582963 0.843656 -0.209399 0.230144 0.847978 0.598228 0.162647 -1.209042 -1.102976 -0.444433 -1.339800 -0.686204 0.874258 -1.146509 1.319612 -0.597897 -0.782909 -0.005659 -1.276968 -2.093313 -0.796713 -0.066873 -0.820837 -0.655349 0.703889 0.163007 -0.378133 0.373478 -0.767315 1.155926 1.347566 0.598761
801 0.355397 0.287472 0.121622 0.652251 0.332324 0.125072 -0.400157 0.523641 -0.047526 -0.617020 -0.725315 -0.640448 0.153910 -0.055136 0.543005 -0.530002 0.226299 -0.220793 -1.168352 -1.238633 -0.151160 -0.533915 -0.674409 -0.740864 -0.341670 -0.666320 0.069275 0.787837 0.359931 0.926530 0.292348 -0.198044
359 0.952353 0.418820 0.391465 0.460333 0.103555 0.014249 -0.378014 0.850565 0.261101 -0.640229 -0.980263 -0.657384 0.097108 -0.228460 0.717805 -0.431103 0.120177 -0.146014 -1.122004 -1.525073 -0.382111 -0.554206 -0.545255 -0.924867 -0.246470 -0.721135 0.471690 1.073026 -0.020576 0.861972 0.827009 -0.305782
213 0.581316 0.150591 -0.721982 -0.018158 0.342600 0.160148 -0.069556 0.996376 -0.029819 -1.339660 -0.636099 -0.438490 0.116297 1.170954 1.859415 0.442796 -0.983850 -0.803927 -1.666890 -0.832722 0.198685 0.590513 -0.763995 -0.713052 -0.328681 -0.507592 -0.998142 0.758586 -0.230735 2.288008 0.510985 -1.285046
1075 0.267484 0.323006 0.979850 -0.423317 0.054979 0.641482 0.021745 1.363051 -0.933290 -0.288419 -1.510157 -1.453329 0.825566 0.084112 0.227894 -0.243883 0.281350 -1.044402 -1.071733 -0.045943 -0.887463 0.567753 -0.899519 -0.169928 -0.217955 -1.640894 -0.867243 0.555856 0.478161 2.562185 0.184235 -0.227492
1094 0.533657 0.172282 0.277458 0.608717 0.268977 -0.005761 -0.392127 0.575242 0.073448 -0.628911 -0.746493 -0.896739 0.182532 -0.075013 0.505084 -0.638898 -0.077379 -0.243497 -1.174884 -1.497056 -0.255262 -0.594229 -0.775895 -0.806749 -0.113766 -0.873751 0.263033 0.783086 0.353444 0.826340 0.459729 -0.061089
535 0.623885 0.126330 0.298768 0.647185 0.343560 -0.095743 -0.492710 0.669215 0.054128 -0.654194 -0.847672 -1.040480 0.227634 -0.049276 0.583300 -0.707379 -0.129423 -0.320585 -1.323914 -1.639258 -0.280908 -0.689388 -0.859535 -0.893491 -0.156866 -0.951663 0.284525 0.827891 0.419581 1.001221 0.534146 -0.083602
984 0.544269 0.121660 0.214330 0.142483 0.073941 -0.016605 -0.224577 0.429219 -0.191769 -0.277295 -1.220900 -0.275641 0.058314 -0.254830 0.761468 -0.204719 -0.058010 -0.342801 -1.066166 -1.173354 -0.279591 -0.364781 -0.393874 -0.921767 -0.428490 -0.800647 0.189612 0.645376 0.368239 1.035393 1.042526 0.295293
425 -0.868044 0.560307 0.677723 1.310622 -0.865732 -0.687979 -1.839298 1.303288 0.521143 -0.027629 -1.381115 -1.224361 -0.173840 0.276787 0.572067 -0.688625 -0.776459 -1.394956 -0.165047 -0.783047 1.243191 -0.727195 -1.005720 -1.135858 -0.908329 -0.977671 0.011198 0.432090 0.594712 1.778965 0.180177 0.559198
848 0.513466 0.256003 0.302318 0.617704 0.231603 0.008690 -0.428970 0.718259 0.147485 -0.519315 -0.767006 -0.766360 0.077544 -0.031016 0.606211 -0.712139 -0.073482 -0.364045 -1.421056 -1.646464 -0.289982 -0.487956 -0.763926 -0.875323 -0.109587 -0.896815 0.261374 0.594833 0.409672 0.787844 0.447934 -0.089414
738 1.491470 1.199581 0.539100 0.404741 0.289184 0.517859 -1.041772 -0.450864 0.494642 -1.137643 -1.190388 0.541258 0.894470 -0.590014 1.612810 0.197541 0.407341 -0.363508 -1.515914 -0.832500 -0.508794 0.300842 -1.639876 -0.364056 -0.507967 -1.031791 -0.788371 1.384277 -0.762121 0.100002 0.683471 0.139010
1024 0.535712 0.283752 0.350622 0.530198 0.224778 0.030192 -0.467231 0.808748 0.091446 -0.537188 -0.758965 -0.767958 0.523132 -0.045811 0.391591 -0.751289 0.309604 -0.130642 -0.906720 -1.193396 -0.036556 -0.617285 -0.566612 -0.651104 -0.474503 -0.993683 -0.067310 0.659585 0.457773 0.862396 0.487336 -0.021842
1182 0.521511 0.248991 0.372802 0.534562 0.150754 0.049520 -0.468904 0.793238 0.131603 -0.504054 -0.808747 -0.740551 0.464666 -0.044323 0.358937 -0.776496 0.306108 -0.157896 -0.949632 -1.226575 -0.063030 -0.610737 -0.577754 -0.678279 -0.465612 -1.023283 -0.067137 0.626742 0.420429 0.899044 0.519239 -0.007610
391 0.633420 0.098406 0.072400 0.378732 0.341886 0.100376 -0.382139 0.613161 0.072545 -0.644192 -0.571844 -0.807441 0.193126 -0.150280 0.629361 -0.454628 0.119638 -0.252342 -1.140228 -1.290167 -0.321006 -0.468990 -0.911709 -0.587344 -0.258643 -0.712651 0.122627 0.521689 0.374325 0.970147 0.602885 0.012027
501 1.544702 0.509582 -0.094170 0.722059 -0.192916 0.523692 -1.325641 -0.171746 1.401571 -0.530147 -1.326830 -0.389361 -0.361228 -0.212744 0.378441 -0.548317 0.642772 -0.670369 -1.183195 -1.755755 0.819144 -0.300505 0.099595 -1.299890 -0.103451 0.580472 -0.485223 1.440349 -0.455376 0.225144 0.940735 0.499562
151 1.811941 0.560051 0.416019 -1.461428 0.185648 -0.006262 -0.067526 1.057330 0.712216 0.175815 -1.617160 0.098683 -0.011398 -0.174173 1.353422 0.806574 -0.740066 -0.618302 -0.754588 -1.033666 -1.040874 -1.145277 -0.712911 -0.327054 -0.437967 -0.957501 1.199382 0.772068 0.722211 1.445324 0.352672 -0.291744
1168 1.529456 1.228734 0.533579 0.384114 0.239517 0.559012 -1.057730 -0.467166 0.468451 -1.146906 -1.230412 0.563190 0.876236 -0.550878 1.650079 0.180972 0.397935 -0.379839 -1.526408 -0.841045 -0.476722 0.338888 -1.609053 -0.414574 -0.566937 -1.029236 -0.786274 1.372592 -0.772739 0.199564 0.681910 0.066170
1203 0.582007 0.088163 0.093336 0.400016 0.305671 0.059163 -0.437474 0.643236 0.122777 -0.620923 -0.615038 -0.799097 0.185809 -0.140194 0.626683 -0.474770 0.105407 -0.258019 -1.114287 -1.260444 -0.270977 -0.477447 -0.942041 -0.613786 -0.298518 -0.742244 0.135577 0.499050 0.374938 1.001331 0.595296 0.056760
954 1.410406 -0.142149 -0.344919 -0.414981 -0.694875 0.670969 -0.786617 0.489081 0.121600 -0.601025 -1.524435 -0.665469 -1.105402 -0.209276 -0.928492 0.590806 0.248492 0.286322 -0.824490 -1.440735 -0.158447 0.238550 -0.969928 -0.451254 0.325845 -1.447647 -0.546999 0.785722 -0.027106 2.434367 1.218179 0.139959
41 0.319178 1.151931 0.534933 -0.344579 -0.692290 0.919416 0.113109 0.215320 -0.214104 -1.077848 -1.549363 0.043127 -0.008833 0.091406 1.256537 -0.439449 0.307836 0.386115 0.137079 -1.376282 -0.341494 -1.974197 0.359688 -1.554687 -0.103955 -1.171365 -0.537238 1.621819 0.173491 0.597395 1.407907 -0.437014
5 0.585212 0.134989 -0.715465 -0.079987 0.415035 0.116745 -0.070347 1.002608 -0.065658 -1.303788 -0.622878 -0.480494 0.123884 1.147245 1.793624 0.386559 -1.045395 -0.849504 -1.734993 -0.788590 0.186959 0.625064 -0.777688 -0.715827 -0.278634 -0.604114 -1.043941 0.709801 -0.182664 2.313637 0.475268 -1.238543
470 0.457856 0.134397 0.339733 0.306644 0.302317 0.297162 -0.175492 0.729694 0.055023 -0.665715 -0.955682 -0.330834 0.073973 -0.214878 0.694710 -0.159986 -0.060078 -0.187087 -0.902287 -1.093541 -0.376248 -0.178310 -0.525837 -0.923340 -0.489095 -0.583499 0.098176 1.098231 0.115369 0.979174 0.739813 -0.194749
474 0.525483 0.172087 0.252623 0.600864 0.256540 -0.018743 -0.401035 0.577283 0.060777 -0.636258 -0.762499 -0.926494 0.212312 -0.063799 0.494958 -0.656759 -0.062510 -0.224085 -1.165332 -1.499668 -0.276724 -0.612610 -0.780519 -0.814692 -0.095715 -0.881246 0.258982 0.790593 0.369847 0.826378 0.464510 -0.048928
446 0.562065 -0.238308 1.285999 -0.547770 1.010947 0.874861 0.055416 0.087608 -0.154331 -0.148919 -1.216220 -1.260865 -0.311062 -0.112443 0.703092 -0.105569 0.248129 -0.032425 -0.601961 -1.862556 0.625520 -0.566108 -0.080377 -0.166560 -0.062903 -0.224657 0.654079 1.891219 -1.191153 1.083622 0.602489 0.095902
491 -0.047745 -0.223820 -0.007400 0.838003 1.106149 -0.262043 -0.891401 0.598220 0.453019 -0.222744 -1.157678 -0.680068 0.400310 1.450918 0.403400 0.005459 -0.788246 -0.727391 -1.495161 -1.457808 0.420069 0.269087 -1.126350 0.494216 -0.492642 -0.527974 0.809601 0.175738 0.000870 0.277337 0.410602 -0.029375
828 1.647973 0.788293 0.864759 -0.467147 0.785722 -0.747413 -0.382855 1.315993 1.029989 -0.120302 -0.427590 -1.111934 0.965187 0.626689 0.965174 -1.259932 -0.513472 -0.139741 -1.317921 -0.439969 -0.638720 -0.785517 -0.096254 -0.736914 -0.690790 -0.766054 -0.070839 1.124679 0.032912 -0.399743 -0.153890 -0.171066
249 0.651286 0.872954 -0.420899 -0.833202 -0.593214 1.160940 -0.676262 0.912145 -0.149493 0.311461 -0.157717 -1.410787 0.040655 -1.151333 0.791696 -0.027345 0.871720 -0.680606 -1.292517 -0.533754 -1.206678 -0.392891 -0.209103 -1.700016 0.128134 -1.149931 0.064337 1.028797 0.297079 0.860004 0.759725 0.264730
164 0.413736 -0.547217 0.458085 -0.600750 -0.469493 1.233837 -1.143245 0.023905 -1.364364 -0.935619 -0.643354 -0.778102 0.460835 0.407789 0.573616 0.728419 -0.291411 0.293723 -0.646629 -1.544672 -0.374456 -0.491738 -1.121183 -0.644337 -0.592890 -0.749778 0.828851 0.120983 0.583539 0.562534 1.639143 0.148754
1108 -0.250856 -0.867913 0.485719 0.449307 0.852646 -0.614501 -0.240248 0.290027 -0.211308 -0.336466 0.209449 -0.698870 -0.189260 -0.502336 0.229659 -0.676668 0.068981 -0.889333 -1.305950 -0.605999 -0.090407 -0.290716 -1.911725 -0.810042 0.095383 -0.357671 0.100032 0.085716 1.292330 1.612217 -0.354069 0.128079
532 -0.154708 -0.111027 0.065768 0.787749 0.998222 -0.266739 -0.900742 0.630783 0.394345 -0.170896 -1.222601 -0.858779 0.458446 1.317068 0.448538 -0.030318 -0.832765 -0.867958 -1.324248 -1.399537 0.351393 0.331233 -1.177039 0.515790 -0.443574 -0.579065 0.780691 0.062344 -0.055960 0.295819 0.550920 0.004992
43 0.521898 -0.221253 1.281245 -0.530944 1.039171 0.795570 0.089506 0.155482 -0.099532 -0.162668 -1.179208 -1.248145 -0.326008 -0.178595 0.731906 -0.166340 0.218041 -0.018532 -0.623895 -1.862855 0.725400 -0.578965 -0.087618 -0.119396 -0.040824 -0.131269 0.624343 1.854843 -1.158649 1.096643 0.564966 0.148624
1273 0.720680 0.247250 0.399463 0.819963 0.379745 -0.078752 -0.636864 0.865562 0.064973 -0.835749 -0.959405 -1.148332 0.248220 -0.074592 0.686505 -0.876735 -0.114558 -0.310498 -1.639337 -1.921459 -0.396906 -0.749879 -1.037211 -1.045839 -0.180942 -1.134957 0.275160 0.990979 0.482969 1.173102 0.683483 -0.110511
325 0.444727 -0.497013 0.491210 -0.578273 -0.498456 1.239831 -1.120386 0.029641 -1.294539 -0.945486 -0.692284 -0.817272 0.433571 0.399021 0.599177 0.709194 -0.305183 0.299950 -0.663676 -1.564936 -0.403719 -0.453553 -1.038472 -0.661061 -0.610884 -0.775344 0.864746 0.148009 0.574468 0.566572 1.654568 0.144999
845 0.631428 0.870620 -0.408505 -0.839084 -0.689849 1.174135 -0.618204 0.964908 -0.174997 0.254625 -0.083479 -1.406890 0.089768 -1.179673 0.807443 -0.090223 0.868487 -0.627941 -1.322694 -0.488438 -1.241750 -0.422138 -0.202344 -1.695823 0.127251 -1.196870 -0.031895 1.050010 0.335177 0.825152 0.720321 0.243076
140 1.260313 0.486980 -0.480027 0.382703 1.000494 0.299161 -0.092942 0.116058 -0.511618 -0.501179 -0.714195 -0.193862 0.405108 -1.004591 0.689824 0.424050 1.155160 0.842730 -0.802120 -1.312811 -0.299356 -0.180241 -0.969758 -0.257572 -0.783639 0.059512 0.315414 0.786228 0.471352 1.625993 1.010314 -1.073726
516 -0.218592 -0.104353 0.111868 0.813827 1.050445 -0.195544 -0.895704 0.731670 0.349879 -0.132897 -1.245171 -0.865517 0.535872 1.261865 0.519020 0.012469 -0.826040 -0.927052 -1.324316 -1.349939 0.321109 0.388794 -1.238482 0.588749 -0.537604 -0.591583 0.741687 0.031552 -0.064369 0.308248 0.627745 0.006685
87 -0.075462 -0.200492 -0.022432 0.845787 1.128716 -0.220552 -0.894218 0.593099 0.466110 -0.185700 -1.138693 -0.641159 0.449623 1.438180 0.395387 0.020008 -0.741640 -0.749032 -1.361890 -1.471790 0.442423 0.164488 -1.106437 0.456465 -0.510619 -0.448138 0.781319 0.161001 0.038371 0.269555 0.444063 -0.064443
1194 0.219661 1.459606 0.207273 1.239532 -0.314019 -0.030036 -0.685779 1.109770 0.329897 -0.713088 -0.716659 -0.280452 0.494585 -1.162439 -0.026421 -1.407141 1.017791 -0.925802 0.061975 -1.223719 -0.466282 -0.742738 -0.998978 -0.557146 -0.723104 -0.003637 0.875059 0.507232 0.002695 0.579864 0.749084 0.232081
477 0.386098 0.010483 0.575062 1.034134 0.339850 0.519934 0.151193 0.064699 -0.428660 -0.840489 0.176896 -1.131495 0.129320 0.161217 0.721681 -0.598309 0.548816 0.424903 -1.237011 -1.151681 -0.463889 -0.090705 -0.746091 -0.374096 0.182031 -0.387363 0.368040 0.300768 -0.136283 -0.372789 0.020466 -0.291554
1243 0.787759 -0.118520 -0.408331 0.619652 0.440889 0.068833 -1.531371 0.880487 -0.004587 -0.930655 -0.148464 -0.108607 -0.275629 0.179778 -0.169763 -0.405999 0.066863 -0.427440 -1.145362 -0.555105 -0.179331 -0.860553 -0.579060 -0.563114 0.108766 -1.586399 -0.726150 0.238970 0.290894 0.408421 0.475395 -1.403542
374 1.258255 0.464031 -0.482637 0.410018 1.101437 0.321687 -0.029769 0.081885 -0.516722 -0.457886 -0.749242 -0.191832 0.418065 -0.987043 0.642787 0.430009 1.280683 0.880114 -0.779790 -1.310668 -0.205043 -0.243716 -0.936807 -0.272435 -0.826156 0.037785 0.309073 0.759745 0.467140 1.640462 1.029669 -1.083056
502 0.367432 -0.071308 0.532347 1.087614 0.240165 0.555378 0.207156 0.139843 -0.436327 -0.799855 0.176627 -1.183626 0.063549 0.108617 0.714823 -0.718986 0.519318 0.467544 -1.164571 -1.101734 -0.451632 -0.107259 -0.768809 -0.319857 0.202283 -0.501394 0.484584 0.377187 -0.083358 -0.416887 -0.025694 -0.250010
177 0.301057 0.575551 0.864702 0.961381 0.783010 -0.976013 -0.942335 -0.463788 0.492083 -0.754887 -1.449194 -1.290840 -0.216504 0.247253 -0.596254 -0.079343 -0.671033 0.068456 -1.336074 -0.824078 -0.439338 -0.664716 -0.524189 -1.648076 0.335871 -0.126474 -0.915251 -0.051752 -0.089569 1.161174 0.218642 0.422968
334 -0.041616 -0.181958 -0.484673 0.848237 0.290922 -0.586036 -0.342282 0.965586 -0.450661 -0.690704 -0.497183 -0.815930 0.600573 -0.142664 0.040077 -0.666525 -0.369871 -0.048616 -0.717478 -1.340404 0.093021 -1.311343 0.722342 -0.986412 -0.523513 -0.418241 0.683333 0.014342 0.705552 0.940032 -0.395064 0.107031
338 -0.224788 -0.790043 0.472060 0.468740 0.946651 -0.570175 -0.190903 0.315221 -0.298411 -0.315956 0.132686 -0.589455 -0.241119 -0.526164 0.232780 -0.658469 0.110255 -0.901231 -1.267496 -0.679013 -0.065639 -0.261530 -1.818234 -0.799965 -0.016406 -0.332329 0.083326 0.212002 1.185737 1.626732 -0.291091 0.060402
101 -0.025917 -0.176198 -0.463688 0.937797 0.341526 -0.610957 -0.374340 0.857068 -0.388286 -0.699156 -0.544262 -0.743881 0.609995 -0.139060 0.012608 -0.629975 -0.379376 0.011983 -0.717408 -1.367522 0.082612 -1.297718 0.733866 -0.990520 -0.537538 -0.344905 0.711275 0.029169 0.640564 0.959812 -0.387536 0.121475
917 0.451139 0.029469 0.566596 1.041189 0.355794 0.495666 0.159944 0.144259 -0.384034 -0.844023 0.228058 -1.103676 0.108682 0.209363 0.741235 -0.622244 0.475675 0.417775 -1.281854 -1.192600 -0.443599 -0.102778 -0.722082 -0.304695 0.197404 -0.407649 0.371448 0.251328 -0.108362 -0.364695 -0.071769 -0.276383
173 0.921992 0.102731 0.989422 0.309991 -0.154030 -0.487070 -0.557810 0.935805 -1.000068 0.163986 -1.189732 0.258891 -0.168146 0.098023 1.029132 -0.563091 -0.315477 -0.777068 -0.804344 -1.105138 0.229466 -0.198884 0.295247 -1.279159 -0.179629 0.260937 0.379840 0.044463 -0.544640 2.086557 1.045785 -0.197017
1187 -0.347956 -0.284198 0.474159 0.425531 -1.000115 -0.119012 -0.837458 0.460117 0.562243 -0.731086 -1.136140 0.352651 -0.586789 -0.315703 0.886966 -0.226191 1.170645 0.201511 -1.151395 -0.947966 0.461060 -0.753087 -1.337709 -1.263393 -1.163365 -0.925238 0.321802 0.316218 -0.250686 0.876328 0.536937 -0.293452
219 0.337051 0.008318 0.587820 1.051702 0.313129 0.560462 0.189828 0.132620 -0.385870 -0.895047 0.223671 -1.102160 0.095775 0.169337 0.719310 -0.637143 0.461047 0.503872 -1.231143 -1.089741 -0.410444 -0.131759 -0.760448 -0.385140 0.228304 -0.435785 0.422207 0.328884 -0.071295 -0.421922 0.006491 -0.236108
119 -0.039940 -0.208584 -0.411969 0.914041 0.283883 -0.572081 -0.357452 0.903104 -0.449423 -0.706770 -0.549371 -0.802704 0.572580 -0.122097 0.047316 -0.630961 -0.410281 -0.009562 -0.770451 -1.376263 0.147614 -1.371526 0.714447 -0.993272 -0.491623 -0.338850 0.705599 0.001023 0.696473 0.996229 -0.418456 0.114216
1106 0.572945 -0.910565 -0.137711 0.328824 0.044717 -0.795326 0.200633 -0.620065 0.603937 -0.146770 -0.931727 -1.398430 -0.336016 0.137071 -0.227333 -0.808087 -0.265315 -0.518051 -0.656621 -1.498805 -0.663828 -0.667165 -0.224874 -0.394641 0.923725 -1.742138 0.523968 0.931556 -0.032856 0.505728 0.701371 0.281168
1156 1.413925 0.397709 1.056724 0.530450 -0.853963 -0.292608 -0.079640 1.050054 0.307035 -0.097498 -0.130094 -0.850610 -0.634663 1.250844 -0.166391 -0.321606 0.129434 -0.354706 -0.334854 -1.078555 0.102550 -1.133921 -0.605857 -0.964665 0.148465 -0.757762 0.324608 0.317690 0.763996 0.761818 0.479403 0.151087
619 0.482032 -0.891627 -0.121710 0.300176 0.014826 -0.689073 0.084969 -0.617685 0.642622 -0.139662 -1.052881 -1.418665 -0.350958 0.119276 -0.307397 -0.725051 -0.241929 -0.481842 -0.472802 -1.593042 -0.635920 -0.844583 -0.164452 -0.441838 0.809261 -1.759645 0.592999 0.987829 -0.032943 0.339579 0.623757 0.303653
71 -0.237098 -0.752432 0.385106 -0.516793 0.126647 -0.333673 0.029920 1.066688 0.144374 -0.132120 0.156139 -0.771175 0.204552 0.155922 0.453916 -0.608697 0.096286 -0.361209 -0.595544 -0.996055 -0.625173 0.136214 -0.564702 -0.812222 -1.543468 -1.902728 0.563873 1.287052 -0.260174 0.826599 0.634862 -0.967145
1084 1.488738 0.437399 1.012985 0.580003 -0.829888 -0.252466 -0.079643 1.075580 0.283780 -0.112802 -0.161696 -0.837166 -0.672462 1.264486 -0.121970 -0.294617 0.135065 -0.331549 -0.361514 -1.024460 0.135125 -1.132430 -0.632737 -0.966617 0.166821 -0.793567 0.282193 0.329232 0.826566 0.818670 0.530801 0.206845
1011 1.469521 0.354559 1.143993 0.560370 -0.818080 -0.221134 -0.117622 1.085899 0.342633 -0.147360 -0.182228 -0.791833 -0.588738 1.391386 -0.136753 -0.321717 0.188870 -0.447333 -0.358158 -1.071669 0.196577 -1.140578 -0.536688 -0.920191 0.114063 -0.785715 0.351564 0.314258 0.828597 0.819841 0.616750 0.206720
1054 1.452022 0.760902 0.926613 0.556759 -1.006636 -0.349025 -0.156560 1.053719 0.265880 -0.264815 -0.142400 -0.954829 -0.659002 1.097895 -0.131654 -0.318900 -0.083501 -0.120888 -0.207618 -1.137841 0.087139 -1.218601 -0.843809 -0.979575 0.414827 -0.803316 0.212702 0.352141 0.710062 0.749397 0.297067 0.113329
190 -0.023192 -0.167506 -0.466909 0.853288 0.283902 -0.547231 -0.335998 0.916631 -0.433231 -0.645399 -0.527110 -0.765014 0.570200 -0.132971 0.017377 -0.623074 -0.387563 -0.016730 -0.695900 -1.331686 0.127104 -1.311702 0.758043 -0.976621 -0.525111 -0.329897 0.683691 0.058485 0.690682 0.974990 -0.408471 0.107624
721 0.786118 -0.157829 -0.403793 0.571527 0.465735 0.095449 -1.585239 0.888660 0.049832 -0.915127 -0.151834 -0.168750 -0.265409 0.146567 -0.147083 -0.392125 0.046357 -0.430032 -1.159733 -0.556375 -0.188204 -0.866356 -0.603592 -0.554525 0.054824 -1.575447 -0.718035 0.269878 0.300557 0.350809 0.435858 -1.404699
920 1.379735 0.323714 1.157530 0.492362 -0.820287 -0.255583 -0.047664 1.044851 0.366469 -0.079525 -0.158654 -0.791286 -0.581032 1.365446 -0.128989 -0.298846 0.150306 -0.428431 -0.365014 -1.075588 0.158093 -1.096148 -0.566933 -0.895971 0.099992 -0.784120 0.312927 0.322295 0.830837 0.839097 0.587705 0.216078
197 0.344891 -0.015248 0.608775 1.028642 0.280597 0.553110 0.160089 0.146565 -0.459003 -0.831071 0.237775 -1.092702 0.140254 0.160346 0.702374 -0.589893 0.534243 0.376094 -1.176633 -1.209880 -0.488925 -0.043149 -0.708165 -0.382872 0.183205 -0.496888 0.433422 0.310807 -0.136889 -0.405692 -0.033237 -0.319177
133 0.744655 -0.119267 -0.409281 0.626103 0.469363 0.096525 -1.552693 0.903396 0.064991 -0.893467 -0.118772 -0.156959 -0.277055 0.158001 -0.141388 -0.399344 0.073480 -0.412110 -1.185085 -0.538017 -0.164348 -0.925220 -0.663862 -0.588501 0.056525 -1.582713 -0.683006 0.199399 0.342020 0.367737 0.414113 -1.389772
1046 0.356877 0.021662 0.622339 1.076865 0.288531 0.523176 0.168350 0.082381 -0.416481 -0.888287 0.129457 -1.044141 0.079199 0.144777 0.693196 -0.592825 0.490634 0.394540 -1.261503 -1.118260 -0.462240 -0.125744 -0.706519 -0.416872 0.205617 -0.441200 0.372076 0.329614 -0.117549 -0.424237 0.025412 -0.253691
822 0.338086 -0.005279 0.476976 1.001226 0.385264 0.463349 0.134154 0.197176 -0.481755 -0.853781 0.260393 -1.180670 0.148302 0.141000 0.834888 -0.752292 0.391741 0.600218 -1.316938 -1.143125 -0.362265 -0.114247 -0.733971 -0.293658 0.244826 -0.466285 0.365280 0.353253 -0.023617 -0.392240 -0.000552 -0.296124
578 0.344445 0.034208 0.651998 1.027590 0.268464 0.534248 0.130500 0.131104 -0.396023 -0.896987 0.245004 -1.128007 0.082324 0.189129 0.662738 -0.584624 0.453152 0.444267 -1.226622 -1.102794 -0.406873 -0.054972 -0.665909 -0.452605 0.183061 -0.410010 0.358422 0.275308 -0.142331 -0.356387 0.048042 -0.284161
570 0.356028 0.034842 0.672038 1.031405 0.314375 0.490399 0.073701 0.110014 -0.356838 -0.907864 0.218825 -1.101213 0.085227 0.162816 0.718607 -0.594205 0.448074 0.494357 -1.265640 -1.132479 -0.404713 -0.114273 -0.739556 -0.441576 0.215463 -0.400562 0.396557 0.283020 -0.157857 -0.372152 0.041913 -0.256698
1279 0.002827 -0.157675 -0.458918 0.934747 0.283066 -0.655943 -0.392666 0.914538 -0.423051 -0.676435 -0.517225 -0.811073 0.607324 -0.114948 -0.047431 -0.708093 -0.419760 -0.045704 -0.669438 -1.390232 0.095838 -1.312013 0.768533 -0.967402 -0.457069 -0.377507 0.645312 0.015275 0.703072 0.993387 -0.386392 0.061015
784 0.331155 0.040657 0.480742 1.043445 0.363945 0.476962 0.141656 0.186161 -0.524281 -0.810515 0.250121 -1.174338 0.204031 0.195205 0.777191 -0.772940 0.466054 0.472267 -1.198886 -1.213897 -0.380957 -0.099047 -0.808762 -0.211237 0.251520 -0.451164 0.448480 0.343462 0.023205 -0.395388 -0.092517 -0.269655
1225 0.267794 1.425191 0.205601 1.203260 -0.400351 0.087485 -0.717080 1.098744 0.304073 -0.738196 -0.709381 -0.223362 0.474939 -1.108193 -0.103066 -1.393777 0.997089 -0.878368 0.058023 -1.195626 -0.506000 -0.614399 -0.858659 -0.618609 -0.704297 -0.035864 0.867477 0.560652 -0.044808 0.568436 0.723844 0.173814
1111 -0.082147 0.156403 1.133401 0.760899 -0.258308 0.020849 0.010486 1.192196 -0.650198 -1.120199 -0.875326 0.260578 -0.065700 -0.640970 1.295049 -0.226023 -1.092247 0.028151 -1.533607 -0.966845 0.136467 -0.163622 -0.941464 0.633901 -0.517387 -0.234442 -0.435628 1.284349 0.245156 1.072642 -0.223207 0.216567
1121 0.291160 -0.027334 0.455396 1.055660 0.384811 0.488822 0.151919 0.182984 -0.490066 -0.808777 0.191240 -1.121252 0.186487 0.127454 0.779893 -0.773458 0.377762 0.553222 -1.203387 -1.167360 -0.328563 -0.102977 -0.715613 -0.297034 0.249455 -0.455842 0.422690 0.429143 -0.056925 -0.404857 0.011671 -0.283484
898 0.350324 -0.739638 -0.073651 0.484148 -0.066399 -0.525996 -0.004111 -0.508175 0.710305 -0.208503 -1.238048 -1.397408 -0.376875 0.082768 -0.378011 -0.613423 -0.332469 -0.389581 -0.312689 -1.864511 -0.559858 -1.095967 -0.088496 -0.305669 0.706967 -1.774874 0.664821 1.188515 -0.007394 0.133240 0.525888 0.244488
114 0.533735 0.091187 0.295587 0.560982 0.276412 -0.062355 -0.430971 0.592951 0.040798 -0.565627 -0.674750 -0.909381 0.151886 -0.023452 0.474244 -0.676639 -0.069467 -0.250876 -1.185699 -1.433675 -0.293077 -0.564363 -0.794877 -0.722787 -0.086784 -0.809496 0.275795 0.711289 0.338570 0.813486 0.411127 -0.089953
237 0.643929 -0.847382 -0.094271 0.390590 0.143091 -0.910260 0.275744 -0.735705 0.586853 -0.215226 -0.839125 -1.195519 -0.542922 0.168197 -0.195083 -0.890745 -0.220761 -0.537683 -0.933715 -1.330947 -0.555229 -0.454584 -0.375678 -0.227049 1.127880 -1.620153 0.572592 0.700704 -0.126701 0.859732 0.811724 0.267008
860 -0.040829 -0.182515 -0.443687 0.884471 0.256740 -0.573812 -0.357739 0.956652 -0.390972 -0.684686 -0.536845 -0.789738 0.613101 -0.120171 0.019130 -0.667363 -0.383020 -0.068586 -0.744024 -1.350828 0.141804 -1.325633 0.765563 -0.972164 -0.501094 -0.370391 0.651868 0.026783 0.664574 0.957234 -0.444775 0.157716
947 -0.296140 -0.707243 0.500309 0.440599 0.899945 -0.691351 -0.142392 0.348736 -0.144405 -0.240040 0.158813 -0.630005 -0.184389 -0.498917 0.276762 -0.791544 0.116842 -0.892569 -1.259347 -0.686634 -0.046242 -0.288476 -1.721933 -0.827865 0.029043 -0.319619 0.096507 0.250704 1.172265 1.635959 -0.319295 0.073202
370 0.380833 -0.019651 0.588025 1.098907 0.322959 0.507853 0.172592 0.079006 -0.416557 -0.845422 0.221932 -1.116206 0.150815 0.133540 0.680939 -0.655317 0.470759 0.473204 -1.214384 -1.225094 -0.417902 -0.093695 -0.730737 -0.337360 0.232163 -0.482466 0.406758 0.285512 -0.054903 -0.363432 -0.036647 -0.243722
948 1.466619 0.678928 1.008768 0.451064 -0.947730 -0.332436 -0.098092 1.054754 0.238157 -0.135523 -0.111741 -0.926666 -0.648192 1.186904 -0.124659 -0.291815 -0.020061 -0.236059 -0.242557 -1.076515 0.031047 -1.156071 -0.755685 -1.002938 0.276611 -0.773179 0.178927 0.325363 0.765277 0.763680 0.356377 0.076941
211 0.753238 -0.134512 -0.413283 0.555589 0.445875 0.057725 -1.487250 0.855392 0.095412 -0.877943 -0.147897 -0.146774 -0.235640 0.117101 -0.163543 -0.421777 0.069829 -0.443715 -1.159098 -0.585627 -0.172233 -0.920765 -0.606598 -0.507417 0.077649 -1.553303 -0.662537 0.254685 0.282986 0.331463 0.439462 -1.394654
1287 -0.074129 0.195061 1.132763 0.832965 -0.323757 -0.042187 0.014656 1.134301 -0.599415 -1.186685 -0.955077 0.285128 -0.074446 -0.628917 1.201790 -0.260705 -1.054226 0.026091 -1.627985 -0.933575 0.131031 -0.193617 -0.915805 0.644164 -0.436423 -0.169879 -0.486746 1.337290 0.161471 1.093093 -0.202128 0.310433
1134 0.275630 1.468574 0.187697 1.180352 -0.291524 0.049697 -0.652060 1.074492 0.404401 -0.733913 -0.734557 -0.205641 0.560328 -1.153549 -0.058394 -1.404767 1.009347 -0.861944 0.087198 -1.144168 -0.439037 -0.755276 -0.873488 -0.606976 -0.762425 0.029369 0.869150 0.549548 -0.055255 0.499696 0.807733 0.279409
551 0.370209 0.070808 0.651617 1.003146 0.314748 0.555863 0.156998 0.095379 -0.424789 -0.906373 0.197583 -1.091741 0.029998 0.192452 0.716586 -0.587591 0.477672 0.448064 -1.287773 -1.108051 -0.504964 -0.108999 -0.783623 -0.444285 0.195608 -0.443509 0.349828 0.321910 -0.164049 -0.419879 -0.005267 -0.269326
926 -0.227336 -0.827001 0.403669 -0.540970 0.124178 -0.342555 0.034117 1.046281 0.143045 -0.150116 0.156217 -0.820026 0.173710 0.160185 0.440288 -0.590851 0.055914 -0.413965 -0.650848 -1.033928 -0.668082 0.112866 -0.578611 -0.812173 -1.511611 -1.948931 0.571561 1.289676 -0.266639 0.873525 0.628904 -0.989852
32 -0.344186 -0.362176 0.431974 0.509713 -0.968292 -0.113465 -0.805265 0.340258 0.584752 -0.730294 -1.101076 0.381326 -0.603094 -0.294884 0.858914 -0.159767 1.134079 0.302851 -1.171589 -0.891285 0.432723 -0.784905 -1.273128 -1.311941 -1.114983 -0.892108 0.332238 0.248531 -0.195679 0.751008 0.464477 -0.191011
511 0.381339 -0.014937 0.586813 1.070117 0.345471 0.503421 0.166871 0.169330 -0.495778 -0.828956 0.171949 -1.171912 0.118151 0.162058 0.735548 -0.682959 0.543515 0.368391 -1.214961 -1.170408 -0.450968 -0.100526 -0.791337 -0.350274 0.187664 -0.468162 0.389655 0.362564 -0.102394 -0.410241 -0.054920 -0.247122
290 0.231256 0.181927 -1.067571 1.397135 0.920751 0.844657 -0.847090 0.824445 0.730851 -1.122590 -0.674025 -0.346656 -0.037764 -1.029631 -0.577211 -0.246573 -0.572277 0.440338 -1.421567 -1.019447 0.135328 0.573423 -0.996348 -0.375573 -0.288699 -0.926594 -0.046945 0.946942 0.778156 0.759974 0.152575 0.804137
519 0.332932 0.028692 0.596698 1.066502 0.312163 0.492427 0.182231 0.082216 -0.424781 -0.859936 0.235651 -1.080189 0.106322 0.218269 0.700892 -0.601495 0.514053 0.424208 -1.197617 -1.104762 -0.430952 -0.114072 -0.706537 -0.401265 0.212644 -0.491942 0.403650 0.297518 -0.125620 -0.398405 0.002418 -0.263364
139 -0.243896 -0.778160 0.345090 -0.523381 0.113352 -0.344437 0.023196 1.039121 0.124665 -0.142921 0.184751 -0.801575 0.150826 0.121275 0.433675 -0.624810 0.082305 -0.390322 -0.599530 -0.989473 -0.644592 0.129711 -0.566266 -0.854813 -1.522560 -1.926484 0.544192 1.288978 -0.275126 0.858124 0.631018 -0.984187
475 0.308024 0.070399 0.583787 1.058170 0.320418 0.485005 0.203125 0.082475 -0.385952 -0.920766 0.168538 -1.216420 0.071892 0.162765 0.661394 -0.716038 0.463793 0.507686 -1.267650 -1.117249 -0.365481 -0.167824 -0.699368 -0.369299 0.312868 -0.499634 0.403032 0.313237 -0.111815 -0.379851 0.020936 -0.235263
53 -0.008138 -0.224944 -0.476587 0.922918 0.243526 -0.553887 -0.371888 0.915547 -0.435952 -0.688276 -0.564004 -0.760326 0.567441 -0.150720 0.022730 -0.623957 -0.384225 -0.015792 -0.719588 -1.367133 0.146648 -1.363429 0.754870 -1.014206 -0.512573 -0.399387 0.727010 0.021048 0.684989 0.959620 -0.404750 0.143799
867 0.747002 -0.111030 -0.329876 0.571345 0.438267 0.117686 -1.547809 0.896504 0.086723 -0.902923 -0.152246 -0.189410 -0.278901 0.162149 -0.151195 -0.393161 0.036532 -0.393689 -1.191612 -0.546416 -0.180491 -0.866521 -0.625033 -0.587750 0.100573 -1.569989 -0.668268 0.244045 0.340237 0.399891 0.441488 -1.388924
1192 1.506152 0.756399 0.914423 0.505355 -1.006946 -0.263423 -0.114852 1.048864 0.243089 -0.222068 -0.185701 -0.907428 -0.640030 1.075760 -0.096138 -0.273370 -0.049819 -0.079805 -0.199976 -1.101181 0.103928 -1.144303 -0.742688 -0.987581 0.361696 -0.794455 0.182908 0.346575 0.761393 0.763340 0.373130 0.174802
1066 1.471518 0.559526 0.999316 0.490095 -0.900437 -0.261580 -0.068520 1.047079 0.295686 -0.148245 -0.191312 -0.840099 -0.621009 1.187364 -0.128159 -0.246791 0.028356 -0.262990 -0.263615 -1.043747 0.089781 -1.089291 -0.699847 -0.941827 0.256690 -0.769627 0.250773 0.354235 0.756791 0.787993 0.440825 0.180958
