510 32
14 -0.126055 0.353133 0.388818 0.621090 1.383922 -0.267380 0.557337 -0.618612 0.306764 -0.698017 -1.097487 0.425933 -1.109141 0.317068 1.523900 -0.979540 -0.095322 -0.349182 -0.227829 0.048533 1.608827 -1.004209 1.681525 -0.626329 0.482131 1.004555 0.481780 0.544528 -0.933871 -0.226632 0.203629 -0.833441
259 0.592209 0.506894 0.481954 0.689312 -0.391481 -0.687119 0.622553 -0.572560 1.485803 -1.281190 -0.262806 1.067821 -1.149442 1.092109 -0.065338 -0.532636 0.363484 -0.490217 0.688875 0.285876 0.044726 -0.934626 0.552146 -0.786959 1.073806 0.094728 0.720304 -0.954432 0.266583 -0.283174 -0.450903 -0.460510
12 -0.554847 0.333374 -0.308446 0.837015 -0.188295 -0.838175 0.259170 -1.537009 0.455652 0.222524 1.186438 1.196586 -0.204535 -0.180152 0.795915 -0.661317 -0.876270 0.347500 -0.361455 -0.743792 0.854600 -0.725251 0.898415 -1.264659 0.473520 0.088694 0.778429 -0.456994 0.247389 -1.123794 0.214627 0.205997
174 0.590240 0.637405 0.381270 1.296246 -0.186076 -1.156921 0.556002 -1.207961 0.555488 -0.794568 -0.004217 0.391339 -0.556873 -0.108748 0.106769 -1.156249 -0.527027 -0.570323 -0.275201 -0.326354 0.214094 -0.930728 0.175333 -0.022081 0.943002 -0.867358 -0.010488 1.513258 -0.815199 0.315893 -0.748566 -0.781237
239 0.073186 0.134855 0.348211 1.295055 -0.398699 -0.463541 0.645135 -0.473506 0.414714 -0.094041 0.221764 0.173370 -0.557682 0.514165 0.433365 -0.336720 0.374989 0.510086 -0.694640 0.771173 1.244608 -0.672348 -0.027050 0.503417 0.244030 -0.164125 0.036056 -0.288258 -0.496075 -1.275870 -0.110285 -0.657586
54 0.021950 0.108043 0.300537 1.285070 -0.442064 -0.608769 0.666030 -0.420817 0.406846 -0.062104 0.294289 0.174236 -0.571592 0.496674 0.427060 -0.334008 0.385666 0.478157 -0.693884 0.799829 1.239585 -0.635213 -0.026398 0.509655 0.293728 -0.140527 0.047379 -0.348237 -0.488956 -1.228490 -0.129344 -0.664850
110 0.070746 0.138957 0.274319 1.237662 -0.352848 -0.541458 0.651298 -0.430593 0.351820 -0.039946 0.252152 0.158408 -0.520743 0.520327 0.393446 -0.321997 0.361954 0.551321 -0.666429 0.734434 1.256058 -0.667702 0.036192 0.509193 0.260032 -0.114507 0.131503 -0.281454 -0.484366 -1.224723 -0.111876 -0.632670
223 -0.021317 1.444931 -0.582590 0.821041 0.494108 -0.535880 0.210521 -0.966182 0.241862 -0.707864 -0.233812 0.537600 -0.469935 -0.877200 0.192610 -2.261343 0.149079 0.329376 -0.824128 -0.234275 1.104955 0.471312 -0.302533 0.591540 1.141163 -0.568111 0.474585 -0.964945 0.455732 -0.140637 -0.744883 -1.279166
299 -0.329568 -0.490365 -0.244811 1.754806 0.726128 -1.102947 0.008124 0.232358 -0.285578 -0.620429 0.315071 1.166062 -0.918571 -0.230217 -0.119796 -1.512597 1.012944 -0.068546 0.584494 -0.570528 0.333737 -0.704650 0.162439 -0.781932 0.541984 -0.030332 -0.158614 -0.415775 -0.167438 -0.328937 0.126980 -1.246893
120 -0.348907 -0.526813 -0.196969 1.778797 0.658518 -1.135825 -0.003497 0.200085 -0.234742 -0.630255 0.257036 1.129401 -0.910314 -0.303514 -0.075446 -1.497849 0.980125 -0.066900 0.623681 -0.566147 0.338459 -0.722375 0.191858 -0.763862 0.564108 0.015522 -0.137021 -0.459061 -0.227719 -0.287998 0.136818 -1.277657
212 -0.671426 -0.475916 -0.107693 0.616337 0.572972 -1.464867 -0.095229 -0.738564 0.686834 -0.243344 0.253805 0.708711 -0.829126 -0.331191 0.461823 -1.030196 0.216609 -0.369521 0.097780 1.470382 1.242553 -0.531280 0.404873 -0.132345 0.092106 1.194781 -0.195354 -0.505232 0.482951 0.270184 -1.157017 0.255872
222 -0.831258 0.808678 0.838174 1.243834 0.072589 -0.180345 0.325405 -1.063724 -0.140303 -0.402938 -0.234928 0.533335 -0.212819 0.109324 0.251506 -1.848179 0.245882 0.344964 1.674654 1.037458 0.496785 -0.247533 1.195868 -0.814799 0.229207 0.392512 0.316939 -0.582811 -0.060422 -1.479855 -0.021801 0.063074
269 -0.569852 -0.446989 -0.066237 0.539603 0.568590 -1.438361 -0.126860 -0.671692 0.692706 -0.264848 0.215447 0.707400 -0.767567 -0.330789 0.469015 -0.995207 0.243101 -0.389502 0.077720 1.505007 1.237134 -0.544890 0.375981 -0.121035 0.048766 1.193172 -0.186819 -0.524102 0.466968 0.265212 -1.158644 0.218952
302 -0.010799 1.236120 -0.620496 -0.020111 0.539897 -2.580927 -0.409591 0.028903 0.522004 -0.997124 0.134173 0.180607 -1.656573 0.349652 1.117552 -1.153077 0.088945 0.263527 -1.012879 -0.003225 1.862906 -0.559783 0.067850 -0.189930 0.012709 -0.735798 -0.239167 0.353066 0.523830 -1.310769 0.218902 0.329749
111 -0.042420 1.420182 -0.621535 0.789264 0.524665 -0.630482 0.165239 -1.067860 0.171799 -0.640020 -0.223081 0.508696 -0.596188 -0.935188 0.236851 -2.286430 0.097842 0.301239 -0.808366 -0.225212 1.152670 0.541236 -0.265689 0.587612 1.139903 -0.508759 0.403433 -0.887679 0.358768 -0.167116 -0.671773 -1.223960
7 0.451814 -0.599238 -0.901453 1.783757 0.271736 0.227309 -0.206855 -0.935079 0.804679 -0.716462 -1.011356 0.295637 -0.672760 -1.085917 0.531711 -0.924584 -0.320547 -0.186207 -0.683847 0.480578 1.418468 -1.212937 0.789641 -0.126548 0.305671 -0.400461 0.547412 0.136825 0.936358 -0.168750 0.042798 0.086048
13 0.477186 -0.608357 -0.834835 1.761505 0.252544 0.192710 -0.196625 -0.932870 0.827313 -0.723945 -1.060096 0.262687 -0.672642 -1.073551 0.525408 -0.939076 -0.331567 -0.158999 -0.705798 0.470297 1.404735 -1.213074 0.769327 -0.117772 0.284502 -0.358360 0.582762 0.085916 0.932609 -0.172244 0.051900 0.061250
149 0.511978 -0.612152 -0.879491 1.785860 0.252594 0.256602 -0.254468 -0.893300 0.865168 -0.726977 -1.067842 0.252269 -0.713645 -1.018034 0.513571 -0.927708 -0.299361 -0.188183 -0.706433 0.538373 1.403748 -1.260061 0.772442 -0.134043 0.307449 -0.358417 0.593466 0.175368 0.918769 -0.161113 0.052700 0.108052
74 0.272745 0.803769 0.299622 0.689373 0.158950 -0.183519 -0.012927 -0.863968 -0.285751 0.085963 0.008275 1.157360 -1.713807 0.080928 -0.212007 -1.285138 -0.562084 -0.186601 1.003346 -0.405880 1.544643 -2.174833 0.027378 -0.173333 0.301195 0.440849 1.195003 0.579071 0.240092 -0.896951 -0.938187 -0.149520
87 0.155184 0.440470 -0.129419 1.726518 0.836634 -1.285267 -0.790505 -0.736447 1.105893 -0.116741 -0.657071 0.953801 0.398102 1.003535 0.712341 -0.706157 -1.110624 -0.887184 0.163298 0.274142 1.003694 -0.047141 0.038320 0.206134 0.602079 -0.058724 -0.043895 -0.503763 0.228300 -0.739638 0.225944 -0.051217
897 0.019632 1.577462 -1.242596 0.869085 0.660376 0.203718 -0.300430 -1.090410 0.206369 -1.168485 0.034598 1.222931 0.717441 0.071168 0.447204 -1.014664 -0.332028 -0.338679 0.735027 1.041390 0.205730 -1.812532 0.441349 0.260829 0.713823 0.411689 0.366923 0.126934 -0.131181 -0.326512 -0.580233 -0.662372
330 0.165826 0.450350 -0.141634 1.711515 0.849631 -1.275082 -0.789322 -0.748653 1.022998 -0.079300 -0.603970 0.981607 0.377104 1.048085 0.663883 -0.733019 -1.140739 -0.899264 0.227669 0.290486 0.947464 -0.048840 0.030345 0.206411 0.614650 0.001053 0.017295 -0.426437 0.146599 -0.776096 0.186226 -0.030235
306 0.349166 1.171788 0.794652 -0.175451 0.435778 -2.192492 0.006973 0.480409 1.328224 -0.700882 0.099867 0.544836 0.298253 1.065245 0.793250 -1.218237 -0.254223 0.234487 0.268632 0.866009 0.950176 -1.540820 0.950329 -0.863098 -0.544765 0.487162 0.443618 0.055072 -0.618664 -1.533621 -0.687236 -0.426987
135 0.419244 0.394346 -1.610680 0.899760 -0.605724 -1.554729 -0.060120 -0.305494 1.249958 0.170247 0.821683 1.546892 -0.794933 -0.281981 0.472385 -0.177647 -0.188801 0.704608 -0.317614 0.114655 0.489549 -0.948489 0.166249 0.423831 1.505125 0.555252 -0.052756 -0.700941 0.260821 0.563945 -0.352950 -1.016027
133 -0.395006 0.543472 -0.603593 1.213087 0.316968 -0.479072 -1.403443 -0.390753 0.526576 -0.167224 1.018322 0.058120 -0.509577 -0.181713 -0.349841 -0.505034 -0.503599 -0.161508 0.024524 0.544227 1.107725 -0.752095 0.524463 -0.297261 0.007906 -0.677156 -0.210855 -0.010954 0.950438 -0.574575 -0.878710 -1.503053
146 0.071793 0.374251 0.516969 0.421562 -1.466682 -1.567734 -1.312876 -0.509806 0.288480 -0.873069 -0.614091 0.893319 -1.105012 -0.019831 1.257591 -0.728217 -1.241055 -0.521570 0.053535 0.537971 0.144659 -0.532491 1.163608 -0.244441 0.887917 0.000657 -0.171343 -0.090641 0.437146 -0.415389 -0.795140 -0.558733
99 0.179856 0.464116 -0.117933 1.711526 0.869687 -1.292217 -0.750581 -0.753325 1.056131 -0.136083 -0.659777 0.914828 0.409407 0.995760 0.679068 -0.687023 -1.106566 -0.923034 0.173511 0.278919 0.989729 -0.088000 0.077470 0.224657 0.640162 -0.061049 -0.023674 -0.471993 0.199076 -0.725494 0.168542 -0.032596
25 -0.409409 0.597624 -0.636635 1.194118 0.283876 -0.513263 -1.357868 -0.400311 0.478291 -0.104845 1.061753 0.080227 -0.507317 -0.283525 -0.319803 -0.507587 -0.549549 -0.190259 -0.053067 0.580618 1.089171 -0.736027 0.499293 -0.347496 -0.002655 -0.800628 -0.156405 0.067347 0.814597 -0.584416 -0.876494 -1.472980
350 -0.398658 -0.225120 -0.129535 0.756869 0.636404 -0.480468 1.450209 -0.734472 1.247454 -0.705027 -0.438618 1.563469 -1.079036 -0.729591 -1.209656 0.053894 -0.217582 0.068833 0.082409 0.296449 0.646157 -0.731531 1.479063 0.789968 1.008474 0.486910 -0.146516 0.088621 0.415628 -0.480003 -0.540910 -1.247626
19 0.370445 0.590298 -0.212799 -0.299479 0.149911 -0.843926 -0.150168 -1.360592 0.579131 -1.028911 0.215251 0.624393 -0.708940 -0.787757 -0.335857 -1.612619 -0.495193 1.011594 -0.128519 0.965274 -0.065519 -0.683101 0.469543 0.795427 0.046273 0.702772 -0.233261 0.414082 -0.024961 -2.016710 -0.169498 -0.482671
2 0.389210 0.605936 -0.260010 -0.296558 0.195878 -0.884206 -0.156774 -1.348598 0.509737 -1.066703 0.199198 0.640267 -0.752071 -0.818720 -0.338781 -1.600132 -0.546861 1.042337 -0.088857 1.063299 -0.005850 -0.696017 0.523336 0.802999 0.027534 0.716705 -0.259362 0.391259 -0.070177 -2.006738 -0.199038 -0.471168
4 -0.399854 0.608347 -0.580834 1.160885 0.319097 -0.506448 -1.364404 -0.381986 0.509885 -0.136280 1.060712 0.112218 -0.530792 -0.251550 -0.362564 -0.453853 -0.518765 -0.220640 -0.055370 0.544112 1.077075 -0.799469 0.490654 -0.367589 0.024245 -0.743990 -0.177839 0.036726 0.851691 -0.548052 -0.890184 -1.507558
10 -0.376105 0.579889 -0.681451 1.243501 0.332528 -0.459519 -1.351265 -0.427450 0.491590 -0.090664 1.057615 0.107659 -0.542269 -0.252087 -0.337486 -0.470640 -0.540058 -0.207408 -0.049039 0.578137 1.157827 -0.796744 0.526247 -0.333636 0.005350 -0.753440 -0.153223 0.019440 0.820987 -0.593351 -0.872199 -1.515581
180 0.778769 -0.034754 -0.482767 1.038356 0.417574 -1.167378 0.562535 0.249129 -0.153809 -0.134116 0.048392 0.156978 0.105704 -0.250808 0.100867 -0.774087 -1.154605 0.226550 0.684329 0.603125 -0.065322 -0.671457 1.426795 -0.519023 0.602124 0.123151 0.515127 -0.713215 0.319331 -0.424286 -1.030849 -0.622779
513 -1.654947 0.389429 -0.563261 0.532573 0.597313 -0.908867 0.531251 -0.332871 0.418531 -0.618854 -0.292300 0.146539 0.125132 0.469386 0.244060 -1.184222 -0.652546 0.566141 0.353129 0.211300 1.680997 -1.250759 1.246550 0.715521 1.139321 -0.711834 -0.621672 0.496147 1.055039 -0.400041 0.331882 -0.378926
337 -0.139911 0.099270 -0.040302 1.252164 0.293197 -0.574080 0.563440 -0.017487 -0.629936 -1.066317 0.332461 1.920473 0.289995 -1.433061 0.980872 -0.756798 -0.988813 0.529322 -0.433004 0.827762 1.355748 0.111133 0.850535 0.723534 0.637121 -0.192465 -0.420244 0.485824 -0.012547 -0.703309 -0.962854 -0.510189
250 0.123989 0.518764 -0.226031 1.531181 0.160489 -1.469533 0.297840 -0.818425 0.834163 -0.739114 0.032774 1.202125 -0.996116 0.113766 0.536823 -1.505173 -0.324738 0.331921 0.227525 0.916519 1.250638 -1.056591 1.120283 -0.408221 0.730758 -0.010552 0.220098 -0.127142 0.217172 -1.038394 -0.721424 -0.945923
326 1.321389 0.021550 -0.695709 0.193237 -0.229263 -0.545965 0.643332 -1.160362 0.341021 0.188287 -0.571888 0.387617 -0.544870 -0.115052 1.033002 -1.194728 1.084493 -0.008482 1.468364 0.826806 1.625599 -0.347974 0.730111 -0.321870 1.005948 -0.491316 0.248778 0.248456 0.290301 0.009969 -1.163347 -0.773401
122 0.315709 0.651526 -0.233096 -0.321201 0.177479 -0.810479 -0.158920 -1.353717 0.637497 -1.045255 0.145654 0.627206 -0.696866 -0.738731 -0.315325 -1.586769 -0.438318 1.052033 -0.124935 0.986640 -0.084032 -0.686826 0.481138 0.776331 0.010055 0.696627 -0.174465 0.516735 -0.066385 -2.037186 -0.077945 -0.501742
476 -1.679043 0.379917 -0.601150 0.512143 0.579526 -0.825547 0.500264 -0.407681 0.373365 -0.589435 -0.276282 0.140260 0.117063 0.408887 0.221972 -1.244364 -0.654430 0.620087 0.357570 0.285547 1.681812 -1.237376 1.234806 0.760866 1.101044 -0.697510 -0.695212 0.493305 1.057532 -0.458640 0.322265 -0.410479
163 -0.143937 0.084384 -0.021112 1.238961 0.315007 -0.632393 0.561637 0.003670 -0.669709 -1.086903 0.278307 1.865315 0.329269 -1.422569 0.924968 -0.789196 -0.970107 0.559314 -0.407320 0.815091 1.409410 0.109586 0.860972 0.721511 0.625453 -0.230743 -0.453915 0.477421 -0.021366 -0.723992 -0.921598 -0.520800
389 -0.667315 0.232225 -0.306666 0.783191 -0.205539 -0.955595 0.227504 -1.582285 0.459084 0.147681 1.126950 1.171578 -0.372064 -0.250589 0.817854 -0.573533 -0.906359 0.330534 -0.384217 -0.763176 0.827813 -0.781168 1.016589 -1.227723 0.505109 0.092212 0.607923 -0.616853 0.171867 -1.180771 0.350307 0.359574
219 0.092472 0.119394 0.370861 1.257073 -0.405943 -0.507755 0.685131 -0.423826 0.369896 0.017716 0.339940 0.163836 -0.531439 0.462826 0.477477 -0.350196 0.261672 0.484257 -0.619389 0.805688 1.214477 -0.642191 0.029464 0.418282 0.284897 -0.095557 0.076670 -0.311563 -0.558387 -1.216166 -0.177494 -0.672427
696 -0.413816 0.346158 -0.171197 0.778813 -0.242894 -0.606350 0.176181 -1.496430 0.782199 0.297476 1.174429 1.019953 -0.054789 -0.026961 0.803548 -0.803685 -0.830367 0.618551 -0.284698 -0.703504 0.973154 -0.470280 0.845003 -1.466673 0.655515 0.354558 1.007176 -0.165690 0.318623 -0.919550 -0.048517 0.059549
935 0.286248 1.413273 -0.156568 1.882160 -0.257396 -0.958341 0.117385 -0.558049 0.902119 -0.288737 0.139642 1.467064 -0.198710 1.038425 -0.685263 -1.149811 -0.085402 0.601058 0.046951 0.618782 -0.358063 -0.363608 0.875885 -0.125383 -0.354561 -1.736045 -1.181045 0.863809 0.364453 -1.892660 -0.067839 -0.766397
524 -0.731454 0.213392 0.125268 1.202133 -0.683991 -1.618609 -0.344718 -0.393477 0.430104 -0.961084 -0.491117 1.363379 -2.010129 -0.142597 0.203222 -1.039998 0.887768 0.231174 -0.299062 0.749093 1.529442 -0.096176 0.603766 0.943982 1.145246 0.174154 0.894649 1.285098 0.467464 0.232201 0.959508 -0.588236
28 0.450660 -0.550856 0.146901 2.156435 -0.380321 0.029500 -0.234960 -0.793469 0.797115 -1.617769 0.265990 0.078297 0.289178 0.686553 0.155837 -1.931552 -0.433789 0.888240 0.550052 -0.082665 -0.326084 -1.260871 0.984557 -0.052491 -0.279340 -0.051135 0.041585 0.460290 1.598925 -1.227301 -0.315737 -1.275301
704 0.094986 0.380104 -0.188992 1.305502 0.094143 -1.170755 0.250364 -0.667297 0.649666 -0.597665 0.027628 1.002814 -0.787584 0.054208 0.441796 -1.216118 -0.327689 0.185036 0.162779 0.709776 1.026284 -0.851344 0.887696 -0.289250 0.631237 0.012791 0.215986 -0.121757 0.167300 -0.772278 -0.597420 -0.750449
76 0.102930 0.395641 -0.276036 1.367627 0.208760 -1.308995 0.248617 -0.688965 0.755489 -0.659359 0.001783 1.057508 -0.816722 0.028141 0.516810 -1.333387 -0.288264 0.264324 0.193813 0.822924 1.063305 -0.943481 1.016718 -0.381214 0.654766 0.005670 0.167390 -0.137722 0.229790 -0.928644 -0.573106 -0.798659
1218 0.390292 0.470124 -0.487472 1.407061 0.484898 -1.055373 0.235770 -0.669398 0.522346 -0.700644 -0.186236 0.745666 -0.711467 -0.204131 0.440287 -1.480858 -0.432175 0.076246 -0.253337 0.461967 0.783190 -0.824624 0.799772 -0.508048 0.780827 -0.068583 0.396177 0.063644 0.208815 -0.630688 -0.458610 -0.903092
215 0.109378 0.405584 -0.260465 1.506367 0.045405 -1.053342 0.284206 -0.952096 0.516555 -0.229100 0.016914 0.843980 -0.835476 -0.328373 0.400369 -1.337075 -0.574704 0.036271 0.138183 0.699927 0.725588 -0.770857 0.850067 -0.457448 0.501669 -0.007985 0.157395 -0.006196 0.154422 -0.798652 -0.437919 -0.927322
53 0.722458 -0.067122 -0.461025 1.114148 0.415349 -1.171946 0.607660 0.255202 -0.208648 -0.117251 0.075834 0.178552 0.106007 -0.242495 0.094530 -0.620859 -1.190708 0.187099 0.635968 0.538733 0.099040 -0.713560 1.475642 -0.559926 0.609124 0.107548 0.569271 -0.830608 0.281380 -0.456309 -0.979504 -0.563858
910 1.150993 1.329067 -2.009580 1.452747 -0.320255 -0.725079 1.074369 -0.886775 0.142130 1.002603 -0.249577 0.892106 -0.743631 -0.675217 0.824913 -1.695982 -1.047321 -0.634727 -0.525123 0.526235 0.167909 -0.326145 0.114890 -1.226759 0.708372 -0.103193 0.087619 0.638344 0.560922 -0.303680 -0.040150 -1.317149
1162 0.001239 0.278796 -0.777036 0.930627 0.197513 -1.377215 0.659511 -0.800262 0.717938 -0.295704 -0.829264 -0.358280 0.042124 0.973989 0.212138 -2.084274 0.594964 0.168400 -0.740413 0.856121 0.112188 -1.207178 0.732923 -1.938748 0.009042 -1.057509 0.721820 0.313834 0.560795 -0.173648 0.132874 -0.376715
11 -0.056907 -1.299022 -0.249496 0.432027 -0.037761 -0.701271 -0.110562 -0.453718 0.749839 -0.633353 0.310686 0.865417 -1.853561 0.115169 0.930427 -0.827413 -0.634302 0.598605 0.498351 0.559251 0.522990 -0.889420 0.709848 -0.977161 -0.772015 -1.105890 0.563139 0.653479 -0.217994 -0.946214 -0.502828 -0.793273
405 0.321866 1.415199 -0.072652 1.869053 -0.289761 -0.951292 0.182692 -0.545350 0.990252 -0.293062 0.233679 1.555749 -0.225236 1.201127 -0.639887 -1.120788 -0.049504 0.519834 0.157587 0.697552 -0.415550 -0.387255 0.871340 -0.116884 -0.283873 -1.662778 -1.126715 0.778540 0.383845 -1.875919 -0.162803 -0.735889
1109 0.529905 0.422218 0.513440 0.705592 -0.300930 -0.858677 0.575447 -0.414263 1.464686 -1.194820 -0.257653 1.081684 -1.158033 1.106403 -0.036961 -0.397107 0.408877 -0.597699 0.638533 0.343298 0.119896 -1.041848 0.632217 -0.830802 0.925803 0.249243 0.800662 -1.033842 0.163852 -0.292290 -0.476783 -0.466547
0 0.619054 1.155003 -0.704124 1.530617 -0.123233 -1.278940 -0.253949 -0.060965 -0.520742 -0.930451 -0.924115 0.655875 0.740504 -0.627698 0.569129 -1.082145 -1.241774 0.772240 -0.553150 0.716971 1.041526 -1.156514 0.315717 -0.922615 -0.667124 -0.379483 0.127654 0.186655 -0.790641 -1.543192 0.545224 -1.108912
334 0.706258 -0.041988 -0.500788 1.134982 0.444666 -1.132060 0.599996 0.238388 -0.176834 -0.137497 0.093135 0.178007 0.093677 -0.259692 0.098121 -0.640092 -1.173701 0.161422 0.660487 0.533906 0.117168 -0.773239 1.500865 -0.547851 0.607353 0.155267 0.582160 -0.790043 0.221524 -0.516092 -0.987734 -0.570740
51 0.722312 -0.091151 -0.537339 1.219955 0.481139 -1.097653 0.564205 0.207208 -0.200304 -0.189192 0.099299 0.225373 0.108137 -0.275681 0.092101 -0.594861 -1.165947 0.128671 0.684704 0.548178 0.122775 -0.779604 1.489520 -0.590321 0.584437 0.110956 0.633962 -0.819671 0.284634 -0.491196 -1.008115 -0.542427
263 -0.058110 -1.244201 -0.277396 0.406108 -0.007204 -0.775506 -0.098578 -0.408235 0.711926 -0.627430 0.275971 0.880839 -1.760625 0.081465 0.939559 -0.824638 -0.665739 0.616720 0.466648 0.585041 0.505974 -0.888375 0.726613 -0.941138 -0.728233 -1.085223 0.538776 0.630187 -0.208164 -0.937502 -0.479641 -0.799574
304 -0.047654 -1.236679 -0.203674 0.425049 -0.018091 -0.742639 -0.108763 -0.423767 0.763580 -0.622139 0.297287 0.849418 -1.774700 0.148418 0.931819 -0.817591 -0.611738 0.611891 0.494455 0.571466 0.537000 -0.899266 0.708908 -0.987161 -0.808517 -1.092868 0.535848 0.652014 -0.242867 -0.951046 -0.518466 -0.768091
20 0.716598 -0.060141 -0.513052 1.197581 0.442712 -1.162923 0.598187 0.206895 -0.178452 -0.183956 0.060512 0.228687 0.122931 -0.251741 0.054387 -0.617922 -1.167706 0.150162 0.631672 0.539599 0.139077 -0.739864 1.480910 -0.572144 0.616728 0.155000 0.566803 -0.846243 0.333667 -0.467932 -1.002185 -0.568968
421 0.115263 0.442750 0.097738 0.851971 0.197848 -1.578032 -0.174309 -1.780029 1.155409 -0.563607 -1.261248 0.665322 -1.302485 -0.237397 -0.585342 -0.435826 -0.654888 0.880077 -0.072832 0.735287 0.850380 -0.239916 1.141527 -1.101217 0.884793 0.387141 -1.186668 -0.744204 -0.324811 -0.416229 0.423771 0.245401
158 0.678857 -0.049482 -0.492661 1.197583 0.411159 -1.146775 0.586278 0.206659 -0.185910 -0.151366 0.085505 0.181039 0.068190 -0.237062 0.088877 -0.652695 -1.184783 0.184820 0.647182 0.578693 0.090568 -0.739310 1.523599 -0.567478 0.617134 0.109603 0.575353 -0.804820 0.303088 -0.465142 -0.983347 -0.595396
565 0.123190 0.377556 0.035279 0.802115 0.257390 -1.628030 -0.061941 -1.903881 1.215262 -0.528495 -1.350746 0.612198 -1.354009 -0.269560 -0.632888 -0.607875 -0.642906 0.819994 -0.104796 0.687424 0.807150 -0.114783 1.191493 -1.123947 1.011507 0.252205 -1.172799 -0.864517 -0.226250 -0.314499 0.473428 0.158832
165 0.698174 -0.064782 -0.493021 1.172936 0.435887 -1.127701 0.608604 0.219780 -0.206287 -0.155382 0.102920 0.172594 0.131876 -0.257991 0.051103 -0.601648 -1.149890 0.075099 0.672108 0.590805 0.120984 -0.767913 1.513540 -0.573581 0.629996 0.157266 0.557733 -0.813944 0.312578 -0.434522 -1.041551 -0.562660
22 0.715266 -0.062294 -0.475648 1.200493 0.427286 -1.111035 0.615851 0.204299 -0.210054 -0.173955 0.075360 0.174438 0.144275 -0.241059 0.084122 -0.612872 -1.194329 0.127135 0.665452 0.574053 0.100845 -0.747293 1.501303 -0.556977 0.598889 0.149289 0.551693 -0.839522 0.295089 -0.448038 -0.980652 -0.582805
921 0.554683 0.516873 0.427810 0.661602 -0.304266 -0.788513 0.542102 -0.431704 1.485597 -1.290767 -0.291952 1.128624 -1.069792 1.067505 -0.037225 -0.459933 0.482538 -0.659818 0.544333 0.263683 0.128224 -1.094063 0.561839 -0.873448 0.798046 0.180380 0.879432 -1.019187 0.263884 -0.223581 -0.423651 -0.463968
201 0.750361 -0.008842 -0.504105 1.193554 0.398233 -1.157107 0.581291 0.222380 -0.214284 -0.133739 0.093065 0.213770 0.138672 -0.246636 0.093127 -0.643404 -1.168409 0.156998 0.654090 0.578186 0.079498 -0.718833 1.465964 -0.581622 0.638945 0.114993 0.545611 -0.836113 0.290404 -0.445412 -1.013304 -0.576729
264 0.725596 -0.047321 -0.457488 1.157145 0.439546 -1.168836 0.594391 0.261903 -0.174599 -0.135580 0.094264 0.157325 0.133336 -0.210681 0.063197 -0.651475 -1.151579 0.160649 0.606103 0.540987 0.099616 -0.724343 1.501656 -0.520132 0.594413 0.136914 0.549377 -0.833755 0.304998 -0.475487 -0.987038 -0.558113
164 0.546150 1.101586 -0.693782 1.525032 -0.103084 -1.273981 -0.265712 -0.067736 -0.570466 -0.891302 -0.961662 0.611959 0.750929 -0.629010 0.520973 -1.047560 -1.241687 0.785131 -0.519067 0.704556 1.089306 -1.190096 0.328221 -0.964607 -0.682238 -0.373427 0.078309 0.235966 -0.786808 -1.445791 0.600233 -1.067428
765 0.357463 0.711591 -0.503425 -0.078056 0.629286 -1.910700 0.279328 -0.120248 -0.460806 0.259903 1.025444 2.516011 -1.577947 0.559621 0.115234 -0.796864 0.149728 -0.357997 -0.010572 1.136000 0.786100 -0.162373 0.311321 -0.637310 0.194861 -0.374480 1.445600 -0.311021 0.632629 -0.571215 -1.372512 -0.749064
741 0.851385 0.983384 -1.649635 2.390010 -0.565027 -1.035494 0.667263 -0.100679 -0.649600 -0.388229 -0.114481 -0.225803 0.022002 -0.441115 -0.230121 -1.612115 0.236194 0.000498 0.444899 1.245760 1.605311 -0.097362 0.607720 0.931598 0.104655 -0.063324 -0.318646 0.820908 1.122299 -0.601727 -0.545635 -0.990759
759 -1.272909 0.231201 0.139372 0.746716 -0.311822 -1.127120 -0.407398 -1.675663 1.458983 -0.192725 0.796712 1.160845 -1.225099 0.215904 1.106263 -1.978979 0.902920 0.568137 -0.168772 0.458354 0.337278 0.078734 -0.011435 -0.531626 -0.052325 -0.990068 -1.144284 -0.077289 1.555750 -0.782498 -0.166200 -1.157538
233 0.481531 1.097911 -0.516532 0.127067 -0.654893 -1.075647 -0.109984 0.059224 1.208990 -0.059266 -0.858922 0.972986 -0.469112 0.631521 0.203849 -1.226297 -0.356237 1.492632 -0.011190 -0.015346 0.796151 -0.271261 0.371942 -0.817522 -0.238826 0.144062 -0.465330 -0.417591 0.974118 -0.607936 0.126635 -1.927825
148 0.518277 1.130543 -0.542464 0.166724 -0.685682 -1.078405 -0.086289 0.119026 1.191366 -0.125781 -0.867704 0.986982 -0.524915 0.622667 0.205223 -1.278167 -0.308900 1.459697 -0.074875 -0.082944 0.754733 -0.293734 0.412108 -0.769232 -0.206346 0.080350 -0.459511 -0.367103 1.006379 -0.636659 0.148221 -1.964248
838 0.008901 0.350411 -0.124546 1.330503 0.030553 -0.911746 0.166576 -0.616468 0.686583 -0.590402 0.102486 0.728756 -0.655097 0.050555 0.421409 -1.159521 -0.356373 0.368432 0.152138 0.606763 0.904523 -0.808869 0.908986 -0.160391 0.518566 -0.152093 0.065051 0.099839 0.239627 -0.772247 -0.505046 -0.793904
1250 0.020320 0.364025 -0.141536 1.350233 0.043874 -0.947972 0.190359 -0.626192 0.694955 -0.564997 0.104171 0.764206 -0.657783 0.060067 0.458613 -1.186340 -0.366846 0.362553 0.171455 0.637032 0.904124 -0.810312 0.934391 -0.178703 0.524915 -0.130739 0.093060 0.097250 0.249953 -0.795037 -0.547660 -0.792442
434 0.795379 1.036210 -1.627617 2.360400 -0.600044 -1.103930 0.628395 -0.093916 -0.609326 -0.304895 -0.054333 -0.217170 0.048320 -0.456326 -0.175532 -1.571878 0.177673 0.027692 0.454104 1.273198 1.619484 -0.094751 0.637649 0.903225 0.103631 0.007300 -0.308922 0.842140 1.049908 -0.603366 -0.567302 -0.865007
240 -0.822720 0.823383 0.847586 1.217691 0.073424 -0.130339 0.325208 -1.010883 -0.161762 -0.400199 -0.231775 0.529370 -0.209632 0.089955 0.252199 -1.833516 0.247185 0.325540 1.704405 1.054001 0.486360 -0.222914 1.156201 -0.785108 0.225755 0.429826 0.305784 -0.543638 -0.055248 -1.445270 -0.016221 0.060968
1150 0.328967 0.729563 -0.462202 -0.000865 0.573845 -1.840081 0.291695 -0.175987 -0.429947 0.291547 0.963825 2.381540 -1.530653 0.550421 0.066434 -0.809560 0.126205 -0.268698 -0.059472 1.089173 0.773939 -0.128140 0.326119 -0.594925 0.170521 -0.371378 1.327511 -0.236054 0.597780 -0.574830 -1.259975 -0.756459
27 1.304457 0.018174 -0.719990 0.238337 -0.186339 -0.589429 0.651124 -1.135324 0.304072 0.148959 -0.560568 0.377421 -0.611606 -0.084746 0.971770 -1.222443 1.065904 -0.042186 1.448247 0.853745 1.613615 -0.388738 0.764383 -0.300931 0.991502 -0.444956 0.244570 0.242923 0.314659 0.023475 -1.185879 -0.799888
1021 -1.267599 0.220849 0.210098 0.811655 -0.370865 -1.156996 -0.473523 -1.625287 1.465835 -0.129471 0.756624 1.070384 -1.269136 0.279338 1.004591 -1.915034 0.960251 0.534740 -0.061980 0.584002 0.237962 0.127232 0.001767 -0.399065 0.061302 -0.844468 -1.088128 -0.156693 1.569082 -0.750697 -0.155579 -1.069296
89 0.514435 1.164564 -0.551952 0.209981 -0.626314 -1.107992 -0.134126 0.086783 1.216510 -0.143978 -0.918925 1.008047 -0.499161 0.650966 0.160935 -1.210117 -0.315122 1.388525 -0.063567 -0.069071 0.838809 -0.320567 0.401894 -0.828421 -0.230092 0.058438 -0.463519 -0.418496 0.910090 -0.569168 0.123113 -1.873353
763 -0.187565 0.456163 -0.124970 0.811376 -0.249757 -0.379288 0.210508 -1.425359 0.994184 0.368399 1.017451 0.842903 0.139157 0.114400 0.752752 -0.989593 -0.760864 0.835062 -0.179192 -0.685764 1.110441 -0.224759 0.824150 -1.567250 0.805772 0.558544 1.206598 0.182646 0.357510 -0.584982 -0.435536 -0.280324
909 0.057240 0.180454 0.377689 1.253250 -0.431407 -0.507281 0.639976 -0.396001 0.414100 0.027893 0.262127 0.087382 -0.603757 0.473316 0.482312 -0.384317 0.397371 0.417130 -0.710159 0.841611 1.229176 -0.645365 -0.006403 0.410729 0.221638 -0.102632 0.076703 -0.331328 -0.463703 -1.263429 -0.114392 -0.673113
288 0.511521 1.188813 -0.555070 0.197955 -0.675875 -1.128000 -0.078437 0.080013 1.249154 -0.073478 -0.866112 1.052993 -0.487508 0.703506 0.179940 -1.216455 -0.330349 1.470656 -0.110961 -0.072162 0.812464 -0.299842 0.308209 -0.764769 -0.176214 0.039201 -0.522949 -0.381933 0.932981 -0.577895 0.131293 -1.936406
496 0.088444 0.051714 0.344587 1.258112 -0.339654 -0.614109 0.675147 -0.348418 0.325258 -0.035128 0.394113 0.140140 -0.493443 0.493027 0.373118 -0.314116 0.296757 0.502104 -0.633121 0.760556 1.193300 -0.684762 0.028549 0.429376 0.366603 -0.145277 0.049677 -0.376560 -0.539443 -1.240521 -0.223524 -0.640847
202 0.250718 -0.045906 -0.833406 1.729760 0.486168 -0.690238 -0.565289 0.498879 1.918657 -1.403422 0.624639 0.891087 -0.653238 -0.186646 -0.079254 -0.549604 -0.243885 0.704014 0.184302 0.534049 0.369543 0.132671 0.688627 -0.355515 0.747455 0.507147 0.212319 0.417854 0.280582 -1.345721 -0.437440 0.576987
450 -0.672680 0.220649 -0.350350 0.822081 -0.138295 -0.968224 0.245313 -1.533677 0.433895 0.178098 1.190916 1.192152 -0.399592 -0.274279 0.844127 -0.626644 -0.850195 0.268754 -0.380179 -0.721195 0.829282 -0.788469 0.971309 -1.169429 0.481411 0.067112 0.654383 -0.587076 0.246871 -1.154558 0.295455 0.287674
709 0.120690 0.466322 -0.239792 1.490976 0.177734 -1.421911 0.304724 -0.793634 0.822842 -0.725569 0.036676 1.145438 -0.949182 0.105511 0.525266 -1.447593 -0.316225 0.297852 0.199423 0.867245 1.199575 -1.051564 1.116285 -0.393865 0.719891 -0.001276 0.242930 -0.105769 0.244379 -0.987234 -0.691324 -0.900119
94 0.264513 -0.067158 -0.837535 1.719978 0.486677 -0.693122 -0.573967 0.518731 1.879718 -1.410078 0.639757 0.894250 -0.647721 -0.165787 -0.111153 -0.550593 -0.248755 0.705093 0.180096 0.496231 0.349669 0.172442 0.701911 -0.397504 0.710779 0.473427 0.200905 0.405898 0.270574 -1.341179 -0.464201 0.553688
206 0.129806 0.410057 0.527546 0.432710 -1.461449 -1.539599 -1.279739 -0.486524 0.260182 -0.869372 -0.562893 0.929659 -1.095152 -0.050286 1.268390 -0.777374 -1.219245 -0.592607 0.005084 0.544349 0.229540 -0.505558 1.147029 -0.307734 0.872962 0.029029 -0.107443 -0.070896 0.462071 -0.425837 -0.815160 -0.561336
394 0.600484 0.552957 0.424483 1.383093 -0.164263 -1.107807 0.697765 -1.011685 0.522673 -0.785912 -0.063453 0.408846 -0.579622 -0.205361 0.105263 -1.059741 -0.504268 -0.489740 -0.236218 -0.226545 0.158891 -0.841704 0.280831 -0.133149 1.093087 -0.816629 0.026652 1.503569 -0.816414 0.336437 -0.622717 -0.778934
825 0.510353 -0.632524 -0.923990 1.801048 0.290514 0.303829 -0.179945 -0.905636 0.787640 -0.666739 -1.001177 0.270203 -0.622396 -1.108369 0.565002 -0.908466 -0.370649 -0.209297 -0.674495 0.525214 1.352092 -1.193016 0.766508 -0.181193 0.258259 -0.316497 0.537792 0.123884 0.937654 -0.193785 0.032798 0.118929
249 0.549013 0.289789 -0.558164 0.757506 -0.463723 -0.697233 -0.120478 -0.334869 -0.439172 0.108728 0.195132 -0.017016 -1.673058 1.582493 -0.133644 -1.413488 -0.191989 0.743793 -0.016768 1.325288 0.677810 -1.544335 1.568149 -0.296028 1.018222 -0.176066 -0.802706 0.471706 0.801054 -0.143723 -1.083187 -0.056762
792 0.568775 0.330187 -0.595537 0.770292 -0.504376 -0.736234 -0.105731 -0.333051 -0.394098 0.159594 0.180381 -0.059349 -1.644324 1.620627 -0.166103 -1.387562 -0.226134 0.692091 -0.000744 1.324147 0.674032 -1.581326 1.576473 -0.302875 0.990935 -0.181683 -0.820140 0.491242 0.819425 -0.110674 -1.097366 -0.062579
1268 0.570401 0.593626 0.394900 1.269461 -0.179161 -1.116270 0.607766 -1.121087 0.514313 -0.814779 -0.044128 0.331867 -0.592093 -0.154347 0.056083 -1.123341 -0.543788 -0.496911 -0.217971 -0.266142 0.168881 -0.934950 0.313962 -0.089234 1.015704 -0.806870 -0.013364 1.461139 -0.830236 0.263348 -0.722865 -0.748070
454 0.385316 0.406639 -1.544934 0.922669 -0.632246 -1.555822 -0.024581 -0.326693 1.261509 0.160502 0.758268 1.512441 -0.761540 -0.306834 0.460213 -0.188627 -0.169887 0.750151 -0.210907 0.130253 0.544363 -1.010497 0.182978 0.420096 1.451190 0.505944 -0.064774 -0.652701 0.247462 0.549293 -0.350539 -0.979730
775 0.583109 0.574179 0.422793 1.297187 -0.204304 -1.138291 0.617630 -1.220495 0.535886 -0.735221 -0.031702 0.359610 -0.636829 -0.165781 0.089021 -1.124849 -0.501926 -0.501623 -0.249789 -0.280659 0.188134 -0.940411 0.268049 -0.089561 1.047279 -0.813555 -0.045597 1.568165 -0.819618 0.257699 -0.672984 -0.767515
816 0.312919 1.197767 0.853420 -0.244207 0.450630 -2.112405 -0.029963 0.410611 1.335484 -0.645289 0.073957 0.558014 0.236360 1.097717 0.749326 -1.196558 -0.250846 0.295350 0.296205 0.781801 0.963712 -1.525116 0.942088 -0.861984 -0.522053 0.447633 0.354427 0.119914 -0.632867 -1.503904 -0.598911 -0.355278
56 -0.570303 0.281671 -0.250386 0.811867 -0.231748 -0.837445 0.261055 -1.549931 0.615083 0.206162 1.132514 1.152248 -0.293728 -0.128371 0.725036 -0.604640 -0.861264 0.373932 -0.316399 -0.750306 0.872911 -0.728519 0.941357 -1.399471 0.555044 0.169480 0.774353 -0.476700 0.221224 -1.007829 0.128537 0.239194
290 0.250828 -0.095330 -0.821878 1.727793 0.515546 -0.663674 -0.580471 0.552709 1.903117 -1.438264 0.684810 0.915094 -0.671427 -0.160537 -0.090106 -0.508661 -0.232043 0.658283 0.200756 0.526995 0.328166 0.184446 0.678191 -0.362456 0.739078 0.496929 0.247168 0.398884 0.276767 -1.334161 -0.483879 0.589600
531 0.040335 0.206026 0.331900 1.240225 -0.425156 -0.590829 0.754768 -0.347691 0.311678 0.049217 0.262031 0.168095 -0.533496 0.465673 0.373986 -0.360830 0.382245 0.512349 -0.636206 0.781949 1.263389 -0.706031 -0.045645 0.414069 0.303270 -0.095725 0.086720 -0.396785 -0.410669 -1.218505 -0.153857 -0.669821
905 0.030115 0.125242 0.381247 1.265553 -0.391453 -0.643316 0.674412 -0.386262 0.286205 0.023845 0.293710 0.130576 -0.564642 0.510580 0.358428 -0.283895 0.310540 0.508745 -0.653814 0.794014 1.251638 -0.752742 -0.018632 0.404601 0.303778 -0.090962 0.094763 -0.363586 -0.478955 -1.230656 -0.183187 -0.639881
844 0.274808 0.798446 0.283767 0.687679 0.155333 -0.120512 -0.006912 -0.887213 -0.312073 0.061700 -0.073072 1.173638 -1.664748 0.006811 -0.257355 -1.236335 -0.569341 -0.149607 1.006196 -0.414038 1.535028 -2.096342 -0.000128 -0.167205 0.313695 0.373902 1.167156 0.589972 0.268532 -0.877580 -0.908861 -0.170001
153 -0.327887 -0.495550 -0.212007 1.730880 0.690940 -1.109215 -0.022026 0.167065 -0.310610 -0.624977 0.252927 1.173961 -0.926449 -0.248336 -0.075410 -1.493989 0.995810 -0.094356 0.611820 -0.553647 0.338051 -0.712547 0.211115 -0.743671 0.581225 0.013741 -0.089596 -0.421947 -0.174747 -0.239544 0.144367 -1.247968
428 0.392074 0.409513 -1.569480 0.876641 -0.627708 -1.527341 -0.069495 -0.320208 1.205959 0.177860 0.778973 1.548577 -0.767281 -0.305963 0.488724 -0.176551 -0.184985 0.721135 -0.221963 0.148603 0.509197 -0.930498 0.148815 0.434665 1.448176 0.552127 -0.073327 -0.609529 0.216741 0.549430 -0.324446 -0.975960
1039 0.577627 0.384681 0.639163 0.646329 -0.337243 -0.789326 0.671117 -0.567035 1.480615 -1.127633 -0.173188 1.029964 -1.266501 1.180296 -0.075008 -0.429132 0.214933 -0.398327 0.812239 0.382262 0.070827 -0.941294 0.616804 -0.839043 1.177630 0.179376 0.655849 -0.986196 0.059950 -0.414981 -0.561774 -0.528366
1076 0.691772 -0.042226 -0.504508 1.241972 0.420578 -1.108043 0.629623 0.178093 -0.176720 -0.120637 0.071669 0.236256 0.089733 -0.361206 0.062658 -0.607073 -1.204651 0.086881 0.695754 0.544194 0.091792 -0.730173 1.509673 -0.561367 0.692722 0.131109 0.583060 -0.824488 0.239364 -0.462019 -0.967854 -0.567447
887 0.078357 1.584286 -1.232963 0.838784 0.606519 0.260134 -0.231586 -1.121745 0.186956 -1.095246 -0.005110 1.111068 0.721033 0.128810 0.430948 -1.014260 -0.339384 -0.356268 0.729105 1.019498 0.184382 -1.781943 0.459210 0.329752 0.784036 0.323284 0.276555 0.184162 -0.083245 -0.295084 -0.590798 -0.678833
1143 0.071694 1.570927 -1.227368 0.867692 0.593123 0.223030 -0.251623 -1.121179 0.184683 -1.123173 -0.012399 1.113142 0.722285 0.111906 0.494782 -1.016548 -0.374483 -0.366833 0.717548 1.029464 0.202506 -1.790687 0.492907 0.304891 0.754428 0.333173 0.318046 0.222814 -0.107264 -0.297477 -0.613928 -0.716502
1092 -0.870287 0.800507 0.832252 1.233698 0.105929 -0.122368 0.329025 -1.051190 -0.163375 -0.434134 -0.249330 0.551096 -0.206445 0.048569 0.267248 -1.851248 0.233452 0.285354 1.667911 0.994091 0.474263 -0.239754 1.155432 -0.780043 0.229879 0.415347 0.328520 -0.537951 -0.095422 -1.448038 -0.020792 0.078061
676 -0.042137 -1.233546 -0.191097 0.410250 -0.067253 -0.696522 -0.091899 -0.412732 0.760704 -0.621927 0.343913 0.852013 -1.746506 0.103428 0.923985 -0.801639 -0.633671 0.560784 0.479378 0.542740 0.492841 -0.878614 0.705816 -0.982147 -0.788009 -1.058112 0.589847 0.650127 -0.248172 -0.948410 -0.520973 -0.788503
633 0.100903 1.532884 -1.186367 0.827191 0.612397 0.253895 -0.294929 -1.083747 0.235984 -1.098760 0.030934 1.163798 0.649622 0.102334 0.534217 -1.011673 -0.292864 -0.321664 0.678924 1.054781 0.254600 -1.833168 0.455161 0.271066 0.688274 0.379731 0.343960 0.185836 -0.124608 -0.282015 -0.558698 -0.653510
744 -0.842505 0.804950 0.808167 1.221816 0.094010 -0.180533 0.359337 -1.024773 -0.157029 -0.393978 -0.248786 0.550499 -0.216846 0.089325 0.213413 -1.836314 0.239218 0.284792 1.653552 0.985952 0.505078 -0.267958 1.178727 -0.772712 0.216480 0.395808 0.344691 -0.553286 -0.070713 -1.450601 -0.011467 0.052296
365 -0.343381 0.522993 -0.660547 1.259603 0.295460 -0.431373 -1.350974 -0.398894 0.433618 -0.121406 1.045189 0.140523 -0.533152 -0.225985 -0.286705 -0.532577 -0.527050 -0.226843 -0.031437 0.591405 1.141293 -0.756378 0.503067 -0.266259 0.037415 -0.754928 -0.145221 0.033233 0.876242 -0.543277 -0.895932 -1.568521
507 0.050509 0.682944 0.282680 0.839189 0.133128 -1.636058 -0.603275 -1.350186 0.921339 -0.692619 -1.044350 0.636356 -1.094172 0.184548 -0.381953 -0.000374 -0.778957 1.129280 0.110140 0.902525 1.101861 -0.673213 1.181688 -1.041019 0.439360 0.630097 -1.431084 -0.250582 -0.689290 -0.743347 0.198753 0.537460
637 0.103045 1.616297 -1.272448 0.903906 0.636871 0.307743 -0.208611 -1.100782 0.182205 -1.134589 0.019462 1.128697 0.701632 0.129697 0.482184 -1.003025 -0.383999 -0.347804 0.711851 0.967100 0.175088 -1.734702 0.517658 0.324715 0.773244 0.321993 0.320254 0.224331 -0.115783 -0.340970 -0.581422 -0.695242
442 -0.662879 -0.483195 -0.056578 0.629203 0.558480 -1.430378 -0.107417 -0.772871 0.690975 -0.259952 0.257602 0.745943 -0.832785 -0.378685 0.491029 -0.982820 0.193061 -0.347391 0.167705 1.497822 1.298823 -0.516084 0.410295 -0.112894 0.119604 1.154339 -0.182629 -0.555209 0.496094 0.207547 -1.170029 0.265663
841 -0.425991 -0.216649 -0.124680 0.754343 0.670575 -0.421726 1.381680 -0.796436 1.182671 -0.657300 -0.453711 1.535577 -1.116136 -0.681105 -1.170804 0.060762 -0.263592 0.035095 0.114392 0.249104 0.651746 -0.740068 1.435457 0.745370 0.955381 0.479172 -0.121842 0.089274 0.363182 -0.498891 -0.543031 -1.226328
781 -0.388962 -0.227759 -0.123247 0.728219 0.641207 -0.482169 1.383519 -0.733088 1.226506 -0.664618 -0.428493 1.532365 -1.068478 -0.697196 -1.166741 0.098241 -0.281785 0.068288 0.094517 0.283098 0.687179 -0.721745 1.413149 0.746210 0.896584 0.455025 -0.075914 0.075807 0.376698 -0.517660 -0.535872 -1.186726
1100 -0.429886 -0.183895 -0.170298 0.746512 0.658019 -0.445001 1.328717 -0.748363 1.202215 -0.684183 -0.445708 1.531975 -1.090408 -0.662288 -1.131307 0.072915 -0.259961 0.031901 0.099933 0.310817 0.678421 -0.730788 1.421471 0.747919 0.906556 0.439490 -0.125169 0.135553 0.386219 -0.474957 -0.570847 -1.199654
483 0.099897 0.206722 0.322237 1.299687 -0.408027 -0.512194 0.693312 -0.456202 0.364925 -0.052151 0.339663 0.129500 -0.479212 0.550992 0.416091 -0.282838 0.318837 0.487281 -0.630333 0.796218 1.209177 -0.709561 0.034658 0.543831 0.331783 -0.078791 0.102158 -0.401810 -0.457134 -1.270390 -0.220366 -0.689576
529 0.070700 0.089180 0.344460 1.211824 -0.411645 -0.551252 0.639177 -0.445879 0.475216 -0.037387 0.298664 0.194611 -0.542703 0.503368 0.464445 -0.330646 0.368371 0.429708 -0.643375 0.833255 1.232794 -0.643673 0.013380 0.502446 0.331450 -0.167309 0.018407 -0.352153 -0.597923 -1.213091 -0.144961 -0.741844
361 -0.601139 -0.500940 -0.015599 0.557543 0.579088 -1.462459 -0.154630 -0.701788 0.754024 -0.290168 0.227053 0.707264 -0.883842 -0.278344 0.449494 -0.958363 0.239335 -0.339080 0.148613 1.479472 1.250022 -0.563039 0.422847 -0.124216 0.060719 1.164481 -0.151427 -0.579187 0.512116 0.223383 -1.157432 0.280097
889 0.524223 0.364894 0.577714 0.656756 -0.269833 -0.826664 0.598455 -0.417885 1.421995 -1.170313 -0.214719 1.042527 -1.197689 1.142605 -0.040569 -0.430367 0.386561 -0.593950 0.665202 0.324342 0.130189 -0.984181 0.635796 -0.824531 0.962215 0.284768 0.825589 -1.017994 0.154806 -0.318474 -0.508429 -0.479075
413 -0.669559 -0.485602 -0.032515 0.625847 0.579794 -1.410176 -0.114639 -0.751100 0.723452 -0.227639 0.284696 0.754533 -0.867574 -0.297059 0.474847 -0.995641 0.237451 -0.402149 0.213376 1.460741 1.281773 -0.525751 0.401574 -0.131331 0.117533 1.171148 -0.152528 -0.539723 0.479405 0.191936 -1.191455 0.236902
1041 0.568127 0.449104 0.513124 0.656147 -0.328206 -0.785113 0.556510 -0.444082 1.402632 -1.223644 -0.246523 1.105665 -1.161358 1.118025 -0.018597 -0.478893 0.440346 -0.603271 0.612225 0.242784 0.186034 -1.066692 0.574396 -0.819082 0.898705 0.193737 0.877093 -0.989260 0.236812 -0.237531 -0.432542 -0.482220
205 -0.362064 0.558605 -0.666948 1.228805 0.284387 -0.481417 -1.347764 -0.367772 0.447710 -0.142139 1.068190 0.111928 -0.499254 -0.278285 -0.334928 -0.463592 -0.499671 -0.171626 -0.046701 0.620440 1.113365 -0.729234 0.490942 -0.272776 -0.015975 -0.754670 -0.157478 0.001497 0.889862 -0.587074 -0.898111 -1.520444
662 -0.627895 -0.461971 0.017076 0.606604 0.549078 -1.419730 -0.071901 -0.733475 0.734854 -0.257687 0.250240 0.758199 -0.788354 -0.366079 0.486763 -0.934659 0.205015 -0.381122 0.210629 1.450080 1.261716 -0.524710 0.420437 -0.157495 0.150173 1.171378 -0.175449 -0.532513 0.435679 0.205257 -1.170016 0.254067
415 0.509729 1.143124 -0.569371 0.126886 -0.635527 -1.122871 -0.116421 0.089590 1.168839 -0.092426 -0.857595 1.037962 -0.457535 0.605458 0.162420 -1.301708 -0.292441 1.436765 -0.059876 -0.039050 0.757971 -0.214914 0.378930 -0.742641 -0.243559 0.068085 -0.518307 -0.337353 0.919770 -0.581910 0.105308 -1.874878
1090 0.281559 1.408136 -0.067307 1.827854 -0.313138 -0.973281 0.147534 -0.527714 0.888022 -0.243586 0.152184 1.478383 -0.171456 1.079061 -0.654679 -1.097088 -0.058294 0.561798 0.094720 0.652998 -0.394424 -0.314375 0.798278 -0.130996 -0.349721 -1.682573 -1.162767 0.828575 0.361605 -1.822232 -0.121983 -0.697519
349 -0.106366 0.099657 0.000755 1.208420 0.286476 -0.565036 0.589862 -0.020689 -0.669988 -1.023931 0.269608 1.902038 0.280863 -1.420046 0.972260 -0.784607 -1.011446 0.553274 -0.402101 0.813681 1.350794 0.129745 0.829954 0.707389 0.616557 -0.227882 -0.420649 0.491103 -0.012939 -0.739677 -0.936437 -0.502845
552 -1.612192 0.391149 -0.631498 0.499856 0.643982 -0.836097 0.468022 -0.421161 0.394401 -0.614845 -0.356110 0.203009 0.170828 0.296384 0.209089 -1.322289 -0.585242 0.659234 0.304356 0.253848 1.643058 -1.145786 1.208552 0.821687 1.005307 -0.803705 -0.725316 0.610427 1.144481 -0.447809 0.316359 -0.372683
308 -0.586371 -0.462189 -0.018768 0.654956 0.554250 -1.415239 -0.117234 -0.724781 0.726257 -0.265891 0.252246 0.756818 -0.802711 -0.334228 0.468154 -0.942368 0.207625 -0.358901 0.185072 1.518314 1.291236 -0.501431 0.405342 -0.119970 0.138557 1.190037 -0.193321 -0.597151 0.514459 0.151501 -1.177161 0.249432
340 0.015359 0.137445 0.382284 1.290767 -0.413812 -0.570431 0.686610 -0.398748 0.341079 -0.028638 0.327004 0.197647 -0.526258 0.466164 0.381408 -0.325188 0.346261 0.562036 -0.588921 0.765239 1.181181 -0.663758 -0.041074 0.414543 0.333218 -0.134248 0.008578 -0.327844 -0.540704 -1.278054 -0.185210 -0.633587
43 -0.165250 0.364182 0.335712 0.596018 1.348319 -0.275155 0.552649 -0.631249 0.401997 -0.700801 -1.042670 0.379123 -1.087245 0.291310 1.476495 -0.987154 -0.091126 -0.351120 -0.274503 0.035451 1.537413 -1.000858 1.595007 -0.636889 0.436386 1.000706 0.419649 0.497029 -0.873114 -0.228968 0.267397 -0.767199
114 -0.097527 -0.187873 0.796465 0.479815 0.348305 -0.585412 0.032666 0.014648 0.705169 -0.010113 0.377810 0.663772 -1.192907 0.382664 1.196952 -2.285640 -0.078536 0.444318 0.171570 0.150659 0.177275 0.157329 1.123087 1.018573 1.786976 0.770424 0.162263 0.431000 0.617701 -0.848758 -0.392722 -1.447737
270 -0.660131 -0.481392 -0.029456 0.617707 0.590195 -1.423935 -0.121352 -0.726966 0.707791 -0.269496 0.266317 0.761181 -0.837394 -0.349407 0.487943 -0.983866 0.234147 -0.388436 0.191183 1.470793 1.289985 -0.506785 0.370911 -0.126357 0.125060 1.165765 -0.161136 -0.588526 0.489055 0.171746 -1.187141 0.220336
830 -0.085101 -0.113297 0.760793 0.531153 0.336577 -0.569072 0.049008 -0.020611 0.691582 0.020175 0.383120 0.690086 -1.187269 0.362100 1.170760 -2.307985 -0.046825 0.418139 0.153229 0.188652 0.195354 0.179995 1.084751 1.037894 1.728173 0.771330 0.162274 0.486042 0.627648 -0.801014 -0.362435 -1.448784
502 0.042649 0.182330 0.285672 1.237173 -0.389590 -0.478090 0.674397 -0.415859 0.433478 -0.046648 0.233851 0.173297 -0.568344 0.541164 0.335871 -0.305995 0.357587 0.576883 -0.590219 0.794596 1.255120 -0.677235 -0.009235 0.531971 0.237866 -0.124724 0.129407 -0.296262 -0.470427 -1.291808 -0.141611 -0.644591
973 0.070796 0.162803 0.341069 1.196358 -0.405234 -0.565513 0.649607 -0.385290 0.392846 0.006873 0.274554 0.142037 -0.600965 0.473593 0.438465 -0.339954 0.416431 0.424821 -0.677888 0.770277 1.269793 -0.691464 -0.035713 0.465093 0.244333 -0.126317 0.054583 -0.339919 -0.454948 -1.206459 -0.142907 -0.700008
446 -0.158804 0.382044 0.367044 0.593815 1.291451 -0.266825 0.538404 -0.625611 0.427062 -0.691870 -0.993422 0.382141 -1.035249 0.254693 1.465591 -0.971818 -0.110123 -0.333936 -0.235730 0.033906 1.540054 -1.040631 1.581307 -0.638187 0.441049 0.985191 0.433324 0.500143 -0.865788 -0.282985 0.203610 -0.807399
767 -0.415188 -0.262605 -0.159228 0.771164 0.639218 -0.482716 1.392066 -0.763717 1.245977 -0.668556 -0.431034 1.518852 -1.132267 -0.724268 -1.166387 0.097791 -0.232695 0.079048 0.081168 0.340330 0.674436 -0.674786 1.403193 0.752219 0.939030 0.400583 -0.107002 0.066283 0.471047 -0.488920 -0.551807 -1.209024
508 -1.639455 0.482535 -0.658723 0.543297 0.576649 -0.846663 0.469091 -0.385642 0.404236 -0.620008 -0.309638 0.196476 0.154374 0.383194 0.245068 -1.242957 -0.629913 0.593937 0.319482 0.321492 1.670832 -1.198349 1.253120 0.737623 1.066018 -0.736437 -0.691242 0.552504 1.081424 -0.416294 0.304634 -0.403218
916 0.061429 0.566339 0.197726 0.785524 0.148523 -1.521417 -0.371776 -1.457261 0.981639 -0.629241 -1.108307 0.559143 -1.139886 0.018330 -0.464949 -0.204958 -0.696538 1.009955 0.044530 0.761632 0.943493 -0.500566 1.142067 -1.036272 0.663120 0.472274 -1.313700 -0.434469 -0.518482 -0.542931 0.261422 0.377373
49 0.299145 0.076120 -1.076912 0.799035 1.123176 -0.549849 0.724138 -1.502105 0.129050 -0.400364 0.605689 1.480232 -0.430466 -0.078045 0.693816 -0.551469 0.646497 0.684866 -0.012790 1.394615 -0.094815 1.018621 1.414331 -0.478891 0.741798 1.021646 0.283665 -0.276761 -0.097997 -1.458399 -0.584845 -1.207280
3 -0.106211 -0.150810 0.754200 0.525463 0.347737 -0.544370 0.024393 0.024937 0.688008 0.001684 0.386295 0.635667 -1.161794 0.349433 1.201719 -2.278523 -0.064583 0.419355 0.140024 0.173622 0.157025 0.174072 1.100769 1.047332 1.773241 0.745752 0.152315 0.480473 0.640380 -0.794006 -0.396224 -1.466287
1273 0.102333 0.280661 -0.392321 1.224618 0.188382 -0.861759 0.100088 -0.689670 0.473383 -0.434380 0.088266 0.758311 -0.559242 -0.282744 0.203965 -1.072027 -0.144811 0.284633 0.112576 0.583378 0.818113 -0.544338 0.797425 -0.025610 0.618657 -0.125838 0.044068 0.000293 0.340710 -0.590096 -0.370425 -0.540631
101 0.650244 -0.088169 -0.531618 1.123893 0.468835 -1.135475 0.551759 0.211079 -0.209280 -0.163818 0.052876 0.211968 0.103544 -0.251564 0.108039 -0.620564 -1.191141 0.139081 0.666489 0.591795 0.115757 -0.722975 1.528185 -0.587704 0.628754 0.138282 0.541246 -0.813408 0.314649 -0.376323 -0.993732 -0.540099
1029 -0.150723 0.092754 -0.043619 1.247000 0.279128 -0.596329 0.571770 0.007152 -0.640354 -1.057190 0.287369 1.888004 0.276604 -1.386032 0.973184 -0.764732 -0.972206 0.566323 -0.383394 0.777886 1.365925 0.092424 0.833122 0.689648 0.614782 -0.241471 -0.399363 0.474812 -0.020939 -0.730235 -0.929643 -0.549500
36 0.164486 0.456374 -0.086921 1.654185 0.872958 -1.230383 -0.778785 -0.761051 1.051856 -0.100979 -0.645161 0.893876 0.367114 1.019501 0.699034 -0.700425 -1.111474 -0.887427 0.190503 0.261350 0.972766 -0.068747 0.090086 0.206804 0.595554 -0.002950 -0.013371 -0.481501 0.144661 -0.726939 0.196933 -0.000401
381 0.689127 -0.087565 -0.523347 1.197210 0.418209 -1.146600 0.575073 0.199688 -0.196657 -0.168170 0.055502 0.218831 0.072678 -0.264109 0.098125 -0.619360 -1.201270 0.128850 0.650730 0.560050 0.105601 -0.733083 1.521280 -0.606176 0.611741 0.105713 0.547902 -0.800484 0.309955 -0.402650 -0.998439 -0.576599
342 -0.066820 2.004530 -0.334615 0.636787 -0.506712 -1.456925 0.717555 0.367818 1.240429 -0.177410 -0.022249 0.360436 0.797496 -0.775381 0.488199 -1.210685 -0.082731 1.496776 0.037093 1.292978 0.605291 -1.227991 1.185989 -0.205978 0.908809 -0.740369 -1.172551 0.279821 -0.536144 -0.593116 -0.864270 0.047266
716 0.082660 0.316403 -0.125540 0.986949 0.130730 -0.951984 0.121216 -0.490860 0.565879 -0.514948 -0.069806 0.816559 -0.538293 -0.015530 0.361407 -0.983304 -0.199641 0.184479 0.089188 0.473700 0.815411 -0.655728 0.665650 -0.300107 0.425482 -0.029789 0.163121 -0.049537 0.194562 -0.553215 -0.395822 -0.539316
713 0.082816 0.370199 -0.216085 1.165848 0.193541 -1.097079 0.262506 -0.602464 0.602189 -0.591707 -0.012234 0.897237 -0.745285 0.034639 0.444167 -1.159510 -0.243321 0.199987 0.147710 0.676525 0.928440 -0.807873 0.861050 -0.271415 0.561922 -0.038142 0.169783 -0.142568 0.175979 -0.762611 -0.496778 -0.713887
1060 0.206665 0.779467 -0.591628 1.164246 -0.117036 -1.092497 0.083061 -0.477255 0.537319 -0.380245 -0.265040 0.872748 -0.217517 -0.226740 0.236199 -1.004848 -0.313053 0.471426 0.016640 0.552606 1.025219 -0.773063 0.615419 -0.448121 0.177589 -0.394814 0.095028 0.069666 0.091049 -0.757237 -0.138988 -0.697452
1062 0.183603 0.301154 -0.191228 1.107446 0.143334 -1.110540 0.260440 -0.619925 0.593533 -0.571604 0.032474 0.896611 -0.682296 0.082469 0.372778 -1.086215 -0.261859 0.129638 0.085697 0.652938 0.858927 -0.791756 0.816639 -0.338067 0.501770 -0.047659 0.171278 -0.062491 0.193575 -0.665444 -0.518638 -0.742043
296 0.289374 0.017263 -0.569583 1.715146 -0.682969 -1.689463 0.491789 -2.460366 -0.263571 0.058554 -0.384247 0.539304 -1.349106 -0.981772 -0.568499 -1.245063 -0.178285 0.313011 0.213561 -0.059178 0.282042 0.096827 1.165787 -0.217224 -0.746786 -0.490490 -0.667561 0.069199 0.499942 -0.289604 0.312424 -1.217999
295 0.232335 0.391219 -0.297819 1.331970 0.138711 -1.288629 0.227786 -0.772751 0.675320 -0.581372 0.021135 1.116898 -0.800859 0.012561 0.401624 -1.284313 -0.317863 0.170917 0.083431 0.715859 1.120491 -0.971285 0.947514 -0.332859 0.606562 -0.081588 0.259949 -0.096084 0.283217 -0.818729 -0.564586 -0.850121
1129 0.103813 0.391540 -0.131709 1.186943 0.338711 -1.119626 0.176156 -0.627355 0.604745 -0.701604 0.036800 0.919142 -0.605133 0.029556 0.406693 -1.225424 -0.185217 0.262142 0.106411 0.601488 1.006404 -0.709917 0.867616 -0.307164 0.434836 0.036563 0.059102 -0.134735 0.305752 -0.651722 -0.529383 -0.685702
1080 0.129397 0.377860 -0.208986 1.248750 0.162898 -1.116282 0.220688 -0.658948 0.670222 -0.599048 -0.022916 0.966581 -0.761912 -0.013347 0.335671 -1.176398 -0.297149 0.216254 0.157479 0.666477 0.962735 -0.770615 0.856214 -0.348826 0.547191 -0.024465 0.204121 -0.089314 0.234827 -0.762872 -0.500352 -0.680357
274 0.171524 0.864790 -0.254909 1.130501 0.043963 -1.191237 0.218308 -0.595438 0.396695 -0.621432 -0.447536 1.043177 -0.535191 -0.169466 0.026934 -1.002331 -0.178770 0.462220 -0.135771 0.616420 0.940540 -0.537523 0.542920 -0.070749 0.188905 -0.362758 -0.125941 -0.148151 0.056870 -0.857883 -0.065715 -0.713978
18 0.135793 0.354716 -0.296429 1.280752 0.173943 -1.168993 0.226948 -0.659059 0.711754 -0.572395 0.003261 1.042412 -0.781611 0.010063 0.418975 -1.261975 -0.327079 0.222615 0.113661 0.752680 1.071114 -0.852436 0.958447 -0.347216 0.630381 0.022204 0.199594 -0.070422 0.259764 -0.770841 -0.576442 -0.731522
1236 0.089856 0.436705 -0.541465 1.481592 0.111616 -0.725114 0.180024 -0.831411 0.348892 -0.511945 -0.031550 0.879739 -0.525296 -0.363799 0.413832 -1.092564 -0.163768 0.135294 -0.051862 0.667840 0.799373 -0.353344 0.841559 -0.045545 0.607813 0.027086 0.012205 0.060365 0.404586 -0.454207 -0.578578 -0.749373
444 0.118667 0.341770 -0.299807 1.283407 0.151109 -1.158902 0.247749 -0.660228 0.697988 -0.587637 0.003239 1.045659 -0.802800 -0.004470 0.411675 -1.246186 -0.340589 0.191588 0.116996 0.738573 1.061077 -0.839174 0.928508 -0.368651 0.606055 0.009752 0.182467 -0.069214 0.260165 -0.763242 -0.579388 -0.733102
1245 -0.404344 0.860035 -0.450726 0.024457 0.122097 -1.622185 0.018986 -0.679565 1.969506 0.175759 -0.453132 0.410154 -0.307320 0.521927 0.486280 -2.761975 0.939405 -0.667022 0.317120 0.095949 0.433410 -1.257508 0.402938 0.696244 -0.183628 0.617710 0.444968 0.506726 0.810734 -0.607494 -0.022171 -1.218722
1248 0.218257 0.372613 -0.226973 1.514065 0.196400 -1.365619 0.256953 -0.757354 0.809397 -0.750786 0.016831 1.107192 -0.948607 0.080523 0.507477 -1.315561 -0.408325 0.237102 0.163383 0.785858 1.185436 -1.065156 1.079501 -0.403287 0.738020 0.010853 0.256983 -0.112790 0.182222 -0.899891 -0.687698 -0.840676
335 0.854468 0.510998 -0.076529 1.504189 0.438846 -0.893943 0.273957 -0.934135 0.465236 -1.180185 -1.609836 1.343665 0.190485 0.302331 0.235502 -2.733005 -0.401690 0.818839 -0.319977 1.452502 0.184993 0.350352 0.811771 0.332468 -0.620681 0.010888 -0.154394 -0.168204 0.665765 -0.690703 0.557944 0.657350
91 0.277533 0.033048 -0.512411 1.658438 -0.642303 -1.706800 0.376831 -2.456963 -0.260591 0.047210 -0.396844 0.514598 -1.293115 -0.975166 -0.596263 -1.250025 -0.193286 0.293084 0.183743 -0.132416 0.335740 0.079904 1.185722 -0.347397 -0.810429 -0.531828 -0.641898 0.083626 0.499166 -0.269564 0.334062 -1.209094
747 0.525795 0.716677 -0.562785 1.420797 -0.079448 -0.987943 0.246257 -0.733095 0.424566 -0.441906 0.034750 0.929376 -0.431279 -0.551219 0.413366 -1.090642 -0.486470 0.356444 -0.259393 0.683607 0.744197 -0.647074 0.598495 -0.463189 0.333943 -0.178411 0.275746 0.271939 -0.006430 -0.959208 -0.547612 -0.739761
748 0.238470 0.378463 -0.250295 1.498951 0.173104 -1.373671 0.264612 -0.741044 0.813988 -0.732924 0.021871 1.094821 -0.961895 0.068848 0.489948 -1.294382 -0.422963 0.238392 0.111093 0.772099 1.194379 -1.032212 1.039843 -0.371417 0.725637 -0.040787 0.223270 -0.083248 0.189665 -0.885003 -0.693964 -0.885977
232 0.928856 0.806435 -0.960363 0.125687 0.778751 -0.203805 0.984533 -0.825412 -0.279214 -1.515900 -0.737191 1.303241 -0.948719 -0.624421 -0.174185 -1.206301 0.286043 0.820026 0.166797 -0.331598 0.012163 -1.751682 1.683698 -1.246271 0.001979 -0.531223 -0.001297 0.304049 0.458562 -1.391389 0.180771 -0.417711
1198 0.705639 1.829961 -0.091129 0.335061 0.678151 -0.920067 0.639074 0.345144 1.357818 -1.116423 -0.024214 2.234546 -0.548352 0.876666 0.900455 -2.044769 0.716628 0.533552 -0.223723 -0.348416 -0.160736 0.048154 0.748751 -0.217288 0.455068 0.548179 1.383573 0.627880 -0.752126 -0.635329 0.058481 -1.468362
1059 0.175701 0.310557 -0.207722 1.120308 0.148752 -1.093730 0.253821 -0.615199 0.580983 -0.587763 0.035457 0.903078 -0.693412 0.071221 0.350143 -1.096160 -0.245886 0.135376 0.092598 0.629633 0.854020 -0.790147 0.827726 -0.339482 0.489825 -0.043407 0.169583 -0.070498 0.190409 -0.696310 -0.502550 -0.743112
613 0.028980 0.397199 -0.288995 1.177052 0.037915 -0.785648 0.376328 -0.467654 0.593922 -0.535350 0.070049 0.697936 -0.656901 -0.150541 0.322218 -1.212402 -0.312363 0.209009 0.031322 0.614252 0.992591 -0.751634 0.705678 -0.249888 0.422821 -0.066960 0.223279 -0.110704 0.222837 -0.797150 -0.374193 -0.743940
1272 0.166101 0.432266 -0.234357 1.540277 0.190939 -1.431651 0.311947 -0.815347 0.852658 -0.757200 0.033735 1.208002 -0.960193 0.045793 0.522650 -1.472025 -0.376130 0.263757 0.193618 0.865111 1.233621 -1.054212 1.158706 -0.396424 0.724789 0.026619 0.262878 -0.117604 0.231336 -1.006524 -0.678105 -0.935716
1284 0.651877 1.795716 -0.086570 0.322504 0.708222 -0.962348 0.663376 0.336497 1.389865 -1.088407 -0.001163 2.186329 -0.542894 0.838709 0.966729 -2.039568 0.742571 0.486508 -0.214562 -0.274350 -0.078416 -0.019494 0.702479 -0.226558 0.454939 0.578208 1.340964 0.574572 -0.688581 -0.627410 0.000165 -1.461554
1288 0.071691 0.286048 -0.413830 1.151902 0.090828 -0.867547 0.173973 -0.684334 0.545751 -0.571689 -0.177224 0.683253 -0.491666 -0.354696 0.352876 -1.178150 -0.310161 0.201148 -0.106237 0.366314 0.853035 -0.538104 0.896807 -0.174111 0.628472 -0.218892 0.124418 -0.029844 0.342379 -0.492345 -0.218879 -0.545083
687 -0.368888 0.300620 -0.634845 0.998972 0.232021 -0.692745 -0.024193 -0.301332 0.064255 -0.272412 -1.137030 1.763402 -1.338419 -0.270233 0.744449 -1.809576 -1.045617 0.197936 0.694015 0.176458 0.283892 -0.100151 1.659608 -0.618522 1.240125 -0.158894 0.421579 0.850296 1.653524 1.186702 -0.266283 -0.413776
26 -0.934463 1.056573 -1.322657 1.192684 0.621644 -0.455614 1.406470 -1.397514 1.407204 -0.995658 0.695990 0.907038 -0.276972 -1.664018 -0.137891 -1.691490 0.869160 0.267556 -0.121608 -0.136732 0.861994 -0.658159 0.993078 -0.417869 0.118517 -0.827560 0.140032 0.630351 0.195984 -0.621517 1.001827 -0.348842
937 0.208056 0.741140 -0.551916 1.158642 -0.116171 -1.067096 0.070228 -0.471351 0.558677 -0.361363 -0.242472 0.840017 -0.199218 -0.202336 0.225581 -1.028399 -0.321574 0.447890 0.044173 0.509911 0.954450 -0.800822 0.611829 -0.462084 0.146908 -0.380151 0.155821 0.078269 0.084048 -0.763521 -0.129469 -0.741495
391 0.176600 0.349302 -0.253915 1.237821 0.185524 -1.133718 0.237203 -0.660094 0.682234 -0.612249 0.069376 0.936746 -0.772640 0.044244 0.444941 -1.184813 -0.248710 0.226571 0.164711 0.742553 0.983711 -0.856892 0.877777 -0.291693 0.577305 0.021189 0.164793 -0.134852 0.222739 -0.767923 -0.536592 -0.728091
145 -0.007851 -0.136863 -0.562233 1.238935 0.569956 -1.169516 -0.407366 -0.475414 0.837245 -1.049940 -0.253224 0.699644 -1.308510 0.066125 0.154386 -1.303540 -0.038876 0.317810 -0.277286 0.469755 1.039760 -0.648193 1.011911 0.297322 0.795199 -0.084978 0.311215 -0.237976 1.015263 -0.434345 -0.385650 -0.384677
395 -0.120117 1.055538 -0.702856 0.690384 0.776071 -2.228592 0.210536 -1.159152 0.842705 -1.045467 -0.859376 -0.081809 -0.414340 -0.208301 0.140345 -1.500996 -0.769074 -0.169252 0.778422 0.770665 -0.463535 0.773787 1.594251 -0.301253 1.312596 -0.191162 0.121178 0.901080 0.993600 -0.931465 0.611674 -0.056892
586 -0.042778 0.334862 -0.248391 1.290031 0.135605 -1.110963 0.021914 -0.579076 0.545181 -0.501948 -0.010585 0.758561 -0.569083 -0.063367 0.427058 -1.172603 -0.313451 0.213030 0.150170 0.615493 0.964229 -0.693461 0.788784 -0.356468 0.402963 0.010099 0.207966 0.052330 0.229680 -0.827316 -0.467568 -0.654752
582 -0.032352 0.346681 -0.252743 1.324143 0.171476 -1.106022 0.063677 -0.562879 0.558613 -0.508269 0.000848 0.765033 -0.542641 -0.094378 0.388721 -1.159966 -0.329656 0.196943 0.164493 0.605815 0.972340 -0.689488 0.803558 -0.320230 0.456162 0.042925 0.193439 0.050760 0.247459 -0.828899 -0.460597 -0.653195
246 0.060758 1.239887 -0.071987 0.845834 0.706362 -1.959193 0.689834 0.101209 0.037786 -1.091434 -1.051670 0.929405 -0.064026 -1.341497 -0.475064 -1.892988 0.382458 0.391278 0.451138 1.118798 0.962347 0.128067 0.875947 -1.168108 1.003124 -0.267143 -0.619975 -0.261557 1.377459 0.661931 -0.534070 -0.263712
514 0.369665 0.420190 -0.495198 1.127670 -0.787619 -0.761964 -0.531269 -1.103743 0.198057 -1.036294 -0.037415 0.458159 -0.932047 -0.331633 0.177825 -1.113158 -0.265469 2.004727 -0.195532 -0.433263 0.709265 0.558051 1.742745 0.061053 1.134379 -1.482981 -0.249802 0.675049 0.020412 -0.905737 0.719909 -1.459178
624 -0.097475 2.019778 -0.280930 0.624570 -0.523847 -1.412947 0.744704 0.415949 1.251980 -0.160628 -0.019055 0.393240 0.816734 -0.757801 0.499773 -1.282225 -0.062520 1.457933 0.080373 1.238310 0.538418 -1.235680 1.196541 -0.189364 0.968963 -0.628031 -1.135592 0.242105 -0.514684 -0.606559 -0.873634 0.069022
1228 0.009587 -0.087957 -0.527189 1.205925 0.554500 -1.182211 -0.407604 -0.488373 0.792894 -1.009100 -0.262631 0.677428 -1.295061 0.070468 0.155451 -1.290340 -0.012345 0.355115 -0.274959 0.444327 1.013611 -0.638061 0.992441 0.247012 0.792026 -0.108125 0.304381 -0.273376 0.971906 -0.456213 -0.352903 -0.353984
974 0.396972 0.669712 -1.623696 -0.349043 -0.376126 -1.672105 0.664491 -0.155185 -0.544370 -1.123717 -0.664913 2.896841 0.100780 0.606579 0.371314 -0.439754 -0.558923 0.904288 -0.418456 0.710041 0.888600 -0.975814 0.574318 -0.310139 0.214657 -0.699924 0.095169 -0.217493 0.630401 -1.207962 -0.123584 -0.456583
1127 0.249165 -0.066915 -0.087687 1.078989 1.016224 -0.797693 0.860830 0.099930 0.236283 -0.944447 -1.570114 1.341662 -0.611171 -0.631205 0.227790 -2.334953 0.543183 0.477293 -0.054696 1.361560 0.337616 -0.661553 -0.096264 0.506125 0.157433 -0.974980 -0.186469 1.939176 0.138991 -0.910921 -0.644824 -0.602575
16 -0.016201 1.528281 -1.200655 0.609903 -0.070018 -1.226375 0.122870 -0.835178 0.711237 -0.788687 -1.014218 0.448487 0.727728 -0.399624 0.603797 -1.693677 -1.416867 -0.041789 -0.192610 -0.577076 1.193787 0.090895 2.052431 -1.405234 0.126398 -0.790210 -0.801177 -0.320645 0.484497 -1.201929 -0.417875 0.442413
881 0.848082 0.875264 -0.226288 0.393519 -0.423760 -1.413325 1.030640 -0.723593 1.148231 -1.283575 -1.169759 1.695128 0.017510 -0.523658 1.189979 -0.040953 -0.558423 0.855512 -0.519212 0.783289 0.408510 -0.272038 2.109601 -0.450481 0.549955 0.112691 0.941708 0.566054 0.171417 0.292244 0.477145 -0.228298
884 0.505144 0.587660 -0.443860 0.313756 -0.340434 -2.149793 -0.307837 -0.773436 -0.005681 -0.159720 -0.384569 0.929273 -0.967834 -1.767228 0.681216 -1.502309 0.231124 1.748768 -0.601824 -0.069231 1.555924 -0.008944 0.071518 -1.536215 0.811029 0.163693 0.427266 0.649411 -0.244673 -0.144593 -0.270709 -0.264597
320 0.465707 1.722384 -1.187424 0.697374 -0.262861 -0.584271 0.123705 0.486902 1.368870 -1.489783 -0.711827 1.558094 -1.124468 0.070906 0.600264 -1.348192 -0.339335 -0.213730 -0.150692 1.104511 0.429648 -0.450437 0.044094 -0.555138 -0.149840 -0.996510 1.112303 1.316109 1.058099 -0.291562 -0.617122 0.176979
324 -0.212464 0.939777 -0.242794 0.942697 -0.335764 -1.683041 0.307660 -0.835420 -0.063831 0.001692 0.259321 1.506863 0.232973 -0.264075 0.697052 -2.178591 -0.101037 -0.141908 0.737448 1.562344 0.835950 0.346961 -0.875116 0.491990 0.043091 0.008644 -1.712352 0.584586 0.510750 -0.635102 -0.475719 -1.746179
75 0.517561 0.719768 -0.583097 1.372797 -0.025056 -0.989847 0.231819 -0.716066 0.395367 -0.461351 0.058687 0.890504 -0.415065 -0.502536 0.392108 -1.118351 -0.464585 0.329108 -0.217906 0.712971 0.771213 -0.623942 0.612148 -0.438103 0.378762 -0.193664 0.220569 0.244679 0.073865 -0.904790 -0.556594 -0.681008
1047 0.326514 0.820026 -0.519998 0.299165 1.006614 -2.143808 -0.137720 -0.174456 1.442274 -1.065539 -0.241341 1.672886 -0.560561 -0.898352 0.789945 -0.904660 0.146881 -0.636114 0.376663 0.451816 0.711684 0.311334 0.297118 -2.305752 -0.970754 -0.151837 -0.155378 -0.172182 0.169547 -0.526576 -0.545047 -0.923827
1148 0.234223 0.637440 0.283085 0.109385 0.495658 -1.161916 -1.256490 -0.286720 0.067556 -0.894396 0.588622 0.798571 0.254734 1.196940 0.268911 -2.666171 -0.532098 1.656088 0.335578 -0.116919 1.046942 -0.708947 0.864630 0.853179 0.396698 -1.122713 0.847886 -0.104345 0.255105 -0.439910 -0.148024 -1.311983
663 0.078770 0.773890 -0.170444 0.856753 0.080236 -1.240481 -0.063785 -0.981775 0.675105 -0.232772 -0.081729 1.195975 -0.681573 -0.245716 0.586105 -1.443388 -0.179278 0.477576 -0.203066 0.372670 0.991836 -0.213364 0.163015 -0.063345 0.271355 -0.434404 0.052186 0.201027 -0.129187 -0.989976 -0.253854 -0.827014
1266 0.275405 0.866632 -0.491527 0.299279 0.970348 -2.198987 -0.168986 -0.184898 1.510917 -1.064484 -0.260492 1.725348 -0.644680 -0.810673 0.770957 -0.915553 0.181675 -0.622804 0.353260 0.463251 0.663185 0.365759 0.364917 -2.364873 -0.873348 -0.138197 -0.179268 -0.167901 0.116953 -0.514217 -0.530775 -0.888269
697 0.136041 0.852563 -0.229901 1.109206 0.027787 -1.201112 0.215044 -0.580025 0.425517 -0.603167 -0.413424 1.024945 -0.506234 -0.144895 0.036619 -1.079968 -0.206260 0.525543 -0.148093 0.593393 0.908265 -0.485578 0.579196 -0.030533 0.204658 -0.377480 -0.120311 -0.127710 0.059238 -0.878393 -0.011114 -0.749346
699 -0.512971 0.637063 -0.374390 0.317201 0.525518 -1.896699 0.250500 -0.904045 -0.380194 0.779664 -0.493407 1.754993 0.037002 -0.666539 1.189115 -2.006754 0.171425 0.438764 -0.254823 1.027894 0.463112 -0.402758 1.332332 -0.312219 -0.931764 -0.039559 -0.082952 1.126353 -0.307011 0.058238 -0.079871 -1.425599
992 -1.182893 1.095348 -1.027921 1.199311 0.925834 -1.104072 -0.651195 -1.448930 1.861435 0.003667 -0.259499 1.400841 -0.854196 -0.467777 0.017159 -0.501222 -0.384598 0.504950 -0.401293 0.279298 0.610749 -0.872852 0.825621 -0.883954 0.618775 -0.265156 0.249402 1.704495 0.367860 0.617512 0.361118 -0.619370
126 -1.149505 1.042087 -1.060923 1.171968 0.904165 -1.077226 -0.673696 -1.443437 1.859483 -0.083520 -0.262326 1.423973 -0.895772 -0.559118 0.006644 -0.489513 -0.429566 0.577172 -0.457875 0.213181 0.533872 -0.775401 0.931566 -0.865710 0.534548 -0.307177 0.226589 1.733530 0.347299 0.597662 0.368717 -0.661278
563 0.174164 0.451788 -0.215981 1.535574 0.202725 -1.421877 0.289128 -0.786387 0.860430 -0.731181 0.024014 1.213297 -0.966023 0.059924 0.538544 -1.462677 -0.385264 0.239979 0.194900 0.867982 1.232050 -1.067481 1.151440 -0.393609 0.739176 0.026444 0.266454 -0.089476 0.248841 -0.986512 -0.681880 -0.924089
922 0.184728 1.651296 0.324257 1.274296 -0.756579 -0.594709 1.605497 -0.976786 1.062843 -1.174812 -0.387921 1.057518 0.002789 -1.016190 -0.372139 -0.163259 -0.615682 1.147647 0.050059 0.627653 0.695730 -0.273940 0.365665 -1.513650 0.746472 -1.644451 0.274405 0.500678 -0.352263 -1.715392 -0.058362 -0.763123
923 0.122376 0.230596 -0.411175 1.277540 0.200213 -0.828528 0.096175 -0.728776 0.533785 -0.465579 0.091348 0.714900 -0.617608 -0.228362 0.152479 -1.081391 -0.090906 0.287058 0.188152 0.571550 0.843985 -0.601744 0.853168 -0.019767 0.681749 -0.152271 0.080529 -0.040081 0.422829 -0.573447 -0.374426 -0.520107
319 0.465499 0.618557 -0.445711 0.327330 -0.306700 -2.205626 -0.353758 -0.769419 -0.067360 -0.109545 -0.371355 0.965709 -0.886080 -1.728347 0.664399 -1.481369 0.191163 1.727698 -0.517819 -0.083987 1.556115 -0.044925 0.040122 -1.452358 0.828249 0.125704 0.458347 0.702217 -0.188360 -0.192745 -0.235521 -0.226162
318 -0.464673 0.774264 -1.346951 0.993682 1.238631 -0.653448 0.365222 0.377454 0.660441 -1.799919 0.296605 0.566322 -0.034799 0.293341 0.786580 -1.159224 0.822889 0.484591 0.180249 1.577667 1.152158 0.609127 1.175269 -0.272982 -0.277508 -0.699298 0.482196 -0.034824 0.663561 -0.361903 0.618804 -1.463957
1182 0.048907 0.355568 -0.343774 1.323930 0.155691 -1.175662 0.113010 -0.545647 0.516278 -0.589126 0.006451 0.892710 -0.549028 -0.131739 0.435121 -1.225782 -0.312887 0.305048 0.077559 0.700614 1.062878 -0.786659 0.907755 -0.212272 0.493408 -0.093267 0.018523 -0.046536 0.271544 -0.746349 -0.558972 -0.695750
360 -1.004713 1.051482 -1.380540 1.200994 0.696975 -0.428798 1.401124 -1.294082 1.373349 -0.869855 0.669741 0.897393 -0.300982 -1.587274 -0.135067 -1.699005 0.835255 0.203144 -0.102797 -0.080690 0.909076 -0.754055 0.959963 -0.450906 0.089665 -0.765663 0.176924 0.667580 0.146970 -0.625793 0.973837 -0.337288
64 0.104066 0.386472 -0.342874 1.275716 0.015165 -0.911882 0.429021 -0.259706 0.515833 -0.553026 0.140767 0.908474 -0.313061 -0.192388 0.539147 -1.005324 -0.200559 0.213100 0.049054 0.531324 0.858910 -0.607328 0.584734 -0.123614 0.533269 -0.141685 0.266631 0.150494 0.244751 -0.678338 -0.605248 -0.965005
254 0.264053 1.517057 -0.415208 0.351599 0.625191 -0.920329 0.708439 -2.252434 1.190087 -0.255356 0.046830 1.650220 0.094147 0.366133 -0.603313 -0.496731 0.745360 0.525596 0.008387 0.634076 1.712162 0.203693 0.693493 -0.619391 0.495605 0.273935 -0.249023 0.883823 1.578321 -0.496506 -0.043704 0.064701
731 0.231358 0.393358 -0.297388 1.343873 0.135632 -1.266645 0.253841 -0.778084 0.662568 -0.588267 0.018105 1.113765 -0.802247 -0.008458 0.387938 -1.296819 -0.307928 0.173529 0.079622 0.735700 1.126448 -0.973015 0.942492 -0.325109 0.617950 -0.083375 0.273527 -0.083070 0.289249 -0.816504 -0.561036 -0.862919
733 -0.551303 0.627515 -0.344419 0.350689 0.521820 -1.844342 0.268999 -0.890116 -0.400587 0.781315 -0.466291 1.762406 -0.016681 -0.651267 1.132012 -1.937615 0.210813 0.434422 -0.290376 1.038759 0.483306 -0.424986 1.381093 -0.318780 -0.872873 0.011600 0.034864 1.203702 -0.402213 0.044906 -0.087666 -1.430545
734 0.057579 0.402896 -0.307144 1.188071 0.022703 -0.794280 0.360875 -0.451883 0.570210 -0.503186 0.101097 0.727127 -0.638438 -0.129300 0.334303 -1.180846 -0.325311 0.210284 0.054302 0.622806 0.948935 -0.744958 0.673449 -0.234953 0.400551 -0.064596 0.228658 -0.102042 0.229714 -0.800202 -0.440973 -0.787307
736 0.110798 0.362839 -0.128527 1.160169 0.313097 -1.108508 0.160145 -0.633945 0.584723 -0.676180 0.033545 0.912956 -0.634999 0.044853 0.413161 -1.175862 -0.192747 0.243822 0.111953 0.571367 0.956087 -0.712417 0.867311 -0.295626 0.422688 0.015118 0.078650 -0.131905 0.306487 -0.624672 -0.540150 -0.655776
630 0.120002 0.717504 -0.201899 0.868540 0.110139 -1.235815 -0.040049 -0.966961 0.642575 -0.247721 -0.049441 1.215568 -0.690221 -0.281013 0.581475 -1.503509 -0.182302 0.440956 -0.231275 0.388635 0.989406 -0.164021 0.131572 -0.044892 0.256743 -0.428855 0.044486 0.267944 -0.096317 -0.944762 -0.246667 -0.843348
1210 -0.001668 0.196862 -1.290004 0.264627 1.368052 -1.296108 -0.010656 -0.184371 0.481245 -0.923502 0.739666 1.362507 0.351841 -0.007288 -1.158437 -1.752746 -0.269842 0.579072 0.078582 1.438434 0.767307 -1.031492 1.485564 -1.289264 -0.713665 0.029034 -0.697312 1.230942 0.135934 -0.451000 -0.353094 -0.184747
168 0.233311 0.745443 0.265387 0.187320 0.456161 -1.143580 -1.164688 -0.276961 0.054467 -0.778963 0.510259 0.781931 0.353957 1.132872 0.284869 -2.656741 -0.561386 1.615508 0.323964 -0.126992 1.019201 -0.799308 0.924136 0.801274 0.433879 -1.109728 0.826578 -0.025046 0.194074 -0.489830 -0.129265 -1.324101
161 0.866313 0.552082 -0.048098 1.489935 0.406040 -0.935937 0.192152 -0.929865 0.392149 -1.156427 -1.531056 1.296702 0.100302 0.317317 0.267698 -2.721234 -0.372427 0.805844 -0.314444 1.432435 0.204403 0.409037 0.766940 0.300960 -0.632543 -0.010311 -0.120530 -0.226249 0.642817 -0.656139 0.501485 0.631461
967 -0.388203 0.890361 -0.519409 -0.053915 0.106416 -1.604971 0.101602 -0.571290 1.903364 0.205693 -0.463638 0.381896 -0.196777 0.451353 0.526013 -2.787382 0.955516 -0.762003 0.267908 0.096263 0.370360 -1.259645 0.314453 0.759997 -0.233785 0.570711 0.482576 0.607583 0.847826 -0.577902 -0.024323 -1.229984
1102 0.931593 0.811628 -0.965845 0.166590 0.815112 -0.217155 0.958785 -0.800577 -0.350128 -1.555704 -0.762273 1.349398 -0.956581 -0.581016 -0.197518 -1.292614 0.259907 0.759818 0.162285 -0.279714 -0.047218 -1.728312 1.725629 -1.229529 -0.035897 -0.578257 0.001204 0.368367 0.504601 -1.325102 0.126008 -0.483004
1103 0.285397 1.547320 -0.440145 0.326753 0.532984 -0.886042 0.652180 -2.297474 1.140259 -0.270773 0.024926 1.626912 0.002484 0.287617 -0.691008 -0.556495 0.759356 0.557485 0.025476 0.634867 1.618277 0.150916 0.695105 -0.642419 0.547677 0.306226 -0.206538 0.875927 1.587223 -0.501253 -0.021433 0.062163
879 0.105132 0.386883 -0.191170 1.254956 0.181770 -1.154768 0.205639 -0.655523 0.692456 -0.591706 -0.012194 0.957502 -0.754404 0.007663 0.363915 -1.191731 -0.321349 0.223730 0.140207 0.705182 0.956238 -0.777155 0.883722 -0.354446 0.566129 0.003348 0.201429 -0.093338 0.211879 -0.769403 -0.520812 -0.703218
9 0.008377 0.143644 -1.318324 0.228303 1.348563 -1.286203 -0.049506 -0.113880 0.477777 -0.957406 0.685386 1.381011 0.294455 -0.051976 -1.101955 -1.788559 -0.340389 0.670804 0.030329 1.453205 0.724713 -1.027245 1.496691 -1.256185 -0.689515 0.071745 -0.649902 1.194247 0.169108 -0.426129 -0.353072 -0.214169
801 0.065807 0.398095 -0.545097 1.532371 0.109010 -0.712475 0.201777 -0.807718 0.307125 -0.490659 0.004305 0.873000 -0.522136 -0.332910 0.408042 -1.131434 -0.163538 0.103409 -0.019230 0.691208 0.813728 -0.385706 0.850809 -0.052154 0.560114 0.019093 0.002263 0.073859 0.383848 -0.482092 -0.620647 -0.791418
359 -0.094723 0.976974 -0.725059 0.789307 0.801445 -2.203709 0.218156 -1.191740 0.826506 -1.002762 -0.867114 -0.129683 -0.437365 -0.202637 0.133477 -1.481125 -0.719302 -0.121579 0.745386 0.775227 -0.480958 0.834396 1.531062 -0.315998 1.274112 -0.270524 0.145475 0.914788 0.985472 -0.991708 0.696244 -0.099943
768 0.445627 1.655012 -1.167443 0.711074 -0.270137 -0.536355 0.098672 0.488742 1.278998 -1.477859 -0.642748 1.531574 -1.185847 0.061455 0.573125 -1.388445 -0.298400 -0.149020 -0.110892 1.168140 0.394447 -0.468121 0.051195 -0.567789 -0.165320 -0.938048 1.140577 1.307003 1.068302 -0.363784 -0.594293 0.160177
213 0.144593 -0.250957 -1.105647 0.851924 0.212048 -0.765978 1.024024 -0.158363 0.993000 -1.367122 -0.007154 1.996152 -1.030361 0.825726 1.346120 -1.399226 -0.096758 -0.609723 -0.028209 1.050830 0.536027 0.330600 -0.466734 1.082953 0.303097 -0.890667 -0.092404 0.073507 -0.290662 0.043364 -0.714889 -1.710578
1075 0.110602 1.586403 0.269261 1.374228 -0.696556 -0.504256 1.595049 -1.011040 1.023064 -1.188848 -0.403002 1.027783 -0.019849 -1.009639 -0.326750 -0.248101 -0.663427 1.176178 0.066867 0.626013 0.763273 -0.289294 0.437015 -1.444610 0.777972 -1.669670 0.263415 0.563745 -0.304718 -1.753349 -0.061711 -0.829153
1094 0.104455 0.369463 -0.176697 1.263293 0.140099 -1.102070 0.266924 -0.661230 0.674179 -0.607782 0.022887 0.953220 -0.772292 0.024316 0.418343 -1.156064 -0.263311 0.230326 0.176172 0.653390 1.007393 -0.843758 0.911006 -0.321092 0.577682 0.010663 0.225427 -0.080310 0.179261 -0.808923 -0.586281 -0.727603
1155 -0.528277 0.838633 -1.329522 0.918071 1.246028 -0.589980 0.368522 0.387658 0.662745 -1.846963 0.369886 0.581096 -0.051006 0.193910 0.815999 -1.095631 0.778767 0.449371 0.168856 1.567909 1.189574 0.668981 1.239761 -0.289230 -0.280608 -0.666639 0.466774 -0.032924 0.637816 -0.345191 0.585857 -1.453819
1154 0.119835 1.229674 -0.130145 0.773252 0.759008 -1.915066 0.631856 0.136554 0.054123 -1.135829 -1.044665 0.863332 -0.057550 -1.360872 -0.491869 -1.918781 0.404039 0.438226 0.489779 1.186522 0.968492 0.105252 0.834959 -1.219442 0.935338 -0.349103 -0.612393 -0.295396 1.426094 0.703886 -0.503420 -0.316177
50 0.110910 0.386232 -0.364177 1.350212 -0.018785 -0.929475 0.465752 -0.255026 0.529568 -0.577238 0.125296 0.897417 -0.271630 -0.212658 0.518025 -1.027357 -0.175082 0.259510 0.060764 0.559008 0.853249 -0.626842 0.612783 -0.095457 0.590967 -0.129044 0.235806 0.168383 0.261090 -0.706618 -0.636478 -0.985334
535 0.880894 0.851432 -0.203877 0.375319 -0.481656 -1.433822 1.010450 -0.730178 1.079297 -1.261714 -1.181312 1.750948 -0.037348 -0.553432 1.196565 -0.035984 -0.494864 0.897033 -0.485822 0.797366 0.411490 -0.211235 2.138197 -0.457352 0.401483 0.089359 0.987413 0.542027 0.169857 0.275059 0.511044 -0.307848
984 0.084230 0.323658 -0.443146 1.062203 0.126688 -0.950769 0.207408 -0.680866 0.465779 -0.522889 -0.194952 0.783314 -0.525509 -0.396911 0.358549 -1.115013 -0.335851 0.162987 -0.125131 0.433381 0.882297 -0.467434 0.878991 -0.216020 0.647861 -0.190758 0.117315 -0.058093 0.310317 -0.464974 -0.239958 -0.473871
425 0.069545 0.328041 -0.137453 0.973945 0.108925 -0.959559 0.105333 -0.486258 0.574138 -0.511824 -0.061569 0.798445 -0.559155 0.007988 0.376332 -0.991437 -0.203302 0.174634 0.089062 0.468974 0.812372 -0.658765 0.659550 -0.277890 0.411137 -0.028261 0.178364 -0.020902 0.216077 -0.545085 -0.376990 -0.557555
848 0.011498 1.511220 -1.290955 0.657379 -0.024852 -1.236136 0.188096 -0.910055 0.742747 -0.773510 -0.937823 0.563999 0.736648 -0.489067 0.555551 -1.637901 -1.333917 -0.010029 -0.239488 -0.530871 1.174691 0.117562 2.025254 -1.371267 0.157011 -0.764631 -0.770540 -0.373795 0.478529 -1.259349 -0.404329 0.329072
738 0.605356 1.192171 0.050733 1.226436 1.707342 -0.464046 -0.616461 -0.736158 0.935396 -1.538201 -0.277781 2.094803 0.089808 -0.270092 1.041054 -1.564337 0.321912 0.312744 -0.141863 -0.179955 1.394446 0.331243 0.149188 -0.760685 0.341643 -0.776880 -0.454949 1.311165 0.304251 -0.376007 0.374180 -0.175521
226 -0.311749 0.312243 -0.733432 1.100760 0.243134 -0.681567 -0.150647 -0.297596 -0.035949 -0.239940 -1.172401 1.856554 -1.287123 -0.201133 0.729557 -1.803850 -0.986960 0.169313 0.714633 0.133389 0.273687 -0.107166 1.599826 -0.598141 1.176780 -0.138742 0.371005 0.757520 1.629810 1.191755 -0.217659 -0.458131
221 0.066178 0.375640 -0.218226 1.189508 0.187377 -1.082220 0.261143 -0.588732 0.613022 -0.601149 -0.015497 0.898960 -0.732334 0.039859 0.453723 -1.159482 -0.263689 0.186907 0.154906 0.668613 0.950125 -0.795729 0.886014 -0.271156 0.545933 -0.038489 0.183726 -0.127538 0.207204 -0.764022 -0.516228 -0.701838
1024 0.042877 0.386463 -0.331210 1.297359 0.197909 -1.206569 0.107893 -0.532588 0.516520 -0.602165 0.004324 0.900453 -0.533692 -0.096568 0.477347 -1.232206 -0.289529 0.310829 0.081361 0.689410 1.059811 -0.785970 0.884106 -0.213405 0.467479 -0.083034 0.044614 -0.056223 0.286649 -0.770198 -0.566756 -0.720071
88 -0.234207 0.958409 -0.244066 0.942239 -0.320406 -1.622723 0.256140 -0.860124 -0.096602 0.003834 0.280460 1.544360 0.189730 -0.253779 0.754205 -2.196284 -0.112665 -0.167529 0.728995 1.521452 0.875608 0.361793 -0.864005 0.540387 0.093068 0.043510 -1.677592 0.569785 0.563000 -0.627667 -0.471006 -1.676058
501 0.368750 0.428751 -0.466473 1.121147 -0.757115 -0.781237 -0.533900 -1.094818 0.238891 -1.002032 -0.034203 0.468749 -0.972224 -0.274128 0.176826 -1.131802 -0.246689 1.977885 -0.219294 -0.455249 0.732401 0.547527 1.751669 0.056815 1.110557 -1.471903 -0.231195 0.700246 0.005789 -0.954442 0.734540 -1.430795
1168 0.684030 1.268695 0.097627 1.233429 1.696595 -0.482664 -0.599288 -0.753003 0.895381 -1.565220 -0.358961 2.124419 0.102330 -0.281125 1.044038 -1.539000 0.276548 0.355379 -0.131084 -0.142647 1.368172 0.348085 0.162324 -0.797114 0.297634 -0.795381 -0.463670 1.285299 0.264701 -0.356625 0.339529 -0.241004
1203 0.166740 0.340148 -0.255264 1.265468 0.193107 -1.158729 0.226002 -0.663752 0.690044 -0.625807 0.058942 0.963312 -0.780636 0.026415 0.460331 -1.215711 -0.266227 0.255366 0.147072 0.755439 0.980679 -0.845174 0.889611 -0.302336 0.596555 0.010571 0.174316 -0.122796 0.214024 -0.783658 -0.562381 -0.729276
41 0.387474 0.681117 -1.791282 -0.246956 -0.318962 -1.721901 0.626783 -0.086533 -0.531097 -1.207854 -0.579837 2.799753 0.081426 0.562457 0.365097 -0.408979 -0.593138 0.984270 -0.449151 0.804179 0.970206 -1.003359 0.607142 -0.327187 0.219359 -0.782907 0.080324 -0.247557 0.790890 -1.293375 -0.143161 -0.418668
5 0.144835 -0.244644 -1.030096 0.772737 0.273328 -0.816650 1.030190 -0.125777 1.069348 -1.392044 0.001197 1.974181 -1.078455 0.836065 1.373838 -1.477402 -0.011537 -0.625623 -0.024192 1.078086 0.518922 0.298130 -0.443884 1.105644 0.367758 -0.834376 -0.066268 0.106310 -0.302442 0.057449 -0.777889 -1.667451
470 0.301265 -0.061147 -0.088111 1.149159 0.953368 -0.789752 0.802556 0.126732 0.245660 -0.960328 -1.621567 1.358915 -0.630885 -0.573682 0.186727 -2.333609 0.562122 0.480035 -0.107956 1.365979 0.297956 -0.629313 -0.168018 0.528066 0.138902 -0.954042 -0.198619 1.920815 0.152260 -0.897455 -0.659090 -0.649408
474 0.096181 0.362692 -0.199467 1.235542 0.136359 -1.098542 0.259874 -0.643439 0.661469 -0.601140 0.017623 0.914298 -0.740860 0.036202 0.408626 -1.163711 -0.240338 0.249135 0.185338 0.648978 0.966586 -0.854618 0.895282 -0.323726 0.593677 0.008350 0.214359 -0.072785 0.184227 -0.810217 -0.570445 -0.713811
80 0.275675 -0.099667 -0.868632 1.681715 0.496296 -0.659956 -0.587167 0.492031 1.875972 -1.414042 0.582301 0.882342 -0.713544 -0.144892 -0.140651 -0.524787 -0.202795 0.734304 0.155931 0.473704 0.348910 0.196072 0.669854 -0.336167 0.752781 0.450511 0.230064 0.362671 0.340687 -1.252988 -0.416162 0.583028
282 0.339035 0.103987 -1.065397 0.818149 1.084553 -0.607482 0.722385 -1.484473 0.127782 -0.398664 0.508121 1.498979 -0.450390 -0.068219 0.656471 -0.531351 0.658402 0.659177 -0.025973 1.371725 -0.095981 1.032172 1.396172 -0.413866 0.736760 0.979175 0.319170 -0.303432 -0.125680 -1.452176 -0.535352 -1.220097
1255 0.346118 0.113079 -1.076578 0.767884 1.057048 -0.582107 0.728684 -1.471949 0.094288 -0.434113 0.561290 1.459038 -0.468421 -0.094365 0.641826 -0.562519 0.659384 0.714405 -0.055266 1.385285 -0.095813 1.003590 1.421529 -0.462952 0.743361 0.995516 0.312967 -0.285261 -0.108578 -1.469588 -0.571275 -1.193856
917 0.057592 0.109834 0.385718 1.230461 -0.341542 -0.561608 0.640018 -0.333634 0.461726 -0.089058 0.300541 0.157244 -0.555308 0.540209 0.454330 -0.296227 0.323592 0.524497 -0.623246 0.786234 1.252111 -0.599302 0.085337 0.579242 0.270879 -0.188586 0.031085 -0.357670 -0.576329 -1.258956 -0.170996 -0.717569
568 0.120600 0.413208 0.508582 0.383120 -1.468190 -1.533138 -1.247488 -0.513498 0.194397 -0.860385 -0.603707 0.928576 -1.104788 -0.066786 1.234782 -0.722934 -1.216088 -0.607238 0.013564 0.542228 0.144529 -0.466545 1.097471 -0.276193 0.884798 -0.024199 -0.101222 -0.023376 0.470615 -0.380142 -0.823698 -0.521337
419 0.113535 0.245889 -0.359465 1.188785 0.191001 -0.852905 0.069462 -0.655566 0.536240 -0.484048 0.077729 0.700591 -0.597877 -0.170179 0.205153 -1.029611 -0.104030 0.283687 0.158528 0.585516 0.822541 -0.596273 0.828143 -0.040194 0.600890 -0.138181 0.068686 -0.035287 0.359575 -0.605263 -0.374107 -0.525564
155 0.130198 0.456003 0.515819 0.347182 -1.492765 -1.569173 -1.202966 -0.484700 0.184744 -0.820470 -0.542702 0.945041 -1.061617 -0.038602 1.269469 -0.741040 -1.209285 -0.581231 -0.013488 0.554251 0.156329 -0.448969 1.093445 -0.267060 0.871343 0.001322 -0.136709 -0.065685 0.413487 -0.446830 -0.817476 -0.560483
40 0.005140 0.221787 0.368226 1.183952 -0.413816 -0.599150 0.747005 -0.369236 0.356534 0.065660 0.324900 0.176272 -0.562275 0.475716 0.446694 -0.372858 0.300957 0.466441 -0.628972 0.787094 1.308297 -0.599517 0.005431 0.463000 0.303982 -0.158041 0.013702 -0.404330 -0.590003 -1.257378 -0.187463 -0.715098
315 0.079636 0.170996 0.281465 1.193291 -0.397063 -0.590364 0.711090 -0.461333 0.353846 0.001145 0.281307 0.234589 -0.641105 0.488447 0.336991 -0.292827 0.339647 0.477163 -0.671343 0.820497 1.236611 -0.636308 -0.012722 0.501354 0.257107 -0.168640 0.074086 -0.307096 -0.476648 -1.231177 -0.163171 -0.635440
1270 0.137219 0.516308 -0.113398 1.679489 0.872153 -1.282474 -0.759380 -0.827055 1.063145 -0.124883 -0.645147 0.921156 0.396178 1.012717 0.677365 -0.689941 -1.102510 -0.890253 0.148918 0.350756 0.997642 -0.065274 0.046205 0.213724 0.599458 -0.028213 -0.068972 -0.460584 0.127617 -0.701445 0.158751 0.065019
119 0.665508 -0.126363 -0.539392 1.195831 0.483274 -1.112789 0.543191 0.160353 -0.193087 -0.200532 0.084964 0.250918 0.038737 -0.312601 0.104850 -0.566361 -1.211217 0.097121 0.694719 0.548914 0.164459 -0.755802 1.506639 -0.636413 0.607592 0.141584 0.611042 -0.819001 0.303015 -0.407162 -1.048420 -0.504367
785 0.104724 0.422641 0.487625 0.342316 -1.510041 -1.591962 -1.269001 -0.436615 0.222088 -0.854763 -0.564474 0.922547 -1.093360 -0.052967 1.243558 -0.714772 -1.184360 -0.586805 -0.040957 0.542501 0.145529 -0.412349 1.108357 -0.278381 0.885997 0.006800 -0.080377 -0.059229 0.438635 -0.444454 -0.790595 -0.549785
1171 0.038144 0.090490 0.388929 1.237604 -0.379326 -0.446306 0.613113 -0.345841 0.474705 -0.104210 0.250895 0.137422 -0.566221 0.512863 0.490018 -0.319210 0.384556 0.471452 -0.660785 0.797341 1.244199 -0.612407 -0.004756 0.519748 0.282892 -0.150524 0.025704 -0.311515 -0.541409 -1.259692 -0.077017 -0.720592
139 -0.045120 -1.225856 -0.182578 0.417135 -0.055816 -0.725428 -0.091231 -0.430160 0.763335 -0.617629 0.294980 0.846850 -1.743583 0.149588 0.890679 -0.789091 -0.649880 0.567277 0.466452 0.547723 0.507854 -0.888784 0.691862 -0.981579 -0.735952 -1.073310 0.522554 0.634873 -0.238179 -0.912091 -0.500777 -0.735212
536 0.030551 0.119301 0.365324 1.198018 -0.393625 -0.550168 0.695882 -0.319717 0.445492 -0.015750 0.267567 0.171353 -0.598736 0.540166 0.459417 -0.357029 0.368048 0.488633 -0.663532 0.813840 1.267286 -0.614698 0.039479 0.502779 0.273581 -0.190286 0.069179 -0.353410 -0.455267 -1.218658 -0.110154 -0.753091
177 0.072027 0.452027 -0.000690 0.790465 0.246479 -1.559392 -0.098730 -1.765234 1.152181 -0.550163 -1.280505 0.654852 -1.206976 -0.257663 -0.572471 -0.460980 -0.614473 0.893085 -0.129565 0.692140 0.843568 -0.159601 1.128526 -1.038661 0.867973 0.293905 -1.235763 -0.673312 -0.303108 -0.379664 0.457759 0.198487
63 -0.088265 -0.132319 0.799194 0.501222 0.363341 -0.584111 0.043271 0.015293 0.710227 0.004929 0.382556 0.700024 -1.210553 0.408081 1.164314 -2.296662 -0.031485 0.405416 0.177958 0.202196 0.192572 0.179024 1.082477 1.054242 1.744537 0.762166 0.148991 0.451467 0.628407 -0.804487 -0.379395 -1.505602
882 -0.082274 -0.174502 0.723357 0.529047 0.370660 -0.540030 0.023443 -0.004050 0.692741 0.026118 0.399063 0.661582 -1.157466 0.323471 1.149761 -2.216570 -0.122910 0.403754 0.150826 0.187431 0.191385 0.155091 1.094585 0.978102 1.731500 0.757035 0.151434 0.444630 0.650972 -0.802913 -0.419789 -1.406170
279 0.569131 0.669362 0.398471 1.256894 -0.181968 -1.104011 0.642243 -1.102298 0.478323 -0.759106 -0.071324 0.461564 -0.561490 -0.120036 0.102082 -1.089430 -0.520417 -0.497423 -0.282923 -0.262980 0.172101 -0.862268 0.278135 -0.142543 0.999632 -0.824047 -0.006823 1.523600 -0.833546 0.314287 -0.591069 -0.786891
851 0.690401 -0.122450 -0.556914 1.166456 0.456949 -1.127121 0.603462 0.163614 -0.181497 -0.142655 0.069066 0.246532 0.037886 -0.321982 0.099046 -0.555951 -1.180864 0.122303 0.727870 0.565731 0.138497 -0.745754 1.509995 -0.640101 0.638442 0.126477 0.561863 -0.766539 0.236750 -0.413126 -1.009872 -0.542339
1256 0.446171 0.500735 0.426733 1.228683 -0.208666 -1.134740 0.493546 -1.119679 0.694394 -0.792508 -0.102067 0.325926 -0.581841 -0.109511 0.097805 -1.132820 -0.479390 -0.478680 -0.156522 -0.320687 0.168430 -1.000481 0.319921 0.040319 1.019379 -0.851900 -0.010816 1.562593 -0.756758 0.210870 -0.619134 -0.654746
106 -0.619690 -0.502404 -0.013536 0.642346 0.554405 -1.403729 -0.131951 -0.736570 0.683948 -0.295619 0.278360 0.795054 -0.874647 -0.320404 0.456592 -0.911961 0.198485 -0.407808 0.164846 1.470580 1.257290 -0.515714 0.384657 -0.134258 0.139595 1.183777 -0.168314 -0.588091 0.472017 0.188938 -1.172858 0.280874
1123 -0.340875 -0.471712 -0.204619 1.712298 0.712266 -1.133762 0.037239 0.193850 -0.269786 -0.627349 0.287126 1.119051 -0.907527 -0.224950 -0.104961 -1.481648 1.010818 -0.048158 0.579728 -0.560474 0.362545 -0.729064 0.199531 -0.766957 0.527136 -0.017625 -0.122821 -0.483723 -0.193012 -0.266995 0.117547 -1.194426
1000 0.598849 0.566077 0.393455 1.276173 -0.181653 -1.165356 0.609920 -1.124749 0.542911 -0.817477 -0.085781 0.369111 -0.558534 -0.148561 0.074624 -1.056963 -0.554858 -0.521708 -0.237219 -0.249270 0.189845 -0.890106 0.270173 -0.120146 0.959367 -0.840487 -0.018992 1.497520 -0.817796 0.312817 -0.681392 -0.675189
1261 0.373185 0.702350 -0.253283 -0.258487 0.110211 -0.850541 -0.170266 -1.322618 0.582028 -1.056865 0.191815 0.672778 -0.651508 -0.725508 -0.314661 -1.556718 -0.500368 1.036526 -0.100779 0.949983 -0.048416 -0.608492 0.495293 0.845895 0.068577 0.656777 -0.233688 0.412010 -0.047997 -2.007533 -0.124161 -0.483635
1133 0.328243 0.691710 -0.276479 -0.250694 0.176574 -0.809175 -0.184483 -1.327267 0.612059 -1.037285 0.172518 0.690018 -0.699058 -0.720888 -0.260003 -1.560711 -0.452780 1.028048 -0.173272 1.024067 -0.048794 -0.604893 0.454455 0.821880 0.062282 0.632980 -0.227580 0.534100 -0.068635 -1.967696 -0.100855 -0.467230
505 0.091768 0.153713 0.343400 1.235933 -0.392583 -0.546437 0.700178 -0.356756 0.382919 -0.056831 0.293801 0.168281 -0.591500 0.523759 0.402101 -0.306950 0.294076 0.531340 -0.640598 0.793596 1.280176 -0.680035 0.026535 0.461557 0.335814 -0.193505 0.049093 -0.382179 -0.543030 -1.296166 -0.219276 -0.685063
1243 -0.361827 0.502525 -0.660748 1.255709 0.260601 -0.469696 -1.373067 -0.364136 0.484867 -0.175368 0.995810 0.106737 -0.542524 -0.225582 -0.286204 -0.497398 -0.515470 -0.174149 0.016234 0.602103 1.138162 -0.795797 0.507061 -0.284675 -0.019872 -0.756594 -0.199581 -0.028602 0.903415 -0.583770 -0.879496 -1.495238
947 -0.605445 -0.547553 -0.023757 0.599888 0.555252 -1.435979 -0.153181 -0.687687 0.753790 -0.314652 0.234129 0.717225 -0.861861 -0.292193 0.481191 -0.958101 0.210626 -0.315315 0.213010 1.487799 1.264306 -0.518372 0.450529 -0.104191 0.120952 1.141355 -0.184301 -0.574084 0.530192 0.201061 -1.146127 0.286781
370 0.111676 0.097766 0.339108 1.220983 -0.401008 -0.446240 0.631832 -0.461462 0.489996 -0.044778 0.270503 0.193811 -0.548365 0.531539 0.435115 -0.256080 0.292442 0.454041 -0.616331 0.789972 1.250309 -0.626115 0.069426 0.623750 0.291583 -0.141094 0.065537 -0.354828 -0.495869 -1.239132 -0.144015 -0.712845
190 0.636914 -0.056959 -0.547625 1.128574 0.472493 -1.140342 0.592222 0.200171 -0.173509 -0.133109 0.101604 0.273206 0.068653 -0.279563 0.115268 -0.588430 -1.176105 0.078835 0.688453 0.565699 0.159341 -0.740855 1.512566 -0.629434 0.639261 0.180816 0.555252 -0.799561 0.269713 -0.420781 -1.003440 -0.550144
570 0.082034 0.193577 0.352429 1.263476 -0.376394 -0.513641 0.692312 -0.318487 0.367294 0.002333 0.348322 0.130932 -0.513531 0.554032 0.479979 -0.377869 0.339788 0.522756 -0.579764 0.773032 1.240989 -0.667010 -0.023763 0.477347 0.279748 -0.118367 0.111998 -0.314963 -0.499167 -1.276066 -0.162308 -0.683428
516 0.159856 0.464632 -0.109131 1.689036 0.846775 -1.253955 -0.740307 -0.763216 1.012907 -0.101706 -0.688372 0.939590 0.364848 0.949517 0.673242 -0.736501 -1.091443 -0.923429 0.164692 0.301965 0.978988 -0.089642 0.060688 0.240678 0.605130 -0.059849 -0.002337 -0.474552 0.212224 -0.684264 0.188394 -0.048757
218 0.152905 0.471063 -0.069594 1.705964 0.848997 -1.262400 -0.732910 -0.794411 1.005939 -0.107236 -0.652303 0.887436 0.381769 0.980007 0.685038 -0.699431 -1.124132 -0.881880 0.167234 0.319148 1.029110 -0.072164 0.098743 0.182941 0.584748 -0.029907 -0.031929 -0.479261 0.150973 -0.756890 0.177784 0.027067
358 0.238240 -0.092507 -0.815891 1.666306 0.511611 -0.651771 -0.585844 0.517569 1.853785 -1.380358 0.630442 0.855578 -0.671677 -0.139218 -0.115651 -0.533719 -0.211284 0.665439 0.213278 0.494773 0.310824 0.153025 0.668802 -0.377986 0.718287 0.475072 0.247848 0.392436 0.294439 -1.293912 -0.471109 0.595968
300 0.273861 -0.072859 -0.825530 1.673938 0.492060 -0.690678 -0.593132 0.524439 1.879680 -1.398642 0.607973 0.858408 -0.682001 -0.148462 -0.133779 -0.548783 -0.229237 0.685302 0.157402 0.488835 0.340876 0.185312 0.657150 -0.357181 0.714435 0.433726 0.233606 0.405588 0.310952 -1.259247 -0.443183 0.566175
1054 0.552773 0.329676 0.642459 0.596920 -0.309567 -0.772290 0.659087 -0.555251 1.497243 -1.149785 -0.176864 0.994130 -1.278990 1.177932 -0.083373 -0.472211 0.209355 -0.343233 0.832472 0.441568 0.081693 -0.897671 0.594940 -0.772607 1.185983 0.158488 0.644916 -0.939368 0.114532 -0.379565 -0.571389 -0.473249
1156 0.533828 0.433081 0.516814 0.647673 -0.303463 -0.778251 0.581276 -0.413577 1.437712 -1.197533 -0.249626 1.112231 -1.187754 1.123117 0.007185 -0.454559 0.439535 -0.601340 0.609435 0.235512 0.132358 -1.072190 0.589630 -0.839644 0.905930 0.232634 0.923596 -0.970224 0.187771 -0.303129 -0.466792 -0.522865
989 0.028264 0.166194 0.326670 1.240741 -0.412012 -0.545739 0.736591 -0.388964 0.322346 -0.034306 0.299938 0.201910 -0.490673 0.526570 0.390172 -0.326683 0.353735 0.517495 -0.611945 0.763628 1.286503 -0.644302 -0.010267 0.457371 0.278188 -0.103752 0.035036 -0.304156 -0.511976 -1.253721 -0.187552 -0.628057
477 0.064097 0.114547 0.367006 1.243917 -0.373767 -0.572995 0.626966 -0.451117 0.468860 -0.050826 0.366991 0.222450 -0.570971 0.562474 0.446898 -0.323438 0.354346 0.486423 -0.653318 0.745062 1.277385 -0.662896 -0.010283 0.555156 0.323539 -0.166303 0.035208 -0.348945 -0.518183 -1.298069 -0.177797 -0.749941
85 -0.338528 -0.513739 -0.244465 1.762375 0.681560 -1.048355 -0.055186 0.194228 -0.308598 -0.622194 0.268168 1.128547 -0.916170 -0.268621 -0.068477 -1.504529 0.970837 -0.093230 0.603590 -0.577209 0.300271 -0.673014 0.146301 -0.767668 0.568929 0.025266 -0.120654 -0.423270 -0.184107 -0.282612 0.144020 -1.233157
199 0.648244 -0.086544 -0.542211 1.176482 0.423692 -1.130837 0.589450 0.174694 -0.196842 -0.164560 0.080184 0.210272 0.062738 -0.257706 0.113267 -0.616864 -1.173483 0.170924 0.702226 0.586788 0.114420 -0.722946 1.536642 -0.620162 0.604809 0.128672 0.520166 -0.781982 0.293403 -0.412831 -0.977362 -0.567559
1200 0.129472 0.452644 -0.108521 1.688665 0.864008 -1.222010 -0.747991 -0.738910 1.032838 -0.125931 -0.653146 0.949674 0.378237 0.981993 0.676340 -0.667025 -1.091319 -0.932101 0.209627 0.261080 0.961051 -0.080358 0.034124 0.195712 0.646719 -0.038367 -0.020304 -0.477505 0.173785 -0.707191 0.184132 0.011729
1066 0.548339 0.364326 0.612708 0.632227 -0.317177 -0.778274 0.593808 -0.529701 1.457025 -1.159418 -0.203659 1.057984 -1.219347 1.154098 -0.015087 -0.453770 0.287391 -0.471395 0.728439 0.353212 0.117344 -0.958316 0.585449 -0.782773 1.053615 0.195665 0.760978 -0.961301 0.146793 -0.342211 -0.539041 -0.510069
374 0.374181 0.388531 -1.499737 0.884754 -0.578245 -1.554029 -0.044788 -0.311810 1.246762 0.134632 0.728276 1.550364 -0.799671 -0.279700 0.454224 -0.168286 -0.162215 0.730038 -0.247435 0.125701 0.491486 -0.935721 0.185472 0.396531 1.437339 0.541722 -0.068693 -0.642941 0.224439 0.506940 -0.362860 -1.004708
1111 -0.106706 0.058052 -0.056918 1.242418 0.301811 -0.579320 0.521611 0.006682 -0.635938 -1.082983 0.282196 1.893576 0.234220 -1.351119 0.915834 -0.754874 -0.945069 0.578237 -0.429669 0.780857 1.323286 0.102694 0.805096 0.730882 0.623986 -0.240695 -0.433994 0.471121 0.022884 -0.672598 -0.914368 -0.559827
948 0.525684 0.340792 0.580398 0.596137 -0.305400 -0.774874 0.605276 -0.494453 1.504612 -1.127440 -0.192037 1.029220 -1.239063 1.146545 -0.003133 -0.463166 0.276236 -0.466053 0.769469 0.373742 0.124151 -0.972726 0.618286 -0.760802 1.055330 0.195303 0.750036 -0.937007 0.155435 -0.357142 -0.538191 -0.512648
208 -0.269706 -0.483018 -0.258977 1.783982 0.727179 -1.083641 0.030564 0.216327 -0.259232 -0.642134 0.360364 1.129262 -0.912251 -0.264902 -0.093719 -1.480885 0.996251 -0.061585 0.577008 -0.530083 0.331867 -0.701355 0.190948 -0.753531 0.579963 -0.021707 -0.119985 -0.410792 -0.162130 -0.261044 0.110036 -1.251904
920 0.499659 0.419137 0.535634 0.657004 -0.312901 -0.855290 0.616428 -0.413185 1.463704 -1.205345 -0.232852 1.145167 -1.160170 1.080014 0.033806 -0.471659 0.421390 -0.618932 0.590927 0.286233 0.203202 -1.115254 0.637472 -0.778414 0.890505 0.282718 0.873367 -1.002904 0.162769 -0.292539 -0.501010 -0.544662
511 0.020717 0.093999 0.335383 1.235277 -0.369822 -0.579704 0.684861 -0.362263 0.395142 -0.009710 0.332536 0.153478 -0.501041 0.468401 0.425339 -0.311226 0.348806 0.507212 -0.594896 0.744318 1.237702 -0.617612 0.035761 0.459833 0.324242 -0.162305 0.057450 -0.374339 -0.480748 -1.260892 -0.200166 -0.663512
147 0.325674 1.122201 0.788459 -0.239005 0.399629 -2.119390 -0.026781 0.476403 1.338319 -0.615922 0.091700 0.480840 0.250252 1.030233 0.753706 -1.124606 -0.224528 0.239412 0.281420 0.810616 0.894670 -1.438634 0.930614 -0.843159 -0.497557 0.468010 0.353760 0.052892 -0.607324 -1.432734 -0.651010 -0.344348
84 -0.347989 0.516014 -0.599915 1.216233 0.285260 -0.460767 -1.359599 -0.374034 0.520002 -0.147322 1.002138 0.115556 -0.586885 -0.215500 -0.312227 -0.493792 -0.508270 -0.166369 -0.028114 0.579582 1.072127 -0.770558 0.511043 -0.331411 0.012340 -0.768503 -0.167927 -0.036540 0.846702 -0.569602 -0.871264 -1.487823
186 0.393979 -0.650437 -0.896571 1.784621 0.338560 0.234366 -0.218040 -0.969347 0.764054 -0.699882 -0.943271 0.265050 -0.632040 -1.043269 0.543598 -0.936526 -0.307743 -0.216978 -0.627557 0.445961 1.373189 -1.217360 0.764034 -0.168828 0.291584 -0.346349 0.580040 0.108574 0.957445 -0.099539 0.030041 0.112919
729 0.121719 0.405490 -0.210318 1.255932 0.152168 -1.203677 0.237797 -0.670446 0.690427 -0.616809 0.011517 0.987851 -0.801649 0.046621 0.446911 -1.225465 -0.290507 0.236777 0.181489 0.746152 1.030080 -0.875658 0.921769 -0.339954 0.593013 0.013956 0.205225 -0.099586 0.218746 -0.808706 -0.577846 -0.775679
1011 0.547498 0.437821 0.544926 0.605891 -0.269031 -0.842283 0.589178 -0.421177 1.408799 -1.185323 -0.245094 1.075692 -1.119199 1.067943 -0.028108 -0.478937 0.415647 -0.550363 0.639160 0.308667 0.177269 -0.999051 0.606655 -0.806072 0.936936 0.250655 0.836062 -0.974317 0.159032 -0.282651 -0.455010 -0.459113
519 0.097358 0.128882 0.332560 1.223998 -0.432907 -0.547937 0.661928 -0.426856 0.463300 -0.029093 0.304098 0.181764 -0.584066 0.522889 0.444679 -0.305070 0.379260 0.445267 -0.639260 0.834684 1.194556 -0.664348 0.009964 0.499804 0.278396 -0.167283 0.077754 -0.316770 -0.492176 -1.215528 -0.141695 -0.706603
818 0.364047 1.210800 0.794520 -0.215591 0.406196 -2.116792 0.031783 0.443080 1.280862 -0.617710 0.089108 0.561776 0.309284 1.039006 0.756034 -1.145008 -0.192078 0.244441 0.276775 0.826065 0.927502 -1.408659 0.945387 -0.796250 -0.480951 0.507966 0.348909 0.065420 -0.576947 -1.436367 -0.643296 -0.394692
417 0.266448 -0.099691 -0.839684 1.647747 0.509744 -0.663522 -0.600961 0.500857 1.896732 -1.408430 0.593423 0.874637 -0.676142 -0.166987 -0.100612 -0.508180 -0.211400 0.696924 0.179308 0.523340 0.313116 0.171639 0.683621 -0.368517 0.701062 0.465329 0.258109 0.391525 0.314645 -1.280055 -0.434674 0.635646
1192 0.531930 0.346138 0.626855 0.601237 -0.302517 -0.730253 0.653400 -0.596174 1.466030 -1.111215 -0.211132 0.991502 -1.285601 1.154872 -0.051207 -0.402183 0.182132 -0.341231 0.803971 0.418843 0.111466 -0.857155 0.601899 -0.780353 1.161902 0.155719 0.617518 -0.916701 0.112030 -0.397797 -0.542931 -0.488742
828 0.274682 1.100603 0.786070 -0.250313 0.408386 -2.075825 -0.043481 0.465544 1.295393 -0.668228 0.097941 0.580528 0.289904 1.024667 0.755512 -1.107985 -0.225570 0.240926 0.311063 0.834423 0.872144 -1.392102 0.900637 -0.835410 -0.525180 0.451699 0.375551 0.081577 -0.626441 -1.459473 -0.673746 -0.375764
34 0.499332 1.122560 -0.568954 0.149863 -0.581716 -1.045353 -0.097624 0.026140 1.154825 -0.097353 -0.830769 0.986628 -0.422200 0.648974 0.161864 -1.237808 -0.278995 1.435217 -0.063547 -0.067092 0.760023 -0.292252 0.393928 -0.720534 -0.215298 0.021235 -0.469119 -0.415921 0.972579 -0.609793 0.161896 -1.856397
860 0.647346 -0.097726 -0.542881 1.154314 0.439577 -1.112899 0.545455 0.188747 -0.216646 -0.122239 0.093612 0.231848 0.034688 -0.275799 0.082223 -0.609314 -1.178504 0.122618 0.705878 0.539719 0.131067 -0.725628 1.523513 -0.636763 0.639032 0.123427 0.557874 -0.810772 0.268537 -0.425448 -1.014674 -0.537329
489 0.108707 0.137971 0.337765 1.200695 -0.388702 -0.490758 0.680015 -0.451343 0.485390 -0.026276 0.270387 0.167001 -0.544773 0.546798 0.426813 -0.247842 0.279064 0.469693 -0.608129 0.820093 1.245402 -0.675274 0.066471 0.564645 0.259510 -0.143392 0.054754 -0.381142 -0.542274 -1.233916 -0.163675 -0.778908
60 0.428676 -0.637191 -0.852525 1.724640 0.285500 0.240520 -0.174564 -0.913876 0.805938 -0.652821 -0.975041 0.248211 -0.688320 -0.999539 0.522227 -0.916803 -0.314012 -0.239713 -0.640771 0.472693 1.341218 -1.206858 0.759687 -0.170063 0.255991 -0.343340 0.570217 0.117816 0.949590 -0.116539 -0.000575 0.081100
197 0.118773 0.116059 0.339520 1.203825 -0.376229 -0.571562 0.624656 -0.398372 0.504323 -0.049356 0.306982 0.148143 -0.602495 0.523122 0.466225 -0.237860 0.318889 0.401556 -0.643744 0.838108 1.350349 -0.718081 0.044613 0.524846 0.278466 -0.181454 0.127627 -0.390950 -0.513428 -1.301731 -0.245516 -0.686112
280 -0.367737 0.535926 -0.608780 1.199660 0.268413 -0.448795 -1.365200 -0.390073 0.499492 -0.153755 0.988484 0.054838 -0.521742 -0.258531 -0.351550 -0.496294 -0.528183 -0.159384 -0.028295 0.563739 1.114811 -0.761899 0.519877 -0.306919 0.002971 -0.766922 -0.195650 0.025430 0.869500 -0.572381 -0.856649 -1.475916
188 0.320408 1.187568 0.798496 -0.215902 0.395294 -2.138297 0.027940 0.386048 1.369105 -0.628745 0.064529 0.532888 0.222928 1.029650 0.749706 -1.144319 -0.214419 0.275337 0.270431 0.837332 0.912936 -1.448586 0.950953 -0.862729 -0.504868 0.443300 0.325438 0.047491 -0.650267 -1.485783 -0.594738 -0.399037
1279 0.640105 -0.058854 -0.504938 1.158751 0.430576 -1.136290 0.536832 0.180090 -0.201930 -0.172538 0.075118 0.258098 0.029206 -0.246514 0.136071 -0.595029 -1.220361 0.150282 0.705938 0.563574 0.130569 -0.746198 1.529508 -0.634968 0.612099 0.109928 0.521450 -0.784937 0.287842 -0.416603 -0.973345 -0.572117
1046 0.076429 0.187765 0.333365 1.225454 -0.429909 -0.514908 0.735404 -0.473046 0.354051 0.000757 0.257260 0.210941 -0.571636 0.526399 0.372269 -0.229263 0.301377 0.464221 -0.650548 0.813605 1.288856 -0.671870 0.048139 0.499022 0.272695 -0.130620 0.052654 -0.380450 -0.501909 -1.259563 -0.193043 -0.662413
