507 32
14 -0.332594 0.445692 1.363950 -1.388453 1.839992 0.190238 0.783895 0.366803 -0.339955 -0.170949 -0.328695 -2.007313 0.453559 -0.412933 0.311779 0.149936 0.475005 -1.168112 -0.513747 -0.650215 0.686666 -0.042857 0.706077 -0.323895 -0.791151 1.227721 0.699449 1.234176 -1.611246 0.198965 0.150115 0.648513
259 0.965048 0.417547 1.335942 -0.735544 -0.190638 -0.516744 1.263178 0.891319 0.451304 0.231620 0.725911 -1.029143 -0.204554 0.407906 -0.450017 -1.052863 0.399265 -0.794688 0.748635 0.089486 -0.568939 0.263348 0.366189 -0.391645 0.344788 0.557389 0.156471 0.051899 -0.638712 -0.851531 -1.283230 -0.165234
12 -0.857434 -0.665405 1.095858 -0.099956 -0.532730 0.153257 1.048745 -0.305912 0.252272 -0.358584 0.649090 -1.196187 0.874124 -1.150607 -0.150367 -1.040035 -0.741677 -0.018116 0.696717 -0.909600 -0.406171 1.054615 0.711537 -0.515960 0.802836 0.479694 1.276699 0.961854 -0.181080 -0.934497 -0.278655 -0.642497
174 0.129336 0.153205 1.405117 -0.089759 0.157626 0.168233 0.301120 -1.040238 0.856864 0.066100 -0.231321 -0.947178 0.298529 0.299597 -0.028238 -1.016005 0.056377 -1.440972 0.069925 -1.184608 -1.313925 -0.759584 0.156773 0.054236 0.055805 -0.237094 0.456619 1.607608 -1.202390 -0.174082 -0.498805 0.645882
239 -0.351647 0.151216 1.153290 0.149593 0.180468 -0.163058 0.468849 -0.036503 0.138997 -0.373570 0.333605 -1.382037 0.651191 -0.303316 -0.137798 -0.591493 0.871730 -0.547077 -0.816641 -0.592818 0.315528 0.550211 -0.546430 0.864649 -0.304624 -0.230103 0.113801 -0.077763 -0.544703 -0.844140 -0.381513 0.225157
110 -0.318328 0.093082 1.139818 0.164622 0.206645 -0.189386 0.490522 0.014199 0.159027 -0.379065 0.288720 -1.420411 0.631570 -0.298952 -0.183613 -0.587775 0.876327 -0.589153 -0.812390 -0.600061 0.327311 0.546280 -0.517145 0.845178 -0.319067 -0.257483 0.120117 -0.082731 -0.543318 -0.805852 -0.350577 0.221052
54 -0.354519 0.108662 1.180161 0.202791 0.213441 -0.105308 0.442796 -0.023487 0.150395 -0.430763 0.302033 -1.382842 0.635886 -0.291470 -0.193921 -0.617386 0.838787 -0.540468 -0.831381 -0.542862 0.350103 0.578473 -0.536162 0.831024 -0.299575 -0.188156 0.101713 -0.038539 -0.595752 -0.845186 -0.364918 0.253013
7 0.568550 0.373529 1.098374 -0.571596 -0.220379 -0.200362 0.853182 -0.004098 1.470477 -0.299453 -0.926411 -0.530803 0.602499 -2.063497 0.103052 -0.867517 0.009041 -0.875469 -0.598543 -0.388560 -0.049848 0.324382 -0.440058 0.274918 0.963004 0.742833 0.477249 0.825948 0.427117 -0.163717 -0.819044 0.509033
223 0.812192 1.498722 0.174313 -0.416336 0.914426 0.521502 0.329283 -0.490591 -0.075861 -0.626092 -0.032914 -0.933017 0.836975 -1.009936 -0.787589 -2.762130 0.983647 -1.082943 -0.635997 -0.593238 0.154813 0.512638 -0.618925 0.266424 0.058346 0.414525 1.585986 -0.363144 0.142471 0.401414 -0.885571 0.409598
13 0.557918 0.466338 1.099477 -0.554693 -0.271214 -0.246850 0.844486 -0.001601 1.432194 -0.284951 -0.936187 -0.539369 0.596882 -2.064042 0.161202 -0.785931 -0.031114 -0.895423 -0.568930 -0.364352 -0.018101 0.320792 -0.469320 0.278191 0.937278 0.783652 0.467125 0.759162 0.485239 -0.127107 -0.856174 0.499742
299 -0.552422 -0.134582 0.690930 0.042422 0.625593 -1.142214 0.219585 0.610568 0.091396 -1.123643 -0.411962 -0.743038 0.506791 -0.647462 -0.857666 -2.057884 1.132256 -0.983912 0.777712 -0.589649 -0.271641 -0.152293 -0.762081 -0.894227 0.169387 0.556472 0.105118 -0.389885 -0.515583 -0.007343 0.212188 -0.827626
120 -0.559193 -0.154889 0.686390 0.042545 0.626855 -1.142702 0.256364 0.612597 0.114396 -1.083825 -0.391566 -0.758360 0.520207 -0.630835 -0.840037 -2.073030 1.147346 -0.966933 0.795894 -0.562666 -0.230180 -0.162771 -0.723735 -0.909191 0.118958 0.565804 0.139785 -0.380059 -0.553662 -0.023394 0.198242 -0.817612
212 -1.207284 -0.542879 0.641735 -1.097861 0.775110 -0.874474 0.167790 0.001181 1.013181 0.167457 1.069169 -0.239728 -0.043690 -0.640038 -0.487429 -1.413205 0.354162 -0.970559 0.236974 0.435755 -0.293720 0.332264 -0.748789 -0.148742 -0.594439 0.869181 0.412854 0.350558 -0.440247 -0.691789 -0.969756 0.873711
222 -0.813977 -0.095157 0.731310 0.199638 1.078731 0.612729 0.595372 0.298422 -0.769157 0.193202 0.086441 -0.013201 1.357430 -0.907722 -0.082279 -1.484151 0.866441 -1.137814 1.280743 -1.021234 -0.915228 0.953444 -0.039139 -0.175965 -0.187789 0.068119 0.719702 0.289923 -0.632466 -0.966494 0.274646 1.144091
269 -1.227921 -0.541291 0.602244 -1.094943 0.863067 -0.911708 0.213408 0.000976 1.040079 0.143705 1.070525 -0.193740 -0.079211 -0.610021 -0.525269 -1.426544 0.360832 -0.882093 0.196941 0.486436 -0.221105 0.271006 -0.745039 -0.084234 -0.574449 0.857317 0.389283 0.303818 -0.359505 -0.651972 -0.984741 0.889675
27 0.700128 -0.436910 -0.261402 -1.523559 0.476018 0.589750 1.942416 0.193504 -0.104905 0.489832 -0.362453 -1.470798 0.811673 -0.533116 -0.369447 -1.773454 0.756293 -0.598779 0.609796 -1.239139 0.127424 0.424931 -0.091992 0.504706 0.167314 -0.482889 0.155237 0.979958 -0.038324 0.271689 -0.911427 -0.371853
302 0.147411 1.144135 -0.116005 -0.213798 0.961750 -0.653563 0.726550 0.684980 -0.828995 -0.354477 0.701826 -1.428154 -0.406028 0.353738 -0.263642 -1.930904 0.202807 -1.805442 0.028107 -1.672852 -0.167433 -0.618623 -0.948756 -0.214301 0.047748 0.225131 0.568722 0.636036 0.197514 -0.877538 -0.838399 0.553016
111 0.757860 1.481839 0.152580 -0.388893 0.900455 0.559202 0.302823 -0.503574 -0.045158 -0.604585 0.009320 -0.900489 0.831796 -0.971671 -0.798550 -2.721610 1.024620 -1.007688 -0.631070 -0.507122 0.157994 0.516036 -0.549465 0.226448 0.082260 0.468309 1.584369 -0.389316 0.180860 0.430657 -0.835709 0.327629
180 0.005879 0.179577 0.615259 -0.073242 1.145731 -0.957937 -0.079746 0.322160 -0.387284 -0.166756 -0.088358 -1.001427 0.565715 -0.946869 -0.281774 -1.271932 -0.875726 -0.597232 -0.036514 -0.517064 -0.448124 -0.085345 1.130396 0.155531 0.075484 0.639566 0.668548 -0.415665 -0.147080 -0.440223 -0.895160 0.409237
74 -1.183702 -0.296824 1.195386 -0.922257 1.002945 0.514528 -0.785503 -0.484072 -0.593043 -0.189692 0.416632 -0.887664 -0.054917 -1.171185 0.987119 -2.043334 -0.513014 -0.649071 -0.320035 -0.517849 0.342613 0.910682 0.284190 -0.165649 -0.120562 0.901981 0.604285 1.870308 -0.530577 0.197071 -0.137416 0.238779
99 -0.048357 0.771222 0.197403 -1.062145 1.708420 0.056739 0.686660 -0.004922 1.029966 0.212223 -1.016616 -0.048643 0.577573 0.151197 0.934630 -0.937090 -0.643005 -1.486547 0.095225 -1.296108 0.251102 0.749670 -0.570380 0.652684 0.220327 0.647815 0.838194 1.241094 -0.705901 0.390972 -0.208220 0.088302
897 0.104596 1.175216 0.776949 -0.712840 0.777423 0.508711 0.145358 0.158338 0.447382 -0.872966 0.210917 -1.314858 1.023995 0.161204 -0.476936 -0.794325 -0.053539 -1.108482 1.200122 -0.214106 -1.089744 0.123038 -0.717432 0.697969 -0.168875 1.741382 0.515850 0.345400 0.467080 0.560480 -0.827431 0.536743
4 -0.381066 0.022064 0.872531 -1.124464 0.840526 0.552567 -0.076980 0.748726 0.398715 -0.868485 0.066063 -0.911748 -0.546380 -0.531051 -0.427052 -0.453357 -0.163478 -1.422515 0.707038 -0.362875 0.237998 1.147173 -0.649702 0.128366 -0.098288 0.178574 0.384309 0.648344 -0.807143 -0.089541 -1.038489 -1.155798
350 -0.806333 -0.098685 2.030395 -1.447844 0.365033 -0.816904 1.500371 0.153611 1.073265 -0.653603 0.152323 -0.365692 0.702318 -0.135090 -0.978915 0.022673 0.779553 -0.514333 0.696768 -0.951870 -1.183551 0.841947 -0.298869 0.090434 -0.028742 0.117519 -0.520386 1.321813 -0.819358 -1.012164 0.578851 -0.410431
146 -1.152078 0.787989 1.359975 -0.793153 -0.648190 -1.068118 -0.319096 0.071149 -0.459562 0.192762 -0.472089 -1.034123 0.297545 -0.257856 0.510176 -0.475491 -0.669207 -2.125700 0.903348 -0.709011 -1.050381 0.941121 -0.148083 -0.012498 0.722080 0.443931 0.076077 0.703670 -0.560580 -0.886233 -0.477369 0.048267
10 -0.401032 0.008096 0.845434 -1.115875 0.743571 0.597634 -0.073554 0.702323 0.449643 -0.846042 0.044671 -0.940156 -0.558012 -0.533039 -0.429887 -0.439632 -0.226188 -1.369160 0.747867 -0.380635 0.274227 1.141461 -0.622151 0.142440 -0.080095 0.137571 0.456968 0.587606 -0.760471 -0.094813 -1.053145 -1.210747
87 -0.112808 0.826171 0.227407 -1.044326 1.649295 0.069257 0.625004 -0.011996 0.973702 0.238298 -1.050299 -0.032940 0.501860 0.126224 1.071535 -0.962633 -0.672250 -1.510573 0.077444 -1.297129 0.311094 0.701666 -0.556159 0.581886 0.238307 0.653628 0.824251 1.283649 -0.734813 0.401411 -0.223320 0.097309
306 0.553999 1.027225 0.465434 -1.379893 0.165740 -1.009439 -0.221721 1.206575 0.439143 0.071735 0.172532 -0.443868 1.771237 -0.383604 1.136960 -1.421081 0.096878 -0.481191 -0.087943 -0.430624 -0.570423 0.832717 0.128734 -0.104822 -1.121486 0.395329 0.420573 0.893888 -0.801924 -0.966165 -0.230898 -0.414342
135 -0.701040 -0.068730 0.193672 -0.832729 -0.049140 -1.381193 1.073680 0.274633 1.409310 -0.040310 0.748245 0.088881 0.129843 -0.425599 0.072901 -1.955278 0.085276 -0.470024 -0.515163 -1.595787 -0.978394 0.457686 -0.256321 0.395207 1.121598 0.131228 0.280351 0.659060 -0.938174 0.204612 -0.387115 -0.848089
334 0.059228 0.173816 0.659987 0.009733 1.123918 -0.953294 -0.055035 0.373800 -0.426002 -0.232631 -0.087371 -0.980641 0.567323 -1.078105 -0.284171 -1.303248 -0.846102 -0.542508 0.005240 -0.648134 -0.447320 -0.148044 1.150585 0.200487 0.124983 0.636069 0.637575 -0.445665 -0.143375 -0.429431 -0.954002 0.402379
165 0.032389 0.115955 0.670560 0.007022 1.126095 -0.953778 -0.057193 0.363430 -0.445330 -0.197746 -0.066285 -0.990841 0.605422 -1.096039 -0.269649 -1.316217 -0.774259 -0.612209 -0.007340 -0.583986 -0.437148 -0.060793 1.100402 0.166635 0.139501 0.632376 0.606645 -0.493871 -0.164201 -0.369052 -0.955258 0.393049
19 0.868174 0.836217 0.747248 -1.089857 0.703232 -0.875882 0.732744 -0.387412 0.528672 -0.693286 -0.409720 -0.566514 0.451800 -1.047639 -0.742340 -1.115852 -0.437541 -1.184069 0.367533 -0.538863 0.310331 -1.131345 -0.580257 -0.059861 -1.018967 0.775687 -0.162927 0.953481 -0.581304 -1.433174 -0.214951 0.375945
133 -0.352059 -0.003616 0.881138 -1.137188 0.793101 0.632689 -0.099298 0.783590 0.451753 -0.811968 0.048040 -0.934311 -0.579981 -0.551043 -0.435441 -0.422486 -0.202081 -1.421762 0.752231 -0.464101 0.230444 1.119272 -0.669339 0.157242 -0.153393 0.152205 0.460052 0.585706 -0.846570 -0.126244 -1.066716 -1.138211
264 0.016113 0.166182 0.693050 0.016287 1.123946 -0.998769 -0.110348 0.428732 -0.484068 -0.247327 -0.101966 -1.054194 0.577585 -1.123461 -0.262797 -1.323356 -0.870467 -0.597492 0.016167 -0.657558 -0.448998 -0.092240 1.143721 0.195912 0.120340 0.653990 0.612380 -0.459114 -0.156629 -0.427423 -0.967118 0.384222
22 0.010095 0.170976 0.690486 -0.025758 1.079910 -0.996607 -0.077644 0.377758 -0.446788 -0.221437 -0.084129 -1.021476 0.590340 -1.069627 -0.257937 -1.260864 -0.836272 -0.608451 0.000167 -0.562083 -0.409537 -0.089907 1.118881 0.187925 0.087692 0.664161 0.613034 -0.461075 -0.170447 -0.419407 -0.933994 0.373476
20 0.027721 0.120088 0.690345 -0.008123 1.069033 -0.964864 0.001513 0.317097 -0.456498 -0.199013 -0.072167 -0.981688 0.576254 -1.009790 -0.314277 -1.271457 -0.843426 -0.567629 -0.046686 -0.630894 -0.460533 -0.079644 1.148208 0.222852 0.152361 0.653347 0.721548 -0.452613 -0.146763 -0.405839 -1.000240 0.472708
330 -0.093601 0.804024 0.221445 -1.007830 1.675254 0.042022 0.566586 -0.017415 0.941835 0.195951 -1.079807 -0.027353 0.605043 0.116245 1.006361 -0.946795 -0.705487 -1.565408 0.138800 -1.314940 0.302108 0.758499 -0.633042 0.607507 0.173558 0.645330 0.886217 1.216873 -0.738921 0.409595 -0.240257 0.174841
513 -1.458742 1.773148 1.132944 -1.398019 0.879178 -0.694372 0.947920 0.040774 0.692040 -0.085085 0.102107 -1.116261 0.966812 0.927174 -0.189650 -1.711045 0.132678 -0.569043 0.785614 -0.105058 -0.090183 0.073882 -0.236601 0.458739 0.906980 -0.302697 -0.555910 0.015781 -0.033818 -0.936952 -0.451770 -0.222775
476 -1.466887 1.805245 1.104516 -1.385602 0.883019 -0.680887 0.973095 0.060277 0.696777 -0.115866 0.087743 -1.148015 0.982934 0.908876 -0.167621 -1.680564 0.103458 -0.582600 0.780415 -0.007529 -0.048046 0.173457 -0.261521 0.487257 0.955815 -0.339767 -0.579408 0.029901 0.024981 -0.892287 -0.445037 -0.318692
2 0.879901 0.822986 0.729011 -1.106814 0.691194 -0.906825 0.689054 -0.381131 0.576855 -0.694101 -0.392642 -0.604811 0.483964 -1.033645 -0.792386 -1.116709 -0.448825 -1.163960 0.338873 -0.548929 0.256414 -1.144230 -0.552175 -0.088130 -1.064265 0.742303 -0.153020 0.962214 -0.549576 -1.430090 -0.202181 0.404191
250 -0.095950 1.791823 1.425951 -0.313426 -0.346142 0.064012 0.765853 -0.361605 0.212437 0.324166 -1.068068 -0.965642 0.496174 -0.554609 0.694339 -1.620670 -0.326199 -0.094308 0.197235 -1.703903 -0.039447 0.453312 0.088379 -0.171913 -0.537010 -0.165160 1.333253 0.080117 -0.290503 -0.247526 -1.551448 -1.154140
163 0.010502 -0.382101 1.474975 -0.784578 1.063107 -0.068528 1.390229 0.788169 -0.674948 -0.768497 0.001489 0.709916 0.537488 -1.276919 0.253242 -0.982512 -0.103711 0.227720 -0.074030 -0.286456 -0.340736 0.876866 -0.628690 0.995524 0.130910 0.865923 0.040685 1.097682 -1.048615 -0.745725 -0.774238 -0.170114
51 0.019463 0.127182 0.683716 -0.001281 1.148798 -1.007323 -0.072035 0.392955 -0.485808 -0.208184 -0.064480 -1.063554 0.619148 -1.114665 -0.313114 -1.321404 -0.823882 -0.581343 -0.048401 -0.625142 -0.455640 -0.054899 1.162704 0.198601 0.095705 0.667056 0.637564 -0.495154 -0.155781 -0.422761 -0.961699 0.416417
337 -0.022702 -0.360389 1.445364 -0.830753 1.103008 -0.069026 1.409581 0.805644 -0.650725 -0.742539 0.042675 0.691567 0.564254 -1.295812 0.266920 -1.005913 -0.060025 0.262720 -0.060506 -0.352820 -0.362632 0.882599 -0.645683 1.017470 0.095059 0.857525 0.037582 1.108008 -1.051911 -0.773649 -0.782451 -0.173736
122 0.880656 0.837364 0.709172 -1.058387 0.742090 -0.861243 0.643362 -0.407153 0.595992 -0.698766 -0.403957 -0.602965 0.468402 -1.044697 -0.760715 -1.088904 -0.479071 -1.172960 0.319123 -0.516163 0.294721 -1.156314 -0.564843 -0.051578 -1.056183 0.738282 -0.161109 0.976462 -0.601693 -1.452635 -0.188389 0.413453
25 -0.343901 -0.021527 0.839287 -1.100681 0.708734 0.548690 -0.093060 0.738084 0.536058 -0.852531 0.045274 -0.917556 -0.585771 -0.587245 -0.422595 -0.420715 -0.219492 -1.423064 0.719909 -0.403656 0.246119 1.117008 -0.609404 0.242059 -0.054080 0.124634 0.387455 0.619911 -0.837961 -0.068382 -1.051895 -1.173332
405 0.952103 1.217963 0.735120 0.128137 1.536272 -0.546775 0.932584 -0.228354 0.967286 -0.051367 -0.262084 -0.078552 0.596956 0.012210 -1.546897 -1.197655 0.454603 -0.600806 -0.438473 -0.760506 0.008066 1.208456 0.465740 0.094230 -0.160437 0.121097 0.032906 1.527752 -0.839105 0.119043 -1.425106 -0.076237
389 -0.840336 -0.729648 1.206184 -0.113226 -0.564536 0.141944 1.003837 -0.294311 0.335272 -0.359578 0.596101 -1.168813 0.707099 -1.287716 -0.146350 -1.141022 -0.751650 -0.012066 0.640159 -1.090870 -0.510926 0.928813 0.795104 -0.504827 0.800885 0.539391 1.278682 0.982407 -0.222551 -1.085187 -0.237908 -0.525775
696 -0.704293 -0.539414 1.137856 0.038310 -0.445026 0.105125 0.888093 -0.508416 0.362966 -0.416972 0.500413 -1.158767 1.120515 -0.784007 -0.475053 -1.299819 -0.679936 0.063874 0.939953 -0.485467 -0.444442 0.816336 0.423480 -0.578882 0.749512 0.452696 1.079673 1.084435 -0.060188 -0.826724 -0.426798 -0.808533
421 -0.454393 -0.153524 1.584857 -0.355054 1.245930 -0.869033 0.847481 -0.426165 1.107224 -0.723508 -1.235769 -0.962112 -0.331749 -0.342620 -0.972897 -0.657281 -0.241776 -0.480514 0.738262 -0.377683 -0.061932 0.582674 0.562034 -0.335530 0.623456 1.769414 -0.727582 0.603103 -1.033782 0.126336 -0.612339 0.298548
565 -0.528481 -0.076401 1.532623 -0.421500 1.231118 -0.977282 0.753398 -0.591845 1.332566 -0.653721 -1.274150 -0.998140 -0.371338 -0.451645 -0.997905 -0.799102 -0.280993 -0.505543 0.803989 -0.460550 -0.010137 0.724018 0.658541 -0.344506 0.691381 1.758417 -0.629253 0.411605 -0.985480 0.117265 -0.501013 0.330422
524 -0.223579 0.633350 0.403755 -0.153090 0.311392 -0.375974 1.529819 -0.289120 0.143149 0.135073 1.091206 -0.744185 0.918659 -0.863098 0.052261 -1.748006 0.877079 -0.871214 0.124993 0.002622 0.046958 -0.394162 0.716737 -0.660662 -0.507864 0.089055 2.427074 1.962715 -0.749465 0.643485 -0.627228 0.255019
28 -0.341840 0.208869 1.194710 -0.556151 0.588943 -0.346911 0.622436 0.102942 0.292495 -0.425995 -0.007020 -0.780349 0.581412 -0.454518 -0.188312 -1.322915 0.159099 -0.931626 0.274031 -0.659786 -0.427605 0.501473 -0.105482 0.026736 0.003292 0.571715 0.444508 0.530698 -0.392503 -0.505935 -0.658524 0.111251
704 -0.480034 1.665753 0.624982 0.844132 -0.625055 -0.043945 1.946669 0.266000 -0.577057 -1.035272 0.219631 -0.155970 1.127164 -0.489284 -0.270893 -1.832681 -0.496425 -1.265940 0.502570 -0.993786 -0.666416 0.679809 -0.649275 0.101342 1.104594 0.365851 -0.092497 0.313834 -0.984200 0.008761 -1.328879 0.165591
76 -0.822745 0.823328 0.920744 -0.639491 1.249032 -0.251475 0.901886 -0.061245 0.363268 -0.765805 -0.715666 0.152711 0.950402 -1.743045 1.024756 -0.938305 1.729071 -0.698818 -0.044555 -1.051499 -1.081233 0.067750 0.187979 -0.750287 1.370907 0.298301 -0.031153 0.807256 -1.736327 0.024590 0.282659 0.139368
1218 0.149461 0.510163 0.659599 -0.175867 1.486803 0.550828 0.291871 0.687255 0.579889 -0.468460 -0.322459 -2.147615 -0.110214 -0.772038 -0.495318 -1.852680 -0.313082 -0.431549 -1.002697 -1.426495 -1.107652 -0.014863 -0.720387 -1.025456 0.684924 -0.425955 1.161497 0.703436 -0.264138 0.644023 -0.285282 -0.949866
215 -0.298969 0.351094 1.169503 -0.699327 0.566121 -0.396522 0.699434 0.117521 0.353295 -0.223717 -0.015076 -0.870350 0.374363 -0.549888 -0.077628 -1.357948 0.107508 -1.001238 0.081624 -0.761276 -0.508784 0.376856 -0.198011 -0.005772 0.046486 0.555960 0.583393 0.462690 -0.629253 -0.416874 -0.600537 0.001981
282 -0.316360 0.300003 1.020785 -0.532611 0.720817 -0.469213 0.683025 0.113116 0.366733 -0.362718 0.026028 -0.830964 0.444468 -0.475322 -0.047318 -1.423683 0.197747 -0.932112 0.222339 -0.630434 -0.361491 0.451188 -0.040622 0.056535 0.129923 0.513879 0.614297 0.558626 -0.578673 -0.557147 -0.696308 -0.031797
910 -0.754826 1.544104 1.005222 -0.658402 0.327512 0.202473 0.706460 -0.190944 0.223157 0.559987 0.028644 -0.892996 0.582150 0.538053 -0.121789 -1.717705 0.585132 -0.398975 0.251250 -0.814590 -0.299629 0.772868 0.639170 -1.366676 -0.342216 1.936049 0.654948 0.505651 -1.922613 -0.438230 0.620565 -0.526490
1162 0.284936 0.595817 1.879606 0.855878 0.508248 0.077818 1.070963 0.093704 1.285193 -0.482003 0.346720 -0.389239 1.121267 -0.418385 0.161571 -1.688359 1.308259 0.128949 -0.945462 -0.876914 -0.502830 -0.433793 0.993432 -0.410284 0.431594 1.755725 1.074674 0.285171 -0.175409 -0.789798 -0.803580 -0.730480
304 -0.807836 -1.465436 1.172248 -1.167267 0.710775 -0.885445 0.832328 0.520650 0.351002 -0.691532 -0.289604 -1.061343 0.144108 -0.305589 0.995297 -1.504943 -0.271499 -0.861328 0.143753 -0.449695 -0.808308 -0.007009 0.012860 -0.396022 -0.788363 -1.199000 0.453264 0.852025 -0.582023 -0.651040 -0.385092 -0.337952
935 0.949401 1.257455 0.724428 0.095022 1.506183 -0.505653 0.927098 -0.184298 0.952568 0.007817 -0.233907 -0.055479 0.617401 0.056898 -1.512403 -1.202528 0.402852 -0.589246 -0.448518 -0.816171 0.000600 1.274805 0.434876 0.112714 -0.144585 0.139185 0.031416 1.466452 -0.853757 0.046116 -1.427912 -0.060486
0 -0.198673 -0.139265 1.729791 -2.193688 0.437304 0.765333 -0.096467 -0.127276 -0.396848 -0.313902 -0.292441 -1.342186 0.826702 0.127651 -0.406582 -1.069364 -0.418418 -0.368046 0.039639 -1.007167 -1.561298 0.566087 -0.539518 -0.751539 -0.452597 0.529337 1.071700 0.067932 -0.368061 -1.205306 0.320804 0.375012
11 -0.800911 -1.473266 1.159908 -1.146767 0.691668 -0.863871 0.805847 0.553603 0.362182 -0.715813 -0.279093 -1.010771 0.135288 -0.275516 0.992289 -1.479866 -0.325149 -0.852305 0.178849 -0.443275 -0.787601 0.017577 0.032586 -0.392361 -0.758837 -1.174746 0.479271 0.831558 -0.586755 -0.679468 -0.365796 -0.354836
921 0.848675 0.392956 1.316907 -0.500366 -0.337050 -0.400985 1.315938 0.949875 0.426550 0.266580 0.804345 -0.994699 -0.150186 0.412203 -0.472567 -1.054785 0.450999 -1.193786 0.664899 0.201335 -0.697345 0.320204 0.357208 -0.501922 0.286749 0.542360 0.147259 0.090938 -0.620572 -0.706903 -1.299891 -0.272546
1150 -0.675665 0.201173 1.826596 -1.406278 -0.104295 -1.737385 0.880824 0.330995 -0.738832 -0.519773 0.625111 -0.262225 0.051947 -0.243572 -0.433621 -0.567464 0.650620 -1.111693 0.470663 -0.745380 -0.724026 1.024101 -0.490676 0.038684 -0.138259 0.663700 1.723987 0.168432 0.610643 0.717805 -1.542405 0.089341
263 -0.756631 -1.423137 1.177073 -1.193424 0.702801 -0.834177 0.851308 0.509922 0.318945 -0.690093 -0.290250 -1.049421 0.156518 -0.334145 0.976257 -1.483632 -0.286369 -0.848809 0.129476 -0.428368 -0.788721 -0.014093 -0.009631 -0.374118 -0.765276 -1.172938 0.505460 0.801237 -0.551503 -0.659976 -0.382003 -0.330643
1109 0.883258 0.428299 1.323610 -0.583322 -0.235871 -0.463303 1.268505 0.897030 0.406952 0.251377 0.766664 -1.041205 -0.158259 0.439894 -0.475374 -1.025525 0.351197 -1.001942 0.690931 0.113449 -0.621403 0.274769 0.360870 -0.439131 0.267699 0.528196 0.107631 0.132483 -0.669715 -0.787645 -1.289118 -0.161303
164 -0.163769 -0.141921 1.704313 -2.200307 0.453618 0.719350 -0.133257 -0.090242 -0.408444 -0.312080 -0.301832 -1.296530 0.837749 0.139417 -0.444384 -1.030895 -0.418353 -0.358224 0.028646 -0.986655 -1.545302 0.564012 -0.580709 -0.790759 -0.473373 0.529313 1.083362 0.052421 -0.331899 -1.155174 0.317495 0.362658
1250 -0.386353 0.283304 1.201979 -0.630041 0.660012 -0.360080 0.706312 0.166038 0.370594 -0.361221 0.009272 -0.963100 0.536723 -0.532053 -0.124115 -1.383341 0.175138 -0.936160 0.201418 -0.737805 -0.404270 0.490560 -0.125314 0.094293 0.078046 0.519359 0.501099 0.635503 -0.544250 -0.499091 -0.666590 0.043849
233 -0.279670 0.396813 1.566964 -1.192587 0.267763 -0.063217 0.598491 0.150266 -0.344540 -0.109959 -0.409372 0.124556 -0.025007 -0.188277 0.093097 -1.528216 0.503135 -0.148186 -0.134554 -1.916611 0.230829 -0.508476 -0.519578 0.583540 0.280217 1.423827 1.389751 -0.583611 -0.947358 -0.206264 -0.651144 0.952099
741 -1.792411 -0.227667 0.959814 -0.056195 0.907601 -0.631855 1.117972 0.076884 -0.548031 0.113190 0.270794 -1.192927 0.726603 1.306978 0.958554 -1.916626 0.852362 -1.302200 0.827103 -0.942907 0.527947 -0.076431 0.849058 0.309755 0.116189 1.024798 0.654826 0.173326 -0.488898 -0.152442 -0.139336 0.606685
288 -0.286046 0.396149 1.563407 -1.215668 0.254319 -0.079093 0.645473 0.157539 -0.339920 -0.074730 -0.382676 0.144446 -0.025055 -0.184639 0.128273 -1.531741 0.509787 -0.178231 -0.117239 -1.891823 0.257709 -0.504084 -0.520509 0.590566 0.286790 1.449446 1.376770 -0.606088 -0.976655 -0.203363 -0.666497 0.964979
759 -0.664023 -0.036586 1.619442 0.066746 1.123628 0.354060 1.038244 -0.261287 0.815212 -0.372292 -0.031430 -1.274291 0.061271 -0.858922 0.832810 -0.912608 0.192960 -1.103032 0.125818 -0.638453 -1.591181 0.906028 0.193261 -1.253431 0.093606 0.371672 -0.614538 -0.261094 0.876271 -0.205946 -0.694888 0.235961
434 -1.743328 -0.194405 0.899243 -0.154673 0.873781 -0.567125 1.080986 0.214705 -0.507794 0.090059 0.428902 -1.273257 0.703582 1.345472 1.066124 -1.955411 0.828096 -1.384087 0.870269 -0.815836 0.528635 0.030655 0.689753 0.271386 0.130439 1.108770 0.716080 0.143792 -0.444174 -0.090510 -0.246462 0.713704
148 -0.295526 0.420706 1.595232 -1.198511 0.276486 -0.073467 0.628508 0.147818 -0.342614 -0.070861 -0.417476 0.139429 -0.007163 -0.211033 0.081482 -1.561657 0.508559 -0.171741 -0.163124 -1.929954 0.205551 -0.463328 -0.509119 0.623272 0.269442 1.419743 1.392402 -0.617715 -0.926320 -0.196636 -0.678050 0.970340
1021 -0.666087 0.024666 1.621350 0.048900 1.118587 0.322295 1.049335 -0.264911 0.783419 -0.378819 -0.052139 -1.288498 0.079981 -0.834882 0.823284 -0.938518 0.184354 -1.144260 0.130194 -0.650098 -1.553378 0.912988 0.147313 -1.213562 0.093019 0.410664 -0.619390 -0.242133 0.850879 -0.259634 -0.679467 0.253229
838 -0.404573 0.310274 1.309280 -0.697417 0.713838 -0.385456 0.769902 0.181377 0.392476 -0.419744 0.016177 -1.054680 0.566965 -0.584637 -0.159699 -1.521348 0.218928 -1.025623 0.205040 -0.812235 -0.409123 0.517114 -0.142868 0.104664 0.096407 0.543080 0.551428 0.679805 -0.605833 -0.546257 -0.711114 0.031162
496 -0.332529 0.203660 1.169339 0.254268 0.186555 -0.102801 0.533137 0.020096 0.112803 -0.420300 0.287732 -1.483081 0.704257 -0.300708 -0.184300 -0.607727 0.909726 -0.573950 -0.750310 -0.666648 0.291297 0.512589 -0.546008 0.731435 -0.221723 -0.327112 0.171565 -0.106550 -0.593248 -0.841790 -0.375040 0.111696
89 -0.339960 0.382932 1.533580 -1.201213 0.286422 -0.044249 0.612144 0.101736 -0.311434 -0.125277 -0.400020 0.178273 -0.041262 -0.173145 0.075679 -1.587885 0.499566 -0.200863 -0.105967 -1.882247 0.221788 -0.549689 -0.526625 0.550070 0.250028 1.395304 1.372824 -0.580415 -0.969979 -0.145180 -0.690892 0.967063
240 -0.744368 -0.080960 0.714974 0.194290 1.057333 0.603077 0.599079 0.297318 -0.761811 0.228226 0.076778 -0.021492 1.268322 -0.890171 -0.133483 -1.511212 0.822320 -1.163795 1.290899 -1.045077 -0.884747 0.900282 -0.079938 -0.135221 -0.199074 0.090128 0.787681 0.317547 -0.633521 -0.909940 0.259760 1.113432
394 0.211786 0.103243 1.392285 -0.144565 0.158634 0.092473 0.271649 -1.057629 0.873502 0.062962 -0.235431 -0.947980 0.261784 0.310954 -0.101022 -0.984870 0.040117 -1.401770 0.006738 -1.166597 -1.303597 -0.731066 0.072048 0.072403 0.057122 -0.276623 0.458318 1.520907 -1.175967 -0.116629 -0.416643 0.620021
909 -0.396465 0.149788 1.228480 0.171459 0.160852 -0.172392 0.382801 0.053668 0.032032 -0.295540 0.260538 -1.462263 0.605437 -0.242883 -0.122179 -0.552747 0.795894 -0.586898 -0.833067 -0.603297 0.290026 0.564720 -0.501374 0.799418 -0.303448 -0.201953 0.144828 -0.026180 -0.628536 -0.942245 -0.273091 0.210013
709 -0.084444 1.809000 1.345949 -0.257301 -0.309714 0.038352 0.754949 -0.376184 0.254852 0.288105 -1.066046 -0.943418 0.546186 -0.510313 0.646290 -1.631595 -0.324471 -0.036653 0.201717 -1.762549 -0.105901 0.468709 0.132271 -0.109765 -0.519721 -0.179779 1.278542 0.119333 -0.220338 -0.320599 -1.553497 -1.173963
450 -0.831586 -0.678974 1.163702 -0.063388 -0.618592 0.152662 1.060765 -0.283208 0.302641 -0.395598 0.581683 -1.157663 0.665797 -1.307264 -0.137842 -1.084176 -0.739539 -0.030027 0.665241 -1.049510 -0.472573 0.943054 0.758025 -0.531997 0.817415 0.489786 1.246716 0.929147 -0.221316 -1.007511 -0.210826 -0.570508
765 -0.700207 0.211240 1.839992 -1.416277 -0.111915 -1.777776 0.819805 0.357326 -0.745788 -0.582001 0.624601 -0.178173 0.046648 -0.258916 -0.443781 -0.596937 0.627497 -1.078724 0.526701 -0.727649 -0.742846 1.037586 -0.488411 0.035080 -0.124923 0.664810 1.697437 0.144688 0.617751 0.690788 -1.545483 0.116098
206 -1.150153 0.750091 1.368461 -0.818806 -0.609957 -1.082557 -0.291641 0.020190 -0.443137 0.206754 -0.450248 -0.976669 0.292044 -0.255888 0.478327 -0.420319 -0.699567 -2.069902 0.894380 -0.660985 -1.008291 0.945753 -0.146677 0.003660 0.729593 0.485737 0.013773 0.736451 -0.573637 -0.879441 -0.489949 0.068643
1039 0.981530 0.475413 1.378910 -0.799267 -0.137777 -0.634368 1.223650 0.825658 0.445647 0.266501 0.748397 -1.069191 -0.243589 0.519068 -0.476607 -0.992858 0.294599 -0.630548 0.742993 0.004399 -0.492782 0.222375 0.318784 -0.333872 0.365202 0.469799 0.125514 0.080212 -0.745088 -0.988637 -1.312432 -0.066944
202 -0.482255 0.219477 -0.058562 0.408434 1.349233 0.261097 0.178229 1.002706 1.173658 -0.588286 0.266462 -1.198825 0.183342 -0.126966 -0.498543 -1.182072 -0.202984 -0.451639 0.642078 -0.722303 -0.525436 0.681514 0.214807 0.257541 0.185679 0.573523 0.157131 1.696636 -0.183651 -2.017163 -0.665479 0.496773
428 -0.698536 -0.017597 0.178747 -0.858008 -0.025841 -1.364347 0.962773 0.256449 1.343560 -0.026203 0.724793 0.068209 0.122000 -0.391735 0.068114 -1.973753 0.025781 -0.432955 -0.447046 -1.553850 -0.968837 0.437523 -0.261813 0.373080 1.082658 0.166996 0.263603 0.661188 -0.927659 0.196883 -0.402696 -0.830035
56 -0.848538 -0.592318 1.163053 -0.021085 -0.551281 0.124664 1.038770 -0.346262 0.278189 -0.410389 0.536572 -1.175216 0.896719 -1.069867 -0.294150 -1.190750 -0.713437 0.006339 0.790298 -0.890672 -0.542834 0.823884 0.670773 -0.557751 0.826261 0.391989 1.159523 0.987210 -0.179366 -0.983690 -0.307395 -0.626821
290 -0.533360 0.243235 -0.072842 0.408152 1.397858 0.226443 0.200104 1.006474 1.165462 -0.622821 0.245085 -1.186629 0.212724 -0.150676 -0.452324 -1.192469 -0.217896 -0.500966 0.636304 -0.743527 -0.491943 0.749458 0.231215 0.280319 0.214085 0.594590 0.148542 1.703177 -0.169303 -2.037614 -0.665893 0.466028
531 -0.295495 0.114416 1.195806 0.186703 0.244515 -0.179865 0.481045 0.031915 0.112957 -0.397338 0.278867 -1.390221 0.565158 -0.244968 -0.223651 -0.615088 0.854386 -0.534473 -0.816291 -0.651899 0.301114 0.552381 -0.546172 0.867933 -0.349665 -0.241382 0.155118 0.006522 -0.561396 -0.812297 -0.400275 0.188852
1268 0.173155 0.179516 1.360934 -0.159109 0.090443 0.141130 0.332839 -1.042847 0.773766 0.054926 -0.270086 -0.960933 0.278151 0.332595 -0.035589 -1.029717 0.007940 -1.409315 0.057700 -1.213211 -1.294362 -0.734221 0.139381 0.079322 0.039352 -0.242723 0.464387 1.531093 -1.204562 -0.101315 -0.484767 0.658111
249 -1.291798 1.247258 0.317771 -0.724401 0.969816 -1.086954 0.530540 0.126873 0.677567 0.155708 -0.384410 -0.664130 0.544906 -0.376503 -0.249454 -2.632888 0.578794 0.168862 -0.120255 -0.003776 1.019486 0.179176 0.791558 0.836941 0.471403 1.848822 0.201800 0.992237 0.024175 0.149623 -1.284689 -0.219281
825 0.645574 0.528803 1.064575 -0.477653 -0.208470 -0.131917 0.859145 0.004865 1.444759 -0.315465 -0.991804 -0.572332 0.594225 -2.032716 0.152848 -0.931865 -0.039731 -0.850306 -0.598050 -0.388897 -0.085607 0.294628 -0.443638 0.286648 0.930001 0.751590 0.471987 0.771273 0.504778 -0.132000 -0.853240 0.389441
792 -1.304073 1.170882 0.245567 -0.677250 1.041236 -1.041883 0.462422 0.148457 0.694394 0.204229 -0.399249 -0.668404 0.566157 -0.302743 -0.184604 -2.661917 0.550757 0.137425 -0.073661 -0.048516 1.079547 0.268198 0.764322 0.879917 0.404613 1.822935 0.173542 0.988005 0.000688 0.150240 -1.254075 -0.196451
775 0.153279 0.164320 1.339753 -0.092377 0.110061 0.158002 0.313852 -1.030979 0.817806 0.062348 -0.258550 -0.928929 0.300032 0.301399 -0.000126 -1.027263 0.019492 -1.379454 0.089787 -1.199363 -1.291695 -0.764694 0.165612 0.035089 0.081079 -0.238621 0.433344 1.590651 -1.169403 -0.134931 -0.504789 0.636661
676 -0.810952 -1.459858 1.184429 -1.134288 0.651263 -0.911193 0.791554 0.511439 0.353428 -0.723708 -0.263294 -1.024341 0.137218 -0.320308 0.992221 -1.513761 -0.295311 -0.880212 0.133929 -0.463988 -0.838608 0.039661 0.015709 -0.400859 -0.773985 -1.162552 0.441573 0.847714 -0.601307 -0.683131 -0.367736 -0.371277
763 -0.686492 -0.298381 1.151847 0.027766 -0.139677 0.088453 0.848762 -0.605049 0.417425 -0.522757 0.446072 -1.131101 1.584891 -0.393979 -0.652208 -1.447624 -0.433824 0.176428 1.163274 -0.077432 -0.351139 0.820375 0.190570 -0.586111 0.526891 0.506210 0.772996 1.238708 -0.081838 -0.600696 -0.666720 -0.985622
1076 -0.006029 0.164194 0.634845 0.031752 1.099393 -0.999563 -0.064375 0.382360 -0.445385 -0.201824 -0.037273 -1.001808 0.549845 -1.081214 -0.337051 -1.328194 -0.817121 -0.601007 -0.040658 -0.575063 -0.432813 -0.132543 1.114371 0.175997 0.101767 0.666430 0.609989 -0.471620 -0.159660 -0.386026 -0.947207 0.450869
816 0.535206 1.007117 0.531856 -1.419451 0.198954 -0.970941 -0.159108 1.151515 0.408524 0.098245 0.198389 -0.404408 1.745196 -0.362080 1.124624 -1.395901 0.086627 -0.501914 -0.102134 -0.400528 -0.604652 0.843831 0.102724 -0.107141 -1.061756 0.364138 0.403936 0.862164 -0.784521 -0.983273 -0.192234 -0.395922
1143 0.157942 1.192167 0.702723 -0.717242 0.791249 0.528143 0.188685 0.150150 0.460495 -0.802761 0.213727 -1.288848 0.932134 0.215923 -0.451588 -0.804508 -0.090829 -1.115456 1.210555 -0.136908 -1.022704 0.120852 -0.641083 0.644196 -0.147070 1.746988 0.534006 0.449089 0.490903 0.573611 -0.922838 0.541616
94 -0.491646 0.245296 -0.058649 0.371467 1.358973 0.203702 0.205079 1.005925 1.140731 -0.606087 0.219010 -1.188527 0.197154 -0.116576 -0.480505 -1.185403 -0.151805 -0.492097 0.630277 -0.757455 -0.528488 0.718590 0.231264 0.276577 0.200672 0.579551 0.141670 1.694345 -0.169874 -2.000602 -0.630752 0.467157
905 -0.306652 0.164321 1.162826 0.182667 0.210999 -0.179794 0.479599 0.058299 0.111920 -0.392206 0.277821 -1.350521 0.629186 -0.242792 -0.179585 -0.606720 0.893501 -0.574863 -0.817377 -0.626232 0.292827 0.536150 -0.626719 0.791617 -0.348851 -0.221468 0.157869 -0.066344 -0.539348 -0.809419 -0.401341 0.202822
454 -0.705694 -0.034922 0.193825 -0.872092 -0.033983 -1.449722 0.988436 0.315859 1.357170 -0.046114 0.663376 0.055530 0.158206 -0.435629 0.081951 -1.964447 0.022984 -0.438411 -0.486888 -1.599363 -0.921274 0.467052 -0.305615 0.449663 1.063172 0.113106 0.251228 0.659343 -0.897551 0.192837 -0.419424 -0.864363
153 -0.556181 -0.175456 0.685950 -0.009987 0.658057 -1.167158 0.229273 0.565634 0.077821 -1.085396 -0.386036 -0.682349 0.462577 -0.572124 -0.856072 -1.988722 1.104530 -0.972392 0.764286 -0.584447 -0.240259 -0.209767 -0.738043 -0.894698 0.117505 0.569287 0.135702 -0.382304 -0.545675 0.001549 0.179545 -0.765561
315 -0.224618 0.163424 1.139136 0.082082 0.295527 -0.257788 0.514274 0.018070 0.135435 -0.309142 0.291652 -1.350614 0.568254 -0.232234 -0.197220 -0.582779 0.941152 -0.677507 -0.826028 -0.614267 0.263231 0.521204 -0.608892 0.945569 -0.364876 -0.306066 0.093183 0.024232 -0.532781 -0.866379 -0.401494 0.289629
973 -0.371854 0.127658 1.173258 0.123460 0.246278 -0.204761 0.422163 0.022531 0.113078 -0.353966 0.318044 -1.380619 0.598737 -0.278593 -0.201362 -0.621509 0.874293 -0.538437 -0.823426 -0.599538 0.294218 0.539267 -0.528710 0.877601 -0.321660 -0.205969 0.072807 -0.041948 -0.554508 -0.874506 -0.353666 0.254034
1041 0.894565 0.414594 1.285660 -0.527268 -0.333137 -0.461648 1.247485 0.944498 0.390957 0.272205 0.797865 -0.924846 -0.185385 0.420120 -0.460916 -1.085456 0.469962 -1.185537 0.623088 0.143019 -0.616638 0.324329 0.355792 -0.507486 0.278193 0.553403 0.119003 0.071276 -0.527604 -0.662635 -1.254272 -0.266578
637 0.132244 1.181164 0.726198 -0.708611 0.776044 0.520842 0.200521 0.122504 0.437524 -0.783338 0.205216 -1.308449 0.876705 0.183012 -0.483501 -0.797403 -0.096785 -1.141247 1.210359 -0.169679 -1.018512 0.088780 -0.607343 0.618321 -0.150104 1.732111 0.520963 0.436907 0.494170 0.584905 -0.933695 0.590658
744 -0.768394 -0.087543 0.718508 0.124115 1.018587 0.574347 0.539013 0.297720 -0.788975 0.191051 0.087658 0.030176 1.337988 -0.905861 -0.114614 -1.467189 0.808120 -1.106761 1.269517 -1.073578 -0.919042 0.911218 -0.046724 -0.114145 -0.200310 0.104930 0.759838 0.286037 -0.671190 -0.963542 0.281815 1.110048
844 -1.083508 -0.205178 1.192224 -0.849294 0.916082 0.581554 -0.774993 -0.485963 -0.611735 -0.181715 0.377343 -0.862700 -0.066009 -1.135448 0.927254 -1.983729 -0.547553 -0.657827 -0.295989 -0.596697 0.351730 0.910499 0.206323 -0.146974 -0.099859 0.835714 0.676663 1.801821 -0.504830 0.095094 -0.230524 0.254328
365 -0.363834 -0.015656 0.825395 -1.136886 0.767211 0.582085 -0.088883 0.771801 0.521866 -0.826867 0.064637 -0.940329 -0.532165 -0.596532 -0.401775 -0.421016 -0.267312 -1.399260 0.740609 -0.401190 0.262193 1.213883 -0.651245 0.170940 -0.131104 0.197559 0.437443 0.641243 -0.808703 -0.153053 -1.047796 -1.211690
483 -0.324677 0.163206 1.177235 0.154867 0.236417 -0.210162 0.492839 0.071181 0.075167 -0.447089 0.267846 -1.397336 0.647596 -0.281064 -0.184724 -0.589684 0.864536 -0.586222 -0.856370 -0.685630 0.293935 0.549298 -0.554730 0.863560 -0.299634 -0.252065 0.115397 -0.082958 -0.587745 -0.895456 -0.359035 0.175947
851 0.030024 0.146399 0.640051 0.010602 1.118407 -0.973999 -0.064292 0.397731 -0.495062 -0.217827 -0.096526 -1.031157 0.581450 -1.112297 -0.264619 -1.331025 -0.808062 -0.588352 -0.037506 -0.621622 -0.413511 -0.088801 1.056688 0.184315 0.078845 0.661814 0.650119 -0.445660 -0.170080 -0.370727 -0.975576 0.393424
889 0.822292 0.431138 1.242443 -0.559992 -0.255339 -0.552922 1.232578 0.885895 0.388303 0.231126 0.751887 -1.066400 -0.178484 0.394928 -0.584101 -1.085155 0.398594 -1.026742 0.677056 0.062032 -0.590721 0.207354 0.317516 -0.457218 0.310399 0.505143 0.094933 0.096755 -0.625149 -0.843359 -1.246309 -0.142289
633 0.077907 1.206527 0.749968 -0.721058 0.798549 0.514768 0.191905 0.163470 0.409511 -0.799888 0.210387 -1.322668 1.001070 0.183076 -0.519694 -0.773936 -0.021675 -1.076359 1.150743 -0.175683 -1.017987 0.162141 -0.684237 0.657833 -0.141721 1.776278 0.511812 0.336328 0.472204 0.580555 -0.810623 0.602668
442 -1.260222 -0.496909 0.656373 -1.144135 0.819551 -0.916479 0.120645 -0.034477 1.019352 0.172626 1.042246 -0.228859 -0.046372 -0.574569 -0.481092 -1.445344 0.314201 -0.927506 0.229593 0.452047 -0.268455 0.305471 -0.731216 -0.119187 -0.582692 0.844107 0.407206 0.318663 -0.353417 -0.670492 -0.962448 0.870460
887 0.098184 1.203385 0.699698 -0.738869 0.780831 0.503547 0.193714 0.152480 0.498261 -0.780844 0.182946 -1.250415 0.947591 0.261441 -0.455954 -0.843453 -0.092612 -1.081457 1.241618 -0.186868 -1.013853 0.115563 -0.651453 0.627980 -0.125584 1.699733 0.455211 0.428073 0.472218 0.533332 -0.884479 0.547032
36 -0.145472 0.808250 0.236445 -1.108511 1.608448 0.127516 0.735882 -0.038792 0.919578 0.241057 -1.011467 0.032508 0.552401 0.158309 0.949014 -0.885129 -0.631127 -1.510538 0.142473 -1.226482 0.208068 0.853883 -0.525285 0.636364 0.260230 0.593486 0.812507 1.270925 -0.683737 0.435156 -0.167792 0.116620
781 -0.709500 -0.116058 2.038279 -1.401731 0.400253 -0.780067 1.522991 0.204582 1.132825 -0.656617 0.147035 -0.349370 0.625377 -0.110162 -0.978176 -0.004322 0.765456 -0.486863 0.661838 -1.024920 -1.173051 0.765462 -0.323123 0.104067 -0.015960 0.155213 -0.476316 1.219050 -0.890261 -0.979210 0.507580 -0.382163
413 -1.150766 -0.493321 0.644295 -1.183175 0.855390 -0.890721 0.145850 -0.022551 1.004158 0.177719 1.019852 -0.210130 -0.134424 -0.575291 -0.498090 -1.444765 0.331447 -0.954004 0.152912 0.388435 -0.260326 0.252542 -0.772123 -0.140787 -0.597289 0.852843 0.421099 0.327088 -0.367368 -0.629642 -1.019379 0.871413
279 0.214437 0.121352 1.359778 -0.152493 0.114512 0.148741 0.241403 -1.045064 0.770528 0.045859 -0.272278 -0.958213 0.287254 0.369954 -0.101688 -1.012404 0.028043 -1.384459 0.028805 -1.150327 -1.299092 -0.703131 0.097157 0.005121 0.059383 -0.233747 0.428797 1.481285 -1.186808 -0.056292 -0.422688 0.627101
662 -1.223296 -0.485455 0.625184 -1.131584 0.875296 -0.865432 0.198840 0.001497 0.997515 0.195489 1.003130 -0.195390 -0.109246 -0.577666 -0.444947 -1.354112 0.340575 -0.915152 0.193837 0.410278 -0.249752 0.227800 -0.737547 -0.116498 -0.530607 0.874316 0.345944 0.316648 -0.413671 -0.658693 -0.972347 0.910055
529 -0.319412 0.153775 1.207220 0.206329 0.167482 -0.136275 0.442535 0.034697 0.098966 -0.407025 0.282590 -1.407824 0.659929 -0.290194 -0.152181 -0.564943 0.878685 -0.534613 -0.812665 -0.638174 0.298501 0.572704 -0.501054 0.779952 -0.252484 -0.257072 0.088235 -0.102409 -0.595346 -0.918617 -0.317927 0.155468
40 -0.320562 0.206774 1.147751 0.245232 0.145599 -0.117807 0.433395 0.044269 0.129971 -0.397164 0.323555 -1.387925 0.602252 -0.301562 -0.155636 -0.592683 0.820386 -0.612266 -0.809917 -0.664456 0.279413 0.560715 -0.530284 0.822237 -0.316310 -0.228789 0.173095 -0.034565 -0.620336 -0.898238 -0.384714 0.226169
177 -0.530063 -0.124452 1.550142 -0.387562 1.183739 -0.935243 0.754777 -0.533186 1.143646 -0.650706 -1.226072 -0.983566 -0.287893 -0.341584 -0.934831 -0.661349 -0.268475 -0.491105 0.719721 -0.417734 -0.105644 0.657536 0.595318 -0.315416 0.644828 1.662273 -0.694067 0.512354 -1.021912 0.070631 -0.546007 0.338227
186 0.594077 0.454371 1.029650 -0.393003 -0.198895 -0.143777 0.839544 -0.015812 1.396223 -0.385689 -0.965246 -0.582683 0.584055 -2.014271 0.113133 -0.918713 -0.013946 -0.836359 -0.580043 -0.471867 -0.085049 0.324556 -0.491680 0.235524 1.015501 0.724232 0.510531 0.828301 0.427211 -0.138193 -0.806748 0.386478
415 -0.264214 0.364752 1.495651 -1.224020 0.219508 -0.129295 0.591044 0.112356 -0.330663 -0.060279 -0.393511 0.170148 -0.076610 -0.119158 0.086619 -1.493758 0.500338 -0.160290 -0.116588 -1.835282 0.227687 -0.503359 -0.535911 0.582364 0.285541 1.404742 1.323670 -0.557774 -0.918198 -0.153910 -0.651746 0.934961
381 -0.002673 0.128587 0.604730 0.009081 1.118602 -0.925101 -0.137862 0.371585 -0.525086 -0.270196 -0.127409 -1.010712 0.580962 -1.152481 -0.248595 -1.239553 -0.818024 -0.599460 -0.048793 -0.646875 -0.398067 -0.100488 1.070488 0.140610 0.014040 0.676181 0.678054 -0.420079 -0.181175 -0.363304 -0.903362 0.410665
1029 -0.010157 -0.314628 1.442600 -0.751107 1.044687 -0.120767 1.436548 0.758136 -0.600272 -0.725309 0.030966 0.700355 0.520587 -1.293429 0.266645 -0.987398 -0.080517 0.202016 -0.063379 -0.332175 -0.374775 0.856586 -0.625201 0.978638 0.151332 0.871199 0.033007 1.110064 -1.034808 -0.754339 -0.806432 -0.179937
361 -1.246467 -0.497094 0.647131 -1.152348 0.845979 -0.895963 0.169019 0.004041 1.030377 0.171018 1.037390 -0.257087 -0.100729 -0.592499 -0.484842 -1.387071 0.270219 -0.905662 0.197902 0.459118 -0.268970 0.300863 -0.730944 -0.102304 -0.589516 0.861079 0.386151 0.340256 -0.343937 -0.663323 -1.008082 0.836073
1270 -0.075162 0.782859 0.217391 -0.976323 1.682892 0.050996 0.710452 0.013469 0.955596 0.216632 -0.988330 0.005438 0.499193 0.105715 0.989035 -0.964333 -0.640990 -1.525215 0.086798 -1.246347 0.320658 0.754963 -0.563327 0.597812 0.235307 0.588938 0.836353 1.213090 -0.763164 0.397893 -0.242906 0.130985
1092 -0.779482 -0.120687 0.691058 0.161858 1.040325 0.608090 0.535770 0.302664 -0.833007 0.196569 0.100414 0.038206 1.301403 -0.913679 -0.104241 -1.478443 0.838046 -1.102002 1.274493 -1.010315 -0.874003 0.885741 -0.062411 -0.139617 -0.208570 0.097303 0.749578 0.286948 -0.622397 -0.968131 0.268542 1.168528
63 -0.264034 0.358071 1.175514 -0.750529 0.601580 -0.317672 0.673510 0.187914 0.407390 -0.321487 0.009429 -0.922219 0.405829 -0.493880 -0.064422 -1.447459 0.129668 -0.870529 0.102394 -0.775901 -0.413734 0.536104 -0.168247 0.207907 0.234519 0.551982 0.467341 0.674236 -0.487575 -0.417774 -0.630834 -0.140996
119 -0.003467 0.133723 0.665860 -0.018069 1.113414 -0.960075 -0.069463 0.338740 -0.510932 -0.229364 -0.089444 -1.016322 0.528094 -1.051398 -0.323624 -1.314171 -0.827979 -0.595841 -0.017718 -0.598507 -0.432563 -0.074100 1.067997 0.192306 0.086156 0.682300 0.677629 -0.486753 -0.112138 -0.381041 -0.985660 0.427371
841 -0.715820 -0.115428 1.973527 -1.412035 0.429045 -0.752860 1.500473 0.214784 1.142558 -0.631531 0.164640 -0.337581 0.622119 -0.100509 -1.027678 0.040525 0.763548 -0.444552 0.675422 -0.959068 -1.161889 0.724769 -0.301344 0.091906 -0.059300 0.146931 -0.517115 1.258267 -0.824046 -1.009002 0.519597 -0.339785
508 -1.423524 1.723007 1.041432 -1.324855 0.825977 -0.651598 0.921436 0.024011 0.687125 -0.116998 0.071620 -1.053096 0.959319 0.870210 -0.139579 -1.614760 0.082239 -0.514849 0.817069 -0.034091 -0.077611 0.141791 -0.223859 0.431294 0.920516 -0.348700 -0.557050 0.015386 0.003051 -0.890612 -0.384163 -0.311152
767 -0.763975 -0.093307 2.052605 -1.370883 0.382189 -0.798287 1.496881 0.174382 1.114460 -0.625238 0.122243 -0.414678 0.666752 -0.090869 -0.915254 0.051739 0.751801 -0.482281 0.705318 -0.937543 -1.183093 0.801455 -0.276479 0.071118 0.019303 0.090306 -0.551166 1.329589 -0.850788 -1.019444 0.500600 -0.376088
340 -0.332922 0.230672 1.203964 0.188012 0.128465 -0.154529 0.538493 0.035834 0.042577 -0.342295 0.288251 -1.486696 0.680545 -0.300517 -0.140282 -0.659399 0.874697 -0.531385 -0.804347 -0.699498 0.255533 0.526516 -0.491346 0.705968 -0.295118 -0.306801 0.177722 -0.118636 -0.583589 -0.878497 -0.298107 0.088849
505 -0.280658 0.155699 1.148521 0.150922 0.225493 -0.193809 0.420676 0.054779 0.106217 -0.339593 0.294869 -1.420550 0.644517 -0.296516 -0.199084 -0.576694 0.889181 -0.582070 -0.818386 -0.611928 0.274025 0.527203 -0.552926 0.810461 -0.349521 -0.271598 0.085247 -0.005116 -0.584650 -0.874635 -0.358802 0.175907
205 -0.377570 -0.023168 0.841301 -1.100725 0.789388 0.600408 -0.026424 0.712567 0.485077 -0.873230 0.072926 -0.963934 -0.568150 -0.573229 -0.423817 -0.399315 -0.263805 -1.364276 0.706108 -0.372399 0.237209 1.200861 -0.632255 0.165608 -0.047773 0.164313 0.379392 0.673313 -0.740290 -0.099710 -1.022668 -1.222304
349 -0.025426 -0.366331 1.447466 -0.756065 1.038615 -0.072404 1.385791 0.743538 -0.609652 -0.720023 0.021547 0.699736 0.524078 -1.308485 0.320803 -0.926126 -0.101258 0.185965 -0.055043 -0.346666 -0.373978 0.881434 -0.623111 0.980493 0.138925 0.864086 0.044141 1.139278 -1.018295 -0.743120 -0.743202 -0.143926
923 -0.226695 0.410395 1.235795 -0.715132 0.731578 -0.400777 0.674747 0.188891 0.389172 -0.371229 0.008974 -0.971744 0.551004 -0.552855 -0.180700 -1.464606 0.315596 -0.992890 0.170002 -0.743172 -0.278425 0.438725 -0.167749 0.206559 0.075873 0.515345 0.528039 0.576971 -0.586460 -0.512410 -0.663282 0.202681
830 -0.236623 0.387053 1.214954 -0.787296 0.587732 -0.366059 0.695980 0.204108 0.452616 -0.343606 0.011145 -0.977313 0.404625 -0.501017 -0.073407 -1.482793 0.121842 -0.905241 0.093900 -0.797078 -0.399758 0.531622 -0.179503 0.223853 0.239533 0.566915 0.494262 0.684055 -0.516189 -0.414037 -0.690850 -0.139282
552 -1.419470 1.735831 1.015133 -1.282978 0.884803 -0.666520 0.888699 -0.000570 0.710336 -0.118565 0.047841 -1.039520 0.969789 0.809453 -0.202041 -1.611533 0.009092 -0.470279 0.848327 0.003909 -0.090001 0.148804 -0.176866 0.480315 0.951153 -0.399845 -0.530592 0.094703 0.068705 -0.896858 -0.432779 -0.316422
270 -1.211969 -0.479278 0.635337 -1.162457 0.853307 -0.896548 0.144736 -0.023393 1.014996 0.174506 1.023524 -0.197345 -0.061417 -0.569753 -0.485895 -1.383729 0.328795 -0.916277 0.184921 0.403124 -0.266198 0.305042 -0.760731 -0.154237 -0.577171 0.871054 0.398573 0.272092 -0.366244 -0.667510 -0.983328 0.876941
80 -0.501754 0.215687 -0.077894 0.400752 1.358987 0.215545 0.211679 0.980683 1.128081 -0.597753 0.221621 -1.173684 0.194342 -0.066188 -0.481587 -1.163219 -0.175670 -0.466986 0.641680 -0.730683 -0.498068 0.682167 0.212631 0.266849 0.207797 0.586653 0.143929 1.677797 -0.167039 -1.958635 -0.642511 0.509834
155 -1.130854 0.795808 1.321786 -0.771801 -0.588717 -1.069822 -0.274095 0.021795 -0.426382 0.175689 -0.485147 -1.019255 0.321956 -0.265819 0.492330 -0.474667 -0.682267 -2.044808 0.870146 -0.687547 -0.971856 0.947249 -0.148779 0.030152 0.731127 0.483364 0.037386 0.751667 -0.555204 -0.840832 -0.475837 0.070224
342 0.571186 0.345550 0.150383 -0.412017 1.084248 -0.339703 0.259867 0.732137 0.628192 0.298373 0.441030 -1.255556 1.084454 -1.548281 0.529146 -0.299504 1.024918 -2.260787 0.396952 0.475759 -0.951881 0.552861 1.075784 0.393037 0.242185 0.383260 0.353538 1.206601 -1.384463 0.156002 -0.615135 0.711030
716 -0.350481 0.303810 1.264437 -0.656360 0.707683 -0.457100 0.697649 0.213599 0.464404 -0.388012 -0.034570 -1.044546 0.545057 -0.618131 -0.190786 -1.555408 0.236923 -1.057061 0.172671 -0.860085 -0.349693 0.400675 -0.161775 0.011312 0.056592 0.516606 0.569737 0.623267 -0.599434 -0.461671 -0.707989 0.128167
713 0.309378 1.387262 0.824430 -0.888014 1.216781 0.801866 1.656871 -0.299559 0.566836 0.201795 -0.227721 -0.613491 0.128759 -0.215059 1.029949 -1.513111 0.772782 -0.730761 -0.122701 0.574388 -0.556177 0.241833 0.810341 0.458646 -0.113467 -0.356414 0.914789 1.263430 -0.045656 -0.831347 -1.620729 1.446692
1060 -0.376583 0.416826 1.189133 -0.600943 0.793859 -0.280092 0.690143 0.155608 0.416099 -0.387172 -0.134626 -1.127379 0.683657 -0.785210 -0.150350 -1.729842 0.216079 -1.049657 0.227951 -0.921238 -0.332369 0.497988 -0.164144 0.135393 0.080417 0.567970 0.648530 0.709543 -0.703781 -0.615577 -0.664226 0.015904
1062 -0.640488 0.036273 1.068652 -1.332821 2.442250 0.098284 1.186309 -0.046077 -0.808701 -0.085876 0.422425 -0.333896 0.681757 -0.264319 -1.038171 -1.367231 1.097335 -0.139329 -0.456548 0.030696 -0.713834 0.914952 0.339191 -0.487419 0.141976 0.919083 1.058420 -0.520081 -0.945675 0.708141 -0.864674 -0.292410
296 -0.509378 -0.096502 0.500640 -0.496507 -0.244626 -0.571414 0.465232 -0.753285 0.170117 0.111545 0.203412 -0.613430 1.639163 -1.166265 -0.511788 -0.857934 -0.195826 -1.823629 -0.306025 -0.828358 -0.629485 0.456645 -0.031104 1.771159 -0.143852 1.421483 1.652262 0.881469 -0.729012 0.614744 0.450668 -0.061884
295 -0.327590 0.285385 1.006198 -0.707528 0.607441 -0.408313 0.663304 0.094019 0.213126 -0.220937 -0.147361 -0.610653 0.669018 -0.817182 -0.059644 -1.411504 0.142729 -1.139539 -0.160781 -1.056517 -0.234080 0.713922 -0.212957 0.262446 0.065563 0.256001 0.713486 0.658287 -0.373471 -0.302208 -0.625308 -0.153791
1129 -0.434783 1.209531 1.116527 -1.748904 1.471983 -0.580080 1.142713 -0.903942 0.326537 0.017524 0.275330 -0.705801 1.815926 -0.394786 0.708362 -1.238426 0.370971 0.308193 0.382024 -1.259181 0.531698 0.168947 0.753963 0.040517 -1.343867 0.261095 0.911435 0.161803 0.361154 0.165193 -0.460140 0.758327
1080 -0.130828 0.992811 0.295755 -0.504962 0.465165 0.516199 1.452250 -0.337649 1.662291 -0.299337 -0.306063 -0.609409 0.710261 0.512383 -0.158277 -2.341511 0.990190 -1.481514 0.707817 -0.362948 -0.405418 0.922031 -1.460062 -0.484535 0.055422 -0.475038 0.308156 1.217265 -0.259196 -0.289436 0.722611 -0.522697
274 -0.336837 0.354830 1.126043 -0.609189 0.651731 -0.329972 0.609232 0.091637 0.398292 -0.132380 -0.046144 -0.809336 0.323559 -0.560725 -0.008091 -1.228487 0.097232 -0.721444 0.015261 -0.680859 -0.209012 0.641377 -0.071993 0.285201 0.010875 0.563156 0.480636 0.672492 -0.476063 -0.626356 -0.643061 -0.066193
18 -0.479979 0.239356 0.984159 -0.713554 0.643672 -0.298240 0.793029 0.326192 0.483313 -0.069185 0.139294 -0.705298 0.547212 -0.693540 0.009104 -1.412856 0.112323 -1.027864 0.019205 -0.612249 -0.103910 0.733449 -0.012146 0.065795 0.217393 0.607539 0.510460 0.804238 -0.531810 -0.482716 -0.708340 0.183488
1236 -0.405519 0.389495 1.253908 -0.693166 0.717198 -0.361733 0.748939 0.149100 0.375639 -0.410767 -0.003135 -1.006057 0.519364 -0.596871 -0.142365 -1.516535 0.302164 -1.016960 0.210693 -0.803259 -0.397480 0.520696 -0.091561 0.084407 0.057295 0.609499 0.546034 0.677164 -0.626019 -0.533952 -0.757606 -0.015078
444 -0.481368 0.248441 0.958817 -0.645072 0.632414 -0.292168 0.837927 0.328332 0.484512 -0.098705 0.136468 -0.721554 0.544889 -0.722971 0.003706 -1.431275 0.132225 -1.067369 0.012051 -0.648504 -0.079409 0.699204 -0.036335 0.081682 0.213316 0.579163 0.465354 0.813507 -0.558175 -0.478014 -0.708012 0.170913
1245 -1.232765 -0.088948 0.203093 0.026146 0.984721 -0.391833 0.341844 -0.205133 0.068392 -0.912584 -1.398621 -0.704412 1.466018 -1.977971 0.282973 -1.979112 -0.278222 -1.040919 0.098579 -0.890358 -0.087365 1.709401 -0.277105 0.797870 -0.082730 0.491417 0.123549 0.799047 0.308627 0.221500 0.016506 -1.155684
335 -0.181937 0.289131 1.213295 -0.433997 0.582725 -0.162156 0.753422 0.104522 0.529109 -0.309231 -0.063647 -0.892242 0.401692 -0.369405 0.061301 -1.257624 0.010676 -0.782865 -0.030133 -0.579621 -0.355696 0.703720 0.033855 0.406863 0.210495 0.445219 0.360623 0.687780 -0.408755 -0.320008 -0.705156 -0.099938
91 -0.419101 -0.095807 0.529385 -0.434202 -0.211540 -0.558116 0.448362 -0.727954 0.185465 0.153755 0.236759 -0.630136 1.656327 -1.165870 -0.498932 -0.896007 -0.209046 -1.806574 -0.314757 -0.835694 -0.685906 0.516237 -0.007955 1.765588 -0.204950 1.407470 1.677522 0.877560 -0.751525 0.675104 0.391693 -0.104705
747 -0.286934 0.499838 1.248317 -0.799357 0.738319 -0.328661 0.771702 0.154252 0.307762 -0.279492 0.017269 -1.074359 0.560726 -0.586632 -0.169330 -1.535926 0.288576 -1.111637 0.040095 -0.781773 -0.349385 0.347562 -0.272051 0.115401 0.016539 0.608826 0.675832 0.581438 -0.652156 -0.498195 -0.836952 0.246295
748 -0.096051 0.984290 0.999276 -0.906730 2.141711 0.679524 1.598243 -0.565204 -0.573774 -0.312019 -0.278603 -0.132248 -0.621194 -0.069484 0.078045 -1.796785 0.368386 -1.086408 1.463075 -0.689241 0.826793 -0.428556 -0.300604 -0.023161 0.372402 0.396464 0.244281 0.344532 -0.940117 -1.393940 -0.138603 -0.236618
232 -0.170504 0.566991 0.783832 -0.584459 0.745656 -0.394406 0.730017 0.384865 0.040343 -0.481198 0.000602 -0.924256 0.594426 -0.690494 0.133367 -1.334173 0.126107 -0.992225 0.202694 -0.406170 -0.289376 0.937448 -0.082119 -0.018354 0.224379 0.395700 0.359739 0.518881 -0.130378 -0.567928 -0.615673 -0.407230
1198 0.643300 0.380371 1.029606 -0.002548 1.502626 -0.654815 -0.308291 0.867063 1.202558 -0.933723 0.398370 0.066399 -0.079577 -1.055587 0.679985 -0.732812 0.272385 -1.188907 -0.645742 0.030693 -0.329748 1.743001 0.174375 0.646813 -0.671712 1.951687 1.133795 1.698280 -0.471459 -0.544345 -1.140874 0.173427
1059 -0.550042 0.058854 1.073566 -1.328652 2.478762 0.101088 1.189113 -0.038215 -0.836857 -0.080677 0.439140 -0.350423 0.703585 -0.260224 -1.020333 -1.416123 1.080812 -0.149369 -0.405176 0.005450 -0.766092 0.874439 0.399492 -0.513706 0.137121 0.962552 1.071807 -0.490864 -1.039961 0.745570 -0.895815 -0.327350
613 -0.310435 0.416751 0.917588 -0.159894 0.551363 0.224237 0.827432 0.176268 0.466037 -0.403662 -0.370148 -1.157914 0.668612 -0.738470 0.204793 -1.440588 -0.000490 -0.898526 0.153662 -0.802892 -0.095763 0.560573 0.028167 0.126897 0.183278 0.309547 0.455456 0.803353 -0.658284 -0.457317 -0.396301 -0.289822
1272 -0.541772 0.038085 1.235240 -0.586299 0.661659 -0.294802 0.719733 0.357752 0.596721 -0.304825 0.225607 -0.795746 0.386268 -0.548769 -0.014288 -1.177785 0.066100 -0.898996 0.211676 -0.633157 -0.412522 0.810145 0.078127 -0.121056 0.151643 0.469793 0.653921 0.706576 -0.588172 -0.498514 -0.581835 -0.356146
1284 0.660608 0.450633 1.027452 -0.010127 1.531529 -0.704219 -0.321146 0.844440 1.228695 -0.923570 0.395836 0.008041 -0.073580 -1.018943 0.700666 -0.715868 0.277004 -1.222848 -0.642373 0.075525 -0.318118 1.738623 0.139241 0.703559 -0.682764 1.943585 1.078929 1.688359 -0.440976 -0.586423 -1.163391 0.165311
1288 -0.486982 0.398287 1.540070 -0.897589 0.849688 -0.507736 0.931590 0.225146 0.428229 -0.482651 0.001523 -1.211915 0.712634 -0.741321 -0.156121 -1.863267 0.291322 -1.257334 0.213124 -0.988948 -0.485907 0.643830 -0.145549 0.093049 0.107550 0.642865 0.718397 0.761027 -0.729914 -0.679812 -0.840629 0.083911
26 -0.321076 0.352201 1.059503 -0.616857 0.684216 -0.404840 0.659352 0.114415 0.215176 -0.316866 -0.038752 -0.901663 0.520295 -0.595220 -0.183100 -1.271102 0.237746 -0.962694 0.130786 -0.675184 -0.284091 0.484056 -0.065907 0.054854 0.049240 0.467027 0.467432 0.500635 -0.568452 -0.400645 -0.565402 0.042667
937 -0.375170 0.387747 1.176999 -0.556987 0.772990 -0.277448 0.664912 0.171454 0.435179 -0.405296 -0.133329 -1.143335 0.672408 -0.731817 -0.169110 -1.663485 0.179286 -0.972232 0.259044 -0.837957 -0.353469 0.440523 -0.148241 0.105422 0.078213 0.583229 0.567174 0.682965 -0.709948 -0.623485 -0.610648 0.011656
391 -0.448290 0.403703 1.531837 -0.893729 0.903914 -0.478462 0.941225 0.226479 0.456059 -0.507571 0.027182 -1.270012 0.696759 -0.720953 -0.162334 -1.832006 0.289661 -1.287628 0.255503 -0.979519 -0.515340 0.639776 -0.192330 0.096277 0.111617 0.699728 0.664888 0.772064 -0.742448 -0.653573 -0.825424 0.064686
395 -0.285966 0.661085 1.462819 -0.845058 0.235918 -0.324494 2.225303 0.530424 -0.510926 -0.067335 -0.094550 -1.326651 0.303571 -0.746713 1.512703 -0.645167 -0.340695 -0.964044 -0.056440 -0.104532 0.201107 -0.249341 0.717055 -0.189323 2.067834 0.257810 0.854517 0.950292 -0.835791 -0.114191 -0.332305 0.153265
586 -0.415285 0.332029 1.353757 -0.772743 0.811478 -0.441033 0.806553 0.218380 0.347466 -0.415429 -0.019999 -1.080424 0.579307 -0.604350 -0.168329 -1.614064 0.295947 -1.127756 0.180590 -0.848076 -0.399694 0.522211 -0.188451 0.070676 0.046859 0.599913 0.612201 0.682194 -0.677347 -0.584315 -0.779857 0.075988
582 -0.402631 0.345083 1.402292 -0.798327 0.880322 -0.470002 0.827847 0.248343 0.393890 -0.421051 -0.002600 -1.112738 0.592105 -0.605676 -0.188306 -1.637913 0.311006 -1.187167 0.181601 -0.883778 -0.413313 0.534213 -0.213614 0.095295 0.040265 0.632622 0.601789 0.704813 -0.702037 -0.608462 -0.781978 0.096525
246 0.291340 1.232509 0.938735 -0.163815 0.490974 -0.045010 0.984755 -0.538278 -0.989768 0.782627 -0.185586 -0.966973 0.138608 -1.713610 1.291475 -1.083649 0.704501 -1.855792 0.307529 -1.615537 -0.416173 0.743625 -1.394425 0.926191 0.295343 0.221006 1.229073 0.408783 -0.984037 0.670197 -0.433083 -0.722794
514 -0.294012 0.308726 1.149008 -0.651835 0.504133 -0.447771 0.623258 0.022328 0.375809 -0.323845 -0.041683 -0.895370 0.387719 -0.491931 -0.069391 -1.235734 0.247536 -0.896621 0.185745 -0.649817 -0.222222 0.488348 -0.044314 0.066001 0.145856 0.511876 0.407354 0.759413 -0.580164 -0.391575 -0.606499 -0.087102
624 0.550049 0.282693 0.237796 -0.424630 1.065541 -0.316915 0.249105 0.758979 0.613863 0.315390 0.504680 -1.167202 1.002262 -1.489666 0.506002 -0.300252 0.999861 -2.249467 0.380891 0.393668 -0.967653 0.668546 1.119885 0.455291 0.255881 0.459260 0.413944 1.221816 -1.417459 0.129591 -0.615494 0.755049
1228 -0.790634 0.689559 1.220156 -1.495666 0.543224 -0.663357 1.014245 -0.678741 1.736137 -1.027267 -0.550600 -0.959536 -0.912864 1.084188 0.434729 -1.608546 0.624666 -0.833622 -0.332992 -0.565645 -0.139239 -0.068124 0.010820 0.082403 0.907186 0.677540 1.238974 1.355826 0.650861 0.636494 -0.796625 -0.131742
974 -0.390941 -0.119929 0.720608 -2.054145 1.422147 1.458391 0.790658 0.970093 0.681851 -0.425761 -0.775001 -0.196876 0.071372 -0.577442 0.925615 -1.478784 0.535634 -0.848392 0.983446 -0.028930 -0.230830 0.204261 0.247420 -1.192651 -0.257244 1.484527 1.104820 0.494201 -0.233279 -0.560678 -0.633978 1.088182
1127 -0.692802 0.118344 1.200735 -0.609173 0.643018 -0.590345 1.074642 0.304610 0.649520 -0.768355 -0.276340 -0.756018 0.568533 -0.551675 0.139881 -1.070049 -0.210912 -0.880280 0.719612 -0.554430 -0.589680 0.946675 -0.109680 0.038855 0.691940 0.423456 0.049365 0.968916 -0.494623 -0.467587 -0.557359 -0.737978
16 -0.494257 1.080649 1.283684 -1.494607 1.765835 0.138868 1.157082 0.603207 1.323627 0.238642 0.413872 0.678515 -0.526686 -0.179498 0.650512 -2.225225 -0.040013 -0.693374 -0.730964 -0.491422 -0.579668 1.161099 0.580400 0.379429 0.409206 1.056669 1.027199 -0.590500 0.691180 -0.266831 -0.922153 0.345645
881 -0.431715 0.257048 1.314433 -0.743585 0.741624 -0.416579 0.770801 0.198713 0.387895 -0.413131 -0.046488 -1.030142 0.582217 -0.589024 -0.085155 -1.439927 0.183814 -1.070812 0.225497 -0.796080 -0.453061 0.538894 -0.092829 0.051874 0.096106 0.602143 0.554338 0.670531 -0.623507 -0.526819 -0.683180 0.040172
884 -1.113025 0.121220 1.597752 -0.623957 0.762718 -1.887888 0.118350 1.030671 0.898750 -0.514403 -1.057784 -0.661564 1.244674 0.007067 0.341873 -0.612543 0.251968 0.434130 -0.578765 -1.473944 -0.446418 1.162202 0.151977 0.432144 -0.454178 0.964394 1.097312 0.402951 -0.688234 0.716087 -0.555878 -0.292527
320 -0.434809 0.305021 1.342484 -0.786023 0.790896 -0.450827 0.802726 0.223099 0.396974 -0.400919 -0.025942 -1.075740 0.542470 -0.608985 -0.096273 -1.623660 0.186496 -1.090475 0.175603 -0.856836 -0.454898 0.528125 -0.167776 0.058503 0.098260 0.592641 0.584081 0.701178 -0.704606 -0.589491 -0.754695 0.055179
324 -0.288041 -0.118722 1.051419 -1.698922 1.422110 -0.715252 0.601174 -1.616612 -0.006997 0.185540 -0.086855 0.228938 0.843493 0.288738 0.294333 -2.404085 0.909582 -1.968053 0.655308 -0.332760 -0.598303 -0.094761 0.184705 -0.843841 -0.181119 0.868212 0.764346 0.401421 -0.504006 0.910342 0.209233 0.967346
75 -0.305711 0.425485 1.292232 -0.840845 0.716343 -0.343108 0.786937 0.119347 0.262386 -0.309258 0.053180 -1.132251 0.564672 -0.559395 -0.241858 -1.586014 0.344911 -1.106579 0.092621 -0.806047 -0.354985 0.269148 -0.292628 0.064503 0.010793 0.538323 0.627747 0.551956 -0.673533 -0.514418 -0.781380 0.299070
1047 -0.482011 0.278838 0.980188 -0.619032 0.542904 -0.404628 0.556132 0.216441 0.368348 -0.256082 0.074058 -0.660480 0.633840 -0.767230 0.074584 -1.106648 0.114973 -0.798624 0.357161 -0.665936 -0.391159 0.875158 -0.215683 0.118862 0.144001 0.484612 0.195216 0.739873 -0.397205 -0.535325 -0.725183 -0.140759
1148 -0.324339 0.569435 1.144340 -1.268182 0.253687 -0.288544 -0.185094 -0.368981 1.416920 0.480627 -0.236131 -1.331524 0.906600 -0.185943 0.455537 -1.850114 0.715932 -0.681194 -0.632461 -0.372265 1.424292 0.000769 0.625515 -1.344604 0.598400 0.391623 1.378287 0.267035 -0.402164 -0.931458 -0.564385 0.611509
663 -0.422307 0.376001 1.376419 -0.817789 0.822855 -0.482030 0.828512 0.188096 0.407074 -0.401528 0.000965 -1.074326 0.621475 -0.613411 -0.143657 -1.670259 0.211364 -1.117836 0.260435 -0.907017 -0.478479 0.606882 -0.163096 0.076781 0.136256 0.578230 0.613158 0.692463 -0.697979 -0.625373 -0.786164 0.006000
1266 -0.500398 0.307927 0.956859 -0.598304 0.563584 -0.390572 0.596389 0.236199 0.382202 -0.241669 0.055572 -0.616488 0.637321 -0.791724 0.094131 -1.116964 0.145302 -0.764659 0.328259 -0.690434 -0.339024 0.895170 -0.187736 0.114306 0.189015 0.513529 0.225047 0.723861 -0.387868 -0.530542 -0.724834 -0.152390
697 -0.346076 0.332492 1.112338 -0.623098 0.648643 -0.329987 0.590547 0.059238 0.416172 -0.147436 -0.035665 -0.837146 0.322591 -0.546396 -0.046861 -1.231084 0.062113 -0.735698 0.044849 -0.667476 -0.233066 0.627081 -0.089967 0.276883 -0.013096 0.524584 0.488375 0.672600 -0.510904 -0.603094 -0.612889 -0.051429
699 -0.396073 0.310984 1.213180 -0.583797 0.775355 -0.570053 0.837163 0.208133 0.301149 -0.328733 -0.051293 -0.941173 0.636627 -0.618779 -0.101799 -1.598456 0.301392 -1.106314 0.271667 -0.743351 -0.355695 0.465262 -0.049219 0.156602 0.133022 0.607223 0.584827 0.672030 -0.654795 -0.502774 -0.721354 0.197082
992 -0.720854 0.533281 1.621773 -0.970749 0.820971 0.475102 1.324243 -0.086547 -0.367816 -1.506198 -1.398105 -0.198186 1.408776 0.179852 0.422138 -0.921966 0.936214 -1.224523 0.091905 -0.530863 -0.137892 2.009893 -0.025360 -0.755005 0.079862 0.588971 1.176170 0.859848 0.095951 1.166048 -0.298690 -0.368117
126 -0.740361 0.597146 1.561000 -0.979460 0.870849 0.475116 1.243086 -0.031426 -0.442549 -1.516767 -1.416899 -0.202718 1.397381 0.144746 0.461586 -0.966683 0.953355 -1.325440 0.093149 -0.536631 -0.106850 2.017102 -0.079699 -0.752951 0.023919 0.582413 1.197630 0.802338 0.103700 1.160130 -0.300041 -0.380355
563 -0.513659 0.080130 1.241697 -0.552470 0.679568 -0.282851 0.707979 0.377879 0.584889 -0.327800 0.233518 -0.814139 0.402917 -0.539402 -0.043118 -1.181121 0.064015 -0.943480 0.269583 -0.613723 -0.472109 0.801088 0.050801 -0.122499 0.171926 0.452658 0.646116 0.720007 -0.564915 -0.491682 -0.608790 -0.364612
922 -1.072712 0.471773 0.974708 -0.319695 0.629127 -0.174250 1.022774 -0.006880 0.652409 1.131453 -0.136889 -0.522016 -0.466608 -0.325027 -0.148301 -1.837444 1.439869 -1.845396 -0.290994 -0.274974 0.009067 -0.249274 -0.383622 -0.107872 1.956741 -0.042967 0.677731 0.303465 -0.554440 0.435217 -1.245922 1.102893
319 -1.078772 0.146639 1.581599 -0.564697 0.784371 -1.952855 0.149091 1.065490 0.971267 -0.518538 -1.076888 -0.607387 1.250953 0.067954 0.315363 -0.588854 0.275954 0.425397 -0.611216 -1.469176 -0.500211 1.136314 0.128051 0.415386 -0.500420 0.980553 1.135334 0.404632 -0.670567 0.758146 -0.560075 -0.243621
318 0.046427 1.506293 1.678427 -1.724662 -0.620478 0.377267 0.869061 -0.008935 -0.174748 0.506198 -0.463039 -1.473544 0.493016 -0.569939 0.899557 -0.673185 1.768124 -0.698909 0.307546 -0.330247 -0.414734 1.329815 0.020958 0.344973 0.581576 1.223809 1.467222 -0.102603 -0.336294 -0.009977 0.019568 -0.082542
360 -0.327786 0.346980 1.055107 -0.611485 0.687802 -0.398088 0.630691 0.116958 0.229551 -0.303594 -0.022285 -0.885562 0.509198 -0.598568 -0.202967 -1.278491 0.260466 -0.963071 0.142535 -0.664187 -0.284990 0.490193 -0.077241 0.063725 0.057506 0.459712 0.473142 0.506058 -0.561520 -0.418622 -0.547215 0.053823
64 -0.302788 0.411417 1.061542 -0.542007 0.648247 -0.372655 0.748457 0.226225 0.331799 -0.358806 -0.017949 -0.908007 0.547104 -0.565564 -0.105170 -1.366276 0.226609 -0.960383 0.112857 -0.714503 -0.291005 0.467321 -0.182089 0.078383 0.110891 0.519312 0.580026 0.537623 -0.512762 -0.477237 -0.721479 0.021540
254 -0.373716 0.334175 1.327273 -0.790204 0.744485 -0.440592 0.834473 0.197780 0.395144 -0.401243 0.050116 -1.029001 0.615222 -0.616883 -0.154642 -1.588866 0.255137 -1.034134 0.246423 -0.855510 -0.425759 0.530267 -0.145503 0.068987 0.149911 0.565053 0.578580 0.669224 -0.627763 -0.575122 -0.730219 0.021262
731 -0.349775 0.279221 1.026119 -0.748692 0.582206 -0.408253 0.664226 0.104806 0.169273 -0.209183 -0.099657 -0.603713 0.655692 -0.795135 -0.102957 -1.468003 0.194707 -1.143820 -0.129810 -1.014728 -0.280432 0.704895 -0.273197 0.264144 0.058424 0.247223 0.752605 0.599953 -0.351185 -0.316545 -0.651047 -0.104510
733 -0.416672 0.288620 1.210751 -0.643922 0.761330 -0.557601 0.826606 0.190851 0.272515 -0.325145 -0.067617 -0.933096 0.597421 -0.569249 -0.101449 -1.574521 0.257304 -1.115379 0.272844 -0.732158 -0.382853 0.485166 -0.061725 0.142165 0.144925 0.597523 0.567760 0.662345 -0.629588 -0.496627 -0.721861 0.218894
734 -0.373787 0.379309 0.903981 -0.188412 0.525113 0.223219 0.813320 0.140029 0.512937 -0.380498 -0.394998 -1.111024 0.662175 -0.770506 0.209643 -1.482396 -0.021154 -0.862855 0.139035 -0.842952 -0.114227 0.557418 -0.005239 0.112092 0.174557 0.318021 0.481939 0.768909 -0.669706 -0.433955 -0.377880 -0.321537
736 -0.395221 1.184946 1.133887 -1.682511 1.455954 -0.585636 1.192509 -0.901665 0.389740 -0.016938 0.233193 -0.640898 1.796118 -0.319344 0.657775 -1.215616 0.442042 0.295380 0.399280 -1.246018 0.489101 0.229379 0.752920 -0.023911 -1.334717 0.213337 0.888540 0.176019 0.363939 0.203935 -0.495611 0.767430
630 -0.417140 0.370285 1.438468 -0.849469 0.840566 -0.495393 0.845812 0.208365 0.420708 -0.413667 0.027221 -1.108100 0.636433 -0.650362 -0.146978 -1.717484 0.202048 -1.153799 0.269601 -0.927490 -0.494426 0.614249 -0.181670 0.072985 0.143833 0.596220 0.614305 0.729728 -0.719494 -0.645776 -0.790008 0.000298
1210 1.317292 0.561094 1.432191 -0.818365 1.053860 0.265185 1.553706 1.118402 0.215438 -0.055937 0.100187 0.268409 0.584106 -0.192770 0.528193 -1.238448 0.200330 -2.073142 -1.545177 -0.242495 -0.206670 0.969689 -0.241069 -0.338487 0.319735 0.289004 0.576108 -0.104291 -1.251419 -0.182539 -0.105547 1.092214
168 -0.310636 0.551628 1.139186 -1.243155 0.233435 -0.322320 -0.264861 -0.422512 1.444955 0.532219 -0.246263 -1.288312 0.942452 -0.189502 0.434830 -1.842634 0.734262 -0.668868 -0.651864 -0.318437 1.485489 0.011942 0.647571 -1.336478 0.637141 0.381002 1.412794 0.268963 -0.369596 -0.931022 -0.585432 0.629173
161 -0.149089 0.271081 1.237502 -0.474403 0.619364 -0.192615 0.675260 0.088839 0.513028 -0.347098 -0.116382 -0.903088 0.386782 -0.362727 0.045885 -1.246492 0.002825 -0.738856 0.010042 -0.600067 -0.382152 0.644178 0.037451 0.383503 0.120492 0.401688 0.365493 0.663280 -0.437656 -0.379205 -0.663320 -0.127930
967 -1.198950 -0.046407 0.161753 -0.002574 0.999683 -0.378013 0.339896 -0.179878 0.033692 -0.927280 -1.329624 -0.692510 1.464766 -1.931453 0.254985 -1.905679 -0.233034 -1.040022 0.081899 -0.876525 -0.104014 1.712801 -0.298039 0.751808 -0.058198 0.461986 0.184579 0.775476 0.388226 0.191813 -0.023986 -1.098120
1102 -0.171901 0.563668 0.794230 -0.598174 0.775803 -0.366585 0.720562 0.363079 0.026550 -0.476640 -0.076797 -0.939134 0.589638 -0.672538 0.126494 -1.303843 0.112590 -0.979287 0.179028 -0.455879 -0.280201 0.928081 -0.051199 -0.008056 0.186788 0.394456 0.356415 0.574873 -0.162585 -0.569020 -0.575928 -0.397811
1103 -0.367788 0.338223 1.276307 -0.760124 0.740948 -0.436449 0.822001 0.199400 0.402433 -0.416844 0.043666 -0.990707 0.599997 -0.614413 -0.163519 -1.565099 0.254351 -1.000519 0.250246 -0.842187 -0.402513 0.516961 -0.155344 0.063399 0.155194 0.545087 0.564211 0.675282 -0.632668 -0.541193 -0.708857 0.008285
879 -0.137490 0.982931 0.293632 -0.548922 0.458587 0.481183 1.434747 -0.330470 1.640395 -0.314834 -0.349868 -0.607790 0.695360 0.600928 -0.203537 -2.287419 0.994603 -1.511402 0.732166 -0.369707 -0.410728 0.933950 -1.500126 -0.556410 0.009409 -0.464171 0.341116 1.188814 -0.274680 -0.217211 0.743335 -0.553979
9 1.238825 0.666695 1.380035 -0.833112 1.057573 0.266134 1.549937 1.078378 0.176862 -0.043202 0.131627 0.191851 0.625088 -0.237045 0.528951 -1.281440 0.224796 -2.086745 -1.470255 -0.237376 -0.210390 1.000508 -0.274847 -0.333099 0.307585 0.278342 0.604381 -0.079536 -1.210042 -0.215116 -0.127034 1.110854
1248 -0.030757 0.990724 0.958330 -0.896272 2.083265 0.718016 1.626258 -0.551217 -0.615149 -0.317489 -0.220451 -0.079079 -0.636365 -0.045638 0.069850 -1.770751 0.359328 -1.090880 1.489661 -0.663103 0.790730 -0.477828 -0.333642 -0.033978 0.398931 0.327366 0.258608 0.324546 -0.905290 -1.404761 -0.134188 -0.241007
801 -0.399599 0.387730 1.218089 -0.683871 0.695251 -0.366579 0.766159 0.145328 0.351288 -0.379136 -0.006953 -0.987487 0.534374 -0.557405 -0.157589 -1.514556 0.289728 -1.019561 0.205972 -0.786786 -0.376369 0.523496 -0.093489 0.081100 0.057177 0.585025 0.544330 0.658656 -0.603835 -0.517820 -0.752435 0.000216
359 -0.244828 0.681300 1.446593 -0.817856 0.306178 -0.238284 2.229778 0.568341 -0.504527 -0.018930 -0.096190 -1.341848 0.352023 -0.769502 1.545579 -0.633292 -0.388732 -1.060451 0.023770 -0.138298 0.177292 -0.228484 0.704404 -0.162209 2.090556 0.253624 0.880691 0.960417 -0.836937 -0.209178 -0.333434 0.189884
768 -0.445614 0.302614 1.389184 -0.769759 0.812561 -0.456782 0.793094 0.212150 0.380224 -0.426956 -0.026614 -1.114939 0.531398 -0.626800 -0.090319 -1.628591 0.199741 -1.101732 0.175705 -0.861061 -0.451775 0.535761 -0.182386 0.052811 0.114019 0.577042 0.601518 0.733973 -0.720227 -0.595964 -0.764592 0.062559
213 0.861889 0.201458 0.214398 -0.144324 1.019313 -0.915955 1.547591 0.074277 0.040267 -0.639789 0.302123 -1.510457 1.167123 -0.833998 0.399907 -1.319359 -0.114843 -2.286706 -0.375745 0.497316 -0.369729 2.192216 -0.254462 0.073607 0.720041 -0.164997 0.277128 0.270120 -0.398206 0.434688 -0.724783 -1.278408
1075 -0.998854 0.573617 0.939692 -0.363931 0.653059 -0.164302 1.052568 -0.018068 0.704964 1.122516 -0.102117 -0.511977 -0.483285 -0.309671 -0.174662 -1.871974 1.446921 -1.792208 -0.389149 -0.236850 -0.020023 -0.272012 -0.350220 -0.134302 1.990334 0.014990 0.673848 0.354522 -0.570363 0.399333 -1.246490 1.157177
1094 -1.088622 1.549407 0.420511 -1.327658 0.268433 -0.530218 1.590616 0.417513 0.661999 -0.734610 -0.340714 0.612559 0.500684 -0.942218 0.241243 -1.038277 -0.098056 -0.773903 1.874960 -0.710883 -0.028130 0.312282 0.402793 -1.050087 0.620965 1.394995 0.675262 1.465463 -0.021805 -0.380682 -0.452253 -0.549010
1155 -0.006849 1.348923 1.690037 -1.673200 -0.621207 0.454660 0.851150 -0.019006 -0.074580 0.523360 -0.400789 -1.466805 0.476491 -0.557176 0.889778 -0.704105 1.718841 -0.759190 0.343896 -0.334244 -0.469869 1.356098 0.020854 0.362476 0.653475 1.173991 1.511345 -0.084866 -0.362893 -0.011962 -0.060236 -0.057275
1154 0.388971 1.244911 0.918623 -0.141604 0.469760 -0.022560 0.986801 -0.497116 -0.970060 0.821904 -0.158736 -0.938902 0.078820 -1.697451 1.314827 -1.092851 0.678118 -1.895121 0.248357 -1.572321 -0.426181 0.734359 -1.379057 0.919941 0.267652 0.210124 1.230144 0.418451 -1.025360 0.654316 -0.459388 -0.682654
50 -0.321683 0.378903 1.055820 -0.539949 0.633163 -0.373075 0.752880 0.213881 0.333891 -0.340562 -0.024090 -0.918096 0.563505 -0.577199 -0.106993 -1.356219 0.228262 -0.951915 0.113518 -0.715616 -0.329798 0.465541 -0.178065 0.093371 0.119517 0.525178 0.567053 0.569671 -0.517928 -0.473396 -0.721831 0.031188
535 -0.410152 0.257984 1.295403 -0.706604 0.740272 -0.441632 0.742768 0.186108 0.367927 -0.414501 -0.047561 -1.010538 0.567940 -0.599215 -0.096915 -1.414716 0.156342 -1.046261 0.260750 -0.813189 -0.440313 0.550929 -0.105219 0.061377 0.085482 0.576935 0.537271 0.682752 -0.624297 -0.533622 -0.658852 0.011538
984 -0.480276 0.401463 1.569711 -0.916783 0.861317 -0.525585 0.969518 0.232442 0.422055 -0.493891 0.001594 -1.240058 0.722116 -0.760194 -0.154546 -1.886541 0.281398 -1.318879 0.222288 -1.006746 -0.513578 0.651609 -0.146607 0.100178 0.126292 0.663908 0.733320 0.769187 -0.745943 -0.694080 -0.862423 0.102107
425 -0.355454 0.307207 1.243127 -0.631766 0.687479 -0.469509 0.683131 0.208970 0.468006 -0.383292 -0.020026 -1.049267 0.520380 -0.594976 -0.174490 -1.559763 0.223910 -1.060888 0.173792 -0.850041 -0.349935 0.395646 -0.158992 0.037276 0.048725 0.521927 0.585361 0.647976 -0.579841 -0.469617 -0.694133 0.108345
848 -0.487776 1.057633 1.325365 -1.534628 1.738361 0.157269 1.207390 0.621141 1.350537 0.290728 0.416755 0.704219 -0.571496 -0.187648 0.650872 -2.215924 -0.015734 -0.645486 -0.654814 -0.493785 -0.615810 1.131734 0.551799 0.454673 0.447538 1.054359 0.927020 -0.579014 0.627817 -0.303794 -0.912540 0.323614
145 -0.739747 0.675341 1.239113 -1.561825 0.522537 -0.639687 0.959983 -0.681861 1.668728 -1.003721 -0.558417 -0.965114 -0.953620 1.093052 0.417931 -1.639227 0.576538 -0.802911 -0.358990 -0.648007 -0.145806 -0.080147 0.081217 0.115778 0.879190 0.718533 1.287612 1.351584 0.639989 0.636786 -0.821617 -0.096631
738 -0.292258 0.358496 1.304562 -0.676702 0.768328 -0.447922 0.698269 0.160822 0.448877 -0.403539 0.022410 -0.996254 0.599720 -0.522563 -0.161868 -1.504579 0.228223 -1.057255 0.239027 -0.843360 -0.395826 0.481722 -0.179800 0.020688 0.123618 0.513246 0.568755 0.677730 -0.607104 -0.587610 -0.682614 0.090762
221 0.289627 1.378466 0.819520 -0.840827 1.155942 0.770984 1.668564 -0.315711 0.547809 0.136841 -0.246624 -0.530733 0.105254 -0.261181 1.052614 -1.521764 0.691527 -0.776783 -0.130187 0.577820 -0.589347 0.211300 0.824556 0.513614 -0.132972 -0.430022 0.971700 1.210274 0.002251 -0.835274 -1.664065 1.419475
1024 0.764027 0.749111 2.000751 -0.514917 0.376907 -0.292560 0.954237 1.050408 -0.258391 -1.571216 -1.111387 -0.839474 0.760665 0.144140 0.718363 -1.184868 0.017083 -0.314691 -0.084050 -1.811980 -0.253967 -0.545565 0.377789 0.927179 0.973508 -0.027036 -0.169038 0.536895 -0.940300 0.142206 -0.778510 -0.978619
1182 0.740812 0.780844 1.997229 -0.506801 0.353099 -0.288374 0.975820 1.060868 -0.253242 -1.544108 -1.094295 -0.862782 0.729019 0.127863 0.673023 -1.149391 0.022229 -0.328742 -0.065185 -1.806421 -0.288437 -0.506482 0.425423 0.898350 0.964440 -0.021831 -0.163905 0.565831 -0.972538 0.168762 -0.763354 -0.952806
88 -0.308094 -0.151375 1.104969 -1.691163 1.346770 -0.733909 0.586658 -1.648651 0.035690 0.079592 -0.097169 0.314825 0.807413 0.264587 0.333080 -2.375216 0.898615 -1.918293 0.735354 -0.369622 -0.644805 -0.029352 0.215328 -0.816217 -0.107031 0.887650 0.797929 0.463897 -0.422576 0.929368 0.189060 0.926696
501 -0.286456 0.286901 1.133768 -0.622221 0.510355 -0.420717 0.625434 0.011574 0.346215 -0.307223 -0.012465 -0.900961 0.408885 -0.518145 -0.071862 -1.236984 0.261044 -0.917539 0.218901 -0.637789 -0.225694 0.493738 -0.028796 0.041157 0.121107 0.517185 0.405634 0.757472 -0.577746 -0.418107 -0.598187 -0.065734
1168 -0.297378 0.360355 1.277362 -0.667331 0.741578 -0.408305 0.699567 0.167632 0.428156 -0.417820 0.007061 -0.971458 0.589713 -0.527527 -0.145169 -1.501194 0.213856 -1.059235 0.228740 -0.842464 -0.382533 0.475598 -0.177041 0.013244 0.088192 0.517018 0.570457 0.664499 -0.596409 -0.547897 -0.684318 0.087006
1203 -0.433046 0.370424 1.472189 -0.846719 0.886823 -0.467591 0.886773 0.229726 0.437916 -0.488384 0.023068 -1.214906 0.680033 -0.710028 -0.153549 -1.782313 0.275044 -1.208589 0.221736 -0.940274 -0.507658 0.630257 -0.194557 0.084359 0.098877 0.663700 0.655927 0.753543 -0.724882 -0.636326 -0.809330 0.071889
41 -0.395800 -0.050637 0.748047 -2.009889 1.461503 1.381793 0.764935 0.977723 0.681782 -0.437471 -0.795968 -0.196065 0.074285 -0.593774 0.945452 -1.499446 0.514632 -0.822900 0.951113 0.030259 -0.230514 0.199260 0.295416 -1.184808 -0.219913 1.496688 1.063061 0.429871 -0.267675 -0.580233 -0.634537 1.036589
5 0.913445 0.228903 0.153128 -0.129971 0.990954 -0.903665 1.511155 0.012191 0.075501 -0.678140 0.313463 -1.448199 1.166450 -0.827136 0.374534 -1.371590 -0.102524 -2.310109 -0.364619 0.514152 -0.391066 2.235404 -0.300774 0.080336 0.700760 -0.215104 0.333877 0.243367 -0.315879 0.443036 -0.767909 -1.280244
470 -0.675836 0.074696 1.178473 -0.611953 0.657496 -0.548250 1.030046 0.250755 0.636164 -0.778718 -0.308223 -0.743331 0.569866 -0.572020 0.105005 -1.092211 -0.203914 -0.867288 0.704431 -0.545432 -0.578470 0.894163 -0.122992 0.048419 0.644999 0.412920 0.056581 0.975701 -0.498472 -0.455435 -0.532246 -0.691096
474 -1.091278 1.585178 0.514362 -1.399410 0.248208 -0.551391 1.538091 0.442021 0.639604 -0.743428 -0.349341 0.612022 0.491165 -0.905588 0.281895 -1.076473 -0.094731 -0.770324 1.808433 -0.753000 -0.149535 0.306082 0.341102 -1.010964 0.658180 1.417056 0.706769 1.478587 -0.021513 -0.408820 -0.455223 -0.519054
570 -0.288160 0.167015 1.194875 0.267309 0.146588 -0.140438 0.445379 0.104519 0.106312 -0.368694 0.333390 -1.366884 0.589452 -0.275018 -0.152063 -0.582342 0.854462 -0.551228 -0.796642 -0.725933 0.219230 0.560574 -0.556500 0.699889 -0.305558 -0.249527 0.205496 -0.079076 -0.643061 -0.884856 -0.326885 0.136804
1100 -0.739321 -0.071704 1.967422 -1.439104 0.412849 -0.752992 1.470069 0.234774 1.139631 -0.675986 0.173742 -0.356305 0.652894 -0.121121 -0.979165 0.021355 0.778318 -0.457797 0.687366 -0.973928 -1.189930 0.753282 -0.293942 0.073608 -0.079598 0.109881 -0.496951 1.260468 -0.825081 -1.023096 0.514764 -0.340544
1273 -0.265932 0.358687 1.207863 -0.710956 0.719178 -0.427558 0.639567 0.181345 0.400484 -0.370337 0.023875 -0.937396 0.518674 -0.530372 -0.208416 -1.406873 0.307297 -0.938411 0.166157 -0.707104 -0.319004 0.430498 -0.133015 0.177449 0.066767 0.491512 0.475329 0.590074 -0.596028 -0.521422 -0.622470 0.180905
882 -0.242379 0.364016 1.118765 -0.766966 0.557104 -0.331799 0.637424 0.188078 0.440840 -0.321527 0.006082 -0.883958 0.368525 -0.478467 -0.045412 -1.412655 0.092604 -0.829785 0.073542 -0.753946 -0.383144 0.507168 -0.171830 0.209577 0.243264 0.532290 0.463973 0.662852 -0.471297 -0.390179 -0.638291 -0.163113
419 -0.258791 0.341518 1.172856 -0.690473 0.687019 -0.410105 0.615596 0.186892 0.384920 -0.392564 0.018008 -0.961231 0.520695 -0.494859 -0.198710 -1.380108 0.275345 -0.915824 0.165482 -0.660913 -0.300106 0.424863 -0.115389 0.155120 0.081244 0.488194 0.458759 0.541542 -0.553551 -0.525907 -0.631390 0.167682
785 -1.111057 0.767327 1.324623 -0.794974 -0.643892 -1.080855 -0.284761 0.076251 -0.439502 0.172631 -0.468288 -0.992876 0.323330 -0.250898 0.469988 -0.407155 -0.693575 -1.993716 0.868556 -0.679206 -1.026800 0.949052 -0.158100 -0.005700 0.714866 0.448995 0.050608 0.711814 -0.580980 -0.879394 -0.480100 0.026318
916 -0.536526 -0.340948 1.632771 -0.353358 1.291588 -0.731972 0.871175 -0.351895 0.744106 -0.692944 -1.202052 -1.002749 -0.243474 -0.108093 -0.970839 -0.486184 -0.252433 -0.525859 0.701729 -0.288592 -0.212092 0.459870 0.463539 -0.310402 0.637220 1.657654 -0.811128 0.855038 -1.059912 0.182636 -0.721639 0.402283
43 -0.341234 0.405528 1.252468 -1.289394 1.744593 0.108985 0.778639 0.328087 -0.262097 -0.143796 -0.370185 -1.778926 0.413079 -0.381857 0.239146 0.174944 0.473797 -1.115351 -0.522835 -0.634300 0.594528 -0.092824 0.700336 -0.350455 -0.743030 1.214035 0.629711 1.126282 -1.525750 0.226801 0.171339 0.739686
114 -0.257099 0.343714 1.121987 -0.712370 0.557338 -0.341361 0.635514 0.172536 0.391052 -0.333650 0.000158 -0.899062 0.401158 -0.477443 -0.062585 -1.399725 0.139609 -0.844664 0.111913 -0.751359 -0.396658 0.490604 -0.150878 0.178295 0.227271 0.528761 0.479259 0.615294 -0.489544 -0.410626 -0.637057 -0.112305
3 -0.281423 0.353827 1.147544 -0.716750 0.579674 -0.327514 0.665038 0.198827 0.381436 -0.339705 0.001838 -0.894057 0.406948 -0.510471 -0.077810 -1.427819 0.129298 -0.854958 0.129100 -0.775665 -0.431242 0.535396 -0.158066 0.206077 0.258535 0.528441 0.460349 0.655486 -0.459983 -0.393867 -0.627287 -0.134965
308 -1.253662 -0.526620 0.638307 -1.090503 0.813565 -0.907496 0.171482 0.003412 0.993039 0.138170 1.014287 -0.171677 -0.041960 -0.576592 -0.478226 -1.393863 0.287382 -0.903110 0.290900 0.467267 -0.267468 0.312320 -0.734032 -0.144848 -0.521438 0.859855 0.376370 0.293727 -0.329839 -0.673646 -0.944537 0.850812
190 0.011738 0.112331 0.599008 -0.031000 1.137412 -0.942710 -0.023682 0.367098 -0.465667 -0.199251 -0.071427 -0.969319 0.550717 -1.138518 -0.252215 -1.315227 -0.825076 -0.602974 -0.037582 -0.588531 -0.434591 -0.059365 1.055053 0.193651 0.086886 0.643326 0.618625 -0.425993 -0.115175 -0.361773 -0.972018 0.405308
208 -0.622290 -0.185742 0.695930 0.041738 0.657062 -1.134839 0.270874 0.562013 0.105643 -1.046968 -0.308935 -0.707742 0.430933 -0.682854 -0.905878 -2.014557 1.133628 -0.942011 0.783051 -0.590693 -0.230160 -0.165958 -0.730937 -0.871732 0.166338 0.563743 0.100357 -0.392972 -0.550912 -0.007736 0.204445 -0.742395
502 -0.255056 0.151508 1.152507 0.214734 0.230796 -0.180485 0.506356 0.061909 0.056489 -0.387707 0.256216 -1.389402 0.583757 -0.283822 -0.184900 -0.580171 0.854474 -0.559486 -0.813627 -0.644168 0.324316 0.531915 -0.531284 0.886091 -0.301031 -0.232630 0.088258 0.034415 -0.603017 -0.870999 -0.349599 0.155979
446 -0.306061 0.386323 1.255558 -1.258313 1.774168 0.173022 0.720221 0.272465 -0.345724 -0.172473 -0.370436 -1.754659 0.404399 -0.403636 0.263595 0.129993 0.493472 -1.116074 -0.488555 -0.612348 0.616806 -0.085846 0.681032 -0.329782 -0.716789 1.186567 0.615949 1.127280 -1.514194 0.265815 0.182009 0.709478
1090 0.942955 1.200748 0.664948 0.099863 1.484559 -0.538781 0.897909 -0.187441 0.935643 0.008011 -0.250023 -0.010587 0.593482 0.048865 -1.532649 -1.158584 0.442396 -0.535674 -0.418857 -0.773831 -0.005303 1.273452 0.442766 0.076652 -0.160151 0.083735 0.005514 1.435428 -0.814633 0.111508 -1.408086 -0.032085
568 -1.122329 0.789061 1.326617 -0.756929 -0.615185 -1.070300 -0.254701 0.034721 -0.417316 0.140149 -0.463862 -1.007613 0.321908 -0.271735 0.458130 -0.436532 -0.703284 -2.007679 0.906312 -0.658427 -1.016425 0.949066 -0.146733 0.008741 0.738643 0.444026 0.005185 0.720028 -0.556677 -0.879546 -0.481066 0.045031
989 -0.310915 0.142988 1.149289 0.231049 0.177332 -0.200138 0.468194 0.056684 0.077778 -0.400953 0.281131 -1.422717 0.595586 -0.293206 -0.192084 -0.623712 0.839820 -0.592690 -0.866364 -0.668526 0.327675 0.571694 -0.527893 0.837656 -0.393538 -0.229150 0.127022 0.004868 -0.622899 -0.886579 -0.389265 0.177646
1000 0.184023 0.129149 1.301615 -0.143365 0.088497 0.168364 0.227257 -1.061889 0.792139 0.054284 -0.249666 -0.926421 0.294520 0.400052 -0.056426 -0.992910 0.018584 -1.372118 0.057046 -1.138032 -1.316169 -0.716669 0.111001 -0.013108 0.065306 -0.253087 0.386009 1.512444 -1.150938 -0.071791 -0.419265 0.661502
507 -0.556104 -0.480076 1.715096 -0.320198 1.294114 -0.676468 0.935024 -0.227545 0.528668 -0.697575 -1.170931 -1.013627 -0.145568 -0.015491 -0.899375 -0.479009 -0.187754 -0.523013 0.607822 -0.273690 -0.271024 0.387363 0.323293 -0.261202 0.564365 1.641708 -0.870380 0.989557 -1.108777 0.144699 -0.790838 0.426363
1256 0.085116 0.127677 1.289977 -0.148838 0.134987 0.114140 0.244352 -0.981733 0.835299 0.090863 -0.284728 -0.906418 0.286175 0.276438 -0.055970 -0.942358 -0.011516 -1.370247 0.157918 -1.154316 -1.272129 -0.790639 0.186686 0.051704 0.031951 -0.265835 0.403985 1.634724 -1.089146 -0.173373 -0.456637 0.644383
947 -1.246070 -0.498170 0.588522 -1.129862 0.780936 -0.903164 0.152488 -0.030396 1.021827 0.166531 1.045613 -0.176117 -0.050768 -0.595056 -0.480913 -1.485068 0.299991 -0.884722 0.258123 0.482551 -0.295050 0.278347 -0.738253 -0.129953 -0.554009 0.791923 0.391879 0.317338 -0.292777 -0.679212 -0.941817 0.856207
1123 -0.625116 -0.179758 0.698887 0.024144 0.656959 -1.182903 0.245717 0.604088 0.077882 -1.094209 -0.344853 -0.670509 0.474769 -0.647527 -0.857939 -2.022530 1.137800 -0.947442 0.777754 -0.569641 -0.246828 -0.145742 -0.741186 -0.862361 0.134043 0.578493 0.098944 -0.394167 -0.590517 -0.043898 0.192932 -0.721085
1133 0.855111 0.828663 0.669125 -0.982558 0.698271 -0.861575 0.682354 -0.401505 0.559865 -0.698445 -0.385590 -0.574124 0.444066 -0.992302 -0.763109 -1.078187 -0.425009 -1.132565 0.358249 -0.518390 0.231754 -1.120568 -0.564524 -0.050226 -0.974200 0.718378 -0.173089 0.933908 -0.544451 -1.411154 -0.192592 0.402296
101 0.048690 0.113898 0.638649 0.017145 1.122621 -0.979388 -0.090006 0.371258 -0.475976 -0.273513 -0.101280 -1.050764 0.599857 -1.139989 -0.276268 -1.255469 -0.812630 -0.583326 -0.025229 -0.606555 -0.421887 -0.058081 1.095000 0.194927 0.055641 0.686591 0.655505 -0.427036 -0.172784 -0.343381 -0.949894 0.388710
1171 -0.361547 0.175000 1.174443 0.174299 0.208150 -0.167202 0.443422 0.007277 0.060782 -0.326594 0.282286 -1.395367 0.580257 -0.318638 -0.126236 -0.520032 0.857858 -0.615995 -0.798476 -0.631719 0.340376 0.580510 -0.516338 0.839601 -0.249086 -0.152608 0.098666 0.005214 -0.629263 -0.871769 -0.306132 0.204707
1046 -0.349535 0.138488 1.216508 0.124628 0.232874 -0.243126 0.444164 0.031322 0.074261 -0.373039 0.267290 -1.381214 0.604473 -0.281897 -0.190415 -0.559384 0.852686 -0.607733 -0.837742 -0.679618 0.313298 0.541266 -0.516690 0.889666 -0.320029 -0.195631 0.076968 -0.027381 -0.595111 -0.935929 -0.346218 0.182027
139 -0.762026 -1.488780 1.158483 -1.135451 0.654153 -0.845826 0.819564 0.498873 0.353424 -0.705688 -0.255439 -1.021682 0.119921 -0.314106 0.950132 -1.467039 -0.279081 -0.843162 0.149174 -0.410951 -0.810507 0.018771 -0.005845 -0.407276 -0.737985 -1.197967 0.437973 0.832197 -0.575423 -0.651438 -0.354595 -0.357026
536 -0.331377 0.072648 1.157516 0.213499 0.263631 -0.158568 0.483594 0.011220 0.104899 -0.318897 0.300498 -1.398751 0.539202 -0.371657 -0.233992 -0.519974 0.882211 -0.580461 -0.788018 -0.648165 0.331535 0.516302 -0.564442 0.857083 -0.290045 -0.184186 0.065396 0.035026 -0.609399 -0.844974 -0.326641 0.274798
300 -0.506174 0.232110 -0.111221 0.423563 1.336249 0.196479 0.168169 0.973984 1.131509 -0.594983 0.239253 -1.165002 0.165908 -0.059789 -0.499761 -1.151712 -0.213750 -0.470790 0.633532 -0.715369 -0.520095 0.693654 0.217565 0.262756 0.212320 0.560769 0.139883 1.689419 -0.118000 -1.972185 -0.651040 0.490479
1200 -0.134698 0.826250 0.210365 -1.026880 1.621894 0.074263 0.677876 -0.023218 0.906197 0.209824 -0.970757 0.065635 0.516621 0.118456 0.989283 -1.020835 -0.646393 -1.476922 0.098757 -1.191529 0.289211 0.729130 -0.540134 0.632126 0.272727 0.636024 0.824628 1.237374 -0.672284 0.397393 -0.264773 0.121984
370 -0.290414 0.052627 1.197160 0.122033 0.267706 -0.203837 0.489058 0.015176 0.182417 -0.374035 0.321838 -1.387135 0.612231 -0.334257 -0.250424 -0.539406 0.925586 -0.573916 -0.817840 -0.635197 0.295782 0.550322 -0.554072 0.851181 -0.300662 -0.219331 0.053226 -0.070268 -0.579510 -0.882974 -0.348699 0.219075
417 -0.508384 0.221059 -0.122271 0.380582 1.318492 0.241322 0.197042 0.955547 1.138935 -0.557493 0.204310 -1.118777 0.174489 -0.121624 -0.406002 -1.129752 -0.207830 -0.450243 0.598290 -0.699882 -0.498939 0.684186 0.212717 0.271012 0.175649 0.533856 0.149052 1.721713 -0.145279 -1.952028 -0.600978 0.453248
917 -0.279233 0.136829 1.172160 0.168935 0.216103 -0.198187 0.502774 0.031363 0.156410 -0.346892 0.336316 -1.349496 0.628289 -0.368172 -0.176819 -0.609223 0.968766 -0.554893 -0.815077 -0.641703 0.263833 0.537642 -0.541933 0.862913 -0.289608 -0.304962 0.119181 -0.158500 -0.583575 -0.823480 -0.386485 0.195706
578 -0.330905 0.206528 1.191962 0.169800 0.185414 -0.136347 0.473261 0.051149 0.111515 -0.374931 0.286372 -1.436431 0.638931 -0.283571 -0.161514 -0.621192 0.935128 -0.601970 -0.857764 -0.655023 0.313861 0.542124 -0.582738 0.795611 -0.344078 -0.267941 0.189051 -0.143929 -0.617127 -0.775957 -0.353160 0.204959
218 -0.077536 0.749924 0.261182 -1.017650 1.626353 0.047651 0.683376 0.001463 0.892904 0.194741 -0.988434 0.000692 0.477911 0.094091 0.978482 -0.956982 -0.681244 -1.510198 0.038684 -1.292539 0.281058 0.782979 -0.523234 0.603095 0.259015 0.638953 0.886948 1.219572 -0.742848 0.438380 -0.277191 0.098217
106 -1.208526 -0.526853 0.644147 -1.151810 0.792449 -0.931544 0.183670 0.002559 0.934472 0.114309 1.057605 -0.201990 -0.087829 -0.566658 -0.507087 -1.425688 0.360413 -0.911755 0.261128 0.490680 -0.264713 0.263611 -0.744058 -0.139371 -0.572803 0.840352 0.407980 0.274721 -0.328345 -0.622333 -0.986974 0.912373
140 -0.675233 -0.030147 0.217450 -0.875129 0.001875 -1.397492 0.952534 0.247476 1.340275 -0.023401 0.658593 0.059753 0.129068 -0.380424 0.091699 -1.905220 0.013990 -0.407162 -0.460369 -1.533269 -0.965745 0.403358 -0.215377 0.365623 1.052727 0.168532 0.269701 0.652368 -0.894606 0.242168 -0.432476 -0.845378
1261 0.810354 0.812690 0.701586 -1.023891 0.677018 -0.853615 0.657799 -0.408147 0.538205 -0.634976 -0.393571 -0.560930 0.482272 -1.008597 -0.696400 -1.094785 -0.438004 -1.176875 0.368367 -0.576494 0.237329 -1.055472 -0.522640 -0.067606 -0.950676 0.720975 -0.142472 0.932458 -0.543220 -1.386027 -0.222587 0.438527
1194 -0.780545 -0.098259 0.687983 0.133589 1.038458 0.610304 0.543664 0.300278 -0.795972 0.228481 0.077628 0.010533 1.249908 -0.873334 -0.110353 -1.432400 0.837885 -1.086022 1.244500 -1.044588 -0.878453 0.860387 -0.071638 -0.145368 -0.170254 0.080028 0.763947 0.290922 -0.668665 -0.923916 0.320235 1.118160
920 0.822939 0.440216 1.309425 -0.614590 -0.288683 -0.402445 1.271837 0.934332 0.401604 0.240841 0.828089 -1.007206 -0.180930 0.447408 -0.499650 -1.039642 0.379863 -1.074280 0.674056 0.114389 -0.629729 0.336253 0.320127 -0.436988 0.292256 0.506683 0.114024 0.095353 -0.572548 -0.792680 -1.285130 -0.216682
1066 0.899765 0.417678 1.330080 -0.639595 -0.235121 -0.522190 1.247415 0.868825 0.418049 0.240109 0.764328 -1.008001 -0.197673 0.443713 -0.473163 -1.009289 0.308469 -0.860158 0.733044 0.072337 -0.569952 0.273758 0.293451 -0.420551 0.345340 0.485467 0.097383 0.087009 -0.648278 -0.889013 -1.288018 -0.180257
1011 0.840825 0.457426 1.282466 -0.609756 -0.268783 -0.497702 1.235676 0.882031 0.418961 0.217195 0.757469 -1.040956 -0.135700 0.368051 -0.506882 -1.119073 0.385757 -1.058442 0.706315 0.120007 -0.584866 0.280841 0.335668 -0.472340 0.334185 0.535279 0.110168 0.110238 -0.562168 -0.751778 -1.254741 -0.241749
1192 0.949310 0.460916 1.315582 -0.782982 -0.174578 -0.608602 1.196495 0.844889 0.435185 0.250815 0.771491 -1.081009 -0.226840 0.466163 -0.461973 -1.024063 0.238843 -0.607822 0.811858 0.045202 -0.520127 0.191246 0.254532 -0.397941 0.390649 0.422010 0.078920 0.058753 -0.668517 -1.061805 -1.241151 -0.104237
84 -0.399882 -0.038532 0.858126 -1.094676 0.817034 0.574576 0.027709 0.690917 0.507105 -0.889491 0.067952 -0.951343 -0.570172 -0.513652 -0.422086 -0.427709 -0.157887 -1.407031 0.734344 -0.360119 0.235595 1.201877 -0.658167 0.167500 -0.004314 0.123076 0.360989 0.647181 -0.740404 -0.006221 -1.003973 -1.204386
729 -0.105853 1.788574 1.319810 -0.286230 -0.357138 0.099707 0.757070 -0.375101 0.228732 0.307300 -1.028372 -0.896140 0.460274 -0.487589 0.685043 -1.557723 -0.308327 -0.055094 0.215112 -1.663566 -0.018201 0.385098 0.097120 -0.190207 -0.475514 -0.138682 1.296322 0.084175 -0.233984 -0.223020 -1.465149 -1.095801
1156 0.869421 0.413009 1.284620 -0.602318 -0.329369 -0.503075 1.271329 0.971801 0.447530 0.238651 0.804153 -0.999332 -0.188905 0.380981 -0.515586 -1.045421 0.416850 -1.007181 0.722125 0.152564 -0.681649 0.331250 0.280089 -0.505657 0.310962 0.508150 0.069609 0.090554 -0.532751 -0.810918 -1.249802 -0.280457
477 -0.335714 0.162290 1.098845 0.172510 0.209652 -0.182395 0.474449 0.002189 0.152773 -0.327800 0.300163 -1.421736 0.598049 -0.337878 -0.165309 -0.528741 0.904941 -0.634842 -0.735499 -0.698751 0.336359 0.478339 -0.571231 0.764624 -0.265240 -0.296112 0.103905 -0.075269 -0.575901 -0.852216 -0.340279 0.176866
519 -0.357907 0.122831 1.168459 0.090331 0.303090 -0.233940 0.496067 0.030930 0.091966 -0.323064 0.289741 -1.383047 0.569129 -0.257813 -0.171578 -0.560947 0.886612 -0.605989 -0.800887 -0.692900 0.311374 0.536022 -0.543380 0.923953 -0.263831 -0.253155 0.097305 -0.022768 -0.598619 -0.882381 -0.316081 0.202529
280 -0.301448 -0.063155 0.871349 -1.084269 0.767208 0.599662 0.008195 0.731414 0.464427 -0.899518 0.038614 -0.980631 -0.530217 -0.592291 -0.399011 -0.369374 -0.256916 -1.425621 0.697399 -0.392790 0.220667 1.163281 -0.635795 0.129930 -0.104200 0.146479 0.404297 0.715391 -0.820096 -0.093771 -1.008660 -1.213254
85 -0.621343 -0.195636 0.669427 0.027284 0.653594 -1.139447 0.237306 0.562829 0.059248 -1.050916 -0.331824 -0.696737 0.463148 -0.625417 -0.820969 -2.054632 1.085840 -0.949788 0.749962 -0.595204 -0.235908 -0.126326 -0.741436 -0.901768 0.124139 0.551059 0.138165 -0.367384 -0.579728 -0.061271 0.169807 -0.736445
188 0.502606 0.993108 0.509589 -1.391065 0.204896 -0.978194 -0.136823 1.150340 0.429695 0.066056 0.161574 -0.423674 1.710590 -0.366423 1.123099 -1.377313 0.097841 -0.498297 -0.054292 -0.415355 -0.561265 0.786628 0.122574 -0.080541 -0.998839 0.397784 0.378548 0.753812 -0.752389 -0.944465 -0.191956 -0.410570
818 0.533305 0.972526 0.491083 -1.335007 0.166747 -0.922479 -0.200229 1.148019 0.406017 0.045029 0.205584 -0.423996 1.714590 -0.376079 1.079678 -1.384527 0.109283 -0.456854 -0.062304 -0.418802 -0.588595 0.807835 0.096543 -0.109123 -1.065129 0.383051 0.418035 0.813296 -0.727181 -1.001467 -0.227441 -0.413461
231 0.249985 0.129607 1.317942 -0.133531 0.083266 0.105666 0.276309 -1.034468 0.817873 0.050736 -0.247376 -0.903669 0.264322 0.316237 -0.032109 -0.982092 -0.003347 -1.401839 0.019326 -1.158623 -1.322975 -0.727502 0.077559 0.049841 0.100004 -0.300755 0.455242 1.477324 -1.122601 -0.116240 -0.448813 0.607368
219 -0.291469 0.145397 1.158262 0.167683 0.185912 -0.158097 0.507155 0.049685 0.098940 -0.389049 0.269549 -1.450792 0.601540 -0.279426 -0.156348 -0.593258 0.854136 -0.626874 -0.842256 -0.671055 0.292969 0.528607 -0.554679 0.809881 -0.340283 -0.274663 0.176981 -0.021456 -0.574399 -0.877762 -0.349716 0.162469
147 0.478018 0.987323 0.462397 -1.429016 0.173520 -0.954294 -0.181472 1.177222 0.386691 0.081943 0.161014 -0.369737 1.669493 -0.328913 1.107918 -1.359647 0.122474 -0.463537 -0.087250 -0.377676 -0.543276 0.805938 0.073070 -0.120496 -1.046790 0.408108 0.397763 0.721715 -0.753468 -0.907780 -0.191888 -0.370811
828 0.513785 0.992122 0.436422 -1.452620 0.193648 -0.921399 -0.180013 1.161434 0.365503 0.038237 0.144042 -0.407650 1.689950 -0.292374 1.097629 -1.361902 0.098368 -0.488171 -0.061487 -0.423900 -0.575905 0.781584 0.065650 -0.099196 -1.032983 0.360923 0.471494 0.732103 -0.781401 -0.947304 -0.217453 -0.358324
93 -0.360344 -0.016125 0.854235 -1.103772 0.733383 0.561080 -0.064665 0.683781 0.489426 -0.825952 0.045646 -0.963657 -0.510438 -0.616872 -0.402778 -0.419293 -0.245698 -1.370512 0.725679 -0.403660 0.198559 1.189522 -0.635164 0.136495 -0.066254 0.174275 0.450071 0.659341 -0.690828 -0.136010 -0.983082 -1.201364
149 0.590821 0.490583 0.993436 -0.384993 -0.276598 -0.117726 0.830261 0.005138 1.434654 -0.346706 -0.981927 -0.558550 0.599639 -1.997353 0.069155 -0.912580 -0.034410 -0.832305 -0.543043 -0.393778 -0.050117 0.254906 -0.443351 0.215375 1.051328 0.752109 0.487180 0.769206 0.495833 -0.141803 -0.825077 0.407761
34 -0.297089 0.436382 1.517131 -1.202354 0.195833 -0.113534 0.647357 0.173114 -0.327489 -0.033159 -0.406619 0.103656 -0.049322 -0.133224 0.111778 -1.489952 0.500238 -0.149101 -0.083234 -1.814762 0.226226 -0.479991 -0.488196 0.549413 0.310440 1.319167 1.346807 -0.581261 -0.909533 -0.198079 -0.611066 0.881805
498 -0.242788 0.185067 1.120902 0.222087 0.232344 -0.195029 0.456796 0.057123 0.122121 -0.379297 0.285526 -1.367010 0.602989 -0.280273 -0.157607 -0.573855 0.901346 -0.601643 -0.790661 -0.615491 0.297838 0.524129 -0.568850 0.869947 -0.292280 -0.290090 0.101453 -0.014545 -0.577023 -0.797107 -0.381494 0.209771
860 0.033609 0.131311 0.657669 -0.027992 1.105614 -0.979600 -0.065722 0.337628 -0.454200 -0.249100 -0.087852 -0.999783 0.573209 -1.074678 -0.279045 -1.327839 -0.803756 -0.608561 -0.042252 -0.630343 -0.437099 -0.057450 1.075064 0.168878 0.104844 0.647410 0.674245 -0.449442 -0.148899 -0.362890 -0.986907 0.414710
516 -0.103948 0.856738 0.236765 -1.059129 1.585329 0.075972 0.696351 0.003026 0.910596 0.208404 -1.024225 0.011491 0.494466 0.185856 0.965601 -0.970306 -0.656439 -1.521910 0.077028 -1.231590 0.277881 0.741846 -0.616275 0.632376 0.258369 0.604797 0.844428 1.135974 -0.678747 0.414120 -0.212024 0.108697
158 0.018515 0.160193 0.603510 0.023715 1.074290 -0.981864 -0.076670 0.391885 -0.453833 -0.242945 -0.063876 -1.017506 0.545335 -1.091036 -0.300467 -1.276307 -0.857483 -0.563156 -0.026896 -0.631602 -0.445319 -0.128455 1.069919 0.199507 0.089276 0.651212 0.674763 -0.407377 -0.140586 -0.363892 -0.988632 0.405273
551 -0.307591 0.217366 1.158145 0.198999 0.178107 -0.141062 0.474250 0.094910 0.128802 -0.415570 0.317874 -1.367675 0.593387 -0.298340 -0.155274 -0.640573 0.944171 -0.641002 -0.809628 -0.701651 0.274713 0.496851 -0.604378 0.819206 -0.307139 -0.300503 0.146272 -0.136824 -0.584758 -0.869092 -0.452031 0.207117
374 -0.701060 -0.032877 0.197055 -0.861046 -0.058706 -1.404310 0.930465 0.237876 1.337046 -0.030476 0.649866 0.072742 0.107271 -0.406522 0.064228 -1.902217 0.008738 -0.387739 -0.456469 -1.553685 -0.966367 0.402384 -0.248129 0.378096 1.046058 0.163056 0.247978 0.622080 -0.871742 0.219912 -0.445746 -0.865553
948 0.918208 0.475050 1.318676 -0.754975 -0.185616 -0.518575 1.231081 0.878318 0.447509 0.225846 0.781841 -1.032243 -0.208987 0.490877 -0.516583 -1.016780 0.277696 -0.784925 0.768280 0.074891 -0.605669 0.254730 0.294723 -0.370857 0.335224 0.417405 0.108607 0.051770 -0.664560 -0.939154 -1.286778 -0.143277
197 -0.273744 0.169681 1.160770 0.124016 0.243546 -0.229717 0.464131 0.044730 0.119428 -0.330996 0.292279 -1.363226 0.650892 -0.298619 -0.198636 -0.522533 0.908450 -0.602009 -0.796996 -0.599998 0.313452 0.558949 -0.553906 0.935809 -0.299786 -0.225687 0.045448 -0.011396 -0.568040 -0.897884 -0.391059 0.229169
751 -0.016869 -0.302723 1.398375 -0.744120 1.013568 -0.124598 1.453780 0.784554 -0.610992 -0.723894 0.002131 0.684804 0.535968 -1.262622 0.324005 -0.926439 -0.106875 0.217190 -0.046259 -0.304742 -0.306409 0.871023 -0.590127 0.960205 0.189830 0.838171 0.034917 1.056426 -0.989878 -0.705097 -0.737619 -0.221404
475 -0.291117 0.174592 1.121112 0.142424 0.257996 -0.180764 0.524838 0.028712 0.102012 -0.338458 0.257339 -1.423738 0.527223 -0.301879 -0.207523 -0.524572 0.890178 -0.618237 -0.825634 -0.695542 0.335929 0.497253 -0.519351 0.876695 -0.342897 -0.279046 0.096326 -0.021090 -0.645464 -0.853760 -0.333367 0.229223
201 0.024322 0.119382 0.667653 0.013724 1.100270 -0.966415 -0.139149 0.428936 -0.443342 -0.244500 -0.080680 -1.019993 0.531623 -1.107513 -0.254965 -1.290403 -0.811494 -0.551292 0.003012 -0.618918 -0.426697 -0.113311 1.057031 0.185424 0.049502 0.683595 0.669099 -0.415798 -0.129200 -0.377322 -0.942370 0.419392
211 -0.391749 -0.025762 0.793970 -1.072813 0.739408 0.562371 -0.046841 0.687664 0.487797 -0.850680 0.036301 -0.915874 -0.602971 -0.538590 -0.421636 -0.392743 -0.212149 -1.344633 0.737796 -0.404038 0.258032 1.076620 -0.598271 0.178031 -0.046277 0.128469 0.393354 0.644737 -0.724730 -0.061261 -0.996002 -1.189520
412 -0.012817 -0.337517 1.432212 -0.747974 0.994645 -0.090922 1.386782 0.750777 -0.619856 -0.727769 0.034720 0.705251 0.518874 -1.255897 0.299843 -0.907977 -0.138942 0.169022 -0.051046 -0.265905 -0.358371 0.899273 -0.596133 0.948819 0.162424 0.858656 0.040351 1.116306 -0.997850 -0.720624 -0.770420 -0.152019
1279 0.056673 0.082591 0.653308 0.011528 1.104576 -0.967956 -0.077607 0.410773 -0.465888 -0.247787 -0.065309 -0.984714 0.499125 -1.093007 -0.276535 -1.229182 -0.830991 -0.571859 -0.012255 -0.609840 -0.417185 -0.082743 1.105417 0.169102 0.053479 0.647746 0.628168 -0.421211 -0.144355 -0.382303 -0.938253 0.381868
1243 -0.375835 -0.063739 0.823482 -1.063176 0.770631 0.602348 0.001191 0.704899 0.448433 -0.886330 0.072667 -0.968921 -0.618744 -0.499348 -0.396502 -0.365870 -0.236360 -1.385736 0.747929 -0.355653 0.270057 1.198113 -0.644450 0.161723 -0.024284 0.134877 0.301623 0.709991 -0.799951 -0.045433 -0.980911 -1.240665
969 -0.310253 0.160362 1.146748 0.201412 0.235537 -0.161247 0.502241 0.037389 0.078188 -0.446918 0.240687 -1.368145 0.600056 -0.234934 -0.209039 -0.559733 0.875999 -0.577501 -0.823671 -0.714853 0.338462 0.492826 -0.595024 0.858949 -0.290862 -0.268273 0.149138 -0.021132 -0.565512 -0.792783 -0.380423 0.186125
