504 32
14 -0.567013 0.409608 -0.535279 -1.702833 1.215237 1.247845 0.961861 0.350522 -0.322461 0.501424 -0.601200 -1.326047 -0.597131 0.558099 1.140772 0.414464 1.282861 -0.357206 -0.441221 -0.426057 1.008232 -0.261193 -0.297062 0.455020 -0.650053 -0.308798 -0.137265 0.884900 -0.943851 1.084946 0.078047 -0.563737
259 0.533472 0.065213 -0.571032 -0.364218 -1.284315 0.375140 1.075284 -0.268247 0.235144 0.911368 0.245943 -1.202718 -1.459736 1.144319 -0.071273 0.148249 0.780529 -0.025810 1.089873 0.391782 0.702262 -0.014245 -0.259479 0.370085 0.134069 -0.485850 -0.501287 -0.059345 -0.128299 0.074942 -1.485841 -0.562161
174 -0.530757 0.425349 -0.221079 -0.049444 -0.212868 0.445048 0.936318 -1.532630 0.390751 0.426280 -1.211114 -1.677333 -0.311462 -0.235225 0.141208 -0.229224 1.291162 -0.190414 1.033257 -0.032359 -0.100997 -0.007361 -0.189981 -0.154682 -0.908955 -1.098121 -0.396403 1.514900 -0.494311 0.424751 -0.092765 -0.583745
12 -0.312999 -0.003619 -0.904080 -1.024560 -0.486643 0.758360 1.006895 -1.117307 0.055813 1.604825 0.558023 -1.090691 -0.409426 -0.126814 0.740523 -0.652816 0.608632 0.506121 0.201157 -1.414314 1.059345 0.476998 0.874692 -0.347026 -0.119459 -0.091856 0.030415 0.057234 -0.694796 -0.381585 0.315399 -0.770972
54 -0.200208 -0.090623 -0.283416 0.539099 -0.230668 -0.006203 0.584189 -0.222429 -0.294504 0.086461 -0.007453 -0.527119 0.191300 0.347836 0.285325 -0.238862 1.536061 0.346239 -0.197525 -0.581439 1.055643 0.409457 -0.408085 1.214247 -0.068598 -0.850335 -0.524453 0.444291 -0.733941 -0.698275 -0.360710 -0.291065
111 0.137459 0.592162 -0.426837 -0.920450 0.345122 0.416074 0.741390 0.239702 0.010882 0.145456 -0.496772 -2.124171 -0.342267 -0.094984 -0.269199 -1.609489 0.785887 0.018031 0.345008 -0.994184 1.580504 0.330779 -0.266434 1.313023 0.025460 -0.968238 1.069164 -0.779385 0.238517 0.465596 -0.852809 0.035617
110 -0.150277 -0.148308 -0.262547 0.495952 -0.188865 -0.024794 0.541471 -0.203252 -0.377628 0.076267 -0.005243 -0.479419 0.277823 0.402841 0.286217 -0.256864 1.547126 0.368463 -0.180298 -0.579281 1.048069 0.452319 -0.442986 1.239403 -0.076976 -0.846725 -0.542841 0.450783 -0.774005 -0.700420 -0.315195 -0.242326
239 -0.157112 -0.078267 -0.247377 0.511852 -0.224100 0.030531 0.569531 -0.208448 -0.333542 0.065043 -0.034094 -0.551208 0.234013 0.355590 0.276513 -0.248242 1.526435 0.379234 -0.174148 -0.577116 1.092741 0.408027 -0.438930 1.244189 -0.051832 -0.836511 -0.561451 0.437971 -0.720833 -0.670565 -0.352817 -0.260099
13 0.216465 -1.074237 -0.834026 -1.097039 -0.182544 0.542295 0.189904 -0.119007 -0.043625 1.077414 -0.945288 -1.872552 0.309123 -0.553284 0.410893 0.198097 0.824645 -0.194793 0.603670 0.178136 1.293909 -1.109616 -0.322677 0.384224 -0.488266 -0.825804 -0.465072 0.085517 -0.260056 -0.494670 -0.196663 0.959594
7 0.193604 -1.074535 -0.808198 -1.102732 -0.124485 0.490329 0.329770 -0.082327 -0.062811 1.117247 -0.946609 -1.870083 0.335122 -0.547673 0.399574 0.100932 0.839672 -0.123933 0.622030 0.161141 1.290211 -1.049618 -0.285208 0.332857 -0.414312 -0.809481 -0.459821 -0.002554 -0.346800 -0.505179 -0.188176 0.919046
89 -0.112187 0.036797 0.498585 -1.233967 0.001864 -0.330956 2.252652 0.309515 -0.149581 1.162845 -0.742016 -1.013170 -0.873880 1.082358 -0.175089 -0.166093 0.713887 0.869433 0.616257 -0.482818 1.264311 -0.058313 -0.318925 0.318051 0.279477 -1.076917 0.339424 -0.535294 -1.110235 -0.074320 0.820948 -0.338980
269 -0.334030 -0.520579 -0.766377 -0.519957 0.933139 0.124324 0.956055 -0.293015 0.619476 0.332233 0.285128 -0.881537 -0.510029 -0.225019 -0.525356 -0.600474 1.974513 0.036747 -0.069488 0.966312 0.810326 0.439916 -0.699660 0.547378 -0.935565 0.299781 -0.363593 -0.211799 0.286980 0.726197 -0.948254 -0.743067
120 -1.049950 0.081330 -0.593427 0.584695 0.334017 -0.263454 1.019913 0.018143 -0.404419 0.986159 -0.395667 -1.013975 0.052543 0.210134 -0.074955 -1.672981 1.343007 0.579385 0.922906 -0.293836 0.462114 -0.124026 -0.920694 -1.196420 -0.747536 -0.644632 -0.479846 -0.845498 -0.712149 -0.430067 -0.345345 -0.912754
299 -1.041920 0.083750 -0.616595 0.574520 0.302007 -0.228044 0.975679 0.054055 -0.396786 0.963061 -0.376393 -1.064962 0.002244 0.189342 -0.061212 -1.675870 1.334447 0.572185 0.917001 -0.314337 0.429664 -0.135903 -0.922010 -1.195952 -0.720838 -0.656357 -0.520585 -0.831249 -0.654395 -0.446298 -0.308487 -0.904255
180 0.156467 -0.945535 -1.080146 0.308062 0.305075 -0.616050 1.010837 0.334988 -0.595502 0.837347 -0.544199 -1.125729 0.207351 -0.004054 -0.631506 -0.909823 0.444164 -0.111711 0.768663 -0.513275 0.775117 -0.370499 1.259437 0.432662 -0.195992 -0.238740 -0.348671 0.221318 -0.104087 0.085195 -1.217299 -0.550721
27 1.286459 -1.719280 -0.395004 -1.499928 0.190423 0.283312 1.231280 0.696953 -0.801690 1.124729 -0.541353 -0.973020 0.115589 0.869198 -0.234869 -0.128285 1.091629 -1.033304 0.881405 -0.486767 0.314933 0.604915 -0.177244 0.692931 0.452158 -1.502226 -0.838762 1.134639 -0.143891 0.207401 0.593705 -0.631520
302 -0.034836 -0.099497 -1.193496 -0.341125 -0.083518 0.286292 0.980687 -0.020124 -0.389429 0.896145 -0.420400 -1.287859 -0.437560 0.265680 0.043014 -0.641686 1.239283 -0.077050 0.564689 -0.390120 1.144378 0.102915 0.029680 0.669087 -0.529887 -0.614752 -0.626058 0.441210 -0.241809 0.129302 -0.453376 -0.917502
25 0.000866 0.052833 -1.396459 -0.530265 -0.385065 0.958705 -0.505290 0.279091 -0.103485 0.261411 -0.419223 -0.415543 -0.868347 -0.029804 -0.130302 -0.740562 1.103836 -0.297487 0.564395 -0.158136 1.666464 0.366357 0.478044 0.786545 -0.081645 -0.575252 -0.922403 0.952078 0.340968 0.771463 -0.339056 -1.925029
10 0.026548 0.058706 -1.388611 -0.559849 -0.336637 0.947219 -0.515804 0.293171 -0.076629 0.238273 -0.382254 -0.335851 -0.873256 -0.046873 -0.173024 -0.677558 1.099639 -0.235777 0.523678 -0.178159 1.635635 0.351645 0.452086 0.781108 -0.050387 -0.582786 -0.941107 0.959881 0.315956 0.784413 -0.395131 -1.965164
1092 -0.887967 0.577825 -1.618515 0.082780 0.464395 0.794527 0.451581 -0.280958 -0.546030 1.072538 -0.820217 -0.571796 0.238589 -0.613834 0.270270 -1.711796 1.854570 -0.854129 1.430019 -0.393021 0.968402 -0.130651 -0.087367 1.026042 -0.638736 0.613602 -0.023889 0.541576 -0.453141 -0.206597 0.422953 -0.305725
74 -1.274862 -0.167255 -0.661764 -0.550778 -0.870726 1.128666 1.323757 0.566273 -1.472726 0.615841 -0.278428 -1.251600 -1.045994 0.320342 -0.920297 -0.232062 1.465382 0.516370 0.760922 0.085350 1.330596 -0.374862 0.369109 0.140141 -0.979190 0.200774 -0.123715 0.761194 -0.101547 0.184418 0.122144 0.487213
22 0.139181 -0.976867 -1.113905 0.280071 0.239344 -0.567620 1.011592 0.314246 -0.701984 0.808951 -0.560123 -1.145612 0.258836 -0.054460 -0.541431 -0.924030 0.450300 -0.097668 0.788015 -0.611742 0.856938 -0.366620 1.310816 0.456463 -0.181159 -0.236015 -0.365277 0.218684 -0.103304 0.109470 -1.203151 -0.556529
4 -0.010749 0.035596 -1.398846 -0.573243 -0.347389 0.945973 -0.524130 0.272831 -0.135936 0.235723 -0.397054 -0.353077 -0.846206 -0.054326 -0.170643 -0.694268 1.085494 -0.232575 0.590902 -0.160183 1.574439 0.356493 0.422026 0.727931 -0.078813 -0.573413 -0.928571 0.952193 0.286316 0.748357 -0.360491 -1.878286
264 0.102993 -0.906121 -1.101467 0.330420 0.258011 -0.539104 0.963261 0.326892 -0.669135 0.781163 -0.524446 -1.117411 0.270666 -0.035537 -0.513316 -0.923494 0.467169 -0.103653 0.764835 -0.600425 0.876080 -0.365511 1.312479 0.436631 -0.196245 -0.220941 -0.380174 0.186032 -0.078154 0.096675 -1.192971 -0.530768
897 0.418461 0.149672 -1.337012 -0.761139 0.113068 1.141581 0.672868 0.269009 -0.320409 0.757656 -0.090065 -1.544898 0.262300 0.492755 -0.009531 -0.116562 0.892752 0.661704 2.147716 0.086119 0.126803 0.607825 0.413325 1.386945 -0.931714 0.806719 -0.318926 -0.028671 -0.025452 1.054607 -0.237460 -0.393597
330 -0.311472 -0.102509 -1.021591 -0.260116 0.622414 0.559500 0.298167 -0.002697 -0.006772 0.823875 -0.482551 -1.531366 0.189800 1.194802 -0.121101 0.531038 0.085006 -0.799575 0.141260 -0.254803 1.004869 1.090470 0.296980 1.511605 -1.412593 -1.019225 -0.078319 -0.068266 0.227251 -0.308015 0.679459 -0.674981
240 -0.811011 0.636574 -1.541086 -0.032703 0.499386 0.754098 0.451428 -0.283745 -0.634114 1.107452 -0.908000 -0.677221 0.222000 -0.502553 0.223167 -1.701955 1.713338 -0.885901 1.391730 -0.301104 1.025181 -0.239570 -0.104683 1.063751 -0.738493 0.584797 0.092200 0.499539 -0.484302 -0.275458 0.449044 -0.266761
99 -0.296377 -0.079420 -0.977187 -0.311430 0.621112 0.542320 0.311093 0.048066 0.001063 0.886257 -0.468142 -1.538966 0.189459 1.241685 -0.100147 0.540046 0.116556 -0.805237 0.182846 -0.255026 0.964812 1.078331 0.292463 1.505313 -1.401893 -0.899403 -0.074027 -0.096308 0.187627 -0.379490 0.636742 -0.683067
20 0.127454 -0.960367 -1.099848 0.332127 0.196662 -0.583483 1.002607 0.343566 -0.693177 0.827209 -0.534757 -1.148155 0.243856 -0.034669 -0.550112 -0.949109 0.483821 -0.132994 0.778579 -0.603411 0.857130 -0.391291 1.276619 0.442474 -0.153636 -0.230685 -0.358617 0.236429 -0.070774 0.080867 -1.182020 -0.575001
165 0.121679 -0.938621 -1.106264 0.331874 0.278403 -0.568321 0.989266 0.294870 -0.645306 0.841475 -0.535187 -1.134384 0.257724 -0.034834 -0.572077 -0.932682 0.516974 -0.122435 0.799467 -0.555597 0.861024 -0.361088 1.230132 0.438678 -0.198577 -0.240742 -0.382815 0.196548 -0.117617 0.085016 -1.202445 -0.552712
135 0.524637 -1.098423 -1.750342 -0.154606 -0.152962 -1.042207 1.237657 0.425460 0.655580 1.422524 0.367208 -1.379026 -0.112341 -0.201514 -0.309691 -0.261752 0.212011 0.804137 -0.192545 -1.146532 0.714062 -0.434927 -1.064177 1.077423 0.638454 -1.231405 -0.210394 -0.279357 -0.145951 0.031623 -0.025332 -1.235394
51 0.139336 -0.961183 -1.114866 0.372165 0.266477 -0.555719 1.029248 0.289991 -0.655628 0.819547 -0.559575 -1.141595 0.258389 -0.032299 -0.576158 -0.921539 0.505804 -0.098234 0.787193 -0.605728 0.842092 -0.382405 1.280650 0.448613 -0.165480 -0.260466 -0.403958 0.213539 -0.055672 0.150736 -1.221477 -0.509387
146 -0.166922 0.207189 -1.214725 -0.945688 -0.880302 -0.127016 0.468662 0.219728 -1.006086 1.124351 -1.007734 -2.047105 -0.257282 -0.336849 0.234485 -0.772359 -0.447932 -0.314841 0.006511 -0.528202 0.094110 1.244193 -0.372723 0.261782 0.143851 -0.999266 -1.113438 0.532783 -0.965366 0.684890 -0.645870 -0.765994
350 -0.035821 -0.127801 -0.445050 -1.418352 -0.434625 -0.637501 1.859037 0.071885 0.355695 0.051186 -0.350241 -0.430481 -0.402364 -0.049302 -0.777482 0.121885 1.461584 0.126457 0.302480 -1.216316 0.411039 -0.396332 0.343374 0.198138 -0.421201 0.148284 -0.413581 1.147687 -1.251430 0.065731 -0.556259 -1.796506
87 -0.309329 -0.050267 -0.989845 -0.320543 0.557200 0.559755 0.310806 0.023343 -0.014294 0.894630 -0.508810 -1.486274 0.218648 1.254062 -0.119334 0.542976 0.105041 -0.799556 0.187828 -0.242423 1.016502 1.083699 0.242711 1.540672 -1.427908 -0.969550 -0.097120 -0.089456 0.169096 -0.321853 0.655380 -0.654785
250 -1.266708 0.544425 -0.190828 -1.139718 0.207045 0.461516 0.671975 -0.034940 -0.251310 0.857497 0.339935 -2.015633 0.029927 0.876666 -0.390518 0.311809 0.894796 0.511388 1.276783 0.981004 1.020585 -0.396603 -0.017513 0.027421 -1.284239 -0.854184 -0.417084 -0.640875 -1.062665 -2.051925 -0.459729 -0.745460
19 0.641561 0.335257 -0.723865 -1.367202 -0.675558 0.502675 0.896578 -0.438997 1.159786 0.590578 -0.017575 -1.261007 -0.581928 0.069404 0.221915 0.663579 0.729037 0.880315 -0.284099 0.613485 0.990544 -0.339266 -1.561046 0.959908 -0.841269 -1.257118 -0.823233 -0.014465 -0.594985 -0.680502 0.539380 -1.141154
122 0.664525 0.330378 -0.775715 -1.354721 -0.637223 0.475128 0.909134 -0.446257 1.140690 0.517997 -0.041140 -1.331667 -0.574185 0.102680 0.199198 0.700439 0.737699 0.859237 -0.322461 0.634846 1.054286 -0.340623 -1.555244 0.991058 -0.848450 -1.269790 -0.804681 -0.002924 -0.596858 -0.669419 0.519258 -1.175823
513 -1.046386 0.459693 -1.156902 -1.267995 -0.051478 -0.596107 1.119835 0.297795 0.108109 0.904038 0.100841 -1.739472 0.442868 0.682561 -0.167986 -0.069594 0.302033 0.436127 0.738768 0.134864 0.722995 -0.240533 0.905035 0.097864 0.142819 -0.780307 -1.282828 -0.453977 0.916219 0.603220 0.389551 -1.525436
163 -0.349676 -0.255810 -0.292137 -1.394020 0.890557 0.762619 1.687960 -0.258362 -0.773018 0.777657 -0.895482 -0.606599 0.749852 -0.293101 0.630239 -0.374070 0.346602 1.239149 0.983542 0.093668 0.118890 0.709069 -0.110639 0.474984 -1.057891 -0.865511 -0.670026 0.282110 -1.509235 -0.442229 -0.911212 -0.481328
476 -1.027513 0.477082 -1.172214 -1.217556 -0.089805 -0.606458 1.056091 0.300499 0.085536 0.967667 0.113234 -1.720835 0.372545 0.756056 -0.193977 -0.108965 0.266625 0.435589 0.697849 0.124644 0.695654 -0.234291 0.884674 0.027271 0.142099 -0.744346 -1.237310 -0.471408 0.852222 0.621902 0.380761 -1.502362
2 0.722817 0.324539 -0.763444 -1.360419 -0.724743 0.477593 0.887216 -0.440882 1.165394 0.572343 0.001729 -1.358929 -0.604209 0.109882 0.211747 0.697782 0.737377 0.913656 -0.351450 0.615371 1.096891 -0.358786 -1.577449 1.029431 -0.816679 -1.275846 -0.844758 -0.013663 -0.619906 -0.665914 0.529470 -1.161712
337 -0.308865 -0.278829 -0.357922 -1.380992 0.930081 0.745407 1.683214 -0.182309 -0.795768 0.781695 -0.895740 -0.581227 0.810743 -0.292010 0.611802 -0.345107 0.333881 1.219706 0.996325 0.054461 0.115241 0.678329 -0.109969 0.482558 -1.068428 -0.848395 -0.628459 0.257393 -1.505474 -0.450051 -0.881462 -0.426843
696 -0.272487 0.128954 -1.036801 -0.716178 -0.403517 1.061054 0.947069 -1.114996 0.003026 1.583789 0.506616 -1.076462 -0.076413 -0.079412 0.629141 -0.675517 0.577671 0.790312 0.293626 -0.991948 1.104490 0.345678 0.866024 -0.461119 -0.063535 0.047075 0.303398 0.322992 -0.576099 -0.301654 -0.001794 -1.013389
565 0.739233 0.285697 -0.581101 -0.802882 0.552578 -0.098730 0.381908 -0.603158 -0.222014 0.738942 -1.849456 -1.331450 -0.976344 0.804650 -0.868723 -0.182438 0.899580 0.626804 0.319358 -0.371341 1.482129 -0.051285 0.429810 1.145439 0.060817 0.510832 -1.536066 0.015423 -1.107576 0.708159 -0.108359 -0.321812
421 0.766244 0.135401 -0.645366 -0.786260 0.612863 -0.124566 0.308381 -0.431302 -0.299938 0.729497 -1.817467 -1.376318 -0.900196 0.823233 -0.783579 -0.107039 0.804667 0.656610 0.146905 -0.367271 1.433762 -0.177177 0.293710 1.147492 -0.031094 0.457535 -1.551316 0.008001 -1.101674 0.662100 -0.090899 -0.416446
935 -0.444095 0.590168 -0.465412 -0.304399 0.533059 0.163014 1.182785 0.107167 0.036215 1.649404 -0.902150 -0.510697 -0.939706 1.172619 -0.849658 0.638238 1.277217 -0.078368 0.178534 0.354600 -0.138564 0.754228 -1.256715 0.019008 -1.907288 -1.635871 -1.142196 0.140555 -1.143168 -0.035748 -0.239717 -0.634473
389 -0.304364 0.010240 -0.815782 -1.040172 -0.531242 0.728867 0.963164 -1.077806 0.032209 1.519649 0.516768 -1.074280 -0.528239 -0.120965 0.764661 -0.645852 0.692518 0.437196 0.170381 -1.401247 1.076583 0.468669 0.856482 -0.330593 -0.165995 -0.103195 -0.056198 0.011832 -0.668400 -0.395857 0.358355 -0.748592
524 -0.251346 0.026636 -0.567278 -0.385237 0.208118 -1.223717 1.716374 -0.423177 0.658415 1.893276 0.465745 -2.337357 0.421014 -0.013111 -0.116257 -0.544121 1.131963 0.754775 0.459897 0.683979 0.943880 -0.024910 -0.290277 -0.076241 -1.653104 -0.460240 0.633443 0.490461 -1.492311 -0.322543 0.886224 0.067867
28 -0.362225 -1.022573 -0.134770 -0.236717 -0.976241 -0.182492 1.404813 0.231515 -0.105684 0.065927 -0.624366 -1.640420 -0.336671 0.806606 -0.220997 -0.170152 -0.152133 0.663034 1.349887 -0.472915 0.603516 0.125188 -0.545815 -0.277214 -2.269653 -0.968292 -1.920524 0.518859 0.099812 -0.707083 -0.271479 -1.057259
704 0.582225 0.300052 -2.395280 -1.494262 -1.328227 0.654852 1.034395 0.921644 -1.139841 0.402934 -0.366779 -0.193424 -0.516111 0.766914 -0.033198 -0.381521 -0.125908 -0.145439 0.261516 -0.468488 1.749644 -0.123696 -1.154497 1.252624 -0.321091 -0.596220 -0.256363 -0.960276 -0.844456 -0.272324 -0.061301 -1.373625
76 0.057513 -0.773104 -1.966764 -0.859709 0.936752 -0.538919 2.002305 1.267965 0.059416 0.770845 -0.522751 -0.530131 -1.148057 -0.127365 0.319996 -0.221022 1.212430 -0.238755 -0.210511 0.412795 0.738034 1.108033 -0.239827 -0.562527 0.316601 -1.254626 -1.080880 -0.855839 -0.281234 -0.671100 0.427590 -1.295144
1218 -0.055841 -0.128093 -1.081127 -0.440740 0.073578 0.303803 1.091532 -0.017699 -0.159090 0.916972 -0.482134 -1.489937 -0.205401 0.184888 -0.001506 -0.662789 1.171987 0.130831 0.502817 -0.363143 0.895206 0.187372 -0.077886 0.550231 -0.581254 -0.754642 -0.538789 0.324693 -0.418246 -0.011818 -0.340078 -1.016836
215 -0.618167 -0.092552 -1.047424 -0.871138 -0.104683 0.904164 1.255301 0.418753 0.472721 1.914319 0.750358 -0.494666 -1.162161 0.194863 0.302567 -0.738091 1.229385 -0.358550 0.906139 -0.149247 -0.264624 -0.428563 -0.336993 0.813177 -2.321397 0.212582 0.004433 -0.961503 -1.287767 -0.998572 0.186442 -1.271949
282 -0.056101 -0.143671 -1.006689 -0.355175 0.101113 0.132574 1.007482 -0.074053 -0.065539 0.826989 -0.363012 -1.201222 -0.280594 0.231145 0.059271 -0.647005 1.070756 0.133836 0.542999 -0.101424 0.830537 0.118369 0.044742 0.472193 -0.575916 -0.675562 -0.323514 0.132709 -0.429267 -0.131690 -0.400775 -0.891603
910 1.065762 -0.199407 -1.281123 -0.194402 -0.022040 -0.271820 1.425948 -0.394827 1.293388 1.747777 -1.174923 -1.283205 1.086530 0.048711 -0.591667 -0.737788 1.845633 -0.341364 1.278747 -0.544260 -0.133913 -0.326293 -0.348553 0.521455 -0.709954 -0.893094 -0.265218 0.429860 0.810328 -0.046213 1.526495 -0.928316
1162 -0.176133 -0.189072 -1.140000 -0.491630 -0.073708 0.286887 1.144411 0.021581 -0.211418 0.998582 -0.422829 -1.453917 -0.288474 0.265310 -0.004847 -0.624114 1.313400 0.191440 0.593716 -0.312309 1.060581 0.137022 0.007632 0.656409 -0.604084 -0.724541 -0.581932 0.329000 -0.406730 -0.057399 -0.428585 -1.050004
405 -0.444984 0.619085 -0.494384 -0.314264 0.486900 0.212543 1.119973 0.084003 0.029928 1.676818 -0.863008 -0.374885 -0.944030 1.232570 -0.864962 0.694106 1.282739 -0.048515 0.204553 0.358533 -0.146522 0.781083 -1.156554 -0.065337 -1.872082 -1.575350 -1.160902 0.177790 -1.132031 -0.043583 -0.199367 -0.597486
304 -0.823779 -1.645468 -1.515141 -0.773164 -0.507240 -0.063117 0.517745 0.644026 -0.352352 0.408121 0.017326 -0.728678 -1.298241 0.054196 0.852367 -0.340796 0.819590 0.608590 -0.048832 -0.146566 0.444675 -0.599812 0.364898 0.060846 -1.194721 -1.349868 0.124211 0.188157 -0.285534 -0.296195 -0.325639 -1.226915
11 -0.821604 -1.654600 -1.512413 -0.792044 -0.538600 -0.042854 0.496765 0.657141 -0.336586 0.399101 0.023789 -0.756177 -1.342784 0.081380 0.887585 -0.369605 0.805088 0.610829 -0.029933 -0.176563 0.462768 -0.585176 0.361661 0.062699 -1.162994 -1.370531 0.127790 0.202462 -0.301172 -0.289611 -0.386749 -1.244203
263 -0.793382 -1.676690 -1.516265 -0.791411 -0.564697 -0.025402 0.495999 0.663118 -0.377149 0.397187 -0.018040 -0.761981 -1.348540 0.030676 0.851946 -0.357592 0.762262 0.583308 -0.021444 -0.145716 0.460834 -0.616051 0.351027 0.067739 -1.182787 -1.380541 0.103976 0.230849 -0.298681 -0.269810 -0.400935 -1.274359
415 -0.078232 -0.041983 0.438866 -1.171874 -0.034365 -0.379083 2.273498 0.357358 -0.209969 1.162625 -0.714432 -1.063022 -0.799882 1.124965 -0.183221 -0.140795 0.644803 0.916581 0.603740 -0.501881 1.169997 -0.086253 -0.291874 0.313147 0.276583 -1.050476 0.370684 -0.545094 -1.066301 -0.076095 0.775106 -0.309212
164 0.660216 -0.837316 -1.316122 -0.586380 -0.265388 1.187549 -0.094384 -0.690475 -1.853844 0.840345 -1.124196 -0.873513 -0.310007 0.819301 -0.015026 -0.540682 0.967702 0.367485 0.838766 -1.528003 0.547777 0.146014 -0.839509 -0.198070 -0.992198 -0.727714 -0.029819 0.231719 0.236830 0.093093 -0.152647 -0.793747
0 0.636974 -0.877793 -1.307939 -0.594692 -0.332138 1.205721 -0.078793 -0.668657 -1.889595 0.853931 -1.108667 -0.888399 -0.320990 0.841350 0.000718 -0.563147 0.976763 0.361984 0.864654 -1.552969 0.593104 0.151338 -0.781525 -0.156740 -0.971768 -0.753436 -0.046413 0.260552 0.203238 0.089151 -0.177447 -0.792871
921 0.587323 0.095378 -0.556806 -0.407490 -1.272741 0.373446 1.054339 -0.205496 0.137610 0.898447 0.306154 -1.087445 -1.552683 1.182805 -0.092750 0.268086 0.888968 -0.161425 0.971422 0.367455 0.712869 -0.047194 -0.089804 0.389910 0.076336 -0.377165 -0.486607 -0.101172 -0.169528 0.067350 -1.536348 -0.672884
288 -0.094280 -0.121097 0.473256 -1.256615 -0.084796 -0.319973 2.164073 0.416862 -0.172628 1.158581 -0.716528 -1.164243 -0.715714 1.115386 -0.098618 -0.139293 0.563200 0.861245 0.610069 -0.498245 1.104706 -0.171753 -0.353768 0.355718 0.232806 -1.083925 0.294735 -0.474899 -1.053314 -0.072199 0.735572 -0.269776
763 -0.168242 0.207730 -1.161374 -0.448647 -0.217754 1.325269 0.894489 -1.091761 -0.020759 1.562198 0.372347 -1.207191 0.299474 -0.026609 0.520790 -0.766847 0.479861 1.064174 0.433912 -0.726596 1.105877 0.284994 0.806451 -0.490202 0.029053 0.035753 0.506520 0.618995 -0.546781 -0.167268 -0.387554 -1.273036
765 -0.351170 0.317525 -0.263858 -1.914728 0.225049 -0.808725 0.674077 0.212768 -1.189361 1.632358 0.219412 -0.438888 -0.361508 0.204290 -0.504534 -0.465186 1.701087 -0.010739 0.502945 -0.219344 0.286708 0.871378 -0.124395 0.047843 -0.388920 -1.624973 -0.113355 0.064183 0.106921 0.069680 -1.850178 -0.345966
1109 0.527971 0.164472 -0.490993 -0.451988 -1.289149 0.446309 1.043229 -0.273983 0.074088 0.886942 0.246094 -1.141078 -1.576306 1.196673 -0.119007 0.256486 0.939758 -0.090852 1.030783 0.346241 0.787300 0.060553 -0.164780 0.470380 0.082830 -0.375597 -0.585250 0.014608 -0.188248 0.185041 -1.556744 -0.677999
434 0.307708 -0.270547 -0.202761 0.511038 -0.462416 -0.080658 2.219502 0.866075 -0.199576 0.411817 -0.451967 -2.477822 -0.179866 0.392288 0.344559 -0.544409 1.277404 -0.907912 -0.221116 -0.103667 1.765806 -0.276391 0.177291 1.189184 -0.808342 0.837367 -0.191262 0.080155 0.712555 -0.356487 0.491961 -0.780038
1150 -0.355199 0.278104 -0.330611 -1.879275 0.218372 -0.765452 0.667666 0.233660 -1.163768 1.681067 0.240586 -0.469997 -0.355933 0.252028 -0.525334 -0.425302 1.684869 0.006516 0.527116 -0.242326 0.269731 0.890487 -0.188112 0.073561 -0.431915 -1.637442 -0.112697 0.063522 0.109857 0.049922 -1.777391 -0.358781
1021 -0.469112 -0.737185 -1.299402 0.960504 -0.070256 0.511951 1.408929 -0.179798 0.318027 1.088617 -0.279300 -1.683029 -0.716459 -0.054326 0.939841 -0.286326 1.760949 -0.827114 0.115149 -0.603265 0.369518 1.011518 0.484482 -0.463305 0.411167 -0.898059 -1.816859 0.391880 0.836632 0.475846 -0.526272 -1.081919
759 -0.496575 -0.803299 -1.207341 0.980211 -0.051657 0.485473 1.383219 -0.176850 0.346449 1.033208 -0.256093 -1.630109 -0.701955 -0.036116 0.910424 -0.275813 1.769735 -0.821444 0.180089 -0.636087 0.400677 1.043368 0.433089 -0.450185 0.380784 -0.874172 -1.827549 0.373025 0.860969 0.528923 -0.519041 -1.150886
838 -0.878287 -0.869687 -0.411716 -0.818151 -0.425724 1.316351 0.300569 0.215074 0.648863 1.588483 0.530405 -1.257244 0.130454 0.420009 -0.317232 -0.071229 0.689318 1.073361 0.598624 -0.265716 -0.375024 0.437032 -0.429117 1.119574 -0.726600 -2.159235 -0.874131 0.868694 0.301368 1.000220 0.318313 -1.415610
741 0.327779 -0.272159 -0.170184 0.498606 -0.463164 -0.060092 2.198557 0.885556 -0.251278 0.382717 -0.477617 -2.416596 -0.175469 0.362205 0.319575 -0.584196 1.317652 -0.985985 -0.195123 -0.076286 1.738347 -0.282155 0.142163 1.206048 -0.816358 0.884137 -0.183798 0.129094 0.792033 -0.379883 0.499182 -0.770531
531 -0.164988 -0.121210 -0.222440 0.558330 -0.262290 0.026919 0.569823 -0.226341 -0.328903 0.068819 0.039960 -0.489386 0.154608 0.359467 0.293063 -0.205024 1.593340 0.392218 -0.166477 -0.593890 1.161681 0.390385 -0.406380 1.207726 -0.092989 -0.810824 -0.491177 0.444884 -0.685706 -0.678088 -0.343331 -0.381619
744 -0.857416 0.566273 -1.607375 0.071412 0.368854 0.798412 0.474351 -0.392686 -0.529283 1.097209 -0.821514 -0.591391 0.304588 -0.558223 0.234528 -1.710319 1.839931 -0.869972 1.436739 -0.470457 0.962504 -0.092690 -0.043917 1.009928 -0.634320 0.638669 -0.067748 0.494139 -0.421821 -0.215666 0.466283 -0.272189
223 0.174784 0.629425 -0.416254 -0.897246 0.282131 0.370523 0.759292 0.258177 0.038024 0.162726 -0.508610 -2.057344 -0.354312 -0.081734 -0.265276 -1.577650 0.789790 -0.011336 0.295555 -0.923578 1.586471 0.251158 -0.286416 1.288159 0.046374 -0.883381 1.037679 -0.784819 0.234261 0.445411 -0.863656 0.055660
1250 -0.862419 -0.894411 -0.364022 -0.755417 -0.493545 1.293470 0.362178 0.228463 0.615128 1.560933 0.526482 -1.319077 0.109434 0.428548 -0.267089 -0.060655 0.678060 1.070828 0.628744 -0.267522 -0.368358 0.416796 -0.465986 1.124771 -0.733387 -2.012295 -0.875638 0.898471 0.334846 0.989348 0.304622 -1.342310
1039 0.541443 0.143193 -0.531655 -0.269766 -1.165632 0.441507 1.141156 -0.384212 0.156176 0.960364 0.147689 -1.156300 -1.414412 1.038549 -0.186075 0.141198 0.598078 0.083218 1.172145 0.320965 0.797983 0.000327 -0.300134 0.258244 0.243884 -0.428961 -0.546946 0.012772 -0.135178 0.193060 -1.542962 -0.649761
496 -0.240908 -0.047873 -0.243208 0.513355 -0.177181 0.126763 0.533028 -0.349573 -0.318198 0.094917 0.001688 -0.527877 0.201699 0.384475 0.260409 -0.218995 1.648126 0.395432 -0.148377 -0.560872 1.086034 0.459993 -0.444131 1.196613 -0.007028 -0.820920 -0.538090 0.495804 -0.774998 -0.641322 -0.322522 -0.300058
308 -0.299824 -0.549326 -0.748231 -0.476131 0.964427 0.236482 0.975020 -0.318921 0.647453 0.260157 0.297442 -0.957778 -0.467743 -0.213455 -0.470464 -0.603450 1.896817 0.048799 -0.067695 0.987747 0.833062 0.415514 -0.647717 0.439953 -0.919839 0.267670 -0.395886 -0.159173 0.293182 0.665613 -0.943858 -0.719462
442 -0.338776 -0.533043 -0.780861 -0.418757 0.888303 0.175735 0.996533 -0.291894 0.641699 0.335221 0.334292 -0.942370 -0.449661 -0.282034 -0.488210 -0.583845 1.939641 0.056450 -0.058309 0.928412 0.867249 0.379350 -0.553096 0.464754 -0.901107 0.298421 -0.366113 -0.197236 0.384074 0.644559 -0.926603 -0.737512
709 -1.242662 0.498035 -0.231223 -1.120776 0.220746 0.396177 0.707173 -0.041107 -0.223186 0.821862 0.419941 -2.033528 0.045730 0.871481 -0.421930 0.343862 0.793101 0.580151 1.238078 0.926647 0.963351 -0.402108 -0.002725 0.036118 -1.233760 -0.851156 -0.380014 -0.610463 -1.023039 -2.056903 -0.455035 -0.747605
792 0.173481 0.688312 -1.200695 -0.183165 -0.379639 1.097458 0.580191 -0.044247 -1.127328 1.382650 -0.062742 -1.550759 0.423703 0.686697 -0.527151 -0.239588 0.590100 0.145331 0.496248 1.382166 0.235878 0.222417 1.502118 0.105624 -1.091570 -1.202688 -1.461290 0.891941 -0.254171 -0.475844 -0.813038 -0.602440
56 -0.326743 0.041458 -0.850996 -0.972155 -0.455104 0.903624 0.945547 -1.128074 -0.008899 1.535509 0.554574 -1.040934 -0.408513 -0.061052 0.754186 -0.645115 0.620386 0.494664 0.202687 -1.275020 0.965257 0.458396 0.817458 -0.381027 -0.082664 -0.075350 0.062815 0.161013 -0.662983 -0.324828 0.259427 -0.840140
94 0.224912 -0.224479 -1.492883 -0.379354 0.648703 0.437789 1.173004 0.115422 0.723608 0.484593 -0.005029 -2.485115 -0.553594 0.400668 -0.449572 -0.242527 0.250171 1.224672 0.227313 -0.437565 -0.296788 0.867821 -0.156238 0.088857 -0.598795 -1.339184 -0.454397 0.016670 -0.365469 -0.689097 -0.122493 0.535059
290 0.221531 -0.200808 -1.484977 -0.416992 0.647333 0.406335 1.215103 0.146259 0.715812 0.518996 -0.026215 -2.457525 -0.528949 0.433881 -0.432796 -0.252357 0.245097 1.218816 0.276081 -0.386600 -0.351358 0.855655 -0.257926 0.001993 -0.636245 -1.404410 -0.500233 -0.019446 -0.374295 -0.789995 -0.147685 0.548123
1268 -0.593453 0.379460 -0.243992 -0.020929 -0.176869 0.448213 0.921039 -1.476500 0.362673 0.468775 -1.199509 -1.647351 -0.280887 -0.235733 0.139822 -0.248353 1.329818 -0.158734 0.967159 -0.081602 -0.043042 -0.076733 -0.066420 -0.148626 -0.938440 -1.101324 -0.375905 1.534677 -0.493267 0.412254 0.021221 -0.597907
394 -0.593471 0.390133 -0.207929 -0.003562 -0.228372 0.427920 0.922762 -1.542306 0.388067 0.490162 -1.229314 -1.657674 -0.302752 -0.249276 0.177683 -0.232924 1.297414 -0.153153 1.004174 -0.100257 -0.065904 -0.068825 -0.052278 -0.175485 -0.928193 -1.082206 -0.366977 1.541117 -0.504869 0.404344 0.024868 -0.588229
828 -0.162430 1.090453 -0.724029 -1.304615 -0.118731 -1.040042 0.952362 1.619577 -0.037243 0.560678 -0.521430 -1.896443 0.369719 0.675960 -0.011846 -0.858080 1.137823 0.080125 -0.732059 0.234873 0.351057 -0.154997 -0.762525 0.501703 -1.404614 -0.294905 -0.333624 0.247128 -0.302274 -0.770279 -0.208758 -0.658894
1076 0.130118 -0.932598 -1.118504 0.294685 0.209122 -0.548694 0.983753 0.321310 -0.705683 0.844135 -0.517864 -1.117962 0.197598 -0.048872 -0.551780 -0.941946 0.476335 -0.169498 0.771696 -0.604163 0.806766 -0.352222 1.295985 0.436035 -0.154106 -0.196905 -0.343487 0.212714 -0.120058 0.114656 -1.182546 -0.560615
206 -0.180340 0.205613 -1.166744 -0.894149 -0.847551 -0.134304 0.398562 0.197053 -0.991389 1.083923 -1.002191 -2.012671 -0.251692 -0.357768 0.247782 -0.807303 -0.425789 -0.302891 -0.016157 -0.521833 0.103061 1.240130 -0.349578 0.184502 0.146659 -0.923801 -1.124246 0.540022 -0.979549 0.672356 -0.616981 -0.720609
450 -0.323713 -0.000072 -0.773746 -1.053956 -0.473213 0.761321 0.952303 -1.076711 0.057846 1.527484 0.561933 -1.083910 -0.441985 -0.127875 0.756698 -0.605325 0.694946 0.457919 0.208247 -1.457617 0.992780 0.436375 0.842554 -0.371078 -0.153108 -0.097453 0.015078 0.022914 -0.683695 -0.441325 0.399146 -0.738852
306 -0.101318 1.062498 -0.664303 -1.198813 -0.117588 -1.082368 0.834487 1.581044 -0.057229 0.500926 -0.546515 -1.903931 0.292047 0.706957 -0.053110 -0.848766 1.127948 0.093766 -0.703262 0.201023 0.361939 -0.121283 -0.798513 0.521043 -1.336720 -0.318045 -0.390297 0.290618 -0.242104 -0.691554 -0.251223 -0.647875
775 -0.582051 0.336999 -0.192597 0.059907 -0.219057 0.421158 0.946688 -1.580100 0.434300 0.432866 -1.227119 -1.664956 -0.297641 -0.263034 0.137532 -0.199554 1.298148 -0.131353 0.987526 -0.091830 -0.057439 -0.101175 -0.054201 -0.181146 -0.958758 -1.097046 -0.417876 1.546481 -0.472982 0.420388 -0.022446 -0.598729
844 -1.237472 -0.200751 -0.680665 -0.557362 -0.834286 1.122107 1.347392 0.565183 -1.461461 0.616923 -0.255323 -1.213923 -1.056104 0.315859 -0.880691 -0.183977 1.447346 0.479691 0.776055 0.127587 1.313086 -0.419539 0.410508 0.128255 -1.012970 0.192897 -0.069737 0.783636 -0.112125 0.154658 0.094465 0.449744
270 -0.358170 -0.537919 -0.833986 -0.506985 0.967166 0.084881 0.931076 -0.244717 0.643603 0.339689 0.251908 -0.828164 -0.566761 -0.257910 -0.476780 -0.493830 1.909234 0.040145 -0.063421 0.932102 0.773338 0.516984 -0.735970 0.507506 -0.900475 0.222453 -0.443744 -0.258891 0.348035 0.644159 -0.907486 -0.815966
825 0.210201 -1.103841 -0.835507 -1.119730 -0.097990 0.513660 0.298957 -0.055029 -0.075648 1.054959 -0.980374 -1.867690 0.312025 -0.560614 0.376294 0.115325 0.736230 -0.167051 0.645214 0.207317 1.195941 -1.069195 -0.354516 0.358554 -0.573848 -0.821429 -0.468471 -0.025291 -0.307985 -0.532428 -0.176137 0.877134
909 -0.176430 -0.080855 -0.240938 0.572839 -0.175136 0.050188 0.531185 -0.236795 -0.336718 0.128841 0.016957 -0.574764 0.193227 0.346789 0.288878 -0.254110 1.577476 0.365904 -0.210123 -0.510771 1.131898 0.407223 -0.402885 1.232757 -0.042679 -0.775958 -0.525553 0.451227 -0.748346 -0.706375 -0.272816 -0.367056
249 0.188785 0.697293 -1.176928 -0.200923 -0.356824 1.141314 0.522068 -0.025535 -1.159748 1.391667 -0.046539 -1.506513 0.385287 0.662217 -0.499872 -0.272255 0.610784 0.138352 0.422362 1.412554 0.229249 0.208279 1.484470 0.112936 -1.055526 -1.210471 -1.472416 0.879853 -0.246962 -0.502505 -0.751376 -0.563174
816 0.003980 1.028211 -0.645610 -1.302965 -0.212826 -0.932925 0.716785 1.572696 -0.015324 0.669711 -0.436523 -1.924663 0.360218 0.677047 0.065546 -0.811850 1.081167 0.053205 -0.673346 0.117519 0.274030 -0.103810 -0.673510 0.491593 -1.413047 -0.279978 -0.452089 0.444506 -0.157669 -0.742874 -0.281271 -0.683789
454 0.504969 -1.091477 -1.705237 -0.170575 -0.180152 -0.990286 1.194617 0.388449 0.627064 1.426556 0.337985 -1.385546 -0.139867 -0.217138 -0.296224 -0.240736 0.231060 0.842188 -0.142625 -1.131606 0.731845 -0.408497 -1.081955 1.036028 0.620403 -1.190595 -0.193739 -0.225596 -0.166343 0.084076 -0.062798 -1.223015
202 0.223957 -0.239025 -1.477195 -0.407882 0.656185 0.412059 1.208908 0.148892 0.718048 0.536003 0.015584 -2.443436 -0.558372 0.422512 -0.457482 -0.219760 0.273000 1.249408 0.306164 -0.337881 -0.376278 0.857720 -0.257495 0.022149 -0.659870 -1.345545 -0.457576 0.001432 -0.368766 -0.746625 -0.142665 0.585985
428 0.483875 -1.093944 -1.716824 -0.187528 -0.142873 -1.007678 1.197837 0.395016 0.666614 1.420983 0.314436 -1.355236 -0.114141 -0.234761 -0.245530 -0.218250 0.219204 0.821268 -0.190068 -1.122095 0.760526 -0.400045 -1.015862 1.078650 0.652750 -1.167523 -0.247897 -0.219423 -0.148532 0.087073 0.011948 -1.228994
483 -0.168949 -0.052391 -0.256871 0.575400 -0.186891 0.043344 0.549943 -0.261116 -0.357536 0.062804 -0.022591 -0.626845 0.215286 0.316752 0.298721 -0.273924 1.545709 0.325126 -0.221150 -0.576262 1.112695 0.415509 -0.446002 1.252934 -0.086400 -0.824015 -0.527472 0.377217 -0.712896 -0.711097 -0.385489 -0.251940
34 -0.112102 -0.054709 0.502453 -1.154462 -0.043282 -0.331344 2.247655 0.314730 -0.199054 1.179139 -0.798766 -1.024447 -0.811191 0.988263 -0.207733 -0.147488 0.753471 0.898707 0.614792 -0.405314 1.275238 -0.065390 -0.233788 0.292670 0.295240 -1.026070 0.263811 -0.507067 -1.051540 -0.027903 0.752569 -0.335413
905 -0.245592 -0.054998 -0.264143 0.518723 -0.275444 0.066000 0.551326 -0.230529 -0.329955 0.083754 -0.006741 -0.520869 0.207585 0.336495 0.277577 -0.250182 1.533783 0.363981 -0.236632 -0.618718 1.166562 0.429052 -0.431612 1.201059 -0.044069 -0.818729 -0.487225 0.495475 -0.685499 -0.680140 -0.318522 -0.314541
153 -0.947780 0.088012 -0.586768 0.548671 0.345171 -0.320890 0.963971 0.059821 -0.387155 0.975653 -0.406646 -1.062767 0.054340 0.215581 -0.116164 -1.716839 1.294240 0.549919 0.904056 -0.320941 0.452933 -0.123193 -0.925168 -1.103081 -0.659723 -0.708819 -0.495144 -0.769821 -0.666150 -0.424740 -0.398283 -0.911861
147 -0.029300 0.974647 -0.595662 -1.351289 -0.211480 -0.976088 0.649638 1.616851 -0.020037 0.723788 -0.468396 -1.937086 0.377990 0.676843 0.055977 -0.830380 1.086263 0.094765 -0.708710 0.123530 0.226318 -0.102381 -0.641755 0.508120 -1.458859 -0.304044 -0.432258 0.433027 -0.167682 -0.732249 -0.252339 -0.620661
633 0.442398 0.165103 -1.273322 -0.784153 0.160540 1.104180 0.633323 0.252304 -0.277898 0.768708 -0.103813 -1.554611 0.237198 0.472011 0.043881 -0.113746 0.879709 0.595383 2.119276 0.117661 0.076138 0.566279 0.408914 1.377998 -0.888258 0.859778 -0.313913 -0.053508 -0.015936 1.023398 -0.214407 -0.331887
637 0.406464 0.135829 -1.393367 -0.786662 0.132015 1.145236 0.647578 0.275749 -0.305683 0.756813 -0.099989 -1.503773 0.217714 0.509863 0.030086 -0.164589 0.848501 0.588557 2.111126 0.087848 0.143125 0.613293 0.461290 1.373805 -0.988511 0.814534 -0.359429 -0.020534 0.012702 1.064349 -0.251146 -0.413237
1143 0.395759 0.108529 -1.373402 -0.798174 0.136960 1.154457 0.617961 0.257663 -0.317888 0.767625 -0.097325 -1.489997 0.191207 0.509014 0.012015 -0.169280 0.888928 0.578025 2.118832 0.102970 0.198887 0.566542 0.433735 1.336779 -0.921721 0.824632 -0.336057 -0.046988 0.000429 0.991213 -0.253776 -0.456682
887 0.482306 0.137128 -1.362665 -0.832750 0.139244 1.179648 0.588482 0.275090 -0.260839 0.736940 -0.109857 -1.505468 0.241710 0.503662 0.042822 -0.158247 0.827725 0.647585 2.129971 0.096431 0.174148 0.579832 0.403627 1.336820 -0.872209 0.802479 -0.368138 -0.074701 0.019417 1.065415 -0.262460 -0.410211
662 -0.328870 -0.479774 -0.818874 -0.516696 0.937720 0.159258 0.900079 -0.235839 0.555333 0.330663 0.257720 -0.820117 -0.542692 -0.188228 -0.484864 -0.523828 1.846208 -0.020576 -0.021357 0.987304 0.813970 0.465648 -0.718820 0.487389 -0.974589 0.240314 -0.443710 -0.247031 0.287574 0.627899 -0.984027 -0.822622
889 0.544782 0.127950 -0.544613 -0.447746 -1.239520 0.393241 1.034446 -0.225593 0.068359 0.912724 0.321056 -1.082084 -1.575793 1.168900 -0.165794 0.303855 0.820713 -0.061364 0.923751 0.300129 0.804982 -0.006220 -0.067735 0.422765 0.098893 -0.323734 -0.543518 -0.040245 -0.230574 0.153234 -1.546650 -0.709369
1270 -0.341875 -0.027161 -0.996019 -0.360673 0.645813 0.581079 0.323973 0.074487 0.040281 0.870933 -0.469218 -1.477471 0.249456 1.179773 -0.073411 0.537552 0.118257 -0.756865 0.140618 -0.176404 0.966551 1.139314 0.197661 1.594079 -1.362213 -0.913315 -0.069499 -0.094185 0.143178 -0.338381 0.692463 -0.695627
205 0.015772 0.026441 -1.372328 -0.571703 -0.337573 0.917592 -0.496096 0.283934 -0.159305 0.219029 -0.396761 -0.345195 -0.855401 -0.055104 -0.167309 -0.700241 1.091310 -0.227973 0.512079 -0.203747 1.616304 0.361291 0.451318 0.725933 -0.086617 -0.556105 -0.890922 0.940274 0.309222 0.755001 -0.380376 -1.878702
1029 -0.307829 -0.271508 -0.344930 -1.363429 0.902086 0.745568 1.686316 -0.224419 -0.774645 0.768557 -0.887868 -0.539968 0.740392 -0.270328 0.624700 -0.298985 0.294923 1.182651 0.923894 0.074698 0.144120 0.694768 -0.093587 0.479683 -1.065124 -0.839043 -0.616003 0.224765 -1.452994 -0.427031 -0.840573 -0.448644
212 -0.309603 -0.563962 -0.817133 -0.517373 0.893975 0.148402 1.027837 -0.291222 0.650348 0.343414 0.324142 -0.941153 -0.483947 -0.289956 -0.451281 -0.587432 1.926618 0.103603 -0.109409 0.930518 0.792947 0.420510 -0.606472 0.438413 -0.854995 0.302186 -0.345597 -0.166523 0.326723 0.647325 -0.888032 -0.692731
1041 0.605935 0.180369 -0.543747 -0.477105 -1.273302 0.333867 1.041273 -0.173857 0.041006 0.867054 0.327777 -1.096723 -1.610308 1.196957 -0.150751 0.281182 0.887112 -0.179503 0.934192 0.379097 0.818248 -0.021339 -0.072573 0.403393 0.019036 -0.272999 -0.521233 -0.085096 -0.220979 0.116260 -1.559992 -0.714609
781 -0.091986 -0.050198 -0.504230 -1.416351 -0.488387 -0.578455 1.930433 0.147083 0.345833 0.072285 -0.304048 -0.367721 -0.405670 -0.065880 -0.743569 0.077237 1.596926 -0.012516 0.407957 -1.238563 0.534235 -0.414590 0.399328 0.369564 -0.326994 0.218496 -0.317098 1.045494 -1.182153 0.100042 -0.470657 -1.724691
676 -0.770791 -1.613463 -1.452321 -0.779613 -0.500419 -0.018575 0.476992 0.606694 -0.302501 0.355439 0.011685 -0.773212 -1.301905 0.038263 0.887242 -0.318624 0.768048 0.553158 -0.053505 -0.122826 0.432063 -0.545883 0.350938 0.056493 -1.188132 -1.333141 0.144168 0.202996 -0.313388 -0.296160 -0.375477 -1.193438
882 -0.151959 -0.197690 -0.990172 -0.496352 -0.067220 0.291948 0.950711 0.022048 -0.196302 0.871265 -0.372796 -1.241600 -0.309093 0.219964 0.005471 -0.589568 1.139527 0.170564 0.502940 -0.317966 0.869649 0.200830 -0.035231 0.654237 -0.478708 -0.621155 -0.543552 0.311113 -0.373663 -0.040065 -0.310148 -0.945594
767 -0.102831 -0.148612 -0.421897 -1.419686 -0.433835 -0.623816 1.798764 0.071244 0.343121 0.083287 -0.345439 -0.389998 -0.407489 -0.019522 -0.769660 0.100540 1.481867 0.163534 0.402208 -1.247682 0.455358 -0.432300 0.376993 0.258077 -0.359948 0.150734 -0.383369 1.190103 -1.247027 0.085375 -0.538793 -1.784255
349 -0.309848 -0.245791 -0.312120 -1.377703 0.930597 0.720840 1.647350 -0.179575 -0.785231 0.764285 -0.868307 -0.526406 0.744482 -0.285745 0.613822 -0.356184 0.276714 1.172127 0.952365 0.092322 0.130811 0.677606 -0.092399 0.489104 -1.062428 -0.794527 -0.623567 0.223466 -1.464323 -0.464833 -0.912099 -0.458917
365 0.068830 -0.028124 -1.419779 -0.509940 -0.392236 0.887015 -0.432664 0.317582 -0.137131 0.242662 -0.401949 -0.316398 -0.904842 -0.018029 -0.087725 -0.651390 1.105846 -0.282879 0.459122 -0.226592 1.637681 0.348640 0.423873 0.828793 -0.009856 -0.488294 -0.865005 0.911188 0.323691 0.801569 -0.361834 -1.889633
1100 -0.091284 -0.102265 -0.447123 -1.431245 -0.450562 -0.577946 1.865525 0.115726 0.356919 0.048873 -0.335836 -0.353536 -0.390376 -0.033388 -0.763021 0.102687 1.499582 0.071134 0.421200 -1.261448 0.509785 -0.422316 0.378658 0.332559 -0.337148 0.167503 -0.296789 1.103415 -1.207874 0.096137 -0.502189 -1.689631
413 -0.338760 -0.447872 -0.857010 -0.556398 0.951425 0.119967 0.919546 -0.276659 0.590917 0.385789 0.311622 -0.793180 -0.549243 -0.216648 -0.507733 -0.566716 1.860320 0.027109 -0.050772 0.949356 0.805555 0.529981 -0.699884 0.472719 -0.928571 0.279905 -0.382260 -0.222537 0.281142 0.563706 -0.988888 -0.842131
80 0.210299 -0.254366 -1.494217 -0.402470 0.606760 0.475201 1.225175 0.079433 0.753358 0.572100 -0.038292 -2.457009 -0.533826 0.417136 -0.398183 -0.226887 0.223669 1.222634 0.314700 -0.426103 -0.354448 0.867180 -0.267350 0.020535 -0.615707 -1.375239 -0.484508 -0.033676 -0.358673 -0.760545 -0.043449 0.530608
851 0.104037 -0.876541 -1.187966 0.327534 0.197523 -0.573831 0.989459 0.332832 -0.696061 0.808358 -0.553391 -1.116459 0.189094 -0.086399 -0.512316 -0.908846 0.458006 -0.149385 0.794174 -0.578846 0.786059 -0.378229 1.261781 0.376757 -0.172436 -0.211077 -0.318687 0.256110 -0.127441 0.127901 -1.241697 -0.568699
973 -0.170780 -0.099693 -0.201115 0.525137 -0.243093 0.020300 0.570985 -0.228146 -0.336735 0.048715 -0.025100 -0.577009 0.177535 0.367321 0.296850 -0.265606 1.540992 0.348566 -0.236891 -0.658063 1.164709 0.374330 -0.457150 1.194786 -0.058618 -0.833438 -0.492237 0.410236 -0.650927 -0.655599 -0.287040 -0.308520
552 -0.879660 0.373215 -1.132430 -1.300378 -0.060037 -0.619954 1.114429 0.294129 0.220808 0.936204 0.049950 -1.655777 0.398641 0.671321 -0.137260 -0.008957 0.279630 0.354933 0.757629 0.152759 0.742582 -0.327117 0.907253 0.031257 0.090647 -0.716694 -1.217590 -0.470582 0.932555 0.486448 0.462813 -1.399439
841 -0.111780 -0.098749 -0.441231 -1.406947 -0.463203 -0.572981 1.873726 0.132080 0.358075 0.088960 -0.348520 -0.386692 -0.408427 -0.043294 -0.744795 0.067880 1.514511 0.074105 0.434101 -1.235696 0.528659 -0.437892 0.370071 0.362234 -0.320435 0.182870 -0.320960 1.069186 -1.183813 0.096446 -0.479604 -1.691791
106 -0.251493 -0.576839 -0.822455 -0.458330 0.882515 0.150471 1.045983 -0.215555 0.619794 0.321118 0.353145 -0.961837 -0.443828 -0.245967 -0.496113 -0.556456 1.874445 0.085373 -0.129429 0.939953 0.765316 0.416852 -0.565929 0.471328 -0.850623 0.240742 -0.387696 -0.210623 0.332571 0.641000 -0.961992 -0.676690
119 0.115580 -0.882381 -1.148907 0.342913 0.177774 -0.527567 1.026214 0.296371 -0.691049 0.793588 -0.557728 -1.159006 0.182587 -0.074612 -0.523407 -0.910087 0.429970 -0.180516 0.757657 -0.570053 0.762888 -0.341728 1.239072 0.416079 -0.143332 -0.206017 -0.358208 0.250713 -0.058966 0.149536 -1.179294 -0.561700
315 -0.199738 -0.033768 -0.264104 0.594805 -0.289602 0.024582 0.579423 -0.233950 -0.299098 0.088366 -0.054723 -0.532231 0.198054 0.333271 0.258280 -0.199858 1.522277 0.360020 -0.199443 -0.605388 1.154784 0.395918 -0.420711 1.241680 -0.022555 -0.805045 -0.553005 0.446723 -0.725893 -0.679949 -0.329102 -0.318036
381 0.114575 -0.923442 -1.182748 0.342475 0.195615 -0.514372 0.999624 0.330419 -0.688366 0.790384 -0.518638 -1.133991 0.186875 -0.085946 -0.503624 -0.919373 0.507292 -0.196140 0.752039 -0.592898 0.802753 -0.353736 1.247723 0.412994 -0.152634 -0.197227 -0.344182 0.260588 -0.068787 0.145914 -1.212619 -0.563054
446 -0.493622 0.426763 -0.518643 -1.614154 1.100677 1.276023 0.885717 0.271222 -0.317963 0.450247 -0.546489 -1.257116 -0.629047 0.554187 1.053012 0.425350 1.272871 -0.310430 -0.424578 -0.376211 1.021435 -0.287219 -0.335482 0.457163 -0.647889 -0.337231 -0.143374 0.831378 -0.875356 0.997894 0.078006 -0.533728
177 0.718510 0.174290 -0.596855 -0.782960 0.552554 -0.085926 0.342186 -0.539458 -0.244311 0.721241 -1.769244 -1.317957 -0.897823 0.794144 -0.797452 -0.125906 0.857615 0.646748 0.218102 -0.348539 1.430616 -0.025136 0.362949 1.095302 0.020411 0.437671 -1.526389 0.001867 -1.062421 0.670873 -0.124800 -0.361596
1273 -0.124491 -0.154074 -1.044653 -0.456557 -0.084090 0.231738 0.976501 -0.008695 -0.164933 0.899387 -0.347649 -1.265287 -0.286575 0.202170 -0.076737 -0.527024 1.145375 0.168823 0.558487 -0.250648 0.943334 0.119350 -0.007980 0.613834 -0.533129 -0.700094 -0.546477 0.288493 -0.382123 -0.040840 -0.325243 -0.868073
785 -0.193932 0.168810 -1.176009 -0.870553 -0.818252 -0.149166 0.391735 0.204534 -0.979738 1.050761 -0.949528 -1.949223 -0.237242 -0.325077 0.220810 -0.754906 -0.386763 -0.225432 -0.078780 -0.491838 0.103417 1.280323 -0.392224 0.201067 0.138260 -0.996185 -1.087113 0.530437 -0.969472 0.667905 -0.625830 -0.761615
989 -0.236644 -0.010531 -0.274764 0.644779 -0.238654 0.075218 0.590481 -0.247430 -0.248991 0.087829 -0.020915 -0.555115 0.144645 0.312070 0.303320 -0.204600 1.550646 0.320484 -0.255565 -0.597295 1.165397 0.406148 -0.430995 1.148979 -0.037998 -0.767626 -0.535064 0.444108 -0.672312 -0.625257 -0.380988 -0.354823
114 -0.117762 -0.181031 -0.899267 -0.470224 -0.081046 0.286563 0.839323 0.031556 -0.169733 0.798822 -0.353703 -1.142925 -0.279477 0.205191 0.016791 -0.560114 1.057146 0.133320 0.463826 -0.280629 0.749781 0.215251 -0.012940 0.618527 -0.417404 -0.533882 -0.498380 0.289529 -0.317282 0.018138 -0.275896 -0.869719
361 -0.305296 -0.424624 -0.841834 -0.572373 0.921136 0.146951 0.908239 -0.357021 0.664339 0.409349 0.268126 -0.904913 -0.474795 -0.303347 -0.492615 -0.586129 1.901778 0.065368 -0.121404 0.925089 0.801277 0.509133 -0.709548 0.554657 -0.887083 0.243054 -0.359908 -0.284728 0.293686 0.690292 -0.877613 -0.800010
186 0.188836 -1.132390 -0.816720 -1.066202 -0.108541 0.509120 0.347031 -0.096596 -0.102173 1.055534 -0.917098 -1.897002 0.291559 -0.516453 0.435987 0.153087 0.799314 -0.128033 0.664155 0.184650 1.256212 -1.096990 -0.289743 0.317604 -0.517567 -0.816727 -0.432209 0.003554 -0.347211 -0.546030 -0.149692 0.910340
1090 -0.362623 0.592809 -0.542285 -0.290049 0.463370 0.120159 1.134795 0.079729 0.055259 1.656529 -0.862616 -0.456120 -0.958069 1.122757 -0.882500 0.604263 1.210544 -0.121416 0.186123 0.331342 -0.133580 0.716222 -1.161162 -0.052153 -1.827106 -1.598363 -1.055326 0.150586 -1.105980 -0.001637 -0.194310 -0.591325
568 -0.178260 0.234170 -1.179505 -0.908004 -0.829230 -0.109459 0.382674 0.186129 -0.980156 1.109113 -0.948418 -1.978123 -0.220310 -0.350782 0.234123 -0.796653 -0.440849 -0.237534 -0.048005 -0.500153 0.066523 1.295746 -0.343940 0.232427 0.157309 -0.949593 -1.081927 0.493441 -1.000300 0.637413 -0.621125 -0.718022
43 -0.528796 0.425208 -0.511549 -1.659603 1.191998 1.251860 0.924310 0.271829 -0.277146 0.490712 -0.549225 -1.253192 -0.665978 0.584605 1.071753 0.447224 1.291293 -0.276278 -0.418111 -0.388675 1.012599 -0.271507 -0.274857 0.456961 -0.682571 -0.297348 -0.131344 0.839044 -0.894926 1.050261 0.099013 -0.532103
508 -0.929156 0.414040 -1.164423 -1.217317 -0.093203 -0.591231 1.068581 0.305857 0.146644 0.913929 0.093605 -1.715482 0.349927 0.748624 -0.119575 0.017943 0.184892 0.392144 0.729299 0.165047 0.702097 -0.292193 0.870988 0.006044 0.070573 -0.686717 -1.265953 -0.577571 0.847457 0.548768 0.427472 -1.454757
923 -0.110409 -0.148474 -0.991031 -0.451279 -0.084540 0.232400 0.962634 0.009086 -0.155720 0.863273 -0.344919 -1.235312 -0.258458 0.214165 -0.065459 -0.510041 1.099347 0.163605 0.553738 -0.257911 0.933672 0.107243 -0.023432 0.592478 -0.529432 -0.672094 -0.526933 0.266808 -0.361319 -0.044295 -0.321749 -0.841524
36 -0.350672 -0.086493 -0.933064 -0.368698 0.625329 0.539397 0.330548 0.130374 -0.017157 0.848125 -0.484648 -1.557495 0.170768 1.219860 -0.081619 0.532172 0.079720 -0.731898 0.169030 -0.247224 1.027595 1.047578 0.279043 1.541231 -1.351820 -0.963232 -0.020311 -0.122454 0.155255 -0.300049 0.654471 -0.648299
340 -0.152877 -0.083707 -0.232587 0.544649 -0.210699 0.037972 0.581523 -0.287490 -0.297027 0.080981 -0.005666 -0.508793 0.130844 0.367732 0.266547 -0.222946 1.611885 0.380829 -0.186689 -0.587082 1.060153 0.448192 -0.440073 1.191804 0.010326 -0.862734 -0.549821 0.526954 -0.695085 -0.634044 -0.397576 -0.310044
1171 -0.198780 -0.032497 -0.294167 0.540793 -0.117318 0.061170 0.492438 -0.237033 -0.353481 0.106327 -0.013524 -0.555076 0.195503 0.319034 0.324325 -0.232512 1.610937 0.363364 -0.240217 -0.517489 1.153114 0.373006 -0.442505 1.246477 -0.046031 -0.735551 -0.534656 0.400546 -0.755700 -0.705333 -0.256876 -0.321010
155 -0.221476 0.197326 -1.176583 -0.859396 -0.813599 -0.147446 0.370594 0.208353 -1.037225 1.071449 -0.931410 -1.954032 -0.221945 -0.348439 0.274246 -0.823452 -0.397558 -0.250209 -0.093090 -0.513401 0.087709 1.319407 -0.348215 0.241152 0.167436 -0.921233 -1.099287 0.504665 -0.992075 0.662598 -0.612398 -0.757494
40 -0.181960 -0.042105 -0.300339 0.617247 -0.184655 0.099771 0.566046 -0.258981 -0.269390 0.067463 -0.000630 -0.559611 0.116166 0.304385 0.275030 -0.201708 1.587894 0.343374 -0.183427 -0.560406 1.146129 0.354259 -0.396454 1.139958 -0.037768 -0.786052 -0.569653 0.433217 -0.685666 -0.624585 -0.340833 -0.438701
342 -0.198768 -0.156547 -1.039838 -0.510521 -0.047101 0.349728 1.033398 -0.054310 -0.202316 0.990581 -0.477193 -1.407290 -0.204565 0.162813 0.047159 -0.599081 1.303849 0.173080 0.614343 -0.354673 0.998262 0.130683 0.074957 0.658082 -0.569627 -0.700560 -0.636767 0.346035 -0.501817 -0.003488 -0.389036 -0.940439
716 -0.128382 -0.154377 -0.938284 -0.377995 -0.142441 0.262641 0.882110 0.002923 -0.164650 0.810375 -0.489123 -1.218400 -0.273941 0.170552 -0.006037 -0.552866 1.164159 0.050337 0.526298 -0.370973 1.043348 0.100153 -0.007721 0.517341 -0.588276 -0.654917 -0.526783 0.346298 -0.315933 0.145328 -0.356522 -0.821125
713 1.255947 1.432952 -0.762570 -0.183551 0.129219 0.598994 1.676703 -0.280649 0.459910 1.191657 -0.492961 -2.165852 0.977227 0.155560 0.151566 -1.161313 -0.252577 -0.610055 0.526052 -0.198785 0.813762 0.385416 -0.196091 0.096919 -0.313991 -1.349064 -1.167140 -1.259273 -0.751464 -0.445796 0.163462 -0.823711
1060 -0.452888 0.403202 -1.973473 -0.267028 -0.655766 -0.066219 0.413704 1.175903 -0.026526 2.050333 -0.645116 -0.808446 -0.207941 -0.299525 -0.027610 -1.199860 0.518403 -0.183054 0.872426 0.164525 0.732940 0.091635 -0.925633 0.836293 -1.312721 -1.075197 1.030843 -0.468631 0.594008 -0.324443 1.252489 -1.461769
1062 -0.108049 -0.189832 -1.241855 -0.586522 -0.086315 0.337257 1.130550 -0.032990 -0.297500 1.000317 -0.461751 -1.469938 -0.353831 0.297006 -0.038158 -0.643001 1.428249 0.092168 0.618248 -0.273777 1.102933 0.157127 -0.046452 0.666127 -0.707756 -0.874729 -0.685051 0.448563 -0.493799 0.062838 -0.467262 -1.172890
296 -0.209127 -0.225629 -0.794935 -0.577295 -0.036385 0.105966 1.208985 -0.053001 -0.014688 0.989146 -0.374363 -1.603855 0.054105 0.378379 -0.167002 -0.325739 0.916898 0.111979 0.404501 -0.191814 0.589860 -0.077802 -0.155233 0.611118 -0.856895 -0.756228 -0.350221 -0.049586 -0.391577 -0.418099 0.083652 -0.732272
295 0.739307 0.213526 -1.882334 -0.726702 0.649708 -0.305208 1.542170 -0.314298 -0.823077 0.410752 -0.253485 -0.324158 0.585536 0.328150 -1.175485 -0.739865 0.801096 -0.581159 -0.705452 0.349973 0.846226 -0.057949 -1.028535 0.302169 -1.757512 -2.117037 -0.413922 -0.555408 0.033753 0.231857 0.032631 -1.396942
1129 0.483502 1.127891 -0.411955 -0.248377 -0.622694 -0.366541 0.619298 0.994672 -0.478855 1.288596 -0.080054 -1.137415 -0.732840 0.839542 -0.298316 -0.618890 0.751309 -0.172116 1.572377 -0.308992 1.326421 0.192482 -1.229582 0.474548 -0.906669 0.477068 -1.931798 -0.935873 -0.482704 -0.153768 0.533100 -1.421930
1080 -0.188905 -0.175033 -1.358945 -0.505422 -0.090074 0.404511 1.306712 -0.072307 -0.263507 1.171206 -0.554510 -1.696430 -0.401624 0.258063 -0.105094 -0.755722 1.539676 0.217756 0.823586 -0.324904 1.288774 0.242578 0.010405 0.717682 -0.746623 -0.888165 -0.720033 0.369474 -0.483115 -0.051489 -0.491607 -1.138417
1127 -0.782627 -0.254441 -1.371995 -0.387091 1.004431 -0.291831 1.054328 1.303794 0.294392 0.290483 -0.139797 -0.743531 0.066178 -0.246917 -0.353574 -0.796104 0.602346 0.359451 1.226789 -0.327715 0.454654 1.064205 -0.338094 1.983070 -0.069192 -0.220730 -0.221695 0.791523 -0.156949 -0.297784 0.920201 -2.587258
274 -0.187745 -0.103239 -0.885630 -0.557704 0.222894 0.015672 0.635139 0.345327 -0.153984 0.789348 -0.570270 -1.092701 -0.370719 0.116159 -0.155611 -0.443870 1.137818 0.096352 0.160817 0.054231 1.139311 0.095380 -0.507082 0.905072 -1.028688 -0.690004 -0.575963 -0.161327 -0.173822 -0.295558 0.220668 -1.003999
18 -0.526609 0.178915 -0.944155 -1.489501 0.115048 0.543389 1.457878 -0.387066 1.131606 1.755058 -0.437266 -0.415921 0.480449 -0.121229 -0.509991 -1.448028 -0.051770 -0.298639 1.342020 0.177421 0.461606 1.071198 -0.965813 -0.609148 -0.953101 -0.898487 -0.721965 0.048497 -0.212510 0.711871 0.184384 -1.676838
1236 -0.408021 0.111747 -1.261418 -0.233975 -0.208377 0.570391 0.894600 -0.364922 -0.122704 0.778117 -0.487563 -0.992306 -0.389880 0.089085 0.167483 -0.276421 1.461007 0.265976 0.418470 -0.060016 0.948902 0.273559 0.091969 0.503126 -0.675317 -0.513161 -0.763971 0.518249 -0.479636 0.279815 -0.462921 -0.930727
444 -0.519358 0.212320 -0.948729 -1.500429 0.160116 0.527063 1.502855 -0.373667 1.159256 1.738539 -0.419238 -0.389222 0.493554 -0.101873 -0.561345 -1.467994 -0.001287 -0.267679 1.318465 0.133184 0.478492 1.095113 -0.978112 -0.589841 -0.914318 -0.895893 -0.764001 0.066978 -0.208999 0.756882 0.274785 -1.655619
1245 -0.309061 -0.117833 -1.060494 -0.983438 -0.040761 0.459060 0.993095 -0.155286 0.088483 0.959557 -0.469585 -1.250146 -0.263497 0.361523 0.040967 -0.403416 1.163503 0.289256 0.603102 -0.048642 0.702284 0.486132 -0.521604 0.660892 -0.842288 -1.063296 -0.709348 0.233858 -0.447729 -0.123839 0.091708 -0.965405
335 -0.442008 0.131057 -0.808135 0.421316 0.411090 0.932528 1.254376 -0.744913 1.541630 0.774588 -0.226971 -1.418881 -0.616581 0.051108 0.001577 -0.914141 0.159945 0.547872 0.448487 1.080623 0.327147 -0.818005 0.262919 1.204341 -0.287737 -0.844127 -1.041799 -0.533455 -1.834290 -0.048172 -0.511582 -1.162556
91 -0.205437 -0.267383 -0.776466 -0.555297 -0.049061 0.116610 1.189297 -0.030774 -0.023202 0.982861 -0.348895 -1.570710 0.037583 0.347043 -0.182800 -0.342072 0.891021 0.140968 0.383756 -0.210819 0.632261 -0.089693 -0.131089 0.625115 -0.794207 -0.768893 -0.351124 -0.040184 -0.378830 -0.385006 0.011001 -0.738161
747 -0.364894 -0.504218 -1.806482 0.125440 0.582325 0.804616 2.163251 1.288659 0.307179 1.338145 0.133314 -1.661280 0.361419 -0.604568 -0.402146 -0.254950 0.452133 -0.830981 0.662818 1.036719 -0.154209 -0.938658 -0.001226 1.913688 -1.007059 -0.325771 -0.210389 0.332512 0.352184 -0.834032 -0.450966 -0.504439
748 1.103704 -0.639047 -1.625868 -0.656289 0.449131 1.124259 0.876956 0.811136 0.314554 0.527526 -1.165241 -0.351858 -0.483659 0.143507 -0.765844 -0.657055 0.567995 -0.831505 1.118496 1.071802 0.598140 -0.353764 -1.094509 0.452512 -1.166448 0.024741 -1.364049 0.725807 -0.930623 -0.407180 0.535371 -1.341452
232 0.059566 0.971628 -2.198997 -0.402946 0.405461 0.676941 0.986427 -0.701618 -0.361374 1.540603 1.048835 -0.297077 0.059313 1.041162 0.643453 -0.130030 2.191988 0.024405 0.189696 0.070364 0.657898 -0.826924 -0.174313 0.818935 -0.691915 -0.621435 -0.269078 -0.707498 0.395520 -0.492038 0.879781 -0.861799
1198 0.543645 0.737753 -1.352601 -1.118013 1.033128 -1.050777 0.608713 0.505029 0.965695 1.401468 -1.011712 -0.931261 -0.416393 -0.451324 0.244288 -1.879789 1.783659 -0.604216 -0.377059 -1.064705 1.023478 -0.066444 -0.418511 0.365937 0.111068 -0.171126 -0.855280 -0.113270 -0.513754 0.555757 0.762691 -0.944639
1059 -0.106376 -0.198539 -1.276347 -0.536273 -0.092461 0.358500 1.094827 -0.017626 -0.335377 0.963817 -0.476468 -1.437055 -0.372385 0.286206 -0.058411 -0.650245 1.453654 0.065401 0.613443 -0.280951 1.111951 0.156048 -0.002550 0.690063 -0.708358 -0.844717 -0.707179 0.476820 -0.479514 0.064899 -0.477149 -1.193924
613 -0.187136 -0.192535 -1.119199 -0.501294 -0.096713 0.294859 1.123036 0.045876 -0.189388 0.953506 -0.392377 -1.427302 -0.341477 0.238236 -0.073548 -0.588747 1.236544 0.174429 0.597714 -0.254434 1.073711 0.137078 -0.039426 0.653756 -0.635000 -0.753481 -0.580479 0.272372 -0.394983 -0.054745 -0.371398 -0.981502
1272 -0.308865 -0.060126 -0.890076 -0.535951 0.127960 0.195229 1.252700 -0.039157 0.060960 1.016508 -0.256674 -1.392004 -0.160991 0.183193 -0.082870 -0.434937 0.875426 0.336489 0.603707 -0.166686 0.749252 -0.034089 -0.088381 0.276802 -0.867581 -0.726484 -0.396008 -0.005388 -0.635456 -0.350760 -0.215992 -0.818560
1284 0.586364 0.817432 -1.389796 -1.136736 0.977081 -1.060051 0.501672 0.528523 0.926022 1.410082 -1.013000 -0.933238 -0.360344 -0.433991 0.278797 -1.942445 1.795640 -0.606683 -0.409935 -1.037872 1.064445 -0.094807 -0.465864 0.431224 0.098250 -0.175549 -0.852789 -0.131804 -0.486629 0.576782 0.761649 -0.958184
1288 -0.344164 -0.048552 -1.077950 -0.596551 -0.044721 0.193129 1.136004 -0.162958 -0.039870 0.922237 -0.513595 -1.384543 -0.238579 0.094571 -0.118454 -0.548790 1.083338 0.338757 0.508471 -0.238062 0.877254 0.177075 0.012662 0.384928 -0.735880 -0.839031 -0.613260 0.064288 -0.434252 -0.009185 -0.290288 -0.734764
26 0.120986 0.757661 -1.593217 -0.186679 -0.393485 0.068483 -0.016101 -0.196967 -0.167916 0.808992 -0.146003 -0.482298 -0.216733 -1.013119 -0.908091 -0.200934 0.649228 1.130542 1.386353 0.700785 0.567386 -0.752346 -0.110022 1.555831 -1.395118 -1.159552 -0.129469 1.194396 -1.492918 -0.295876 -0.720951 -0.879913
937 -0.466425 0.384084 -1.993224 -0.272112 -0.655716 -0.132376 0.372877 1.227387 -0.026361 2.120922 -0.690000 -0.813138 -0.184470 -0.325372 -0.013676 -1.215474 0.562950 -0.162580 0.857473 0.081954 0.730425 0.080328 -0.894343 0.844894 -1.305260 -1.085951 1.025847 -0.464837 0.563965 -0.295272 1.347780 -1.515865
88 -0.062459 -0.312780 -0.802401 -0.810614 -0.087792 0.242705 1.171986 0.182434 -0.081885 1.133890 -0.108750 -1.454644 -0.201788 0.391886 -0.110136 -0.242622 1.042457 0.171843 0.721698 0.014969 0.714068 0.388597 -0.572534 0.486223 -0.739920 -0.787321 -0.500860 -0.269437 -0.109947 -0.189249 -0.031217 -0.622682
395 0.598780 0.590253 -0.479517 -0.860527 0.120898 0.590647 1.365603 -0.609577 0.437088 1.276387 -0.920303 -2.145330 -0.588002 -0.725608 -0.554425 -0.454702 0.084372 -1.195213 1.729506 0.336180 0.190542 -0.123855 -0.793114 0.799522 -0.658701 0.113837 0.405599 -0.708498 -0.251762 0.279855 -0.397939 -1.880018
586 0.332818 -0.024266 -1.824996 -0.531476 1.128577 -0.776480 1.245797 0.675402 -0.703538 0.916823 -0.389374 -1.351742 0.213744 -1.370649 -0.834031 -0.739154 0.209745 -0.129827 -0.331804 -0.203957 1.096970 1.099358 -0.318913 0.809865 -1.399217 0.037657 0.770500 0.114506 -1.070464 -0.828933 -0.399832 -1.533556
582 0.324048 -0.013769 -1.746972 -0.495438 1.109234 -0.738413 1.237839 0.666389 -0.689629 0.943912 -0.332958 -1.336085 0.210511 -1.334858 -0.871210 -0.759896 0.230156 -0.132966 -0.318693 -0.255092 1.061549 1.126760 -0.367718 0.827788 -1.399024 0.017360 0.788348 0.146568 -1.056492 -0.812899 -0.408023 -1.567074
246 0.127192 0.184663 -1.126111 -0.588395 -0.111717 0.272387 0.512281 0.555948 -0.473016 2.373355 -0.081410 -1.423694 -1.028646 -0.672242 -0.756048 -0.496796 1.275914 0.382135 0.103255 0.629918 0.306456 -0.187205 -1.654998 0.966034 -0.269082 -0.461839 0.033242 0.487887 -0.725953 1.421792 0.490817 0.057596
514 -0.129739 -0.045973 -0.828163 -0.773244 -0.057349 0.135774 1.060006 -0.232267 0.048534 1.143298 -0.272892 -1.459786 -0.367874 0.336940 -0.092647 -0.295201 1.052778 0.456315 0.467666 -0.157159 0.739328 0.265526 -0.312757 0.309251 -0.673728 -1.016625 -0.512259 0.149084 -0.620683 -0.079613 -0.182265 -0.867679
624 -0.204986 -0.187794 -1.056597 -0.553233 -0.049569 0.327628 1.068940 0.029009 -0.177592 0.995011 -0.446361 -1.358684 -0.239825 0.183355 0.011053 -0.579180 1.301130 0.192759 0.614169 -0.335569 0.981598 0.105772 0.038183 0.665210 -0.598165 -0.716641 -0.586233 0.271514 -0.451679 -0.020038 -0.330772 -0.907131
1228 -0.242272 -0.116008 -0.880745 -0.858169 0.396341 0.006756 0.615062 0.297279 -0.046335 0.553278 -0.453818 -1.343488 -0.426991 0.284912 -0.169876 -0.387889 1.019410 0.381773 0.291130 0.111187 0.630990 0.029346 -0.546222 0.654154 -0.868256 -1.035066 -0.358644 -0.167526 -0.415562 -0.242647 -0.028302 -0.689704
974 -0.658040 -0.025659 -1.740271 -0.447616 -0.739682 -0.133393 2.104272 -0.173587 -0.301121 0.786379 -0.870694 -0.812739 0.307127 -0.082570 0.569684 -0.552836 0.485552 -0.514825 0.856126 0.053107 0.276861 -0.303832 -0.285222 -0.070299 0.209751 -1.514463 -1.170776 0.403822 -0.623822 -1.852486 1.050952 -0.319272
1148 -0.143802 -0.109189 -1.082162 -0.613904 -0.002948 0.288691 0.952047 -0.045442 -0.166432 0.964216 -0.368674 -1.342283 -0.173588 0.326817 -0.123854 -0.629228 1.092507 0.282307 0.619488 -0.230188 0.890853 0.219733 -0.083979 0.498997 -0.647212 -0.759351 -0.536654 0.137497 -0.406189 -0.030927 -0.366691 -0.872444
16 0.035975 0.076492 -1.247430 -0.988174 0.296128 -0.192780 1.552329 0.564394 0.021715 1.367694 -0.477805 -1.456350 -0.113664 0.197076 -0.140604 -0.702901 0.771690 0.004393 0.224419 -0.208147 0.748878 0.121848 0.073786 0.415440 -0.865217 -0.717833 -0.099154 -0.543777 -0.547207 -0.319893 -0.290029 -0.711268
881 0.309817 -0.191751 -0.934527 -0.855998 1.311663 -1.042588 1.488463 -0.260844 0.484956 1.238190 -0.857105 -1.985330 1.901660 -0.280946 0.380379 -0.412687 1.015044 -0.701824 -0.209526 -0.516669 0.024704 0.708396 -0.236772 1.052760 -0.383043 -0.965453 -0.115193 -0.014796 -0.501931 0.839404 -0.596147 -0.458481
884 0.447786 -0.455469 -1.115618 -2.003680 -0.027047 -0.643812 0.183560 0.754821 0.602745 1.434811 -0.821261 -0.248028 0.352457 0.720179 0.060336 -0.046736 1.588206 0.862810 0.109394 0.329248 1.643330 1.255134 -0.912520 0.931505 0.294819 -0.899485 -0.125770 -0.073163 -0.398125 1.227045 0.549975 -1.489128
320 -0.151194 -0.201483 -1.084161 -0.509325 0.013836 0.212825 1.023163 0.024236 -0.190909 0.926887 -0.459618 -1.379497 -0.383073 0.222458 0.033922 -0.556641 1.048747 0.220346 0.471118 -0.256622 0.934950 0.039741 -0.101856 0.517729 -0.604112 -0.785861 -0.561812 0.246730 -0.474484 -0.044957 -0.353441 -0.886840
324 -0.067180 -0.301612 -0.807892 -0.774516 -0.073529 0.243029 1.142639 0.167369 -0.083089 1.120808 -0.125713 -1.427660 -0.168170 0.374967 -0.123017 -0.210824 1.068061 0.155906 0.716997 0.071249 0.734093 0.383188 -0.576487 0.523047 -0.698691 -0.771996 -0.522256 -0.237925 -0.104218 -0.163438 -0.038216 -0.633134
75 -0.331135 -0.495032 -1.815750 0.117662 0.585356 0.788157 2.171525 1.315569 0.306910 1.281006 0.152223 -1.669753 0.403293 -0.545633 -0.409574 -0.289484 0.486513 -0.860280 0.640204 1.064126 -0.103036 -0.965972 -0.035296 1.933496 -1.051374 -0.373749 -0.254085 0.307776 0.365084 -0.816831 -0.428086 -0.460335
1047 -0.147335 -0.242077 -1.302871 -0.563587 -0.074328 0.345638 1.159072 -0.028607 -0.290261 1.111599 -0.449756 -1.583347 -0.298093 0.221080 0.003403 -0.653193 1.455679 0.177953 0.677378 -0.374995 1.247437 0.160312 -0.017219 0.771628 -0.681099 -0.792140 -0.701005 0.417335 -0.483391 -0.022161 -0.469594 -1.107501
663 -0.188817 -0.209177 -1.449819 -0.675851 -0.082021 0.328589 1.373316 -0.006400 -0.270538 1.260457 -0.525824 -1.772111 -0.382997 0.316513 -0.060037 -0.743157 1.564334 0.233052 0.780577 -0.391811 1.291031 0.201413 -0.033943 0.830075 -0.757731 -0.937619 -0.741236 0.363823 -0.536495 -0.028970 -0.518029 -1.273856
1266 -0.178388 -0.226132 -1.321168 -0.579576 -0.065081 0.340924 1.186352 -0.037448 -0.262610 1.136919 -0.467426 -1.590668 -0.306064 0.228441 -0.008899 -0.661854 1.497501 0.192585 0.677526 -0.380604 1.262244 0.138888 -0.032261 0.765702 -0.681455 -0.801240 -0.697490 0.396688 -0.482013 -0.053843 -0.441049 -1.100385
697 -0.206685 -0.104793 -0.883659 -0.505061 0.185442 0.073386 0.647252 0.311165 -0.153024 0.766894 -0.531839 -1.117444 -0.402534 0.133567 -0.172850 -0.453117 1.127714 0.068044 0.198326 0.081796 1.136839 0.069824 -0.476120 0.924080 -1.038811 -0.665887 -0.560692 -0.157632 -0.172325 -0.293603 0.205264 -1.002864
699 0.774086 -0.175114 -1.241720 -0.480897 -0.836920 -1.026793 0.787727 0.425981 -0.432528 1.508707 -0.918038 -0.706886 1.069325 0.568818 -1.174438 -0.859175 0.275542 -0.381337 1.594413 0.406270 0.913312 0.625443 -1.268314 1.473920 -0.105761 -1.214155 -0.613438 -0.412228 -0.348849 -0.472696 -0.413026 -0.121722
992 0.648786 1.202055 -0.768745 0.210786 -1.072051 0.520970 1.242827 0.127679 0.484388 1.097637 -1.352867 -1.601621 0.083550 -0.124030 -0.582986 -1.674776 0.040149 1.036627 0.520664 -0.706633 0.773901 0.650406 -0.749175 0.776982 -1.288337 -1.119198 -0.033740 0.906318 0.619856 0.409985 0.237478 -0.278949
126 0.650378 1.223244 -0.747754 0.231721 -1.100027 0.502729 1.196453 0.150072 0.450518 1.047557 -1.394033 -1.572075 0.122249 -0.163109 -0.590831 -1.710603 0.080490 1.046683 0.515298 -0.717732 0.762380 0.725542 -0.773189 0.853579 -1.313422 -1.161629 -0.046460 0.908097 0.685705 0.457869 0.242162 -0.315332
563 -0.329978 -0.005285 -0.895249 -0.525415 0.167810 0.206027 1.257912 -0.029124 0.085942 1.064649 -0.249230 -1.421178 -0.145492 0.193222 -0.066184 -0.434321 0.851000 0.341787 0.614610 -0.127021 0.734853 -0.050623 -0.110019 0.259059 -0.898384 -0.726413 -0.393536 -0.019823 -0.626240 -0.380135 -0.211492 -0.799535
529 -0.203305 -0.145558 -0.246083 0.569950 -0.117167 0.081867 0.549114 -0.221122 -0.315337 0.127296 0.016072 -0.585622 0.217771 0.305324 0.310226 -0.256589 1.584370 0.311368 -0.246271 -0.612939 1.100412 0.394967 -0.444515 1.169639 -0.088247 -0.822962 -0.520675 0.423391 -0.714032 -0.670803 -0.240430 -0.284509
922 0.420919 -0.042298 -1.865649 -1.503298 0.155303 0.610766 2.105178 1.043953 -0.114037 0.751237 0.000216 -0.779108 0.197387 -1.017023 0.231920 0.200747 1.258868 -1.058524 0.551003 -0.126721 1.860476 -0.345092 -0.662129 1.111227 -0.436341 -0.417820 0.530210 -0.383156 0.206977 -0.030860 1.309464 -0.449208
319 0.453516 -0.491912 -1.140707 -2.045489 -0.052477 -0.610884 0.187832 0.743036 0.607292 1.454519 -0.779366 -0.242516 0.314552 0.768001 0.079169 0.018457 1.552805 0.932654 0.122198 0.367264 1.684615 1.295415 -0.947334 0.940197 0.294693 -0.914042 -0.119174 -0.118726 -0.356453 1.226867 0.546290 -1.547805
318 -0.108335 0.049996 -0.925228 -0.713877 0.023459 0.319769 1.084180 0.025515 -0.042041 0.897253 -0.253908 -1.340469 -0.389316 0.242121 -0.002518 -0.186594 0.937475 0.179114 0.496252 -0.000506 0.696981 0.354471 -0.367434 0.386030 -0.536169 -0.704014 -0.290890 0.011835 -0.332359 0.078873 -0.030387 -0.724281
360 0.154799 0.779297 -1.565241 -0.214938 -0.346938 0.080634 0.049378 -0.210022 -0.098650 0.887811 -0.176332 -0.528357 -0.142473 -1.023366 -0.905781 -0.293286 0.780619 1.062426 1.404865 0.688352 0.528691 -0.705716 -0.147450 1.628085 -1.338799 -1.165061 -0.152446 1.210511 -1.471785 -0.254481 -0.703115 -0.897625
254 -0.435324 0.834109 -1.173519 -1.054616 -0.164979 1.146547 0.490517 -0.468259 0.009542 0.618815 -0.123494 -1.388768 1.256221 0.018851 0.821133 -0.173103 1.819090 -0.559905 1.088133 1.208444 0.337318 0.560573 -1.230846 0.554811 -0.500314 -1.012778 -1.459679 -0.972547 0.210336 -0.435919 0.364643 -0.830746
731 0.746418 0.240855 -1.885412 -0.841172 0.756570 -0.292885 1.447767 -0.238581 -0.821764 0.446474 -0.266661 -0.260638 0.631901 0.318843 -1.226298 -0.763478 0.862572 -0.522824 -0.764450 0.396715 0.805902 -0.030883 -1.112148 0.353082 -1.706788 -2.184953 -0.332960 -0.567854 0.085820 0.325950 0.173379 -1.420981
733 0.722002 -0.172479 -1.232233 -0.486883 -0.825169 -0.990678 0.744826 0.402342 -0.366554 1.467657 -0.974100 -0.793003 1.032993 0.567810 -1.162735 -0.854023 0.248401 -0.385166 1.612324 0.420255 0.971786 0.610246 -1.275690 1.461129 -0.096039 -1.212600 -0.664135 -0.401450 -0.310124 -0.483356 -0.445531 -0.067844
734 -0.175737 -0.169269 -1.131164 -0.497386 -0.094603 0.295347 1.106106 0.022704 -0.176499 0.973465 -0.400447 -1.425852 -0.336227 0.215809 -0.065905 -0.571121 1.221078 0.156635 0.582475 -0.279122 1.052085 0.136692 -0.037764 0.640996 -0.634830 -0.721469 -0.577028 0.270430 -0.413557 -0.040111 -0.367822 -0.970646
736 0.504460 1.102924 -0.413877 -0.279960 -0.618413 -0.391771 0.582703 0.968971 -0.531771 1.230373 -0.071091 -1.106379 -0.729363 0.837243 -0.263127 -0.613370 0.725518 -0.180817 1.524658 -0.297639 1.317917 0.193626 -1.291366 0.407199 -0.908551 0.522360 -1.935880 -0.976874 -0.473140 -0.149550 0.498926 -1.352006
630 -0.166792 -0.216990 -1.387168 -0.663953 -0.081412 0.319624 1.332078 0.010494 -0.262862 1.229414 -0.483895 -1.738226 -0.379833 0.291823 -0.066345 -0.726289 1.515602 0.228486 0.756277 -0.376658 1.267220 0.185862 -0.044351 0.811047 -0.739532 -0.908304 -0.727814 0.368098 -0.522781 -0.027612 -0.499939 -1.248956
1210 -0.390496 -0.855117 -0.869653 -1.636023 0.812008 0.073318 0.555913 1.310747 0.452903 0.855237 -0.339722 -0.838389 0.521284 0.623206 -0.599839 -1.372470 0.965578 0.406878 -0.108519 0.397144 1.375244 1.223078 0.432118 -0.183833 -1.873594 -0.890333 -0.887807 -1.045924 -0.924806 -0.162318 0.670364 -0.592805
1168 -0.147342 -0.126888 -1.280874 -0.600840 -0.123284 0.316711 1.279137 -0.038493 -0.219618 1.139148 -0.428771 -1.608468 -0.321758 0.282103 -0.075071 -0.681857 1.417628 0.245188 0.745038 -0.379459 1.213886 0.098653 -0.015639 0.697936 -0.681170 -0.857831 -0.643525 0.390220 -0.561198 -0.067314 -0.507883 -1.089030
168 -0.159747 -0.091751 -1.060846 -0.553767 -0.029068 0.334886 0.922878 -0.072244 -0.200990 0.961874 -0.390830 -1.294879 -0.184992 0.313939 -0.110199 -0.646637 1.128650 0.267608 0.620185 -0.231243 0.883747 0.211225 -0.058936 0.474625 -0.611458 -0.714016 -0.512504 0.178258 -0.424500 -0.029149 -0.355571 -0.873101
161 -0.380402 0.094558 -0.759688 0.412317 0.415787 0.901727 1.250237 -0.739928 1.609356 0.785199 -0.213244 -1.494326 -0.525778 0.034231 -0.005229 -0.891323 0.101717 0.551542 0.447181 1.093220 0.328611 -0.836215 0.297168 1.192821 -0.312920 -0.832285 -1.113740 -0.573261 -1.779315 -0.048795 -0.546121 -1.135022
967 -0.325412 -0.125009 -1.044224 -0.998685 0.001806 0.442034 0.999215 -0.111716 0.049779 0.943189 -0.493388 -1.230148 -0.244335 0.334188 -0.005555 -0.447357 1.173329 0.267053 0.635541 -0.049141 0.612143 0.453937 -0.635621 0.614398 -0.879906 -1.129560 -0.705408 0.207142 -0.457275 -0.157068 0.089093 -0.923651
1102 0.129193 0.922678 -2.169452 -0.423089 0.347931 0.737344 0.998845 -0.703571 -0.412723 1.560878 1.059328 -0.333136 0.043019 1.058646 0.592523 -0.080440 2.177644 0.042063 0.209172 0.125013 0.610429 -0.887837 -0.141293 0.849026 -0.710488 -0.642321 -0.233238 -0.654334 0.392165 -0.516528 0.834223 -0.783148
1103 -0.461404 0.877358 -1.116498 -1.068907 -0.119274 1.146423 0.535391 -0.523108 0.030058 0.588713 -0.133596 -1.422834 1.387414 -0.056215 0.849452 -0.209472 1.795924 -0.486386 1.090417 1.213412 0.324365 0.617597 -1.189280 0.545137 -0.566827 -1.019970 -1.426011 -0.931873 0.176354 -0.427966 0.322504 -0.856028
879 -0.203770 -0.168608 -1.330842 -0.512608 -0.078508 0.360626 1.261853 -0.048145 -0.244644 1.180324 -0.537448 -1.696314 -0.372073 0.269463 -0.094735 -0.727500 1.474261 0.235013 0.784542 -0.300675 1.256343 0.227584 -0.000082 0.694422 -0.727496 -0.866641 -0.698928 0.348383 -0.491483 -0.045592 -0.479829 -1.119668
9 -0.418419 -0.869292 -0.854719 -1.624511 0.803608 0.067881 0.619583 1.337007 0.494428 0.854232 -0.366607 -0.866721 0.488934 0.623564 -0.610661 -1.314613 0.979165 0.420093 -0.085423 0.402293 1.371738 1.180815 0.440443 -0.195771 -1.880823 -0.919268 -0.893245 -1.058604 -0.864170 -0.155238 0.684433 -0.608919
1248 1.116851 -0.633546 -1.715031 -0.666121 0.450614 0.974836 0.849698 0.860463 0.265183 0.523273 -1.127407 -0.377835 -0.478903 0.189112 -0.695467 -0.653364 0.608746 -0.791624 1.037049 1.082802 0.577069 -0.384806 -1.039173 0.406292 -1.153030 -0.002538 -1.387087 0.737650 -0.957174 -0.387177 0.478437 -1.341513
801 -0.393402 0.075102 -1.251185 -0.210448 -0.206556 0.525099 0.941139 -0.323827 -0.145862 0.779123 -0.501077 -1.029802 -0.316420 0.114018 0.114826 -0.258307 1.402404 0.209440 0.408038 -0.037991 0.928390 0.259577 0.107615 0.536970 -0.690669 -0.511460 -0.750348 0.477454 -0.436428 0.262668 -0.456046 -0.895811
359 0.652668 0.605160 -0.516484 -0.871468 0.113734 0.563890 1.308091 -0.592422 0.416692 1.288772 -0.989117 -2.199989 -0.649098 -0.809125 -0.534650 -0.439093 0.070984 -1.190646 1.710630 0.299534 0.213779 -0.174660 -0.834560 0.747828 -0.605007 0.176121 0.424451 -0.691784 -0.233982 0.327341 -0.370827 -1.917156
768 -0.147826 -0.199721 -1.074146 -0.464550 0.016359 0.211106 1.004903 -0.002119 -0.214869 0.902900 -0.471727 -1.388556 -0.387880 0.190605 0.046310 -0.578357 1.076825 0.203118 0.470952 -0.289258 0.956264 0.047000 -0.092593 0.521422 -0.554304 -0.784295 -0.535644 0.289725 -0.454125 -0.015988 -0.360995 -0.895405
213 0.086282 -0.364212 -1.043731 -0.633069 0.424912 0.004040 1.382400 0.340458 0.100465 0.520288 -0.370841 -1.334664 -0.101513 0.458699 0.188699 -0.475529 0.782068 -0.173575 0.150259 0.101654 0.699878 0.394772 -0.344203 0.708479 -0.654031 -0.807023 -0.455834 -0.111618 -0.398065 0.007120 -0.094784 -0.966375
1075 0.383406 -0.046152 -1.867071 -1.502708 0.195134 0.607358 2.125232 1.109364 -0.109468 0.771994 0.016989 -0.798367 0.259197 -1.070101 0.227596 0.156923 1.225322 -1.056409 0.573823 -0.119052 1.832435 -0.383891 -0.696544 1.141987 -0.399029 -0.425806 0.544138 -0.389375 0.214020 -0.011128 1.363791 -0.414176
1094 -0.429485 -0.088919 -0.675362 -0.278356 0.328532 0.281357 2.441914 0.897342 0.618588 -0.013337 0.243444 -1.117255 -0.360038 0.304986 -0.827638 0.146872 1.079456 0.390039 0.892207 -0.460145 0.865853 -0.436342 0.011039 0.269641 -1.373968 -1.337160 0.787512 -0.931653 0.972579 -0.882524 -0.104857 -1.550869
1155 -0.106183 0.063850 -0.901115 -0.662553 0.010569 0.378453 1.121170 0.027157 -0.085358 0.838341 -0.270145 -1.390275 -0.382867 0.259861 0.042207 -0.187187 0.979183 0.095906 0.498051 -0.008922 0.745206 0.343709 -0.300200 0.455854 -0.551244 -0.615408 -0.266506 0.004092 -0.308458 0.071996 -0.006236 -0.747285
1154 0.138362 0.227873 -1.095362 -0.549829 -0.038066 0.225393 0.438760 0.597053 -0.424519 2.371121 -0.070909 -1.467334 -1.033270 -0.756422 -0.813955 -0.499206 1.265893 0.369552 0.098933 0.659904 0.324537 -0.151733 -1.621479 0.955521 -0.206992 -0.472213 0.027804 0.533024 -0.677089 1.475194 0.522909 0.145088
535 0.294108 -0.193605 -1.007606 -0.798220 1.312206 -1.057103 1.439400 -0.219260 0.462025 1.231844 -0.876369 -1.991410 1.893994 -0.334336 0.344304 -0.431612 1.000230 -0.655879 -0.177953 -0.468999 0.093757 0.682447 -0.281594 1.095994 -0.425668 -0.971629 -0.149438 0.015697 -0.486118 0.794291 -0.634792 -0.458684
984 -0.341873 -0.057321 -1.096284 -0.578549 -0.055435 0.187342 1.159485 -0.148088 -0.059369 0.906427 -0.489193 -1.373369 -0.247639 0.082085 -0.109136 -0.528771 1.054034 0.322838 0.515556 -0.217521 0.854196 0.151125 0.020869 0.375967 -0.733718 -0.811428 -0.581259 0.033933 -0.416065 -0.029487 -0.287368 -0.705193
425 -0.166661 -0.130726 -0.954866 -0.399563 -0.139420 0.246427 0.901199 0.009395 -0.139323 0.844853 -0.467176 -1.284846 -0.270555 0.212303 -0.010221 -0.550748 1.151724 0.082153 0.556964 -0.329928 1.035200 0.089009 -0.029966 0.512896 -0.640375 -0.687840 -0.510924 0.331288 -0.334535 0.083160 -0.336300 -0.844531
848 0.074001 0.141625 -1.225022 -0.971470 0.280523 -0.145255 1.507580 0.566856 0.090302 1.377258 -0.456168 -1.367235 -0.127480 0.174032 -0.137942 -0.659545 0.802369 -0.025391 0.196865 -0.161618 0.751330 0.163972 0.040730 0.438970 -0.855330 -0.733177 -0.144826 -0.546674 -0.550597 -0.284150 -0.271487 -0.737350
145 -0.271680 -0.158721 -0.942035 -0.852432 0.425854 -0.010365 0.653233 0.322480 -0.016786 0.550572 -0.452303 -1.402847 -0.418743 0.262917 -0.201522 -0.418535 0.962940 0.376840 0.295090 0.082676 0.609517 0.035561 -0.489074 0.683173 -0.874838 -1.026272 -0.351781 -0.179330 -0.410053 -0.248474 -0.061365 -0.698014
738 -0.177484 -0.149625 -1.313572 -0.541697 -0.104541 0.301732 1.302535 -0.054384 -0.235395 1.172911 -0.438800 -1.678407 -0.332553 0.261939 -0.082625 -0.720217 1.500973 0.225500 0.782852 -0.406401 1.229248 0.104821 0.027821 0.699014 -0.654336 -0.873790 -0.703914 0.434850 -0.559606 -0.081759 -0.548939 -1.105899
221 1.207666 1.395841 -0.711878 -0.111927 0.093580 0.613415 1.678080 -0.254172 0.456856 1.132679 -0.488199 -2.175406 0.988283 0.150689 0.180018 -1.122089 -0.312642 -0.629033 0.503482 -0.208688 0.897704 0.411356 -0.240228 0.071089 -0.270076 -1.348665 -1.235375 -1.275666 -0.774872 -0.500068 0.164656 -0.824883
1024 -0.101775 -0.286953 -1.033346 -0.451900 0.109837 -0.020456 1.198634 0.195233 -0.170487 0.894623 -0.389852 -1.686747 -0.056386 0.259592 -0.038474 -0.570388 1.052248 0.352106 0.492791 -0.314136 0.859552 -0.044358 -0.271227 0.472346 -0.709643 -1.052283 -0.598831 0.057451 -0.423814 -0.182743 -0.356055 -0.831680
1182 -0.027964 -0.317239 -1.038374 -0.542816 0.046439 -0.064453 1.245865 0.225601 -0.105297 0.929002 -0.361936 -1.678355 -0.120250 0.272514 -0.100534 -0.510960 1.033319 0.377451 0.419313 -0.296257 0.840724 -0.007348 -0.305017 0.460436 -0.662374 -1.144608 -0.640539 0.033473 -0.446148 -0.152237 -0.340112 -0.858738
391 0.028231 -1.317348 -2.017352 -0.721266 1.599070 0.138484 0.632929 0.602522 -0.584284 0.914800 0.698285 -0.978392 0.584487 0.108895 -0.256774 -0.549762 1.712854 1.001266 1.131673 -0.573621 1.095717 -0.310750 -0.464119 0.711637 -1.199910 -0.561661 -0.158816 -1.476723 0.119754 -0.251510 0.709456 -0.036487
501 -0.112137 -0.102512 -0.860243 -0.733175 -0.066913 0.125963 1.094186 -0.195224 0.028359 1.141790 -0.241625 -1.531404 -0.351665 0.341704 -0.088143 -0.295336 1.061380 0.450974 0.464955 -0.177558 0.770658 0.228373 -0.312216 0.318407 -0.711758 -1.013336 -0.524275 0.142454 -0.596094 -0.123907 -0.184258 -0.870974
1203 0.019150 -1.395949 -1.990030 -0.743899 1.612586 0.229748 0.596018 0.561413 -0.542325 0.898405 0.729190 -0.917287 0.611687 0.069081 -0.259871 -0.511397 1.697196 1.093408 1.139247 -0.584133 1.105719 -0.296971 -0.469234 0.707719 -1.204204 -0.596654 -0.136226 -1.441103 0.066616 -0.222527 0.781815 -0.016560
41 -0.663011 -0.010112 -1.716388 -0.439074 -0.754812 -0.060993 2.187161 -0.140552 -0.274091 0.760870 -0.898852 -0.773452 0.276694 -0.116667 0.607822 -0.547102 0.476843 -0.480057 0.910704 0.029496 0.230061 -0.377728 -0.392502 -0.093617 0.294994 -1.465829 -1.190866 0.397213 -0.621507 -1.873429 1.042274 -0.271774
5 -0.001863 -0.399130 -1.043751 -0.566404 0.416380 0.033406 1.401650 0.298543 0.070844 0.552990 -0.309116 -1.338452 -0.101309 0.432533 0.191894 -0.514310 0.777369 -0.174077 0.211877 0.054963 0.672971 0.390309 -0.301338 0.668559 -0.663022 -0.796670 -0.450332 -0.118969 -0.344860 0.012254 -0.118887 -0.936108
470 -0.763516 -0.216496 -1.367252 -0.385729 0.994653 -0.304120 1.071494 1.228364 0.264596 0.293742 -0.157855 -0.711344 0.027326 -0.261838 -0.332274 -0.826873 0.579719 0.326150 1.221212 -0.328150 0.395978 1.167273 -0.359833 1.909767 0.000874 -0.246102 -0.222331 0.801414 -0.153807 -0.293160 0.902450 -2.587847
474 -0.409608 -0.125714 -0.675719 -0.259257 0.332801 0.319103 2.437680 0.880103 0.566365 -0.092450 0.233517 -1.147277 -0.313630 0.356296 -0.887246 0.168721 1.093323 0.430413 0.924176 -0.481245 0.893092 -0.411972 0.030838 0.260638 -1.328866 -1.348570 0.718946 -0.943774 1.028154 -0.864501 -0.124701 -1.556651
1261 0.686530 0.357436 -0.759178 -1.351118 -0.671964 0.427601 0.872946 -0.425254 1.120143 0.588283 -0.022846 -1.325198 -0.549874 0.106912 0.183037 0.636155 0.730550 0.849633 -0.293978 0.600125 1.032696 -0.302250 -1.576198 1.006878 -0.819006 -1.311477 -0.829458 -0.001178 -0.616966 -0.662744 0.475292 -1.116818
505 -0.178447 -0.017200 -0.222536 0.531437 -0.235736 0.080915 0.499697 -0.254259 -0.368845 0.116281 -0.032441 -0.530586 0.230452 0.355496 0.277455 -0.230256 1.545874 0.407815 -0.196660 -0.657104 1.131680 0.420688 -0.436232 1.212864 0.020800 -0.783304 -0.526733 0.446056 -0.771139 -0.694855 -0.328347 -0.329701
916 0.749793 0.043305 -0.649414 -0.730117 0.693257 -0.180755 0.286534 -0.152263 -0.520769 0.666415 -1.669430 -1.420099 -0.906986 0.977263 -0.649689 -0.044583 0.630595 0.600431 -0.134576 -0.331237 1.308364 -0.383850 0.159813 1.059745 -0.047794 0.458419 -1.556812 0.061509 -1.148068 0.625087 -0.277987 -0.569298
158 0.121387 -0.904136 -1.167723 0.347678 0.203202 -0.508916 1.009072 0.312074 -0.700788 0.794083 -0.541231 -1.141264 0.192132 -0.083569 -0.521882 -0.910886 0.480492 -0.173839 0.757621 -0.581860 0.826802 -0.346669 1.277344 0.437103 -0.163033 -0.227142 -0.361820 0.264999 -0.070580 0.180044 -1.229977 -0.579593
101 0.107490 -0.943996 -1.177873 0.294973 0.247128 -0.548697 0.948368 0.337772 -0.688282 0.787812 -0.491674 -1.118855 0.201700 -0.034637 -0.533228 -0.922441 0.489262 -0.106139 0.731939 -0.582867 0.847743 -0.348016 1.262624 0.439129 -0.167904 -0.222171 -0.359936 0.194935 -0.061418 0.103160 -1.192383 -0.581550
63 -0.116629 -0.165586 -0.900689 -0.466441 -0.051912 0.277061 0.869849 0.028827 -0.163331 0.828011 -0.334205 -1.160462 -0.272821 0.198618 0.010191 -0.558278 1.049691 0.124919 0.454473 -0.281896 0.789013 0.197428 -0.063996 0.615022 -0.442758 -0.558707 -0.492095 0.268391 -0.308566 0.000084 -0.253853 -0.867067
3 -0.142066 -0.175177 -0.917446 -0.454953 -0.070293 0.272044 0.899292 0.021257 -0.189999 0.819983 -0.343578 -1.192946 -0.289079 0.183828 -0.018900 -0.546906 1.083536 0.131176 0.482908 -0.276569 0.803233 0.186986 -0.025628 0.615984 -0.449063 -0.589633 -0.501454 0.288171 -0.317518 0.009670 -0.304208 -0.873094
419 -0.107078 -0.151576 -1.014604 -0.467743 -0.078069 0.229322 0.951326 0.015895 -0.165720 0.860678 -0.369961 -1.265789 -0.268578 0.212408 -0.046574 -0.499390 1.131413 0.168945 0.546398 -0.249380 0.935298 0.127670 -0.017882 0.607613 -0.530297 -0.684132 -0.536639 0.263556 -0.374621 -0.043095 -0.321257 -0.863270
830 -0.126451 -0.174429 -0.924861 -0.463368 -0.079930 0.296672 0.897660 0.025140 -0.194479 0.840858 -0.358357 -1.185752 -0.289108 0.212190 0.007257 -0.567819 1.106275 0.135869 0.499693 -0.305124 0.829154 0.199853 -0.018269 0.624982 -0.467609 -0.569414 -0.507477 0.296439 -0.347051 0.010494 -0.292689 -0.872364
139 -0.784072 -1.643928 -1.477626 -0.735033 -0.505218 0.022947 0.459721 0.611486 -0.305826 0.393462 0.017371 -0.731541 -1.304003 0.050824 0.851170 -0.356680 0.774154 0.563527 -0.023738 -0.111663 0.405640 -0.577068 0.345885 0.071467 -1.189637 -1.326339 0.126029 0.201227 -0.288720 -0.292324 -0.383596 -1.216200
219 -0.167900 -0.048748 -0.282646 0.600983 -0.218584 0.094461 0.605925 -0.257778 -0.276503 0.067393 0.005184 -0.515512 0.189164 0.322893 0.292820 -0.205490 1.585645 0.365651 -0.236091 -0.608434 1.137310 0.373278 -0.426495 1.158123 -0.046538 -0.797692 -0.465666 0.437663 -0.649502 -0.661368 -0.268038 -0.398030
721 0.036678 0.017435 -1.374551 -0.561721 -0.301738 0.894248 -0.460945 0.306024 -0.114442 0.242435 -0.379994 -0.354816 -0.856609 -0.070286 -0.087076 -0.679966 1.051488 -0.317137 0.479801 -0.208183 1.558955 0.313302 0.446990 0.806101 -0.028506 -0.494724 -0.920998 0.909744 0.351522 0.767249 -0.339959 -1.872507
279 -0.555808 0.372076 -0.259235 -0.009843 -0.176432 0.421386 0.925240 -1.481513 0.380287 0.498121 -1.210827 -1.629278 -0.228664 -0.208688 0.089889 -0.291206 1.285862 -0.159402 1.001864 -0.081747 -0.036263 -0.106920 -0.023325 -0.147391 -0.953348 -1.026398 -0.355182 1.504154 -0.474061 0.400700 0.071961 -0.596357
1000 -0.551647 0.345684 -0.250974 -0.016200 -0.192748 0.391542 0.839844 -1.513509 0.380947 0.446128 -1.256735 -1.614892 -0.279531 -0.232156 0.097217 -0.289939 1.230567 -0.150926 0.999001 -0.100041 -0.060339 -0.072999 0.006689 -0.164149 -0.905859 -1.040614 -0.398556 1.505227 -0.415611 0.526222 -0.053823 -0.598807
1256 -0.624148 0.380969 -0.198521 -0.040012 -0.242490 0.483702 0.798601 -1.460655 0.367214 0.406311 -1.188880 -1.647688 -0.327356 -0.261943 0.158425 -0.212734 1.211799 -0.174757 0.967116 -0.098896 -0.108961 0.052976 -0.169721 -0.115470 -0.855468 -1.091651 -0.457707 1.499141 -0.444735 0.486568 -0.126793 -0.622872
1243 0.007642 0.021420 -1.363961 -0.541328 -0.341853 0.908764 -0.469714 0.292561 -0.188427 0.217818 -0.394145 -0.357687 -0.882476 -0.037188 -0.111882 -0.687423 1.107636 -0.257864 0.505587 -0.194603 1.592585 0.354256 0.469361 0.749751 -0.063116 -0.507342 -0.937137 0.923098 0.340645 0.774127 -0.365901 -1.855847
502 -0.172264 -0.090614 -0.290483 0.587353 -0.216603 0.048784 0.542675 -0.217669 -0.331249 0.103225 -0.049420 -0.522154 0.162247 0.325984 0.290616 -0.230465 1.563944 0.375702 -0.180714 -0.576506 1.097835 0.411691 -0.453365 1.228350 -0.051698 -0.796932 -0.567428 0.478942 -0.742173 -0.652919 -0.357628 -0.371179
85 -1.027861 0.044808 -0.602218 0.540097 0.351662 -0.292844 0.924464 0.079849 -0.419969 0.982816 -0.392192 -1.005096 0.025996 0.224787 -0.025879 -1.681431 1.270604 0.579760 0.857205 -0.311966 0.496794 -0.074725 -0.902370 -1.163829 -0.671830 -0.680584 -0.491825 -0.768068 -0.666849 -0.427284 -0.373572 -0.946420
334 0.144151 -0.934154 -1.134973 0.243190 0.253587 -0.561076 0.929630 0.405274 -0.727757 0.749507 -0.527226 -1.126809 0.239131 -0.034567 -0.560072 -0.933662 0.507935 -0.126982 0.792122 -0.633614 0.887509 -0.374612 1.258309 0.496293 -0.137315 -0.243016 -0.362287 0.238057 -0.073438 0.082253 -1.195607 -0.583473
917 -0.204635 -0.072581 -0.274268 0.606531 -0.230246 0.074644 0.577660 -0.278218 -0.250250 0.138287 -0.006304 -0.550490 0.104357 0.307408 0.315666 -0.185913 1.588457 0.337496 -0.178138 -0.583926 1.125639 0.391664 -0.406718 1.166052 -0.034298 -0.810733 -0.578039 0.448961 -0.706570 -0.599643 -0.331052 -0.337500
551 -0.174028 -0.026746 -0.262448 0.586247 -0.227211 0.058558 0.582065 -0.343230 -0.324355 0.018809 -0.042898 -0.490831 0.171791 0.311624 0.273790 -0.222617 1.637252 0.328842 -0.258218 -0.658403 1.172941 0.399790 -0.483184 1.224732 0.015398 -0.800656 -0.554159 0.476632 -0.691133 -0.620734 -0.350111 -0.334346
218 -0.356917 -0.125687 -1.029187 -0.298944 0.627837 0.637451 0.318849 0.034752 -0.060176 0.874249 -0.464719 -1.483549 0.229841 1.174487 -0.106662 0.591494 0.091736 -0.755580 0.180485 -0.218789 0.987007 0.998526 0.267881 1.634034 -1.398649 -1.001193 -0.026719 -0.033086 0.219467 -0.286986 0.663845 -0.677705
477 -0.176820 -0.047346 -0.263545 0.553526 -0.254777 0.088043 0.502486 -0.338986 -0.273772 0.087529 0.000680 -0.574753 0.166960 0.360246 0.286596 -0.235949 1.562634 0.403447 -0.192694 -0.644802 1.137780 0.468273 -0.454102 1.183330 0.005082 -0.809652 -0.515375 0.452190 -0.735769 -0.633705 -0.361800 -0.373792
1133 0.673402 0.345760 -0.756291 -1.307615 -0.656223 0.469537 0.835929 -0.444070 1.078479 0.510362 -0.035964 -1.322943 -0.592381 0.128210 0.174825 0.683952 0.695800 0.796954 -0.304926 0.621350 1.046431 -0.330870 -1.558115 1.010159 -0.803125 -1.253550 -0.795934 0.020065 -0.571946 -0.647917 0.527810 -1.138121
208 -0.998991 0.096984 -0.524703 0.553171 0.329372 -0.291874 0.923980 0.067062 -0.398750 0.918000 -0.354393 -1.047963 0.006405 0.218990 -0.101835 -1.692332 1.334062 0.600802 0.938940 -0.317750 0.463829 -0.160026 -0.946116 -1.187717 -0.728734 -0.701699 -0.502833 -0.781754 -0.645432 -0.449330 -0.312961 -0.826187
190 0.113620 -0.938093 -1.102892 0.332493 0.206405 -0.570680 0.993116 0.373318 -0.728811 0.752612 -0.529681 -1.150451 0.214290 -0.033881 -0.559268 -0.945262 0.425789 -0.150335 0.747357 -0.632621 0.835859 -0.357092 1.300898 0.438735 -0.124790 -0.183586 -0.369002 0.252071 -0.049000 0.105124 -1.194331 -0.578739
570 -0.150535 -0.060121 -0.228960 0.572249 -0.195353 0.057274 0.552028 -0.289689 -0.329811 0.086326 -0.002670 -0.509363 0.143344 0.359083 0.283500 -0.201837 1.554155 0.383410 -0.203875 -0.620323 1.111438 0.437641 -0.426180 1.151057 0.021960 -0.781191 -0.513723 0.474204 -0.725371 -0.635473 -0.341589 -0.314075
498 -0.220918 -0.040566 -0.282023 0.507945 -0.229989 0.080741 0.541371 -0.241787 -0.321369 0.089284 -0.031250 -0.550806 0.210631 0.295428 0.299673 -0.240077 1.563344 0.389001 -0.211839 -0.553956 1.141468 0.400842 -0.433275 1.166587 -0.018841 -0.802017 -0.501460 0.444210 -0.678699 -0.623944 -0.282000 -0.350971
1108 -0.352482 -0.563906 -0.774870 -0.443630 0.918909 0.237054 1.024590 -0.280432 0.664965 0.290332 0.392203 -0.923186 -0.484152 -0.211879 -0.452148 -0.583187 1.937165 0.048216 -0.072083 0.964496 0.787013 0.436657 -0.615017 0.437452 -0.936843 0.273082 -0.408048 -0.116864 0.379636 0.652753 -0.958112 -0.775833
578 -0.196797 -0.060891 -0.245087 0.573987 -0.203334 0.020549 0.598289 -0.299717 -0.275085 0.083700 0.067653 -0.555565 0.171907 0.341044 0.274060 -0.192183 1.606785 0.366232 -0.225157 -0.560287 1.137118 0.380759 -0.378222 1.184648 -0.084433 -0.797856 -0.420422 0.428623 -0.730895 -0.690623 -0.309707 -0.331375
860 0.096676 -0.885829 -1.149109 0.339628 0.203002 -0.528486 0.989214 0.352908 -0.670552 0.732814 -0.525195 -1.169754 0.207358 -0.037584 -0.517920 -0.921655 0.486455 -0.181343 0.748631 -0.581540 0.860954 -0.325936 1.275802 0.419631 -0.151882 -0.205411 -0.377277 0.216820 -0.061900 0.129981 -1.212583 -0.560196
507 0.773321 -0.034065 -0.687806 -0.744273 0.708321 -0.184704 0.289425 0.024211 -0.645154 0.658490 -1.647718 -1.452262 -0.912473 1.073606 -0.578286 0.032205 0.611638 0.547657 -0.200850 -0.280692 1.282724 -0.535422 0.049972 1.097657 -0.095018 0.421105 -1.571542 0.109047 -1.203249 0.600632 -0.390977 -0.622068
1192 0.484780 0.119080 -0.512515 -0.241091 -1.176131 0.426924 1.095225 -0.404742 0.173334 0.951032 0.133380 -1.116212 -1.399802 1.003759 -0.154177 0.100155 0.556121 0.154509 1.233565 0.301582 0.756169 -0.021633 -0.329710 0.222309 0.280776 -0.405211 -0.517496 0.037254 -0.110288 0.208956 -1.552848 -0.643178
1194 -0.826069 0.516354 -1.520609 0.007651 0.476032 0.786441 0.454294 -0.276560 -0.555208 1.080585 -0.773571 -0.567603 0.278725 -0.599593 0.195742 -1.619897 1.775390 -0.814263 1.363196 -0.371522 0.938644 -0.114617 -0.027130 0.976843 -0.674502 0.583775 0.019082 0.513534 -0.453861 -0.250035 0.425034 -0.287948
417 0.229727 -0.258738 -1.472189 -0.453020 0.618930 0.388107 1.243326 0.113348 0.682963 0.590168 -0.007474 -2.372403 -0.519034 0.393508 -0.385414 -0.235307 0.277409 1.218617 0.267484 -0.340207 -0.342704 0.851051 -0.271280 0.045989 -0.649645 -1.369899 -0.443308 -0.029125 -0.421177 -0.751144 -0.125175 0.516684
1066 0.501369 0.110777 -0.518446 -0.371701 -1.228569 0.462855 1.088188 -0.330134 0.091907 0.928386 0.298191 -1.060795 -1.453705 1.085171 -0.156273 0.186990 0.769354 0.038194 1.114209 0.278204 0.806887 -0.022527 -0.194688 0.288646 0.132760 -0.352115 -0.477735 0.023759 -0.130839 0.159251 -1.515423 -0.745667
1225 -0.865766 0.529298 -1.543422 0.036997 0.435419 0.810631 0.486031 -0.298810 -0.542249 1.061594 -0.775730 -0.551646 0.318219 -0.618120 0.214526 -1.680405 1.809048 -0.838999 1.394180 -0.412649 0.911127 -0.079654 -0.006763 0.965930 -0.669885 0.623163 -0.045770 0.480101 -0.407257 -0.285031 0.456275 -0.304414
1054 0.476423 0.164567 -0.507393 -0.324654 -1.195883 0.443920 1.099559 -0.409212 0.155181 0.983334 0.160094 -1.145172 -1.400363 1.034561 -0.172113 0.087704 0.635580 0.151146 1.212088 0.305676 0.773797 0.067152 -0.346238 0.230659 0.251545 -0.454885 -0.549002 0.076323 -0.148314 0.267919 -1.565838 -0.676769
260 0.145059 0.601446 -0.440909 -0.901454 0.277208 0.326997 0.702175 0.255981 0.066405 0.182056 -0.540004 -2.004530 -0.364710 -0.092005 -0.227723 -1.568849 0.777077 -0.005342 0.310962 -0.921167 1.529802 0.291784 -0.254286 1.227531 0.039885 -0.846078 1.000975 -0.761226 0.215773 0.482086 -0.798210 0.065817
1200 -0.387583 -0.061097 -0.982885 -0.314859 0.689634 0.562454 0.280295 0.081339 -0.087578 0.849866 -0.458884 -1.417554 0.220149 1.204085 -0.119209 0.537656 0.063805 -0.753662 0.179475 -0.253075 0.965621 1.055068 0.212824 1.534626 -1.389374 -0.936779 -0.051521 -0.174270 0.148535 -0.308201 0.646050 -0.723301
370 -0.147776 -0.044788 -0.203138 0.579778 -0.237137 0.054499 0.554924 -0.282085 -0.281754 0.115189 -0.009205 -0.556024 0.156831 0.348541 0.293772 -0.233183 1.555140 0.383148 -0.226470 -0.630817 1.153745 0.386179 -0.387886 1.181298 0.013334 -0.739877 -0.534843 0.434299 -0.674106 -0.656232 -0.294920 -0.330971
1123 -0.965638 0.082981 -0.574886 0.578269 0.327339 -0.336103 0.960473 0.101232 -0.359399 0.945890 -0.372581 -1.081234 0.016758 0.215070 -0.107612 -1.674248 1.298486 0.517971 0.880493 -0.324439 0.417486 -0.120669 -0.962551 -1.108615 -0.714877 -0.697144 -0.575529 -0.740611 -0.617815 -0.440513 -0.314934 -0.858435
93 -0.003047 0.051422 -1.331254 -0.539140 -0.351083 0.898751 -0.458237 0.322693 -0.134898 0.250069 -0.385231 -0.367684 -0.854665 -0.060512 -0.104316 -0.694790 1.052779 -0.277519 0.511832 -0.192081 1.592051 0.339591 0.495119 0.766397 -0.027195 -0.508457 -0.863772 0.925139 0.374198 0.771498 -0.347242 -1.855154
948 0.454670 0.162574 -0.547403 -0.304305 -1.159913 0.474736 1.069289 -0.372084 0.161819 0.909022 0.182939 -1.088033 -1.445967 1.046032 -0.195417 0.159358 0.664473 0.107075 1.188321 0.328154 0.756469 -0.037164 -0.275959 0.295752 0.216081 -0.433098 -0.511349 0.009432 -0.112970 0.204209 -1.537314 -0.653083
382 0.113882 0.600838 -0.416385 -0.877114 0.318545 0.315616 0.723864 0.226283 0.081287 0.120683 -0.571673 -2.019670 -0.351298 -0.119500 -0.242947 -1.572417 0.790377 -0.031013 0.285668 -0.948294 1.549747 0.289451 -0.224474 1.262032 0.078707 -0.816461 1.056125 -0.719701 0.208808 0.494296 -0.820587 0.058299
255 0.159933 -0.945271 -1.075322 0.319800 0.197200 -0.574260 0.996304 0.329466 -0.692313 0.827899 -0.562245 -1.150749 0.223050 -0.090375 -0.562524 -0.913658 0.410919 -0.126427 0.775996 -0.606980 0.802136 -0.378227 1.290075 0.445874 -0.182087 -0.157158 -0.327749 0.240987 -0.083683 0.152985 -1.150400 -0.548090
374 0.497418 -1.042752 -1.703674 -0.167949 -0.134834 -1.007098 1.176826 0.370326 0.658012 1.408572 0.294864 -1.314705 -0.097636 -0.235186 -0.286969 -0.228325 0.215250 0.805739 -0.219104 -1.110372 0.672824 -0.367599 -1.050793 1.033198 0.655177 -1.152106 -0.223753 -0.252216 -0.119543 0.103987 -0.028106 -1.191344
358 0.188848 -0.228412 -1.474402 -0.375531 0.659951 0.426980 1.173595 0.093780 0.690285 0.513508 0.014758 -2.349014 -0.585527 0.390577 -0.482793 -0.252008 0.274216 1.183024 0.269811 -0.356269 -0.346739 0.824938 -0.205255 0.035648 -0.604680 -1.320853 -0.420160 0.015352 -0.385011 -0.740001 -0.145515 0.556905
338 -0.296655 -0.484372 -0.789263 -0.477608 0.866559 0.175972 1.064025 -0.246257 0.660956 0.343899 0.396299 -0.944241 -0.496874 -0.253047 -0.474033 -0.589763 1.923120 0.046958 -0.085973 0.951742 0.832034 0.403382 -0.587636 0.500210 -0.863799 0.288546 -0.327271 -0.223186 0.350148 0.596635 -0.946405 -0.726634
173 -0.064093 -0.094202 0.452594 -1.169861 -0.031657 -0.328745 2.149755 0.320391 -0.183457 1.125899 -0.667417 -1.028506 -0.744005 1.033803 -0.169054 -0.133469 0.604076 0.907506 0.655199 -0.445380 1.108529 -0.159717 -0.311768 0.293629 0.261291 -1.042590 0.329394 -0.510553 -1.008798 -0.073110 0.755278 -0.301675
1279 0.119299 -0.952491 -1.101435 0.296321 0.197752 -0.564940 0.963470 0.375322 -0.708412 0.782733 -0.523155 -1.124998 0.203306 -0.072509 -0.525875 -0.931708 0.444313 -0.138997 0.741032 -0.677351 0.854867 -0.385252 1.302486 0.487480 -0.121874 -0.156056 -0.339172 0.251411 -0.052842 0.144092 -1.148380 -0.571052
280 -0.006451 0.009810 -1.373316 -0.564909 -0.340877 0.939734 -0.496814 0.291769 -0.152428 0.207695 -0.392757 -0.323931 -0.850555 -0.072400 -0.139815 -0.689141 1.080210 -0.267665 0.503877 -0.182924 1.572299 0.320687 0.440209 0.752209 -0.073072 -0.527441 -0.886984 0.924986 0.303160 0.751407 -0.357871 -1.868402
947 -0.336649 -0.462462 -0.748292 -0.503513 0.894156 0.171044 0.945214 -0.334827 0.689284 0.351881 0.298575 -0.920161 -0.490273 -0.262686 -0.446663 -0.598360 1.897216 0.066005 -0.059419 0.961949 0.776280 0.379044 -0.651107 0.437696 -0.908531 0.306631 -0.347031 -0.170411 0.334988 0.677906 -0.855544 -0.732877
867 -0.019485 0.005575 -1.361976 -0.535112 -0.361664 0.931614 -0.476373 0.287047 -0.172462 0.212922 -0.374793 -0.358598 -0.858377 -0.045359 -0.144894 -0.661499 1.092392 -0.270315 0.542337 -0.207836 1.602753 0.358791 0.476458 0.779687 -0.017886 -0.507602 -0.906380 0.915079 0.351785 0.749692 -0.394224 -1.842343
1156 0.480495 0.184557 -0.552734 -0.414840 -1.189500 0.436831 1.037620 -0.230582 0.094941 0.883102 0.262161 -1.083709 -1.480138 1.128485 -0.166397 0.216108 0.834447 0.017783 1.001142 0.319281 0.754804 0.032296 -0.195694 0.374985 0.085569 -0.387297 -0.517748 -0.020198 -0.166045 0.154442 -1.490134 -0.678176
516 -0.302255 -0.025271 -0.981476 -0.285236 0.635584 0.559067 0.346533 0.027609 -0.014306 0.868736 -0.473333 -1.461302 0.273319 1.146929 -0.109733 0.551980 0.061964 -0.841105 0.155822 -0.212298 0.940083 1.031147 0.213032 1.556657 -1.352536 -0.979727 -0.036598 -0.140314 0.233374 -0.262235 0.681678 -0.608899
412 -0.268481 -0.241021 -0.318186 -1.355757 0.853078 0.715681 1.633966 -0.164312 -0.740122 0.736649 -0.865134 -0.526619 0.726162 -0.310835 0.613046 -0.326694 0.282187 1.169373 0.903217 0.072850 0.162003 0.645536 -0.116841 0.489973 -1.038906 -0.797621 -0.603512 0.217807 -1.439641 -0.441234 -0.870474 -0.425905
140 0.481192 -1.048546 -1.739051 -0.194653 -0.158258 -0.968975 1.156188 0.372460 0.612879 1.377658 0.331803 -1.292580 -0.126188 -0.211312 -0.270434 -0.206653 0.207575 0.792659 -0.174214 -1.053468 0.693508 -0.384292 -1.050959 1.026324 0.568019 -1.145481 -0.214186 -0.228936 -0.124527 0.075121 -0.068864 -1.235765
53 0.124911 -0.954278 -1.166834 0.315219 0.276944 -0.577250 0.977529 0.367297 -0.690471 0.778463 -0.539362 -1.108702 0.221286 -0.077770 -0.555581 -0.914962 0.465591 -0.136925 0.730535 -0.559762 0.822010 -0.374645 1.315048 0.437476 -0.182059 -0.199839 -0.327718 0.213999 -0.063527 0.096933 -1.226150 -0.571029
1011 0.542707 0.169500 -0.528328 -0.456537 -1.251127 0.401564 1.007443 -0.236461 0.086023 0.853933 0.273028 -1.082535 -1.513321 1.125328 -0.117238 0.237944 0.845114 -0.127941 0.966298 0.347246 0.735290 0.019732 -0.129988 0.386585 0.054195 -0.339059 -0.492948 -0.075661 -0.199686 0.145525 -1.476268 -0.639530
197 -0.184419 -0.014366 -0.248986 0.580775 -0.247915 0.048869 0.512118 -0.270683 -0.304896 0.101078 -0.046193 -0.570755 0.220648 0.300493 0.271945 -0.250635 1.535799 0.334691 -0.160602 -0.580001 1.138202 0.435838 -0.422377 1.247038 -0.023327 -0.794375 -0.558379 0.435085 -0.715811 -0.694972 -0.351228 -0.313028
300 0.215081 -0.210597 -1.499100 -0.415075 0.653883 0.417025 1.177493 0.127515 0.726436 0.531147 0.008730 -2.409398 -0.529126 0.386523 -0.455487 -0.219200 0.210352 1.198045 0.255245 -0.316222 -0.358995 0.835047 -0.277386 0.006148 -0.677296 -1.383376 -0.488243 -0.030091 -0.353677 -0.727960 -0.108991 0.538458
1084 0.503938 0.170047 -0.540948 -0.399881 -1.216298 0.404083 1.051445 -0.210311 0.072658 0.884025 0.296702 -1.141191 -1.570597 1.154487 -0.155837 0.263328 0.824359 -0.023258 0.979052 0.345971 0.783922 0.002840 -0.164036 0.385618 0.087261 -0.358133 -0.540181 -0.047332 -0.181205 0.140886 -1.516956 -0.715979
71 -0.756135 -1.592799 -1.498204 -0.750760 -0.513264 0.032610 0.483851 0.607308 -0.306871 0.423422 -0.005798 -0.738374 -1.287802 0.043144 0.862319 -0.348074 0.771793 0.553752 -0.003524 -0.118891 0.390132 -0.570923 0.391056 0.081967 -1.153288 -1.350887 0.134291 0.212377 -0.267245 -0.307887 -0.350095 -1.226076
1134 -0.820806 0.527118 -1.510928 0.066196 0.415000 0.776748 0.498548 -0.297824 -0.562927 1.065985 -0.753984 -0.565955 0.268894 -0.580311 0.231495 -1.672386 1.810657 -0.860666 1.397684 -0.411394 0.939817 0.007425 -0.015319 0.938280 -0.645652 0.633126 -0.012700 0.517754 -0.370954 -0.205736 0.377524 -0.336256
519 -0.172037 -0.088002 -0.278725 0.608360 -0.208842 0.048572 0.572799 -0.310989 -0.295894 0.092587 0.007198 -0.553651 0.169315 0.309088 0.284974 -0.229014 1.590518 0.352089 -0.281643 -0.607808 1.188548 0.383183 -0.387597 1.170105 -0.020659 -0.788383 -0.523059 0.449623 -0.658172 -0.610142 -0.294617 -0.376441
1046 -0.188115 -0.017661 -0.275247 0.546266 -0.245860 0.044553 0.540117 -0.262033 -0.321782 0.093657 -0.056538 -0.613854 0.166576 0.321123 0.310122 -0.243459 1.519090 0.386584 -0.299560 -0.647802 1.194013 0.377359 -0.412195 1.254212 -0.010713 -0.780773 -0.556478 0.426331 -0.719766 -0.689209 -0.316988 -0.363223
489 -0.148666 -0.007425 -0.270637 0.604295 -0.241658 0.063585 0.535985 -0.246048 -0.310606 0.135969 -0.050611 -0.563418 0.196566 0.259402 0.295003 -0.238175 1.570341 0.352677 -0.223346 -0.680174 1.247655 0.365400 -0.452454 1.249700 -0.033444 -0.736747 -0.512773 0.424753 -0.728696 -0.686518 -0.231892 -0.426234
969 -0.213582 -0.049090 -0.259970 0.496204 -0.200604 0.055736 0.551335 -0.323428 -0.309075 0.063752 -0.001928 -0.544948 0.186117 0.348598 0.259614 -0.235300 1.591168 0.363502 -0.193225 -0.572953 1.117459 0.439192 -0.420501 1.221704 -0.057758 -0.812767 -0.483249 0.489591 -0.699898 -0.620752 -0.364060 -0.350870
