483 32
14 -0.295641 0.560392 0.362826 -0.310861 1.553840 0.793413 0.157914 -0.323431 -1.171707 0.321537 -1.104993 -1.073637 -0.176557 -0.648270 0.137389 1.273561 0.272656 -0.822707 -1.335935 0.056912 1.055936 0.251804 0.824795 0.463181 -0.897735 0.581168 0.166552 0.658252 -1.458161 0.692708 1.068847 0.610731
239 0.475075 0.049624 0.594672 1.088276 0.583896 -0.429421 0.143566 0.029549 -0.499593 -0.164532 0.014768 -0.847437 0.177776 -0.376466 -0.210109 0.519512 0.659549 0.242657 -1.313232 -0.092549 0.690890 0.459119 -0.431403 0.905416 -0.725525 -0.537067 -0.345306 -0.515000 -0.405064 -0.845242 0.308395 0.426368
12 0.110085 0.358769 -0.381825 -0.117380 0.635056 -0.432863 -0.194306 -0.710804 -0.632399 0.459068 0.983997 -0.139934 0.105961 -1.186105 0.487486 0.707672 -0.516807 -0.157197 -1.428965 -0.796726 0.383230 0.657245 1.060149 -0.047873 -0.129184 -0.224306 -0.173637 -0.853463 -0.479072 -0.348003 1.895906 0.603245
7 0.758331 -0.219879 -0.760866 -0.200040 0.043790 0.388771 -0.263517 -0.453807 0.549090 0.615492 -0.522877 -0.398752 0.215946 -1.845164 0.097969 0.914162 0.286188 -0.665202 -1.489517 0.385439 0.896783 -0.590799 -0.615816 0.625371 -0.504050 -0.361387 0.110752 -0.119971 0.461025 0.443583 1.073290 1.400059
13 0.751712 -0.224743 -0.732420 -0.207471 0.110163 0.377437 -0.261567 -0.477948 0.547869 0.657045 -0.511886 -0.412969 0.231987 -1.853469 0.044471 0.951015 0.290506 -0.701919 -1.493433 0.423339 0.910440 -0.546917 -0.602891 0.636471 -0.568981 -0.344545 0.149362 -0.134004 0.497728 0.481300 1.038795 1.437942
22 0.089123 0.069859 -0.955204 0.879391 0.907358 -0.768365 -0.217887 0.296913 -0.455350 0.492040 -0.225270 -1.054970 0.416936 -1.232401 -1.327954 0.778300 0.012588 -0.853922 -0.911783 0.895027 0.092062 -0.215949 1.223928 0.129864 0.105124 -0.228862 0.157935 -0.093742 -0.262408 -0.701947 0.462398 0.684082
20 0.112348 0.089256 -0.941821 0.858318 0.912640 -0.769400 -0.182540 0.307042 -0.483860 0.506550 -0.246319 -1.073105 0.426661 -1.241236 -1.337889 0.793705 0.004694 -0.859600 -0.918282 0.905511 0.136017 -0.204819 1.226069 0.110280 0.089534 -0.236759 0.144190 -0.074478 -0.287148 -0.704235 0.458286 0.723302
19 0.993192 0.212819 -0.200540 0.293479 0.778360 -0.354011 -0.220224 -0.637942 -0.553434 -0.165242 -0.996098 0.273467 0.750553 -1.545149 -0.475041 -0.261427 -0.496715 -0.952236 -0.028836 0.397935 1.240916 -0.179773 0.304344 0.753297 -1.844749 0.389865 -0.653693 -0.813845 -0.857229 -0.603003 0.812738 0.984742
120 -0.986942 -0.597790 -1.041592 0.331391 0.517927 -1.313462 0.075347 -0.643065 -1.136028 0.600778 -0.472814 0.050771 -0.082360 -0.434070 -0.204352 0.619122 0.198450 -0.486438 -0.591780 0.052772 1.110763 0.700608 -0.861147 0.154557 -1.198781 -1.088054 -0.607602 -0.306188 -0.901720 0.211476 1.392550 -0.765073
2 0.983922 0.223505 -0.223284 0.275079 0.771248 -0.355086 -0.241286 -0.651600 -0.524648 -0.178923 -0.991930 0.303869 0.785348 -1.545252 -0.463920 -0.288479 -0.491606 -0.940517 -0.011755 0.342765 1.221564 -0.167093 0.262181 0.758404 -1.886631 0.363500 -0.645688 -0.802448 -0.827015 -0.579729 0.874624 0.965980
0 0.697935 -0.564950 0.078334 -0.626266 0.788487 0.490057 -0.959482 0.018699 -1.715184 -0.091288 -0.405452 -1.005269 0.416632 0.042903 0.013995 1.764781 -0.017745 0.457327 -0.921981 0.586126 0.164810 0.088432 -0.381865 0.178719 -0.999380 -0.612793 0.454003 -0.650861 -0.100784 0.390995 2.122636 0.738867
27 1.072004 -0.521287 -1.239353 -0.600704 1.280285 -0.123808 0.737250 -0.322459 -0.472190 1.217367 -1.200151 -1.696737 0.845148 -0.224709 -0.543311 0.747486 0.280691 -0.864928 0.520410 -0.119710 1.388831 0.378235 0.016027 1.072601 -0.232368 -0.768658 -1.084654 0.227517 -0.961826 -0.020570 0.292400 0.434420
302 0.996607 1.248199 -0.451014 0.846834 0.914340 -1.368501 1.080502 -0.480783 -1.369996 0.624279 0.059781 0.071846 0.291370 -1.005440 -0.436814 0.198569 1.313368 -0.645232 -0.379350 -0.354528 1.434097 0.155888 -0.733360 1.394916 0.477488 -0.832911 -0.150071 0.574822 -0.068898 0.746039 1.210627 0.815453
10 -0.098943 0.096006 -0.221453 -0.161873 1.095863 0.145273 -1.129567 0.267303 -0.107429 -0.727870 0.529741 0.071218 0.316457 -0.336352 -0.676112 1.241228 0.179761 -0.260291 -0.912880 1.086680 0.819911 0.309052 0.576950 0.522679 -0.655170 -0.301068 -1.347821 -0.465487 -0.510662 -0.488113 1.196644 -1.032731
25 -0.126065 0.066521 -0.245080 -0.150631 1.037857 0.110486 -1.102205 0.286861 -0.152606 -0.713624 0.552159 0.036335 0.300513 -0.337282 -0.708368 1.209536 0.198915 -0.255126 -0.845606 1.098843 0.801419 0.329028 0.564162 0.496511 -0.614089 -0.349624 -1.376929 -0.490562 -0.525793 -0.510873 1.188878 -1.073882
921 1.331458 0.204536 0.460159 0.143227 0.545159 -0.554096 -0.086246 -0.371449 -0.770868 -0.193590 0.183680 -0.252101 0.304275 -0.118119 -0.911944 1.733516 -0.345362 -1.053969 0.171708 1.070090 0.463178 1.083908 0.105667 0.132700 0.286097 -0.594571 -0.652748 -1.051925 -0.588411 0.235002 0.707050 1.000926
897 0.650849 0.712330 -0.835116 0.547608 2.169574 0.941746 -0.851053 -0.377448 -0.853281 -0.132438 -0.113446 -0.667461 0.919453 -0.419246 -0.524080 0.314598 -0.098910 -1.234372 -0.285805 0.530819 -0.260453 0.003440 -0.047389 1.922486 -0.035820 0.288721 0.149726 -0.677966 -0.474696 0.386063 1.150121 1.106114
4 -0.119194 0.146711 -0.216779 -0.128093 1.048157 0.125731 -1.161018 0.292104 -0.073283 -0.678845 0.582785 0.095793 0.286228 -0.296440 -0.685078 1.242343 0.199633 -0.278407 -0.866415 1.127370 0.806139 0.281974 0.496521 0.457375 -0.613355 -0.271396 -1.386298 -0.445663 -0.415265 -0.497684 1.152367 -1.058205
1092 -0.277773 -0.171409 0.694177 -0.125530 1.446823 0.207006 0.503670 -0.456735 -1.754878 -0.062091 0.704573 -0.440282 0.653233 -1.450533 -0.697318 0.453184 2.036174 -0.448070 0.331978 0.086909 0.102586 0.693497 0.216762 0.796422 -1.126038 -0.441950 -0.512060 -0.322971 -0.304799 0.475153 1.549805 -0.027512
350 -0.259498 0.212386 -0.191921 -0.642697 1.423244 -1.224534 0.560228 -0.061988 0.759565 -0.376933 -0.295058 0.136701 0.603477 -0.623366 -1.335459 1.598916 0.590481 -0.595996 -0.847815 -0.467315 -0.096231 -0.030222 0.055311 0.857302 -1.033977 0.592601 -0.285440 -0.449553 -1.574141 -0.382100 0.888864 0.480160
240 -0.232131 -0.163983 0.705918 -0.165916 1.473380 0.255848 0.389844 -0.493332 -1.707471 -0.067185 0.720167 -0.462390 0.749306 -1.492517 -0.654752 0.495285 1.995794 -0.522611 0.493512 0.127115 0.072631 0.693828 0.143748 0.840015 -1.175033 -0.343292 -0.478129 -0.303921 -0.116123 0.548630 1.536231 0.104432
85 -0.974081 -0.822665 -0.873187 0.265033 0.879017 -0.951642 0.183980 -0.586053 -1.122301 0.503079 -0.667998 0.169154 -0.327027 -0.243921 -0.225729 0.777181 -0.104880 -0.646843 -0.989445 -0.137446 1.365421 0.871552 -1.045738 -0.008861 -0.978714 -0.967873 -0.311429 -0.093536 -0.975873 0.176833 1.377757 -0.616269
11 0.284631 -1.315631 -1.583730 -0.601835 1.262868 -0.149570 -0.390939 0.478472 -0.176555 0.273719 0.621270 -0.657089 0.294311 -0.696797 -0.169990 0.247394 0.160164 -0.516529 -0.747514 0.692393 0.781642 0.227406 0.319910 0.515852 -1.860403 -1.453918 0.228879 -0.658367 -0.556040 -0.371431 0.536938 0.560639
476 -1.039716 1.398208 -0.467624 -0.564628 1.499732 -0.848355 -0.515232 -0.269951 -0.911987 0.430407 -0.864489 -0.922261 0.638952 -0.036634 -0.898181 0.376048 0.106193 0.037157 -0.303661 0.355121 0.934183 0.105880 0.063283 0.538999 -0.233682 -0.827706 -1.228710 -0.672416 0.542654 -0.504430 1.216945 0.847221
415 1.043664 0.023575 -0.882359 0.012961 0.150702 -0.588720 0.806914 0.331168 -0.541415 0.643660 -0.423618 -0.668267 -0.580928 -0.705684 -0.683740 0.686833 -0.569006 -0.063688 -1.552002 0.437005 1.681259 0.203550 0.089905 1.124244 0.720115 0.020710 -0.104486 -0.272732 -1.912589 -0.139708 1.291731 0.159997
80 -0.015254 -0.182364 -0.805523 -0.170090 0.957474 0.896995 -0.808761 -0.989837 0.089389 -0.371693 0.189352 -0.452371 0.079565 -0.185021 -0.904406 0.829798 0.687459 0.359547 -0.425932 0.005153 0.655308 1.834083 -0.935592 1.189580 -0.907937 -1.078993 -0.755358 0.023396 0.299947 0.828519 1.192042 0.694301
36 -0.210222 -0.090487 -0.634458 0.268060 1.392505 -0.166860 -0.512640 0.380941 0.860041 0.458185 -0.542178 -0.159135 0.978795 0.526605 0.290928 1.128110 -1.029578 -0.958294 -1.360546 -0.262829 0.960124 0.900504 -1.009141 1.573410 -0.214729 -0.367070 -0.277088 -0.600513 -0.355288 -0.220174 1.261709 0.886586
513 -1.050266 1.381302 -0.476593 -0.596055 1.495560 -0.816041 -0.485261 -0.228769 -0.901541 0.438136 -0.876778 -0.885162 0.658677 -0.011444 -0.889059 0.356791 0.112336 0.072253 -0.274064 0.347378 0.931765 0.077989 0.062325 0.529819 -0.233103 -0.851244 -1.237000 -0.657445 0.544295 -0.489055 1.190557 0.821533
1270 -0.018624 -0.212659 -0.826027 0.250354 1.494108 -0.184023 -0.650508 0.275745 0.860680 0.389724 -0.556352 -0.091781 1.100982 0.515258 0.157928 1.136210 -0.943274 -0.799754 -1.423370 -0.360739 1.172653 0.738750 -0.925150 1.496555 -0.313741 -0.354148 -0.110118 -0.492035 -0.225582 -0.254675 1.153805 1.026778
696 0.109666 0.446595 -0.653686 0.154524 0.932470 -0.291869 -0.221863 -0.874024 -0.372958 0.624072 1.017618 -0.361236 0.528206 -1.030668 0.351766 0.500008 -0.507321 -0.060128 -1.375368 -0.807938 0.497837 0.723535 0.775267 -0.077133 0.007934 -0.064138 0.022110 -0.744547 -0.307033 -0.283557 1.859003 0.428223
153 -0.977262 -0.628202 -0.947374 0.321949 0.560054 -1.295910 0.074554 -0.742878 -1.214820 0.532736 -0.404842 0.000414 -0.207432 -0.366705 -0.257280 0.699211 0.209481 -0.548759 -0.652698 0.109766 1.082476 0.738091 -0.864877 0.104480 -1.152823 -1.012845 -0.607223 -0.334063 -0.909327 0.142598 1.333824 -0.710984
304 0.303990 -1.270933 -1.542119 -0.603301 1.289501 -0.171373 -0.354653 0.487634 -0.186988 0.257638 0.635515 -0.601753 0.350207 -0.684223 -0.147112 0.268280 0.114033 -0.512948 -0.764636 0.678965 0.742145 0.235811 0.305906 0.521699 -1.915812 -1.411381 0.195642 -0.701641 -0.565397 -0.377035 0.469961 0.573765
389 0.031900 0.323336 -0.268150 -0.160406 0.650316 -0.514522 -0.100440 -0.618855 -0.694700 0.354997 0.877797 -0.025325 0.018296 -1.290482 0.494149 0.679525 -0.392732 -0.172436 -1.407065 -0.807559 0.301364 0.681964 1.130885 0.075877 -0.099167 -0.175981 -0.216219 -0.945683 -0.514825 -0.334827 1.876163 0.683246
1109 1.197372 0.273992 0.465643 0.161515 0.568923 -0.544505 -0.159069 -0.457898 -0.731737 -0.135213 0.158292 -0.281216 0.236918 -0.096420 -0.872749 1.765043 -0.564130 -0.929300 0.120170 1.057621 0.572898 1.067382 0.057669 0.197370 0.200041 -0.541685 -0.739865 -1.071801 -0.638219 0.257267 0.568619 1.055491
428 0.743794 0.973569 -1.096437 0.317422 0.727986 0.330108 -0.126587 -0.289980 -0.504696 0.943027 0.953732 -0.076020 0.022937 -1.851793 -0.804232 1.342735 0.315649 0.229103 0.202320 0.841168 -0.011219 -0.134660 -0.439934 1.625299 -1.122414 -0.017535 0.259843 -0.317656 -0.674594 -0.616711 0.954311 -0.355823
89 0.975773 0.035179 -0.866310 0.012350 0.208748 -0.573210 0.785813 0.305644 -0.475020 0.671332 -0.382877 -0.678063 -0.556002 -0.665512 -0.701798 0.716101 -0.531978 -0.047465 -1.549288 0.423960 1.694485 0.215448 0.108214 1.167023 0.782942 -0.034786 -0.103511 -0.251319 -1.891936 -0.112353 1.389614 0.163243
816 1.383104 1.287865 0.641121 -1.160558 0.568355 -1.030644 -0.031338 -0.125635 -1.003634 0.274793 0.351293 -0.619988 0.591363 -1.359571 -0.500044 0.715351 0.879654 -0.380115 -0.892259 1.062921 0.432805 0.333854 0.209143 -0.327086 -1.835073 -0.634290 -0.815370 0.188655 -0.883089 0.085714 0.668366 -0.028838
935 0.671556 0.922500 -0.124610 0.007859 0.383208 1.218329 0.299780 0.124065 -0.804569 1.484501 0.006118 -0.075866 -0.145777 0.563619 -1.085215 1.736613 0.520740 -0.852660 -0.573815 0.299587 1.107066 0.433497 0.049265 0.604084 -1.240475 -1.481284 -0.454977 0.281560 -0.957159 -0.218637 2.033265 -0.480476
206 -0.430681 0.099545 -0.516291 -0.263694 -0.013562 -1.255200 -1.099714 0.094966 -0.686693 -0.655676 -0.727018 -1.475300 0.714858 -1.523535 0.259807 0.698038 -1.218880 -0.911627 -0.983093 0.178475 0.195661 1.425861 -0.071457 1.134857 -0.797362 -0.395166 -0.635017 -0.337532 -0.170538 -0.008948 0.491911 0.986665
565 1.077712 0.789791 0.290031 -0.328205 0.739722 -0.144106 -0.454809 -0.995353 0.590249 0.716943 -0.380611 -0.460893 0.522860 -0.481306 -1.075263 1.338412 0.139613 -0.489649 0.382582 -0.361390 0.818019 0.306100 0.352820 1.551860 0.450140 -0.025774 -0.343642 0.574243 -0.447943 1.129605 2.597012 1.047748
524 1.007379 0.177492 -0.388442 0.199691 0.152723 -0.962199 -0.378451 -0.971338 -0.806218 -0.014856 0.557861 -0.056952 -0.597575 -1.701073 -1.076328 1.127511 1.348399 -0.220342 -0.114354 1.344439 1.119352 -0.138967 1.633086 0.691942 -0.526240 0.220561 0.374913 0.884999 -1.182787 0.534931 1.978390 0.611763
28 0.116984 -0.283015 -0.988159 -0.310310 -0.171512 0.289146 -0.721933 0.571088 -0.275628 0.862466 0.515678 0.403965 1.583939 -0.929590 -1.021292 2.377829 -0.674801 -0.451207 0.558128 0.583072 0.916271 1.159729 0.184764 1.936152 -0.852175 -0.643623 -0.722461 0.779913 0.523492 0.375653 2.042946 0.267320
704 0.349632 0.611342 -1.621944 -0.158973 0.758725 0.629534 -0.117313 -0.843941 -1.540602 0.425702 -0.753414 0.169110 0.900324 -1.319331 -1.448907 0.985139 0.256656 -1.519896 -0.795976 0.497068 0.209519 0.410963 0.613637 0.220425 0.137478 -0.450593 -0.555017 0.669764 -0.588556 2.014572 1.466977 0.271800
76 -0.003283 0.084391 -0.598429 -0.057924 0.300418 0.100065 0.697855 0.673043 -0.131292 -0.139017 0.562509 0.536397 0.532507 -1.175164 -0.072199 0.377820 1.400628 0.598593 -0.339148 0.737018 1.013842 0.450651 -1.419137 1.773320 -0.606455 -1.032375 -1.507744 -0.995245 -0.845426 -1.033272 2.579160 0.338508
1218 0.886192 0.341531 -2.242883 0.325945 0.904490 -0.915097 -0.615319 1.114094 -0.080158 0.874326 -0.373128 -0.465864 0.832211 -0.674522 -0.336303 0.459438 0.535625 -0.337845 -2.120771 0.392157 -0.055655 0.257745 -0.271784 0.829625 0.363568 -1.028990 -0.495080 -0.000006 0.803417 0.370498 2.027690 -0.264443
215 0.352023 0.058272 -0.036853 0.025787 0.812333 -0.303114 0.007540 -0.179954 -0.610922 0.348271 0.082251 -0.423524 0.332271 -1.051072 -0.441360 1.022994 0.433620 -0.486152 -0.763922 0.412606 0.502971 0.534865 -0.093484 0.795024 -0.869947 -0.454658 -0.423600 -0.283600 -0.623414 0.087419 1.305278 0.218010
910 1.625828 0.783246 -0.684408 -0.526752 0.042312 -0.484977 -0.039755 0.467278 0.096393 0.300470 -0.142445 -0.278822 2.201746 -1.669458 0.504372 0.591740 0.411966 -0.040814 -0.355254 0.863772 -0.155933 0.988604 -0.316497 1.354087 -1.743207 -1.793293 -0.951397 -0.460734 0.512731 -0.434435 1.386428 0.222097
844 0.604404 0.942195 0.500119 -0.062792 1.767743 0.032424 0.255566 -1.237238 0.100487 0.004251 0.127035 0.002223 0.219787 -1.341292 -0.572778 1.002722 -0.353847 -0.458961 -0.372010 -0.202074 2.489529 0.101861 -0.822299 -0.025728 -0.505486 -0.891501 0.439671 0.789672 -1.298405 -0.566974 1.028989 0.791741
1162 0.597821 0.647865 0.201651 0.443752 0.406151 1.378005 0.531341 -0.071606 -0.500643 -0.041551 -0.069574 -0.582296 1.684492 -2.318963 -0.067254 1.294155 1.336875 0.619320 -1.166874 -0.095717 0.542600 0.491292 1.013831 1.683308 -0.047459 -0.417015 0.020843 0.949970 0.084392 0.058321 1.582467 0.559007
308 -0.772912 -0.187744 -0.286292 0.015804 1.609986 -0.605701 -0.033301 -0.230421 0.028689 0.746060 0.725149 -0.629839 -0.341702 -0.710298 -0.431897 0.712484 0.800283 -0.771044 -0.844172 1.426169 0.589271 0.809645 -0.447828 0.732266 -0.394020 0.820283 -0.509686 -0.730498 -0.139753 0.677515 0.400991 0.810802
709 0.305007 0.069209 -0.428748 0.283164 1.138476 -0.463989 -0.170009 -0.186450 -0.496382 0.268283 -0.104016 -0.699916 0.512741 -0.983290 -0.559654 0.958871 0.224713 -0.533502 -0.977694 0.453031 0.881145 0.580175 0.102329 0.942873 -0.612638 -0.517889 -0.474840 -0.342721 -0.512927 -0.050037 1.155630 0.616686
421 0.923771 0.772124 0.377441 -0.293671 0.871953 -0.130230 -0.464854 -0.930651 0.623039 0.749023 -0.251010 -0.473556 0.488417 -0.466027 -1.030898 1.417565 0.204243 -0.521408 0.324157 -0.340056 0.833644 0.323119 0.318719 1.450772 0.469049 0.156353 -0.316767 0.546183 -0.387687 1.156398 2.477335 1.105362
792 1.046728 0.368218 -0.906434 0.808959 0.551194 0.075089 -0.174812 0.659573 -2.003596 1.083292 0.244713 -1.075916 0.478721 -0.408277 -0.200382 0.910261 -0.020785 -0.847961 -0.727212 1.142011 0.270598 0.539297 0.569725 1.044880 -0.796136 -1.021506 -1.982555 0.169880 0.427313 0.544550 0.244627 0.161950
405 0.721447 0.899349 -0.054516 -0.005231 0.426467 1.047249 0.233378 -0.003283 -0.756518 1.474134 0.078941 -0.148157 -0.200157 0.682233 -1.110198 1.774981 0.416420 -0.927195 -0.557228 0.297609 1.115877 0.457587 0.061109 0.591357 -1.247013 -1.523260 -0.457066 0.221227 -0.967003 -0.089236 2.000892 -0.415780
454 0.700158 0.933282 -1.066381 0.423015 0.778678 0.550174 -0.173104 -0.429264 -0.622793 1.003494 0.982797 -0.291365 0.002542 -1.620970 -0.947836 1.513779 0.209673 0.142675 0.210896 0.794266 0.150911 -0.229938 -0.486675 1.412336 -1.184611 0.035844 0.231933 -0.523917 -0.453793 -0.584672 0.899042 -0.299976
394 0.734357 -0.674537 0.055560 0.559664 1.293840 -1.508435 -0.549259 -1.302154 -0.253641 -0.395056 -0.502973 -0.905650 0.326991 -1.290860 -0.507175 0.520894 0.500842 -0.694168 -0.907191 -0.248610 0.090864 0.761274 0.214149 -0.067253 -0.157968 -0.635546 -0.656865 0.200330 -0.389685 1.430148 0.793853 0.391084
1256 0.709788 -0.682847 0.106870 0.398452 1.374082 -1.388645 -0.475661 -1.504455 -0.016936 -0.259841 -0.361601 -1.102080 0.542525 -1.344406 -0.848162 0.625269 0.462349 -0.769824 -0.389857 -0.491591 0.236773 0.263449 0.202431 -0.259775 -0.614836 -1.188656 -0.781340 0.101627 0.041273 0.918192 0.735385 0.423899
1268 0.647925 -0.670904 -0.009950 0.406292 1.389576 -1.436458 -0.456532 -1.398801 -0.172256 -0.386530 -0.458150 -1.009954 0.398895 -1.288338 -0.606936 0.564387 0.470634 -0.737145 -0.748134 -0.340027 0.095951 0.539870 0.240829 -0.179303 -0.353665 -0.790214 -0.698146 0.197021 -0.239623 1.250532 0.682040 0.436989
1029 0.375884 -0.406503 -0.135707 -0.466992 1.161956 0.071766 0.417671 0.036162 -0.684737 -0.217093 -0.277526 0.670330 0.818512 -1.796130 0.256631 1.294639 0.069134 0.127260 -0.730123 0.223094 0.852653 1.599486 -0.132745 1.668172 -0.420785 -0.321286 -0.787942 -0.097324 -0.837424 0.553252 -0.446393 0.816063
349 0.143992 -0.620190 -0.030935 -0.568338 1.178615 0.006290 0.402464 0.048281 -0.789815 -0.031408 -0.318665 0.525570 0.795542 -1.931431 0.240347 1.330490 0.028946 0.171313 -0.602756 0.287512 0.956059 1.629943 -0.090061 1.691501 -0.364056 -0.532891 -0.690437 -0.057828 -0.663103 0.494417 -0.545393 0.730367
775 0.662159 -0.697240 -0.046197 0.360580 1.390231 -1.360595 -0.414749 -1.366452 -0.248068 -0.329273 -0.547943 -1.022032 0.506477 -1.268787 -0.537974 0.594899 0.485894 -0.749046 -0.701320 -0.383359 0.108805 0.461972 0.274203 -0.228739 -0.416737 -0.837233 -0.691443 0.198683 -0.140506 1.129921 0.702332 0.499475
496 0.375445 -0.055312 0.655103 1.091728 0.614666 -0.383586 0.051211 -0.062817 -0.401701 -0.218874 0.008967 -0.868741 0.170300 -0.402727 -0.178206 0.557678 0.634796 0.245552 -1.385950 -0.165070 0.692970 0.381182 -0.500996 0.720017 -0.775172 -0.652774 -0.380794 -0.473124 -0.423736 -0.866366 0.325463 0.440018
155 -0.205864 0.000639 -0.625658 -0.204766 -0.011541 -1.349971 -0.956606 0.138246 -0.853236 -0.548960 -0.776661 -1.453850 0.675916 -1.524322 0.232914 0.683809 -1.404011 -0.869499 -0.989590 0.205888 0.325171 1.384626 -0.027833 1.164544 -0.687888 -0.438033 -0.553129 -0.363452 -0.275452 0.009988 0.422281 1.053665
434 0.580243 -0.238383 -0.072863 -0.049800 0.957745 -0.158328 -0.176987 0.061544 -0.434790 0.015403 0.197375 -0.890369 0.346668 -0.524144 0.159476 0.017744 0.254642 -1.277811 -0.476394 -0.381427 2.047906 0.987770 -0.458364 1.923920 -1.283817 0.676329 -0.737855 0.085961 0.493367 0.673746 1.274114 -0.776999
531 0.387957 0.012388 0.661494 1.122139 0.574803 -0.437057 0.099225 -0.052483 -0.447465 -0.131193 -0.014433 -0.895825 0.112858 -0.376717 -0.214065 0.494227 0.675484 0.320782 -1.332315 -0.101024 0.678995 0.459215 -0.418446 0.899362 -0.685723 -0.554950 -0.329620 -0.461444 -0.361399 -0.720571 0.347846 0.403124
744 -0.321098 -0.109538 0.665726 -0.090976 1.504934 0.196592 0.380982 -0.526864 -1.718640 -0.047876 0.701835 -0.503375 0.723685 -1.429769 -0.773654 0.467064 1.989935 -0.525674 0.435420 0.115028 0.094824 0.637780 0.230942 0.774513 -1.147160 -0.377819 -0.503872 -0.330424 -0.263351 0.437796 1.543441 0.080846
412 0.397498 -0.411297 -0.105334 -0.501043 1.098776 0.134933 0.426584 0.107455 -0.668331 -0.250179 -0.299109 0.680991 0.814967 -1.737576 0.292189 1.268364 0.060613 0.124027 -0.751033 0.227505 0.871863 1.608673 -0.183876 1.695018 -0.389293 -0.287315 -0.768165 -0.092672 -0.847636 0.562755 -0.460673 0.845194
442 -0.815671 -0.125292 -0.351003 0.019440 1.558703 -0.557269 -0.006111 -0.259305 -0.060696 0.756620 0.720041 -0.662974 -0.366267 -0.817470 -0.414886 0.608348 0.914845 -0.618207 -0.816539 1.475865 0.608523 0.737603 -0.389808 0.745284 -0.274435 0.782394 -0.506076 -0.672162 -0.113563 0.678725 0.370603 0.811650
288 1.066717 0.052079 -0.906058 0.071361 0.172341 -0.575006 0.741690 0.349566 -0.460262 0.647381 -0.362212 -0.695058 -0.544545 -0.660128 -0.722556 0.738929 -0.554465 -0.078285 -1.599634 0.434696 1.700491 0.158360 0.072735 1.151493 0.788965 -0.023546 -0.115929 -0.211849 -1.916725 -0.138380 1.409846 0.162161
1021 -0.514166 1.148288 0.498216 0.658442 1.187645 -0.415687 0.516371 1.222161 0.007587 0.864325 0.342885 -0.609154 1.362899 0.125857 0.289382 0.251874 1.136784 -0.400575 -0.533775 0.722975 1.323811 1.163793 0.635617 1.306959 0.096211 -0.130288 -0.319014 0.148150 -0.616584 -0.129097 2.380365 0.176982
1150 0.922828 0.704649 -1.178660 -1.155925 0.129591 -0.666945 0.237176 0.374625 -0.866277 1.259165 0.987035 0.762757 0.507042 -0.199938 -1.340218 0.930546 0.645743 -0.273922 -0.179659 0.901556 1.691057 0.602455 -0.400341 1.035792 -0.165493 -0.633209 0.236739 -1.084489 0.420970 -0.242399 2.045030 0.948080
909 0.382169 -0.007452 0.769452 1.112412 0.670833 -0.397330 0.104896 -0.026549 -0.460846 -0.092265 -0.012152 -0.860633 0.090499 -0.372453 -0.145525 0.455163 0.756764 0.259629 -1.304797 -0.095829 0.618792 0.473117 -0.412722 0.884389 -0.638824 -0.495678 -0.374057 -0.445960 -0.349722 -0.735650 0.270600 0.382213
99 -0.031555 -0.205681 -0.861855 0.215723 1.416412 -0.268304 -0.663516 0.257414 0.792511 0.325698 -0.595980 -0.185991 1.129446 0.492683 0.211044 1.136958 -0.965744 -0.741758 -1.458500 -0.342126 1.159421 0.729451 -0.874034 1.499045 -0.334902 -0.267343 -0.108996 -0.452813 -0.148571 -0.311492 1.072476 1.089751
1250 -0.047497 -0.142412 0.299154 1.250110 -0.174272 0.617245 -0.555539 -0.508409 0.407069 0.601862 0.373289 -1.847865 0.904141 -0.812266 -0.936899 1.029648 -0.972264 -0.401706 -0.524187 0.645991 0.759932 -0.048338 1.084223 2.021292 -0.986186 -1.047850 -0.534119 0.099292 -0.070738 0.363151 1.241380 0.404641
259 1.302163 0.177162 0.362666 0.110854 0.576974 -0.591746 -0.063860 -0.522296 -0.562640 -0.289602 0.055180 -0.268851 0.331017 -0.169063 -0.847134 1.648145 -0.527954 -0.952542 0.151942 1.002432 0.637760 0.956643 0.179498 0.268418 0.412469 -0.503496 -0.656620 -1.158798 -0.744007 0.177361 0.571256 1.023740
838 -0.105997 -0.113454 0.203428 1.160533 -0.157797 0.629108 -0.532521 -0.473181 0.401846 0.635315 0.413946 -1.813411 0.834825 -0.720926 -0.956147 0.973863 -0.935170 -0.404226 -0.526650 0.664277 0.835747 -0.046013 0.949738 2.049264 -0.909659 -1.046114 -0.568520 0.001344 -0.067259 0.358310 1.312803 0.392727
1039 0.939520 0.465857 0.154850 0.041976 0.665657 -0.522810 -0.366311 -0.633145 -0.542512 0.106321 0.146416 -0.436678 0.158846 -0.136532 -0.942378 1.752130 -1.070617 -0.546170 0.017518 1.005458 0.883525 0.897233 -0.133975 0.283377 0.171336 -0.437483 -0.960865 -1.180580 -0.711845 0.187417 0.369079 1.165337
212 -0.805525 -0.151346 -0.389851 0.006536 1.589343 -0.482315 0.039545 -0.175382 -0.075641 0.753171 0.735011 -0.625259 -0.415472 -0.826773 -0.386432 0.533673 0.969793 -0.624783 -0.794302 1.514128 0.677378 0.800296 -0.400912 0.738985 -0.350530 0.883052 -0.500665 -0.711072 -0.183231 0.637856 0.389733 0.870400
765 0.948900 0.733515 -1.246969 -1.137213 0.225629 -0.697460 0.229146 0.351866 -0.845429 1.255069 0.967559 0.837550 0.499862 -0.178528 -1.274639 0.980300 0.670059 -0.371150 -0.182261 0.903855 1.647931 0.611441 -0.464643 1.004747 -0.139329 -0.762528 0.154122 -1.025946 0.282121 -0.234716 2.173903 0.826037
741 0.610189 -0.249758 -0.015187 -0.087811 0.957595 -0.096291 -0.156885 -0.002574 -0.469120 -0.010770 0.167341 -0.889121 0.330355 -0.507314 0.204988 0.020686 0.212813 -1.270545 -0.500219 -0.412134 2.063106 0.945167 -0.433323 1.921191 -1.300794 0.699436 -0.729059 0.102538 0.482554 0.693547 1.265587 -0.775810
759 -0.535051 1.225305 0.531639 0.709155 1.217887 -0.409333 0.476241 1.181758 0.029892 0.877013 0.350316 -0.603573 1.396727 0.130456 0.241669 0.196351 1.077930 -0.404888 -0.449251 0.681477 1.302136 1.168677 0.703055 1.330520 -0.021843 -0.074414 -0.270200 0.084134 -0.694119 -0.187966 2.374392 0.192130
270 -0.798691 -0.230350 -0.321979 0.011602 1.607150 -0.635632 -0.036271 -0.201829 0.090823 0.706588 0.779510 -0.566009 -0.237853 -0.804446 -0.466314 0.743244 0.860168 -0.765023 -0.820522 1.424882 0.487275 0.861128 -0.472414 0.757829 -0.358111 0.693841 -0.528775 -0.750988 -0.041458 0.696957 0.315156 0.725929
905 0.378323 0.014339 0.691264 1.181654 0.570820 -0.364634 0.101963 -0.041442 -0.394028 -0.222261 0.059450 -0.883532 0.167700 -0.307947 -0.193464 0.603662 0.549573 0.265703 -1.313142 -0.137839 0.706845 0.438213 -0.434213 0.870549 -0.762228 -0.615649 -0.340934 -0.382016 -0.389657 -0.807649 0.267190 0.469604
56 0.119371 0.427656 -0.386195 -0.074268 0.678827 -0.490722 -0.120947 -0.651787 -0.589468 0.463123 0.915749 -0.105252 0.185153 -1.179262 0.424865 0.604142 -0.436640 -0.158677 -1.417485 -0.835455 0.329160 0.602329 1.061911 0.039124 -0.040890 -0.290746 -0.142791 -0.870235 -0.453046 -0.352268 1.940561 0.636190
450 0.067593 0.376755 -0.307231 -0.175567 0.638275 -0.512557 -0.147007 -0.643025 -0.594146 0.390454 0.896279 -0.054427 0.090662 -1.272368 0.455182 0.711987 -0.435613 -0.205619 -1.410145 -0.811968 0.311747 0.627439 1.050325 0.030779 -0.144896 -0.275496 -0.240710 -0.947802 -0.489408 -0.400932 1.915905 0.688326
1123 -0.973836 -0.512044 -1.054980 0.328793 0.372198 -1.424522 0.003709 -0.714561 -1.239890 0.508707 -0.383753 0.024247 -0.054519 -0.439931 -0.255499 0.586759 0.324406 -0.378626 -0.451330 0.022181 1.056906 0.710185 -0.686157 0.240558 -1.245245 -1.228600 -0.750644 -0.344033 -0.866648 0.227583 1.412480 -0.764176
218 -0.131423 -0.190854 -0.626016 0.344754 1.459161 -0.102040 -0.523788 0.343243 0.914122 0.518052 -0.453715 0.040250 0.946392 0.544994 0.166482 1.192287 -0.936481 -0.979965 -1.314650 -0.270019 1.063122 0.815000 -1.037507 1.500473 -0.159420 -0.394153 -0.201700 -0.567921 -0.373097 -0.150833 1.296760 0.796787
111 0.312980 0.155750 -0.350853 0.315394 1.149857 -0.474170 -0.263291 -0.213043 -0.537418 0.131645 -0.069401 -0.747027 0.462639 -1.025979 -0.668052 0.848461 0.309515 -0.547416 -0.945318 0.422097 0.868469 0.608181 0.119674 0.889471 -0.614749 -0.392780 -0.439555 -0.435825 -0.386285 0.131216 0.928971 0.608243
337 0.736419 -0.127140 -0.100683 -0.458193 0.988651 0.183644 0.452398 0.025918 -0.604569 -0.608313 -0.261222 0.934319 0.863103 -1.763662 0.393433 1.214166 0.155972 0.133542 -0.825025 0.109717 0.842474 1.684450 -0.296558 1.665412 -0.554571 -0.081616 -0.852869 -0.110538 -1.127843 0.638807 -0.262255 0.923376
1076 0.092430 0.068838 -0.958143 0.870202 0.869815 -0.762711 -0.207514 0.298332 -0.455150 0.539172 -0.207270 -1.110041 0.374451 -1.245209 -1.282954 0.712391 0.000538 -0.866444 -1.021143 0.864587 0.083111 -0.228704 1.241549 0.183024 0.082296 -0.179799 0.099798 -0.104960 -0.316717 -0.690421 0.483223 0.726773
403 -0.060626 -0.239766 -0.795043 -0.136017 0.920508 0.936194 -0.821356 -0.960435 0.128328 -0.361062 0.214850 -0.515114 0.052780 -0.127382 -0.966114 0.839742 0.655004 0.364496 -0.475084 -0.037298 0.676590 1.847937 -0.881083 1.256341 -0.837305 -1.093392 -0.722165 0.085381 0.218962 0.825936 1.215133 0.589782
676 0.325426 -1.295244 -1.583971 -0.596923 1.214746 -0.144335 -0.348735 0.510936 -0.232409 0.303974 0.654313 -0.629763 0.314070 -0.706430 -0.131590 0.269210 0.070646 -0.518747 -0.724503 0.748320 0.742049 0.268397 0.271262 0.560237 -1.898290 -1.417197 0.223880 -0.704530 -0.580682 -0.405231 0.458008 0.564805
315 0.352475 0.018327 0.712661 1.081372 0.690601 -0.427613 0.139173 -0.025631 -0.449016 -0.159811 0.059356 -0.867212 0.197425 -0.412711 -0.206236 0.546223 0.672443 0.243715 -1.278947 -0.052341 0.633631 0.435819 -0.370598 0.890077 -0.839214 -0.530488 -0.380530 -0.427666 -0.307130 -0.820104 0.257567 0.463817
260 0.298245 0.190895 -0.391620 0.343656 1.171417 -0.516245 -0.261496 -0.214450 -0.542709 0.120266 -0.109444 -0.763523 0.464211 -1.028329 -0.666169 0.813748 0.303335 -0.543486 -0.990880 0.415886 0.950073 0.609188 0.165815 0.899234 -0.619064 -0.325757 -0.424403 -0.498692 -0.382737 0.176509 0.873506 0.668873
381 0.095771 0.117048 -0.951802 0.846203 0.899460 -0.746009 -0.180311 0.273475 -0.460194 0.479196 -0.246150 -1.028273 0.423319 -1.259854 -1.319434 0.789429 0.035093 -0.844221 -0.934867 0.891551 0.119769 -0.208449 1.237971 0.061666 0.076236 -0.219448 0.103558 -0.067986 -0.346363 -0.738381 0.430525 0.705584
223 0.349354 0.223726 -0.418046 0.411941 1.275236 -0.505566 -0.253774 -0.232104 -0.569084 0.083919 -0.124527 -0.855657 0.526609 -1.090760 -0.719036 0.835720 0.266981 -0.605951 -1.088993 0.425802 1.020741 0.616399 0.153531 0.984951 -0.609635 -0.303634 -0.390950 -0.576995 -0.390549 0.197530 0.848481 0.757766
825 0.781129 -0.245129 -0.750128 -0.232724 0.027834 0.332021 -0.207567 -0.443149 0.530411 0.598455 -0.527102 -0.367428 0.183663 -1.897208 0.090985 0.885745 0.268029 -0.622397 -1.501622 0.374382 0.925509 -0.524222 -0.602393 0.658767 -0.499672 -0.341781 0.103036 -0.177159 0.473522 0.444637 1.031004 1.418803
180 0.067382 0.103779 -0.965038 0.868376 0.922003 -0.701949 -0.215534 0.330021 -0.480486 0.516177 -0.259590 -1.056878 0.391073 -1.169431 -1.350255 0.765136 -0.009519 -0.853682 -0.959539 0.927963 0.092453 -0.185871 1.224879 0.148456 0.110863 -0.215279 0.112381 -0.017860 -0.310780 -0.702009 0.480776 0.680966
300 -0.013082 -0.168630 -0.697781 -0.197978 0.921520 0.880066 -0.813932 -0.923600 0.150193 -0.341993 0.239789 -0.442028 0.134281 -0.184108 -0.867928 0.872754 0.802827 0.302972 -0.398258 0.067144 0.532048 1.851567 -0.945680 1.203797 -0.941166 -1.106731 -0.770496 0.122178 0.450756 0.874313 1.224198 0.656714
1261 0.996630 0.253975 -0.177231 0.307012 0.819760 -0.368223 -0.250027 -0.678529 -0.507671 -0.220895 -0.923985 0.251556 0.757763 -1.575349 -0.448551 -0.208844 -0.473294 -0.954269 -0.042111 0.355992 1.210693 -0.178619 0.245112 0.734564 -1.881994 0.326276 -0.626896 -0.827942 -0.863304 -0.629823 0.752982 1.066320
361 -0.739234 -0.085335 -0.344253 0.023499 1.615638 -0.527710 -0.040673 -0.292182 -0.094040 0.740714 0.695150 -0.705387 -0.299654 -0.828184 -0.474880 0.760438 0.785620 -0.552547 -0.858551 1.432586 0.541960 0.654800 -0.307562 0.794175 -0.190510 0.921118 -0.562752 -0.723792 -0.163167 0.753312 0.319084 0.882267
763 0.313744 0.652130 -0.950585 0.310914 1.005878 -0.104703 -0.362634 -1.092598 -0.180111 0.810907 1.028785 -0.681148 0.934987 -0.964294 0.168395 0.481272 -0.722229 0.034178 -1.162488 -0.730566 0.691012 0.613976 0.704136 -0.170360 0.092611 -0.001578 0.169785 -0.533814 -0.284914 -0.213254 2.024877 0.209455
106 -0.756433 -0.181432 -0.332719 0.019434 1.534799 -0.506742 0.046770 -0.175650 -0.046196 0.726204 0.731013 -0.566257 -0.372098 -0.823595 -0.424515 0.607501 0.990755 -0.717343 -0.850664 1.482234 0.611592 0.763252 -0.472822 0.755399 -0.365670 0.811995 -0.494250 -0.717242 -0.166237 0.647106 0.427763 0.804861
413 -0.794520 -0.136734 -0.327844 0.012276 1.686184 -0.662479 -0.063735 -0.202677 0.080736 0.727474 0.759114 -0.611741 -0.182317 -0.800570 -0.530940 0.768626 0.811436 -0.760725 -0.839498 1.419047 0.476590 0.821837 -0.439766 0.854145 -0.329713 0.691452 -0.599515 -0.749113 -0.070351 0.679812 0.254818 0.764449
3 -0.090060 0.226654 -0.977846 -1.888462 1.330641 0.261712 -0.094101 0.732381 -0.670273 0.384557 -0.230069 0.099436 0.550634 -0.969995 0.084417 0.303835 -0.121357 -1.069116 -0.665063 0.259741 0.204153 1.066209 -0.078656 1.682664 -0.004864 0.168499 -0.066518 0.215986 -1.014197 -0.300156 2.581787 -0.060947
165 0.094488 0.151135 -0.881617 0.818333 0.824874 -0.738843 -0.233493 0.265689 -0.515199 0.476249 -0.256311 -0.993017 0.423498 -1.222631 -1.328346 0.774921 0.006030 -0.822352 -0.854771 0.888234 0.135370 -0.219001 1.250395 0.064246 0.054356 -0.217126 0.047274 -0.048110 -0.338463 -0.727027 0.472149 0.671559
529 0.435550 -0.052871 0.612146 1.146867 0.647883 -0.441039 0.019012 -0.063052 -0.419316 -0.137997 -0.050341 -0.851047 0.088853 -0.337711 -0.179057 0.472056 0.674031 0.194593 -1.365395 -0.187926 0.815139 0.506515 -0.460547 0.804149 -0.624567 -0.566805 -0.339870 -0.499331 -0.518126 -0.737784 0.287812 0.433906
1000 0.708652 -0.725927 -0.070085 0.383377 1.384984 -1.445277 -0.512112 -1.370489 -0.302237 -0.379611 -0.626945 -0.931850 0.471360 -1.302565 -0.376280 0.477737 0.469078 -0.700321 -0.880714 -0.294375 0.075870 0.652126 0.266736 -0.177639 -0.261936 -0.615648 -0.656030 0.216397 -0.321242 1.343158 0.692203 0.524268
1156 1.177026 0.208871 0.409289 0.126822 0.591839 -0.573784 -0.125491 -0.441172 -0.661463 -0.212797 0.117569 -0.333823 0.264986 -0.082689 -0.889100 1.739786 -0.601030 -0.962648 0.075453 1.013395 0.592893 1.030515 0.149574 0.153302 0.314630 -0.562382 -0.689019 -1.124519 -0.649047 0.190777 0.544681 1.029172
920 1.334327 0.108729 0.472264 0.152098 0.580960 -0.539017 -0.049004 -0.417274 -0.686712 -0.328105 0.118025 -0.311760 0.326175 -0.103574 -0.879555 1.757276 -0.436129 -1.089861 0.092267 1.002708 0.530833 1.058953 0.204370 0.215860 0.379023 -0.563097 -0.606572 -1.129807 -0.640687 0.246826 0.601408 0.999854
973 0.374843 0.031615 0.651825 1.163424 0.681363 -0.443781 0.147071 0.056430 -0.460461 -0.180200 -0.019372 -0.868146 0.151927 -0.404254 -0.182299 0.507431 0.698096 0.293971 -1.342937 -0.110253 0.740965 0.512571 -0.379462 0.902244 -0.619170 -0.507911 -0.361906 -0.417779 -0.380844 -0.721058 0.246570 0.433929
231 0.715764 -0.691301 0.007583 0.501251 1.355816 -1.515779 -0.511543 -1.320512 -0.204481 -0.408215 -0.436206 -0.978701 0.363904 -1.320336 -0.587522 0.511768 0.480272 -0.764133 -0.832875 -0.305219 0.125170 0.667037 0.215069 -0.165668 -0.230932 -0.744193 -0.670179 0.194078 -0.288371 1.312082 0.707325 0.409017
1011 1.265731 0.098195 0.469093 0.135579 0.621652 -0.533198 -0.124086 -0.528126 -0.663060 -0.342691 0.061854 -0.240353 0.294922 -0.120455 -0.870779 1.726778 -0.430645 -1.086205 0.115611 1.063729 0.636800 1.041365 0.127104 0.152111 0.366020 -0.495172 -0.584960 -1.099744 -0.739125 0.279508 0.644047 0.968355
637 0.629788 0.706927 -0.776305 0.554793 2.080989 0.913361 -0.830435 -0.349487 -0.806044 -0.184106 -0.110202 -0.665203 0.897812 -0.375427 -0.471971 0.295015 -0.078521 -1.165371 -0.303589 0.469299 -0.279298 -0.000500 -0.053768 1.894027 -0.082644 0.267942 0.116636 -0.600914 -0.420109 0.355229 1.072626 1.064437
279 0.777407 -0.721388 -0.003181 0.462682 1.283209 -1.481639 -0.522446 -1.315101 -0.222197 -0.388041 -0.458163 -0.870860 0.395948 -1.299547 -0.486433 0.464456 0.458854 -0.683396 -0.882361 -0.230589 0.120710 0.656789 0.208676 -0.137791 -0.164846 -0.673371 -0.687675 0.204765 -0.341543 1.365607 0.739479 0.388536
483 0.419258 -0.025968 0.596281 1.166966 0.580532 -0.409964 0.102614 -0.073223 -0.484450 -0.195465 -0.031930 -0.932940 0.135462 -0.348504 -0.214860 0.529028 0.728481 0.279449 -1.313723 -0.139476 0.649872 0.537998 -0.370508 0.926969 -0.585325 -0.599777 -0.379064 -0.460411 -0.429253 -0.708922 0.251256 0.376429
1143 0.656730 0.722931 -0.793240 0.527215 2.149222 0.973016 -0.860027 -0.385737 -0.781613 -0.135724 -0.124658 -0.724968 0.907044 -0.386728 -0.485632 0.332274 -0.186777 -1.215717 -0.294091 0.530118 -0.282238 -0.049752 -0.012032 1.898994 -0.059390 0.369456 0.158017 -0.634264 -0.471012 0.362818 1.046724 1.146719
190 0.044509 0.101214 -0.983480 0.835127 0.874714 -0.707366 -0.188140 0.332432 -0.501410 0.516065 -0.226461 -1.086834 0.408747 -1.212209 -1.358542 0.796695 -0.004715 -0.824927 -0.963316 0.885722 0.083264 -0.198121 1.293524 0.113080 0.109975 -0.267469 0.095911 0.020038 -0.298436 -0.694094 0.466149 0.671889
417 -0.040548 -0.231267 -0.706444 -0.208741 0.963863 0.900568 -0.801995 -0.937630 0.103502 -0.342357 0.224241 -0.520539 0.142374 -0.222799 -0.847153 1.011032 0.797068 0.365777 -0.477089 0.094055 0.567013 1.831141 -0.862324 1.246850 -0.969868 -1.140616 -0.789849 0.134394 0.398275 0.871816 1.163176 0.658093
851 0.130423 0.113531 -0.954765 0.875460 0.884717 -0.755915 -0.181636 0.267237 -0.504971 0.549521 -0.258358 -1.117873 0.393249 -1.220664 -1.303557 0.761657 -0.055130 -0.850911 -0.937896 0.881823 0.123697 -0.231672 1.206107 0.145273 0.010983 -0.227824 0.118410 -0.087056 -0.364464 -0.721486 0.460863 0.735603
516 -0.356124 0.073841 -0.508087 0.347942 1.227219 -0.144006 -0.483280 0.454659 0.819101 0.426235 -0.597259 -0.316536 0.964819 0.363230 0.448943 1.040502 -1.088849 -0.985680 -1.360241 -0.152980 0.765335 1.047104 -0.998648 1.712897 -0.162224 -0.378991 -0.444747 -0.577367 -0.441833 -0.232349 1.373584 0.959621
568 -0.269098 0.002015 -0.643638 -0.197303 0.048624 -1.313001 -1.010090 0.117651 -0.712123 -0.619628 -0.791851 -1.438757 0.721936 -1.538075 0.223406 0.694671 -1.326132 -0.810488 -1.030817 0.187868 0.293114 1.371883 -0.085816 1.083586 -0.764540 -0.491927 -0.573540 -0.387855 -0.173659 -0.054368 0.385545 1.116605
662 -0.743012 -0.140384 -0.326829 0.051297 1.696665 -0.600313 -0.057877 -0.236526 0.038703 0.745859 0.751435 -0.650908 -0.202155 -0.757874 -0.451148 0.770388 0.733746 -0.673168 -0.837824 1.410230 0.529653 0.728751 -0.380772 0.823517 -0.220348 0.807340 -0.586254 -0.754227 -0.102634 0.710035 0.269617 0.790845
1066 1.105487 0.224887 0.237919 0.053098 0.650852 -0.467362 -0.227934 -0.651991 -0.429295 -0.123519 0.061057 -0.371628 0.244771 -0.173998 -0.913338 1.735663 -0.923557 -0.728429 0.052486 1.018897 0.887782 0.850617 0.011570 0.298350 0.319495 -0.464840 -0.757736 -1.216030 -0.823362 0.206181 0.413618 1.116542
365 -0.146293 0.056271 -0.204793 -0.138305 1.104151 0.146668 -1.108347 0.336310 -0.115364 -0.711138 0.502857 0.102869 0.321926 -0.338880 -0.639439 1.223114 0.178214 -0.256922 -0.888769 1.127710 0.795860 0.344719 0.511643 0.485611 -0.632509 -0.280826 -1.355313 -0.501418 -0.520319 -0.516843 1.185055 -1.063997
1054 0.982849 0.345850 0.159436 0.029517 0.701212 -0.504298 -0.301016 -0.652212 -0.454756 -0.003140 0.097680 -0.399597 0.171762 -0.191525 -0.912670 1.717440 -1.072777 -0.572396 0.022865 1.058809 0.981799 0.822722 -0.033634 0.290347 0.217399 -0.436672 -0.816563 -1.225389 -0.858952 0.169513 0.355331 1.184348
887 0.674105 0.765854 -0.779748 0.549471 2.120581 0.957370 -0.850984 -0.344021 -0.851967 -0.142724 -0.068770 -0.699224 0.937109 -0.335944 -0.463318 0.276633 -0.140512 -1.151101 -0.309548 0.494040 -0.294025 -0.019999 -0.009502 1.855722 -0.059690 0.248137 0.078266 -0.659369 -0.418554 0.347707 1.072552 1.095603
882 -0.061350 0.204401 -0.982059 -1.869783 1.238872 0.297549 -0.109661 0.744394 -0.610719 0.380747 -0.220265 0.106237 0.537084 -0.961960 0.102817 0.271824 -0.132958 -1.077080 -0.677623 0.309281 0.197642 1.009669 -0.051939 1.625799 -0.019827 0.109151 -0.053245 0.197515 -1.004533 -0.321853 2.592768 -0.127093
1041 1.202135 0.265387 0.560717 0.162081 0.605769 -0.512084 -0.156651 -0.383296 -0.823082 -0.192615 0.226971 -0.254360 0.293766 -0.009245 -0.920410 1.806593 -0.325346 -1.038222 0.105091 0.999317 0.461979 1.114532 0.075933 0.120340 0.266069 -0.528852 -0.664719 -0.972810 -0.526611 0.322457 0.713465 0.984448
63 -0.088894 0.173195 -1.005685 -1.903955 1.209846 0.316274 -0.092537 0.724793 -0.580918 0.438470 -0.214364 0.114285 0.510093 -1.037271 0.081641 0.227746 -0.161901 -1.088732 -0.647012 0.354893 0.244127 0.933963 -0.048321 1.659149 -0.047246 0.161241 -0.034414 0.232786 -0.973690 -0.272406 2.594980 -0.149778
889 1.039268 0.351141 0.436055 0.121587 0.573557 -0.489022 -0.289717 -0.481332 -0.741369 -0.095673 0.214596 -0.369437 0.223071 -0.018656 -0.912204 1.806070 -0.664497 -0.883591 0.080879 1.031331 0.537229 1.072231 -0.022801 0.154715 0.181875 -0.477834 -0.815379 -1.034023 -0.517711 0.323408 0.528701 1.073480
989 0.419815 0.003165 0.655273 1.096326 0.530034 -0.393612 0.139862 0.040445 -0.417479 -0.214261 0.011673 -0.879160 0.147583 -0.359655 -0.229682 0.567069 0.598863 0.308508 -1.348040 -0.119942 0.644994 0.445286 -0.384827 0.887823 -0.744998 -0.552204 -0.332365 -0.400626 -0.372533 -0.748249 0.262866 0.397676
1171 0.420804 -0.019602 0.613023 1.160379 0.700185 -0.376017 0.071408 0.024384 -0.413808 -0.164401 -0.006329 -0.931724 0.059511 -0.309283 -0.154264 0.507260 0.657067 0.266823 -1.378195 -0.121379 0.713139 0.528888 -0.388403 0.968134 -0.554709 -0.496629 -0.357716 -0.498017 -0.396258 -0.713027 0.222253 0.439587
340 0.233525 -0.095336 0.743151 1.114396 0.701050 -0.440464 0.059115 -0.104057 -0.286187 -0.195191 -0.023220 -0.885766 0.111830 -0.418004 -0.157713 0.613292 0.597266 0.308916 -1.441350 -0.112775 0.586533 0.399226 -0.435527 0.732798 -0.816573 -0.725954 -0.487583 -0.377515 -0.319679 -0.763709 0.327597 0.433541
119 0.081652 0.133803 -0.962108 0.881170 0.861728 -0.724902 -0.177037 0.272607 -0.510743 0.513101 -0.266094 -1.105449 0.375589 -1.227976 -1.331354 0.687564 -0.034135 -0.818282 -0.945685 0.916150 0.143514 -0.232152 1.236625 0.168680 0.031325 -0.237317 0.087295 -0.066598 -0.344954 -0.710135 0.462475 0.676130
785 -0.202880 0.018120 -0.669437 -0.275385 0.011211 -1.285038 -0.954964 0.149145 -0.796775 -0.584124 -0.817303 -1.426137 0.699949 -1.512869 0.220475 0.681129 -1.326566 -0.800810 -0.996557 0.139227 0.338478 1.343589 -0.109833 1.086471 -0.691991 -0.503627 -0.501437 -0.388206 -0.250192 -0.009699 0.389890 1.102464
1100 -0.250114 0.192831 -0.225591 -0.599874 1.430387 -1.178784 0.521113 -0.086646 0.798170 -0.356638 -0.247096 0.118441 0.570198 -0.597640 -1.345702 1.608674 0.562147 -0.619001 -0.755523 -0.432521 -0.093730 -0.019620 0.082192 0.872335 -1.026597 0.572868 -0.235665 -0.488234 -1.542255 -0.345188 0.886511 0.509043
781 -0.225261 0.161698 -0.201084 -0.615915 1.395400 -1.210755 0.530233 -0.099154 0.753782 -0.367503 -0.264669 0.125448 0.550758 -0.634304 -1.306666 1.628247 0.541102 -0.589972 -0.788072 -0.440663 -0.065121 0.038389 0.059696 0.847964 -1.026848 0.620976 -0.298577 -0.531673 -1.545240 -0.315648 0.848614 0.497717
835 -0.269969 0.046078 -0.656185 -0.236913 0.008796 -1.352304 -0.954576 0.165283 -0.769020 -0.584034 -0.788184 -1.429551 0.704337 -1.538361 0.221075 0.664986 -1.342893 -0.841787 -0.994740 0.168514 0.305322 1.368721 -0.058799 1.122201 -0.702490 -0.471385 -0.555779 -0.374274 -0.201053 -0.029488 0.390756 1.078701
841 -0.233012 0.176315 -0.173833 -0.616778 1.419367 -1.143032 0.511948 -0.089458 0.809702 -0.319943 -0.266610 0.120591 0.549247 -0.633214 -1.293403 1.622003 0.542119 -0.597684 -0.831312 -0.435366 -0.045427 -0.019861 0.090279 0.856943 -1.036935 0.577909 -0.255073 -0.485120 -1.534973 -0.357248 0.929761 0.477296
446 -0.249881 0.472310 0.437810 -0.295090 1.520634 0.695717 0.204119 -0.362707 -1.178997 0.210238 -1.036630 -1.040862 -0.194725 -0.640957 0.183839 1.232036 0.278500 -0.756056 -1.273047 0.036425 0.947696 0.246009 0.755699 0.482166 -0.878398 0.573777 0.080809 0.615205 -1.454183 0.670901 0.899631 0.520873
43 -0.234303 0.520938 0.403932 -0.306013 1.548809 0.676032 0.204468 -0.351965 -1.173098 0.254347 -0.985838 -1.024320 -0.198006 -0.645702 0.152458 1.241968 0.277506 -0.785279 -1.271321 0.068062 0.923648 0.262785 0.772725 0.437150 -0.878129 0.604929 0.061476 0.624101 -1.441288 0.652930 0.906530 0.526844
205 -0.107945 0.083603 -0.232560 -0.132053 1.054601 0.096022 -1.123204 0.297361 -0.104138 -0.690279 0.556893 0.069082 0.284072 -0.313719 -0.700597 1.202846 0.182590 -0.292357 -0.892445 1.115976 0.775172 0.298508 0.493266 0.471122 -0.647964 -0.287667 -1.365337 -0.505254 -0.459005 -0.535466 1.163419 -1.026614
147 1.338795 1.347062 0.693788 -1.129087 0.528256 -0.979276 -0.026524 -0.146995 -0.964883 0.334015 0.398797 -0.627742 0.539424 -1.250400 -0.488196 0.650553 0.865391 -0.413406 -0.819637 1.010250 0.421565 0.314497 0.205831 -0.281415 -1.842052 -0.552340 -0.779542 0.158614 -0.832615 0.171459 0.680659 -0.095560
502 0.349891 -0.046644 0.630867 1.116737 0.664865 -0.386817 0.097954 -0.008425 -0.404410 -0.145138 0.058743 -0.941844 0.129813 -0.373311 -0.283384 0.554406 0.725045 0.273365 -1.272345 -0.089243 0.631364 0.473675 -0.426787 0.912214 -0.718051 -0.597626 -0.314200 -0.489794 -0.317489 -0.722732 0.194711 0.451695
40 0.303562 -0.070736 0.609186 1.186295 0.704002 -0.412158 0.039657 -0.027748 -0.372899 -0.223035 -0.024792 -0.940152 0.128697 -0.296856 -0.236818 0.483836 0.641651 0.262159 -1.351338 -0.213952 0.696292 0.459302 -0.341407 0.890675 -0.660569 -0.657246 -0.408910 -0.521716 -0.371876 -0.750790 0.308966 0.399816
633 0.676269 0.644083 -0.758509 0.642471 2.050154 0.918123 -0.826631 -0.316961 -0.925464 -0.220672 -0.087596 -0.588200 0.888631 -0.289928 -0.440887 0.137566 0.029656 -1.152779 -0.264538 0.486655 -0.325854 0.030670 -0.075650 1.858659 -0.016659 0.198129 0.168218 -0.610323 -0.420901 0.399819 1.108951 0.933014
552 -1.051291 1.349953 -0.361988 -0.617131 1.474171 -0.864143 -0.397258 -0.329908 -0.778965 0.393169 -0.823853 -0.816494 0.642782 -0.100993 -0.893843 0.305124 0.185705 0.134586 -0.181697 0.287328 0.911183 0.030789 0.106610 0.567836 -0.262495 -0.815224 -1.172655 -0.630295 0.558948 -0.504443 1.192661 0.849095
532 -0.281601 0.005579 -0.560077 0.274834 1.233693 -0.161547 -0.509707 0.396784 0.896630 0.393728 -0.563934 -0.199048 0.958697 0.420444 0.352806 1.065452 -0.999879 -0.916865 -1.319443 -0.208804 0.891997 0.965231 -1.036212 1.628990 -0.172449 -0.385191 -0.373004 -0.564547 -0.447791 -0.192970 1.313129 0.917786
923 0.347558 0.142752 -0.285187 0.247003 0.907223 -0.377201 -0.177263 -0.102494 -0.235636 0.288563 0.022816 -0.650200 0.494693 -0.902748 -0.578242 0.920003 0.449028 -0.314404 -0.726829 0.494858 0.851793 0.547322 0.079657 1.167361 -0.488197 -0.663748 -0.534767 -0.111215 -0.527009 -0.147740 1.252688 0.614679
947 -0.741659 -0.076256 -0.420670 -0.008945 1.611427 -0.483753 0.013602 -0.224315 -0.121133 0.751294 0.647539 -0.665007 -0.362397 -0.796889 -0.363499 0.613031 0.793996 -0.520678 -0.823015 1.438006 0.695312 0.706896 -0.311755 0.813433 -0.146940 0.921445 -0.504467 -0.654151 -0.215757 0.670200 0.393492 0.892536
101 0.097180 0.103035 -0.979765 0.849397 0.945901 -0.807036 -0.230140 0.242109 -0.438991 0.476057 -0.288045 -1.048690 0.398431 -1.157508 -1.332503 0.735651 -0.052879 -0.821452 -0.909602 0.893924 0.203267 -0.231636 1.203161 0.115357 0.086412 -0.233512 0.106012 -0.152780 -0.352367 -0.742361 0.425130 0.731140
845 0.969657 0.362102 -0.873108 0.752422 0.526159 0.117158 -0.190167 0.628427 -1.983948 1.083279 0.273806 -1.148030 0.428675 -0.342344 -0.213339 0.844434 -0.051307 -0.777062 -0.663665 1.160365 0.264662 0.483030 0.560568 1.018587 -0.783510 -1.019885 -1.985724 0.128868 0.478712 0.547840 0.197035 0.190143
505 0.387722 -0.053574 0.594289 1.088600 0.638901 -0.364822 0.121020 0.011903 -0.380960 -0.154604 -0.002637 -0.916429 0.099835 -0.408688 -0.244773 0.571721 0.739508 0.327840 -1.414377 -0.136270 0.688927 0.433089 -0.436166 0.865768 -0.668502 -0.609108 -0.350728 -0.486540 -0.347081 -0.722953 0.286875 0.406308
767 -0.242068 0.170539 -0.212169 -0.622745 1.423122 -1.209143 0.515675 -0.109583 0.740415 -0.311217 -0.213678 0.150967 0.554777 -0.691972 -1.268500 1.610766 0.542144 -0.581108 -0.801478 -0.363901 -0.044360 0.030406 0.096861 0.809654 -0.969297 0.566454 -0.285784 -0.498901 -1.505574 -0.344265 0.872418 0.500829
140 0.719997 0.987025 -1.099478 0.364454 0.768847 0.453355 -0.156822 -0.337740 -0.511259 0.936788 0.886433 -0.090352 0.108298 -1.691338 -0.916885 1.448683 0.289723 0.149561 0.222485 0.803690 0.084784 -0.170530 -0.439182 1.519505 -1.152540 -0.020209 0.242279 -0.371977 -0.534418 -0.602899 0.969633 -0.317863
51 0.120482 0.100054 -0.921891 0.893252 0.847918 -0.761051 -0.224087 0.274028 -0.498663 0.500510 -0.225643 -1.037210 0.390619 -1.246545 -1.329794 0.764129 0.004007 -0.853177 -0.917299 0.888202 0.063569 -0.189576 1.280293 0.124617 0.101667 -0.199584 0.128146 -0.061052 -0.342385 -0.711841 0.451117 0.700595
536 0.398259 0.025223 0.651763 1.161273 0.742609 -0.339676 0.163830 0.060995 -0.406284 -0.061010 0.098935 -0.867688 0.141865 -0.345955 -0.172021 0.526880 0.708208 0.246327 -1.298621 -0.025461 0.624128 0.474427 -0.461874 1.000195 -0.708448 -0.467385 -0.344021 -0.447504 -0.332581 -0.706953 0.209087 0.475200
249 0.986461 0.370114 -0.887350 0.792883 0.556877 0.166307 -0.231669 0.650489 -1.962202 1.097574 0.237882 -1.180444 0.446400 -0.359782 -0.210008 0.862344 -0.073959 -0.809760 -0.742043 1.142067 0.289899 0.457753 0.550658 1.093419 -0.807394 -0.996968 -1.958396 0.134272 0.452493 0.521804 0.221105 0.199587
507 0.657058 0.618103 0.654349 -0.367495 1.549417 -0.125954 -0.503864 -0.462024 0.196021 0.746246 0.420848 -0.443229 0.423044 -0.241850 -1.045950 1.521082 0.670628 -0.469695 0.019188 -0.328051 0.831755 0.399383 0.336743 1.253843 0.765527 0.345507 -0.250255 0.752199 -0.518905 1.415876 2.187493 0.905887
263 0.346062 -1.310521 -1.597601 -0.641730 1.238849 -0.149732 -0.378829 0.524058 -0.213855 0.272709 0.613351 -0.619030 0.339986 -0.707126 -0.141903 0.263926 0.075510 -0.508283 -0.739591 0.728397 0.700034 0.239689 0.302670 0.520902 -1.882798 -1.424228 0.232098 -0.696887 -0.510760 -0.372839 0.434417 0.556901
917 0.449417 -0.049404 0.591081 1.144916 0.718285 -0.417492 0.136035 0.048865 -0.367665 -0.242703 0.024108 -0.906921 0.130455 -0.354623 -0.204058 0.571350 0.629839 0.212787 -1.372936 -0.124158 0.718952 0.485607 -0.398764 0.925009 -0.649681 -0.604747 -0.458658 -0.559927 -0.457279 -0.806097 0.177958 0.455294
491 0.007376 -0.189371 -0.851536 0.158619 1.403049 -0.268986 -0.598293 0.255203 0.825106 0.271634 -0.570819 -0.109566 1.139967 0.539844 0.180118 1.077580 -0.954821 -0.663299 -1.386210 -0.400439 1.229825 0.700989 -0.917781 1.508905 -0.346366 -0.303604 -0.112347 -0.407280 -0.176758 -0.273873 1.112603 1.055457
158 0.081325 0.090192 -0.992610 0.869856 0.884932 -0.764702 -0.180095 0.281486 -0.484603 0.482820 -0.210432 -1.091339 0.388826 -1.216778 -1.327162 0.746032 -0.014925 -0.794660 -0.909173 0.932054 0.123609 -0.213417 1.208233 0.141229 0.075196 -0.248038 0.155887 -0.123459 -0.310135 -0.677880 0.440411 0.722874
342 -0.670169 -0.086558 -0.739842 -0.264874 0.960711 0.550259 0.638512 0.536169 -0.265096 0.538915 -0.187285 0.381170 0.255146 -1.786215 -0.252427 1.107309 0.844819 0.255343 0.289432 1.072615 1.326572 0.465839 1.010072 1.050111 0.702363 -0.688086 -1.134615 -0.512971 -1.168814 1.471309 2.076478 0.168523
716 0.112210 0.151312 -0.160708 0.284707 0.792292 -0.272723 -0.377766 -0.023319 -0.188776 0.287329 -0.043674 -0.528375 0.658231 -0.721389 -0.492118 0.942431 0.456802 -0.549104 -0.761248 0.223877 0.880711 0.412733 -0.208393 0.822067 -0.859255 -0.713468 -0.379725 -0.188535 -0.156201 0.151712 1.440032 0.502096
1060 0.850997 -0.973070 0.619609 0.708956 0.235466 0.213025 0.182260 -0.263043 -0.069225 0.812772 0.139481 -0.396996 0.353090 -1.515925 -0.262356 1.267768 1.307233 -0.165392 0.271376 0.993722 2.050406 0.940360 -1.105120 1.054955 -0.436544 -0.350581 0.386134 0.572558 -1.399652 1.370487 1.265903 0.473197
1062 -0.021866 0.185127 -0.291106 -0.246323 -0.593824 -0.406629 0.445206 0.873715 -0.416501 -0.251769 0.032993 -0.532989 1.140615 -0.696890 -1.158891 1.585777 -0.694257 -1.296442 -1.690174 0.219671 -0.166352 1.449745 -0.012247 0.296150 -0.960935 -1.008282 0.400692 0.414167 -1.034997 -0.034875 1.680323 -0.557523
296 0.088203 0.102969 -0.302249 0.224713 0.927583 -0.365770 -0.187797 -0.299310 -0.389558 0.304048 -0.093152 -0.760521 0.503823 -0.764991 -0.642854 1.007292 0.342481 -0.533594 -0.851586 0.360257 0.695363 0.577729 0.087997 0.989838 -0.630881 -0.493268 -0.422949 -0.300522 -0.471815 0.030078 1.164518 0.350961
295 0.403306 0.082112 -0.459676 0.263900 1.084885 -0.493813 -0.208664 -0.272171 -0.522431 0.306399 -0.108484 -0.592423 0.532684 -1.048688 -0.649055 1.004798 0.306932 -0.654592 -1.112998 0.362133 0.894232 0.520061 0.015036 0.953079 -0.725015 -0.582846 -0.462079 -0.317977 -0.452788 0.082242 1.194946 0.559830
1129 0.455316 0.094514 -0.385416 0.322982 1.116277 -0.495589 -0.249952 -0.150042 -0.545767 0.183990 -0.180221 -0.692562 0.658616 -1.053006 -0.572321 1.049301 0.150472 -0.546060 -1.055210 0.340572 0.982512 0.593966 0.120221 1.003991 -0.724619 -0.577729 -0.520763 -0.358736 -0.591152 -0.120461 1.251651 0.651684
593 0.803500 -0.376571 -0.322138 -0.276374 -0.528417 -1.602094 0.450540 0.320670 -1.003685 0.915086 -0.067474 -0.263248 0.420106 -1.977348 -0.954897 -0.026425 -0.301974 -0.427443 0.364409 1.181321 1.973267 0.297766 0.612436 0.604971 -0.803324 -1.580390 -0.203368 -0.241229 -0.257536 0.753492 1.611184 0.640408
1080 0.562294 0.350443 -0.204872 0.034001 0.656990 -0.079528 -0.120752 -0.287339 -0.422240 0.275616 -0.152404 -0.400205 0.661346 -0.862244 -0.615919 0.969639 0.414014 -0.390058 -0.530668 -0.010532 0.876774 0.669341 -0.129436 0.769327 -0.633148 -0.878519 -0.207601 0.049817 -0.310839 0.158670 1.821549 0.182285
1127 0.309655 0.046941 -0.268054 0.169027 0.926909 -0.460508 0.053121 -0.285209 -0.725207 0.130814 0.119110 -0.688747 0.323246 -1.278493 -0.805019 1.052079 0.574071 -0.413144 -0.482555 0.765456 0.661840 0.557872 0.369068 0.652529 -0.559641 -0.556521 -0.657243 -0.103334 -0.454230 0.084604 1.095748 0.235014
274 0.306281 0.156333 -0.531073 -0.206068 0.759709 -0.224961 -0.383998 -0.275757 -0.634447 0.662466 -0.137516 -0.318330 0.777830 -1.140822 -0.564817 1.130140 0.462780 -0.343416 -0.764229 0.237494 0.990977 0.689568 0.100842 1.378423 -0.876121 -0.834140 -0.485063 -0.035409 -0.189944 -0.014496 1.969621 0.171044
18 0.347494 0.125626 -0.539327 -0.044052 0.784093 -0.015600 -0.116964 -0.004614 -0.296327 0.518497 -0.058786 -0.135222 0.698780 -0.847102 -0.466846 0.844133 0.235985 -0.516271 -0.746506 0.394300 0.947968 0.571499 0.026765 0.861392 -0.675878 -0.430650 -0.453338 -0.077865 -0.299604 0.068915 1.369001 0.481512
1236 0.094845 0.800958 -0.576258 0.911562 0.248874 -0.034202 0.140488 -0.440542 0.295223 -0.202963 -0.606506 1.092415 0.719356 -1.604646 -0.638113 1.313114 1.952637 -1.112732 -0.981519 1.594244 0.105018 -0.024260 -0.292063 0.854390 -0.356507 -0.825776 -1.357918 0.419294 -0.424842 -0.044728 0.699033 0.176599
444 0.282807 0.104372 -0.507757 -0.048247 0.773036 0.001007 -0.107282 -0.003304 -0.351033 0.478708 -0.026840 -0.151272 0.672729 -0.856689 -0.466973 0.876128 0.257058 -0.530969 -0.745791 0.376399 0.912146 0.616098 -0.003937 0.833390 -0.715178 -0.430073 -0.515886 -0.097171 -0.277229 0.064744 1.335213 0.428903
1245 -1.022498 0.392531 -0.706085 0.760565 0.577469 -0.353038 -0.314821 -0.054842 -0.519626 1.161321 -0.710739 -1.405951 0.753390 -0.895711 -0.699792 0.358435 1.413993 -1.123249 -0.464898 0.125099 -0.185501 -0.381151 -0.708022 1.434052 -1.413233 -0.120503 0.107086 1.141911 0.323954 -0.558445 2.144634 0.096962
91 0.128859 0.097588 -0.281211 0.238753 0.932215 -0.357246 -0.179636 -0.296855 -0.389589 0.307971 -0.106521 -0.737536 0.522309 -0.805309 -0.629880 0.944154 0.300199 -0.535257 -0.855502 0.346845 0.725857 0.564891 0.097611 0.970735 -0.645258 -0.487482 -0.423863 -0.299536 -0.483724 0.019730 1.138735 0.374149
736 0.449427 0.094288 -0.389063 0.337337 1.103486 -0.489296 -0.234872 -0.150056 -0.566301 0.191113 -0.180931 -0.660243 0.661259 -1.052640 -0.570041 1.080523 0.141111 -0.550021 -1.052801 0.359185 0.978354 0.592424 0.120199 1.047919 -0.740681 -0.602091 -0.534569 -0.367977 -0.588201 -0.155579 1.234745 0.677524
747 0.332274 0.149482 -0.447001 -0.091785 0.832243 -0.166257 -0.080985 -0.148381 -0.243156 0.401930 0.030188 -0.429849 0.510221 -0.882575 -0.452547 1.128196 0.093618 -0.575384 -0.787964 0.529658 0.711204 0.461405 -0.225495 0.938481 -0.622325 -0.487315 -0.377070 0.071940 -0.507249 -0.036436 1.118601 0.501738
748 -0.076542 -0.364960 -1.023316 0.193879 0.986487 -0.354908 -0.698846 -0.398551 -0.680672 -0.346495 0.412992 0.284467 1.053161 -1.495453 -0.704970 0.485861 0.558629 -1.344501 0.618079 0.377922 -0.451082 1.244166 -0.311162 -0.045157 -0.714423 -0.807190 -0.872064 0.176977 0.013780 -1.183314 2.833324 0.134229
232 0.536096 0.207892 -0.227866 0.078486 1.088672 -0.417652 -0.091866 -0.272197 -0.783387 0.201523 0.013653 -0.688396 0.526471 -0.970954 -0.567944 1.149240 0.530800 -0.592352 -0.950030 0.347885 0.884825 0.597329 0.028901 0.887902 -0.782564 -0.731177 -0.642829 -0.325837 -0.552397 -0.006307 1.525347 0.439840
1198 -0.066791 0.616934 0.705037 0.110583 0.267741 -1.685767 -0.440211 0.065726 0.820874 0.912057 0.257485 -0.246017 0.651958 -0.845228 -0.380874 1.483152 1.324309 -0.776449 -1.238483 0.198062 0.947649 1.828848 -0.024117 0.485999 -0.711984 -1.019528 -0.874869 1.478182 0.046151 0.320064 1.125758 -0.353590
1059 0.095887 0.234288 -0.398732 -0.300425 -0.633226 -0.450564 0.478521 0.889120 -0.450669 -0.206104 0.042082 -0.520976 1.085592 -0.627348 -1.170184 1.565391 -0.718384 -1.352790 -1.779165 0.134075 -0.274346 1.446450 -0.142186 0.321924 -0.966312 -1.026713 0.307254 0.420812 -1.004432 0.001719 1.630174 -0.579011
613 0.381015 0.076520 -0.398560 0.351905 1.356779 -0.559170 -0.218024 -0.213418 -0.594944 0.255893 -0.127591 -0.864589 0.603759 -1.182627 -0.727032 1.220484 0.267091 -0.679476 -1.206971 0.550019 1.074744 0.714254 0.062417 1.146862 -0.796310 -0.594438 -0.616825 -0.451800 -0.637571 -0.073837 1.368575 0.778619
1272 0.335223 0.214047 -0.813865 -0.409854 1.151760 -0.557680 0.084852 0.118523 -0.062479 0.453130 -0.114387 0.214926 0.660229 -1.026168 -0.557885 1.099889 0.029607 -0.863727 -0.508695 0.442325 1.291105 0.543036 0.268644 0.914813 -0.250758 -0.269089 -0.156700 -0.091220 -0.675034 0.090543 1.997687 0.326494
1284 -0.070001 0.615729 0.624676 0.144489 0.304251 -1.729491 -0.473785 0.080665 0.882092 0.896703 0.261520 -0.230367 0.683899 -0.834459 -0.439456 1.495261 1.349650 -0.777807 -1.223255 0.214044 0.850202 1.749299 -0.041468 0.461451 -0.689158 -0.944908 -0.812603 1.508767 0.034949 0.300947 1.101341 -0.471972
1288 -0.210804 -0.086768 -1.512702 -1.451339 0.336558 -1.232289 0.168177 -0.904056 0.501724 0.564182 -0.648445 0.135228 0.660940 -1.200062 -1.231466 1.159720 -0.152934 -0.944676 -0.314756 0.247756 0.564294 1.284201 0.712340 0.245836 0.294770 -1.583448 -0.384020 -0.475601 0.454404 0.921792 2.213237 0.681524
26 0.405260 0.145482 -0.411718 0.288114 1.168933 -0.506794 -0.193171 -0.204832 -0.679468 0.372142 -0.129595 -0.775769 0.519422 -1.153643 -0.731036 1.219688 0.310965 -0.707395 -1.077653 0.695361 0.906986 0.684930 0.175798 1.000021 -0.705559 -0.587572 -0.580192 -0.329040 -0.639281 -0.059927 1.353302 0.648226
937 0.861242 -0.988972 0.667468 0.667213 0.243712 0.235047 0.144515 -0.307206 -0.017531 0.817301 0.176284 -0.334021 0.376413 -1.488857 -0.305554 1.323416 1.326217 -0.167716 0.257427 0.999887 2.033376 0.870213 -1.101182 1.014353 -0.515376 -0.297187 0.386076 0.531432 -1.353200 1.369952 1.270445 0.403791
391 0.882023 -0.530041 -0.902534 0.435390 0.335878 -1.145296 0.123152 0.800368 0.495903 -0.620124 -1.137515 -0.032984 1.380546 -0.583825 -0.046806 1.474422 0.477374 -0.266908 -0.712498 -0.015586 1.384965 0.416600 -1.168146 1.719344 0.185172 -1.193471 -0.608063 0.902739 -1.382726 0.430979 1.726150 -0.790123
395 0.407823 0.076763 -0.442120 0.335521 1.376597 -0.589384 -0.247555 -0.217337 -0.607969 0.285576 -0.164519 -0.855753 0.609645 -1.226046 -0.673150 1.251699 0.268433 -0.707851 -1.243528 0.528239 1.040935 0.719245 0.096685 1.147188 -0.756513 -0.573901 -0.590167 -0.400513 -0.661566 -0.042791 1.413156 0.755847
586 0.210518 -0.015363 -0.278838 0.270347 1.103286 -0.431213 -0.198253 -0.151198 -0.479649 0.180308 -0.129825 -0.615505 0.521454 -1.007177 -0.495418 0.955178 0.295407 -0.508314 -0.920068 0.339970 0.866560 0.707713 -0.048458 0.938217 -0.673584 -0.454108 -0.470035 -0.202226 -0.500070 -0.000528 1.078464 0.497244
582 0.224313 -0.015586 -0.274480 0.289680 1.122277 -0.431065 -0.195166 -0.141414 -0.459592 0.191119 -0.105422 -0.631773 0.532677 -1.010628 -0.514077 0.958287 0.281227 -0.519481 -0.905056 0.328495 0.864566 0.706445 -0.051220 0.951803 -0.660810 -0.439285 -0.475918 -0.206649 -0.488862 -0.014001 1.100277 0.506731
246 0.460155 0.295207 -0.685511 -0.060449 0.629120 -0.352887 -0.189094 -0.008709 -0.570992 0.384438 0.158289 -0.254453 0.704383 -1.049091 -0.565784 0.900636 0.445239 -0.456764 -0.413254 0.344571 0.895242 0.531984 -0.061535 0.983308 -0.535630 -0.819926 -0.323161 -0.252592 -0.358063 -0.037823 1.743087 0.110756
514 0.244644 0.085898 -0.073506 0.155936 0.885365 -0.274998 -0.213127 -0.410202 -0.604188 0.260084 0.176655 -0.527561 0.303788 -1.016284 -0.570013 1.074666 0.777621 -0.411688 -0.757667 0.458158 0.794350 0.710878 0.111610 0.847869 -0.673753 -0.464000 -0.570411 -0.037638 -0.485935 0.158027 1.196660 0.233429
624 -0.679605 -0.142816 -0.757428 -0.263325 0.990219 0.567740 0.646202 0.489431 -0.266386 0.547196 -0.204418 0.416355 0.202502 -1.700554 -0.239864 1.064075 0.880080 0.268001 0.206296 1.011020 1.331840 0.481043 0.957742 1.062497 0.706325 -0.750400 -1.118601 -0.508151 -1.103869 1.472888 2.064624 0.165151
974 -0.498036 -0.787863 -0.526341 -0.325042 0.235360 -0.533063 0.142174 -0.448190 -0.183228 0.610798 0.606902 -0.108425 -0.100435 0.301656 -0.204542 2.518946 0.257002 -0.233537 -1.296260 1.024640 1.377844 0.664343 -0.547455 1.375019 1.176583 -1.346130 -1.418347 0.420801 -0.049024 0.270509 1.671886 0.238362
16 1.136944 1.183563 -0.266237 0.401063 -0.577258 0.539944 0.332623 1.209633 -0.709592 0.996865 -0.626834 -0.575261 0.571218 -1.182881 -0.236633 0.678228 -0.339348 -1.007669 -1.292515 -0.584870 1.318342 0.838277 0.608205 1.527478 -0.465827 -1.417261 0.438520 0.074980 0.271558 -1.271355 1.923027 0.658979
881 -0.332652 -0.011634 0.948930 0.219235 0.574369 -0.826014 0.445839 0.929683 -0.742256 -0.041790 -1.083469 0.956265 0.937663 -1.464192 -0.322345 1.802371 0.503466 -2.193166 -0.175373 0.285832 0.539959 0.989150 0.152568 0.804497 -0.538879 -0.070548 -0.114503 -0.086331 0.171071 0.702316 1.543327 -0.004286
884 0.314026 -0.540694 -0.927072 0.553013 0.342955 -0.508454 -0.283600 0.019747 -0.746243 1.130445 -1.185146 -0.779171 1.732418 -0.476782 -0.807579 0.093792 0.818913 0.073725 -0.535222 0.160742 0.793019 1.840763 1.271953 1.478959 -0.006445 -0.637573 0.678127 0.690884 0.496673 0.313963 1.545695 0.774258
324 1.321051 -0.240246 0.248139 0.208982 -0.008211 -0.455146 -0.083831 -0.342970 -0.704488 0.503173 0.429106 0.795414 1.614101 -1.067121 0.876928 1.606115 0.779453 -0.172590 -0.309097 -0.408840 2.026868 1.277411 -0.470485 0.113598 -0.521184 -1.823422 -0.415942 -0.109755 -0.104266 -0.721614 1.552943 0.186979
75 0.366207 0.133674 -0.482011 -0.062638 0.826421 -0.171848 -0.119710 -0.183226 -0.228565 0.402870 0.049251 -0.496448 0.492109 -0.893932 -0.482443 1.113606 0.096151 -0.606029 -0.791265 0.580154 0.681486 0.405657 -0.184760 0.895196 -0.638739 -0.537589 -0.390524 0.104697 -0.478294 -0.065902 1.076045 0.564344
1047 -0.396698 0.599698 -0.353491 -1.173891 0.930087 0.058409 -1.449314 -0.755773 -0.446180 0.914437 0.148204 -0.399841 1.209320 -1.377393 0.400401 2.227864 -0.069626 -1.151255 -0.323087 -0.140973 0.593797 0.779525 -0.917428 0.131751 -0.852531 0.414619 -1.348018 0.403123 -0.072106 0.629225 0.731816 0.550343
1148 1.112135 0.503133 0.617820 0.120578 0.725217 -0.189985 -0.122500 -0.697567 0.251372 -0.254894 0.161911 1.068059 1.241696 -0.473881 -1.439092 1.420828 1.188537 0.235003 -1.207783 0.006395 -0.234221 0.643365 -0.785767 0.637140 -0.310300 -1.166507 0.569701 0.072790 -1.337451 -0.024483 2.429089 0.362065
663 0.650220 0.280178 0.116309 -0.776178 1.324527 -1.147374 -0.245922 -0.600802 -0.190212 1.025311 -0.351453 -0.352810 1.242866 -0.176384 0.109409 0.237983 0.462405 -0.043781 -0.937493 -1.642014 0.535265 1.659560 -0.668963 1.734324 -0.113413 -1.655103 0.283557 0.141044 -0.797576 0.535319 1.980361 -0.104336
1266 -0.374184 0.596862 -0.359280 -1.105138 0.927372 0.040753 -1.479845 -0.767669 -0.397585 0.889995 0.138998 -0.389600 1.183694 -1.365580 0.355738 2.189122 -0.022310 -1.124274 -0.331457 -0.136593 0.608113 0.758591 -0.864662 0.119206 -0.872096 0.366760 -1.350198 0.392969 -0.058652 0.554387 0.724137 0.575964
697 0.243838 0.148037 -0.612467 -0.229023 0.747263 -0.191948 -0.359451 -0.213788 -0.518429 0.693905 -0.104742 -0.244644 0.809714 -1.065863 -0.537980 1.098410 0.374113 -0.363869 -0.737412 0.234197 1.009702 0.742376 -0.025061 1.413169 -0.816814 -0.820204 -0.449212 -0.095537 -0.191903 0.003115 1.976468 0.202348
699 0.265989 -0.018070 -0.257169 0.181228 0.944307 -0.434304 -0.081136 -0.170517 -0.626448 0.212863 -0.048926 -0.438249 0.520231 -0.981890 -0.476676 0.914667 0.463611 -0.350086 -0.738986 0.492167 0.700674 0.580350 0.046392 0.888941 -0.714336 -0.438941 -0.504563 -0.289374 -0.532423 0.053025 1.168248 0.495118
992 0.058705 0.381742 -0.356388 0.405685 1.016784 -0.217538 -0.299229 -0.145819 -0.459167 0.336956 0.260018 -0.614120 0.655657 -0.682329 -0.738796 0.998525 0.712776 -0.458625 -0.600949 0.637064 0.758928 0.753644 0.127302 0.717087 -0.536315 -0.830739 -0.317480 -0.227224 -0.020321 0.014307 1.562822 0.371038
126 0.059748 0.390626 -0.432398 0.390798 1.033593 -0.189508 -0.348014 -0.134142 -0.480403 0.322803 0.171548 -0.623541 0.628880 -0.711071 -0.736204 0.949622 0.632728 -0.500448 -0.614106 0.641559 0.785459 0.690819 0.218595 0.715334 -0.577766 -0.755608 -0.256483 -0.255914 -0.088690 -0.022855 1.538777 0.429386
128 0.993485 0.028098 -1.016134 -0.711931 1.401689 -0.601620 0.817808 0.129879 -0.394800 1.190670 -1.044048 0.023950 1.000704 -1.978504 -0.693403 1.084098 1.711586 0.095695 -0.450720 -0.159997 0.591310 0.283068 0.322707 -0.317127 -0.552477 -0.501208 1.136918 0.056252 -0.680806 0.179190 1.684124 -0.208304
922 0.261799 0.095754 -0.173810 0.132401 1.078305 -0.374866 -0.037942 -0.179199 -0.420380 0.097224 -0.096320 -0.523637 0.558339 -1.017952 -0.519021 1.083752 0.438544 -0.483141 -0.888753 0.341732 0.906810 0.714165 -0.235021 1.001929 -0.651825 -0.615003 -0.531092 -0.303503 -0.468864 0.186720 1.145448 0.524100
319 0.298877 -0.550821 -0.919574 0.621794 0.366233 -0.512024 -0.224315 0.001871 -0.715627 1.147624 -1.244566 -0.798984 1.693147 -0.437430 -0.797992 0.086940 0.812886 0.152845 -0.581503 0.075749 0.863014 1.791518 1.228873 1.486350 0.022416 -0.617382 0.723375 0.723116 0.464313 0.273754 1.543207 0.735728
360 0.362460 0.117225 -0.404502 0.291749 1.127179 -0.492119 -0.195521 -0.185722 -0.634971 0.378183 -0.111591 -0.725656 0.473176 -1.106545 -0.708794 1.168804 0.303975 -0.682804 -1.035359 0.668852 0.860442 0.666630 0.152634 0.946339 -0.678736 -0.563893 -0.541183 -0.299829 -0.613602 -0.085905 1.299602 0.614086
254 0.428244 0.022939 -0.313781 0.222102 1.204728 -0.600006 -0.052808 -0.206328 -0.489370 0.246575 0.060503 -0.603285 0.627046 -1.157226 -0.616231 1.128827 0.491747 -0.474842 -1.019961 0.400204 1.042827 0.740246 -0.042529 1.114461 -0.670653 -0.643761 -0.721491 -0.353735 -0.564505 0.041026 1.304830 0.551838
731 0.398593 0.079189 -0.429926 0.271162 1.060697 -0.454732 -0.179052 -0.261435 -0.517236 0.283379 -0.104554 -0.584503 0.519697 -1.036222 -0.635238 0.974464 0.304347 -0.632148 -1.077878 0.376889 0.882009 0.523036 0.005192 0.948496 -0.695909 -0.562913 -0.445381 -0.299966 -0.449247 0.077016 1.167260 0.534534
733 0.249848 -0.002015 -0.254057 0.170599 0.922400 -0.430842 -0.104662 -0.179409 -0.604207 0.220775 -0.068516 -0.433862 0.498965 -0.921678 -0.461038 0.878010 0.416894 -0.383267 -0.752176 0.489312 0.685659 0.576567 0.083273 0.857622 -0.668925 -0.411500 -0.477824 -0.286456 -0.500015 0.059147 1.130661 0.500593
734 0.394966 0.098738 -0.419402 0.364823 1.371786 -0.563638 -0.220353 -0.235788 -0.584848 0.283398 -0.140055 -0.888104 0.610452 -1.214998 -0.732166 1.238228 0.265485 -0.699847 -1.236916 0.537841 1.078653 0.727436 0.068166 1.156996 -0.812104 -0.576464 -0.623133 -0.465710 -0.663544 -0.065702 1.381946 0.787925
738 0.647994 0.342227 -0.319346 0.126546 0.899792 -0.329802 -0.343681 -0.471757 -0.327059 0.296492 0.002450 -0.424079 0.471518 -1.013494 -0.671258 0.860481 0.297088 -0.686568 -0.509685 0.476018 0.731782 0.364445 0.243041 0.542782 -0.549457 -0.547217 -0.436339 -0.020883 -0.484144 0.097580 1.188270 0.563752
630 0.708250 0.256769 0.188444 -0.721776 1.319716 -1.211514 -0.305092 -0.644229 -0.158033 0.981490 -0.271492 -0.397524 1.266024 -0.195393 0.071980 0.235368 0.443673 -0.049654 -0.952600 -1.668366 0.527599 1.646890 -0.681568 1.769751 -0.139674 -1.680552 0.236948 0.101798 -0.779594 0.474454 2.038888 -0.172283
1210 1.446782 0.726889 -1.161832 -0.565496 0.916440 -0.558660 0.296938 1.037028 -0.065113 0.234556 -1.013653 1.070075 1.684675 -0.707243 0.021398 1.304439 -0.287569 -0.678692 -0.373844 0.273440 1.165568 0.539596 0.490536 0.052436 -0.070133 -0.249955 -0.168546 0.046452 -1.001340 -0.312546 1.948281 1.714207
168 1.148026 0.463892 0.642453 0.044245 0.742318 -0.151756 -0.117144 -0.747588 0.253077 -0.277888 0.205802 1.105253 1.243444 -0.582259 -1.359397 1.428696 1.243424 0.280052 -1.202457 0.047980 -0.236746 0.667575 -0.764486 0.601476 -0.300474 -1.114761 0.536045 -0.007361 -1.383750 0.027869 2.361929 0.403856
967 -0.991628 0.363236 -0.662672 0.718004 0.641639 -0.276849 -0.346262 -0.007768 -0.492144 1.103010 -0.606121 -1.420912 0.760047 -0.866660 -0.669774 0.391617 1.397702 -1.097887 -0.508750 0.154543 -0.132364 -0.384584 -0.705374 1.433984 -1.455223 -0.204212 0.093367 1.042073 0.345919 -0.621918 2.132955 0.128321
1102 0.502035 0.193109 -0.198610 0.091664 1.129995 -0.388603 -0.135992 -0.272084 -0.738033 0.187447 -0.013949 -0.699127 0.527760 -0.896514 -0.541626 1.153024 0.515693 -0.586103 -1.003686 0.316771 0.878670 0.648579 -0.028828 0.925710 -0.806128 -0.733332 -0.648952 -0.334933 -0.527345 -0.006538 1.525242 0.434179
1103 0.422653 0.044210 -0.351986 0.249836 1.200732 -0.608354 -0.038108 -0.179237 -0.459698 0.221045 0.058574 -0.587152 0.611524 -1.149600 -0.631934 1.064498 0.486059 -0.464943 -1.009010 0.384038 1.025424 0.693167 -0.035321 1.076334 -0.620063 -0.626709 -0.683155 -0.318592 -0.560408 0.052594 1.246255 0.535944
879 0.591063 0.389039 -0.181847 -0.005696 0.577728 -0.093058 -0.107622 -0.259266 -0.425954 0.281621 -0.096054 -0.330159 0.716188 -0.902895 -0.642267 0.963415 0.491523 -0.340754 -0.456003 0.026777 0.868102 0.658199 -0.168075 0.761578 -0.713724 -0.959844 -0.263080 0.058270 -0.312883 0.125825 1.943126 0.087879
9 1.448028 0.754576 -1.190657 -0.546814 0.908555 -0.642748 0.285701 1.072710 -0.063576 0.156290 -1.024120 1.076223 1.634813 -0.695441 -0.014524 1.217749 -0.295647 -0.683601 -0.388408 0.255201 1.124632 0.575729 0.474046 -0.025184 -0.104493 -0.242091 -0.143025 0.042238 -1.009825 -0.392116 1.966619 1.695449
1248 -0.066701 -0.415355 -1.069870 0.151279 0.942957 -0.415396 -0.740408 -0.396937 -0.665469 -0.365809 0.461608 0.279489 1.054975 -1.507340 -0.731929 0.505507 0.559557 -1.344704 0.673324 0.363480 -0.447291 1.218836 -0.293531 -0.071455 -0.729884 -0.870734 -0.819090 0.184064 0.043516 -1.143525 2.794876 0.161681
801 0.121031 0.815340 -0.577657 0.964096 0.218418 -0.054816 0.200706 -0.385065 0.247029 -0.167250 -0.590126 1.058597 0.821227 -1.594683 -0.655894 1.264042 1.923999 -1.075564 -0.975830 1.630623 0.092940 -0.050606 -0.207519 0.877130 -0.358087 -0.840343 -1.416158 0.357023 -0.405900 -0.067428 0.698607 0.222194
359 0.399349 0.084065 -0.451405 0.346508 1.402573 -0.608025 -0.264331 -0.198914 -0.614378 0.292146 -0.165200 -0.853905 0.590893 -1.223967 -0.680121 1.240986 0.274147 -0.701600 -1.232623 0.522142 1.031682 0.729864 0.066862 1.133911 -0.750171 -0.555890 -0.589544 -0.414561 -0.673210 -0.085788 1.388965 0.771500
213 1.489786 -1.143067 -0.577573 -0.491546 0.985153 -0.698899 0.495148 -0.534681 -0.134095 0.434355 0.749746 0.624029 0.231843 -0.911089 0.424952 1.045100 0.633940 -1.427469 -0.993737 0.830609 0.466493 1.759780 -0.276120 0.540801 0.081191 -0.453690 -0.204559 -0.736414 -0.464077 1.429284 1.700715 -0.785460
1075 0.224202 0.082612 -0.145183 0.103193 1.095105 -0.348404 -0.036137 -0.178333 -0.421814 0.079222 -0.103968 -0.506995 0.538958 -1.015438 -0.492774 1.098796 0.467846 -0.452595 -0.885072 0.335200 0.920515 0.758640 -0.260109 1.030800 -0.657883 -0.611528 -0.520152 -0.288848 -0.467651 0.196076 1.168988 0.519948
1094 0.125033 0.975226 -0.841106 0.113861 -0.159652 -1.562584 -0.107405 0.780857 -0.159847 -0.141775 -0.507586 0.754901 -0.109635 -1.391620 -1.038787 0.924259 0.567077 -0.728457 -0.571099 0.407436 1.501272 1.280977 -1.502723 1.603754 -0.901683 0.094430 0.333077 0.445589 -0.078286 -0.852292 1.545357 -0.089032
1154 0.470525 0.321258 -0.734263 -0.100690 0.647048 -0.322021 -0.187835 0.040404 -0.548562 0.399054 0.163315 -0.226674 0.694712 -0.993806 -0.565383 0.961871 0.414770 -0.464323 -0.467003 0.381739 0.938388 0.553373 -0.085043 1.032909 -0.466926 -0.832132 -0.300272 -0.237427 -0.412976 -0.087208 1.835585 0.109183
535 -0.402764 0.011763 0.960940 0.288309 0.592035 -0.797218 0.424501 0.882217 -0.750380 -0.088380 -1.051499 1.018658 0.921469 -1.424300 -0.367345 1.762733 0.511590 -2.199100 -0.081071 0.249453 0.514700 1.050871 0.113647 0.850843 -0.532570 -0.080115 -0.060687 -0.156739 0.194117 0.685380 1.602526 0.097345
984 -0.177244 -0.078301 -1.508902 -1.446253 0.399011 -1.260287 0.237991 -0.921902 0.551154 0.539169 -0.647824 0.184088 0.650520 -1.180248 -1.226941 1.217626 -0.146985 -0.987848 -0.298498 0.253556 0.551954 1.251317 0.671291 0.274679 0.319741 -1.592628 -0.447636 -0.505431 0.415685 0.911378 2.277037 0.708206
425 0.088338 0.150794 -0.198551 0.275955 0.740721 -0.326461 -0.370458 -0.013312 -0.121385 0.329039 -0.019074 -0.561397 0.592826 -0.663246 -0.502648 0.970259 0.464583 -0.533839 -0.822519 0.196640 0.908952 0.400997 -0.227432 0.814124 -0.769258 -0.738207 -0.318666 -0.139823 -0.182114 0.168502 1.553041 0.427983
848 1.088688 1.197299 -0.314010 0.447852 -0.547099 0.498126 0.309987 1.176515 -0.696528 1.072738 -0.654107 -0.567182 0.569188 -1.174144 -0.268127 0.698926 -0.331357 -0.973013 -1.335804 -0.617819 1.322293 0.908571 0.541749 1.530848 -0.412801 -1.403777 0.421636 0.042441 0.274517 -1.217158 1.945670 0.662483
563 0.309630 0.118749 -0.743412 -0.333982 1.126780 -0.579910 0.081343 0.145448 -0.006545 0.452823 -0.174901 0.145617 0.696483 -1.039477 -0.473366 1.085407 -0.066275 -0.888866 -0.607016 0.403043 1.339779 0.523050 0.286795 0.959308 -0.208549 -0.289751 -0.175377 -0.097209 -0.633629 0.103490 1.917312 0.402481
1024 0.177850 -0.346471 -0.343723 -0.188342 0.493576 -0.790559 -1.197814 0.559860 -0.066626 -0.962661 -0.483323 -0.107050 2.170877 -1.507109 -0.815184 0.964928 1.276307 -0.742285 -0.388889 -0.465209 0.197342 0.105026 -0.546865 1.549122 -0.041747 -1.374658 -0.660916 0.481071 0.898533 0.264868 1.541785 0.653465
1182 0.232311 -0.445849 -0.371548 -0.158057 0.462615 -0.832679 -1.152304 0.547469 -0.059509 -0.915828 -0.403887 -0.165210 2.137474 -1.535653 -0.775866 0.956623 1.343363 -0.745496 -0.390083 -0.482720 0.220053 0.165191 -0.651190 1.547084 -0.036000 -1.378906 -0.676412 0.482711 0.920218 0.340826 1.536571 0.706384
88 1.266571 -0.245097 0.211131 0.217923 -0.062773 -0.457591 -0.086394 -0.291719 -0.753266 0.498320 0.426096 0.838473 1.516296 -1.143916 0.916572 1.540319 0.788093 -0.216897 -0.328660 -0.406764 2.065591 1.239689 -0.481927 0.181601 -0.456115 -1.777389 -0.402370 -0.145010 -0.102233 -0.754572 1.595416 0.164177
501 0.231464 0.044939 -0.068494 0.165016 0.926561 -0.252920 -0.253559 -0.441152 -0.604012 0.254210 0.186620 -0.530657 0.333665 -0.961528 -0.519117 1.088156 0.718534 -0.447324 -0.769916 0.422856 0.784898 0.740849 0.061317 0.834182 -0.719012 -0.429587 -0.595865 -0.065539 -0.459028 0.153380 1.178790 0.245858
151 0.962647 0.013827 -0.998934 -0.645729 1.376150 -0.531814 0.784925 0.075105 -0.422684 1.266163 -1.079469 0.018924 0.954758 -1.907483 -0.726606 1.089684 1.654017 0.034870 -0.419365 -0.099069 0.558117 0.279418 0.314028 -0.347861 -0.630627 -0.574181 1.119205 0.049137 -0.652022 0.137912 1.724062 -0.221982
1168 0.615937 0.332715 -0.302619 0.155134 0.930705 -0.289875 -0.370000 -0.485097 -0.320355 0.266998 0.005684 -0.433549 0.493379 -1.038918 -0.652170 0.913387 0.317555 -0.709084 -0.529157 0.512779 0.701841 0.374904 0.234423 0.574098 -0.661327 -0.562074 -0.455315 -0.012121 -0.438174 0.097251 1.156453 0.589974
1203 0.890713 -0.565615 -0.874476 0.456409 0.432568 -1.123269 0.031766 0.807373 0.481278 -0.636003 -1.091909 -0.086602 1.358092 -0.518906 -0.027228 1.486803 0.473587 -0.272944 -0.784283 0.057766 1.401425 0.418734 -1.156605 1.598167 0.168756 -1.246204 -0.663622 0.881814 -1.404483 0.440634 1.664458 -0.850489
954 0.762577 -0.383475 -0.356036 -0.272090 -0.514795 -1.658179 0.473098 0.358581 -0.995483 0.879270 -0.097518 -0.218935 0.421213 -1.946917 -0.970609 -0.078666 -0.360444 -0.431697 0.396378 1.233523 2.036506 0.314694 0.618937 0.619468 -0.771178 -1.622503 -0.263532 -0.264015 -0.270515 0.729452 1.626483 0.644598
41 -0.500087 -0.778662 -0.546822 -0.337619 0.219191 -0.495641 0.153484 -0.488355 -0.160725 0.635846 0.590663 -0.052498 -0.121013 0.278395 -0.211508 2.483204 0.218186 -0.278610 -1.265024 1.022649 1.368053 0.580673 -0.572894 1.313204 1.137090 -1.294423 -1.410261 0.429101 -0.021052 0.367384 1.667686 0.284986
5 1.419755 -1.149257 -0.582592 -0.425667 0.956388 -0.665353 0.477478 -0.480793 -0.239876 0.419417 0.768511 0.584072 0.232606 -1.003340 0.397884 1.002393 0.777045 -1.336984 -0.949326 0.925773 0.560492 1.719449 -0.245490 0.512000 0.135694 -0.594828 -0.198952 -0.656433 -0.405985 1.381750 1.669257 -0.731162
470 0.312193 0.029636 -0.230947 0.119665 0.901450 -0.428770 0.042713 -0.309924 -0.738334 0.122715 0.110900 -0.621911 0.330341 -1.255257 -0.778256 1.056290 0.594171 -0.401123 -0.517294 0.738586 0.674731 0.598031 0.282193 0.677957 -0.600344 -0.569843 -0.652924 -0.115846 -0.431403 0.130613 1.105381 0.205148
474 0.152541 1.048307 -0.812286 0.015172 -0.062065 -1.577409 -0.179288 0.759069 -0.181093 -0.157725 -0.567098 0.795940 -0.062799 -1.314738 -1.091386 0.983267 0.561214 -0.697757 -0.485755 0.381771 1.469880 1.260264 -1.491900 1.512422 -0.916398 0.085998 0.266601 0.487284 -0.088470 -0.837887 1.585638 -0.163656
430 0.747817 0.974480 -1.115924 0.262155 0.659374 0.100269 -0.130710 -0.247571 -0.408362 0.925368 0.819660 0.049227 0.006950 -1.887988 -0.787851 1.278155 0.298315 0.222356 0.231688 0.721613 0.023544 -0.082744 -0.483167 1.731709 -1.083958 -0.063530 0.340114 -0.220430 -0.713666 -0.619711 1.042614 -0.368396
419 0.363067 0.156394 -0.332031 0.272205 0.958287 -0.395308 -0.227609 -0.089728 -0.234688 0.278512 -0.007110 -0.723874 0.510597 -0.900667 -0.584929 0.955470 0.439285 -0.325699 -0.776810 0.549099 0.855984 0.546956 0.121796 1.203339 -0.474549 -0.681685 -0.554111 -0.149549 -0.528265 -0.184760 1.260256 0.677935
843 0.281090 0.074113 -0.402971 0.240248 1.087383 -0.428557 -0.169380 -0.175398 -0.461342 0.239334 -0.098844 -0.641373 0.498492 -0.953474 -0.530245 0.916160 0.225315 -0.515634 -0.926245 0.435725 0.816535 0.550106 0.063871 0.906770 -0.607785 -0.477086 -0.453953 -0.339892 -0.510900 -0.050464 1.110887 0.575199
177 0.998034 0.818118 0.337790 -0.349459 0.691861 -0.145454 -0.415984 -1.012848 0.638781 0.702433 -0.421151 -0.425826 0.553990 -0.506303 -1.030879 1.315131 0.142328 -0.517351 0.396660 -0.298972 0.780221 0.334998 0.314653 1.433594 0.372170 0.053133 -0.338806 0.543483 -0.427411 1.062843 2.493209 1.061927
570 0.398189 -0.025355 0.621272 1.167923 0.574104 -0.406167 0.072354 0.012675 -0.317840 -0.221121 -0.001337 -0.907533 0.106055 -0.312016 -0.186794 0.643991 0.504981 0.303797 -1.422522 -0.142425 0.744844 0.489717 -0.434236 0.899138 -0.661767 -0.641435 -0.373511 -0.448004 -0.426711 -0.734254 0.330674 0.434141
916 0.782778 0.680786 0.552136 -0.384673 1.202322 -0.149571 -0.476402 -0.733327 0.385898 0.765385 0.125969 -0.457847 0.452539 -0.284452 -1.030628 1.487603 0.437291 -0.494713 0.161643 -0.384865 0.775695 0.324111 0.284060 1.364122 0.653630 0.184862 -0.309251 0.717772 -0.460378 1.287805 2.292096 0.903499
87 -0.033053 -0.173905 -0.837057 0.218789 1.412156 -0.225570 -0.636197 0.278372 0.836740 0.336056 -0.580010 -0.125906 1.149253 0.486221 0.183232 1.115662 -0.947920 -0.714867 -1.404871 -0.374016 1.216825 0.710128 -0.898388 1.496695 -0.341736 -0.328698 -0.142035 -0.432621 -0.188788 -0.326188 1.163798 1.045808
508 -1.066819 1.348322 -0.418618 -0.550400 1.463805 -0.822437 -0.419083 -0.279105 -0.838347 0.402053 -0.799850 -0.876736 0.617759 -0.039064 -0.870002 0.384045 0.190008 0.097952 -0.280103 0.357498 0.937991 0.124875 0.111021 0.584662 -0.240177 -0.804201 -1.188732 -0.643143 0.524215 -0.456210 1.167175 0.825555
250 0.296230 0.093144 -0.381820 0.259377 1.068150 -0.432261 -0.171945 -0.166197 -0.470062 0.250718 -0.115216 -0.641604 0.476350 -0.939664 -0.556840 0.931139 0.240897 -0.516500 -0.910513 0.450224 0.838210 0.545299 0.080017 0.883631 -0.608512 -0.478193 -0.465773 -0.340895 -0.523055 -0.050612 1.105042 0.580901
374 0.676508 0.930041 -1.062677 0.381224 0.742532 0.482508 -0.157546 -0.359499 -0.544543 0.942447 0.926488 -0.153543 0.067707 -1.693359 -0.872372 1.399037 0.293749 0.189955 0.220153 0.797057 0.034607 -0.175563 -0.453748 1.477255 -1.152538 -0.009283 0.213677 -0.431132 -0.488603 -0.613294 0.924145 -0.288393
828 1.185798 1.175766 0.500961 -1.181725 0.557645 -1.021711 -0.045440 -0.041778 -0.999288 0.264816 0.346442 -0.510417 0.619152 -1.336275 -0.288780 0.607367 0.998478 -0.345343 -0.944401 1.067427 0.415095 0.413062 0.008658 -0.341661 -1.812616 -0.593428 -0.669460 0.175924 -0.883578 0.073972 0.628240 -0.031427
325 0.742311 -0.534433 0.041043 -0.601817 0.767953 0.459633 -0.893364 0.084731 -1.714593 -0.034115 -0.429175 -0.972386 0.395445 0.055302 -0.002437 1.741653 -0.033561 0.449878 -0.846633 0.597570 0.144113 0.135277 -0.373782 0.152243 -0.933484 -0.624298 0.459473 -0.604145 -0.059325 0.396576 2.087737 0.720633
1200 -0.264143 -0.066050 -0.549768 0.313465 1.352928 -0.097531 -0.522648 0.375918 0.833294 0.459784 -0.516436 -0.109020 0.974114 0.396706 0.301255 1.110089 -0.983767 -0.991666 -1.293453 -0.238249 0.919087 0.927224 -1.011753 1.536784 -0.213570 -0.405975 -0.373509 -0.600781 -0.415266 -0.191727 1.340949 0.819187
1090 0.729639 0.839311 -0.096342 -0.066063 0.348313 1.085065 0.224157 0.014058 -0.720422 1.443304 0.033911 -0.068659 -0.175638 0.551888 -1.045338 1.652241 0.481465 -0.845108 -0.459120 0.218636 0.982408 0.427232 0.119418 0.495289 -1.187360 -1.525143 -0.459779 0.324363 -0.909152 -0.073203 1.956590 -0.438318
34 0.887523 -0.042922 -0.717874 -0.039717 0.072397 -0.552761 0.924663 0.266807 -0.576130 0.664805 -0.606384 -0.596414 -0.576400 -0.743062 -0.685553 0.575376 -0.471474 0.055697 -1.401073 0.451967 1.651215 0.298406 0.200781 1.187198 0.742776 -0.067420 -0.043377 -0.306657 -1.801362 0.010595 1.380268 0.183287
818 1.328144 1.355030 0.680114 -1.121005 0.553203 -1.026487 -0.035654 -0.156374 -1.005666 0.334226 0.402366 -0.677218 0.556699 -1.240274 -0.515179 0.652770 0.829810 -0.462523 -0.780818 1.084511 0.478256 0.311439 0.277617 -0.278482 -1.849505 -0.539091 -0.818232 0.153874 -0.810929 0.139908 0.670828 -0.076026
164 0.744258 -0.554693 0.042351 -0.600009 0.783237 0.492386 -0.933266 0.074040 -1.708903 -0.055684 -0.415132 -0.951398 0.389831 0.069660 -0.013479 1.731542 -0.056135 0.455858 -0.869838 0.578074 0.179000 0.115946 -0.391419 0.145755 -0.967688 -0.607891 0.430443 -0.615914 -0.069840 0.371144 2.065425 0.694500
188 1.298507 1.272006 0.671906 -1.089790 0.537560 -1.031543 -0.033611 -0.135745 -0.964439 0.345969 0.402963 -0.665032 0.539324 -1.263521 -0.442068 0.645475 0.848369 -0.429568 -0.836241 1.019265 0.434467 0.290583 0.206881 -0.306902 -1.865820 -0.558190 -0.736705 0.149241 -0.894283 0.091822 0.704567 -0.101611
1273 0.339358 0.144180 -0.346116 0.283758 0.943748 -0.393861 -0.210418 -0.108725 -0.236875 0.308155 0.023689 -0.682551 0.499607 -0.930436 -0.609042 0.925494 0.460119 -0.326594 -0.759202 0.537293 0.838359 0.544430 0.136955 1.173789 -0.460091 -0.672893 -0.534722 -0.096335 -0.519042 -0.169567 1.248596 0.652556
551 0.426177 0.046164 0.618605 1.125094 0.522396 -0.293817 0.079085 -0.026772 -0.484866 -0.256907 -0.076466 -0.908964 0.121175 -0.394749 -0.208157 0.537160 0.642067 0.280314 -1.323684 -0.187647 0.584789 0.408691 -0.412249 0.865340 -0.641530 -0.615681 -0.384669 -0.432979 -0.356567 -0.759741 0.328260 0.391951
1134 -0.316033 -0.171248 0.739082 -0.058778 1.504882 0.242564 0.404566 -0.570702 -1.700977 -0.047299 0.670867 -0.541963 0.668896 -1.385213 -0.772627 0.451243 1.896336 -0.462207 0.426210 0.047056 0.116852 0.729819 0.229338 0.718278 -1.179222 -0.355465 -0.497864 -0.331442 -0.287265 0.398372 1.460694 0.096864
784 0.264119 0.009879 0.743192 1.115530 0.777365 -0.380731 0.116532 -0.064518 -0.387111 -0.034071 0.135198 -0.889237 0.132655 -0.366031 -0.143245 0.539077 0.758958 0.234435 -1.290337 -0.058458 0.623271 0.359024 -0.426282 0.898420 -0.790133 -0.509016 -0.417120 -0.371293 -0.330834 -0.830492 0.198116 0.477697
477 0.375460 -0.049554 0.660352 1.136801 0.685133 -0.430046 0.083619 -0.015925 -0.418854 -0.236719 -0.062796 -0.980105 0.183135 -0.419622 -0.160274 0.572093 0.687216 0.252893 -1.421396 -0.192474 0.634295 0.470155 -0.402717 0.810721 -0.629094 -0.564033 -0.428182 -0.469313 -0.402749 -0.760453 0.242344 0.441863
1187 -0.963089 -0.545541 -0.979367 0.273440 0.416502 -1.317026 0.024688 -0.685250 -1.137475 0.492290 -0.416587 0.049120 -0.110170 -0.428447 -0.183625 0.636202 0.281060 -0.394921 -0.579879 -0.023228 1.099940 0.736373 -0.812244 0.171259 -1.165101 -1.139723 -0.650542 -0.241259 -0.869244 0.251353 1.427068 -0.740987
860 0.109948 0.108259 -0.956230 0.880875 0.854295 -0.729868 -0.214689 0.250088 -0.494568 0.482098 -0.228750 -1.053368 0.405880 -1.222342 -1.331569 0.727187 0.027541 -0.844654 -0.934393 0.895115 0.120417 -0.178374 1.248674 0.130110 0.084791 -0.236842 0.076467 -0.045912 -0.324052 -0.671974 0.434190 0.711777
370 0.363537 0.047823 0.663889 1.136792 0.776401 -0.437330 0.116212 0.000525 -0.429703 -0.185192 0.040099 -0.905501 0.166826 -0.372481 -0.200467 0.518287 0.713684 0.185344 -1.268745 -0.092632 0.661769 0.518402 -0.373248 0.924738 -0.637830 -0.503641 -0.434968 -0.538171 -0.363628 -0.817344 0.182824 0.487371
398 1.098526 0.014048 -0.918220 0.012992 0.151831 -0.551647 0.755937 0.339241 -0.487226 0.635487 -0.416382 -0.663315 -0.538458 -0.693176 -0.710818 0.681258 -0.592471 -0.058590 -1.550398 0.412984 1.681368 0.163665 0.101477 1.086452 0.774943 0.009260 -0.117738 -0.218676 -1.871457 -0.145991 1.338757 0.138595
1108 -0.811927 -0.180385 -0.368587 0.007365 1.572173 -0.532637 0.020817 -0.132798 0.005149 0.733041 0.732793 -0.626478 -0.295033 -0.786748 -0.432176 0.685515 0.822419 -0.705335 -0.871285 1.495281 0.572284 0.830365 -0.436910 0.853037 -0.287693 0.686024 -0.569174 -0.694916 -0.103167 0.664069 0.294596 0.775137
751 -0.036504 -0.723159 0.020457 -0.626271 1.176463 -0.092459 0.433043 0.029700 -0.848687 0.118516 -0.315242 0.383558 0.776762 -1.978002 0.185827 1.372019 0.038070 0.247633 -0.528835 0.326510 0.912369 1.574232 0.015308 1.523112 -0.211803 -0.674199 -0.590380 -0.002118 -0.545047 0.544635 -0.602314 0.597002
1243 -0.127708 0.112754 -0.218894 -0.186493 1.070486 0.108363 -1.099335 0.284351 -0.144915 -0.710631 0.587868 0.040497 0.312562 -0.300517 -0.660940 1.212572 0.252333 -0.266523 -0.841919 1.068215 0.758024 0.337635 0.507134 0.459635 -0.650766 -0.317409 -1.394276 -0.486782 -0.453776 -0.459458 1.166086 -1.026209
1121 0.256217 0.015487 0.755357 1.191801 0.704871 -0.353926 0.037937 -0.104546 -0.335533 -0.132465 0.077488 -0.869377 0.167265 -0.293164 -0.166712 0.549665 0.568822 0.243784 -1.353307 -0.108620 0.658966 0.356739 -0.485386 0.821584 -0.865603 -0.617006 -0.407213 -0.351750 -0.381705 -0.774196 0.357086 0.430499
186 0.666896 -0.270326 -0.713819 -0.169718 -0.042929 0.303382 -0.206898 -0.423070 0.518369 0.621581 -0.468311 -0.449433 0.173101 -1.849693 0.104158 0.890266 0.260635 -0.585235 -1.491092 0.390073 0.929757 -0.499485 -0.553572 0.628888 -0.467920 -0.343163 0.166130 -0.129695 0.512545 0.480886 0.925964 1.424713
53 0.070633 0.149097 -0.951745 0.843331 0.890296 -0.774753 -0.220731 0.276983 -0.479361 0.468561 -0.337432 -1.019975 0.379085 -1.238409 -1.352561 0.746963 -0.035609 -0.795267 -0.922549 0.914229 0.195821 -0.199984 1.199113 0.105731 0.074948 -0.266120 0.092345 -0.068356 -0.369004 -0.755920 0.453779 0.690222
208 -0.920865 -0.366026 -1.086178 0.312727 0.248389 -1.459312 0.010099 -0.661083 -1.128025 0.634496 -0.367861 -0.021200 0.109444 -0.576702 -0.197402 0.558997 0.443139 -0.377484 -0.343522 0.101855 0.919967 0.627362 -0.666176 0.348294 -1.301636 -1.177097 -0.754596 -0.331572 -0.825860 0.310928 1.530463 -0.884402
1225 -0.336157 -0.153223 0.699036 -0.101168 1.396240 0.218017 0.433297 -0.514010 -1.652637 -0.043305 0.671242 -0.475713 0.688343 -1.408760 -0.724518 0.394762 1.949067 -0.412999 0.407404 0.042790 0.110848 0.707347 0.221885 0.753043 -1.122911 -0.378922 -0.522790 -0.339178 -0.247517 0.437749 1.478369 0.064101
219 0.399976 0.003644 0.620164 1.114431 0.592870 -0.361349 0.149128 0.020102 -0.476549 -0.227506 -0.013066 -0.842563 0.148544 -0.392146 -0.223871 0.507286 0.628591 0.287466 -1.305470 -0.078984 0.644548 0.440564 -0.405582 0.839032 -0.812744 -0.607741 -0.349007 -0.478420 -0.402935 -0.815225 0.273969 0.379831
721 -0.115099 0.146663 -0.203444 -0.215697 1.095054 0.136044 -1.113195 0.295737 -0.158026 -0.676602 0.618211 0.041006 0.282707 -0.250170 -0.677245 1.213971 0.197188 -0.236132 -0.795531 1.068601 0.760000 0.324687 0.450483 0.477037 -0.648804 -0.309542 -1.400708 -0.520330 -0.460217 -0.525114 1.145236 -1.073241
338 -0.752133 -0.146882 -0.367510 -0.004813 1.552092 -0.468382 0.070359 -0.159537 -0.097818 0.686490 0.680918 -0.615844 -0.383875 -0.886379 -0.413935 0.591320 0.933774 -0.640353 -0.856545 1.504123 0.692984 0.754106 -0.383524 0.789939 -0.334099 0.818349 -0.513030 -0.711281 -0.224590 0.577518 0.377809 0.840759
173 1.032734 0.018272 -0.881310 0.017551 0.176330 -0.571873 0.775119 0.312256 -0.475914 0.648910 -0.427043 -0.677199 -0.544638 -0.654440 -0.679583 0.670788 -0.572779 -0.061370 -1.488000 0.408972 1.660608 0.171685 0.115540 1.079140 0.769028 -0.013140 -0.129228 -0.223309 -1.865720 -0.118646 1.347474 0.167894
1192 0.830832 0.435793 -0.001091 -0.011905 0.682242 -0.427738 -0.403026 -0.674612 -0.425391 0.140258 0.107959 -0.462348 0.104476 -0.206430 -0.915157 1.745753 -1.310246 -0.390203 -0.041432 1.020171 1.083570 0.799277 -0.158232 0.327551 0.158340 -0.413171 -0.953032 -1.242626 -0.784748 0.114085 0.280611 1.217563
197 0.359437 0.010255 0.679294 1.102265 0.785400 -0.438726 0.121511 0.030295 -0.431477 -0.134480 0.077632 -0.849830 0.144340 -0.421267 -0.228173 0.552876 0.850344 0.177414 -1.288767 -0.120439 0.711313 0.503533 -0.404622 0.881849 -0.620161 -0.485339 -0.386617 -0.548707 -0.412353 -0.819340 0.131339 0.468920
32 -0.917845 -0.539068 -1.026863 0.295829 0.507764 -1.371783 0.029154 -0.693674 -1.168115 0.564592 -0.381550 0.048483 -0.109770 -0.418253 -0.248760 0.646185 0.332387 -0.442208 -0.598782 0.065410 1.034703 0.775613 -0.778246 0.191612 -1.178732 -1.145875 -0.692546 -0.328669 -0.832637 0.174024 1.391943 -0.722328
139 0.371132 -1.269257 -1.528432 -0.581771 1.219684 -0.145460 -0.377442 0.477503 -0.223688 0.271384 0.639944 -0.628879 0.317680 -0.686180 -0.126648 0.214925 0.125025 -0.499482 -0.705564 0.727917 0.742171 0.259750 0.287649 0.537205 -1.864106 -1.403822 0.194207 -0.667692 -0.542893 -0.372680 0.452720 0.535942
1194 -0.289387 -0.226583 0.705986 -0.097525 1.352223 0.218783 0.430077 -0.457990 -1.645236 -0.073119 0.708340 -0.397505 0.690463 -1.448484 -0.652517 0.426361 2.019254 -0.420406 0.445778 0.097263 0.134324 0.713575 0.169320 0.740123 -1.100391 -0.370035 -0.510790 -0.316300 -0.206568 0.460120 1.504643 0.075596
519 0.408354 -0.005070 0.636331 1.211438 0.684135 -0.458927 0.147858 -0.001174 -0.466753 -0.144241 0.045204 -0.890630 0.142129 -0.365281 -0.162989 0.502132 0.691883 0.251579 -1.337154 -0.044168 0.762552 0.547640 -0.389378 0.978358 -0.689766 -0.592581 -0.440303 -0.495589 -0.457706 -0.799072 0.185262 0.405266
498 0.326482 -0.038240 0.595693 1.194577 0.671518 -0.412173 0.048403 -0.023385 -0.443224 -0.183224 0.020746 -0.953574 0.175676 -0.317568 -0.197205 0.505419 0.626895 0.242765 -1.335509 -0.116448 0.697176 0.437413 -0.443825 0.870754 -0.752817 -0.593106 -0.323865 -0.468480 -0.400728 -0.793245 0.256042 0.419939
578 0.405521 -0.075278 0.617456 1.183140 0.546205 -0.410378 0.098081 -0.011500 -0.445521 -0.307596 -0.061060 -0.954685 0.086020 -0.413199 -0.178488 0.525575 0.593649 0.301679 -1.471254 -0.142036 0.725106 0.497459 -0.379403 0.853646 -0.668894 -0.580834 -0.386046 -0.480826 -0.477482 -0.722775 0.278186 0.387898
1084 1.090220 0.281426 0.429362 0.137404 0.581175 -0.483572 -0.234758 -0.463699 -0.667993 -0.116134 0.211232 -0.335626 0.199097 -0.046166 -0.892397 1.762005 -0.671142 -0.861291 0.070477 1.036732 0.604037 1.045823 -0.033540 0.172769 0.184247 -0.492541 -0.755509 -1.033045 -0.618631 0.291585 0.524392 1.036548
511 0.352694 -0.049778 0.571630 1.115061 0.797794 -0.398076 0.103810 0.088899 -0.408526 -0.241514 -0.005236 -0.929204 0.201581 -0.306868 -0.161329 0.585628 0.594404 0.175188 -1.362473 -0.148764 0.730710 0.460114 -0.383357 0.846772 -0.703571 -0.556084 -0.441258 -0.562244 -0.417297 -0.883258 0.151320 0.513584
898 0.553546 -0.724302 0.098433 0.311394 1.459717 -1.229607 -0.345972 -1.507338 0.023601 -0.225257 -0.413534 -1.132413 0.617250 -1.198123 -0.865523 0.797821 0.453538 -0.763637 -0.273239 -0.557145 0.229003 0.081005 0.282310 -0.258458 -0.830775 -1.307507 -0.798955 0.123091 0.167897 0.760846 0.706633 0.480278
948 1.091954 0.332002 0.259523 0.079858 0.596084 -0.525118 -0.253915 -0.579600 -0.510134 -0.052909 0.143105 -0.372405 0.237250 -0.155076 -0.907611 1.775794 -0.917468 -0.703947 0.048311 1.030086 0.809982 0.980181 -0.016506 0.336786 0.263033 -0.542209 -0.867235 -1.201276 -0.687470 0.199352 0.417002 1.135856
1106 0.659183 -0.749983 -0.072072 0.358052 1.410498 -1.396370 -0.408726 -1.398677 -0.217808 -0.328579 -0.473574 -0.989744 0.493716 -1.275120 -0.520109 0.566955 0.515965 -0.718762 -0.741205 -0.320699 0.071901 0.496752 0.266310 -0.218620 -0.305482 -0.844743 -0.699586 0.236783 -0.168707 1.171706 0.684392 0.488773
1046 0.333207 -0.076640 0.675906 1.116354 0.674706 -0.394314 0.105111 -0.047321 -0.459353 -0.161556 -0.065073 -0.927299 0.088887 -0.372430 -0.174882 0.528281 0.640918 0.281785 -1.361186 -0.105801 0.690162 0.540016 -0.329944 0.932743 -0.607379 -0.543491 -0.442954 -0.457403 -0.382047 -0.687428 0.242708 0.408174
71 0.342301 -1.259268 -1.524259 -0.559645 1.237988 -0.168022 -0.379827 0.444665 -0.213105 0.288881 0.599411 -0.627379 0.323193 -0.690931 -0.139833 0.207400 0.135563 -0.515602 -0.710893 0.705935 0.731368 0.256516 0.306222 0.531341 -1.836291 -1.385256 0.236368 -0.663105 -0.533352 -0.340430 0.482874 0.545337
619 0.543674 -0.716280 0.046792 0.299675 1.466549 -1.277604 -0.444516 -1.512596 -0.180449 -0.268686 -0.525809 -1.051261 0.553079 -1.287070 -0.653199 0.701913 0.506754 -0.752534 -0.475430 -0.467088 0.138534 0.285093 0.301719 -0.320714 -0.618122 -0.994753 -0.727012 0.151321 0.008463 0.992271 0.614855 0.570233
489 0.346697 0.009555 0.653539 1.201814 0.794052 -0.434475 0.118580 0.012269 -0.478835 -0.136174 -0.012141 -0.918850 0.131786 -0.350907 -0.219350 0.487608 0.696122 0.242107 -1.320656 -0.081251 0.764686 0.565612 -0.327737 1.028108 -0.644152 -0.452626 -0.372587 -0.504946 -0.442483 -0.701421 0.163842 0.463973
84 -0.192465 0.094299 -0.253351 -0.147404 1.071946 0.144842 -1.104244 0.352138 -0.117682 -0.684921 0.554409 0.066119 0.339589 -0.331881 -0.651978 1.234325 0.205713 -0.275308 -0.910734 1.092989 0.739672 0.341295 0.504592 0.521693 -0.644364 -0.290179 -1.375388 -0.468953 -0.437938 -0.515492 1.155368 -0.993922
926 0.321738 -1.282949 -1.549882 -0.581878 1.196498 -0.166220 -0.361563 0.453017 -0.231919 0.282794 0.599431 -0.623323 0.327412 -0.713375 -0.169858 0.224790 0.114769 -0.506596 -0.701181 0.730893 0.702451 0.262750 0.313006 0.541536 -1.855344 -1.364328 0.224726 -0.656341 -0.537159 -0.338596 0.460659 0.524357
1133 1.038542 0.237639 -0.255369 0.277220 0.773595 -0.377981 -0.239126 -0.616188 -0.503490 -0.189072 -0.957801 0.230601 0.738406 -1.527685 -0.439711 -0.244128 -0.520760 -0.949205 -0.029829 0.387982 1.145532 -0.197292 0.270923 0.711176 -1.808412 0.332585 -0.615328 -0.780329 -0.823100 -0.609859 0.723691 1.075901
1111 0.603048 -0.255250 -0.222193 -0.429394 1.005965 0.120613 0.397851 0.064647 -0.685055 -0.355177 -0.245775 0.818784 0.770740 -1.685680 0.294689 1.161706 0.058366 0.129921 -0.736618 0.174210 0.815975 1.523900 -0.102521 1.610379 -0.445768 -0.118900 -0.795114 -0.063149 -0.973023 0.562555 -0.314741 0.814478
380 0.304298 -0.036828 0.622533 1.117462 0.654350 -0.429550 0.066493 -0.031263 -0.349696 -0.206267 -0.035756 -0.919943 0.152014 -0.330688 -0.208751 0.606159 0.593802 0.259644 -1.352176 -0.140979 0.680597 0.417331 -0.487925 0.818956 -0.742742 -0.649068 -0.451768 -0.434319 -0.375775 -0.751013 0.258042 0.412935
512 0.239405 -0.035268 0.686308 1.146259 0.713047 -0.392856 0.093776 -0.049606 -0.419498 -0.192257 0.030086 -0.913229 0.110184 -0.380502 -0.209823 0.505367 0.632093 0.250368 -1.303343 -0.088012 0.651093 0.465133 -0.369991 0.874431 -0.751618 -0.534433 -0.464782 -0.472964 -0.375227 -0.747311 0.237364 0.439472
539 0.375180 -0.061216 0.598016 1.178323 0.595854 -0.439487 0.102667 -0.008550 -0.482265 -0.231678 -0.067379 -0.953389 0.145334 -0.366639 -0.208478 0.504823 0.657831 0.280329 -1.369785 -0.128779 0.701141 0.513159 -0.423089 0.854884 -0.709638 -0.546602 -0.345199 -0.478794 -0.444937 -0.702819 0.246373 0.401361
334 0.167318 0.112474 -0.943444 0.856984 0.921776 -0.732998 -0.244963 0.304589 -0.520898 0.512059 -0.302175 -1.083091 0.358080 -1.155064 -1.273089 0.713072 -0.102537 -0.881143 -0.940199 0.840550 0.074335 -0.195061 1.195425 0.176301 0.081810 -0.227711 0.108939 -0.081260 -0.334156 -0.709870 0.404772 0.719840
438 0.309466 -0.040415 0.606435 1.244793 0.639452 -0.427419 0.058267 -0.048386 -0.383229 -0.172471 -0.008121 -0.940205 0.162112 -0.304591 -0.219686 0.498850 0.558292 0.266217 -1.353163 -0.136109 0.803734 0.496302 -0.397335 0.956054 -0.698498 -0.568881 -0.325160 -0.401344 -0.436310 -0.597532 0.260876 0.398709
280 -0.169809 0.086082 -0.233814 -0.128267 1.042541 0.139307 -1.073512 0.315041 -0.180427 -0.683544 0.545978 0.057424 0.280653 -0.314960 -0.715945 1.204431 0.234267 -0.296113 -0.853755 1.114131 0.762136 0.296051 0.524651 0.489220 -0.666474 -0.280279 -1.343975 -0.505203 -0.481854 -0.534193 1.167379 -1.032284
867 -0.135082 0.166626 -0.229660 -0.201125 1.098000 0.121351 -1.129718 0.284105 -0.101729 -0.685354 0.617721 0.070852 0.270677 -0.224079 -0.699021 1.255574 0.187770 -0.239387 -0.842524 1.124689 0.825730 0.327185 0.413192 0.497725 -0.685736 -0.351304 -1.396849 -0.563455 -0.504750 -0.533811 1.162282 -1.043512
237 0.717441 -0.715490 -0.039608 0.443656 1.357040 -1.498494 -0.434390 -1.309866 -0.363939 -0.402891 -0.555143 -0.917740 0.339188 -1.367856 -0.447629 0.503027 0.529330 -0.711842 -0.950085 -0.248049 0.044481 0.689825 0.249738 -0.165360 -0.138065 -0.568327 -0.632978 0.212487 -0.403169 1.373143 0.626595 0.488825
542 0.290807 -0.017038 0.687713 1.171348 0.789840 -0.434549 0.105480 -0.009489 -0.438012 -0.177614 0.022887 -0.946606 0.176102 -0.386442 -0.250570 0.516348 0.679254 0.245966 -1.344742 -0.158208 0.696082 0.498068 -0.435466 0.840331 -0.693990 -0.582938 -0.416157 -0.492130 -0.355540 -0.760757 0.218104 0.419394
138 0.697121 -0.698573 -0.033261 0.419186 1.336282 -1.487257 -0.459617 -1.313767 -0.313401 -0.414368 -0.542202 -0.900452 0.359809 -1.312045 -0.417935 0.521747 0.526525 -0.714308 -0.932662 -0.236066 0.084150 0.689644 0.221290 -0.162522 -0.179820 -0.572920 -0.644140 0.200789 -0.371484 1.368046 0.649620 0.470021
